//Numpy array shape [3, 3, 1, 2]
//Min -1.000000000000
//Max 0.968750000000
//Number of zeros 0

#ifndef W4_H_
#define W4_H_

#ifndef __SYNTHESIS__
weight4_t w4[81];
#else
weight4_t w4[81] = {0.1171875, 0.1328125, 0.140625, 0.15625, 0.19921875, -1.80078125, -1.7890625, -0.75, -0.6328125, -0.62109375, -0.58984375, 0.20703125, -1.7109375, -0.4453125, -0.35546875, -1.96484375, 0.28515625, 0.71875, -1.765625, -1.03125, -0.29296875, 0.9921875, -1.33203125, 0.453125, -1.37890625, 1.6171875, -1.67578125, 1.8671875, 0.94921875, -1.8046875, -1.75390625, -1.99609375, -1.72265625, 0.5078125, 1.02734375, 1.7421875, 1.0234375, -1.984375, -1.125, -0.3515625, 0.359375, -0.90234375, -0.5859375, 0.13671875, 0.74609375, -0.5078125, 1.6015625, 0.84375, 0.80859375, 1.875, -1.1875, -0.64453125, -0.38671875, 1.58984375, -1.0703125, 0.33203125, -0.2421875, 0.4609375, -0.84765625, -0.3046875, -0.43359375, 0.72265625, 0.30078125, -0.2734375, 1.4765625, 1.234375, 0.0234375, 0.6484375, 0.0234375, -0.91796875, 0.25390625, 1.48046875, 0.85546875, 1.9140625, 0.84765625, 0.36328125, -0.140625, 1.9453125, -0.04296875, -0.02734375, 1.9921875};

#endif

#endif
