//Numpy array shape [32, 10]
//Min -1.000000000000
//Max 0.968750000000
//Number of zeros 7

#ifndef W14_H_
#define W14_H_

#ifndef __SYNTHESIS__
weight14_t w14[320];
#else
weight14_t w14[320] = {-1.00000, 0.96875, -0.75000, 0.96875, -0.34375, 0.34375, -1.00000, 0.96875, -1.00000, 0.96875, 0.96875, -1.00000, -0.75000, -1.00000, 0.96875, 0.06250, -1.00000, -0.46875, 0.96875, 0.96875, -1.00000, -1.00000, 0.96875, 0.96875, 0.53125, -1.00000, -1.00000, -0.46875, 0.96875, -0.59375, -1.00000, 0.50000, 0.53125, -1.00000, 0.96875, -1.00000, 0.96875, -1.00000, 0.96875, 0.96875, 0.96875, 0.96875, -0.71875, 0.81250, -1.00000, 0.03125, -1.00000, -0.21875, 0.96875, -1.00000, 0.18750, -0.15625, 0.31250, 0.18750, -0.03125, -0.12500, 0.03125, -0.09375, -0.18750, -0.37500, 0.96875, -1.00000, 0.96875, -0.68750, -0.40625, -0.15625, -1.00000, -1.00000, -1.00000, -1.00000, 0.96875, 0.96875, 0.96875, -1.00000, -0.28125, -1.00000, 0.03125, 0.96875, -1.00000, 0.28125, -0.15625, -0.25000, -0.28125, 0.18750, -0.28125, -0.25000, -0.25000, -0.56250, 0.00000, 0.18750, -0.09375, 0.25000, -0.03125, 0.12500, 0.25000, 0.37500, -0.34375, -0.06250, 0.21875, -0.03125, -1.00000, 0.96875, -0.31250, 0.00000, -1.00000, 0.96875, 0.96875, -1.00000, 0.96875, -1.00000, 0.18750, 0.18750, 0.00000, -0.53125, 0.06250, 0.00000, -0.21875, -0.50000, 0.40625, 0.09375, 0.62500, -1.00000, 0.96875, 0.96875, -1.00000, 0.96875, -1.00000, 0.96875, 0.96875, -0.31250, -1.00000, -1.00000, 0.81250, 0.46875, 0.96875, -1.00000, 0.96875, -1.00000, -0.06250, -1.00000, 0.96875, -1.00000, 0.71875, -0.62500, -0.75000, 0.96875, 0.96875, 0.18750, -1.00000, -1.00000, -0.93750, 0.96875, -1.00000, 0.62500, -1.00000, -1.00000, -1.00000, 0.96875, 0.96875, 0.96875, 0.96875, -1.00000, -1.00000, -1.00000, 0.96875, 0.96875, 0.96875, -0.21875, -0.15625, -1.00000, 0.96875, 0.96875, -1.00000, 0.56250, -1.00000, 0.96875, -0.09375, -1.00000, -0.50000, -0.96875, -1.00000, 0.96875, 0.96875, -1.00000, 0.40625, 0.96875, 0.96875, -1.00000, 0.75000, -0.59375, -1.00000, -1.00000, -0.21875, -1.00000, 0.96875, -1.00000, -1.00000, 0.96875, -1.00000, 0.96875, -1.00000, -1.00000, -1.00000, 0.96875, 0.96875, 0.96875, -1.00000, -1.00000, 0.78125, 0.96875, 0.96875, -1.00000, 0.96875, 0.21875, -0.40625, -1.00000, 0.96875, -1.00000, -0.96875, -0.50000, -0.28125, -0.46875, 0.15625, 0.37500, -0.46875, 0.00000, 0.03125, 0.00000, 0.34375, -0.43750, 0.96875, -1.00000, -1.00000, 0.96875, 0.96875, 0.96875, 0.37500, -1.00000, -0.40625, 0.96875, -0.09375, 0.12500, 0.12500, -0.28125, 0.28125, 0.06250, -0.53125, -0.15625, 0.15625, 0.09375, -0.37500, -0.21875, -0.28125, 0.25000, -0.18750, -0.34375, -0.12500, 0.37500, -0.06250, -0.40625, -0.21875, -1.00000, -1.00000, -1.00000, -0.28125, 0.96875, 0.96875, 0.65625, 0.96875, 0.96875, -0.46875, -0.28125, -0.03125, -0.15625, -0.25000, 0.40625, -0.37500, -0.12500, -0.28125, 0.37500, -1.00000, -1.00000, 0.96875, 0.96875, -1.00000, 0.96875, -1.00000, 0.96875, -1.00000, -0.03125, -0.18750, 0.21875, -0.34375, -0.06250, -0.37500, 0.50000, -0.31250, -0.43750, 0.00000, -0.18750, -1.00000, 0.96875, -1.00000, -1.00000, 0.96875, 0.34375, -1.00000, 0.96875, -1.00000, -1.00000, -1.00000, 0.96875, 0.96875, 0.96875, 0.12500, -1.00000, -1.00000, -0.25000, -1.00000, 0.68750};

#endif

#endif
