//Numpy array shape [32, 10]
//Min -1.000000000000
//Max 0.968750000000
//Number of zeros 4

#ifndef W14_H_
#define W14_H_

#ifndef __SYNTHESIS__
weight14_t w14[320];
#else
weight14_t w14[320] = {0.96875, 0.96875, -1.00000, -1.00000, -0.65625, 0.84375, 0.34375, 0.96875, -1.00000, -1.00000, 0.96875, -1.00000, -1.00000, -1.00000, 0.68750, 0.59375, -1.00000, 0.46875, 0.96875, 0.96875, -1.00000, 0.68750, 0.96875, -0.06250, 0.65625, -1.00000, 0.96875, -1.00000, 0.96875, -1.00000, -1.00000, -1.00000, -1.00000, 0.96875, 0.96875, -0.28125, -1.00000, 0.96875, -1.00000, 0.96875, -1.00000, 0.96875, 0.96875, 0.96875, -1.00000, -1.00000, -1.00000, 0.96875, -1.00000, -1.00000, 0.96875, -1.00000, 0.96875, 0.96875, -1.00000, -0.53125, -1.00000, -0.31250, 0.28125, -1.00000, 0.96875, -1.00000, 0.96875, -1.00000, 0.96875, -1.00000, -1.00000, 0.40625, -1.00000, 0.37500, 0.96875, -0.96875, 0.75000, -0.09375, -1.00000, -1.00000, -0.96875, 0.96875, -1.00000, -1.00000, 0.12500, -1.00000, 0.28125, 0.96875, -1.00000, 0.25000, -1.00000, -1.00000, 0.96875, 0.96875, -0.09375, 0.25000, -0.06250, 0.12500, 0.25000, 0.37500, -0.34375, 0.00000, 0.21875, -0.03125, -1.00000, -1.00000, -1.00000, 0.96875, -1.00000, 0.96875, -1.00000, -1.00000, -0.43750, -0.96875, -1.00000, 0.68750, 0.96875, -1.00000, -1.00000, -1.00000, 0.96875, -0.96875, 0.96875, 0.00000, 0.96875, -1.00000, 0.96875, -0.84375, -1.00000, 0.96875, -0.96875, 0.96875, 0.96875, -1.00000, 0.96875, -0.96875, 0.96875, -1.00000, -1.00000, 0.96875, -0.53125, 0.06250, -1.00000, -1.00000, -1.00000, -1.00000, 0.96875, -1.00000, 0.96875, -0.96875, -0.21875, 0.96875, -1.00000, 0.96875, -1.00000, -0.18750, -1.00000, 0.96875, -1.00000, 0.96875, -1.00000, 0.96875, 0.96875, 0.40625, -1.00000, 0.96875, -1.00000, 0.15625, 0.96875, 0.62500, -1.00000, -1.00000, 0.96875, -1.00000, 0.96875, 0.96875, -0.12500, 0.43750, -1.00000, -1.00000, -1.00000, -1.00000, -1.00000, -0.46875, -0.40625, -1.00000, 0.96875, -0.25000, 0.96875, 0.59375, 0.96875, -1.00000, -1.00000, -1.00000, 0.53125, -1.00000, -1.00000, -1.00000, 0.96875, -1.00000, 0.96875, 0.96875, 0.90625, 0.96875, -1.00000, -1.00000, -1.00000, 0.96875, 0.68750, 0.96875, -1.00000, -1.00000, -1.00000, 0.96875, 0.96875, -1.00000, -0.87500, 0.31250, 0.43750, 0.43750, 0.96875, -1.00000, -0.40625, 0.96875, -1.00000, -1.00000, -0.06250, 0.96875, -1.00000, 0.96875, -1.00000, 0.96875, -0.31250, -0.87500, 0.96875, -1.00000, -1.00000, 0.62500, -1.00000, 0.96875, 0.96875, -0.46875, -1.00000, -1.00000, -0.06250, 0.15625, 0.15625, -0.28125, 0.28125, 0.00000, -0.50000, -0.15625, 0.18750, 0.09375, -1.00000, 0.18750, 0.96875, 0.96875, 0.96875, -1.00000, -1.00000, 0.96875, -0.25000, 0.96875, 0.40625, -1.00000, -1.00000, -1.00000, 0.96875, 0.96875, 0.96875, -0.68750, 0.59375, -1.00000, -1.00000, 0.96875, -1.00000, -1.00000, 0.96875, 0.96875, -1.00000, -0.90625, -1.00000, 0.96875, -1.00000, 0.96875, 0.96875, 0.87500, -1.00000, -1.00000, 0.40625, 0.96875, -1.00000, 0.28125, -1.00000, 0.96875, -1.00000, -1.00000, -1.00000, 0.96875, 0.96875, -1.00000, -1.00000, -0.15625, 0.96875, 0.96875, -1.00000, -1.00000, -0.87500, -1.00000, 0.62500, 0.96875, -1.00000, -0.28125, -0.40625, 0.15625, 0.34375, -0.34375, 0.03125, 0.00000, -0.18750, -0.15625, -0.15625, 0.15625};

#endif

#endif
