//Numpy array shape [243, 16]
//Min -4.755859375000
//Max 1.015625000000
//Number of zeros 6

#ifndef W10_H_
#define W10_H_

#ifndef __SYNTHESIS__
weight10_t w10[3888];
#else
weight10_t w10[3888] = {0.191406250, 0.072265625, 0.246093750, -0.380859375, 0.128906250, -0.101562500, 0.121093750, -2.091796875, 0.140625000, -1.212890625, 0.105468750, 0.197265625, 0.121093750, 0.375000000, 0.091796875, 0.060546875, 0.339843750, 0.460937500, 0.482421875, -0.212890625, 0.480468750, -0.408203125, 0.191406250, -1.744140625, 0.179687500, -1.167968750, 0.208984375, 0.287109375, 0.351562500, -0.191406250, 0.341796875, -0.062500000, 0.238281250, 0.363281250, 0.437500000, -0.726562500, 0.533203125, -0.140625000, 0.218750000, -1.835937500, 0.292968750, -1.562500000, 0.298828125, 0.416015625, 0.544921875, 0.236328125, 0.228515625, 0.210937500, -0.146484375, -0.294921875, -0.177734375, 0.181640625, -0.279296875, -0.265625000, -0.191406250, -0.681640625, -0.291015625, -2.152343750, -0.273437500, -0.101562500, -0.259765625, -0.484375000, -0.267578125, -1.357421875, 0.355468750, 0.326171875, 0.564453125, -0.179687500, 0.318359375, -0.164062500, 0.300781250, 0.603515625, 0.388671875, -1.527343750, 0.398437500, 0.208984375, 0.398437500, -0.037109375, 0.285156250, 0.076171875, -0.023437500, 0.273437500, 0.167968750, -0.101562500, 0.226562500, -0.367187500, 0.070312500, -1.041015625, 0.265625000, -2.000000000, 0.212890625, 0.179687500, 0.158203125, -0.007812500, 0.181640625, -0.695312500, 0.000000000, 0.082031250, 0.070312500, 0.003906250, 0.025390625, -0.128906250, 0.203125000, -1.966796875, -0.132812500, 0.285156250, 0.097656250, -0.005859375, 0.001953125, 0.072265625, 0.253906250, -0.458984375, 0.136718750, 0.248046875, 0.304687500, -0.218750000, 0.259765625, -0.076171875, 0.021484375, -2.144531250, 0.144531250, 0.228515625, 0.259765625, 0.253906250, 0.169921875, -0.123046875, 0.234375000, -0.222656250, 0.398437500, 0.353515625, 0.269531250, -0.310546875, 0.226562500, -0.158203125, 0.449218750, -2.464843750, 0.322265625, 0.328125000, 0.240234375, 0.316406250, 0.472656250, -0.542968750, 0.302734375, -0.873046875, -0.138671875, -0.250000000, -0.126953125, 0.248046875, -0.167968750, -0.289062500, -0.009765625, -0.531250000, -0.177734375, 0.158203125, -0.136718750, -0.060546875, -0.056640625, -0.148437500, -0.162109375, -0.533203125, 0.083984375, 0.271484375, 0.166015625, 0.001953125, 0.269531250, -0.210937500, 0.144531250, 0.169921875, 0.097656250, -0.197265625, 0.156250000, 0.066406250, 0.320312500, -0.296875000, 0.123046875, -0.230468750, 0.355468750, 0.349609375, 0.480468750, -0.183593750, 0.308593750, -0.029296875, 0.345703125, -1.388671875, 0.261718750, 0.419921875, 0.433593750, 0.308593750, 0.285156250, -0.621093750, 0.207031250, -1.166015625, -0.021484375, -0.019531250, 0.009765625, -0.503906250, 0.179687500, -0.177734375, -0.009765625, 0.255859375, 0.023437500, -1.505859375, 0.177734375, -0.007812500, -0.003906250, -1.765625000, 0.074218750, -1.037109375, 0.212890625, 0.091796875, 0.269531250, -0.255859375, 0.119140625, 0.064453125, -0.078125000, 0.078125000, -0.076171875, -2.097656250, 0.109375000, 0.175781250, 0.273437500, -1.222656250, 0.199218750, -0.199218750, 0.371093750, 0.164062500, 0.099609375, -0.458984375, 0.275390625, -0.478515625, 0.066406250, 0.003906250, 0.064453125, -1.701171875, 0.253906250, 0.308593750, 0.236328125, -1.462890625, 0.169921875, -0.714843750, 0.193359375, 0.003906250, 0.093750000, -0.380859375, 0.111328125, -1.853515625, 0.068359375, 0.498046875, 0.201171875, 0.414062500, 0.083984375, 0.089843750, 0.105468750, 0.416015625, 0.052734375, -0.921875000, 0.541015625, 0.494140625, 0.498046875, -0.566406250, 0.427734375, -0.876953125, 0.273437500, 0.103515625, 0.361328125, -0.599609375, 0.285156250, 0.376953125, 0.517578125, 0.289062500, 0.458984375, -0.031250000, 0.421875000, 0.310546875, 0.316406250, -0.437500000, 0.255859375, -1.480468750, 0.220703125, -0.304687500, 0.283203125, -0.548828125, 0.373046875, 0.193359375, 0.375000000, -0.876953125, 0.265625000, 0.052734375, -0.015625000, 0.271484375, 0.121093750, -0.474609375, 0.187500000, -0.230468750, -0.078125000, 0.289062500, -0.019531250, 0.191406250, -0.068359375, -0.064453125, 0.099609375, 0.439453125, 0.017578125, -1.072265625, 0.230468750, 0.072265625, 0.294921875, -0.400390625, 0.371093750, 0.146484375, 0.222656250, -0.017578125, 0.175781250, -0.945312500, 0.226562500, 0.246093750, 0.394531250, 0.046875000, 0.197265625, -0.011718750, 0.123046875, 0.314453125, 0.337890625, -0.478515625, 0.341796875, -1.218750000, 0.353515625, 0.126953125, 0.169921875, -0.275390625, 0.466796875, 0.234375000, 0.296875000, -0.826171875, 0.371093750, -0.701171875, 0.177734375, 0.009765625, -0.011718750, -1.158203125, 0.050781250, -0.132812500, -0.089843750, 0.005859375, -0.082031250, 0.462890625, 0.064453125, -0.068359375, 0.107421875, -0.177734375, -0.021484375, -1.148437500, 0.378906250, 0.189453125, 0.316406250, -0.523437500, 0.279296875, 0.091796875, 0.236328125, -0.048828125, 0.138671875, 0.396484375, 0.232421875, 0.273437500, 0.318359375, 0.064453125, 0.167968750, -0.089843750, 0.267578125, 0.443359375, 0.392578125, -1.025390625, 0.347656250, -0.666015625, 0.171875000, -0.103515625, 0.376953125, 0.330078125, 0.486328125, 0.244140625, 0.345703125, -0.339843750, 0.281250000, -0.470703125, 0.074218750, -0.005859375, 0.046875000, -0.283203125, 0.132812500, -0.013671875, 0.062500000, 0.064453125, -0.003906250, 0.853515625, 0.019531250, -0.007812500, -0.105468750, -0.460937500, 0.097656250, -0.822265625, 0.365234375, 0.470703125, 0.373046875, -0.279296875, 0.457031250, 0.017578125, 0.259765625, 0.017578125, 0.296875000, 0.632812500, 0.306640625, 0.318359375, 0.208984375, -0.005859375, 0.402343750, -0.787109375, 0.580078125, 0.447265625, 0.640625000, -0.595703125, 0.738281250, -0.644531250, 0.474609375, -0.390625000, 0.595703125, 0.320312500, 0.652343750, 0.640625000, 0.638671875, -0.593750000, 0.617187500, -2.162109375, 0.267578125, 0.160156250, 0.365234375, -0.007812500, 0.214843750, 0.078125000, 0.195312500, -1.998046875, 0.238281250, -0.787109375, 0.181640625, 0.367187500, 0.347656250, 0.302734375, 0.121093750, -0.126953125, 0.330078125, 0.388671875, 0.376953125, -0.388671875, 0.376953125, -0.099609375, 0.333984375, -1.986328125, 0.390625000, -0.980468750, 0.251953125, 0.394531250, 0.404296875, -0.167968750, 0.437500000, -0.378906250, 0.451171875, 0.447265625, 0.500000000, -0.193359375, 0.541015625, 0.068359375, 0.388671875, -1.847656250, 0.335937500, -1.404296875, 0.390625000, 0.560546875, 0.574218750, 1.015625000, 0.253906250, -0.148437500, 0.056640625, 0.029296875, -0.048828125, 0.185546875, 0.218750000, -0.269531250, -0.044921875, -0.414062500, -0.074218750, -0.185546875, 0.060546875, 0.064453125, 0.099609375, -0.791015625, -0.027343750, -0.728515625, 0.251953125, 0.205078125, 0.402343750, -0.281250000, 0.546875000, 0.060546875, 0.291015625, -0.402343750, 0.275390625, -0.955078125, 0.482421875, 0.498046875, 0.300781250, -0.953125000, 0.439453125, -0.214843750, -0.048828125, -0.037109375, 0.103515625, 0.089843750, 0.107421875, -0.162109375, -0.007812500, -1.052734375, -0.039062500, -2.494140625, -0.068359375, 0.078125000, -0.027343750, -0.845703125, 0.072265625, -0.546875000, 0.093750000, -0.056640625, 0.048828125, -0.103515625, 0.185546875, -0.544921875, -0.152343750, -0.914062500, 0.111328125, -0.736328125, 0.128906250, 0.023437500, 0.156250000, -0.492187500, -0.003906250, -0.431640625, 0.417968750, 0.367187500, 0.566406250, -0.265625000, 0.253906250, -0.146484375, 0.251953125, -0.775390625, 0.300781250, 0.347656250, 0.494140625, 0.513671875, 0.351562500, -0.861328125, 0.277343750, 0.041015625, 0.103515625, 0.082031250, 0.333984375, 0.009765625, 0.310546875, -0.279296875, 0.212890625, -0.921875000, 0.179687500, 0.115234375, 0.378906250, 0.156250000, 0.230468750, -0.804687500, 0.144531250, -0.255859375, 0.195312500, 0.376953125, 0.357421875, -0.443359375, 0.431640625, -0.548828125, 0.265625000, -0.962890625, 0.181640625, -2.214843750, 0.242187500, 0.353515625, 0.210937500, -1.560546875, 0.144531250, -0.322265625, 0.212890625, 0.470703125, 0.181640625, -0.404296875, 0.191406250, -0.228515625, 0.207031250, -0.509765625, 0.179687500, -1.802734375, 0.400390625, 0.390625000, 0.326171875, -1.873046875, 0.203125000, 0.078125000, 0.224609375, 0.439453125, 0.494140625, -0.181640625, 0.414062500, 0.175781250, 0.310546875, -0.162109375, 0.279296875, -1.597656250, 0.410156250, 0.394531250, 0.398437500, -2.251953125, 0.283203125, -0.050781250, 0.339843750, 0.185546875, 0.279296875, 0.095703125, 0.140625000, -2.279296875, 0.244140625, -0.105468750, -0.019531250, -2.126953125, 0.117187500, 0.115234375, 0.283203125, 0.296875000, 0.199218750, -0.667968750, 0.220703125, 0.216796875, 0.337890625, -0.013671875, 0.037109375, -2.482421875, 0.171875000, 0.103515625, 0.117187500, -2.458984375, 0.294921875, -0.001953125, 0.132812500, -0.808593750, 0.140625000, -0.187500000, 0.308593750, 0.296875000, 0.394531250, -0.199218750, 0.353515625, -2.287109375, 0.402343750, -0.521484375, 0.199218750, -3.138671875, 0.152343750, 0.232421875, 0.386718750, 0.066406250, 0.291015625, -0.095703125, 0.382812500, 0.400390625, 0.082031250, -0.025390625, 0.390625000, -1.771484375, 0.085937500, -0.265625000, 0.253906250, -3.640625000, 0.298828125, 0.150390625, 0.367187500, 0.091796875, 0.150390625, -1.279296875, 0.302734375, 0.351562500, 0.341796875, -0.193359375, 0.308593750, -1.886718750, 0.111328125, 0.218750000, 0.253906250, -3.896484375, 0.101562500, 0.207031250, 0.111328125, -0.017578125, 0.369140625, -0.201171875, 0.140625000, 0.009765625, -0.013671875, 0.087890625, 0.087890625, -1.910156250, 0.160156250, -0.546875000, -0.009765625, -3.613281250, 0.171875000, 0.138671875, 0.005859375, -0.582031250, 0.179687500, -0.476562500, 0.341796875, 0.259765625, 0.179687500, 0.140625000, 0.150390625, -1.605468750, 0.095703125, -0.332031250, -0.027343750, -0.439453125, 0.189453125, 0.171875000, 0.041015625, 0.121093750, 0.277343750, -0.158203125, 0.478515625, 0.353515625, 0.613281250, -0.203125000, 0.478515625, -1.287109375, 0.242187500, 0.349609375, 0.500000000, -0.160156250, 0.664062500, 0.476562500, 0.519531250, -0.017578125, 0.417968750, -0.152343750, 0.435546875, 0.537109375, 0.412109375, -0.150390625, 0.496093750, -1.849609375, 0.169921875, -0.527343750, 0.203125000, 0.068359375, 0.382812500, 0.365234375, 0.433593750, -0.017578125, 0.462890625, -0.357421875, 0.183593750, 0.259765625, 0.152343750, 0.265625000, 0.173828125, -0.025390625, -0.009765625, -0.146484375, 0.037109375, 0.134765625, 0.126953125, 0.037109375, 0.208984375, -0.199218750, 0.224609375, -0.398437500, 0.171875000, 0.226562500, 0.210937500, -0.222656250, 0.099609375, -0.316406250, 0.140625000, 0.050781250, 0.105468750, 0.355468750, 0.203125000, 0.162109375, 0.205078125, -0.062500000, 0.283203125, -0.888671875, 0.410156250, 0.556640625, 0.476562500, -0.207031250, 0.494140625, -0.716796875, 0.552734375, -0.322265625, 0.292968750, 0.414062500, 0.431640625, 0.408203125, 0.478515625, -0.164062500, 0.451171875, -1.412109375, 0.044921875, 0.105468750, 0.158203125, -0.068359375, 0.078125000, -0.355468750, 0.076171875, -0.089843750, -0.027343750, 0.224609375, 0.173828125, 0.189453125, 0.140625000, 0.316406250, 0.074218750, -0.857421875, 0.468750000, 0.392578125, 0.332031250, 0.074218750, 0.261718750, 0.316406250, 0.083984375, -0.205078125, 0.216796875, 0.128906250, 0.277343750, 0.128906250, 0.271484375, -0.089843750, 0.416015625, -1.246093750, 0.529296875, 0.431640625, 0.431640625, -0.263671875, 0.388671875, -0.914062500, 0.384765625, -0.671875000, 0.273437500, 0.244140625, 0.328125000, 0.384765625, 0.427734375, 0.128906250, 0.541015625, -2.351562500, 0.146484375, 0.212890625, 0.255859375, -0.324218750, 0.195312500, -0.041015625, 0.232421875, -0.218750000, 0.292968750, -1.365234375, 0.439453125, 0.248046875, 0.212890625, -0.318359375, 0.365234375, -0.078125000, 0.314453125, 0.287109375, 0.347656250, -0.316406250, 0.353515625, -0.021484375, 0.375000000, -0.462890625, 0.148437500, -1.486328125, 0.244140625, 0.330078125, 0.369140625, -1.125000000, 0.226562500, -0.292968750, 0.152343750, 0.136718750, 0.154296875, -0.089843750, 0.210937500, 0.212890625, 0.263671875, -1.132812500, 0.210937500, -1.384765625, 0.146484375, 0.140625000, 0.146484375, -0.380859375, 0.103515625, -0.160156250, 0.310546875, 0.478515625, 0.277343750, -0.218750000, 0.373046875, -0.445312500, 0.324218750, -2.802734375, 0.224609375, 0.753906250, 0.330078125, 0.269531250, 0.201171875, -0.656250000, 0.205078125, -0.566406250, 0.193359375, 0.326171875, 0.492187500, -0.123046875, 0.505859375, -0.195312500, 0.359375000, -1.945312500, 0.175781250, -0.367187500, 0.162109375, 0.339843750, 0.343750000, -0.521484375, 0.199218750, 0.037109375, 0.187500000, 0.349609375, 0.226562500, -0.101562500, 0.339843750, -0.087890625, 0.207031250, -2.228515625, 0.289062500, 0.572265625, 0.218750000, 0.339843750, 0.429687500, -2.041015625, 0.228515625, -0.185546875, 0.498046875, 0.583984375, 0.638671875, -0.326171875, 0.414062500, -0.480468750, 0.384765625, -0.847656250, 0.335937500, 0.824218750, 0.386718750, 0.615234375, 0.480468750, -1.865234375, 0.445312500, -0.351562500, 0.544921875, 0.251953125, 0.294921875, -0.218750000, 0.513671875, 0.070312500, 0.240234375, -0.966796875, 0.380859375, 0.900390625, 0.414062500, 0.496093750, 0.421875000, -1.601562500, 0.238281250, -0.353515625, 0.302734375, 0.269531250, 0.048828125, -0.144531250, 0.250000000, -0.294921875, 0.173828125, -1.916015625, 0.123046875, -0.287109375, 0.130859375, 0.115234375, 0.257812500, -1.796875000, 0.236328125, 0.019531250, 0.044921875, 0.148437500, 0.228515625, -0.105468750, 0.136718750, -1.062500000, -0.023437500, -0.103515625, -0.001953125, -1.599609375, 0.148437500, 0.181640625, 0.142578125, -1.375000000, 0.205078125, -0.806640625, 0.373046875, 0.382812500, 0.523437500, -0.201171875, 0.574218750, -0.007812500, 0.335937500, -0.382812500, 0.332031250, -0.705078125, 0.464843750, 0.421875000, 0.582031250, -1.412109375, 0.257812500, -0.177734375, 0.201171875, 0.062500000, 0.164062500, -0.117187500, 0.242187500, -0.525390625, 0.066406250, -0.054687500, 0.076171875, -2.421875000, 0.005859375, 0.183593750, 0.244140625, -1.597656250, 0.033203125, -0.107421875, 0.236328125, 0.355468750, 0.267578125, -0.591796875, 0.363281250, 0.029296875, 0.001953125, -0.603515625, 0.142578125, -0.457031250, 0.207031250, 0.210937500, 0.318359375, -0.906250000, 0.277343750, -0.542968750, 0.099609375, 0.166015625, 0.033203125, -0.328125000, 0.300781250, -0.199218750, 0.070312500, 0.287109375, -0.115234375, -0.808593750, 0.128906250, 0.021484375, 0.087890625, -1.369140625, 0.123046875, -0.054687500, 0.271484375, 0.173828125, 0.396484375, -0.666015625, 0.314453125, -0.724609375, 0.203125000, -0.562500000, 0.123046875, -0.890625000, 0.345703125, 0.437500000, 0.412109375, -1.929687500, 0.269531250, -0.373046875, 0.638671875, 0.533203125, 0.626953125, -0.412109375, 0.587890625, -1.810546875, 0.615234375, -0.855468750, 0.287109375, -1.986328125, 0.484375000, 0.457031250, 0.523437500, 0.064453125, 0.660156250, -0.351562500, 0.085937500, 0.062500000, 0.132812500, -0.029296875, 0.248046875, -2.052734375, 0.134765625, -0.078125000, 0.136718750, -1.882812500, 0.292968750, 0.273437500, 0.203125000, 0.068359375, 0.250000000, 0.052734375, 0.513671875, 0.525390625, 0.453125000, -0.279296875, 0.373046875, -2.576171875, 0.466796875, -0.396484375, 0.441406250, -1.421875000, 0.626953125, 0.437500000, 0.341796875, 0.136718750, 0.349609375, -0.101562500, 0.339843750, 0.386718750, 0.322265625, -0.367187500, 0.460937500, -2.230468750, 0.312500000, -0.173828125, 0.224609375, -0.328125000, 0.523437500, 0.380859375, 0.447265625, 0.474609375, 0.296875000, -0.029296875, 0.320312500, 0.376953125, 0.390625000, -0.054687500, 0.277343750, -2.449218750, 0.250000000, 0.052734375, 0.183593750, 0.037109375, 0.449218750, 0.367187500, 0.410156250, -0.564453125, 0.484375000, 0.044921875, 0.302734375, 0.302734375, 0.382812500, -0.269531250, 0.349609375, -2.427734375, 0.285156250, -0.599609375, 0.308593750, 0.708984375, 0.476562500, 0.394531250, 0.390625000, 0.091796875, 0.216796875, -0.339843750, 0.376953125, 0.201171875, 0.191406250, -0.705078125, 0.382812500, -0.097656250, 0.222656250, -0.701171875, 0.177734375, -2.343750000, 0.441406250, 0.388671875, 0.345703125, 0.216796875, 0.269531250, -0.457031250, 0.332031250, 0.423828125, 0.388671875, -0.166015625, 0.544921875, -0.289062500, 0.281250000, 0.238281250, 0.292968750, -2.777343750, 0.300781250, 0.494140625, 0.417968750, 0.439453125, 0.384765625, -0.042968750, 0.371093750, 0.345703125, 0.335937500, -0.587890625, 0.457031250, -0.484375000, 0.378906250, -0.160156250, 0.185546875, -2.142578125, 0.246093750, 0.310546875, 0.337890625, 0.550781250, 0.345703125, -1.466796875, 0.373046875, 0.417968750, 0.380859375, -0.226562500, 0.201171875, -0.056640625, 0.232421875, -0.408203125, 0.224609375, 0.269531250, 0.283203125, 0.242187500, 0.353515625, 0.339843750, 0.195312500, -0.175781250, 0.455078125, 0.412109375, 0.460937500, -0.123046875, 0.281250000, 0.066406250, 0.283203125, 0.060546875, 0.216796875, 0.246093750, 0.205078125, 0.355468750, 0.455078125, 0.070312500, 0.312500000, -0.322265625, 0.492187500, 0.376953125, 0.494140625, -0.119140625, 0.226562500, -0.841796875, 0.294921875, -0.394531250, 0.175781250, 0.275390625, 0.333984375, 0.341796875, 0.337890625, 0.181640625, 0.429687500, -1.882812500, 0.134765625, 0.289062500, 0.330078125, -0.585937500, 0.275390625, -0.080078125, 0.093750000, -0.113281250, 0.093750000, -0.164062500, 0.306640625, 0.216796875, 0.251953125, 0.158203125, 0.328125000, -0.564453125, 0.542968750, 0.423828125, 0.439453125, -0.314453125, 0.603515625, -0.093750000, 0.460937500, 0.625000000, 0.386718750, 0.074218750, 0.462890625, 0.572265625, 0.556640625, 0.167968750, 0.326171875, -0.308593750, 0.021484375, -0.046875000, -0.087890625, -0.056640625, -0.046875000, 0.386718750, -0.183593750, -1.173828125, 0.093750000, -0.671875000, 0.039062500, -0.173828125, 0.019531250, -0.177734375, -0.066406250, -0.328125000, 0.333984375, 0.656250000, 0.488281250, -0.513671875, 0.412109375, -0.328125000, 0.472656250, -1.154296875, 0.380859375, -0.427734375, 0.595703125, 0.515625000, 0.486328125, -0.115234375, 0.388671875, -0.251953125, 0.476562500, 0.478515625, 0.542968750, -0.167968750, 0.304687500, -0.060546875, 0.330078125, -0.636718750, 0.455078125, -1.005859375, 0.392578125, 0.380859375, 0.574218750, -0.025390625, 0.296875000, -0.099609375, 0.261718750, 0.259765625, 0.097656250, -0.240234375, 0.154296875, 0.095703125, 0.125000000, -1.761718750, -0.025390625, -0.343750000, 0.207031250, 0.214843750, 0.177734375, -0.943359375, 0.123046875, -0.218750000, 0.500000000, 0.535156250, 0.623046875, -0.207031250, 0.507812500, -0.466796875, 0.324218750, -3.832031250, 0.490234375, 0.818359375, 0.316406250, 0.449218750, 0.472656250, -1.695312500, 0.468750000, -1.091796875, 0.363281250, 0.376953125, 0.404296875, -0.255859375, 0.222656250, -0.152343750, 0.433593750, -3.048828125, 0.121093750, 0.494140625, 0.320312500, 0.232421875, 0.230468750, -1.001953125, 0.222656250, -0.113281250, 0.181640625, 0.183593750, 0.091796875, 0.060546875, 0.355468750, 0.154296875, 0.140625000, -2.927734375, 0.095703125, 0.548828125, 0.156250000, 0.105468750, 0.267578125, -1.642578125, 0.306640625, -0.341796875, 0.296875000, 0.220703125, 0.166015625, 0.142578125, 0.255859375, -0.857421875, 0.279296875, -1.847656250, 0.199218750, -3.058593750, 0.173828125, 0.167968750, 0.199218750, -2.250000000, -0.005859375, -0.941406250, 0.416015625, 0.378906250, 0.326171875, -0.312500000, 0.376953125, 0.250000000, 0.093750000, -1.968750000, 0.318359375, -1.671875000, 0.345703125, 0.447265625, 0.523437500, -2.240234375, 0.265625000, -0.097656250, 0.312500000, 0.123046875, 0.265625000, -0.068359375, 0.279296875, 0.085937500, 0.193359375, -2.087890625, 0.230468750, -1.945312500, 0.271484375, 0.283203125, 0.287109375, -1.892578125, 0.187500000, -0.070312500, 0.578125000, 0.550781250, 0.283203125, -0.531250000, 0.472656250, -1.357421875, 0.380859375, -0.242187500, 0.302734375, -0.480468750, 0.496093750, 0.359375000, 0.648437500, -0.330078125, 0.214843750, -0.947265625, 0.056640625, 0.271484375, 0.095703125, -0.300781250, 0.091796875, -0.660156250, -0.113281250, -0.234375000, 0.042968750, -1.523437500, 0.091796875, 0.169921875, 0.152343750, -0.814453125, -0.042968750, -0.033203125, 0.099609375, 0.095703125, 0.105468750, -0.166015625, 0.076171875, -0.777343750, -0.029296875, -1.562500000, -0.123046875, -2.378906250, 0.042968750, 0.128906250, -0.035156250, -0.914062500, -0.023437500, -0.398437500, 0.236328125, 0.121093750, 0.310546875, 0.001953125, 0.265625000, -1.728515625, 0.199218750, 0.298828125, 0.166015625, 0.935546875, 0.369140625, 0.404296875, 0.269531250, 0.201171875, 0.207031250, -0.423828125, 0.388671875, 0.298828125, 0.455078125, -0.095703125, 0.289062500, -2.054687500, 0.279296875, -0.173828125, 0.275390625, -0.203125000, 0.300781250, 0.283203125, 0.273437500, -0.199218750, 0.240234375, -0.214843750, 0.535156250, 0.585937500, 0.386718750, -0.378906250, 0.607421875, -1.730468750, 0.353515625, -0.162109375, 0.484375000, 0.582031250, 0.517578125, 0.595703125, 0.630859375, -0.351562500, 0.597656250, -0.164062500, 0.427734375, 0.462890625, 0.343750000, -0.140625000, 0.341796875, -3.201171875, 0.320312500, 0.283203125, 0.337890625, -0.630859375, 0.550781250, 0.445312500, 0.386718750, 0.234375000, 0.279296875, 0.052734375, 0.421875000, 0.382812500, 0.394531250, -0.396484375, 0.312500000, -3.232421875, 0.388671875, -0.052734375, 0.406250000, 0.097656250, 0.613281250, 0.501953125, 0.341796875, -0.281250000, 0.316406250, 0.015625000, 0.326171875, 0.462890625, 0.476562500, -0.236328125, 0.427734375, -3.191406250, 0.408203125, 0.011718750, 0.380859375, -0.447265625, 0.478515625, 0.431640625, 0.548828125, 0.001953125, 0.494140625, -0.597656250, 0.261718750, 0.259765625, 0.466796875, -0.253906250, 0.298828125, -1.167968750, 0.480468750, 0.109375000, 0.433593750, -2.851562500, 0.458984375, 0.394531250, 0.289062500, -0.060546875, 0.466796875, -0.193359375, 0.310546875, 0.332031250, 0.279296875, 0.076171875, 0.388671875, -0.923828125, 0.324218750, 0.111328125, 0.183593750, -1.970703125, 0.382812500, 0.330078125, 0.312500000, 0.042968750, 0.214843750, -0.003906250, 0.328125000, 0.302734375, 0.427734375, -0.136718750, 0.369140625, -1.929687500, 0.326171875, -0.314453125, 0.207031250, -0.841796875, 0.277343750, 0.164062500, 0.320312500, -0.044921875, 0.210937500, -0.673828125, 0.343750000, 0.162109375, 0.050781250, -0.058593750, 0.058593750, -0.216796875, 0.160156250, 0.423828125, 0.250000000, -0.150390625, 0.240234375, 0.111328125, 0.195312500, 0.187500000, 0.380859375, -0.628906250, 0.257812500, 0.326171875, 0.375000000, -0.228515625, 0.478515625, 0.197265625, 0.310546875, 0.208984375, 0.457031250, -0.003906250, 0.330078125, 0.462890625, 0.472656250, -0.126953125, 0.457031250, -0.175781250, 0.244140625, 0.361328125, 0.517578125, -0.273437500, 0.341796875, -1.681640625, 0.378906250, 0.285156250, 0.435546875, 0.484375000, 0.367187500, 0.371093750, 0.474609375, 0.017578125, 0.351562500, -0.939453125, 0.384765625, 0.402343750, 0.589843750, -0.521484375, 0.421875000, -0.195312500, 0.527343750, -0.511718750, 0.361328125, -0.974609375, 0.382812500, 0.285156250, 0.515625000, -0.078125000, 0.378906250, -0.359375000, 0.335937500, 0.230468750, 0.371093750, -0.419921875, 0.236328125, 0.146484375, 0.222656250, -0.486328125, 0.437500000, -0.572265625, 0.355468750, 0.236328125, 0.232421875, 0.060546875, 0.437500000, -0.046875000, 0.031250000, 0.140625000, 0.171875000, 0.019531250, 0.130859375, 0.070312500, -0.033203125, -0.089843750, -0.058593750, -0.205078125, -0.048828125, -0.011718750, -0.025390625, -0.283203125, 0.171875000, -0.156250000, 0.781250000, 0.638671875, 0.660156250, -0.544921875, 0.677734375, -0.281250000, 0.576171875, -0.595703125, 0.568359375, -1.025390625, 0.587890625, 0.785156250, 0.609375000, 0.386718750, 0.695312500, -0.345703125, 0.308593750, 0.279296875, 0.386718750, -0.193359375, 0.433593750, 0.062500000, 0.400390625, -0.449218750, 0.296875000, -0.392578125, 0.388671875, 0.447265625, 0.386718750, 0.718750000, 0.470703125, -0.156250000, 0.353515625, 0.068359375, 0.193359375, -0.142578125, 0.123046875, -0.470703125, 0.083984375, 0.146484375, 0.185546875, -0.787109375, 0.150390625, 0.066406250, 0.242187500, -0.425781250, 0.089843750, 0.025390625, 0.539062500, 0.742187500, 0.701171875, -0.587890625, 0.433593750, -0.146484375, 0.521484375, -1.894531250, 0.542968750, 0.255859375, 0.816406250, 0.626953125, 0.525390625, -0.558593750, 0.468750000, -0.839843750, 0.076171875, 0.130859375, 0.082031250, 0.126953125, 0.287109375, 0.095703125, 0.236328125, -2.636718750, 0.007812500, -0.162109375, 0.103515625, 0.150390625, 0.285156250, -0.968750000, 0.085937500, -0.166015625, 0.162109375, 0.125000000, 0.162109375, 0.015625000, 0.115234375, -0.046875000, 0.152343750, -2.439453125, 0.099609375, -1.130859375, 0.031250000, 0.216796875, 0.201171875, -1.048828125, 0.095703125, -0.240234375, 0.578125000, 0.640625000, 0.697265625, -0.341796875, 0.605468750, -0.781250000, 0.457031250, -2.724609375, 0.439453125, -1.265625000, 0.558593750, 0.560546875, 0.492187500, -1.058593750, 0.427734375, -1.148437500, 0.193359375, 0.128906250, 0.345703125, -0.097656250, 0.078125000, 0.208984375, 0.250000000, -3.011718750, 0.066406250, -0.992187500, 0.222656250, 0.279296875, 0.156250000, -0.810546875, 0.304687500, -0.275390625, 0.111328125, 0.105468750, 0.037109375, 0.003906250, 0.203125000, -0.470703125, -0.009765625, -2.912109375, -0.115234375, -0.410156250, 0.244140625, 0.250000000, -0.039062500, -0.919921875, 0.111328125, 0.015625000, 0.382812500, 0.410156250, 0.394531250, -1.003906250, 0.423828125, -1.138671875, 0.369140625, -1.410156250, 0.349609375, 0.753906250, 0.310546875, 0.400390625, 0.437500000, -1.414062500, 0.386718750, -0.669921875, 0.257812500, 0.181640625, 0.208984375, -0.281250000, 0.250000000, 0.228515625, 0.068359375, -1.798828125, 0.054687500, -0.251953125, 0.199218750, 0.144531250, 0.121093750, -1.656250000, 0.132812500, 0.093750000, 0.253906250, 0.142578125, 0.164062500, -0.326171875, 0.322265625, -1.779296875, 0.064453125, -2.130859375, 0.154296875, -0.363281250, 0.207031250, 0.132812500, 0.328125000, -2.082031250, 0.058593750, -0.273437500, 0.566406250, 0.337890625, 0.501953125, -0.414062500, 0.474609375, -3.107421875, 0.160156250, -0.710937500, 0.427734375, 0.269531250, 0.501953125, 0.404296875, 0.482421875, -0.269531250, 0.550781250, -0.796875000, 0.019531250, 0.216796875, 0.191406250, -0.082031250, 0.234375000, -3.162109375, 0.095703125, -0.740234375, 0.083984375, 0.095703125, 0.216796875, 0.119140625, 0.148437500, 0.146484375, 0.011718750, -0.230468750, 0.003906250, 0.103515625, 0.308593750, -0.062500000, 0.082031250, -3.130859375, 0.097656250, -0.066406250, 0.105468750, 0.214843750, 0.052734375, 0.195312500, 0.091796875, -0.326171875, -0.091796875, -0.304687500, 0.136718750, 0.414062500, 0.302734375, -0.162109375, 0.205078125, -2.775390625, 0.210937500, -1.058593750, 0.253906250, 0.650390625, 0.425781250, 0.210937500, 0.148437500, -0.212890625, 0.265625000, -0.052734375, 0.294921875, 0.316406250, 0.310546875, -0.130859375, 0.175781250, -2.789062500, 0.365234375, 0.253906250, 0.207031250, 0.048828125, 0.460937500, 0.347656250, 0.316406250, -0.007812500, 0.390625000, -0.253906250, 0.628906250, 0.533203125, 0.683593750, -0.513671875, 0.550781250, -2.871093750, 0.480468750, -0.281250000, 0.466796875, 0.171875000, 0.468750000, 0.550781250, 0.511718750, 0.179687500, 0.650390625, -0.240234375, 0.441406250, 0.419921875, 0.583984375, -0.271484375, 0.367187500, -2.525390625, 0.275390625, 0.300781250, 0.318359375, 0.074218750, 0.498046875, 0.402343750, 0.683593750, -0.875000000, 0.281250000, -0.335937500, 0.320312500, 0.314453125, 0.468750000, -0.343750000, 0.480468750, -2.447265625, 0.351562500, 0.494140625, 0.423828125, -0.250000000, 0.162109375, 0.531250000, 0.353515625, -0.265625000, 0.283203125, -0.058593750, 0.531250000, 0.556640625, 0.806640625, -0.423828125, 0.892578125, -3.289062500, 0.646484375, 0.564453125, 0.466796875, 0.832031250, 0.705078125, 0.730468750, 0.669921875, -0.218750000, 0.734375000, -0.253906250, 0.398437500, 0.195312500, 0.285156250, -0.115234375, 0.146484375, -0.429687500, 0.103515625, 0.019531250, 0.183593750, 0.384765625, 0.228515625, 0.244140625, 0.277343750, -0.498046875, 0.349609375, -0.564453125, 0.183593750, 0.253906250, 0.257812500, -0.238281250, 0.226562500, 0.158203125, 0.447265625, 0.195312500, 0.078125000, -0.033203125, 0.312500000, 0.378906250, 0.273437500, -0.105468750, 0.285156250, 0.117187500, 0.351562500, 0.500000000, 0.394531250, -0.425781250, 0.500000000, -0.980468750, 0.302734375, -0.027343750, 0.240234375, 0.775390625, 0.373046875, 0.439453125, 0.433593750, -0.242187500, 0.287109375, -0.437500000, 0.460937500, 0.283203125, 0.373046875, -0.812500000, 0.292968750, 0.076171875, 0.292968750, 0.388671875, 0.261718750, -0.853515625, 0.376953125, 0.410156250, 0.431640625, -0.472656250, 0.103515625, -0.726562500, 0.357421875, 0.302734375, 0.343750000, -0.437500000, 0.246093750, 0.060546875, 0.302734375, 0.212890625, 0.279296875, -1.365234375, 0.412109375, 0.431640625, 0.535156250, 0.000000000, 0.365234375, -0.146484375, -0.173828125, -0.355468750, -0.281250000, -0.072265625, -0.093750000, -0.343750000, -0.222656250, -0.035156250, -0.271484375, -1.304687500, -0.220703125, -0.230468750, -0.220703125, -0.261718750, -0.140625000, -0.205078125, 0.400390625, 0.425781250, 0.523437500, -0.431640625, 0.421875000, -0.308593750, 0.292968750, 0.353515625, 0.484375000, 0.007812500, 0.462890625, 0.625000000, 0.462890625, -0.015625000, 0.388671875, -1.041015625, 0.095703125, 0.148437500, 0.105468750, -0.162109375, 0.044921875, 0.048828125, 0.226562500, -0.031250000, 0.232421875, 0.085937500, 0.119140625, 0.009765625, 0.005859375, -0.132812500, 0.113281250, -0.228515625, 0.115234375, 0.105468750, 0.017578125, -0.017578125, 0.054687500, -0.480468750, 0.048828125, -0.519531250, 0.117187500, -0.230468750, -0.093750000, -0.021484375, 0.052734375, -0.613281250, -0.058593750, -0.242187500, 0.476562500, 0.509765625, 0.398437500, -0.242187500, 0.445312500, 0.115234375, 0.560546875, -0.564453125, 0.419921875, -0.416015625, 0.431640625, 0.400390625, 0.402343750, -0.982421875, 0.324218750, -0.746093750, 0.228515625, 0.189453125, 0.345703125, -0.138671875, 0.333984375, 0.128906250, 0.298828125, -1.677734375, 0.289062500, -0.076171875, 0.306640625, 0.162109375, 0.380859375, -0.603515625, 0.400390625, -0.048828125, 0.253906250, 0.310546875, 0.144531250, -0.017578125, 0.134765625, -0.833984375, 0.091796875, -1.810546875, 0.255859375, -0.656250000, 0.099609375, 0.189453125, 0.125000000, -1.097656250, 0.216796875, 0.289062500, 0.701171875, 0.550781250, 0.416015625, -0.400390625, 0.564453125, 0.033203125, 0.310546875, -2.101562500, 0.457031250, -0.517578125, 0.673828125, 0.681640625, 0.587890625, -2.384765625, 0.560546875, -0.826171875, -0.031250000, 0.029296875, 0.089843750, 0.050781250, 0.021484375, 0.095703125, 0.072265625, -1.939453125, -0.005859375, -0.361328125, 0.111328125, 0.140625000, 0.246093750, -2.144531250, 0.130859375, -0.458984375, 0.162109375, 0.326171875, 0.365234375, 0.107421875, 0.099609375, -0.619140625, 0.199218750, -1.796875000, 0.261718750, 0.285156250, 0.259765625, 0.210937500, 0.207031250, -2.330078125, 0.445312500, -0.294921875, 0.447265625, 0.392578125, 0.513671875, -1.519531250, 0.615234375, -0.728515625, 0.283203125, -2.556640625, 0.367187500, 0.740234375, 0.437500000, 0.513671875, 0.400390625, -1.912109375, 0.570312500, -0.455078125, 0.185546875, 0.212890625, 0.265625000, -0.464843750, 0.312500000, -0.566406250, 0.019531250, -2.519531250, 0.021484375, -0.166015625, 0.171875000, 0.201171875, 0.291015625, -1.796875000, 0.177734375, 0.400390625, 0.271484375, 0.230468750, 0.251953125, -0.753906250, 0.267578125, -1.080078125, 0.177734375, -2.625000000, 0.125000000, 0.316406250, 0.267578125, 0.310546875, 0.187500000, -1.757812500, 0.197265625, -0.271484375, 0.630859375, 0.515625000, 0.533203125, -0.900390625, 0.625000000, -3.117187500, 0.408203125, -0.679687500, 0.523437500, 0.054687500, 0.828125000, 0.673828125, 0.685546875, -0.263671875, 0.587890625, -0.421875000, 0.179687500, 0.074218750, -0.005859375, 0.121093750, 0.126953125, -3.587890625, -0.019531250, -0.830078125, 0.183593750, 0.205078125, 0.255859375, 0.236328125, 0.091796875, -0.261718750, -0.011718750, 0.107421875, 0.226562500, 0.191406250, 0.183593750, 0.085937500, 0.220703125, -3.335937500, 0.263671875, -0.677734375, 0.173828125, -0.775390625, 0.058593750, 0.177734375, 0.185546875, -0.789062500, 0.357421875, -0.404296875, 0.011718750, 0.017578125, 0.150390625, -0.076171875, 0.177734375, -1.849609375, 0.085937500, -0.669921875, -0.123046875, 0.414062500, 0.164062500, 0.146484375, 0.035156250, -1.050781250, 0.183593750, -0.697265625, 0.324218750, 0.371093750, 0.271484375, -0.113281250, 0.404296875, -1.931640625, 0.492187500, 0.050781250, 0.296875000, 0.117187500, 0.433593750, 0.394531250, 0.271484375, 0.218750000, 0.373046875, -0.255859375, 0.525390625, 0.648437500, 0.468750000, -0.310546875, 0.453125000, -2.386718750, 0.335937500, 0.085937500, 0.527343750, 0.777343750, 0.443359375, 0.470703125, 0.603515625, 0.279296875, 0.445312500, -0.574218750, 0.355468750, 0.261718750, 0.343750000, -0.140625000, 0.162109375, -2.453125000, 0.291015625, 0.087890625, 0.246093750, 0.191406250, 0.294921875, 0.244140625, 0.259765625, -0.898437500, 0.359375000, -1.419921875, 0.279296875, 0.027343750, 0.238281250, -0.089843750, 0.099609375, -3.384765625, 0.105468750, 0.031250000, 0.140625000, -0.074218750, 0.162109375, 0.216796875, 0.142578125, -0.222656250, 0.130859375, -0.164062500, 0.419921875, 0.507812500, 0.369140625, -0.228515625, 0.457031250, -2.859375000, 0.242187500, -0.109375000, 0.406250000, 0.574218750, 0.648437500, 0.310546875, 0.544921875, -0.392578125, 0.445312500, -0.634765625, 0.341796875, 0.349609375, 0.408203125, -0.169921875, 0.441406250, -0.865234375, 0.273437500, -0.189453125, 0.341796875, 0.304687500, 0.302734375, 0.308593750, 0.292968750, -0.152343750, 0.279296875, -0.382812500, 0.267578125, 0.205078125, 0.271484375, 0.050781250, 0.238281250, 0.123046875, -0.021484375, -0.117187500, 0.107421875, 0.197265625, 0.341796875, 0.328125000, 0.162109375, 0.533203125, 0.179687500, 0.060546875, 0.435546875, 0.488281250, 0.494140625, -0.250000000, 0.455078125, -1.714843750, 0.447265625, -0.220703125, 0.533203125, 0.814453125, 0.349609375, 0.402343750, 0.435546875, -1.171875000, 0.480468750, -0.455078125, 0.240234375, 0.361328125, 0.394531250, -0.277343750, 0.384765625, -0.228515625, 0.234375000, 0.033203125, 0.158203125, 0.451171875, 0.335937500, 0.248046875, 0.359375000, 0.078125000, 0.332031250, -0.158203125, 0.236328125, 0.195312500, 0.197265625, -0.250000000, 0.185546875, 0.000000000, 0.347656250, 0.148437500, 0.458984375, -0.382812500, 0.330078125, 0.328125000, 0.251953125, 0.488281250, 0.441406250, -0.207031250, 0.181640625, 0.218750000, -0.105468750, -0.130859375, 0.080078125, -0.005859375, 0.083984375, -0.253906250, 0.144531250, 0.894531250, -0.074218750, 0.115234375, 0.013671875, -0.828125000, -0.060546875, 0.011718750, 0.597656250, 0.767578125, 0.646484375, -0.789062500, 0.521484375, -0.326171875, 0.726562500, 0.308593750, 0.615234375, -3.640625000, 0.648437500, 0.861328125, 0.589843750, 0.138671875, 0.730468750, -0.804687500, 0.187500000, 0.433593750, 0.394531250, -0.410156250, 0.193359375, 0.105468750, 0.244140625, 0.759765625, 0.238281250, -3.302734375, 0.226562500, 0.351562500, 0.505859375, 0.347656250, 0.355468750, 0.039062500, 0.255859375, 0.128906250, 0.173828125, -0.210937500, 0.250000000, -0.181640625, 0.277343750, 0.035156250, 0.248046875, -3.066406250, 0.052734375, 0.214843750, 0.197265625, -0.273437500, 0.093750000, 0.068359375, 0.601562500, 0.724609375, 0.507812500, -0.345703125, 0.443359375, 0.169921875, 0.695312500, -1.289062500, 0.548828125, -0.445312500, 0.548828125, 0.494140625, 0.595703125, -0.001953125, 0.564453125, -1.378906250, 0.039062500, 0.078125000, 0.074218750, 0.000000000, 0.066406250, 0.099609375, -0.015625000, -0.880859375, 0.001953125, -0.126953125, -0.093750000, 0.044921875, 0.250000000, -0.306640625, 0.039062500, -0.007812500, 0.230468750, 0.140625000, 0.246093750, -0.003906250, 0.214843750, 0.031250000, 0.117187500, -2.039062500, 0.210937500, 0.138671875, 0.289062500, 0.064453125, 0.208984375, -0.203125000, 0.222656250, -0.246093750, 0.535156250, 0.539062500, 0.619140625, -0.208984375, 0.691406250, -0.326171875, 0.373046875, -2.185546875, 0.507812500, -0.376953125, 0.490234375, 0.597656250, 0.607421875, -2.919921875, 0.380859375, -0.671875000, 0.093750000, 0.097656250, 0.195312500, -0.115234375, 0.048828125, 0.050781250, -0.064453125, -2.001953125, 0.058593750, -0.089843750, 0.035156250, 0.062500000, 0.230468750, -2.904296875, 0.226562500, -0.214843750, 0.025390625, 0.042968750, 0.119140625, -0.021484375, 0.134765625, -0.410156250, 0.044921875, -1.962890625, 0.039062500, -0.330078125, -0.058593750, 0.158203125, 0.070312500, -2.861328125, -0.023437500, -0.298828125, 0.730468750, 0.460937500, 0.761718750, -0.455078125, 0.615234375, -0.345703125, 0.587890625, -1.144531250, 0.515625000, -0.105468750, 0.769531250, 0.693359375, 0.751953125, -2.056640625, 0.500000000, -0.457031250, 0.021484375, 0.068359375, 0.148437500, -0.132812500, 0.054687500, 0.230468750, 0.066406250, -1.195312500, -0.095703125, -0.191406250, 0.304687500, 0.039062500, 0.103515625, -2.144531250, -0.003906250, 0.050781250, 0.240234375, 0.292968750, 0.148437500, -0.236328125, 0.205078125, -0.421875000, 0.195312500, -1.244140625, 0.185546875, -0.166015625, 0.195312500, 0.220703125, 0.103515625, -2.000000000, 0.156250000, -0.222656250, 0.681640625, 0.562500000, 0.714843750, -1.203125000, 0.847656250, -3.410156250, 0.501953125, -0.660156250, 0.605468750, 0.062500000, 0.748046875, 0.515625000, 0.654296875, -1.753906250, 0.761718750, -0.136718750, 0.214843750, 0.318359375, 0.232421875, -0.197265625, 0.234375000, -3.353515625, 0.154296875, -0.226562500, 0.091796875, 0.472656250, 0.451171875, 0.246093750, 0.244140625, -1.582031250, 0.363281250, 0.484375000, 0.228515625, 0.500000000, 0.330078125, -0.753906250, 0.457031250, -3.664062500, 0.226562500, 0.238281250, 0.232421875, 0.390625000, 0.189453125, 0.214843750, 0.322265625, -1.468750000, 0.355468750, 0.080078125, 0.119140625, 0.380859375, 0.392578125, -1.150390625, 0.164062500, -2.394531250, 0.287109375, -1.443359375, 0.175781250, 0.160156250, 0.111328125, 0.359375000, 0.222656250, -0.453125000, 0.257812500, -0.335937500, 0.248046875, 0.220703125, 0.261718750, -0.406250000, 0.332031250, -2.333984375, 0.232421875, 0.394531250, 0.207031250, -0.009765625, 0.166015625, 0.416015625, 0.265625000, -0.236328125, 0.357421875, -0.271484375, 0.468750000, 0.359375000, 0.433593750, -0.576171875, 0.515625000, -2.394531250, 0.617187500, -0.001953125, 0.566406250, 0.703125000, 0.500000000, 0.466796875, 0.427734375, -0.718750000, 0.470703125, -0.179687500, 0.332031250, 0.375000000, 0.425781250, -0.732421875, 0.339843750, -2.763671875, 0.390625000, -0.750000000, 0.281250000, 0.251953125, 0.341796875, 0.351562500, 0.537109375, -0.533203125, 0.503906250, -0.427734375, 0.181640625, 0.167968750, 0.111328125, -0.251953125, 0.121093750, -2.542968750, 0.101562500, 0.044921875, -0.015625000, 0.312500000, 0.046875000, 0.275390625, 0.244140625, -1.160156250, 0.087890625, 0.158203125, 0.234375000, 0.392578125, 0.253906250, -0.337890625, 0.203125000, -2.841796875, 0.326171875, -0.300781250, 0.070312500, 0.587890625, 0.273437500, 0.326171875, 0.210937500, -1.660156250, 0.339843750, -0.628906250, 0.226562500, 0.013671875, 0.121093750, -0.093750000, 0.054687500, -2.751953125, 0.220703125, -0.417968750, 0.082031250, -0.396484375, 0.046875000, 0.097656250, 0.107421875, -0.460937500, 0.111328125, -0.376953125, 0.105468750, -0.068359375, 0.208984375, -0.150390625, 0.076171875, -2.822265625, -0.062500000, 0.294921875, 0.136718750, -0.761718750, -0.017578125, -0.039062500, 0.167968750, 0.089843750, 0.267578125, -0.021484375, 0.171875000, 0.074218750, 0.132812500, 0.072265625, 0.171875000, -3.169921875, 0.146484375, -0.458984375, 0.009765625, 0.613281250, 0.173828125, -0.095703125, 0.195312500, -0.888671875, 0.199218750, -1.156250000, 0.226562500, 0.271484375, 0.125000000, -0.060546875, 0.232421875, -0.041015625, 0.164062500, -0.476562500, 0.214843750, -0.025390625, 0.228515625, 0.234375000, 0.220703125, 0.277343750, 0.238281250, -0.761718750, 0.218750000, 0.035156250, 0.289062500, 0.058593750, 0.224609375, 0.062500000, 0.388671875, 0.404296875, 0.214843750, 0.070312500, 0.203125000, 0.177734375, 0.257812500, 0.634765625, 0.138671875, -0.076171875, 0.162109375, 0.279296875, 0.181640625, 0.017578125, 0.144531250, -0.195312500, 0.050781250, -1.351562500, 0.183593750, -0.275390625, 0.132812500, 0.158203125, 0.130859375, -0.298828125, 0.273437500, 0.054687500, 0.349609375, 0.253906250, 0.353515625, -0.474609375, 0.275390625, 0.046875000, 0.353515625, -0.736328125, 0.271484375, 0.380859375, 0.302734375, 0.203125000, 0.138671875, -0.378906250, 0.146484375, -0.718750000, 0.128906250, 0.240234375, 0.197265625, -0.136718750, 0.123046875, -0.138671875, 0.210937500, 0.431640625, 0.197265625, -0.310546875, 0.156250000, 0.236328125, 0.150390625, 0.093750000, 0.000000000, -0.015625000, 0.146484375, 0.173828125, -0.083984375, 0.000000000, -0.009765625, -0.443359375, -0.074218750, -0.800781250, -0.062500000, -0.091796875, -0.025390625, 0.013671875, 0.218750000, -0.480468750, -0.033203125, -0.044921875, 0.488281250, 0.421875000, 0.453125000, -0.494140625, 0.476562500, -0.437500000, 0.337890625, -0.679687500, 0.259765625, 0.281250000, 0.457031250, 0.541015625, 0.361328125, -0.111328125, 0.437500000, -0.773437500, 0.111328125, 0.099609375, 0.033203125, -0.179687500, 0.103515625, -0.429687500, 0.076171875, -0.773437500, 0.105468750, 0.404296875, -0.076171875, -0.115234375, -0.042968750, 0.570312500, 0.050781250, 0.035156250, 0.091796875, 0.195312500, 0.248046875, -0.171875000, 0.083984375, 0.138671875, 0.298828125, -1.943359375, 0.167968750, 0.332031250, 0.236328125, 0.126953125, 0.283203125, -0.923828125, -0.007812500, -0.263671875, 0.492187500, 0.533203125, 0.640625000, -0.449218750, 0.617187500, -0.169921875, 0.642578125, -2.054687500, 0.742187500, -0.507812500, 0.662109375, 0.701171875, 0.472656250, -2.099609375, 0.822265625, -1.962890625, -0.177734375, -0.144531250, -0.226562500, 0.425781250, -0.347656250, 0.199218750, -0.410156250, -1.826171875, -0.480468750, 0.097656250, -0.169921875, -0.369140625, -0.156250000, -0.824218750, -0.326171875, -0.218750000, 0.066406250, 0.146484375, 0.275390625, -0.322265625, 0.376953125, 0.005859375, 0.152343750, -2.136718750, 0.380859375, -1.267578125, 0.144531250, 0.191406250, 0.195312500, -1.984375000, 0.306640625, -0.748046875, 0.427734375, 0.443359375, 0.537109375, -0.410156250, 0.355468750, 0.125000000, 0.376953125, -1.677734375, 0.296875000, -0.667968750, 0.320312500, 0.527343750, 0.335937500, -2.660156250, 0.279296875, -0.681640625, 0.015625000, 0.031250000, -0.031250000, -0.089843750, 0.054687500, 0.052734375, 0.097656250, -2.005859375, -0.207031250, -0.173828125, 0.105468750, 0.013671875, -0.001953125, -2.697265625, -0.166015625, -0.173828125, 0.117187500, 0.072265625, 0.037109375, 0.140625000, 0.222656250, -1.126953125, 0.048828125, -2.066406250, 0.099609375, 0.097656250, 0.107421875, 0.154296875, 0.259765625, -2.728515625, 0.253906250, -0.417968750, 0.488281250, 0.464843750, 0.494140625, -0.166015625, 0.501953125, -0.126953125, 0.275390625, -0.976562500, 0.287109375, 0.107421875, 0.359375000, 0.441406250, 0.474609375, -2.064453125, 0.404296875, -0.199218750, -0.035156250, -0.080078125, -0.021484375, 0.050781250, 0.150390625, -0.658203125, 0.150390625, -1.638671875, -0.066406250, 0.191406250, 0.199218750, 0.156250000, 0.142578125, -2.296875000, 0.224609375, -0.105468750, 0.546875000, 0.568359375, 0.343750000, -0.310546875, 0.462890625, -1.771484375, 0.421875000, -1.728515625, 0.375000000, 0.863281250, 0.330078125, 0.429687500, 0.308593750, -2.218750000, 0.359375000, -0.101562500, 0.123046875, 0.462890625, 0.431640625, -0.683593750, 0.189453125, -2.865234375, 0.140625000, -0.306640625, 0.281250000, 0.316406250, 0.386718750, 0.060546875, 0.449218750, -2.632812500, 0.244140625, -0.830078125, 0.193359375, 0.486328125, 0.314453125, -0.361328125, 0.400390625, -3.156250000, 0.296875000, -0.119140625, 0.173828125, 0.195312500, 0.308593750, 0.302734375, 0.330078125, -2.429687500, 0.162109375, 0.119140625, 0.294921875, 0.173828125, 0.345703125, -0.361328125, 0.222656250, -3.068359375, 0.394531250, 0.294921875, 0.085937500, 0.496093750, 0.363281250, 0.285156250, 0.347656250, -2.556640625, 0.462890625, -0.080078125, 0.414062500, 0.347656250, 0.476562500, -0.597656250, 0.193359375, -3.552734375, 0.193359375, -0.328125000, 0.501953125, 0.212890625, 0.185546875, 0.292968750, 0.408203125, -2.789062500, 0.136718750, -0.953125000, 0.130859375, 0.189453125, 0.195312500, -0.078125000, 0.103515625, -3.568359375, 0.248046875, 0.359375000, 0.162109375, -0.027343750, 0.283203125, 0.162109375, 0.056640625, -1.078125000, 0.119140625, -0.500000000, 0.230468750, 0.107421875, 0.031250000, -0.394531250, 0.197265625, -3.501953125, 0.169921875, 0.107421875, 0.240234375, 0.470703125, 0.175781250, 0.261718750, 0.345703125, -1.970703125, 0.343750000, -0.083984375, 0.453125000, 0.484375000, 0.390625000, -0.234375000, 0.378906250, -2.232421875, 0.230468750, -0.166015625, 0.375000000, -1.175781250, 0.607421875, 0.427734375, 0.330078125, -0.082031250, 0.390625000, -1.779296875, 0.136718750, -0.097656250, 0.007812500, -0.123046875, 0.126953125, -2.314453125, 0.044921875, 0.089843750, -0.121093750, -0.876953125, 0.091796875, 0.062500000, 0.101562500, 0.253906250, -0.046875000, -1.904296875, 0.027343750, -0.001953125, 0.076171875, 0.123046875, 0.142578125, -2.431640625, 0.062500000, 0.064453125, -0.064453125, -0.951171875, 0.115234375, 0.253906250, 0.126953125, 0.326171875, -0.031250000, -2.083984375, 0.056640625, 0.082031250, 0.023437500, 0.017578125, 0.050781250, 0.222656250, 0.060546875, -0.757812500, -0.029296875, 0.203125000, -0.101562500, -0.044921875, 0.068359375, 0.488281250, -0.083984375, -0.296875000, 0.359375000, 0.312500000, 0.353515625, -0.279296875, 0.357421875, 0.115234375, 0.412109375, -0.494140625, 0.365234375, -0.050781250, 0.449218750, 0.478515625, 0.302734375, 0.673828125, 0.619140625, -0.562500000, 0.462890625, 0.466796875, 0.470703125, -0.187500000, 0.400390625, -0.107421875, 0.384765625, -1.054687500, 0.535156250, -0.078125000, 0.490234375, 0.480468750, 0.507812500, -0.289062500, 0.359375000, -0.462890625, 0.019531250, 0.208984375, 0.017578125, -0.146484375, 0.130859375, 0.349609375, 0.228515625, -0.220703125, 0.125000000, -0.257812500, 0.179687500, 0.134765625, 0.169921875, -0.609375000, 0.095703125, 0.062500000, 0.294921875, 0.195312500, 0.273437500, -0.357421875, 0.359375000, 0.339843750, 0.289062500, -0.193359375, 0.232421875, -0.185546875, 0.238281250, 0.265625000, 0.216796875, -0.115234375, 0.312500000, -0.220703125, 0.458984375, 0.347656250, 0.517578125, -0.396484375, 0.312500000, 0.361328125, 0.269531250, -1.718750000, 0.523437500, -0.320312500, 0.380859375, 0.443359375, 0.378906250, -0.496093750, 0.492187500, -0.310546875, 0.068359375, 0.103515625, 0.130859375, -0.363281250, 0.080078125, -0.634765625, -0.132812500, -1.560546875, 0.046875000, 0.125000000, 0.205078125, 0.021484375, -0.013671875, -0.023437500, -0.011718750, -1.044921875, 0.097656250, 0.205078125, 0.259765625, -0.218750000, 0.208984375, 0.101562500, 0.246093750, -1.097656250, 0.144531250, 0.332031250, 0.205078125, 0.376953125, 0.333984375, -0.064453125, 0.230468750, -0.433593750, 0.191406250, 0.097656250, 0.146484375, -0.097656250, 0.091796875, 0.330078125, 0.070312500, -1.419921875, 0.037109375, -0.166015625, 0.201171875, -0.035156250, -0.017578125, -0.195312500, -0.021484375, -0.203125000, 0.203125000, 0.304687500, 0.222656250, -0.443359375, 0.197265625, -0.041015625, 0.193359375, -1.654296875, 0.089843750, -0.308593750, 0.267578125, 0.257812500, 0.296875000, -2.398437500, 0.289062500, -0.542968750, 0.015625000, 0.101562500, 0.140625000, -0.222656250, 0.177734375, 0.257812500, 0.171875000, -1.875000000, 0.195312500, 0.005859375, 0.029296875, 0.058593750, 0.173828125, -2.408203125, 0.060546875, -0.394531250, 0.029296875, -0.132812500, 0.107421875, -0.185546875, -0.019531250, -0.337890625, 0.087890625, -2.105468750, -0.003906250, -0.025390625, -0.179687500, -0.109375000, -0.150390625, -2.457031250, -0.037109375, -0.343750000, 0.437500000, 0.341796875, 0.349609375, -0.802734375, 0.404296875, -0.566406250, 0.363281250, -1.279296875, 0.478515625, -0.173828125, 0.376953125, 0.488281250, 0.240234375, -1.269531250, 0.527343750, -0.718750000, 0.097656250, 0.111328125, 0.240234375, -0.216796875, 0.089843750, -0.128906250, 0.050781250, -1.410156250, 0.029296875, 0.113281250, 0.111328125, 0.056640625, 0.054687500, -1.275390625, -0.044921875, -0.333984375, 0.087890625, 0.078125000, -0.058593750, -0.222656250, -0.033203125, -0.980468750, 0.101562500, -1.695312500, -0.078125000, 0.767578125, -0.007812500, -0.005859375, -0.125000000, -1.667968750, 0.074218750, -0.228515625, 0.494140625, 0.458984375, 0.541015625, -0.580078125, 0.619140625, 0.509765625, 0.591796875, -1.527343750, 0.488281250, 0.089843750, 0.427734375, 0.611328125, 0.490234375, -1.910156250, 0.615234375, -0.906250000, 0.183593750, 0.236328125, 0.023437500, -0.041015625, 0.130859375, -0.017578125, 0.050781250, -1.453125000, 0.285156250, 0.414062500, 0.322265625, 0.007812500, -0.027343750, -2.273437500, 0.074218750, -0.363281250, 0.005859375, 0.064453125, 0.039062500, -0.068359375, 0.082031250, -0.693359375, -0.091796875, -1.263671875, 0.050781250, 0.359375000, 0.042968750, -0.082031250, 0.125000000, -2.716796875, -0.058593750, -0.072265625, 0.347656250, 0.419921875, 0.304687500, -0.705078125, 0.603515625, -3.185546875, 0.476562500, -1.326171875, 0.388671875, 0.208984375, 0.201171875, 0.302734375, 0.371093750, -1.855468750, 0.492187500, -0.535156250, -0.035156250, 0.123046875, 0.019531250, -0.031250000, 0.146484375, -3.003906250, 0.263671875, -0.451171875, 0.232421875, 0.107421875, 0.050781250, 0.208984375, 0.152343750, -1.800781250, 0.087890625, 0.087890625, 0.296875000, 0.228515625, 0.226562500, -0.062500000, 0.044921875, -3.212890625, 0.064453125, 0.183593750, 0.029296875, 0.605468750, 0.085937500, 0.234375000, 0.103515625, -1.923828125, 0.007812500, -0.277343750, 0.464843750, 0.287109375, 0.421875000, -0.384765625, 0.408203125, -3.099609375, 0.201171875, -1.324218750, 0.515625000, -0.199218750, 0.390625000, 0.410156250, 0.568359375, -0.718750000, 0.494140625, -1.361328125, 0.058593750, -0.169921875, -0.021484375, 0.095703125, -0.251953125, -3.121093750, -0.265625000, 0.076171875, -0.068359375, -0.312500000, 0.031250000, -0.039062500, 0.011718750, -1.414062500, -0.167968750, -0.775390625, -0.076171875, -0.076171875, -0.095703125, 0.365234375, -0.220703125, -2.986328125, -0.082031250, 0.560546875, -0.087890625, -0.333984375, -0.130859375, -0.279296875, -0.121093750, -0.617187500, -0.091796875, -1.937500000, 0.568359375, 0.613281250, 0.654296875, -0.384765625, 0.625000000, -3.193359375, 0.519531250, -0.517578125, 0.484375000, 0.447265625, 0.589843750, 0.601562500, 0.546875000, 0.150390625, 0.570312500, -4.511718750, 0.548828125, 0.484375000, 0.556640625, -0.402343750, 0.599609375, -3.355468750, 0.628906250, -0.828125000, 0.478515625, 0.365234375, 0.556640625, 0.466796875, 0.669921875, 0.570312500, 0.349609375, -4.755859375, 0.095703125, 0.246093750, 0.033203125, -0.121093750, 0.115234375, -3.210937500, 0.207031250, 0.251953125, 0.021484375, 0.599609375, 0.105468750, 0.115234375, 0.128906250, 0.730468750, 0.011718750, -4.714843750};

#endif

#endif
