//Numpy array shape [7, 7, 1, 4]
//Min -2.322265625000
//Max 2.082031250000
//Number of zeros 1

#ifndef W8_H_
#define W8_H_

#ifndef __SYNTHESIS__
weight8_t w8[196];
#else
weight8_t w8[196] = {-0.251953125, -1.326171875, -1.232421875, 0.203125000, -0.802734375, -0.964843750, -2.322265625, -0.035156250, -0.826171875, -0.494140625, -0.978515625, 0.324218750, -0.400390625, 0.361328125, 0.449218750, 0.781250000, 0.630859375, 0.000000000, 0.783203125, 0.177734375, 0.208984375, -0.187500000, 0.800781250, 0.367187500, 0.359375000, -0.021484375, 0.332031250, 0.927734375, 0.169921875, -1.007812500, -1.250000000, -0.441406250, -0.115234375, -0.513671875, -0.394531250, -0.062500000, -0.542968750, -1.064453125, -1.582031250, 0.537109375, 0.191406250, 0.054687500, -0.740234375, 1.097656250, 0.236328125, -0.621093750, 0.560546875, 0.648437500, 0.521484375, 0.017578125, 0.474609375, -0.091796875, 1.105468750, -0.175781250, 0.343750000, 1.039062500, 0.056640625, -0.970703125, -0.439453125, -0.712890625, -0.324218750, -0.111328125, -1.742187500, -0.548828125, -0.332031250, -1.136718750, -1.314453125, -0.033203125, 0.654296875, -0.333984375, -1.154296875, 0.599609375, 1.726562500, -0.115234375, 1.074218750, 0.441406250, 1.888671875, -0.384765625, 0.568359375, 0.720703125, 1.730468750, -0.292968750, 0.441406250, 0.300781250, -0.207031250, -0.343750000, -0.167968750, -0.410156250, 0.222656250, 0.451171875, -0.306640625, -1.257812500, 0.242187500, -1.443359375, -1.681640625, -0.939453125, 0.744140625, 1.847656250, 1.197265625, 0.695312500, 0.740234375, 0.187500000, -0.679687500, 0.583984375, 0.285156250, -0.339843750, -0.119140625, 0.160156250, 0.025390625, -0.218750000, -0.251953125, -0.033203125, 0.013671875, 0.144531250, -0.363281250, -0.009765625, 1.910156250, -1.269531250, -0.369140625, 0.957031250, -0.042968750, -0.177734375, 0.943359375, -0.087890625, 0.490234375, 0.125000000, 0.501953125, 0.367187500, -0.500000000, -0.361328125, -1.732421875, -0.470703125, -0.587890625, -0.201171875, -0.818359375, -0.111328125, -0.849609375, -0.261718750, -0.222656250, 0.015625000, 1.113281250, -0.220703125, 0.451171875, 0.472656250, 0.306640625, -0.080078125, 0.572265625, 0.439453125, -0.171875000, 1.041015625, 0.587890625, 0.119140625, 0.785156250, 0.263671875, -0.058593750, 1.214843750, 0.068359375, -0.158203125, -2.125000000, -0.996093750, -0.150390625, 0.037109375, -1.333984375, -0.265625000, -0.830078125, 0.242187500, -1.201171875, -0.062500000, 1.371093750, 1.945312500, 0.632812500, 1.281250000, 1.974609375, -0.238281250, -1.001953125, -0.251953125, 2.082031250, 1.156250000, 0.541015625, 1.613281250, 0.402343750, 0.033203125, -0.962890625, 1.119140625, -0.607421875, -0.839843750, 0.500000000, 0.740234375, -0.021484375, -0.080078125, 0.095703125, 0.031250000, -0.287109375, 0.326171875, -1.294921875, 0.027343750};

#endif

#endif
