//Numpy array shape [64]
//Min -0.738281250000
//Max 0.916015625000
//Number of zeros 0

#ifndef B11_H_
#define B11_H_

#ifndef __SYNTHESIS__
bias11_t b11[64];
#else
bias11_t b11[64] = {0.193359375, 0.191406250, 0.117187500, 0.582031250, 0.835937500, 0.404296875, -0.318359375, -0.005859375, 0.179687500, -0.150390625, -0.019531250, 0.005859375, -0.347656250, 0.074218750, 0.302734375, 0.277343750, -0.708984375, 0.369140625, 0.060546875, 0.421875000, 0.507812500, -0.347656250, 0.398437500, 0.314453125, 0.470703125, 0.435546875, 0.234375000, -0.085937500, -0.257812500, 0.208984375, 0.318359375, -0.376953125, 0.445312500, -0.199218750, -0.255859375, 0.242187500, -0.291015625, -0.716796875, 0.568359375, 0.248046875, 0.103515625, -0.160156250, 0.490234375, 0.097656250, 0.916015625, 0.158203125, 0.482421875, 0.474609375, 0.332031250, -0.212890625, 0.726562500, -0.158203125, 0.091796875, 0.255859375, -0.322265625, -0.041015625, -0.048828125, -0.052734375, -0.738281250, -0.058593750, 0.417968750, 0.123046875, -0.001953125, 0.335937500};

#endif

#endif
