//Numpy array shape [64, 10]
//Min -2.591796875000
//Max 1.853515625000
//Number of zeros 1

#ifndef W14_H_
#define W14_H_

#ifndef __SYNTHESIS__
weight14_t w14[640];
#else
weight14_t w14[640] = {0.199218750, 0.656250000, -0.285156250, -0.300781250, -0.228515625, -1.353515625, 1.087890625, 0.091796875, 0.314453125, -1.037109375, 0.812500000, -0.138671875, 0.580078125, -0.472656250, 0.236328125, -0.365234375, -2.388671875, 0.906250000, -1.109375000, 0.363281250, 0.220703125, -0.578125000, 0.296875000, -0.738281250, 1.476562500, -0.230468750, 0.292968750, 0.828125000, -0.507812500, -0.152343750, 1.296875000, 0.099609375, 0.330078125, -0.718750000, 0.537109375, 0.433593750, 0.439453125, -1.335937500, -0.347656250, -1.052734375, -0.843750000, 0.814453125, -0.298828125, -0.005859375, -0.119140625, 0.078125000, 1.560546875, 0.484375000, -0.675781250, -0.021484375, 0.441406250, 0.851562500, -0.593750000, -1.525390625, 0.279296875, 0.179687500, -0.890625000, 1.853515625, 0.029296875, 0.156250000, 0.787109375, 0.964843750, 0.371093750, 0.414062500, -1.869140625, 0.511718750, -1.197265625, 0.193359375, -0.117187500, -1.224609375, -0.111328125, -0.964843750, 1.427734375, 0.697265625, -0.384765625, 0.345703125, -1.054687500, -0.644531250, 0.291015625, -2.591796875, -0.695312500, -0.027343750, -0.511718750, 0.150390625, -0.226562500, 0.173828125, 0.539062500, -1.632812500, 0.683593750, 0.216796875, 0.423828125, -1.498046875, 0.710937500, -0.531250000, 0.341796875, 0.621093750, 0.134765625, -0.783203125, 0.593750000, -0.541015625, -0.029296875, -1.365234375, -0.718750000, -0.027343750, -0.273437500, 1.082031250, 0.455078125, 0.960937500, -0.076171875, -0.615234375, -0.373046875, 0.533203125, 0.957031250, 0.082031250, 0.154296875, -0.457031250, -1.339843750, 0.339843750, -0.285156250, -1.046875000, -0.037109375, -1.306640625, 0.181640625, 0.242187500, -1.664062500, 0.417968750, 0.306640625, 0.472656250, 0.300781250, -0.607421875, -0.203125000, 0.570312500, 1.037109375, 0.638671875, -0.488281250, -1.472656250, -0.435546875, 0.853515625, -1.070312500, -0.072265625, -0.583984375, 1.304687500, -0.855468750, -0.029296875, -0.863281250, 1.703125000, -1.169921875, -0.431640625, 0.134765625, -0.888671875, -0.683593750, -0.222656250, 0.095703125, 0.376953125, -0.283203125, -0.453125000, 0.380859375, 0.181640625, -0.703125000, -0.017578125, 0.421875000, -0.984375000, 0.380859375, 0.849609375, -0.562500000, -0.134765625, 0.888671875, -1.123046875, 0.320312500, -0.253906250, -0.445312500, 0.316406250, 0.316406250, 0.310546875, -1.162109375, -1.320312500, 0.259765625, 0.847656250, -0.167968750, 0.796875000, 0.439453125, -0.410156250, -1.837890625, -0.394531250, 0.224609375, 0.744140625, -0.314453125, -0.574218750, 0.580078125, -0.046875000, -0.710937500, 0.611328125, 0.123046875, -1.089843750, 0.511718750, 0.888671875, 0.164062500, -0.968750000, 0.230468750, -0.904296875, -1.201171875, 0.849609375, 0.710937500, -0.173828125, -0.853515625, -0.023437500, -0.693359375, 1.115234375, -0.875000000, -0.507812500, 0.291015625, -0.712890625, 0.011718750, 0.527343750, -0.183593750, -0.476562500, -0.511718750, -0.257812500, 0.634765625, 0.394531250, -1.091796875, -1.121093750, -1.017578125, -0.132812500, 0.164062500, 0.789062500, 0.339843750, -0.671875000, 0.736328125, 0.486328125, 0.134765625, 0.250000000, -1.169921875, -1.507812500, 1.208984375, 0.333984375, 1.421875000, -1.003906250, 0.939453125, -0.511718750, -0.910156250, 1.109375000, -0.214843750, -0.699218750, -0.031250000, 0.554687500, 0.638671875, 1.000000000, -1.419921875, 0.458984375, -0.126953125, -0.736328125, -0.640625000, -0.628906250, 0.105468750, 0.021484375, 0.312500000, 0.287109375, 0.691406250, 0.441406250, -0.623046875, -0.376953125, 0.244140625, 0.791015625, 0.324218750, -0.054687500, -2.441406250, 0.623046875, -0.173828125, 0.136718750, 1.279296875, -0.089843750, 0.529296875, -0.697265625, -0.253906250, -0.298828125, 0.339843750, 0.052734375, 0.054687500, -0.169921875, -1.533203125, -1.078125000, 0.236328125, 1.443359375, -0.183593750, 0.082031250, -0.523437500, 0.513671875, -0.574218750, 0.136718750, -0.548828125, -1.013671875, -0.162109375, 0.363281250, 0.804687500, 0.279296875, -1.320312500, -0.021484375, 0.488281250, 0.068359375, -0.103515625, 0.363281250, 0.728515625, -0.818359375, 0.343750000, -0.769531250, -0.404296875, -0.146484375, -0.216796875, 0.554687500, -0.033203125, -0.091796875, 0.441406250, 0.285156250, -0.507812500, 0.048828125, 0.000000000, -0.681640625, 0.533203125, -0.283203125, -2.144531250, -0.337890625, 0.107421875, 1.166015625, 0.496093750, 0.347656250, -0.115234375, -0.246093750, -0.482421875, -0.615234375, 1.386718750, 1.349609375, -0.640625000, -0.060546875, -1.304687500, 0.199218750, -0.593750000, 0.964843750, -1.429687500, -0.464843750, -0.095703125, -0.314453125, -0.240234375, 1.007812500, -0.425781250, -0.070312500, -1.251953125, 0.222656250, -0.414062500, 0.402343750, 0.316406250, 0.248046875, -1.138671875, -0.238281250, -0.142578125, 0.396484375, 0.611328125, -1.259765625, 0.341796875, -0.921875000, 0.617187500, -0.787109375, -0.041015625, 0.064453125, -1.021484375, -0.195312500, 0.431640625, 0.068359375, -0.353515625, 0.486328125, 0.470703125, -1.019531250, 0.156250000, 0.417968750, -1.062500000, 0.156250000, -0.660156250, -0.029296875, 0.150390625, 0.244140625, 0.068359375, 0.277343750, -0.994140625, -0.853515625, 0.443359375, -0.205078125, -0.099609375, 0.232421875, 1.125000000, -1.287109375, 0.220703125, 1.378906250, 0.683593750, -1.150390625, 0.255859375, 0.806640625, 0.083984375, -1.042968750, -0.134765625, -0.218750000, -1.097656250, -0.074218750, -0.542968750, 1.462890625, -0.203125000, -0.115234375, -0.662109375, -1.027343750, 0.486328125, -0.052734375, 0.244140625, -1.537109375, 0.025390625, 0.070312500, 0.224609375, -0.554687500, -0.216796875, -0.257812500, 0.648437500, -0.357421875, -0.642578125, 1.154296875, -0.693359375, -0.765625000, 1.041015625, 0.212890625, 0.076171875, -0.369140625, 0.318359375, -1.515625000, 0.138671875, 1.812500000, 0.742187500, 0.183593750, 0.384765625, -1.484375000, -0.085937500, -0.128906250, -0.632812500, -0.324218750, -1.259765625, 0.464843750, -0.080078125, -0.554687500, 0.197265625, -0.228515625, 0.548828125, 0.412109375, 0.048828125, 0.462890625, -0.457031250, 0.068359375, 0.359375000, 0.443359375, -0.964843750, 0.396484375, -0.566406250, -1.595703125, 0.833984375, -0.886718750, -1.554687500, 1.359375000, -1.166015625, -0.441406250, 0.212890625, -0.607421875, -0.306640625, 0.544921875, -0.234375000, 0.597656250, -0.376953125, 0.277343750, 1.138671875, 0.527343750, -0.740234375, -0.251953125, -0.484375000, -0.767578125, -0.001953125, -1.960937500, -0.683593750, 0.179687500, 0.224609375, -0.044921875, -0.617187500, -0.115234375, -0.269531250, 0.533203125, 0.054687500, 0.685546875, 0.339843750, -1.068359375, 0.339843750, -0.080078125, 0.308593750, -0.699218750, 0.255859375, -0.412109375, 0.111328125, 0.349609375, 0.585937500, 1.275390625, 0.119140625, -0.945312500, 0.607421875, -1.378906250, 0.082031250, 0.671875000, -0.949218750, 0.390625000, 0.535156250, -0.501953125, 0.548828125, 0.109375000, -0.048828125, 0.609375000, 0.751953125, -0.757812500, -0.759765625, -0.535156250, -0.513671875, 0.218750000, -0.703125000, -0.013671875, 0.060546875, 0.968750000, 0.572265625, 0.400390625, -0.535156250, 0.519531250, -0.402343750, -2.103515625, 0.681640625, 0.357421875, -0.037109375, -0.226562500, -0.050781250, 0.111328125, 0.232421875, 0.712890625, 0.240234375, -0.722656250, 0.240234375, 0.089843750, 0.132812500, -0.142578125, 0.250000000, -0.896484375, 0.359375000, -0.332031250, -0.236328125, 0.837890625, 0.027343750, -1.546875000, -1.833984375, 1.818359375, 0.041015625, -0.683593750, 0.341796875, 0.820312500, 0.240234375, -0.582031250, -0.730468750, 0.250000000, 0.025390625, 0.535156250, -0.111328125, -0.806640625, 0.259765625, 0.523437500, -0.208984375, -1.509765625, -0.662109375, 0.617187500, 0.173828125, -0.388671875, 0.416015625, 0.257812500, 0.558593750, 0.244140625, 0.974609375, -0.208984375, -0.234375000, -0.044921875, -0.574218750, -0.029296875, 1.257812500, -1.464843750, -0.269531250, -0.082031250, -0.304687500, -0.306640625, 0.720703125, 0.376953125, -1.060546875, -0.166015625, -1.552734375, 0.585937500, -0.080078125, 0.416015625, 1.642578125, -0.326171875, -0.162109375, -2.001953125, 0.414062500, -0.195312500, 0.427734375, 0.050781250, -0.550781250, 0.546875000, -0.197265625, -0.787109375, 0.705078125, -0.291015625, -1.349609375, 0.695312500, -1.423828125, 0.482421875, 0.039062500, -0.156250000, -1.078125000, -0.466796875, -1.041015625, 0.955078125, 0.791015625, -0.451171875, 0.820312500, 0.097656250, -1.265625000, -0.189453125, 0.332031250, 0.863281250, 0.095703125, 0.414062500, 0.373046875, -0.962890625, -0.697265625, 0.345703125, -0.636718750, -0.208984375};

#endif

#endif
