//Numpy array shape [36, 10]
//Min -3.228515625000
//Max 3.414062500000
//Number of zeros 0

#ifndef W14_H_
#define W14_H_

#ifndef __SYNTHESIS__
weight14_t w14[360];
#else
weight14_t w14[360] = {1.189453125, 0.273437500, 0.240234375, -1.068359375, -1.320312500, -0.509765625, 2.337890625, -1.093750000, -1.367187500, -0.636718750, 0.496093750, 1.466796875, -0.505859375, -1.130859375, 0.960937500, 0.976562500, -1.957031250, 1.105468750, -0.892578125, -0.003906250, 0.208984375, -1.886718750, 0.330078125, -1.025390625, 0.001953125, -0.523437500, 1.257812500, 1.001953125, -0.890625000, 0.390625000, -1.255859375, 0.332031250, 1.238281250, -0.089843750, -1.822265625, 0.208984375, -2.234375000, 1.003906250, -1.214843750, -1.423828125, 1.300781250, -0.564453125, -2.230468750, -0.714843750, 0.328125000, -1.205078125, 0.884765625, 0.335937500, 0.132812500, 2.078125000, 0.396484375, -0.734375000, -0.876953125, 0.205078125, 0.074218750, -0.630859375, 0.810546875, 0.716796875, 0.251953125, 0.218750000, 0.933593750, 0.039062500, 0.664062500, -0.261718750, -1.316406250, -0.285156250, -0.751953125, 0.050781250, 1.046875000, -1.623046875, -0.011718750, 0.935546875, 0.912109375, 0.341796875, -0.537109375, -0.439453125, 1.128906250, -0.683593750, -0.082031250, -2.654296875, -1.859375000, -1.539062500, -0.166015625, -0.419921875, 1.781250000, -0.240234375, -0.054687500, -0.943359375, 0.177734375, 0.603515625, -0.998046875, -1.000000000, 0.271484375, -0.578125000, 1.201171875, 0.457031250, -0.505859375, -0.041015625, 0.929687500, 0.082031250, -1.378906250, -0.257812500, -0.320312500, -0.240234375, 0.902343750, 0.863281250, -0.636718750, 0.603515625, 0.476562500, -0.771484375, -0.642578125, -0.183593750, 0.035156250, 0.808593750, -1.767578125, 0.919921875, -1.312500000, 0.156250000, 0.230468750, -0.806640625, 0.023437500, -1.865234375, 0.246093750, -1.400390625, 0.484375000, 0.121093750, 0.105468750, 1.568359375, -0.296875000, -0.121093750, -1.291015625, 1.482421875, 0.246093750, 1.212890625, -0.318359375, -1.195312500, -1.533203125, 0.263671875, -0.621093750, 0.279296875, -0.695312500, 1.988281250, -0.039062500, 0.095703125, -0.441406250, 0.972656250, 1.166015625, -0.507812500, -0.072265625, -2.445312500, -2.013671875, -0.050781250, -0.212890625, 0.802734375, 0.281250000, -1.054687500, -0.513671875, 0.285156250, -1.046875000, 0.917968750, -0.580078125, -0.351562500, 1.113281250, 0.431640625, 0.121093750, -0.527343750, 1.234375000, -1.095703125, -0.289062500, -0.521484375, -0.767578125, 0.890625000, 0.111328125, 0.423828125, -0.494140625, -1.304687500, -0.330078125, 0.585937500, 0.318359375, 0.265625000, 0.466796875, 3.414062500, -0.339843750, -0.664062500, -1.494140625, 0.376953125, -0.207031250, 0.082031250, -0.976562500, 0.039062500, 0.359375000, -1.482421875, 0.664062500, -1.021484375, 0.500000000, -0.812500000, 1.162109375, -0.898437500, 0.679687500, -0.160156250, -0.693359375, -0.583984375, -0.705078125, -0.009765625, -1.988281250, 0.412109375, 0.587890625, -1.164062500, -0.384765625, 1.578125000, 0.599609375, 0.308593750, -0.277343750, 1.019531250, 0.337890625, -1.191406250, -1.433593750, 0.482421875, 0.355468750, 0.048828125, -0.701171875, -0.574218750, -1.855468750, 0.507812500, 0.859375000, 0.375000000, 0.115234375, 0.025390625, 0.449218750, -0.333984375, 1.048828125, 1.833984375, -0.789062500, -1.779296875, 0.212890625, -0.558593750, 0.720703125, 0.390625000, -0.923828125, -1.328125000, 1.916015625, 1.554687500, 0.185546875, -0.722656250, 0.199218750, -1.542968750, -2.060546875, 0.169921875, -0.720703125, -0.046875000, 0.412109375, -1.892578125, -1.128906250, -0.855468750, -0.558593750, 0.976562500, 0.718750000, -0.650390625, 0.320312500, 0.912109375, 1.181640625, -0.500000000, 0.873046875, -0.517578125, 0.009765625, -0.541015625, -0.896484375, 0.443359375, 0.275390625, -0.267578125, -1.548828125, 0.681640625, 0.513671875, 0.826171875, -0.822265625, 0.333984375, -0.519531250, 1.396484375, -0.140625000, -1.349609375, 0.218750000, -0.621093750, 1.673828125, 1.376953125, -2.423828125, 1.146484375, -2.119140625, -0.093750000, -0.007812500, 0.001953125, -1.060546875, -0.609375000, 0.187500000, 0.677734375, -0.121093750, 1.136718750, 0.619140625, -1.296875000, -0.388671875, -0.347656250, 0.371093750, 1.359375000, -0.298828125, -0.609375000, 1.146484375, -2.068359375, -1.074218750, 0.371093750, -0.806640625, 0.566406250, 1.109375000, -0.791015625, 0.804687500, 0.753906250, 0.275390625, -0.140625000, 0.546875000, -2.941406250, -0.078125000, -0.939453125, -0.822265625, -0.994140625, -0.513671875, -1.939453125, -0.435546875, 0.222656250, 1.730468750, 0.722656250, -1.042968750, 0.564453125, 0.779296875, -2.156250000, 0.230468750, 0.523437500, -1.910156250, 0.544921875, -0.382812500, 0.308593750, -0.458984375, 0.308593750, 0.392578125, -0.375000000, 0.015625000, 0.523437500, -1.640625000, -0.064453125, -1.349609375, -0.425781250, 0.148437500, 0.576171875, 0.111328125, -0.156250000, -0.880859375, -0.304687500, -0.228515625, 0.466796875, 0.615234375, -3.228515625, 0.650390625, 0.023437500};

#endif

#endif
