//Numpy array shape [7, 7, 1, 4]
//Min -0.984375000000
//Max 0.992187500000
//Number of zeros 0

#ifndef W8_H_
#define W8_H_

#ifndef __SYNTHESIS__
weight8_t w8[196];
#else
weight8_t w8[196] = {0.9921875, 0.7734375, -0.0078125, -0.2187500, -0.9687500, 0.9921875, 0.3281250, -0.0234375, -0.5234375, -0.9765625, 0.4140625, -0.0859375, -0.3671875, -0.3984375, -0.0156250, 0.9921875, -0.5390625, -0.7500000, 0.3046875, 0.9921875, -0.6015625, 0.9921875, 0.4140625, -0.5078125, 0.9921875, 0.9921875, 0.4609375, -0.5859375, 0.9921875, 0.7031250, 0.1953125, -0.3437500, 0.6015625, 0.9921875, 0.3671875, -0.1875000, -0.4531250, 0.2968750, 0.4140625, -0.2421875, -0.3437500, -0.3203125, 0.3359375, 0.9921875, -0.7031250, -0.4375000, 0.3750000, -0.0234375, 0.9921875, 0.9921875, 0.3515625, -0.2265625, 0.9921875, 0.9921875, 0.2968750, -0.5468750, 0.9921875, 0.9609375, 0.4218750, -0.9843750, 0.9921875, 0.9921875, 0.4296875, -0.2109375, 0.3125000, 0.9765625, 0.1718750, -0.3671875, -0.3437500, -0.5156250, 0.1328125, 0.7578125, 0.3359375, 0.9843750, 0.5000000, -0.0546875, 0.9921875, 0.9921875, 0.5000000, -0.2500000, 0.9921875, 0.9921875, 0.4921875, -0.6250000, 0.9765625, 0.5156250, 0.0390625, 0.9921875, 0.9921875, 0.9921875, 0.0390625, 0.9921875, 0.9921875, 0.9921875, 0.4062500, 0.1718750, 0.5390625, 0.5156250, 0.5625000, 0.3203125, 0.9921875, 0.9921875, 0.3984375, 0.0078125, 0.9921875, 0.9921875, 0.2500000, 0.0703125, 0.9921875, 0.9921875, 0.6015625, 0.4921875, 0.8906250, 0.9843750, 0.0234375, -0.7187500, 0.9921875, 0.9921875, 0.5625000, -0.3515625, 0.4375000, 0.5078125, 0.3671875, -0.2265625, -0.2734375, -0.4140625, 0.1875000, 0.9921875, 0.5390625, 0.9218750, 0.2578125, -0.3515625, 0.9921875, 0.9921875, 0.2968750, -0.2421875, 0.9921875, 0.9921875, 0.4375000, -0.6171875, 0.9921875, 0.9921875, 0.4140625, -0.3750000, 0.8046875, 0.9765625, 0.4375000, -0.2187500, -0.2890625, -0.2656250, 0.3203125, -0.0937500, -0.0468750, -0.3046875, 0.4062500, 0.9921875, -0.5468750, 0.0625000, -0.0625000, -0.6406250, 0.9921875, 0.9921875, 0.1796875, -0.3750000, 0.9921875, 0.9921875, 0.1953125, -0.4687500, 0.9921875, 0.9921875, 0.1484375, -0.5781250, -0.8750000, 0.4140625, 0.4140625, -0.9140625, -0.0078125, -0.3593750, 0.0937500, 0.9921875, -0.1953125, -0.3203125, 0.1484375, 0.9921875, -0.0859375, -0.5234375, 0.5859375, -0.1953125, -0.8437500, 0.9921875, 0.0937500, -0.7421875, 0.9921875, 0.9921875, 0.2343750, -0.3671875};

#endif

#endif
