//Numpy array shape [256, 12]
//Min -3.888671875000
//Max 1.130859375000
//Number of zeros 2

#ifndef W13_H_
#define W13_H_

#ifndef __SYNTHESIS__
weight13_t w13[3072];
#else
weight13_t w13[3072] = {-0.082031250, -0.402343750, -0.671875000, 0.441406250, 0.056640625, 0.291015625, -0.982421875, 0.501953125, 0.251953125, 0.560546875, 0.222656250, 0.380859375, -0.013671875, -0.884765625, -1.019531250, 0.255859375, 0.339843750, 0.177734375, -1.097656250, 0.156250000, 0.259765625, 0.507812500, 0.324218750, 0.269531250, -0.072265625, 0.345703125, -0.769531250, 0.220703125, 0.339843750, 0.265625000, -0.896484375, 0.345703125, 0.263671875, 0.322265625, 0.273437500, 0.250000000, -0.205078125, -0.101562500, -0.626953125, 0.269531250, 0.210937500, 0.259765625, -1.367187500, 0.273437500, 0.169921875, 0.306640625, 0.279296875, 0.275390625, -0.078125000, -0.638671875, -0.621093750, 0.085937500, -0.119140625, 0.308593750, 0.001953125, 0.201171875, 0.142578125, 0.201171875, 0.193359375, 0.283203125, -0.029296875, -0.107421875, -0.673828125, 0.230468750, -0.007812500, 0.355468750, -0.492187500, 0.220703125, 0.144531250, 0.337890625, 0.275390625, 0.228515625, -0.027343750, -0.505859375, -0.615234375, -0.068359375, -0.201171875, 0.230468750, -0.392578125, 0.134765625, 0.191406250, 0.062500000, 0.093750000, 0.095703125, -0.136718750, -0.703125000, -0.707031250, 0.236328125, 0.011718750, 0.105468750, -1.876953125, 0.234375000, 0.425781250, 0.236328125, 0.156250000, 0.349609375, -0.765625000, -0.667968750, 0.320312500, 0.085937500, 0.037109375, 0.130859375, -0.623046875, 0.013671875, 0.181640625, 0.042968750, 0.156250000, 0.234375000, -0.470703125, -0.123046875, 0.058593750, 0.234375000, -0.396484375, 0.195312500, -0.578125000, 0.339843750, 0.431640625, 0.351562500, 0.339843750, 0.253906250, -0.541015625, -0.257812500, 0.132812500, 0.345703125, -0.574218750, 0.105468750, -0.861328125, 0.326171875, 0.429687500, 0.244140625, 0.402343750, 0.324218750, -0.541015625, -0.623046875, -0.144531250, 0.224609375, -0.289062500, 0.394531250, -1.125000000, 0.128906250, 0.250000000, 0.318359375, 0.421875000, 0.187500000, -0.703125000, -0.529296875, 0.212890625, 0.052734375, -0.011718750, 0.039062500, 0.011718750, 0.117187500, 0.183593750, 0.068359375, 0.041015625, 0.140625000, -0.685546875, -0.359375000, -0.146484375, 0.216796875, -0.175781250, 0.302734375, -0.203125000, 0.376953125, 0.533203125, 0.267578125, 0.310546875, 0.312500000, -1.111328125, -0.062500000, -0.238281250, 0.212890625, -0.214843750, 0.343750000, -0.675781250, 0.390625000, 0.169921875, 0.322265625, 0.296875000, 0.273437500, -0.650390625, -0.458984375, -0.277343750, 0.150390625, -0.345703125, 0.140625000, -0.066406250, 0.218750000, 0.324218750, 0.226562500, 0.425781250, 0.353515625, -0.693359375, -0.513671875, 0.187500000, 0.296875000, 0.193359375, 0.273437500, 0.654296875, 0.429687500, 0.281250000, 0.425781250, 0.269531250, 0.193359375, -0.435546875, -0.328125000, -0.072265625, 0.429687500, 0.150390625, 0.468750000, 0.109375000, 0.251953125, 0.220703125, 0.417968750, 0.398437500, 0.462890625, -0.556640625, 0.031250000, -0.103515625, 0.458984375, 0.017578125, 0.431640625, -0.365234375, 0.523437500, 0.457031250, 0.566406250, 0.476562500, 0.439453125, -0.978515625, -0.423828125, -0.064453125, 0.523437500, -0.275390625, 0.390625000, 0.431640625, 0.285156250, 0.394531250, 0.353515625, 0.388671875, 0.326171875, -0.904296875, -0.167968750, 0.078125000, 0.355468750, 0.308593750, 0.205078125, 0.437500000, 0.312500000, 0.230468750, 0.447265625, 0.296875000, 0.324218750, -1.015625000, -0.505859375, 0.109375000, 0.248046875, 0.214843750, 0.417968750, 0.375000000, 0.425781250, 0.164062500, 0.271484375, 0.435546875, 0.244140625, -0.236328125, -0.044921875, -0.294921875, 0.636718750, 0.042968750, 0.646484375, -0.148437500, 0.697265625, 0.556640625, 0.591796875, 0.541015625, 0.646484375, -0.845703125, -0.568359375, -0.160156250, 0.611328125, -0.033203125, 0.496093750, 0.589843750, 0.460937500, 0.486328125, 0.550781250, 0.652343750, 0.505859375, -0.519531250, 0.416015625, -0.603515625, 0.361328125, -0.148437500, 0.216796875, 0.175781250, 0.369140625, 0.199218750, 0.304687500, 0.185546875, 0.210937500, -0.603515625, 0.539062500, -0.404296875, 0.201171875, -0.466796875, 0.353515625, 0.435546875, 0.066406250, 0.357421875, 0.283203125, 0.201171875, 0.218750000, -0.587890625, 0.134765625, -0.328125000, 0.468750000, -0.275390625, 0.578125000, 0.083984375, 0.599609375, 0.576171875, 0.384765625, 0.666015625, 0.662109375, -0.691406250, 0.328125000, -0.621093750, 0.523437500, -0.548828125, 0.568359375, -0.097656250, 0.605468750, 0.458984375, 0.468750000, 0.580078125, 0.666015625, -0.480468750, 0.423828125, -0.626953125, 0.085937500, -2.474609375, 0.093750000, 0.421875000, 0.232421875, 0.080078125, 0.242187500, 0.085937500, 0.080078125, -0.521484375, 0.326171875, -0.271484375, 0.232421875, -3.236328125, 0.054687500, 0.433593750, 0.281250000, 0.212890625, 0.373046875, 0.095703125, 0.212890625, -0.763671875, -0.142578125, -0.921875000, 0.699218750, -2.185546875, 0.882812500, -0.087890625, 0.882812500, 0.509765625, 0.808593750, 0.595703125, 0.628906250, -0.494140625, -0.070312500, -0.658203125, 0.548828125, -3.888671875, 0.552734375, 0.464843750, 0.537109375, 0.511718750, 0.490234375, 0.691406250, 0.583984375, -0.117187500, -0.900390625, -0.175781250, 0.363281250, -0.615234375, 0.355468750, -0.867187500, 0.373046875, 0.238281250, 0.203125000, 0.273437500, 0.531250000, -0.347656250, -0.146484375, 0.042968750, 0.324218750, -0.539062500, 0.187500000, -0.980468750, 0.195312500, 0.314453125, 0.205078125, 0.433593750, 0.330078125, -0.125000000, -1.029296875, -0.080078125, 0.208984375, 0.591796875, 0.265625000, -0.927734375, 0.169921875, 0.339843750, 0.228515625, 0.179687500, 0.007812500, 0.044921875, -0.339843750, 0.339843750, 0.015625000, -0.775390625, 0.111328125, -1.917968750, 0.105468750, 0.003906250, 0.005859375, 0.238281250, -0.066406250, -0.394531250, -0.347656250, -0.189453125, 0.261718750, -0.244140625, 0.423828125, -0.931640625, 0.130859375, 0.386718750, 0.300781250, 0.462890625, 0.371093750, -0.099609375, -0.371093750, -0.160156250, 0.218750000, -0.519531250, 0.283203125, -0.716796875, 0.312500000, 0.232421875, 0.318359375, 0.214843750, 0.197265625, -0.060546875, -0.033203125, -0.068359375, 0.142578125, -0.294921875, 0.113281250, -1.373046875, 0.125000000, 0.277343750, 0.099609375, 0.058593750, 0.238281250, -0.216796875, -0.671875000, -0.460937500, 0.058593750, -0.777343750, 0.302734375, -1.203125000, 0.044921875, 0.167968750, 0.152343750, 0.232421875, 0.378906250, -0.107421875, -0.431640625, -0.148437500, 0.474609375, 0.080078125, 0.460937500, -1.798828125, 0.425781250, 0.294921875, 0.328125000, 0.503906250, 0.443359375, -0.234375000, -0.414062500, -0.199218750, 0.681640625, -0.093750000, 0.511718750, -1.519531250, 0.496093750, 0.546875000, 0.560546875, 0.519531250, 0.505859375, -0.212890625, -0.025390625, -0.187500000, 0.292968750, -0.166015625, 0.277343750, -1.537109375, 0.228515625, 0.324218750, 0.292968750, 0.244140625, 0.269531250, -0.246093750, -0.189453125, 0.001953125, 0.142578125, 0.031250000, 0.253906250, -1.951171875, 0.357421875, 0.291015625, 0.099609375, 0.220703125, 0.167968750, 0.125000000, -0.597656250, -0.222656250, 0.341796875, -0.388671875, 0.451171875, -1.066406250, 0.322265625, 0.199218750, 0.166015625, 0.337890625, 0.402343750, 0.015625000, -0.435546875, -0.164062500, 0.365234375, -0.533203125, 0.392578125, -1.001953125, 0.205078125, 0.427734375, 0.419921875, 0.312500000, 0.458984375, -0.111328125, 0.097656250, -0.013671875, 0.255859375, -0.005859375, 0.513671875, -1.414062500, 0.187500000, 0.208984375, 0.351562500, 0.457031250, 0.343750000, -0.150390625, -0.441406250, -0.333984375, 0.351562500, 0.072265625, 0.376953125, -1.039062500, 0.302734375, 0.285156250, 0.550781250, 0.378906250, 0.275390625, -0.136718750, -0.230468750, 0.087890625, 0.363281250, -0.013671875, 0.285156250, -0.148437500, 0.388671875, 0.416015625, 0.253906250, 0.289062500, 0.220703125, -0.132812500, -0.306640625, -0.060546875, 0.220703125, -0.326171875, 0.386718750, -0.558593750, 0.476562500, 0.384765625, 0.421875000, 0.384765625, 0.304687500, -0.412109375, -0.148437500, -0.197265625, 0.417968750, -0.218750000, 0.521484375, -0.490234375, 0.443359375, 0.449218750, 0.671875000, 0.640625000, 0.648437500, -0.136718750, -0.943359375, -0.056640625, 0.261718750, 0.093750000, 0.187500000, -0.125000000, 0.027343750, 0.242187500, 0.136718750, 0.179687500, 0.251953125, 0.005859375, -0.208984375, -0.048828125, 0.376953125, 0.060546875, 0.599609375, 0.251953125, 0.257812500, 0.287109375, 0.615234375, 0.486328125, 0.345703125, -0.101562500, -0.816406250, -0.212890625, 0.511718750, 0.101562500, 0.503906250, 0.253906250, 0.580078125, 0.351562500, 0.777343750, 0.552734375, 0.669921875, -0.240234375, 0.205078125, -0.363281250, 0.539062500, -0.070312500, 0.654296875, 0.406250000, 0.435546875, 0.505859375, 0.664062500, 0.531250000, 0.798828125, -0.080078125, -0.794921875, -0.113281250, 0.441406250, 0.085937500, 0.443359375, 0.853515625, 0.425781250, 0.341796875, 0.402343750, 0.242187500, 0.396484375, -0.136718750, -0.136718750, -0.291015625, 0.386718750, 0.083984375, 0.152343750, 0.521484375, 0.210937500, 0.091796875, 0.316406250, 0.271484375, 0.294921875, 0.095703125, -0.470703125, -0.238281250, 0.384765625, 0.064453125, 0.207031250, 0.599609375, 0.230468750, 0.162109375, 0.505859375, 0.394531250, 0.263671875, -0.201171875, -0.464843750, -0.333984375, 0.771484375, -1.019531250, 0.531250000, 0.363281250, 0.792968750, 0.630859375, 0.687500000, 0.755859375, 0.771484375, -0.289062500, -0.910156250, -0.548828125, 0.476562500, -0.300781250, 0.539062500, 0.835937500, 0.277343750, 0.558593750, 0.347656250, 0.328125000, 0.435546875, -0.175781250, -0.375000000, -0.166015625, 0.414062500, -0.404296875, 0.332031250, 0.476562500, 0.166015625, 0.343750000, 0.220703125, 0.439453125, 0.281250000, 0.144531250, 0.107421875, -0.093750000, 0.300781250, -0.330078125, 0.099609375, 0.818359375, 0.154296875, 0.126953125, 0.253906250, 0.126953125, 0.003906250, -0.257812500, -0.800781250, -0.681640625, 0.478515625, -0.728515625, 0.417968750, 0.417968750, 0.619140625, 0.527343750, 0.611328125, 0.373046875, 0.595703125, -0.693359375, -0.714843750, -0.515625000, 0.597656250, -0.705078125, 0.640625000, 0.826171875, 0.509765625, 0.392578125, 0.609375000, 0.460937500, 0.628906250, -0.457031250, -0.111328125, -0.294921875, 0.490234375, -0.224609375, 0.464843750, -1.019531250, 0.482421875, 0.283203125, 0.398437500, 0.511718750, 0.347656250, -0.259765625, -0.074218750, -0.091796875, 0.169921875, -0.851562500, 0.287109375, -1.228515625, 0.263671875, 0.318359375, 0.357421875, 0.251953125, 0.343750000, -0.287109375, 0.191406250, 0.103515625, 0.138671875, 0.472656250, 0.318359375, -1.236328125, 0.080078125, 0.175781250, 0.261718750, 0.222656250, 0.328125000, -0.130859375, 0.423828125, -0.109375000, 0.130859375, -1.333984375, 0.093750000, -1.359375000, 0.222656250, 0.138671875, 0.193359375, 0.238281250, 0.085937500, -0.505859375, -0.089843750, -0.185546875, 0.505859375, -0.423828125, 0.480468750, -1.224609375, 0.402343750, 0.345703125, 0.339843750, 0.324218750, 0.498046875, -0.529296875, 0.171875000, -0.232421875, 0.376953125, -0.302734375, 0.404296875, -1.265625000, 0.250000000, 0.320312500, 0.281250000, 0.392578125, 0.353515625, -0.445312500, 0.199218750, -0.052734375, 0.130859375, -0.039062500, 0.378906250, -1.267578125, 0.097656250, 0.267578125, 0.376953125, 0.234375000, 0.285156250, -0.425781250, -0.027343750, -0.324218750, 0.384765625, -0.294921875, 0.292968750, -1.603515625, 0.546875000, 0.400390625, 0.441406250, 0.541015625, 0.486328125, -0.402343750, -0.101562500, -0.285156250, 0.537109375, -0.498046875, 0.541015625, -0.535156250, 0.373046875, 0.408203125, 0.501953125, 0.458984375, 0.513671875, -0.330078125, 0.078125000, -0.015625000, 0.546875000, 0.062500000, 0.343750000, -0.367187500, 0.330078125, 0.541015625, 0.412109375, 0.449218750, 0.560546875, -0.230468750, 0.283203125, 0.039062500, 0.261718750, -0.169921875, 0.320312500, -0.421875000, 0.238281250, 0.294921875, 0.326171875, 0.191406250, 0.281250000, -0.398437500, 0.287109375, -0.060546875, 0.486328125, -0.443359375, 0.199218750, -0.656250000, 0.191406250, 0.359375000, 0.400390625, 0.378906250, 0.353515625, -0.134765625, -0.199218750, -0.017578125, 0.433593750, -0.687500000, 0.345703125, -1.164062500, 0.322265625, 0.244140625, 0.429687500, 0.509765625, 0.382812500, -0.191406250, 0.121093750, -0.083984375, 0.556640625, -0.263671875, 0.376953125, -0.976562500, 0.316406250, 0.414062500, 0.505859375, 0.376953125, 0.312500000, -0.248046875, 0.113281250, -0.021484375, 0.271484375, -0.158203125, 0.306640625, -1.154296875, 0.587890625, 0.474609375, 0.488281250, 0.412109375, 0.396484375, -0.501953125, 0.205078125, -0.423828125, 0.394531250, -0.228515625, 0.423828125, -1.343750000, 0.443359375, 0.533203125, 0.464843750, 0.572265625, 0.527343750, -0.001953125, -0.091796875, -0.513671875, 0.257812500, -0.078125000, 0.203125000, -0.685546875, 0.195312500, 0.105468750, 0.146484375, 0.193359375, 0.230468750, -0.123046875, -0.458984375, -0.294921875, 0.310546875, -0.251953125, 0.433593750, -0.439453125, 0.412109375, 0.125000000, 0.388671875, 0.347656250, 0.517578125, -0.218750000, 0.179687500, -0.640625000, 0.437500000, -0.224609375, 0.496093750, -0.091796875, 0.587890625, 0.333984375, 0.560546875, 0.335937500, 0.392578125, -0.283203125, -0.974609375, -0.349609375, 0.199218750, 0.085937500, 0.285156250, -0.117187500, 0.207031250, 0.343750000, 0.283203125, 0.273437500, 0.259765625, 0.011718750, -0.513671875, -0.187500000, 0.121093750, -0.179687500, 0.083984375, -0.376953125, 0.175781250, -0.039062500, 0.259765625, 0.156250000, 0.099609375, -0.322265625, -0.697265625, -0.619140625, 0.281250000, -0.248046875, 0.480468750, -0.916015625, 0.556640625, 0.150390625, 0.353515625, 0.330078125, 0.435546875, -0.072265625, 0.246093750, -0.423828125, 0.470703125, -0.392578125, 0.222656250, -0.496093750, 0.369140625, 0.312500000, 0.154296875, 0.367187500, 0.429687500, -0.125000000, -2.367187500, -0.503906250, 0.107421875, -0.255859375, 0.279296875, -0.802734375, 0.095703125, 0.167968750, 0.283203125, 0.117187500, 0.123046875, -0.234375000, -0.361328125, -0.261718750, 0.339843750, -0.269531250, 0.400390625, -0.111328125, 0.437500000, 0.394531250, 0.380859375, 0.505859375, 0.353515625, -0.037109375, -0.865234375, 0.005859375, 0.332031250, -0.087890625, 0.197265625, 0.697265625, 0.244140625, 0.236328125, 0.269531250, 0.365234375, 0.187500000, -0.064453125, 0.259765625, -0.201171875, 0.582031250, -0.437500000, 0.480468750, 0.662109375, 0.642578125, 0.560546875, 0.564453125, 0.525390625, 0.423828125, -0.332031250, -3.253906250, -0.367187500, 0.451171875, 0.126953125, 0.498046875, 0.515625000, 0.332031250, 0.437500000, 0.410156250, 0.464843750, 0.431640625, -0.138671875, -0.361328125, -0.080078125, 0.402343750, 0.132812500, 0.375000000, 0.437500000, 0.345703125, 0.195312500, 0.308593750, 0.332031250, 0.476562500, -0.132812500, -0.316406250, 0.023437500, 0.386718750, 0.259765625, 0.267578125, 0.587890625, 0.296875000, 0.257812500, 0.244140625, 0.207031250, 0.318359375, -0.382812500, -0.386718750, -0.169921875, 0.587890625, -0.412109375, 0.460937500, -0.128906250, 0.710937500, 0.412109375, 0.527343750, 0.529296875, 0.509765625, -0.550781250, -2.496093750, -0.437500000, 0.466796875, -0.113281250, 0.689453125, 0.765625000, 0.755859375, 0.740234375, 0.720703125, 0.542968750, 0.646484375, -0.625000000, -0.414062500, -0.392578125, 0.466796875, -0.423828125, 0.511718750, -1.853515625, 0.513671875, 0.511718750, 0.408203125, 0.548828125, 0.494140625, -0.240234375, 0.115234375, -0.031250000, 0.144531250, 0.021484375, 0.162109375, -1.376953125, 0.099609375, 0.191406250, 0.068359375, 0.058593750, 0.056640625, -0.464843750, -0.136718750, -0.082031250, 0.214843750, 0.152343750, 0.291015625, -1.425781250, 0.089843750, 0.261718750, 0.173828125, 0.240234375, 0.158203125, -0.119140625, 0.423828125, 0.101562500, 0.201171875, -0.353515625, 0.070312500, -0.636718750, 0.148437500, 0.183593750, 0.107421875, 0.146484375, 0.294921875, -0.644531250, -0.070312500, -0.423828125, 0.640625000, -0.578125000, 0.462890625, -0.734375000, 0.494140625, 0.527343750, 0.582031250, 0.611328125, 0.361328125, -0.337890625, 0.318359375, -0.195312500, 0.326171875, -0.310546875, 0.171875000, -0.568359375, 0.167968750, 0.232421875, 0.261718750, 0.205078125, 0.267578125, -0.412109375, 0.386718750, -0.125000000, 0.400390625, 0.150390625, 0.285156250, 0.041015625, 0.371093750, 0.464843750, 0.382812500, 0.357421875, 0.357421875, -0.378906250, 0.347656250, -0.275390625, 0.263671875, -0.132812500, 0.447265625, -0.574218750, 0.148437500, 0.212890625, 0.232421875, 0.318359375, 0.345703125, -0.175781250, 0.238281250, -0.521484375, 0.421875000, -0.398437500, 0.373046875, -1.054687500, 0.417968750, 0.320312500, 0.408203125, 0.214843750, 0.431640625, -0.175781250, -0.160156250, -0.507812500, 0.402343750, -0.255859375, 0.501953125, -1.181640625, 0.529296875, 0.511718750, 0.263671875, 0.345703125, 0.556640625, -0.050781250, 0.091796875, -0.232421875, 0.050781250, -0.039062500, 0.365234375, -1.035156250, 0.292968750, 0.205078125, 0.085937500, 0.148437500, 0.166015625, -0.316406250, 0.205078125, -0.566406250, 0.693359375, -0.187500000, 0.529296875, -2.185546875, 0.548828125, 0.531250000, 0.375000000, 0.458984375, 0.488281250, -0.476562500, 0.238281250, -0.490234375, 0.482421875, -0.207031250, 0.363281250, -3.548828125, 0.558593750, 0.437500000, 0.578125000, 0.554687500, 0.603515625, -0.314453125, 0.132812500, -0.376953125, 0.486328125, -0.355468750, 0.615234375, -3.386718750, 0.548828125, 0.498046875, 0.660156250, 0.591796875, 0.578125000, -0.201171875, 0.429687500, -0.337890625, 0.574218750, 0.058593750, 0.517578125, -3.527343750, 0.466796875, 0.392578125, 0.433593750, 0.568359375, 0.398437500, -0.156250000, 0.634765625, -0.449218750, 0.402343750, -0.451171875, 0.269531250, -3.470703125, 0.292968750, 0.349609375, 0.269531250, 0.330078125, 0.412109375, -0.425781250, 0.107421875, -0.761718750, 0.375000000, -0.238281250, 0.404296875, -0.285156250, 0.474609375, 0.347656250, 0.355468750, 0.632812500, 0.402343750, -0.257812500, 0.451171875, -0.369140625, 0.556640625, -0.402343750, 0.369140625, -0.582031250, 0.537109375, 0.546875000, 0.476562500, 0.677734375, 0.552734375, -0.230468750, 0.412109375, -0.412109375, 0.361328125, -0.144531250, 0.365234375, -0.279296875, 0.417968750, 0.302734375, 0.400390625, 0.343750000, 0.345703125, -0.470703125, 0.503906250, -0.322265625, 0.615234375, -0.578125000, 0.564453125, -0.546875000, 0.494140625, 0.509765625, 0.619140625, 0.478515625, 0.509765625, 0.144531250, 0.062500000, -0.390625000, 0.185546875, -0.085937500, 0.439453125, 0.041015625, 0.242187500, 0.248046875, 0.455078125, 0.378906250, 0.281250000, 0.091796875, -0.152343750, -0.285156250, 0.228515625, -0.630859375, 0.425781250, -0.056640625, 0.345703125, 0.320312500, 0.509765625, 0.566406250, 0.441406250, -0.050781250, -0.345703125, -0.320312500, 0.417968750, -0.318359375, 0.501953125, -0.015625000, 0.609375000, 0.431640625, 0.609375000, 0.564453125, 0.513671875, 0.037109375, -1.113281250, -0.080078125, 0.185546875, -0.548828125, 0.187500000, 0.195312500, 0.248046875, 0.267578125, 0.160156250, 0.140625000, 0.031250000, -0.101562500, -2.830078125, -0.261718750, 0.142578125, -0.435546875, 0.355468750, -0.751953125, 0.414062500, 0.171875000, 0.292968750, 0.414062500, 0.279296875, 0.087890625, -2.708984375, -0.208984375, 0.347656250, 0.296875000, 0.392578125, 0.250000000, 0.363281250, 0.035156250, 0.259765625, 0.392578125, 0.224609375, -0.101562500, -2.798828125, -0.052734375, 0.408203125, -0.603515625, 0.314453125, -0.263671875, 0.296875000, 0.193359375, 0.523437500, 0.318359375, 0.427734375, 0.039062500, -3.085937500, -0.193359375, 0.214843750, 0.480468750, 0.275390625, 0.816406250, 0.185546875, 0.222656250, 0.111328125, 0.351562500, 0.214843750, -0.023437500, 0.224609375, -0.634765625, 0.248046875, 0.042968750, 0.353515625, 0.449218750, 0.328125000, 0.181640625, 0.333984375, 0.316406250, 0.171875000, -0.203125000, -0.060546875, -0.580078125, 0.259765625, -0.255859375, 0.357421875, 0.484375000, 0.394531250, 0.402343750, 0.294921875, 0.492187500, 0.242187500, -0.169921875, -0.470703125, -0.490234375, 0.472656250, -0.113281250, 0.275390625, 0.240234375, 0.302734375, 0.318359375, 0.416015625, 0.464843750, 0.451171875, -0.257812500, -0.970703125, -0.421875000, 0.333984375, -0.265625000, 0.271484375, 0.644531250, 0.160156250, 0.314453125, 0.283203125, 0.300781250, 0.337890625, -0.248046875, -0.513671875, -0.689453125, 0.306640625, 0.111328125, 0.263671875, 0.345703125, 0.328125000, 0.292968750, 0.367187500, 0.322265625, 0.361328125, -0.154296875, -0.074218750, -0.384765625, 0.017578125, 0.103515625, 0.085937500, 0.320312500, 0.080078125, 0.187500000, 0.009765625, 0.121093750, 0.199218750, -0.109375000, -0.367187500, -0.531250000, 0.203125000, -0.001953125, 0.232421875, -0.142578125, 0.365234375, 0.308593750, 0.244140625, 0.197265625, 0.148437500, -0.210937500, -0.001953125, -0.134765625, 0.273437500, -0.291015625, 0.324218750, 0.685546875, 0.302734375, 0.228515625, 0.314453125, 0.179687500, 0.380859375, -0.468750000, -0.224609375, -0.458984375, 0.500000000, -0.283203125, 0.458984375, -0.320312500, 0.480468750, 0.533203125, 0.564453125, 0.394531250, 0.417968750, -0.041015625, 0.191406250, 0.035156250, 0.238281250, -0.039062500, -0.025390625, -0.160156250, 0.205078125, 0.128906250, 0.365234375, 0.371093750, 0.220703125, -0.105468750, -0.101562500, -0.226562500, 0.333984375, -0.103515625, 0.158203125, 0.234375000, 0.302734375, 0.308593750, 0.390625000, 0.306640625, 0.210937500, -0.132812500, -0.308593750, -0.230468750, 0.376953125, -0.013671875, 0.298828125, 0.357421875, 0.371093750, 0.533203125, 0.333984375, 0.468750000, 0.367187500, -0.234375000, -0.066406250, -0.384765625, 0.488281250, -0.142578125, 0.457031250, -1.351562500, 0.542968750, 0.572265625, 0.425781250, 0.652343750, 0.509765625, -0.298828125, 0.320312500, -0.294921875, 0.457031250, -0.054687500, 0.267578125, -1.642578125, 0.509765625, 0.296875000, 0.431640625, 0.335937500, 0.378906250, -0.369140625, 0.253906250, -0.076171875, 0.283203125, -0.076171875, 0.369140625, -1.500000000, 0.402343750, 0.275390625, 0.451171875, 0.394531250, 0.291015625, -0.417968750, 0.451171875, -0.189453125, 0.287109375, -0.458984375, 0.349609375, -2.421875000, 0.285156250, 0.253906250, 0.398437500, 0.281250000, 0.406250000, -0.412109375, 0.144531250, -0.410156250, 0.398437500, 0.099609375, 0.394531250, -0.460937500, 0.544921875, 0.250000000, 0.333984375, 0.527343750, 0.378906250, -0.455078125, 0.261718750, -0.347656250, 0.390625000, 0.042968750, 0.480468750, -0.634765625, 0.408203125, 0.457031250, 0.375000000, 0.435546875, 0.363281250, -0.277343750, 0.232421875, -0.310546875, 0.453125000, 0.171875000, 0.416015625, -0.365234375, 0.490234375, 0.449218750, 0.476562500, 0.417968750, 0.494140625, -0.669921875, -0.074218750, -0.679687500, 0.607421875, -0.197265625, 0.724609375, -0.771484375, 0.755859375, 0.673828125, 0.507812500, 0.781250000, 0.673828125, -0.058593750, 0.154296875, -0.384765625, 0.416015625, 0.123046875, 0.400390625, -1.419921875, 0.339843750, 0.353515625, 0.306640625, 0.218750000, 0.466796875, -0.070312500, -0.074218750, -0.574218750, 0.308593750, -0.117187500, 0.240234375, -1.341796875, 0.294921875, 0.308593750, 0.343750000, 0.544921875, 0.482421875, -0.146484375, -0.035156250, -0.232421875, 0.406250000, -0.398437500, 0.312500000, -1.068359375, 0.605468750, 0.439453125, 0.462890625, 0.503906250, 0.550781250, -0.136718750, -0.148437500, -0.486328125, 0.101562500, -1.068359375, 0.349609375, -1.365234375, 0.265625000, 0.250000000, 0.304687500, 0.238281250, 0.298828125, 0.062500000, -0.128906250, -0.494140625, 0.478515625, -1.613281250, 0.269531250, -0.847656250, 0.228515625, 0.125000000, 0.291015625, 0.255859375, 0.275390625, -0.041015625, 0.189453125, -0.451171875, 0.347656250, -2.265625000, 0.150390625, -0.734375000, 0.373046875, 0.367187500, 0.417968750, 0.156250000, 0.296875000, -0.187500000, -0.197265625, -0.482421875, 0.439453125, -1.208984375, 0.226562500, -0.878906250, 0.449218750, 0.394531250, 0.480468750, 0.332031250, 0.339843750, -0.197265625, -0.771484375, -0.169921875, 0.185546875, -3.333984375, 0.214843750, -0.929687500, 0.394531250, 0.183593750, 0.107421875, 0.285156250, 0.291015625, -0.011718750, -1.968750000, -0.111328125, 0.412109375, -0.712890625, 0.347656250, -0.316406250, 0.515625000, 0.384765625, 0.376953125, 0.511718750, 0.402343750, 0.128906250, -2.267578125, -0.025390625, 0.273437500, -0.308593750, 0.171875000, -0.240234375, 0.232421875, 0.025390625, 0.253906250, 0.136718750, 0.277343750, -0.093750000, -2.542968750, -0.111328125, 0.287109375, 0.115234375, 0.275390625, 0.050781250, 0.201171875, 0.251953125, 0.355468750, 0.347656250, 0.300781250, -0.230468750, -3.220703125, -0.269531250, 0.208984375, 0.523437500, 0.066406250, 0.273437500, 0.271484375, 0.085937500, 0.107421875, -0.031250000, 0.072265625, -0.351562500, -0.082031250, -0.535156250, 0.218750000, -0.300781250, 0.355468750, 0.103515625, 0.462890625, 0.300781250, 0.302734375, 0.224609375, 0.451171875, -0.029296875, -0.394531250, -0.363281250, 0.064453125, -0.076171875, 0.310546875, 0.562500000, 0.210937500, 0.205078125, 0.394531250, 0.126953125, 0.119140625, -0.185546875, -0.164062500, -0.640625000, 0.251953125, -0.083984375, 0.542968750, 0.306640625, 0.289062500, 0.281250000, 0.210937500, 0.277343750, 0.359375000, -0.160156250, -1.601562500, -0.484375000, 0.287109375, -0.791015625, 0.218750000, 0.886718750, 0.291015625, 0.345703125, 0.373046875, 0.281250000, 0.292968750, -0.369140625, 0.044921875, -0.332031250, 0.392578125, 0.148437500, 0.505859375, 0.033203125, 0.392578125, 0.388671875, 0.318359375, 0.507812500, 0.505859375, -0.144531250, 0.224609375, -0.294921875, 0.304687500, 0.330078125, 0.335937500, -0.035156250, 0.392578125, 0.382812500, 0.394531250, 0.289062500, 0.289062500, -0.365234375, 0.089843750, -0.429687500, 0.466796875, 0.398437500, 0.390625000, -0.460937500, 0.470703125, 0.431640625, 0.449218750, 0.386718750, 0.335937500, -0.240234375, 0.111328125, -0.259765625, 0.402343750, 0.429687500, 0.316406250, 1.101562500, 0.197265625, 0.445312500, 0.486328125, 0.365234375, 0.357421875, -0.396484375, -0.425781250, -0.509765625, 0.451171875, -0.451171875, 0.470703125, 0.226562500, 0.451171875, 0.400390625, 0.281250000, 0.570312500, 0.574218750, -0.056640625, 0.064453125, 0.033203125, 0.181640625, 0.246093750, 0.109375000, 0.089843750, 0.037109375, 0.082031250, 0.121093750, 0.330078125, 0.257812500, -0.152343750, -0.199218750, -0.140625000, 0.126953125, -0.017578125, 0.193359375, 0.107421875, 0.138671875, 0.070312500, 0.093750000, 0.234375000, 0.216796875, -0.406250000, -0.064453125, -0.224609375, 0.216796875, -0.019531250, 0.447265625, 0.281250000, 0.326171875, 0.390625000, 0.318359375, 0.429687500, 0.310546875, -0.285156250, -0.175781250, -0.261718750, 0.433593750, -0.072265625, 0.375000000, -0.355468750, 0.373046875, 0.160156250, 0.351562500, 0.453125000, 0.261718750, -0.115234375, -0.232421875, -0.181640625, 0.273437500, 0.251953125, 0.285156250, -0.460937500, 0.166015625, 0.423828125, 0.349609375, 0.251953125, 0.267578125, -0.294921875, -0.054687500, -0.220703125, 0.255859375, 0.134765625, 0.203125000, 0.064453125, 0.273437500, 0.343750000, 0.236328125, 0.207031250, 0.250000000, -0.460937500, -0.230468750, -0.490234375, 0.332031250, -0.283203125, 0.468750000, -0.941406250, 0.554687500, 0.513671875, 0.591796875, 0.564453125, 0.474609375, -0.416015625, -0.042968750, -0.167968750, 0.433593750, -0.349609375, 0.625000000, 0.238281250, 0.570312500, 0.371093750, 0.408203125, 0.431640625, 0.529296875, -0.123046875, 0.267578125, 0.042968750, 0.125000000, 0.031250000, 0.011718750, -0.230468750, 0.230468750, 0.208984375, 0.125000000, 0.150390625, 0.234375000, -0.376953125, 0.070312500, -0.121093750, 0.527343750, 0.021484375, 0.316406250, -0.076171875, 0.341796875, 0.154296875, 0.421875000, 0.351562500, 0.263671875, -0.601562500, -0.298828125, -0.601562500, 0.470703125, -0.755859375, 0.775390625, -0.011718750, 0.656250000, 0.783203125, 0.861328125, 0.587890625, 0.529296875, -0.312500000, 0.132812500, -0.271484375, 0.380859375, -0.101562500, 0.353515625, -1.216796875, 0.267578125, 0.251953125, 0.429687500, 0.431640625, 0.386718750, -0.156250000, 0.302734375, -0.361328125, 0.341796875, -0.083984375, 0.201171875, -1.328125000, 0.476562500, 0.248046875, 0.425781250, 0.515625000, 0.386718750, -0.222656250, 0.058593750, -0.220703125, 0.337890625, -0.175781250, 0.488281250, -1.390625000, 0.261718750, 0.375000000, 0.523437500, 0.304687500, 0.265625000, -0.423828125, -0.060546875, -0.519531250, 0.396484375, -0.544921875, 0.199218750, -1.025390625, 0.312500000, 0.167968750, 0.478515625, 0.173828125, 0.398437500, -0.257812500, 0.093750000, -0.373046875, 0.029296875, 0.056640625, 0.267578125, 0.128906250, 0.236328125, 0.318359375, 0.103515625, 0.312500000, 0.298828125, -0.425781250, -0.191406250, -0.755859375, 0.544921875, -0.361328125, 0.548828125, 0.076171875, 0.359375000, 0.470703125, 0.501953125, 0.441406250, 0.542968750, -0.210937500, -0.375000000, -0.330078125, 0.296875000, 0.001953125, 0.185546875, -0.220703125, 0.158203125, 0.285156250, 0.466796875, 0.148437500, 0.310546875, -0.296875000, -0.660156250, -0.826171875, 0.236328125, 0.058593750, 0.107421875, 0.582031250, 0.101562500, 0.263671875, 0.179687500, 0.417968750, 0.386718750, -0.468750000, -0.021484375, -0.664062500, 0.134765625, -0.003906250, 0.150390625, 0.244140625, 0.074218750, 0.095703125, 0.162109375, 0.222656250, 0.308593750, -0.265625000, -0.158203125, -0.488281250, 0.041015625, 0.023437500, 0.199218750, -0.216796875, 0.072265625, 0.197265625, 0.193359375, 0.058593750, 0.119140625, -0.546875000, -0.173828125, -0.359375000, 0.171875000, -1.097656250, 0.212890625, 0.289062500, 0.199218750, 0.171875000, 0.216796875, 0.367187500, 0.126953125, -0.441406250, -0.958984375, -0.593750000, 0.292968750, -0.591796875, 0.121093750, 0.681640625, 0.308593750, 0.173828125, 0.353515625, 0.357421875, 0.380859375, -0.416015625, -0.128906250, -0.330078125, 0.238281250, -1.617187500, -0.011718750, 0.195312500, 0.101562500, 0.244140625, 0.027343750, 0.250000000, 0.277343750, -0.142578125, -0.283203125, -0.089843750, 0.111328125, -1.878906250, 0.177734375, 0.427734375, 0.115234375, -0.013671875, -0.064453125, 0.111328125, 0.167968750, -0.236328125, -0.326171875, -0.416015625, 0.349609375, -1.863281250, 0.240234375, 0.171875000, 0.388671875, 0.216796875, 0.443359375, 0.250000000, 0.265625000, -0.447265625, -0.244140625, -0.529296875, 0.468750000, -2.570312500, 0.458984375, 0.560546875, 0.623046875, 0.326171875, 0.398437500, 0.509765625, 0.320312500, -0.242187500, -0.621093750, -0.376953125, 0.320312500, 0.191406250, 0.357421875, -0.386718750, 0.292968750, 0.265625000, 0.251953125, 0.417968750, 0.304687500, -0.083984375, -0.060546875, -0.060546875, 0.132812500, 0.107421875, -0.003906250, 0.013671875, 0.070312500, 0.191406250, -0.087890625, 0.156250000, 0.091796875, -0.212890625, -0.140625000, -0.033203125, 0.015625000, 0.062500000, 0.222656250, -0.337890625, 0.093750000, 0.101562500, 0.189453125, -0.062500000, 0.105468750, -0.300781250, -0.041015625, -0.066406250, 0.246093750, 0.515625000, 0.126953125, 0.117187500, 0.289062500, 0.160156250, 0.333984375, 0.201171875, 0.242187500, -0.388671875, -0.361328125, -0.251953125, 0.361328125, -0.308593750, 0.195312500, 0.210937500, 0.386718750, 0.273437500, 0.394531250, 0.279296875, 0.253906250, -0.326171875, -0.222656250, -0.269531250, 0.333984375, -0.097656250, 0.267578125, 0.240234375, 0.179687500, 0.207031250, 0.294921875, 0.199218750, 0.212890625, -0.076171875, -0.082031250, 0.041015625, -0.041015625, 0.113281250, -0.117187500, -0.320312500, 0.009765625, -0.017578125, -0.191406250, -0.037109375, -0.101562500, -0.421875000, -0.189453125, -0.376953125, -0.001953125, -0.664062500, 0.087890625, 0.033203125, 0.132812500, 0.179687500, 0.228515625, -0.017578125, 0.082031250, 0.132812500, 0.140625000, -0.011718750, 0.121093750, -0.119140625, 0.037109375, -0.199218750, -0.044921875, -0.054687500, -0.091796875, 0.007812500, 0.017578125, -0.271484375, -0.318359375, -0.175781250, 0.396484375, -0.310546875, 0.269531250, 0.031250000, 0.242187500, 0.332031250, 0.326171875, 0.292968750, 0.238281250, -0.314453125, -0.236328125, -0.140625000, 0.363281250, -0.513671875, 0.162109375, -0.613281250, 0.279296875, 0.228515625, 0.310546875, 0.214843750, 0.181640625, -0.728515625, -0.302734375, -0.541015625, 0.623046875, 0.074218750, 0.677734375, 0.513671875, 0.529296875, 0.699218750, 0.609375000, 0.566406250, 0.515625000, -0.177734375, 0.023437500, 0.041015625, 0.099609375, 0.265625000, 0.005859375, -1.048828125, 0.001953125, 0.259765625, 0.066406250, 0.214843750, 0.144531250, -0.458984375, -0.347656250, -0.308593750, 0.306640625, 0.013671875, 0.320312500, -0.894531250, 0.302734375, 0.435546875, 0.371093750, 0.322265625, 0.300781250, -0.365234375, -0.220703125, -0.119140625, 0.431640625, 0.076171875, 0.228515625, -0.759765625, 0.271484375, 0.449218750, 0.261718750, 0.369140625, 0.322265625, -0.601562500, -0.283203125, -0.562500000, 0.716796875, -0.511718750, 0.609375000, -0.562500000, 0.644531250, 0.558593750, 0.570312500, 0.494140625, 0.580078125, -0.277343750, -0.132812500, -0.414062500, 0.291015625, -0.119140625, 0.310546875, 0.177734375, 0.115234375, 0.097656250, 0.261718750, 0.324218750, 0.255859375, -0.351562500, -0.414062500, -0.308593750, 0.173828125, -0.011718750, 0.250000000, 0.007812500, 0.115234375, 0.070312500, 0.132812500, 0.197265625, 0.291015625, -0.140625000, -0.171875000, -0.289062500, 0.230468750, -0.083984375, 0.136718750, -0.591796875, 0.041015625, 0.189453125, 0.101562500, 0.109375000, 0.138671875, -0.425781250, -0.978515625, -0.136718750, 0.132812500, -0.369140625, 0.103515625, 0.105468750, 0.169921875, 0.289062500, 0.253906250, 0.207031250, 0.160156250, -0.310546875, -0.347656250, -0.728515625, 0.244140625, 0.027343750, 0.191406250, 0.070312500, 0.384765625, 0.417968750, 0.289062500, 0.318359375, 0.267578125, -0.144531250, -0.107421875, -0.265625000, 0.226562500, -0.115234375, 0.179687500, 0.160156250, 0.117187500, -0.023437500, 0.238281250, 0.132812500, 0.179687500, -0.056640625, -0.015625000, -0.326171875, 0.236328125, -0.058593750, 0.162109375, 0.128906250, 0.193359375, 0.347656250, 0.230468750, 0.214843750, 0.265625000, -0.652343750, -0.361328125, -0.302734375, 0.423828125, -0.619140625, 0.490234375, 0.734375000, 0.568359375, 0.548828125, 0.476562500, 0.427734375, 0.443359375, -0.347656250, -0.054687500, -0.230468750, 0.382812500, -1.841796875, 0.390625000, -0.310546875, 0.498046875, 0.388671875, 0.337890625, 0.351562500, 0.314453125, -0.207031250, -0.341796875, -0.265625000, 0.300781250, -1.822265625, 0.121093750, -0.257812500, 0.107421875, 0.232421875, 0.257812500, 0.193359375, 0.224609375, 0.009765625, 0.160156250, -0.074218750, -0.005859375, -2.132812500, 0.128906250, 0.505859375, 0.207031250, -0.009765625, 0.015625000, 0.052734375, -0.003906250, -0.537109375, -0.791015625, -0.312500000, 0.410156250, -2.779296875, 0.580078125, 0.751953125, 0.527343750, 0.453125000, 0.466796875, 0.398437500, 0.470703125, 0.341796875, -0.085937500, -0.201171875, 0.197265625, -3.083984375, 0.130859375, 0.052734375, 0.000000000, 0.101562500, 0.037109375, 0.253906250, 0.193359375, -0.275390625, -0.488281250, -0.355468750, 0.419921875, -2.873046875, 0.455078125, 0.007812500, 0.447265625, 0.271484375, 0.357421875, 0.330078125, 0.492187500, 0.076171875, -0.599609375, -0.076171875, 0.259765625, -3.027343750, 0.236328125, -0.001953125, 0.226562500, 0.064453125, 0.324218750, 0.056640625, 0.246093750, -0.193359375, -2.078125000, -0.332031250, 0.392578125, -3.281250000, 0.306640625, 0.802734375, 0.285156250, 0.355468750, 0.224609375, 0.320312500, 0.351562500, -0.103515625, -0.626953125, -0.048828125, 0.037109375, 0.759765625, 0.097656250, 0.310546875, -0.054687500, -0.017578125, -0.058593750, -0.025390625, 0.152343750, -0.437500000, -0.833984375, -0.162109375, 0.339843750, 0.388671875, 0.218750000, 0.156250000, 0.412109375, 0.351562500, 0.324218750, 0.335937500, 0.146484375, -0.578125000, -0.335937500, -0.320312500, 0.398437500, 0.212890625, 0.376953125, 0.298828125, 0.429687500, 0.404296875, 0.494140625, 0.394531250, 0.437500000, -0.414062500, -0.833984375, -0.230468750, 0.238281250, 0.388671875, 0.400390625, -0.386718750, 0.333984375, 0.357421875, 0.330078125, 0.347656250, 0.259765625, -0.234375000, 0.082031250, -0.013671875, 0.289062500, 0.169921875, 0.205078125, -0.082031250, 0.339843750, 0.240234375, 0.328125000, 0.287109375, 0.369140625, -0.046875000, 0.123046875, -0.285156250, 0.361328125, 0.085937500, 0.287109375, -0.511718750, 0.392578125, 0.414062500, 0.248046875, 0.318359375, 0.269531250, -0.208984375, 0.158203125, -0.095703125, 0.373046875, 0.394531250, 0.542968750, -0.556640625, 0.359375000, 0.390625000, 0.431640625, 0.337890625, 0.349609375, -0.253906250, 0.574218750, -0.283203125, 0.509765625, 0.410156250, 0.515625000, -0.792968750, 0.343750000, 0.519531250, 0.443359375, 0.572265625, 0.470703125, -0.130859375, 0.158203125, -0.353515625, 0.056640625, -0.033203125, 0.230468750, -0.121093750, 0.423828125, 0.228515625, 0.201171875, 0.177734375, 0.257812500, -0.255859375, 0.138671875, -0.498046875, 0.363281250, -0.291015625, 0.283203125, 0.371093750, 0.310546875, 0.382812500, 0.291015625, 0.353515625, 0.361328125, -0.238281250, 0.263671875, -0.189453125, 0.177734375, 0.271484375, 0.068359375, -0.052734375, 0.082031250, 0.210937500, 0.166015625, 0.160156250, 0.091796875, -0.556640625, -0.107421875, -0.652343750, 0.548828125, -0.367187500, 0.576171875, -0.582031250, 0.701171875, 0.658203125, 0.820312500, 0.541015625, 0.697265625, -0.349609375, -0.076171875, -0.220703125, 0.312500000, -0.251953125, 0.304687500, -0.123046875, 0.232421875, 0.345703125, 0.158203125, 0.277343750, 0.277343750, -0.349609375, -0.099609375, -0.328125000, 0.281250000, -0.353515625, 0.457031250, 0.173828125, 0.412109375, 0.376953125, 0.306640625, 0.269531250, 0.402343750, 0.070312500, 0.171875000, -0.083984375, 0.023437500, -0.089843750, 0.089843750, -0.164062500, -0.013671875, 0.175781250, 0.005859375, 0.107421875, 0.000000000, -0.433593750, -0.062500000, -0.437500000, 0.492187500, -0.017578125, 0.310546875, 0.751953125, 0.501953125, 0.433593750, 0.210937500, 0.384765625, 0.546875000, -0.375000000, -0.054687500, -0.298828125, 0.121093750, -0.273437500, 0.203125000, -1.091796875, -0.048828125, 0.167968750, 0.283203125, 0.160156250, 0.162109375, -0.363281250, -0.230468750, -0.162109375, 0.230468750, -0.378906250, 0.031250000, -1.158203125, 0.144531250, 0.142578125, 0.263671875, 0.064453125, 0.185546875, -0.197265625, -0.363281250, -0.212890625, -0.019531250, -0.248046875, -0.072265625, -2.140625000, 0.076171875, 0.064453125, 0.048828125, 0.130859375, 0.103515625, -0.359375000, -0.230468750, -0.308593750, 0.341796875, -0.167968750, 0.228515625, -1.222656250, 0.441406250, 0.472656250, 0.306640625, 0.375000000, 0.269531250, -0.109375000, -0.343750000, -0.412109375, 0.037109375, -0.851562500, -0.062500000, -0.175781250, 0.035156250, 0.033203125, 0.046875000, 0.011718750, -0.001953125, -0.398437500, -0.292968750, -0.738281250, 0.302734375, -0.644531250, 0.347656250, -0.404296875, 0.255859375, 0.099609375, 0.341796875, 0.095703125, 0.220703125, 0.183593750, 0.177734375, -0.564453125, -0.052734375, -0.945312500, -0.164062500, 0.498046875, -0.154296875, 0.046875000, -0.193359375, 0.044921875, -0.054687500, -0.636718750, -0.517578125, -0.537109375, 0.398437500, -2.074218750, 0.402343750, 0.330078125, 0.447265625, 0.480468750, 0.236328125, 0.535156250, 0.378906250, -0.720703125, -0.224609375, -0.650390625, 0.011718750, -2.421875000, -0.109375000, 0.123046875, 0.011718750, 0.099609375, 0.035156250, 0.005859375, 0.140625000, -0.785156250, -0.583984375, -0.552734375, 0.201171875, -2.179687500, 0.183593750, 0.130859375, 0.050781250, 0.041015625, 0.134765625, 0.128906250, 0.091796875, 0.003906250, 0.062500000, -0.224609375, -0.203125000, -2.335937500, -0.019531250, 0.236328125, -0.140625000, -0.042968750, -0.250000000, 0.070312500, -0.248046875, -0.669921875, -0.939453125, -0.535156250, 0.460937500, -2.460937500, 0.259765625, -0.101562500, 0.363281250, 0.513671875, 0.335937500, 0.292968750, 0.402343750, -0.923828125, -2.503906250, -0.111328125, -0.164062500, -2.158203125, 0.166015625, 0.537109375, -0.003906250, 0.162109375, 0.046875000, -0.083984375, 0.027343750, -2.451171875, -2.533203125, -0.716796875, 0.785156250, -1.912109375, 0.697265625, -0.216796875, 0.705078125, 0.833984375, 0.718750000, 0.851562500, 0.714843750, -0.074218750, -2.429687500, 0.470703125, -0.486328125, -2.068359375, -0.601562500, 1.130859375, -0.601562500, -0.552734375, -0.421875000, -0.634765625, -0.701171875, -2.597656250, -2.796875000, -0.517578125, 0.626953125, -2.125000000, 0.667968750, 0.027343750, 0.722656250, 0.732421875, 0.546875000, 0.544921875, 0.759765625};

#endif

#endif
