//Numpy array shape [7, 7, 1, 3]
//Min -3.634765625000
//Max 2.406250000000
//Number of zeros 0

#ifndef W5_H_
#define W5_H_

#ifndef __SYNTHESIS__
weight5_t w5[147];
#else
weight5_t w5[147] = {1.664062500, 1.408203125, -0.222656250, -0.451171875, -0.130859375, 0.707031250, -0.177734375, 0.279296875, -0.169921875, -0.130859375, 0.306640625, -0.257812500, -0.498046875, 0.152343750, -0.062500000, -0.583984375, -0.544921875, -0.673828125, -0.476562500, -0.070312500, 0.468750000, 1.468750000, 0.542968750, -0.287109375, -0.337890625, -0.345703125, 0.027343750, -0.400390625, 0.140625000, 0.529296875, -0.205078125, 0.220703125, 0.169921875, -0.279296875, 0.154296875, 0.482421875, -0.583984375, -0.509765625, -0.339843750, -0.367187500, -0.330078125, -1.066406250, 1.935546875, 1.593750000, 0.789062500, 1.451171875, 0.667968750, -0.089843750, 1.406250000, 0.414062500, 0.142578125, 0.005859375, 0.240234375, -0.300781250, -0.513671875, 0.722656250, -1.046875000, 0.496093750, 0.640625000, -0.093750000, 0.859375000, 1.906250000, -3.566406250, 1.677734375, 0.533203125, -0.177734375, 1.400390625, 1.410156250, 0.150390625, 1.839843750, 0.437500000, -0.261718750, 1.445312500, 1.150390625, 1.250000000, 1.078125000, 0.316406250, -0.761718750, 0.833984375, 1.558593750, -2.357421875, 0.673828125, 0.837890625, -0.513671875, 0.513671875, 1.517578125, 0.703125000, 0.371093750, 1.261718750, -0.550781250, -0.410156250, -0.011718750, -0.251953125, -0.730468750, -0.375000000, -2.154296875, -0.212890625, -0.773437500, -2.789062500, 1.292968750, 0.171875000, -3.580078125, 0.468750000, 2.406250000, -3.634765625, -0.023437500, 1.447265625, 0.378906250, 0.162109375, -0.052734375, 0.109375000, -0.460937500, -0.357421875, -2.189453125, -0.078125000, -0.632812500, -2.113281250, -0.208984375, -0.394531250, -2.371093750, 1.730468750, 0.517578125, -0.007812500, 0.902343750, 0.726562500, -1.767578125, -0.642578125, -0.167968750, -0.275390625, -0.103515625, -0.039062500, -0.410156250, -0.115234375, -0.173828125, -1.742187500, -0.162109375, -0.341796875, -1.890625000, -0.347656250, -0.025390625, -2.126953125, -0.025390625, -0.078125000, -2.500000000, 0.447265625, -0.099609375, -1.238281250};

#endif

#endif
