//Numpy array shape [7, 7, 1, 4]
//Min -2.621093750000
//Max 2.859375000000
//Number of zeros 0

#ifndef W8_H_
#define W8_H_

#ifndef __SYNTHESIS__
weight8_t w8[196];
#else
weight8_t w8[196] = {1.419921875, 0.289062500, 0.089843750, 0.298828125, -0.865234375, -0.681640625, 0.382812500, -0.357421875, -0.087890625, -0.421875000, -0.062500000, -1.328125000, -0.056640625, -0.150390625, -0.285156250, -1.285156250, 0.003906250, -0.330078125, -0.062500000, -0.349609375, 0.484375000, -0.554687500, 0.886718750, -0.792968750, 0.812500000, 0.320312500, 0.707031250, 0.841796875, 1.908203125, 0.710937500, 0.781250000, 0.468750000, 0.822265625, 0.322265625, 0.242187500, -0.216796875, -0.398437500, -0.126953125, 0.003906250, -0.359375000, -0.173828125, -0.101562500, -0.281250000, -0.300781250, -0.125000000, -0.742187500, -0.216796875, -1.388671875, 0.365234375, 1.294921875, 0.412109375, -0.595703125, 0.732421875, 0.695312500, 0.652343750, -1.601562500, 0.644531250, 1.138671875, 0.169921875, 0.697265625, 0.541015625, 0.933593750, -0.341796875, 0.855468750, 0.332031250, 0.480468750, 0.250000000, 1.349609375, -0.085937500, -0.214843750, -0.281250000, -1.832031250, 0.257812500, 0.238281250, 1.132812500, 0.640625000, 1.068359375, 0.435546875, 0.513671875, -1.013671875, 0.371093750, 0.523437500, 0.259765625, -0.564453125, -0.687500000, -0.500000000, -0.871093750, 0.412109375, -0.072265625, -0.611328125, -0.533203125, -0.521484375, 1.271484375, 0.775390625, 0.029296875, 0.273437500, 1.070312500, 1.363281250, 1.025390625, 1.496093750, 0.478515625, 0.093750000, -0.427734375, -0.234375000, 0.164062500, 0.593750000, 0.947265625, -0.582031250, 0.042968750, -0.613281250, 0.412109375, 0.390625000, 0.939453125, -0.316406250, 0.019531250, 0.939453125, 1.750000000, 0.728515625, 1.312500000, 0.464843750, 0.746093750, 0.066406250, 1.185546875, 0.580078125, 0.068359375, -0.136718750, -0.214843750, -1.105468750, 0.697265625, 0.126953125, -1.632812500, -0.792968750, 1.353515625, 0.406250000, -0.035156250, 0.896484375, 1.406250000, 0.214843750, 1.042968750, 0.166015625, 1.529296875, 1.060546875, 2.310546875, 1.076171875, 0.654296875, 0.310546875, 1.513671875, -0.490234375, 0.605468750, -0.300781250, 0.130859375, -0.910156250, -0.085937500, -0.162109375, 0.138671875, -1.472656250, -0.869140625, 0.197265625, -0.667968750, -2.621093750, 0.462890625, 1.255859375, 0.371093750, -0.685546875, 2.859375000, 0.693359375, -0.478515625, 0.013671875, 0.560546875, 0.953125000, 1.742187500, -0.146484375, 1.187500000, 0.417968750, 1.886718750, 0.904296875, -0.205078125, -0.427734375, -0.373046875, 0.238281250, -0.318359375, -1.451171875, -0.179687500, -1.603515625, -0.531250000, -0.433593750, -0.394531250, -1.849609375, 0.371093750, 0.667968750, -0.390625000, -2.343750000, -0.287109375, 0.154296875, -1.021484375, 0.193359375};

#endif

#endif
