//Numpy array shape [64]
//Min -2.406250000000
//Max 1.177734375000
//Number of zeros 0

#ifndef B10_H_
#define B10_H_

#ifndef __SYNTHESIS__
bias10_t b10[64];
#else
bias10_t b10[64] = {-0.449218750, -1.185546875, -1.382812500, 0.345703125, 0.767578125, -1.382812500, 0.033203125, -0.970703125, 0.572265625, -0.552734375, -0.908203125, -1.048828125, -0.623046875, 0.384765625, 1.031250000, -0.021484375, -1.091796875, -0.628906250, -0.513671875, -0.193359375, -0.003906250, -1.386718750, -0.783203125, 0.441406250, 0.117187500, -0.558593750, 0.234375000, -0.695312500, -0.648437500, -0.230468750, 1.177734375, -0.617187500, -0.427734375, 0.404296875, -1.566406250, 0.916015625, 0.773437500, -0.166015625, -1.630859375, 0.533203125, -0.843750000, 0.322265625, -0.773437500, -1.789062500, -0.724609375, -0.292968750, 0.001953125, 0.572265625, 0.818359375, 0.939453125, 0.845703125, -0.617187500, -0.349609375, 0.107421875, -0.884765625, -2.406250000, -0.595703125, 0.027343750, 0.380859375, -0.339843750, 0.857421875, 0.015625000, 0.109375000, 1.029296875};

#endif

#endif
