//Numpy array shape [100, 64]
//Min -8.744140625000
//Max 7.687500000000
//Number of zeros 9

#ifndef W10_H_
#define W10_H_

#ifndef __SYNTHESIS__
weight10_t w10[6400];
#else
weight10_t w10[6400] = {3.619140625, 1.156250000, -0.140625000, -2.318359375, -0.130859375, -1.064453125, -0.500000000, 1.669921875, -3.083984375, -0.333984375, 1.335937500, 0.654296875, -1.197265625, 1.103515625, 0.873046875, -0.095703125, 0.033203125, 0.621093750, 0.167968750, -0.152343750, -1.699218750, -1.865234375, -1.388671875, 0.232421875, -2.087890625, -0.691406250, 1.392578125, -2.716796875, 1.437500000, 0.269531250, 1.863281250, 0.244140625, -0.019531250, -1.685546875, 0.140625000, -0.103515625, 0.451171875, 0.218750000, -0.091796875, -0.605468750, -0.078125000, -3.597656250, -2.171875000, 3.007812500, 0.349609375, -2.042968750, -2.882812500, -3.109375000, 2.761718750, 0.462890625, 1.929687500, 2.548828125, -1.355468750, -0.218750000, 3.019531250, 0.300781250, 0.119140625, -0.458984375, -0.931640625, -1.072265625, 4.048828125, 3.212890625, -2.496093750, -0.251953125, 0.232421875, 0.421875000, -2.835937500, -1.490234375, -1.566406250, -2.160156250, -1.611328125, -0.900390625, 0.191406250, 2.150390625, 3.501953125, -0.339843750, -1.220703125, 0.500000000, -3.708984375, 0.341796875, 2.271484375, -0.238281250, -0.810546875, 1.726562500, 0.126953125, 0.787109375, -1.341796875, -1.779296875, 1.437500000, -0.779296875, 0.519531250, 0.289062500, -1.855468750, -0.605468750, -4.939453125, -1.494140625, 1.533203125, -2.343750000, -0.289062500, -0.802734375, 0.378906250, 0.199218750, -1.343750000, -1.158203125, 2.236328125, -0.152343750, -2.246093750, 1.986328125, -1.054687500, -0.267578125, 1.179687500, -1.982421875, 0.896484375, -2.041015625, 0.220703125, -0.945312500, 3.728515625, -0.287109375, 3.625000000, -1.142578125, -1.658203125, 2.835937500, -0.222656250, -2.193359375, 1.271484375, 2.259765625, -3.912109375, -0.312500000, 0.035156250, -0.673828125, -2.248046875, -0.367187500, -2.070312500, -0.351562500, 0.189453125, 2.128906250, 1.052734375, -1.476562500, 1.677734375, -1.169921875, 1.847656250, 1.441406250, -0.117187500, -3.640625000, -2.789062500, 2.300781250, 1.757812500, -2.474609375, -0.226562500, 2.677734375, -1.119140625, -3.414062500, -0.619140625, -1.095703125, 0.691406250, 2.792968750, -1.193359375, -0.441406250, -1.132812500, 2.332031250, -2.417968750, -1.140625000, -2.107421875, -2.283203125, 0.033203125, -0.287109375, -0.443359375, -1.576171875, 2.671875000, 0.896484375, 0.755859375, 0.671875000, 1.503906250, 0.806640625, -1.144531250, -0.773437500, 0.466796875, -0.390625000, 0.248046875, 3.337890625, 2.246093750, 0.634765625, 0.914062500, -0.238281250, 1.193359375, -0.160156250, -1.042968750, 0.818359375, 0.457031250, 1.927734375, 0.687500000, 0.207031250, 0.435546875, 1.820312500, -0.783203125, -0.355468750, -0.867187500, -0.412109375, 2.375000000, 0.218750000, 0.798828125, -2.169921875, 2.753906250, -0.496093750, 0.542968750, 1.369140625, -0.615234375, -4.123046875, -1.230468750, 1.656250000, 2.998046875, -5.355468750, 0.542968750, 2.210937500, 0.457031250, -3.564453125, -0.648437500, -0.042968750, 1.023437500, 2.476562500, -2.351562500, 1.687500000, -0.847656250, -2.929687500, -3.324218750, -1.208984375, -0.949218750, -0.189453125, -1.144531250, 0.089843750, -0.320312500, 0.050781250, 0.908203125, -0.179687500, 0.785156250, 0.894531250, 2.015625000, 0.964843750, 0.798828125, -0.037109375, 1.166015625, -1.886718750, -0.166015625, 3.451171875, 1.839843750, -0.117187500, 0.933593750, 0.173828125, 1.392578125, -0.613281250, 1.787109375, 0.011718750, 0.392578125, 1.710937500, 0.140625000, -1.496093750, 1.167968750, 1.541015625, -1.837890625, 0.341796875, -0.880859375, -1.537109375, -0.449218750, 1.591796875, 0.343750000, -0.042968750, -0.035156250, -2.015625000, 2.111328125, -0.064453125, -0.275390625, -6.380859375, -3.798828125, 1.156250000, 2.355468750, -0.234375000, -0.044921875, 2.531250000, -0.154296875, -0.642578125, 0.830078125, 0.650390625, 1.835937500, 2.402343750, 0.257812500, -0.376953125, -1.341796875, -1.857421875, -3.158203125, -0.210937500, -1.458984375, -0.250000000, 0.179687500, 1.035156250, 0.001953125, 0.351562500, -1.058593750, 0.078125000, 1.898437500, 0.460937500, 2.281250000, 0.648437500, -0.992187500, 0.234375000, -0.283203125, -2.470703125, -0.580078125, 2.365234375, -0.416015625, -0.857421875, -0.195312500, 0.373046875, -1.046875000, -2.304687500, 0.779296875, -0.140625000, 0.384765625, 1.894531250, -0.851562500, -2.199218750, 0.451171875, 0.828125000, -0.146484375, 0.375000000, 0.066406250, 0.070312500, -1.638671875, 0.636718750, -0.343750000, 2.169921875, 1.132812500, -0.558593750, 2.699218750, 0.371093750, -0.207031250, -4.367187500, -2.951171875, 0.828125000, 1.574218750, -2.115234375, 1.033203125, 2.371093750, 0.929687500, -0.039062500, -1.791015625, 0.244140625, 0.587890625, 2.431640625, -0.958984375, 1.285156250, -2.326171875, -2.025390625, -2.875000000, 0.640625000, -2.828125000, 1.009765625, -0.550781250, 0.683593750, -0.181640625, 0.406250000, 0.152343750, -0.435546875, 0.558593750, 0.796875000, 2.667968750, 0.544921875, -4.632812500, 0.437500000, -0.150390625, -1.671875000, -0.380859375, 2.226562500, 0.935546875, -1.412109375, -1.291015625, 0.257812500, 0.828125000, -0.285156250, 1.640625000, -0.970703125, 0.625000000, 0.556640625, 0.800781250, -1.845703125, 1.667968750, 0.925781250, -0.669921875, 0.429687500, -0.472656250, -1.630859375, -0.644531250, 1.089843750, -3.062500000, 1.701171875, 1.496093750, -0.560546875, 2.425781250, 1.388671875, -0.404296875, -2.474609375, -3.019531250, 0.982421875, 2.212890625, -1.183593750, 0.669921875, 2.312500000, -0.550781250, -0.496093750, 0.736328125, -0.773437500, 0.904296875, 2.679687500, 0.195312500, 0.916015625, -1.726562500, -0.843750000, -3.421875000, 1.843750000, -1.294921875, 0.947265625, -0.109375000, -2.562500000, 0.505859375, 0.062500000, 0.310546875, -0.605468750, 0.697265625, 0.566406250, 2.796875000, 0.546875000, -4.478515625, 0.232421875, -0.769531250, -1.908203125, -0.751953125, 2.544921875, 2.080078125, -1.103515625, 0.482421875, 0.222656250, -2.781250000, 1.990234375, 1.779296875, 0.503906250, 0.138671875, 1.296875000, 0.218750000, -0.654296875, 0.863281250, -2.134765625, 1.513671875, -0.183593750, -0.048828125, -2.509765625, 1.582031250, 0.750000000, 0.535156250, -0.675781250, 0.917968750, 0.230468750, 1.216796875, 0.550781250, -0.550781250, -0.234375000, -6.228515625, 2.687500000, 1.847656250, 0.613281250, -1.595703125, 2.443359375, -1.730468750, -1.126953125, 0.281250000, 0.779296875, 1.208984375, 3.736328125, -1.412109375, 0.984375000, -3.091796875, 2.273437500, -2.919921875, 0.421875000, -1.300781250, -0.074218750, -0.281250000, 0.373046875, -0.416015625, -2.113281250, -0.130859375, -1.738281250, -1.376953125, 0.130859375, 3.087890625, -0.066406250, -3.750000000, -0.052734375, -0.210937500, -2.341796875, -1.460937500, 2.412109375, -0.347656250, 0.191406250, 0.054687500, 0.222656250, 1.703125000, 2.625000000, -0.845703125, -0.414062500, 1.283203125, 2.255859375, 1.130859375, -1.318359375, -3.007812500, 0.791015625, -1.167968750, -1.183593750, 1.523437500, 1.460937500, 1.289062500, -0.296875000, -1.263671875, 1.095703125, -0.259765625, -1.671875000, -0.585937500, -0.404296875, -1.437500000, 0.576171875, -0.488281250, 3.630859375, 0.125000000, -0.894531250, -0.654296875, -0.544921875, -0.322265625, 0.984375000, -1.285156250, -1.013671875, 0.160156250, -1.613281250, 1.277343750, 1.552734375, 1.847656250, 3.529296875, -0.443359375, -0.820312500, -0.863281250, -0.886718750, -0.503906250, 0.429687500, -0.718750000, -0.945312500, -1.373046875, -1.896484375, -0.433593750, -2.242187500, -0.316406250, -0.505859375, -2.544921875, -0.953125000, 0.367187500, 1.792968750, 3.201171875, 0.849609375, -0.755859375, -0.408203125, 1.759765625, -0.285156250, 1.083984375, 0.283203125, -1.828125000, -0.074218750, 1.052734375, 1.738281250, 2.439453125, 0.271484375, -2.048828125, -0.226562500, -1.031250000, 2.164062500, -0.527343750, 0.445312500, 1.626953125, -1.558593750, 2.019531250, 1.664062500, 1.265625000, -0.058593750, -0.724609375, 0.269531250, -0.308593750, 0.894531250, -0.300781250, 0.304687500, -2.035156250, 0.527343750, 1.945312500, 1.986328125, -0.810546875, -0.443359375, 2.033203125, 0.964843750, 1.958984375, 1.677734375, 0.404296875, 2.099609375, -1.175781250, -0.443359375, 0.210937500, 2.050781250, -0.275390625, -2.320312500, -0.134765625, 1.792968750, -0.167968750, 0.095703125, 1.220703125, 2.332031250, 0.937500000, -1.023437500, -1.246093750, 2.105468750, 0.013671875, 2.330078125, -0.015625000, 0.134765625, -0.302734375, -2.181640625, -0.068359375, 0.281250000, -2.017578125, -0.195312500, -1.505859375, 1.531250000, 0.486328125, 2.054687500, -2.279296875, 1.353515625, 0.500000000, 0.060546875, 0.689453125, 1.123046875, -2.000000000, 0.365234375, 0.683593750, 1.845703125, -0.003906250, 0.996093750, -0.074218750, -0.205078125, 4.271484375, -0.109375000, 0.083984375, 0.361328125, -1.525390625, -1.943359375, -0.787109375, 1.011718750, -0.359375000, 2.041015625, 0.841796875, -1.150390625, -2.650390625, -2.027343750, 1.355468750, 0.308593750, 1.404296875, -2.667968750, 3.074218750, 1.244140625, 0.333984375, 3.349609375, -0.068359375, 0.062500000, -1.757812500, -1.439453125, -2.343750000, 1.933593750, 1.996093750, 0.292968750, 0.419921875, -0.585937500, -3.787109375, -0.871093750, -0.062500000, 0.910156250, -3.605468750, -0.185546875, -0.623046875, -0.878906250, -0.376953125, 0.673828125, -0.564453125, -0.611328125, 1.037109375, 0.033203125, 0.541015625, 1.929687500, 0.464843750, 3.371093750, -0.857421875, 6.302734375, -0.007812500, -0.474609375, -0.095703125, -0.781250000, -2.402343750, -0.396484375, -1.097656250, 1.445312500, -2.353515625, 2.125000000, -0.431640625, 1.478515625, 0.917968750, -1.716796875, 2.292968750, -0.427734375, -0.363281250, -2.970703125, -3.433593750, 0.904296875, 2.599609375, -2.607421875, 0.583984375, 3.066406250, -2.468750000, -2.378906250, 0.003906250, -2.337890625, 0.052734375, 2.451171875, -1.318359375, -0.001953125, -3.001953125, -0.441406250, -1.207031250, -0.310546875, -1.960937500, -1.412109375, -1.273437500, -0.835937500, 0.259765625, -0.767578125, -1.328125000, 0.468750000, -0.001953125, 1.119140625, 2.847656250, -1.207031250, 1.310546875, 0.123046875, 0.191406250, -1.904296875, -0.460937500, 2.640625000, 1.986328125, -1.109375000, 1.292968750, 0.113281250, 0.416015625, 2.126953125, -0.244140625, 1.468750000, 0.562500000, 1.419921875, 1.191406250, -1.539062500, 0.550781250, 0.746093750, -2.199218750, -0.052734375, -0.748046875, -0.673828125, -0.640625000, 2.148437500, 0.472656250, 1.285156250, 2.007812500, -0.484375000, 2.156250000, 0.130859375, -1.603515625, -6.167968750, -1.302734375, 0.080078125, 2.466796875, -3.519531250, 0.453125000, 2.488281250, 0.601562500, -1.542968750, 0.876953125, -3.246093750, 0.792968750, 2.285156250, 0.320312500, 0.875000000, -1.810546875, -0.218750000, -3.812500000, -0.201171875, -1.183593750, 0.189453125, -0.187500000, 0.007812500, -0.083984375, -0.613281250, 1.392578125, -0.335937500, 2.013671875, 0.449218750, 2.187500000, 0.330078125, 0.480468750, -0.115234375, 0.511718750, -0.851562500, -0.583984375, 1.949218750, 0.744140625, -3.394531250, -0.154296875, -0.027343750, -0.052734375, 1.689453125, -0.255859375, -1.970703125, 0.500000000, 0.462890625, -0.228515625, -1.902343750, 0.507812500, 0.888671875, -0.107421875, -0.203125000, -0.544921875, -0.210937500, -1.277343750, 1.337890625, 0.410156250, -0.875000000, -2.375000000, 0.123046875, 1.128906250, 0.179687500, -0.027343750, -4.751953125, -1.115234375, 1.433593750, 1.658203125, -4.875000000, -0.261718750, 1.675781250, 0.279296875, -1.658203125, -0.613281250, -0.533203125, 0.970703125, 1.476562500, -0.255859375, 0.578125000, -1.289062500, -1.097656250, -4.636718750, -0.115234375, -0.673828125, -0.792968750, -0.125000000, 0.681640625, -0.191406250, -0.396484375, 1.255859375, 0.103515625, 1.050781250, 0.480468750, 1.753906250, 0.496093750, 0.613281250, -0.054687500, 0.357421875, -1.246093750, -0.121093750, 1.599609375, 0.205078125, -1.636718750, -0.296875000, 0.316406250, -0.769531250, 0.021484375, 0.923828125, -0.509765625, 0.683593750, 1.070312500, 0.007812500, -1.966796875, 0.761718750, 0.908203125, 0.007812500, 0.230468750, -0.365234375, -0.271484375, -0.111328125, 1.451171875, 0.865234375, 0.634765625, 0.076171875, -0.728515625, 1.117187500, -1.220703125, 0.142578125, -4.259765625, -4.013671875, 0.464843750, 1.515625000, -1.347656250, -0.066406250, 1.662109375, 1.396484375, -1.173828125, 0.298828125, 0.316406250, 1.232421875, 1.486328125, 0.693359375, 0.394531250, -0.460937500, -0.318359375, -5.310546875, 0.074218750, -0.982421875, -0.748046875, -0.333984375, 0.960937500, -0.250000000, -0.214843750, 0.232421875, -0.101562500, 1.693359375, 0.587890625, 1.654296875, 0.552734375, -0.269531250, 0.255859375, -0.240234375, -1.031250000, -0.984375000, 1.302734375, -4.585937500, -3.687500000, 0.996093750, 0.169921875, -0.449218750, 0.166015625, 0.074218750, 0.484375000, 0.572265625, 1.000000000, 0.255859375, -2.181640625, 0.970703125, -0.279296875, 0.400390625, 0.117187500, -0.626953125, -2.667968750, -0.947265625, 1.138671875, 0.783203125, 0.671875000, 1.140625000, -0.527343750, 1.591796875, -1.017578125, -0.673828125, -2.298828125, -0.136718750, 0.500000000, 1.347656250, -0.669921875, 0.937500000, 1.896484375, 1.689453125, -0.816406250, 1.347656250, 0.041015625, 0.472656250, 1.527343750, -0.568359375, -0.240234375, -1.091796875, -1.835937500, -5.666015625, 0.013671875, -0.527343750, -0.132812500, -0.300781250, 0.117187500, 0.300781250, -0.787109375, -0.740234375, 0.154296875, 0.617187500, 0.457031250, 1.585937500, 0.175781250, -4.953125000, 0.210937500, -0.611328125, -0.931640625, -2.164062500, 1.388671875, -0.037109375, -1.085937500, 0.042968750, 0.363281250, -0.357421875, 0.804687500, -0.498046875, -0.015625000, 0.722656250, 0.531250000, -0.105468750, -2.128906250, 0.859375000, 0.835937500, 0.984375000, 0.316406250, -0.695312500, -3.283203125, -0.048828125, 1.392578125, 0.162109375, -0.039062500, -0.783203125, -2.048828125, 1.898437500, 0.763671875, -0.386718750, 1.490234375, -3.351562500, 0.779296875, 1.529296875, 0.673828125, 0.775390625, 1.705078125, 0.060546875, 0.626953125, 0.955078125, -1.285156250, 0.835937500, 1.736328125, 1.462890625, -0.433593750, -0.941406250, -1.527343750, -5.587890625, -0.220703125, -1.132812500, 0.509765625, -0.796875000, 0.089843750, -0.306640625, 0.156250000, -0.087890625, 0.369140625, 0.296875000, 0.421875000, 1.181640625, 0.837890625, -7.851562500, 0.294921875, -0.257812500, -1.121093750, -1.287109375, 1.513671875, 1.187500000, -0.705078125, 0.113281250, 0.156250000, 0.345703125, 1.083984375, 0.574218750, 0.068359375, 0.349609375, 0.386718750, -0.617187500, -1.957031250, 0.644531250, -0.060546875, 0.033203125, 0.232421875, -0.714843750, -1.542968750, -0.865234375, 1.179687500, -0.343750000, 0.837890625, 2.218750000, -0.529296875, 2.404296875, 0.498046875, -0.486328125, 0.390625000, -1.400390625, 1.064453125, 1.955078125, 0.654296875, -0.154296875, 2.382812500, -1.326171875, 0.533203125, 0.140625000, -1.275390625, 1.126953125, 2.226562500, -2.787109375, 0.248046875, -1.527343750, -1.376953125, -3.216796875, 1.400390625, -1.357421875, 0.724609375, -0.595703125, 1.300781250, 0.101562500, -0.214843750, 0.000000000, -0.082031250, -1.957031250, 0.652343750, 2.367187500, -0.597656250, -2.304687500, 0.001953125, 0.314453125, -1.556640625, -1.546875000, 1.955078125, 0.650390625, -1.968750000, 0.291015625, 0.085937500, -1.087890625, 0.814453125, 0.132812500, 0.058593750, 0.447265625, -0.033203125, 0.513671875, -1.666015625, -0.132812500, 1.310546875, 0.947265625, 0.552734375, -1.666015625, -1.484375000, -1.142578125, 0.542968750, -1.390625000, -0.671875000, 2.193359375, -1.728515625, 1.296875000, 1.804687500, 0.396484375, -3.464843750, -3.982421875, 1.486328125, 1.507812500, -0.236328125, 0.824218750, 2.691406250, -1.511718750, -1.318359375, 0.669921875, 1.564453125, 1.193359375, 2.853515625, 1.843750000, 0.542968750, -1.642578125, -1.800781250, -5.787109375, 1.160156250, -1.316406250, 1.574218750, -0.228515625, 1.542968750, -1.001953125, 0.671875000, 0.650390625, 0.326171875, -1.025390625, 0.798828125, 3.681640625, 0.671875000, -5.078125000, 0.269531250, -0.562500000, -1.755859375, -2.650390625, 3.195312500, 0.666015625, 1.361328125, -2.072265625, 0.339843750, 1.904296875, 0.792968750, 0.228515625, 0.705078125, 0.757812500, 1.140625000, -0.611328125, -1.708984375, -3.294921875, -4.294921875, 1.392578125, 1.597656250, 0.085937500, 0.451171875, 2.654296875, 0.787109375, 3.488281250, -0.306640625, -0.917968750, -2.365234375, 1.351562500, -0.103515625, -0.980468750, 0.001953125, -2.753906250, -0.367187500, 0.648437500, 1.910156250, 1.103515625, -0.437500000, 1.669921875, 0.597656250, 3.009765625, -0.359375000, -0.115234375, 3.806640625, 3.914062500, -0.324218750, -2.046875000, -0.943359375, -0.949218750, 2.273437500, 0.187500000, -2.550781250, -0.128906250, 0.013671875, 0.552734375, -1.240234375, -0.390625000, 2.767578125, -0.615234375, -1.033203125, 1.222656250, 0.732421875, -2.966796875, 2.443359375, -2.277343750, -1.794921875, -2.048828125, -0.169921875, -1.056640625, -1.312500000, -1.388671875, -0.708984375, 0.970703125, -0.398437500, 0.277343750, 7.687500000, -3.646484375, -1.658203125, 0.738281250, 0.142578125, -0.361328125, -0.726562500, -1.123046875, -0.052734375, -0.630859375, -0.474609375, -0.271484375, 2.726562500, -0.177734375, -1.529296875, 2.130859375, -1.847656250, -0.308593750, 0.955078125, -1.087890625, -3.021484375, -3.167968750, 1.669921875, 2.318359375, 1.818359375, 0.177734375, 2.691406250, -0.082031250, -2.392578125, 0.261718750, -2.269531250, 1.416015625, 2.953125000, 0.371093750, 0.673828125, -2.015625000, 0.898437500, -0.345703125, -0.369140625, -1.773437500, 0.861328125, 0.460937500, 0.535156250, 0.273437500, 0.339843750, -2.402343750, -0.033203125, 1.472656250, 0.292968750, 2.623046875, 0.566406250, -1.720703125, -0.312500000, -0.320312500, -1.912109375, 0.087890625, 2.519531250, 1.324218750, -4.259765625, -1.458984375, -0.359375000, 1.910156250, -1.775390625, -0.162109375, -0.583984375, 0.349609375, 1.332031250, 1.119140625, -0.654296875, -0.015625000, -0.443359375, -1.115234375, -0.273437500, -0.835937500, -0.240234375, -0.753906250, 0.494140625, 0.593750000, -0.476562500, -0.597656250, -4.353515625, 1.533203125, -0.312500000, -0.425781250, -5.296875000, 0.683593750, 2.308593750, 2.503906250, -1.507812500, 0.667968750, 2.273437500, 1.429687500, -1.515625000, 0.656250000, 0.126953125, 1.578125000, 2.183593750, 0.972656250, 1.351562500, -0.576171875, -1.888671875, -0.291015625, -0.896484375, -0.568359375, -0.679687500, 0.003906250, -0.197265625, 0.533203125, 0.039062500, -3.261718750, 1.013671875, 0.542968750, 0.365234375, 2.031250000, 0.703125000, -0.607421875, -0.183593750, 0.728515625, -1.140625000, 0.906250000, 2.183593750, 0.712890625, -5.609375000, 1.437500000, 0.164062500, 0.341796875, 0.486328125, 0.468750000, 0.929687500, 0.564453125, 1.074218750, -0.259765625, -1.169921875, 0.318359375, 0.224609375, -0.712890625, 0.013671875, -0.275390625, 0.480468750, 0.369140625, 1.113281250, -0.306640625, 1.431640625, 0.306640625, -0.199218750, 1.019531250, 0.710937500, -1.509765625, -4.664062500, -0.205078125, 0.462890625, 1.398437500, -2.828125000, 0.791015625, 1.767578125, 1.005859375, -0.941406250, 1.232421875, -0.115234375, 0.498046875, 1.349609375, -0.550781250, 1.875000000, -0.574218750, 1.230468750, -5.859375000, -0.156250000, -0.630859375, -1.439453125, -0.927734375, 0.337890625, -0.044921875, -0.621093750, -0.703125000, -0.289062500, 1.195312500, 0.380859375, 1.398437500, 0.115234375, 1.234375000, -0.402343750, -0.039062500, -0.708984375, -0.064453125, 1.486328125, -0.552734375, -2.787109375, 1.927734375, 0.341796875, -0.136718750, -1.175781250, 0.113281250, 0.482421875, -0.019531250, 0.693359375, -0.160156250, -2.253906250, 0.503906250, 0.154296875, -0.386718750, 0.367187500, -0.472656250, 0.287109375, 0.636718750, 0.902343750, -0.302734375, 0.623046875, 0.443359375, 0.173828125, 1.052734375, -0.412109375, -0.583984375, 0.279296875, -0.517578125, 1.269531250, 1.115234375, -3.250000000, -0.085937500, 1.394531250, 0.785156250, -1.115234375, 0.492187500, -0.357421875, 0.224609375, 0.949218750, -0.193359375, 0.703125000, -0.390625000, -0.203125000, -3.484375000, 0.041015625, -0.486328125, -0.669921875, -0.392578125, -0.044921875, -0.070312500, -1.552734375, -0.277343750, 0.335937500, -0.328125000, 0.542968750, 0.960937500, 0.419921875, 0.251953125, 0.195312500, 0.253906250, -0.460937500, -2.580078125, 1.023437500, -3.263671875, -4.820312500, 1.117187500, 0.158203125, -0.123046875, 0.457031250, -0.128906250, -0.056640625, 0.195312500, 0.638671875, 0.037109375, -1.373046875, 0.732421875, 0.363281250, -0.171875000, 0.080078125, -0.544921875, -0.056640625, -0.205078125, 0.705078125, 0.925781250, 0.939453125, 0.511718750, -0.455078125, 0.388671875, -0.623046875, -1.388671875, 0.259765625, -0.628906250, -0.550781250, 1.025390625, -0.154296875, -0.476562500, 1.052734375, 0.568359375, -0.423828125, 0.046875000, 0.005859375, 0.728515625, 0.679687500, 0.417968750, 0.189453125, -0.423828125, -0.828125000, -4.498046875, 0.019531250, -0.208984375, -0.068359375, -0.414062500, 0.068359375, -0.130859375, -1.339843750, -0.021484375, 0.144531250, 0.460937500, 0.410156250, 0.994140625, -0.109375000, 0.458984375, 0.138671875, -0.630859375, -0.615234375, -1.998046875, 0.798828125, -3.929687500, -4.472656250, 0.931640625, 0.259765625, 1.113281250, 0.769531250, -0.679687500, 0.312500000, 0.046875000, 0.349609375, -0.177734375, -1.062500000, 0.564453125, -0.244140625, 0.820312500, 0.416015625, 0.283203125, -0.794921875, -0.175781250, 0.066406250, -0.140625000, -0.099609375, 0.101562500, -0.427734375, 1.015625000, -0.455078125, -0.166015625, 0.363281250, -3.548828125, -0.187500000, 0.660156250, 0.244140625, 0.724609375, 1.107421875, 0.882812500, -0.316406250, -0.035156250, 0.126953125, 0.978515625, 0.710937500, 0.839843750, 0.107421875, -0.470703125, -0.904296875, -4.085937500, 0.609375000, 0.005859375, -0.169921875, -0.320312500, 0.244140625, 0.113281250, -1.642578125, 0.582031250, 0.667968750, 0.890625000, 0.472656250, 0.914062500, 0.306640625, -0.693359375, 0.652343750, -0.429687500, -0.765625000, -1.480468750, 0.607421875, -0.621093750, -0.230468750, 0.783203125, 0.304687500, 0.867187500, -0.289062500, -0.363281250, 0.058593750, 0.351562500, -0.146484375, -0.240234375, -1.054687500, 0.892578125, -0.136718750, 0.640625000, 0.156250000, -0.708984375, -0.318359375, 0.117187500, 0.511718750, 0.316406250, 0.615234375, 0.308593750, -0.349609375, 1.162109375, -0.953125000, -0.185546875, 0.542968750, -3.863281250, -1.945312500, 0.958984375, 0.392578125, 0.796875000, 1.343750000, 1.294921875, 0.363281250, 0.503906250, 0.027343750, 0.623046875, 1.025390625, -0.087890625, 0.716796875, -0.617187500, -0.232421875, -4.804687500, 0.355468750, -0.062500000, 0.527343750, -0.193359375, 1.427734375, 0.044921875, -1.177734375, -0.103515625, -0.177734375, 0.744140625, 0.423828125, 1.207031250, 0.164062500, -4.242187500, 0.207031250, -0.445312500, -0.761718750, -1.435546875, 0.947265625, 0.058593750, 0.023437500, 0.351562500, 0.246093750, 0.312500000, 0.140625000, -0.845703125, -0.060546875, 0.095703125, 0.294921875, -0.320312500, -1.298828125, 0.441406250, 0.384765625, 1.345703125, -0.222656250, -0.773437500, 0.996093750, -0.787109375, 1.234375000, -0.779296875, 0.802734375, 0.873046875, -1.605468750, 1.791015625, 0.093750000, -1.083984375, 0.052734375, -2.066406250, -2.494140625, 1.283203125, 1.056640625, 0.523437500, 1.880859375, 0.767578125, 0.287109375, 0.869140625, 0.517578125, 0.863281250, 1.449218750, 1.210937500, -0.169921875, -0.519531250, -0.664062500, -4.855468750, 1.044921875, -1.011718750, 0.689453125, -0.324218750, 0.609375000, 0.208984375, 0.166015625, 0.085937500, 0.171875000, -2.205078125, 0.378906250, 1.009765625, -0.064453125, -7.644531250, -0.156250000, -0.869140625, -1.324218750, -2.234375000, 0.953125000, -0.138671875, -0.693359375, -0.060546875, 0.255859375, 0.664062500, 0.398437500, 0.365234375, -0.765625000, 0.058593750, 0.050781250, -0.353515625, -1.787109375, -0.607421875, 0.529296875, 1.923828125, -0.322265625, -1.671875000, -0.033203125, -0.208984375, -0.589843750, -3.111328125, 0.283203125, 0.607421875, -0.156250000, 0.666015625, 0.820312500, -0.728515625, -1.494140625, -3.580078125, 0.798828125, 1.714843750, -1.382812500, 0.730468750, 1.757812500, -0.529296875, 0.589843750, 0.845703125, 0.035156250, 1.216796875, 2.187500000, -2.373046875, 0.367187500, -1.966796875, -0.232421875, -5.412109375, 0.513671875, -0.328125000, 0.306640625, -0.673828125, -0.697265625, 0.033203125, -0.562500000, 2.732421875, 0.267578125, -2.632812500, 0.414062500, 2.544921875, 0.941406250, -3.976562500, -0.376953125, -0.417968750, -1.589843750, -1.859375000, 2.205078125, 0.587890625, -0.255859375, 0.636718750, 0.388671875, -1.275390625, 0.601562500, 1.013671875, 0.375000000, 0.609375000, 0.566406250, -1.351562500, -2.113281250, 0.228515625, 0.943359375, 1.246093750, 0.234375000, -2.242187500, -2.212890625, -0.363281250, 1.447265625, -2.376953125, -2.316406250, 0.216796875, -0.734375000, -0.369140625, 0.328125000, -0.369140625, -5.687500000, -4.226562500, 2.041015625, 2.501953125, -1.304687500, 0.197265625, 2.478515625, -1.550781250, -0.607421875, 0.787109375, 1.277343750, 0.335937500, 2.650390625, -1.259765625, 1.587890625, -0.683593750, -0.148437500, -5.988281250, 1.587890625, -2.765625000, 0.486328125, -0.519531250, 0.132812500, -0.166015625, -0.212890625, 2.033203125, 0.683593750, -2.228515625, 0.742187500, 2.740234375, 2.085937500, -5.492187500, 0.056640625, -0.123046875, -1.722656250, -0.582031250, 2.568359375, 1.105468750, 0.382812500, -0.355468750, 0.238281250, 1.707031250, 0.052734375, -0.660156250, 0.275390625, 1.316406250, 0.007812500, 0.531250000, 0.892578125, 0.296875000, -0.687500000, -3.025390625, 0.201171875, -2.681640625, 0.697265625, 0.376953125, 1.753906250, 0.369140625, 1.617187500, 1.763671875, -2.976562500, 1.628906250, -0.314453125, -1.886718750, -5.710937500, 0.195312500, 1.798828125, 2.453125000, 0.691406250, 1.656250000, 2.857421875, 2.195312500, -0.544921875, 0.212890625, -2.960937500, 0.701171875, 2.599609375, -0.423828125, 0.910156250, -2.738281250, 0.119140625, 1.203125000, -0.156250000, -1.833984375, -0.619140625, 0.125000000, 1.464843750, 0.111328125, -0.173828125, -3.363281250, -0.513671875, 0.544921875, 0.330078125, 2.072265625, 0.939453125, -0.404296875, -0.093750000, 0.257812500, -0.416015625, 1.085937500, 2.583984375, 0.550781250, -1.462890625, 1.603515625, 0.437500000, -2.832031250, -3.152343750, -0.457031250, -0.933593750, 0.271484375, 0.884765625, 0.208984375, -1.396484375, 0.406250000, -0.080078125, -1.714843750, 0.015625000, -0.767578125, 0.513671875, 1.148437500, 0.886718750, -0.251953125, -0.085937500, 1.375000000, -2.246093750, 1.232421875, -0.410156250, -0.291015625, -6.162109375, 0.521484375, 1.066406250, 2.070312500, 0.560546875, 1.333984375, 2.048828125, 1.552734375, -1.746093750, 0.064453125, -4.689453125, 0.767578125, 1.638671875, -0.054687500, 1.216796875, -1.439453125, -0.125000000, 0.097656250, -0.283203125, -0.888671875, -0.761718750, -0.164062500, 0.804687500, -0.230468750, -0.757812500, -2.769531250, 0.269531250, 1.417968750, 0.550781250, 1.515625000, 0.716796875, 0.835937500, 0.171875000, 0.339843750, -0.294921875, 0.625000000, 1.744140625, 0.611328125, -0.017578125, 1.791015625, 0.000000000, -0.697265625, -1.728515625, -0.216796875, 0.939453125, 0.371093750, 1.023437500, 0.236328125, -1.986328125, 0.728515625, 0.447265625, -0.738281250, -0.113281250, -0.902343750, -0.031250000, -0.412109375, 0.929687500, -0.177734375, 0.093750000, 0.521484375, 0.158203125, 0.865234375, -0.755859375, -0.187500000, -5.529296875, 0.519531250, -0.185546875, 1.146484375, -3.623046875, -0.578125000, 1.126953125, 0.673828125, -0.675781250, 0.218750000, -3.458984375, 0.156250000, 1.011718750, -0.054687500, 1.076171875, -0.359375000, -0.595703125, -1.154296875, -0.166015625, -0.490234375, -0.695312500, -0.480468750, 0.636718750, -0.216796875, -0.785156250, -0.707031250, 0.244140625, 1.751953125, 0.429687500, 1.179687500, 1.957031250, 0.851562500, -0.031250000, -0.132812500, -0.529296875, 0.267578125, 0.953125000, -0.154296875, -2.089843750, 0.923828125, 0.132812500, 0.005859375, -0.236328125, -0.078125000, -0.580078125, 0.396484375, 0.486328125, 0.095703125, -1.861328125, 0.390625000, 0.505859375, -0.392578125, 0.017578125, -0.373046875, 0.736328125, -0.306640625, 0.417968750, 0.324218750, -0.037109375, 0.355468750, -0.669921875, 0.388671875, -0.283203125, -0.791015625, 0.230468750, 0.337890625, -0.289062500, 0.810546875, -1.837890625, 0.001953125, 0.699218750, 0.242187500, -0.382812500, 0.253906250, -0.060546875, -0.179687500, 0.542968750, 0.248046875, 0.794921875, -0.250000000, -0.009765625, -1.664062500, -0.158203125, -0.076171875, -0.583984375, -0.437500000, 0.316406250, -0.017578125, -1.353515625, -0.152343750, 0.097656250, 0.173828125, 0.435546875, 0.767578125, 1.015625000, 0.109375000, 0.115234375, 0.478515625, -0.199218750, -1.189453125, 0.378906250, -0.054687500, -2.341796875, 0.837890625, 0.298828125, 0.548828125, -0.056640625, -0.541015625, -0.353515625, 0.248046875, 0.175781250, 0.029296875, -0.775390625, 0.429687500, 0.402343750, -0.210937500, -0.056640625, 0.283203125, 0.283203125, 0.105468750, 0.318359375, 0.246093750, -0.333984375, 0.601562500, -0.166015625, 0.169921875, -0.748046875, -0.113281250, 0.259765625, -0.037109375, -0.783203125, 0.337890625, 0.326171875, 0.021484375, 0.421875000, 0.326171875, -0.302734375, 0.732421875, 0.001953125, 0.101562500, 0.359375000, 0.171875000, -0.087890625, -0.125000000, 0.136718750, 0.101562500, -0.091796875, -0.130859375, -0.255859375, -0.720703125, 0.414062500, 0.138671875, -1.599609375, 0.064453125, 0.531250000, -0.236328125, 0.406250000, 0.363281250, 0.082031250, 0.164062500, -0.210937500, -0.519531250, -0.123046875, -0.693359375, 0.486328125, -0.048828125, -0.882812500, 0.046875000, 0.291015625, 0.335937500, 0.714843750, -0.142578125, 0.150390625, 0.025390625, -0.205078125, 0.000000000, -0.423828125, 0.271484375, 0.152343750, 0.335937500, 0.191406250, 0.310546875, 0.246093750, -0.126953125, -0.095703125, 0.445312500, 0.685546875, 0.699218750, -0.224609375, 0.382812500, -0.515625000, 0.494140625, 0.203125000, -0.781250000, -0.019531250, 0.261718750, 0.238281250, -0.125000000, 0.390625000, 0.388671875, 0.117187500, -0.037109375, 0.150390625, -0.052734375, 0.390625000, 0.488281250, -0.039062500, -0.189453125, 0.205078125, 0.085937500, 0.240234375, -0.152343750, 0.251953125, -0.937500000, -0.138671875, 0.126953125, -1.642578125, 0.261718750, 0.265625000, 0.113281250, 0.410156250, 0.357421875, 1.255859375, 0.835937500, 0.281250000, -0.416015625, -0.261718750, -0.462890625, 0.599609375, 0.105468750, -0.138671875, 0.568359375, 0.320312500, 0.251953125, -0.101562500, -0.101562500, -0.119140625, 0.099609375, 0.535156250, -0.142578125, -0.431640625, 0.257812500, -0.162109375, 0.466796875, 0.458984375, -0.189453125, 0.451171875, 0.033203125, 0.623046875, -0.070312500, 0.560546875, 0.066406250, -0.193359375, 0.500000000, -0.720703125, -0.054687500, 0.087890625, -0.568359375, -1.144531250, 0.394531250, 0.171875000, 0.605468750, 0.810546875, 0.732421875, 0.308593750, -0.281250000, 0.121093750, -0.173828125, 0.523437500, -0.234375000, 0.720703125, -0.376953125, 0.304687500, 0.128906250, 0.613281250, 0.208984375, 0.382812500, -0.318359375, 0.835937500, 0.083984375, -0.503906250, -0.007812500, 0.039062500, 0.101562500, 0.400390625, 0.523437500, 0.125000000, -1.419921875, 0.443359375, -0.566406250, -0.632812500, -0.861328125, 0.378906250, 0.125000000, -0.423828125, 0.775390625, 0.287109375, 0.457031250, 0.052734375, -0.449218750, -0.207031250, 0.189453125, 0.220703125, -2.576171875, -0.798828125, -0.886718750, -0.097656250, 0.810546875, 0.205078125, -0.701171875, 1.445312500, -0.121093750, 0.548828125, -0.218750000, -1.123046875, 0.126953125, -0.632812500, 1.201171875, -1.345703125, -0.314453125, -0.447265625, 0.068359375, -0.927734375, 0.986328125, 0.162109375, 0.660156250, 1.337890625, 1.203125000, 0.902343750, 0.470703125, 0.125000000, 0.669921875, 1.009765625, -0.025390625, 0.773437500, -0.681640625, -0.957031250, -5.097656250, 0.007812500, 0.027343750, 0.503906250, -0.255859375, 0.894531250, 0.035156250, -1.312500000, 0.193359375, 0.013671875, -0.115234375, 0.457031250, 1.228515625, 0.097656250, -5.191406250, 0.166015625, -1.345703125, -1.277343750, -1.595703125, 0.769531250, -0.869140625, -0.039062500, 0.332031250, 0.269531250, 0.943359375, 0.400390625, -0.070312500, -0.832031250, -0.019531250, 0.468750000, -1.386718750, -1.281250000, -1.097656250, 0.396484375, 1.439453125, 0.144531250, -0.781250000, 1.849609375, -0.173828125, 1.230468750, -0.154296875, -1.062500000, 0.705078125, -1.691406250, 2.087890625, -0.982421875, -0.171875000, -5.152343750, -1.802734375, 1.140625000, 1.513671875, 0.505859375, -0.320312500, 2.101562500, 1.443359375, -0.148437500, 0.224609375, 0.203125000, 0.361328125, 1.593750000, -2.933593750, 0.673828125, -0.656250000, -0.187500000, -6.292968750, 0.777343750, -0.074218750, 0.535156250, -0.769531250, 1.011718750, 0.119140625, 0.117187500, 0.244140625, -0.083984375, -2.849609375, 0.394531250, 1.298828125, -0.271484375, -5.380859375, -0.062500000, -0.253906250, -1.484375000, -1.324218750, 1.455078125, 0.324218750, -0.175781250, -0.068359375, 0.246093750, 0.146484375, 0.470703125, 0.232421875, 0.371093750, 0.199218750, 1.214843750, -0.664062500, -1.707031250, -0.681640625, 1.166015625, 1.611328125, -0.189453125, 0.208984375, 0.458984375, 0.162109375, 1.878906250, -1.033203125, 0.164062500, 0.148437500, -2.064453125, 0.601562500, -0.498046875, -0.707031250, -3.521484375, -0.271484375, 2.105468750, 2.283203125, -1.097656250, -0.253906250, 1.843750000, 0.419921875, 0.097656250, 0.003906250, -1.027343750, 1.509765625, 3.255859375, 1.779296875, 1.097656250, -1.509765625, -2.001953125, -4.539062500, 1.007812500, -0.375000000, 0.535156250, 0.359375000, 1.435546875, -0.593750000, 0.832031250, 0.386718750, 0.656250000, -5.164062500, 0.457031250, 2.550781250, 0.175781250, -4.710937500, -0.117187500, -1.208984375, -1.861328125, -1.777343750, 2.205078125, 0.892578125, -0.087890625, -0.820312500, -0.072265625, -0.076171875, 0.728515625, 0.869140625, 0.369140625, 0.150390625, 1.156250000, -0.070312500, -1.570312500, 0.019531250, -2.031250000, -2.492187500, -0.085937500, -0.427734375, 0.851562500, 2.380859375, 2.281250000, 0.619140625, -0.892578125, -0.263671875, -2.906250000, -1.740234375, 0.468750000, -1.275390625, -6.162109375, 1.654296875, -0.033203125, 2.630859375, 1.335937500, 1.367187500, 1.875000000, 0.478515625, -0.722656250, -0.476562500, -1.494140625, 1.787109375, 2.142578125, -2.134765625, 1.421875000, -1.142578125, 0.517578125, 0.039062500, -2.123046875, -1.863281250, -0.855468750, -0.238281250, 0.982421875, 0.902343750, -0.400390625, -2.857421875, -0.289062500, 1.564453125, 0.242187500, 1.882812500, -0.251953125, -0.328125000, -0.220703125, 0.660156250, -0.892578125, -0.177734375, 2.796875000, 1.068359375, -2.001953125, 1.152343750, 0.136718750, -0.191406250, 0.259765625, 0.675781250, 1.703125000, 0.783203125, 1.476562500, 0.441406250, -1.437500000, -0.531250000, -0.107421875, -1.089843750, 0.185546875, -0.109375000, 0.066406250, 0.003906250, 1.085937500, -0.701171875, 1.167968750, 0.605468750, -0.812500000, 0.939453125, 0.117187500, -1.771484375, -6.683593750, 0.740234375, -1.900390625, 1.804687500, 0.513671875, 1.080078125, 1.685546875, 0.955078125, -0.982421875, 0.830078125, -5.976562500, 0.916015625, 1.392578125, 1.210937500, 0.998046875, -0.939453125, 0.531250000, 0.837890625, 0.613281250, -0.269531250, -0.738281250, -0.509765625, 0.736328125, -0.199218750, -0.041015625, -2.439453125, -0.234375000, 1.472656250, 0.365234375, 1.517578125, 0.037109375, 0.212890625, 0.378906250, 0.556640625, -0.304687500, 0.332031250, 1.324218750, 0.457031250, -5.458984375, 1.054687500, 0.158203125, 0.070312500, -0.791015625, 0.044921875, -0.376953125, 0.410156250, 1.025390625, -0.039062500, -1.667968750, 0.076171875, 0.382812500, -0.238281250, -0.099609375, -0.984375000, 0.134765625, 0.720703125, 0.791015625, -0.001953125, 0.390625000, 0.474609375, 0.068359375, 0.324218750, -0.496093750, -1.464843750, -3.361328125, 0.333984375, -1.884765625, 0.791015625, 0.144531250, -0.042968750, 0.982421875, 0.656250000, -0.496093750, 0.605468750, -5.265625000, 0.320312500, 0.667968750, 0.849609375, 0.748046875, -0.609375000, 0.261718750, -0.039062500, -0.177734375, -0.228515625, -0.685546875, -0.998046875, 0.345703125, -0.005859375, -1.203125000, 0.556640625, 0.585937500, 1.310546875, 0.341796875, 0.769531250, 0.203125000, 0.294921875, -0.169921875, 0.308593750, 0.058593750, 0.222656250, 0.685546875, 0.544921875, -2.810546875, 0.904296875, 0.261718750, 0.513671875, 0.078125000, -0.074218750, -0.525390625, 0.183593750, 0.134765625, 0.095703125, -1.496093750, -0.355468750, 0.419921875, -0.208984375, -0.029296875, -0.671875000, 0.072265625, 0.093750000, 0.304687500, 0.619140625, 0.121093750, 0.443359375, 0.148437500, 0.082031250, -0.537109375, -0.187500000, 0.259765625, 0.228515625, -0.435546875, 0.248046875, -2.378906250, -0.070312500, 0.318359375, 0.416015625, -0.207031250, 0.171875000, -0.107421875, -0.152343750, 0.250000000, 0.222656250, -0.218750000, -0.279296875, 0.273437500, 0.177734375, 0.029296875, 0.015625000, -0.384765625, -0.626953125, 0.800781250, 0.152343750, -1.474609375, 0.371093750, -0.470703125, -0.035156250, 0.291015625, 0.345703125, 0.316406250, -0.027343750, 0.019531250, -0.007812500, 0.304687500, -0.621093750, 0.458984375, 0.263671875, -0.972656250, -0.121093750, 0.283203125, 0.441406250, -0.314453125, -0.251953125, -0.654296875, 0.068359375, 0.248046875, 0.095703125, -0.378906250, -0.632812500, 0.205078125, 0.080078125, -0.044921875, -0.130859375, 0.134765625, -0.208984375, 0.064453125, -0.064453125, 0.085937500, 0.267578125, -0.023437500, -0.056640625, -0.017578125, 0.138671875, 0.027343750, 0.210937500, 0.023437500, 0.000000000, 0.169921875, 0.140625000, 0.031250000, 0.095703125, 0.095703125, 0.005859375, 0.121093750, -0.210937500, -0.023437500, 0.027343750, -0.035156250, 0.300781250, 0.001953125, 0.083984375, 0.109375000, 0.335937500, -0.076171875, -0.121093750, 0.318359375, 0.138671875, -0.044921875, 0.119140625, -1.250000000, 0.078125000, 0.294921875, 0.023437500, 0.005859375, 0.097656250, 0.199218750, 0.027343750, 0.275390625, -0.402343750, 0.037109375, -0.001953125, 0.177734375, -0.351562500, 0.337890625, 0.109375000, 0.523437500, 0.544921875, -0.060546875, -0.089843750, 0.363281250, 0.062500000, -0.134765625, -0.273437500, 0.033203125, 0.123046875, -0.119140625, 0.250000000, 0.169921875, -0.291015625, 0.037109375, 0.093750000, 0.089843750, 0.142578125, 0.359375000, -0.021484375, -0.187500000, 0.283203125, 0.011718750, 0.189453125, 0.085937500, -0.054687500, -0.273437500, 0.156250000, 0.025390625, 0.009765625, 0.234375000, -0.041015625, 0.146484375, 0.478515625, -0.015625000, -0.019531250, 0.107421875, -0.060546875, 0.003906250, 0.115234375, -0.078125000, 0.283203125, 0.431640625, -0.109375000, -0.054687500, 0.314453125, 0.001953125, 0.048828125, 0.173828125, 0.048828125, 0.287109375, 0.058593750, 0.042968750, 0.101562500, 0.041015625, -0.435546875, 0.292968750, 0.123046875, 0.015625000, 0.029296875, 0.046875000, 0.164062500, 0.347656250, 0.009765625, -0.085937500, 0.521484375, 0.568359375, -0.113281250, -0.082031250, 0.021484375, -0.048828125, -0.527343750, 0.060546875, 0.343750000, -0.097656250, -0.240234375, 0.363281250, -0.035156250, -0.318359375, 0.830078125, 0.484375000, 0.031250000, -0.208984375, 0.302734375, -0.763671875, 0.125000000, 0.300781250, 0.482421875, 0.115234375, 0.289062500, -0.333984375, -0.171875000, 0.275390625, 0.300781250, 0.185546875, 0.451171875, 0.187500000, 0.533203125, 0.335937500, 0.339843750, 0.160156250, -0.263671875, 0.285156250, 0.136718750, -0.373046875, 0.095703125, 0.294921875, -0.810546875, -0.095703125, 0.298828125, -0.210937500, 0.103515625, -0.066406250, 0.271484375, 0.302734375, 0.357421875, 0.097656250, -0.462890625, 0.181640625, -0.427734375, -0.281250000, -0.351562500, 0.503906250, -0.705078125, -0.296875000, 0.462890625, 0.324218750, 0.298828125, -0.056640625, -0.199218750, -0.101562500, -0.001953125, 0.123046875, -3.253906250, -0.271484375, -1.468750000, -0.111328125, 0.753906250, 0.109375000, -0.833984375, 0.988281250, -0.136718750, 0.701171875, -0.005859375, -0.695312500, -0.082031250, -0.503906250, 0.919921875, -1.195312500, 0.064453125, -1.130859375, 0.781250000, -0.039062500, 0.777343750, 0.408203125, -0.273437500, 0.939453125, 0.761718750, 0.320312500, -0.089843750, 0.269531250, 0.707031250, 0.732421875, 0.601562500, -0.156250000, -0.539062500, -0.117187500, -2.437500000, 0.355468750, 0.230468750, -0.140625000, -0.769531250, 0.564453125, 0.146484375, -0.626953125, 0.177734375, -0.087890625, 0.287109375, 0.339843750, 0.884765625, 0.144531250, -3.451171875, 0.099609375, -2.033203125, -0.775390625, -1.625000000, 0.478515625, -3.658203125, -0.962890625, -0.005859375, 0.273437500, 0.488281250, 0.099609375, -0.042968750, 0.359375000, 0.083984375, 0.833984375, -3.144531250, -1.208984375, -0.998046875, 0.574218750, 1.085937500, -0.228515625, -1.066406250, -0.714843750, 0.222656250, 0.992187500, -0.199218750, -0.775390625, 0.187500000, -0.160156250, 1.769531250, -1.080078125, 0.017578125, -6.156250000, 0.906250000, 2.187500000, 1.027343750, 0.583984375, 0.564453125, 1.761718750, 1.380859375, -0.125000000, 0.222656250, 0.544921875, 0.656250000, 1.517578125, 0.603515625, 0.132812500, -0.371093750, -0.302734375, -6.111328125, -0.472656250, 0.335937500, -0.466796875, 0.320312500, 0.460937500, -0.041015625, -1.736328125, -0.513671875, -0.718750000, -1.347656250, 0.253906250, 1.583984375, 1.472656250, -2.214843750, -0.160156250, -0.613281250, -1.326171875, -1.099609375, 1.066406250, -0.410156250, -0.552734375, -1.166015625, 0.279296875, 1.445312500, 0.873046875, -0.255859375, 0.347656250, -0.164062500, 0.892578125, -3.453125000, -1.207031250, 0.060546875, 1.140625000, 1.792968750, -0.365234375, -1.058593750, 0.107421875, -0.871093750, 1.470703125, -0.541015625, -0.105468750, -1.300781250, -0.480468750, -0.498046875, 0.138671875, 0.466796875, -4.468750000, 0.039062500, 2.570312500, 2.484375000, -0.304687500, 0.060546875, 1.652343750, 0.531250000, -0.708984375, -0.296875000, 0.445312500, 1.509765625, 2.246093750, -1.496093750, 1.103515625, -0.095703125, -0.142578125, -5.601562500, 1.326171875, -0.226562500, -0.164062500, 0.609375000, 0.695312500, -1.902343750, 0.548828125, 0.281250000, 1.527343750, -4.431640625, 0.361328125, 1.417968750, 0.085937500, -4.111328125, -0.546875000, -0.283203125, -1.984375000, -0.617187500, 1.816406250, 0.232421875, -0.746093750, -2.611328125, 0.062500000, 1.080078125, 1.585937500, 0.560546875, 1.361328125, 0.513671875, 1.234375000, -2.599609375, -0.513671875, 0.292968750, -3.234375000, -1.109375000, 0.111328125, -0.908203125, -0.146484375, 0.326171875, 1.955078125, 1.029296875, -1.167968750, -2.289062500, 0.359375000, 1.095703125, 1.072265625, 0.671875000, -5.287109375, 0.933593750, 2.130859375, -1.330078125, -0.968750000, 0.722656250, 1.115234375, 1.943359375, -1.320312500, 0.328125000, -4.552734375, 0.914062500, 2.408203125, -0.503906250, 0.820312500, -2.003906250, 0.101562500, 0.810546875, -0.228515625, -0.884765625, 0.298828125, -0.042968750, 1.625000000, -0.367187500, 0.306640625, -3.150390625, -0.820312500, -0.324218750, 0.347656250, 1.341796875, -0.742187500, 0.414062500, 0.294921875, 1.648437500, -0.419921875, 1.564453125, 2.806640625, 1.412109375, -1.328125000, 0.830078125, 0.302734375, -1.044921875, 2.304687500, 1.060546875, 0.287109375, -0.292968750, 0.718750000, -0.068359375, -1.296875000, -0.371093750, -1.429687500, -0.361328125, 0.257812500, -0.480468750, 0.306640625, -0.648437500, 1.417968750, -0.287109375, -0.365234375, 0.273437500, -0.333984375, 1.474609375, -0.021484375, -1.005859375, -6.759765625, 1.539062500, -2.443359375, 1.494140625, -1.208984375, 1.212890625, 1.597656250, 1.451171875, -0.984375000, 0.316406250, -5.466796875, 1.273437500, 1.355468750, 0.173828125, -0.830078125, -1.740234375, 0.166015625, 0.835937500, 0.656250000, 0.248046875, -0.652343750, -0.210937500, 1.156250000, 0.111328125, -0.640625000, -1.683593750, 0.115234375, -0.115234375, 0.251953125, 0.968750000, -1.097656250, 0.433593750, -0.152343750, 0.597656250, -0.589843750, 0.582031250, 1.386718750, 0.953125000, -1.910156250, 0.183593750, 0.146484375, 0.160156250, 0.173828125, 0.113281250, -0.363281250, -0.244140625, 1.730468750, 0.107421875, -1.230468750, -0.359375000, 0.316406250, -0.150390625, -0.105468750, -0.722656250, -0.005859375, -0.041015625, 0.630859375, 1.044921875, -0.498046875, 0.007812500, -0.167968750, 0.873046875, -0.812500000, -0.818359375, -5.398437500, 0.425781250, 0.306640625, 0.925781250, -0.244140625, -0.013671875, 0.910156250, 0.753906250, -0.349609375, 0.654296875, -4.941406250, 0.058593750, 0.632812500, 0.734375000, -0.070312500, -0.853515625, 0.806640625, 0.101562500, -0.298828125, -0.039062500, -0.763671875, -0.851562500, 0.214843750, -0.027343750, -1.748046875, 1.117187500, 0.123046875, 0.585937500, 0.296875000, 0.406250000, -0.193359375, 0.259765625, -0.105468750, 0.539062500, -0.054687500, 0.552734375, 0.570312500, 0.705078125, -2.537109375, 0.240234375, 0.183593750, 0.492187500, -0.105468750, -0.117187500, -0.158203125, -0.179687500, 0.949218750, 0.130859375, -1.457031250, -0.351562500, 0.498046875, 0.263671875, 0.109375000, -0.031250000, 0.365234375, 0.343750000, -0.099609375, 0.447265625, 0.408203125, 0.083984375, -0.376953125, 0.333984375, -0.275390625, -0.275390625, 0.150390625, 0.152343750, 0.136718750, 0.445312500, -1.394531250, 0.781250000, 0.287109375, 0.054687500, 0.210937500, 0.390625000, -0.492187500, 0.933593750, 0.339843750, 0.382812500, -0.728515625, -0.503906250, 0.347656250, 0.146484375, -0.095703125, 0.287109375, -0.417968750, -0.693359375, -0.378906250, 0.175781250, -2.123046875, 0.310546875, 0.123046875, 0.154296875, 0.216796875, 0.193359375, -0.031250000, -0.425781250, -0.078125000, -0.070312500, 0.269531250, -0.533203125, 0.525390625, 0.089843750, -0.183593750, 0.199218750, 0.316406250, 0.218750000, 0.041015625, -0.191406250, 0.263671875, 0.003906250, 0.041015625, 0.087890625, -0.171875000, -0.066406250, 0.347656250, 0.138671875, -0.076171875, 0.175781250, 0.179687500, 0.351562500, 0.078125000, -0.064453125, 0.056640625, -0.324218750, 0.480468750, -0.023437500, 0.111328125, 0.136718750, 0.011718750, 0.052734375, 0.144531250, -0.003906250, 0.119140625, -0.023437500, 0.001953125, -0.005859375, 0.312500000, -0.128906250, 0.091796875, 0.601562500, -0.041015625, -0.494140625, 0.351562500, -0.208984375, -0.210937500, 0.072265625, -0.681640625, 0.201171875, 0.103515625, 0.195312500, -0.082031250, 0.312500000, -0.033203125, 0.072265625, 0.279296875, 0.107421875, 0.242187500, -0.017578125, -0.039062500, -0.390625000, 0.375000000, 0.246093750, 0.121093750, 0.074218750, 0.000000000, 0.193359375, 0.083984375, 0.013671875, 0.332031250, -0.046875000, -0.085937500, 0.013671875, 0.001953125, -0.175781250, -0.162109375, 0.066406250, 0.027343750, 0.005859375, 0.121093750, -0.064453125, 0.080078125, 0.013671875, 0.148437500, -0.169921875, 0.074218750, -0.779296875, 0.046875000, -0.187500000, 0.121093750, 0.017578125, 0.533203125, -0.113281250, -0.011718750, 0.142578125, 0.164062500, -0.042968750, 0.005859375, -0.025390625, 0.001953125, 0.062500000, -0.039062500, 0.222656250, 0.152343750, -0.154296875, -0.033203125, 0.138671875, 0.000000000, -0.134765625, -0.111328125, 0.093750000, 0.212890625, 0.406250000, -0.138671875, 0.162109375, 0.521484375, 0.363281250, 0.033203125, 0.111328125, 0.107421875, 0.238281250, 0.230468750, -0.007812500, -0.039062500, 0.050781250, 0.337890625, 0.281250000, 0.183593750, 0.205078125, -0.019531250, 0.164062500, -0.423828125, 0.009765625, 0.341796875, -0.150390625, 0.013671875, -0.003906250, -0.125000000, -0.181640625, 0.289062500, 0.019531250, 0.035156250, -0.154296875, 0.050781250, 0.476562500, -0.021484375, -0.265625000, 0.408203125, 0.001953125, 0.277343750, 0.302734375, 0.675781250, -0.427734375, 0.103515625, 0.472656250, -0.335937500, -0.349609375, 0.035156250, 0.201171875, 0.238281250, 0.189453125, -0.201171875, 0.441406250, 0.269531250, 0.236328125, 0.220703125, 0.177734375, 0.169921875, 0.060546875, 0.324218750, 0.294921875, -0.472656250, -0.285156250, 0.304687500, 0.232421875, 0.087890625, 0.148437500, -0.556640625, -0.560546875, 0.527343750, 0.474609375, -0.089843750, 0.595703125, -0.044921875, 0.357421875, 0.296875000, 0.240234375, 0.367187500, -0.751953125, -0.062500000, -0.361328125, 0.009765625, -0.060546875, 0.650390625, 0.019531250, -0.804687500, 0.033203125, 0.335937500, 0.841796875, 0.457031250, -0.134765625, 0.310546875, -0.181640625, -0.439453125, -6.738281250, -0.087890625, 0.349609375, 0.273437500, 0.869140625, 0.191406250, -0.380859375, 0.691406250, 0.832031250, 0.642578125, 0.019531250, -0.259765625, -0.740234375, -0.492187500, 1.171875000, -0.906250000, 0.298828125, -1.312500000, 0.873046875, -1.074218750, 0.667968750, 0.513671875, 0.015625000, 0.953125000, 0.539062500, -0.076171875, -0.902343750, 0.273437500, 0.689453125, 0.673828125, -0.544921875, 0.482421875, -0.386718750, 1.083984375, -4.570312500, 0.003906250, 0.253906250, -1.521484375, -0.396484375, 0.179687500, 0.423828125, -0.300781250, 0.357421875, -0.494140625, 0.572265625, 0.335937500, 0.640625000, 1.490234375, -2.246093750, 0.197265625, -1.208984375, -0.414062500, -0.337890625, 0.501953125, -0.443359375, -1.306640625, -0.029296875, 0.302734375, 0.501953125, 0.117187500, -0.001953125, 0.615234375, -0.697265625, 0.136718750, -3.167968750, -1.189453125, 0.119140625, 0.816406250, 1.392578125, -0.152343750, -1.636718750, -2.091796875, -0.529296875, 1.224609375, 0.509765625, -1.544921875, -0.871093750, -0.140625000, 1.892578125, -0.503906250, -0.048828125, -5.494140625, 0.949218750, 0.613281250, 1.380859375, -0.167968750, -0.121093750, 1.525390625, 0.816406250, -0.275390625, 0.970703125, 1.074218750, 1.187500000, 1.472656250, -1.574218750, 0.705078125, 0.257812500, -2.052734375, -5.517578125, -0.078125000, 0.097656250, -1.552734375, 0.169921875, 0.576171875, 0.320312500, 0.205078125, -1.246093750, 0.035156250, -1.837890625, 0.392578125, 1.333984375, 1.447265625, 0.250000000, -0.283203125, -1.451171875, -1.613281250, 0.271484375, 1.218750000, -0.371093750, -0.755859375, -1.310546875, 0.222656250, 0.515625000, 0.626953125, 0.283203125, 0.988281250, -0.353515625, 0.830078125, -3.660156250, -0.593750000, 0.357421875, 0.496093750, 2.445312500, 0.207031250, -0.656250000, 0.482421875, -1.082031250, 1.363281250, -0.181640625, -0.558593750, -2.226562500, -0.927734375, 0.140625000, -0.927734375, -0.667968750, -4.419921875, 1.171875000, 1.158203125, 2.435546875, 0.287109375, 1.187500000, 2.373046875, 1.261718750, -0.958984375, -0.478515625, 0.808593750, 1.150390625, 2.355468750, -1.556640625, 0.722656250, -1.357421875, -1.562500000, -4.679687500, 0.482421875, -0.548828125, 0.416015625, 0.828125000, 0.980468750, -1.896484375, -0.402343750, -1.150390625, 2.193359375, -2.716796875, 0.410156250, 2.406250000, -0.833984375, -0.539062500, 0.091796875, -0.917968750, -1.621093750, -0.451171875, 2.091796875, 1.720703125, -0.320312500, -2.892578125, 0.175781250, 0.046875000, 2.437500000, 0.283203125, 0.482421875, -0.726562500, 1.027343750, -1.687500000, -1.146484375, -0.757812500, -4.304687500, -0.568359375, 1.009765625, -0.519531250, 0.972656250, 5.519531250, 2.408203125, -1.613281250, 1.662109375, -0.246093750, -0.203125000, -0.132812500, 0.574218750, -0.265625000, -3.152343750, 1.595703125, -4.312500000, 3.089843750, 2.025390625, 0.734375000, 2.796875000, 2.324218750, -1.458984375, 0.847656250, -2.750000000, 0.820312500, 2.193359375, 1.529296875, -0.060546875, -1.382812500, 0.781250000, 1.910156250, -0.390625000, -2.234375000, 0.775390625, 0.267578125, 1.042968750, 0.109375000, 0.416015625, -1.468750000, -2.015625000, 0.472656250, 0.263671875, 1.130859375, 0.679687500, 0.697265625, 0.318359375, -0.074218750, -1.960937500, 1.039062500, 2.085937500, 2.029296875, -2.714843750, 1.300781250, -0.048828125, 2.160156250, -1.046875000, 2.230468750, -1.574218750, -1.962890625, 1.685546875, 0.212890625, -2.236328125, -1.023437500, -2.148437500, -0.154296875, 0.230468750, -0.199218750, -0.054687500, 1.117187500, 1.142578125, -0.505859375, -0.296875000, -1.408203125, 0.005859375, 1.609375000, -1.134765625, -1.347656250, -6.701171875, 0.960937500, 0.222656250, 1.791015625, 1.990234375, 0.759765625, 1.873046875, 1.714843750, -0.708984375, 0.343750000, -7.064453125, 1.796875000, 1.589843750, 0.236328125, -0.091796875, -1.535156250, 0.660156250, 0.863281250, 0.904296875, -0.828125000, 0.103515625, -1.029296875, 0.263671875, 0.085937500, -0.050781250, -2.117187500, -0.228515625, -1.832031250, 0.064453125, 0.855468750, -0.207031250, 0.349609375, -0.144531250, -0.462890625, -1.080078125, -0.005859375, 1.169921875, -2.375000000, -1.882812500, 0.455078125, 0.074218750, 0.210937500, 0.353515625, -0.039062500, -0.457031250, -0.552734375, 0.980468750, -0.023437500, -1.277343750, 0.232421875, -0.853515625, -0.337890625, -0.451171875, -0.359375000, -2.443359375, 2.105468750, 1.232421875, 0.376953125, -0.593750000, -0.234375000, -0.462890625, 0.994140625, -0.466796875, 0.142578125, -4.619140625, 1.246093750, -0.275390625, 1.105468750, 0.320312500, 0.535156250, 0.994140625, 1.035156250, 0.472656250, 0.939453125, -6.314453125, 0.730468750, 0.845703125, 0.277343750, -0.136718750, -1.029296875, 1.199218750, -0.039062500, -0.113281250, -0.105468750, 0.191406250, -0.830078125, 0.775390625, 0.048828125, -1.042968750, 1.708984375, 0.042968750, -0.382812500, 0.277343750, 0.371093750, -0.220703125, -0.416015625, -0.210937500, -1.146484375, 0.048828125, -0.308593750, 0.617187500, -1.349609375, -0.164062500, -0.132812500, 0.171875000, 0.832031250, 1.601562500, 0.287109375, 0.367187500, -3.021484375, 0.257812500, 0.292968750, -1.054687500, -0.335937500, -0.103515625, 0.496093750, 0.250000000, -0.335937500, 0.439453125, 1.250000000, 0.576171875, 0.046875000, -0.351562500, -0.597656250, -0.185546875, 0.484375000, -0.998046875, -0.339843750, 0.289062500, -0.003906250, 0.181640625, 0.417968750, -0.677734375, 0.234375000, 0.736328125, 0.589843750, 0.013671875, -0.308593750, -5.724609375, 0.320312500, 0.416015625, 0.400390625, 0.201171875, -0.767578125, 0.642578125, -0.021484375, -0.011718750, 0.234375000, -0.023437500, -0.505859375, 0.666015625, 0.103515625, -0.794921875, 0.992187500, -0.353515625, 0.207031250, 0.228515625, 0.244140625, -0.082031250, -0.166015625, 0.250000000, -1.636718750, 0.105468750, -0.802734375, 0.484375000, -1.681640625, -0.164062500, 0.017578125, 0.240234375, 0.332031250, 0.050781250, -0.019531250, 0.580078125, -1.417968750, -0.226562500, 0.037109375, -0.449218750, 0.462890625, 0.404296875, 0.345703125, 0.550781250, 0.363281250, 0.591796875, 0.496093750, 0.375000000, -0.150390625, -0.271484375, -0.318359375, -0.376953125, 0.269531250, -0.328125000, -0.195312500, 0.126953125, -0.095703125, 0.208984375, 0.498046875, 0.669921875, -0.199218750, 0.298828125, -0.056640625, -0.048828125, -0.683593750, 0.019531250, 0.601562500, 0.339843750, 0.513671875, 0.591796875, -0.591796875, 0.302734375, 0.158203125, 0.654296875, 0.484375000, 0.267578125, -0.947265625, -0.082031250, 0.412109375, -3.527343750, 0.458984375, 0.085937500, 0.072265625, 0.160156250, 0.058593750, 0.218750000, -0.402343750, 0.490234375, 0.160156250, 0.062500000, -0.544921875, 0.341796875, 0.251953125, -0.480468750, 0.283203125, 0.312500000, -0.031250000, -0.060546875, -0.384765625, 0.167968750, -0.537109375, 0.228515625, -0.025390625, 0.035156250, 0.386718750, 0.251953125, 0.392578125, 0.410156250, -0.341796875, 0.449218750, 0.070312500, 0.300781250, 0.140625000, -0.421875000, -0.320312500, 0.414062500, 0.406250000, -0.109375000, -0.539062500, 0.093750000, 0.058593750, 0.248046875, 0.148437500, 0.148437500, 0.501953125, 0.177734375, 0.244140625, 0.205078125, 0.146484375, 0.074218750, -0.095703125, 0.324218750, 0.455078125, -0.632812500, -0.212890625, 0.392578125, 0.228515625, 0.109375000, 0.232421875, -0.673828125, -1.082031250, 0.599609375, 0.462890625, -3.500000000, 0.058593750, 0.191406250, 0.431640625, 0.197265625, 0.138671875, -0.107421875, -0.021484375, 0.580078125, 0.179687500, 0.037109375, 0.078125000, 0.386718750, 0.416015625, -0.779296875, -0.525390625, 0.322265625, -0.095703125, -0.357421875, -0.246093750, -0.037109375, -0.501953125, 0.689453125, -0.623046875, -0.080078125, 0.195312500, 0.142578125, 0.765625000, 0.105468750, -0.455078125, 0.570312500, 0.990234375, 0.521484375, 0.289062500, -0.201171875, -0.662109375, 0.597656250, 0.664062500, -0.505859375, -1.144531250, 0.164062500, 0.621093750, 0.498046875, 0.697265625, 0.458984375, 0.117187500, 0.671875000, 0.212890625, -0.369140625, -2.097656250, 0.121093750, 0.927734375, 0.548828125, 0.503906250, -0.898437500, 0.246093750, 0.601562500, -0.824218750, 0.238281250, 0.185546875, -0.380859375, -0.429687500, -0.386718750, 0.509765625, -1.462890625, 0.550781250, 0.175781250, -0.226562500, 0.236328125, 0.361328125, 0.691406250, -0.564453125, 0.382812500, -0.644531250, -0.109375000, -0.126953125, 0.089843750, 0.312500000, -0.812500000, 0.164062500, 0.269531250, 0.939453125, 0.064453125, 0.041015625, 0.349609375, -3.324218750, 0.052734375, -3.673828125, -0.203125000, 0.910156250, 0.447265625, 1.414062500, -0.134765625, -1.105468750, -0.259765625, 1.343750000, 0.875000000, 0.478515625, 0.628906250, -0.632812500, 0.458984375, 1.470703125, -0.548828125, 0.621093750, -1.792968750, 0.921875000, 0.621093750, 0.458984375, -0.257812500, 0.121093750, 1.132812500, 0.621093750, -0.142578125, -0.408203125, 0.488281250, 0.750000000, 0.861328125, 1.496093750, -0.154296875, -0.205078125, -0.361328125, -4.687500000, 0.023437500, 0.039062500, -1.054687500, -0.562500000, 0.050781250, -1.107421875, -1.044921875, 1.330078125, 0.255859375, -0.234375000, 0.443359375, 0.890625000, 1.091796875, -0.277343750, -0.251953125, -1.162109375, -0.267578125, -0.796875000, 0.423828125, -1.865234375, -0.910156250, -0.814453125, 0.150390625, 0.759765625, 0.138671875, 0.410156250, 1.732421875, -2.625000000, 0.599609375, -4.546875000, -1.439453125, 0.265625000, 0.193359375, 1.496093750, -0.146484375, -0.876953125, -1.119140625, -0.851562500, 1.480468750, 1.074218750, 0.375000000, -1.257812500, 0.691406250, 2.322265625, 0.111328125, -0.029296875, -3.751953125, 1.814453125, -2.355468750, 1.355468750, -0.230468750, 0.205078125, 1.597656250, 0.806640625, -0.277343750, 1.238281250, 0.439453125, 1.078125000, 1.421875000, -0.046875000, 1.660156250, 0.361328125, -2.625000000, -3.462890625, 0.056640625, 0.400390625, -2.271484375, -0.105468750, 0.796875000, 0.439453125, -0.007812500, -1.220703125, 1.578125000, -0.824218750, 0.244140625, 1.455078125, 0.562500000, -0.396484375, -0.189453125, -2.583984375, -0.441406250, 0.761718750, 1.039062500, -0.847656250, -1.296875000, -1.267578125, 0.078125000, 0.562500000, 0.429687500, 0.150390625, 0.931640625, -2.761718750, 1.572265625, -3.109375000, -0.130859375, -1.394531250, 0.621093750, 2.076171875, -0.076171875, -1.593750000, -1.181640625, -1.300781250, 1.587890625, 0.699218750, 1.583984375, -2.265625000, 0.322265625, 0.455078125, -2.013671875, -0.439453125, -3.148437500, 1.375000000, 1.005859375, 2.439453125, -0.912109375, 0.304687500, 3.082031250, 2.892578125, -0.900390625, 1.353515625, 0.777343750, 0.978515625, 2.169921875, -1.691406250, 2.269531250, 0.597656250, -0.529296875, -5.251953125, 1.808593750, -0.691406250, 0.609375000, 2.291015625, 1.492187500, -1.904296875, 0.462890625, -2.296875000, 1.289062500, -3.388671875, 0.302734375, 2.417968750, -1.292968750, -4.394531250, -0.023437500, 0.273437500, -0.980468750, -0.285156250, 1.791015625, 0.824218750, -1.650390625, -1.332031250, 0.294921875, -0.191406250, 1.427734375, 0.253906250, 0.908203125, -4.281250000, 2.462890625, -0.478515625, -0.818359375, -5.455078125, -3.263671875, 1.300781250, 1.210937500, -0.621093750, -0.257812500, 2.335937500, 2.826171875, -0.218750000, 1.685546875, -0.244140625, 0.876953125, 1.894531250, -0.150390625, -0.181640625, -3.853515625, 0.457031250, 1.626953125, 1.914062500, 1.867187500, 0.923828125, 3.175781250, 1.033203125, -0.824218750, 1.605468750, -2.333984375, 1.552734375, 2.994140625, 3.083984375, 0.757812500, -1.486328125, 3.347656250, 0.734375000, 0.617187500, -1.486328125, -0.265625000, -1.892578125, 1.275390625, 0.351562500, 0.607421875, -0.884765625, -2.246093750, -4.925781250, -0.439453125, 2.433593750, 0.236328125, 0.166015625, 1.058593750, -0.492187500, -0.751953125, 0.369140625, 2.769531250, -0.201171875, -0.716796875, 1.900390625, -0.015625000, 2.042968750, 0.800781250, 0.992187500, -1.992187500, -5.841796875, 0.705078125, -0.199218750, -1.400390625, -1.181640625, -4.031250000, -1.369140625, 0.781250000, -0.003906250, -2.154296875, -1.738281250, 2.152343750, 1.091796875, 0.011718750, -0.767578125, 0.601562500, -0.550781250, -1.175781250, -0.855468750, -3.937500000, 0.388671875, 2.687500000, 1.814453125, 2.302734375, 0.613281250, 1.699218750, 1.855468750, -0.595703125, 1.128906250, -4.292968750, 1.019531250, 2.130859375, -0.994140625, 0.015625000, -1.054687500, 2.390625000, -0.195312500, 1.095703125, -1.511718750, -1.152343750, -0.470703125, 0.220703125, -0.087890625, -0.185546875, -2.527343750, 0.470703125, -0.289062500, 0.035156250, 0.882812500, 1.972656250, 0.154296875, 0.535156250, -0.972656250, 0.416015625, 0.419921875, 1.652343750, -0.384765625, 0.791015625, -0.093750000, 0.212890625, 1.445312500, 0.990234375, -1.046875000, -1.158203125, -5.167968750, -2.552734375, -0.207031250, -0.992187500, -0.457031250, -1.644531250, 0.466796875, 0.392578125, -0.109375000, -3.300781250, 1.582031250, 1.441406250, 0.519531250, -0.472656250, -1.595703125, -0.025390625, 0.263671875, -2.074218750, -0.519531250, -3.246093750, 1.037109375, 1.199218750, 1.849609375, 0.250000000, 0.455078125, 1.712890625, 1.298828125, 0.193359375, 0.054687500, -4.255859375, 1.093750000, 1.326171875, 0.597656250, -0.093750000, -1.738281250, 1.679687500, 0.535156250, 0.242187500, -0.121093750, -0.525390625, -0.652343750, 1.240234375, 0.207031250, -2.353515625, 0.306640625, -0.964843750, 0.134765625, 0.123046875, 0.601562500, 1.244140625, -0.216796875, 0.613281250, -0.443359375, -0.580078125, 0.623046875, 1.181640625, -1.296875000, -0.384765625, 0.294921875, 0.066406250, 0.865234375, -0.156250000, -0.203125000, 0.261718750, -3.757812500, 0.257812500, 0.539062500, -1.220703125, 0.789062500, -1.775390625, 1.060546875, -0.373046875, -0.017578125, 0.851562500, 0.929687500, 1.091796875, 0.654296875, -0.259765625, -0.687500000, -0.167968750, 1.029296875, -0.298828125, -0.556640625, -1.947265625, 0.789062500, -0.380859375, 1.091796875, 0.878906250, 0.324218750, 1.294921875, 1.050781250, -0.433593750, 0.384765625, -7.712890625, 0.408203125, 0.888671875, 0.525390625, -0.183593750, -1.244140625, 1.214843750, 0.128906250, 0.275390625, 0.042968750, -0.423828125, -0.855468750, 1.326171875, 0.146484375, -1.423828125, 1.814453125, 0.353515625, 0.291015625, 0.177734375, 0.460937500, -0.585937500, -0.152343750, 0.083984375, 0.306640625, 0.193359375, 0.470703125, 0.570312500, -1.265625000, -0.185546875, -0.078125000, 0.259765625, 0.818359375, 0.160156250, 0.527343750, 0.267578125, -4.453125000, 0.912109375, -0.171875000, -1.046875000, -0.017578125, -0.085937500, 0.769531250, 0.349609375, 0.099609375, 1.490234375, 0.191406250, 0.894531250, 0.126953125, -0.380859375, -0.324218750, -0.156250000, 0.851562500, 0.089843750, 0.123046875, -4.785156250, 0.185546875, 0.638671875, 0.947265625, -0.425781250, -0.111328125, 0.898437500, 0.171875000, -0.572265625, 1.427734375, -0.029296875, 0.353515625, 0.652343750, 1.367187500, 0.687500000, 0.681640625, 0.837890625, 0.480468750, 0.041015625, 0.259765625, -0.521484375, -0.541015625, -0.421875000, 0.111328125, -3.691406250, 1.521484375, -0.177734375, 0.333984375, 0.177734375, 0.455078125, 1.017578125, 0.384765625, -0.050781250, -0.572265625, 0.001953125, 0.269531250, 0.429687500, -0.812500000, -0.419921875, 0.515625000, 0.242187500, 1.263671875, 0.427734375, 0.087890625, -0.054687500, -4.662109375, -0.402343750, -0.205078125, 0.253906250, -0.091796875, 0.195312500, 0.943359375, -0.113281250, -0.048828125, 2.152343750, 1.382812500, 0.685546875, 0.728515625, -0.800781250, -0.923828125, 0.349609375, 1.251953125, -0.574218750, -0.203125000, -2.667968750, 0.136718750, -1.130859375, 0.492187500, -0.541015625, 0.023437500, 0.878906250, 0.482421875, -0.787109375, 0.583984375, 0.185546875, 0.187500000, 0.650390625, 0.810546875, 0.222656250, 0.273437500, 1.005859375, 0.169921875, -0.183593750, 0.087890625, -1.076171875, -0.373046875, -0.341796875, -0.044921875, -1.996093750, 0.855468750, -0.597656250, -0.580078125, 0.160156250, 0.585937500, 0.884765625, 0.052734375, -0.517578125, -1.093750000, -0.140625000, -0.464843750, 0.517578125, 0.179687500, -0.583984375, -0.240234375, 0.250000000, 0.996093750, -0.287109375, 0.662109375, -0.623046875, -4.816406250, -0.326171875, -2.857421875, -0.714843750, 0.572265625, 0.246093750, 1.339843750, 0.232421875, -0.474609375, 0.220703125, 0.955078125, 0.976562500, 0.576171875, -0.423828125, -0.722656250, 1.072265625, 1.525390625, -0.300781250, -0.246093750, -2.968750000, 0.734375000, 0.337890625, 0.625000000, -0.246093750, 0.183593750, 1.101562500, 0.601562500, -0.212890625, 0.234375000, 0.080078125, 1.369140625, 0.878906250, 1.056640625, -2.001953125, 0.242187500, 0.880859375, -0.349609375, 0.242187500, 0.349609375, -1.199218750, -0.951171875, -0.255859375, -0.515625000, -1.720703125, 0.367187500, 0.146484375, -4.367187500, 0.195312500, 0.750000000, 1.072265625, 1.445312500, 0.574218750, -1.378906250, -0.468750000, -0.015625000, 0.605468750, 0.529296875, -1.414062500, -0.777343750, 0.187500000, 0.402343750, -0.201171875, 0.304687500, 0.445312500, -6.855468750, 0.607421875, -3.730468750, -0.623046875, -0.107421875, 0.238281250, 1.480468750, -0.154296875, -0.085937500, -0.089843750, -0.337890625, 1.226562500, 0.607421875, 1.216796875, -1.402343750, 0.718750000, 2.144531250, -1.683593750, -0.583984375, -4.646484375, 1.052734375, -0.333984375, 1.275390625, -0.080078125, 0.000000000, 1.701171875, 0.636718750, -0.234375000, -0.343750000, -0.025390625, 0.615234375, 1.445312500, 1.693359375, 0.335937500, 0.503906250, 0.386718750, -3.962890625, 0.091796875, -0.126953125, -0.941406250, -0.462890625, 0.560546875, -0.166015625, -1.367187500, 1.628906250, 0.527343750, -4.613281250, 0.134765625, 0.896484375, -0.660156250, -0.015625000, -0.117187500, -1.015625000, -0.705078125, 0.511718750, 1.001953125, 0.371093750, -0.484375000, -2.357421875, 0.158203125, 0.251953125, 0.082031250, 0.367187500, 0.591796875, -6.197265625, 0.800781250, -2.480468750, -1.080078125, -0.419921875, 0.320312500, 2.431640625, 0.003906250, 0.046875000, -0.009765625, 1.255859375, 1.701171875, -0.263671875, 1.722656250, -2.408203125, -0.919921875, 2.220703125, -1.156250000, -0.730468750, -3.441406250, 1.640625000, 1.037109375, 1.583984375, -1.166015625, 0.716796875, 2.248046875, 0.000000000, -1.552734375, 1.009765625, 1.519531250, 0.027343750, 2.427734375, 2.562500000, 1.724609375, 1.021484375, -1.429687500, -3.710937500, 0.515625000, 0.427734375, 0.500000000, 0.462890625, 1.603515625, -1.232421875, 0.318359375, 1.050781250, 0.234375000, -8.744140625, 0.029296875, 1.558593750, -2.162109375, -0.666015625, -0.500000000, -1.894531250, -1.173828125, -1.039062500, 1.908203125, 0.441406250, -1.644531250, -1.037109375, 0.080078125, 0.310546875, 0.712890625, 0.923828125, 0.712890625, -2.558593750, 1.845703125, -4.462890625, -0.445312500, 1.589843750, 0.855468750, 1.707031250, -0.183593750, -1.906250000, 0.238281250, 0.537109375, 1.617187500, -1.609375000, -4.312500000, -3.537109375, -0.519531250, -0.818359375, -0.419921875, -1.347656250, -3.488281250, 0.283203125, 1.246093750, 0.998046875, -1.257812500, 0.783203125, -0.035156250, -2.177734375, -3.339843750, -2.017578125, 0.480468750, 2.201171875, 2.210937500, 1.031250000, 1.777343750, 1.431640625, 1.101562500, -4.037109375, -1.345703125, -0.199218750, 0.625000000, -0.625000000, 1.617187500, -1.097656250, -1.121093750, -1.488281250, -0.406250000, -2.810546875, -0.103515625, 1.296875000, -0.388671875, 0.929687500, -0.990234375, -0.695312500, -0.943359375, -0.298828125, 2.347656250, 1.349609375, 0.162109375, 1.771484375, -0.791015625, -0.234375000, 1.759765625, 0.615234375, -0.916015625, -3.773437500, 1.226562500, -0.437500000, 0.210937500, -1.849609375, -1.806640625, -2.021484375, 1.814453125, -2.453125000, 1.960937500, 1.482421875, -0.703125000, 1.242187500, 0.378906250, 0.505859375, -0.357421875, -0.355468750, 0.078125000, 0.033203125, -0.103515625, -0.964843750, 0.267578125, -1.300781250, 1.326171875, 2.279296875, 1.494140625, -1.431640625, -1.640625000, 0.787109375, 0.210937500, 2.226562500, 0.519531250, 1.275390625, 1.455078125, -0.978515625, -1.199218750, -0.320312500, 1.738281250, -0.431640625, -0.769531250, 0.236328125, 2.185546875, -1.810546875, 0.097656250, 2.144531250, 2.406250000, -0.128906250, -2.310546875, -1.005859375, 2.402343750, -0.121093750, 2.136718750, 0.277343750, -1.343750000, 0.244140625, -1.292968750, 1.181640625, 0.072265625, -1.703125000, -0.177734375, -0.951171875, 1.257812500, 0.947265625, 1.472656250, -0.687500000, 1.316406250, -0.402343750, -0.132812500, -1.007812500, -2.160156250, -1.033203125, 1.083984375, -0.447265625, -0.886718750, 4.833984375, 1.917968750, -0.207031250, -0.046875000, 0.488281250, 0.398437500, -0.914062500, -1.660156250, -0.191406250, -3.246093750, 1.990234375, 2.148437500, 3.191406250, -0.814453125, 0.550781250, 1.339843750, -2.558593750, -1.542968750, 0.302734375, -2.458984375, 1.378906250, 2.703125000, -0.527343750, 1.062500000, 0.292968750, 3.302734375, 0.609375000, -0.708984375, -1.830078125, 0.468750000, -1.250000000, 0.804687500, 0.490234375, -0.560546875, -0.417968750, -0.910156250, -1.304687500, 0.201171875, 1.025390625, -0.023437500, 1.250000000, 0.472656250, 0.753906250, -1.636718750, 0.984375000, 1.705078125, 1.964843750, -1.712890625, 0.220703125, -0.109375000, 1.179687500, 1.443359375, 2.158203125, -0.201171875, -1.250000000, 0.199218750, -0.960937500, -0.904296875, 0.136718750, -3.027343750, 0.255859375, 0.976562500, -0.357421875, 0.394531250, 2.000000000, 2.216796875, 0.494140625, 1.013671875, -0.031250000, -0.105468750, -1.630859375, -1.435546875, -0.818359375, -1.953125000, 1.664062500, -2.025390625, 2.400390625, -1.408203125, 0.990234375, 1.642578125, 0.599609375, -1.191406250, -0.164062500, -2.527343750, 1.484375000, 1.919921875, -0.593750000, -0.433593750, -0.859375000, 1.001953125, 1.701171875, 0.226562500, 0.595703125, -0.058593750, -2.070312500, -0.175781250, -2.376953125, -0.992187500, -4.175781250, -0.550781250, -5.140625000, 0.363281250, 1.056640625, 1.710937500, -0.248046875, 0.562500000, -1.101562500, -0.347656250, 0.574218750, 1.337890625, 1.259765625, -0.843750000, 1.212890625, 0.306640625, 1.376953125, 2.445312500, -0.283203125, -0.152343750, -8.138671875, 0.212890625, 0.033203125, -1.402343750, 0.404296875, -4.181640625, 1.154296875, 0.349609375, 0.302734375, 0.548828125, -0.080078125, 1.720703125, 1.193359375, 1.525390625, -1.376953125, -1.185546875, -2.091796875, -0.966796875, -1.222656250, 0.544921875, 0.837890625, -2.513671875, 1.548828125, -1.716796875, 0.972656250, 1.623046875, 1.992187500, -0.578125000, 0.033203125, -5.277343750, 1.080078125, 1.455078125, -1.664062500, 0.562500000, 0.046875000, 2.017578125, 1.523437500, 0.283203125, -0.013671875, 0.269531250, -0.798828125, 1.556640625, 0.330078125, -1.931640625, 0.826171875, 0.187500000, -1.808593750, 0.074218750, 0.771484375, -0.343750000, -0.419921875, 0.572265625, -0.808593750, -0.462890625, -0.128906250, 1.263671875, 0.656250000, -0.207031250, 0.357421875, 0.062500000, 0.687500000, -1.896484375, 0.085937500, 0.425781250, -3.244140625, -0.175781250, -0.275390625, -1.337890625, -0.027343750, -0.427734375, 1.582031250, 0.490234375, 0.529296875, 1.429687500, -0.996093750, 1.492187500, 0.888671875, 2.414062500, -1.087890625, -0.220703125, 0.031250000, -0.437500000, 0.359375000, -1.066406250, 0.683593750, 1.347656250, 1.730468750, 0.765625000, 0.304687500, 1.574218750, 0.966796875, -0.968750000, 0.679687500, -4.339843750, 0.503906250, 1.300781250, 1.626953125, 0.445312500, 0.150390625, 1.910156250, 0.224609375, -0.244140625, 0.050781250, 0.392578125, -0.357421875, 0.429687500, 0.177734375, -1.294921875, 2.486328125, 0.412109375, -0.652343750, 0.093750000, 0.716796875, -0.248046875, 0.421875000, 0.193359375, -0.140625000, -0.402343750, 0.183593750, 1.099609375, 0.376953125, -0.261718750, 0.142578125, 0.263671875, 0.679687500, -0.310546875, -0.513671875, 0.384765625, -5.068359375, -0.021484375, -0.205078125, 0.039062500, -0.269531250, 0.048828125, 1.402343750, 0.140625000, 0.529296875, 1.132812500, -0.802734375, 1.447265625, 0.742187500, 1.353515625, -1.691406250, -0.066406250, 1.947265625, -1.587890625, 0.951171875, -6.166015625, 0.765625000, -1.214843750, 1.255859375, -0.197265625, -0.695312500, 1.753906250, 1.386718750, -1.263671875, 1.128906250, -2.527343750, 0.427734375, 1.375000000, 0.705078125, 0.703125000, 0.203125000, 1.906250000, 0.431640625, -0.453125000, 0.289062500, -0.173828125, -0.894531250, 0.507812500, -1.587890625, -0.683593750, 1.894531250, 0.386718750, -3.162109375, 0.248046875, 0.968750000, 1.666015625, 0.277343750, 0.394531250, -0.105468750, -0.646484375, -0.404296875, 0.886718750, -0.103515625, 0.117187500, 0.648437500, 0.123046875, 0.332031250, -0.501953125, 0.253906250, 0.117187500, -3.779296875, 0.183593750, -0.880859375, -0.951171875, 0.158203125, -0.093750000, 1.300781250, -0.048828125, 0.015625000, 0.361328125, 0.441406250, 0.785156250, -0.039062500, 1.529296875, -2.531250000, -0.873046875, 2.095703125, -0.279296875, -0.017578125, -5.115234375, 0.357421875, -0.248046875, 1.556640625, -0.330078125, -0.541015625, 1.857421875, 1.105468750, -1.689453125, 0.679687500, -0.167968750, 0.667968750, 1.554687500, 1.605468750, 1.210937500, -0.068359375, 1.912109375, 0.955078125, -0.240234375, 0.171875000, -0.173828125, -0.683593750, -0.378906250, -1.228515625, -0.929687500, 0.873046875, 0.509765625, -1.123046875, 0.017578125, 0.994140625, 0.933593750, 0.841796875, 0.279296875, -1.234375000, -0.972656250, 0.943359375, 1.232421875, 0.343750000, -0.951171875, -2.378906250, 0.232421875, 0.455078125, 0.689453125, -1.273437500, 0.441406250, -6.333984375, 0.296875000, -4.199218750, -0.498046875, -0.808593750, -0.507812500, 2.000000000, -0.019531250, 0.667968750, 1.101562500, 1.873046875, 1.828125000, -0.279296875, 1.009765625, -2.843750000, -0.220703125, 2.021484375, -1.332031250, -1.214843750, -3.642578125, 0.699218750, -1.544921875, 1.843750000, 0.320312500, -0.289062500, 2.070312500, 1.121093750, -0.496093750, 1.671875000, 0.941406250, 1.859375000, 1.853515625, 1.267578125, 1.972656250, -0.263671875, 0.570312500, -2.316406250, -0.621093750, 0.490234375, 0.212890625, -1.402343750, 0.054687500, -1.953125000, -0.302734375, -0.570312500, 1.435546875, -5.558593750, 0.205078125, 2.222656250, -1.216796875, 1.613281250, 0.326171875, -1.234375000, -1.029296875, -0.396484375, 0.994140625, 0.753906250, -1.134765625, -4.441406250, 0.255859375, -0.138671875, 0.191406250, 0.267578125, 0.714843750, -5.273437500, 1.160156250, -1.359375000, -1.150390625, -0.675781250, 1.244140625, 2.296875000, -0.414062500, -1.865234375, 1.181640625, 0.603515625, 1.259765625, 1.486328125, 0.359375000, -1.714843750, -1.208984375, 2.052734375, 0.738281250, -0.964843750, -0.580078125, 0.097656250, 2.490234375, 2.105468750, 0.882812500, 0.591796875, 2.728515625, -0.267578125, -1.738281250, -1.039062500, 0.632812500, 0.728515625, 3.300781250, 3.074218750, 1.777343750, -0.060546875, 0.269531250, -2.994140625, -1.943359375, 0.349609375, 0.568359375, -1.000000000, 1.548828125, -1.855468750, -1.390625000, -2.837890625, 3.005859375, -4.242187500, 0.339843750, 3.929687500, -1.242187500, -0.279296875, -0.662109375, -0.615234375, -0.787109375, -0.474609375, 0.318359375, 1.648437500, 0.759765625, -4.160156250, 0.130859375, -1.402343750, 0.781250000, 0.220703125, 0.441406250, -3.958984375, 0.722656250, -3.130859375, -0.082031250, 0.224609375, -0.503906250, 2.291015625, -0.914062500, 0.101562500, -0.232421875, -1.460937500, 0.488281250, -2.769531250, 1.443359375, -0.410156250, -0.027343750, -1.626953125, -2.314453125, -0.117187500, 0.027343750, -0.582031250, -1.119140625, -2.242187500, -0.080078125, 0.984375000, -0.011718750, -3.740234375, -1.412109375, 2.593750000, 0.232421875, 2.859375000, -1.996093750, 1.751953125, 0.753906250, 0.062500000, 2.767578125, 0.044921875, -1.628906250, -0.236328125, 0.103515625, -1.986328125, 1.531250000, -2.400390625, 0.021484375, -2.156250000, 1.828125000, -2.619140625, 1.654296875, -1.742187500, -1.968750000, 1.291015625, -1.054687500, -2.335937500, 0.833984375, -1.882812500, 0.589843750, 2.080078125, -0.226562500, -0.529296875, 0.287109375, 0.419921875, 2.851562500, 0.337890625, -0.169921875, -1.457031250, 3.503906250, -0.023437500, -0.289062500, 0.072265625, -0.130859375, -0.042968750, -0.224609375, 0.130859375, -0.091796875, 0.265625000, 0.058593750, 0.054687500, -0.035156250, 0.080078125, -0.191406250, 0.001953125, -0.113281250, -0.072265625, -0.042968750, -0.050781250, -0.156250000, -0.117187500, -0.138671875, -0.214843750, 0.156250000, -0.083984375, -0.011718750, 0.062500000, -0.005859375, 0.164062500, 0.162109375, 0.146484375, 0.148437500, 0.027343750, 0.000000000, -0.078125000, -0.197265625, 0.240234375, 0.037109375, 0.042968750, -0.275390625, 0.021484375, -0.173828125, -0.089843750, -0.167968750, 0.199218750, 0.142578125, -0.126953125, 0.166015625, 0.015625000, -0.275390625, 0.150390625, -0.105468750, -0.128906250, 0.046875000, -0.162109375, -0.250000000, 0.064453125, 0.132812500, 0.042968750, -0.187500000, 0.095703125, 0.046875000, 0.199218750, -0.185546875, -0.232421875, -0.082031250, -2.171875000, -1.076171875, -1.289062500, 0.064453125, 1.048828125, -0.371093750, 0.712890625, -0.189453125, -0.582031250, -0.183593750, 0.439453125, 2.095703125, -1.115234375, -0.964843750, 1.771484375, 0.191406250, 2.005859375, -2.029296875, 1.238281250, 0.759765625, -1.699218750, 0.107421875, -0.298828125, 1.990234375, -0.472656250, -0.228515625, -1.171875000, 2.115234375, 1.232421875, -1.369140625, 1.535156250, -0.443359375, 1.902343750, 0.833984375, 0.179687500, -1.605468750, -0.570312500, 0.957031250, 1.664062500, 1.587890625, 0.009765625, 2.324218750, -0.792968750, -2.363281250, 1.281250000, -1.623046875, 1.771484375, 1.654296875, -1.976562500, 1.941406250, 0.845703125, 1.021484375, -1.654296875, 0.802734375, -0.277343750, -0.304687500, 1.595703125, -1.119140625, -1.966796875, 0.867187500, -0.748046875, 1.458984375, 0.144531250, -1.380859375, -1.939453125, -2.191406250, -1.039062500, 0.673828125, -0.056640625, -1.347656250, 1.623046875, 2.892578125, 0.042968750, -2.853515625, -2.609375000, 0.341796875, -1.949218750, -3.951171875, -0.628906250, -4.628906250, 0.757812500, 0.498046875, 1.865234375, 1.792968750, 1.136718750, 2.294921875, 4.097656250, -1.675781250, -0.044921875, -2.214843750, 1.333984375, 2.949218750, -2.037109375, 1.625000000, -0.033203125, 2.996093750, -0.345703125, -0.158203125, -1.064453125, 2.142578125, -1.470703125, 2.113281250, -1.404296875, 0.300781250, -1.232421875, 0.316406250, -0.976562500, -0.060546875, 0.771484375, -1.195312500, 0.908203125, -0.091796875, 0.824218750, -1.441406250, 0.632812500, 0.931640625, 0.076171875, 1.335937500, 2.273437500, -0.146484375, -1.207031250, 1.544921875, -0.187500000, 1.054687500, -5.490234375, 1.156250000, -0.316406250, -0.724609375, 0.017578125, -4.517578125, 0.509765625, 0.908203125, 0.556640625, -1.865234375, 2.048828125, -0.976562500, 1.894531250, 1.591796875, -2.330078125, -0.181640625, -2.294921875, -3.486328125, -0.630859375, 0.994140625, 1.019531250, -0.832031250, 3.017578125, -2.201171875, 0.753906250, 2.025390625, 2.322265625, -2.013671875, -0.033203125, -2.824218750, 1.316406250, 2.658203125, -3.269531250, 0.324218750, 0.650390625, 2.962890625, 0.990234375, -1.509765625, -0.378906250, 0.660156250, -1.980468750, 0.996093750, 0.167968750, -1.000000000, -1.394531250, 1.777343750, -2.816406250, 0.128906250, 1.404296875, -0.244140625, 0.818359375, 0.458984375, 1.130859375, -1.150390625, 0.156250000, 1.183593750, -0.439453125, 0.437500000, 1.564453125, 0.111328125, 1.330078125, 2.150390625, 0.699218750, -0.544921875, -3.339843750, 1.386718750, -0.326171875, -0.794921875, 0.369140625, -3.302734375, 0.662109375, 0.757812500, -0.039062500, 0.455078125, 3.964843750, 2.353515625, 0.083984375, 1.041015625, -1.955078125, -0.798828125, 1.984375000, -0.800781250, -0.208984375, -3.558593750, 0.373046875, 1.488281250, 2.058593750, -0.138671875, 0.689453125, 2.085937500, 2.259765625, -1.556640625, -0.490234375, -1.482421875, 1.689453125, 2.529296875, -2.326171875, 1.042968750, 1.082031250, 1.943359375, 1.230468750, -1.453125000, -0.697265625, -0.339843750, -2.371093750, 0.845703125, -2.166015625, -0.595703125, 1.429687500, 1.675781250, -3.285156250, -0.173828125, 1.210937500, -0.447265625, 2.103515625, 0.748046875, -0.498046875, -0.738281250, 1.218750000, 1.421875000, 0.287109375, -1.044921875, -1.738281250, 0.134765625, 1.839843750, 1.617187500, -0.320312500, -0.792968750, -2.460937500, 0.863281250, -0.367187500, -1.417968750, 1.111328125, -1.765625000, 0.888671875, 0.363281250, 0.869140625, -0.064453125, -0.814453125, 1.673828125, -0.732421875, 1.746093750, -4.826171875, 1.291015625, -0.302734375, -0.861328125, 0.285156250, -4.416015625, 0.291015625, 0.044921875, 2.076171875, 0.500000000, 0.285156250, 2.238281250, 1.919921875, -1.531250000, 1.210937500, -1.267578125, 0.935546875, 1.945312500, -2.150390625, 1.107421875, -0.191406250, 2.929687500, 1.291015625, -0.634765625, -1.392578125, -0.076171875, -1.810546875, 0.187500000, -2.044921875, -1.642578125, 1.455078125, 4.013671875, -4.248046875, 0.419921875, 1.771484375, 1.529296875, 0.740234375, 0.865234375, 0.468750000, -0.806640625, 0.656250000, 2.039062500, 0.492187500, 0.505859375, -0.828125000, 0.154296875, 0.755859375, 0.609375000, -0.255859375, -0.785156250, -5.011718750, 1.894531250, -0.818359375, -1.167968750, -1.601562500, 0.359375000, 0.767578125, 0.787109375, 0.792968750, -1.679687500, 3.914062500, 1.484375000, -0.074218750, 1.623046875, -1.824218750, 1.716796875, -0.757812500, -2.365234375, -0.160156250, -3.042968750, 1.673828125, 0.746093750, 2.585937500, -1.275390625, 1.091796875, 2.494140625, 2.189453125, -1.085937500, 1.750000000, 0.289062500, 1.169921875, 2.359375000, 2.023437500, 1.681640625, -0.041015625, 1.093750000, 0.849609375, -0.587890625, -1.085937500, 1.042968750, -1.648437500, 1.083984375, -1.095703125, 0.576171875, -1.205078125, -0.753906250, -4.748046875, 0.115234375, 1.851562500, -0.617187500, 1.357421875, 0.923828125, 0.824218750, -1.292968750, -0.062500000, 2.361328125, 0.074218750, -0.007812500, -3.636718750, 0.085937500, -0.222656250, 1.000000000, 0.261718750, -0.982421875, -2.552734375, 1.750000000, -4.132812500, -0.746093750, -3.101562500, -1.703125000, 1.119140625, 0.675781250, -0.677734375, -0.251953125, 0.255859375, 2.158203125, -2.068359375, 1.699218750, -4.894531250, -0.515625000, -0.769531250, -0.750000000, -0.556640625, -1.093750000, 0.035156250, 0.191406250, 2.013671875, 0.125000000, 0.890625000, 2.556640625, 1.755859375, -0.812500000, 1.166015625, 0.371093750, 1.103515625, 2.798828125, 1.833984375, 0.986328125, 0.623046875, -2.267578125, 1.822265625, -0.460937500, -0.734375000, -0.173828125, -1.958984375, 0.750000000, -2.621093750, 0.906250000, -4.781250000, 2.533203125, -4.394531250, 0.277343750, 1.466796875, -3.443359375, -1.742187500, 0.238281250, -0.597656250, -0.914062500, 0.480468750, 1.857421875, 0.250000000, 0.562500000, -2.072265625, -0.287109375, 0.121093750, 0.597656250, 0.033203125, -0.166015625, -1.583984375, 1.068359375, 0.039062500, 0.101562500, 1.091796875, 2.132812500, 0.195312500, 0.191406250, -2.298828125, 0.339843750, -0.910156250, 0.716796875, -1.226562500, -1.591796875, -0.103515625, -1.167968750, -0.945312500, 0.005859375, 0.066406250, 0.226562500, 1.232421875, -0.017578125, -0.044921875, 1.500000000, -0.853515625, -0.742187500, -1.615234375, 0.005859375, -1.642578125, -0.052734375, 0.343750000, -1.853515625, 1.281250000, -0.388671875, -0.283203125, 1.125000000, -0.013671875, -1.109375000, -0.902343750, -2.042968750, -0.201171875, -0.988281250, -0.169921875, 0.197265625, -1.130859375, -1.421875000, -2.392578125, 1.445312500, 0.003906250, -0.884765625, -0.636718750, 0.679687500, -0.181640625, 1.724609375, -0.072265625, 0.755859375, 0.007812500, -0.011718750, -1.576171875, 0.681640625, 0.207031250, -0.466796875, -1.630859375, -1.238281250, 0.066406250, 2.671875000, -0.273437500, 0.039062500, 0.007812500, 0.101562500, 0.156250000, 0.228515625, 0.042968750, 0.070312500, 0.226562500, -0.011718750, -0.078125000, 0.169921875, -0.085937500, -0.072265625, -0.115234375, 0.046875000, 0.056640625, -0.099609375, 0.146484375, 0.074218750, -0.078125000, 0.054687500, -0.064453125, 0.056640625, -0.162109375, 0.087890625, -0.087890625, -0.082031250, -0.011718750, -0.103515625, -0.062500000, -0.054687500, 0.031250000, -0.089843750, -0.140625000, -0.009765625, 0.085937500, -0.275390625, 0.011718750, -0.021484375, -0.099609375, -0.152343750, -0.039062500, 0.035156250, -0.175781250, -0.097656250, 0.068359375, 0.044921875, -0.152343750, 0.003906250, 0.117187500, 0.095703125, 0.160156250, 0.078125000, -0.033203125, 0.181640625, -0.009765625, -0.101562500, 0.017578125, 0.072265625, 0.171875000, -0.203125000, -0.121093750, 0.017578125, -0.076171875, 0.103515625};

#endif

#endif
