//Numpy array shape [108, 36]
//Min -2.683593750000
//Max 1.955078125000
//Number of zeros 14

#ifndef W11_H_
#define W11_H_

#ifndef __SYNTHESIS__
weight11_t w11[3888];
#else
weight11_t w11[3888] = {-0.214843750, -0.037109375, 0.117187500, 0.035156250, 0.171875000, -0.062500000, -0.193359375, -0.080078125, -0.015625000, -0.111328125, 0.164062500, 0.171875000, -0.093750000, -0.031250000, 0.148437500, 0.177734375, -0.275390625, -0.007812500, -0.113281250, -0.023437500, 0.021484375, -0.031250000, 0.007812500, -0.044921875, -0.044921875, -0.017578125, 0.078125000, -0.005859375, -0.265625000, 0.111328125, -0.126953125, 0.041015625, 0.025390625, 0.027343750, -0.197265625, -0.291015625, 0.013671875, 0.228515625, -0.031250000, 0.074218750, -0.212890625, -0.011718750, -0.003906250, -0.187500000, 0.076171875, -0.117187500, 0.169921875, 0.171875000, -0.091796875, -0.039062500, 0.171875000, -0.216796875, 0.058593750, 0.117187500, -0.089843750, 0.154296875, -0.046875000, -0.080078125, 0.244140625, -0.187500000, 0.082031250, 0.259765625, -0.046875000, -0.085937500, 0.111328125, 0.115234375, 0.126953125, 0.058593750, -0.027343750, 0.253906250, -0.099609375, 0.001953125, -0.177734375, -0.035156250, -0.128906250, -0.226562500, -0.078125000, -0.037109375, 0.048828125, -0.210937500, -0.191406250, -0.093750000, 0.031250000, -0.076171875, -0.097656250, 0.072265625, 0.066406250, 0.029296875, -0.191406250, 0.271484375, 0.017578125, 0.062500000, 0.035156250, 0.031250000, -0.138671875, 0.251953125, 0.031250000, 0.107421875, 0.187500000, -0.068359375, -0.179687500, -0.113281250, 0.109375000, 0.179687500, 0.156250000, -0.185546875, 0.019531250, 0.013671875, 0.062500000, 0.189453125, -0.060546875, -0.156250000, -0.158203125, -0.058593750, -0.099609375, 0.093750000, -0.236328125, 0.115234375, 0.015625000, 0.039062500, -0.080078125, -0.027343750, -0.044921875, 0.214843750, -0.011718750, -0.212890625, 0.144531250, -0.136718750, 0.126953125, -0.056640625, -0.091796875, 0.126953125, 0.101562500, 0.064453125, -0.058593750, -0.195312500, 0.105468750, 0.117187500, -0.001953125, 0.011718750, -0.207031250, -0.093750000, 0.132812500, 0.021484375, 0.064453125, 0.142578125, 0.031250000, -0.271484375, 0.068359375, 0.080078125, -0.080078125, -0.007812500, 0.033203125, 0.015625000, 0.126953125, -0.212890625, -0.148437500, -0.302734375, -0.066406250, -0.220703125, -0.132812500, -0.070312500, 0.263671875, 0.183593750, -0.082031250, -0.039062500, 0.013671875, 0.089843750, 0.052734375, 0.183593750, -0.162109375, 0.070312500, -0.107421875, -0.148437500, -0.095703125, 0.019531250, 0.074218750, -0.027343750, -0.177734375, -0.058593750, 0.117187500, -0.287109375, 0.218750000, 0.046875000, 0.027343750, -0.160156250, 0.156250000, -0.093750000, 0.025390625, -0.076171875, -0.156250000, -0.095703125, -0.236328125, 0.054687500, 0.263671875, 0.070312500, -0.130859375, 0.093750000, 0.169921875, -0.123046875, 0.150390625, 0.248046875, 0.041015625, 0.054687500, -0.126953125, 0.078125000, 0.023437500, -0.179687500, 0.302734375, 0.183593750, -0.212890625, -0.064453125, 0.025390625, 0.044921875, -0.058593750, 0.013671875, -0.074218750, 0.236328125, -0.072265625, -0.013671875, 0.191406250, 0.023437500, -0.132812500, 0.125000000, -0.068359375, 0.111328125, 0.183593750, 0.033203125, -0.029296875, 0.044921875, -0.193359375, -0.066406250, 0.093750000, 0.099609375, -0.191406250, 0.044921875, 0.058593750, 0.011718750, -0.132812500, 0.119140625, 0.130859375, -0.132812500, -0.041015625, -0.013671875, -0.001953125, -0.037109375, 0.062500000, 0.011718750, -0.146484375, -0.001953125, -0.023437500, -0.093750000, 0.046875000, 0.189453125, -0.031250000, 0.179687500, -0.062500000, -0.009765625, 0.154296875, 0.087890625, -0.179687500, 0.060546875, 0.021484375, 0.041015625, 0.138671875, -0.103515625, -0.250000000, -0.003906250, 0.101562500, 0.111328125, -0.033203125, -0.097656250, 0.021484375, 0.230468750, 0.216796875, 0.087890625, -0.093750000, -0.009765625, 0.123046875, -0.089843750, 0.218750000, 0.273437500, 0.011718750, -0.029296875, 0.015625000, 0.187500000, 0.011718750, 0.214843750, 0.035156250, 0.093750000, -0.007812500, 0.238281250, 0.119140625, 0.130859375, -0.115234375, -0.074218750, 0.156250000, 0.101562500, -0.003906250, 0.087890625, 0.025390625, -0.136718750, 0.273437500, -0.152343750, -0.238281250, -0.160156250, -0.193359375, -0.091796875, 0.052734375, 0.078125000, -0.021484375, -0.228515625, -0.046875000, -0.052734375, -0.244140625, 0.134765625, 0.160156250, -0.082031250, 0.023437500, -0.103515625, 0.085937500, -0.025390625, 0.013671875, -0.019531250, -0.056640625, 0.134765625, -0.148437500, 0.048828125, 0.146484375, 0.085937500, -0.125000000, 0.083984375, -0.218750000, 0.095703125, 0.218750000, -0.031250000, -0.150390625, 0.152343750, -0.109375000, -0.003906250, -0.162109375, 0.070312500, -0.029296875, -0.074218750, 0.009765625, 0.244140625, 0.009765625, 0.115234375, -0.076171875, 0.232421875, 0.136718750, -0.158203125, -0.191406250, 0.119140625, -0.150390625, 0.015625000, -0.095703125, 0.003906250, 0.179687500, 0.005859375, -0.060546875, -0.117187500, 0.115234375, -0.220703125, 0.095703125, 0.257812500, -0.101562500, -0.142578125, 0.005859375, 0.009765625, -0.058593750, -0.158203125, 0.019531250, 0.150390625, 0.113281250, -0.193359375, -0.023437500, 0.181640625, -0.046875000, 0.263671875, -0.125000000, 0.162109375, -0.177734375, -0.031250000, 0.080078125, 0.089843750, -0.228515625, 0.011718750, -0.029296875, -0.044921875, -0.218750000, -0.103515625, 0.257812500, -0.076171875, 0.115234375, 0.013671875, 0.169921875, -0.095703125, -0.277343750, 0.044921875, 0.164062500, -0.058593750, -0.072265625, -0.125000000, 0.158203125, 0.212890625, -0.199218750, -0.162109375, 0.103515625, 0.101562500, -0.148437500, 0.222656250, -0.042968750, 0.277343750, -0.136718750, 0.113281250, 0.066406250, -0.228515625, -0.074218750, -0.035156250, -0.042968750, -0.101562500, 0.062500000, -0.056640625, -0.197265625, 0.210937500, -0.066406250, 0.130859375, -0.025390625, 0.031250000, -0.066406250, 0.140625000, -0.076171875, -0.238281250, 0.021484375, 0.154296875, -0.033203125, 0.041015625, 0.261718750, -0.093750000, 0.011718750, -0.121093750, 0.199218750, 0.007812500, 0.103515625, 0.156250000, 0.080078125, 0.066406250, -0.216796875, -0.089843750, -0.205078125, -0.093750000, -0.033203125, -0.007812500, 0.214843750, 0.193359375, 0.140625000, -0.115234375, -0.039062500, -0.115234375, -0.031250000, 0.171875000, -0.013671875, -0.062500000, 0.082031250, -0.103515625, 0.019531250, 0.253906250, 0.072265625, 0.093750000, -0.078125000, -0.039062500, 0.091796875, -0.005859375, 0.015625000, -0.037109375, 0.298828125, -0.068359375, 0.300781250, 0.101562500, -0.041015625, 0.154296875, -0.136718750, -0.074218750, 0.005859375, -0.220703125, 0.218750000, 0.150390625, 0.007812500, -0.001953125, 0.302734375, 0.037109375, 0.027343750, -0.064453125, 0.101562500, 0.134765625, -0.111328125, -0.255859375, -0.066406250, 0.107421875, 0.207031250, 0.011718750, -0.031250000, -0.011718750, -0.091796875, -0.080078125, 0.107421875, -0.009765625, 0.136718750, 0.011718750, -0.052734375, 0.214843750, -0.109375000, 0.001953125, -0.041015625, 0.144531250, 0.070312500, -0.238281250, 0.232421875, -0.035156250, -0.060546875, -0.175781250, 0.183593750, -0.039062500, 0.027343750, 0.189453125, -0.095703125, -0.050781250, 0.048828125, -0.304687500, -0.080078125, -0.132812500, 0.244140625, -0.171875000, -0.177734375, 0.169921875, -0.035156250, 0.265625000, -0.246093750, 0.080078125, -0.015625000, 0.201171875, -0.115234375, 0.148437500, -0.138671875, 0.013671875, 0.068359375, 0.105468750, 0.070312500, 0.013671875, -0.164062500, 0.035156250, 0.228515625, -0.158203125, -0.041015625, 0.021484375, -0.048828125, 0.001953125, 0.109375000, 0.300781250, -0.103515625, 0.126953125, -0.046875000, -0.009765625, 0.025390625, -0.025390625, 0.087890625, -0.003906250, 0.078125000, -0.078125000, -0.294921875, 0.046875000, 0.083984375, 0.093750000, 0.058593750, 0.162109375, 0.011718750, 0.050781250, 0.066406250, 0.130859375, 0.242187500, 0.121093750, 0.296875000, 0.062500000, -0.035156250, 0.183593750, 0.056640625, -0.054687500, -0.123046875, -0.125000000, 0.130859375, -0.181640625, 0.175781250, -0.013671875, 0.091796875, 0.042968750, 0.111328125, 0.046875000, -0.261718750, -0.089843750, -0.152343750, -0.074218750, -0.132812500, 0.037109375, 0.019531250, 0.107421875, -0.132812500, 0.017578125, 0.150390625, 0.001953125, -0.017578125, -0.025390625, -0.119140625, 0.005859375, 0.181640625, 0.224609375, 0.224609375, -0.300781250, -0.087890625, -0.093750000, 0.060546875, -0.005859375, 0.066406250, 0.031250000, -0.226562500, -0.160156250, 0.068359375, -0.111328125, -0.203125000, 0.000000000, 0.029296875, 0.115234375, -0.177734375, 0.087890625, -0.050781250, 0.162109375, -0.048828125, 0.208984375, -0.037109375, -0.039062500, 0.111328125, -0.232421875, -0.134765625, -0.003906250, -0.074218750, -0.144531250, -0.062500000, 0.052734375, 0.144531250, 0.130859375, 0.167968750, -0.033203125, -0.193359375, -0.121093750, -0.042968750, -0.027343750, -0.037109375, -0.072265625, 0.044921875, 0.128906250, 0.056640625, -0.132812500, -0.074218750, -0.199218750, -0.019531250, 0.273437500, 0.064453125, -0.171875000, -0.011718750, 0.009765625, 0.005859375, 0.230468750, 0.242187500, 0.246093750, -0.250000000, 0.001953125, -0.150390625, -0.025390625, -0.001953125, 0.066406250, -0.101562500, -0.195312500, 0.044921875, 0.009765625, -0.232421875, 0.115234375, -0.037109375, -0.173828125, -0.109375000, -0.214843750, 0.060546875, -0.015625000, 0.021484375, -0.224609375, 0.107421875, -0.164062500, 0.019531250, 0.083984375, 0.263671875, 0.132812500, 0.050781250, 0.232421875, 0.017578125, 0.048828125, -0.058593750, 0.011718750, -0.070312500, 0.201171875, 0.000000000, 0.251953125, -0.138671875, -0.121093750, -0.080078125, -0.226562500, -0.197265625, -0.148437500, 0.070312500, -0.062500000, -0.039062500, -0.031250000, 0.283203125, 0.064453125, -0.078125000, 0.294921875, -0.085937500, -0.189453125, -0.146484375, -0.054687500, 0.154296875, -0.142578125, 0.078125000, 0.167968750, -0.173828125, -0.085937500, -0.083984375, -0.089843750, -0.107421875, -0.115234375, -0.162109375, 0.054687500, 0.080078125, -0.074218750, -0.056640625, -0.130859375, 0.195312500, 0.203125000, -0.195312500, -0.109375000, 0.232421875, 0.148437500, 0.251953125, -0.125000000, 0.091796875, 0.070312500, -0.089843750, 0.023437500, -0.621093750, 0.728515625, 0.212890625, 0.380859375, -0.162109375, -0.125000000, 0.080078125, -0.636718750, 0.734375000, 1.382812500, 0.175781250, -0.699218750, 0.310546875, 0.417968750, -1.310546875, 0.931640625, 0.421875000, -0.146484375, -0.119140625, 0.617187500, 0.705078125, 0.673828125, -0.917968750, -0.523437500, 0.322265625, -1.470703125, -0.599609375, -0.636718750, -0.628906250, 0.037109375, -0.718750000, -0.234375000, -0.433593750, 0.662109375, -0.462890625, 0.964843750, -0.630859375, 1.589843750, 0.310546875, -0.199218750, -0.314453125, -0.884765625, 0.007812500, 0.060546875, -0.138671875, -0.417968750, -0.664062500, -0.191406250, 0.298828125, -0.425781250, -0.964843750, 0.435546875, 0.644531250, 1.230468750, 1.298828125, -0.072265625, -0.621093750, -1.474609375, -0.281250000, 0.613281250, 0.054687500, -0.482421875, -0.990234375, 1.107421875, -0.513671875, -0.279296875, 0.123046875, 0.990234375, -0.011718750, 0.007812500, -0.173828125, 0.074218750, 0.072265625, -0.054687500, -0.398437500, -0.496093750, -0.667968750, 0.402343750, -0.156250000, 0.199218750, 0.292968750, 0.769531250, 0.044921875, 0.181640625, 0.382812500, 0.406250000, -0.595703125, 1.228515625, 1.078125000, 0.148437500, -0.158203125, 0.312500000, -0.810546875, 0.830078125, -0.576171875, -0.798828125, 0.220703125, 0.101562500, 0.240234375, -1.335937500, -0.292968750, 0.103515625, -0.724609375, 0.943359375, 0.193359375, 1.138671875, -0.197265625, 0.406250000, -0.371093750, 0.656250000, 0.738281250, 0.042968750, 0.023437500, -0.949218750, -0.248046875, 0.531250000, 0.337890625, -0.072265625, -0.332031250, 0.669921875, -0.326171875, 0.542968750, -0.873046875, 0.574218750, 0.580078125, 0.400390625, 0.382812500, -0.251953125, 0.541015625, -0.474609375, -0.367187500, 0.138671875, 0.044921875, -0.605468750, -0.753906250, 0.683593750, -0.554687500, -0.021484375, -2.224609375, -0.455078125, -0.630859375, -0.177734375, 0.195312500, 0.080078125, 0.343750000, -0.201171875, -0.628906250, 0.509765625, -1.162109375, -0.326171875, -0.029296875, 0.394531250, -0.527343750, 0.097656250, 0.861328125, -0.177734375, -0.041015625, -0.574218750, -0.453125000, 0.578125000, 0.203125000, -0.353515625, -0.201171875, 0.462890625, -0.285156250, 0.169921875, -0.509765625, 0.375000000, 0.392578125, 0.367187500, 0.205078125, -0.335937500, 0.441406250, -0.537109375, -0.308593750, -0.193359375, 0.017578125, 0.494140625, 0.957031250, -0.123046875, 0.685546875, -0.816406250, -0.673828125, 0.031250000, 0.068359375, -0.261718750, -0.078125000, 0.173828125, 0.205078125, 0.443359375, 0.937500000, -0.326171875, 1.070312500, 0.197265625, 0.476562500, 1.042968750, -0.720703125, 0.205078125, 0.320312500, 0.242187500, -0.371093750, 1.589843750, 0.056640625, -0.013671875, 0.287109375, 0.373046875, -0.185546875, -0.373046875, 0.283203125, -0.302734375, -0.466796875, 0.205078125, 0.669921875, -0.298828125, -0.585937500, -0.097656250, -0.843750000, 1.007812500, 0.466796875, -0.044921875, 0.005859375, 0.183593750, 0.019531250, 0.617187500, -0.503906250, -0.052734375, 0.189453125, -0.179687500, -0.076171875, -0.646484375, -0.927734375, 0.492187500, 0.728515625, 0.433593750, 0.011718750, 0.603515625, 0.267578125, -0.070312500, -0.947265625, -0.849609375, -0.382812500, -0.273437500, -0.226562500, 0.574218750, 0.988281250, -0.410156250, 0.609375000, -0.179687500, 0.044921875, 0.488281250, 0.515625000, 0.328125000, 0.818359375, -1.333984375, -1.015625000, 0.025390625, 0.582031250, 0.298828125, -0.263671875, -0.132812500, -0.304687500, -0.173828125, 0.199218750, -0.521484375, -0.404296875, -0.044921875, 0.677734375, 0.183593750, 0.412109375, -0.636718750, 0.486328125, -0.132812500, 1.373046875, 0.828125000, 0.021484375, -0.937500000, 0.013671875, -0.550781250, 0.279296875, -0.589843750, 0.976562500, -0.425781250, -0.074218750, -0.070312500, 0.527343750, -0.042968750, 0.642578125, -0.166015625, 0.349609375, -0.062500000, -0.044921875, -1.386718750, 0.468750000, 0.119140625, 0.025390625, -0.285156250, -0.083984375, -0.082031250, 0.218750000, 0.064453125, 0.666015625, -0.310546875, 0.814453125, 0.191406250, -0.666015625, 1.267578125, -0.083984375, -0.037109375, 0.572265625, 0.296875000, 0.066406250, 0.445312500, 0.021484375, -0.121093750, -0.371093750, 0.242187500, 0.572265625, -0.044921875, -0.300781250, -0.373046875, 0.003906250, -0.634765625, -1.214843750, -0.154296875, -0.822265625, 0.425781250, -0.162109375, -0.351562500, 0.396484375, 0.111328125, -0.097656250, 0.824218750, -0.339843750, 0.220703125, -0.541015625, 0.859375000, -0.310546875, 0.074218750, -0.359375000, 0.236328125, 0.675781250, 0.003906250, -0.576171875, 0.029296875, -0.451171875, 0.490234375, -0.082031250, -0.199218750, -0.177734375, 0.054687500, 0.472656250, -0.378906250, -0.023437500, -0.078125000, 0.105468750, 0.673828125, 0.484375000, 0.496093750, 0.541015625, 0.445312500, 1.955078125, -1.031250000, -1.546875000, -2.472656250, 0.291015625, -0.195312500, 0.056640625, 0.472656250, 1.304687500, -1.000000000, 0.718750000, -1.892578125, -0.435546875, 0.109375000, -0.021484375, -1.062500000, 0.576171875, -0.457031250, 0.097656250, 0.494140625, 0.960937500, 0.384765625, 0.695312500, 0.244140625, 0.689453125, 0.755859375, -0.326171875, 0.458984375, -1.419921875, -0.117187500, -0.757812500, 0.939453125, -1.480468750, -2.683593750, 0.181640625, -0.308593750, 0.455078125, 0.833984375, 0.599609375, -0.011718750, -0.599609375, -0.263671875, 0.062500000, -0.767578125, -0.390625000, -0.150390625, -0.230468750, -0.042968750, 0.128906250, -0.968750000, -0.130859375, -0.439453125, 0.197265625, -0.257812500, 0.060546875, 0.175781250, 0.597656250, 0.302734375, 0.025390625, 0.621093750, 0.498046875, 0.000000000, -0.179687500, 1.031250000, 0.712890625, 0.390625000, 0.640625000, 0.193359375, 0.144531250, -0.292968750, -0.650390625, -0.384765625, 0.210937500, -0.076171875, -0.146484375, 0.148437500, 0.154296875, -0.007812500, 0.111328125, -0.132812500, -0.099609375, 0.072265625, -0.093750000, 0.148437500, -0.019531250, 0.105468750, -0.197265625, -0.292968750, 0.042968750, -0.007812500, -0.015625000, 0.113281250, 0.074218750, -0.027343750, -0.171875000, 0.162109375, -0.179687500, -0.197265625, -0.142578125, -0.042968750, -0.199218750, -0.115234375, 0.007812500, -0.287109375, 0.177734375, 0.044921875, -0.023437500, -0.248046875, -0.244140625, -0.039062500, 0.078125000, -0.052734375, 0.072265625, -0.105468750, -0.152343750, -0.072265625, 0.007812500, -0.011718750, 0.091796875, 0.300781250, -0.134765625, 0.222656250, 0.042968750, 0.150390625, -0.250000000, -0.132812500, 0.083984375, 0.042968750, 0.201171875, 0.156250000, 0.222656250, 0.121093750, 0.031250000, 0.076171875, -0.208984375, 0.052734375, -0.128906250, 0.017578125, 0.078125000, 0.080078125, -0.128906250, -0.037109375, 0.037109375, -0.207031250, -0.074218750, -0.103515625, 0.113281250, -0.031250000, -0.146484375, 0.142578125, 0.130859375, 0.115234375, -0.021484375, -0.025390625, 0.019531250, 0.074218750, -0.191406250, 0.117187500, -0.132812500, -0.103515625, -0.099609375, -0.125000000, 0.134765625, 0.003906250, 0.232421875, 0.130859375, 0.007812500, 0.242187500, 0.123046875, 0.107421875, -0.089843750, -0.023437500, -0.093750000, -0.181640625, 0.203125000, -0.162109375, 0.087890625, 0.119140625, 0.132812500, -0.107421875, -0.015625000, -0.111328125, -0.089843750, 0.009765625, -0.103515625, -0.203125000, 0.029296875, -0.058593750, -0.119140625, 0.095703125, 0.212890625, -0.044921875, 0.218750000, 0.115234375, 0.021484375, 0.123046875, 0.201171875, 0.189453125, -0.125000000, -0.009765625, -0.126953125, -0.041015625, -0.039062500, -0.078125000, -0.080078125, 0.074218750, 0.189453125, 0.187500000, -0.011718750, -0.144531250, 0.164062500, 0.058593750, -0.121093750, 0.082031250, 0.001953125, 0.234375000, 0.216796875, -0.044921875, 0.035156250, 0.085937500, 0.025390625, -0.097656250, -0.027343750, 0.199218750, -0.009765625, 0.027343750, -0.060546875, 0.009765625, 0.140625000, 0.091796875, -0.058593750, 0.015625000, 0.121093750, -0.146484375, -0.099609375, 0.138671875, 0.076171875, -0.113281250, 0.199218750, 0.128906250, 0.017578125, -0.099609375, 0.083984375, 0.015625000, 0.113281250, -0.095703125, 0.130859375, -0.060546875, -0.031250000, 0.007812500, -0.003906250, 0.042968750, -0.056640625, 0.169921875, -0.230468750, 0.019531250, -0.156250000, -0.130859375, -0.003906250, -0.169921875, 0.074218750, 0.082031250, -0.025390625, 0.230468750, -0.113281250, 0.007812500, 0.128906250, -0.064453125, 0.246093750, 0.095703125, 0.003906250, -0.093750000, -0.144531250, -0.023437500, -0.267578125, 0.279296875, 0.050781250, 0.136718750, -0.007812500, 0.097656250, -0.224609375, -0.171875000, 0.025390625, 0.025390625, 0.128906250, -0.087890625, 0.191406250, 0.068359375, -0.251953125, 0.121093750, 0.634765625, -0.681640625, 0.238281250, 0.142578125, -0.076171875, -0.408203125, 0.085937500, 0.304687500, 0.123046875, 0.771484375, 0.125000000, 0.634765625, -0.439453125, 0.031250000, -0.380859375, -0.001953125, -0.232421875, -0.496093750, 1.023437500, -1.187500000, -0.126953125, 0.035156250, -0.367187500, -0.134765625, -0.738281250, 0.322265625, -0.068359375, 0.726562500, -0.375000000, -0.250000000, 0.048828125, -0.333984375, 0.031250000, -0.132812500, -0.167968750, -0.330078125, 0.306640625, -0.546875000, -0.097656250, -0.076171875, -0.019531250, 0.191406250, -0.593750000, -0.339843750, 0.056640625, 0.548828125, -0.181640625, 0.419921875, -0.408203125, -0.435546875, 0.343750000, 0.394531250, 0.236328125, -0.443359375, 0.677734375, -0.626953125, 0.117187500, 0.582031250, -0.695312500, -0.109375000, -0.402343750, 0.857421875, -0.322265625, 0.277343750, 0.210937500, 0.435546875, 0.324218750, -0.236328125, -0.132812500, -0.615234375, -0.308593750, -0.056640625, -0.583984375, 0.253906250, -0.044921875, 0.457031250, -0.005859375, -0.126953125, 0.003906250, 0.279296875, 0.279296875, -1.078125000, 0.492187500, 0.789062500, 0.187500000, -0.916015625, 0.382812500, 0.085937500, -0.314453125, -0.095703125, -0.769531250, 0.015625000, -0.339843750, -0.015625000, -0.085937500, 0.203125000, 0.619140625, -0.808593750, -0.353515625, -0.191406250, 0.060546875, 0.503906250, 0.488281250, 0.458984375, 0.529296875, 0.373046875, 0.519531250, -0.056640625, 0.654296875, -0.312500000, 0.542968750, -0.412109375, 0.150390625, 0.324218750, -0.294921875, 0.111328125, 0.179687500, 0.757812500, -0.015625000, -0.287109375, -0.583984375, 0.207031250, 0.392578125, -0.382812500, -0.296875000, -0.076171875, 0.601562500, -0.515625000, 0.597656250, 0.246093750, -0.035156250, 0.248046875, 0.156250000, 0.541015625, 0.158203125, 0.498046875, -0.283203125, -0.210937500, -0.566406250, 0.457031250, 0.810546875, -0.068359375, 0.261718750, 0.000000000, -0.033203125, 0.212890625, -0.896484375, 0.435546875, -0.371093750, 0.755859375, -0.332031250, -0.029296875, 0.576171875, -0.746093750, -0.189453125, -0.326171875, 0.201171875, -0.554687500, -0.242187500, -0.050781250, -0.376953125, -0.048828125, 0.226562500, -0.253906250, 0.146484375, 0.496093750, -0.035156250, 0.302734375, 0.119140625, 0.523437500, -0.146484375, -0.992187500, 0.458984375, 0.392578125, 0.169921875, 0.392578125, -0.136718750, -0.460937500, 0.330078125, -0.144531250, 0.410156250, -0.505859375, -0.216796875, 1.152343750, 0.044921875, -0.515625000, -0.337890625, 0.394531250, -0.130859375, -0.373046875, 0.238281250, 0.824218750, 0.125000000, -0.511718750, 0.027343750, -0.212890625, 0.023437500, 0.095703125, 0.101562500, -0.044921875, -0.199218750, 0.455078125, 0.046875000, 0.511718750, -0.367187500, -0.152343750, -0.433593750, -0.503906250, -0.060546875, 0.013671875, 0.449218750, -0.072265625, 0.115234375, 0.375000000, -0.296875000, -0.359375000, -0.304687500, 0.050781250, 0.275390625, 0.371093750, -0.062500000, 0.867187500, -0.171875000, -0.078125000, -0.011718750, -0.435546875, -0.396484375, 0.556640625, 0.324218750, 0.367187500, -0.089843750, -0.046875000, -0.453125000, 0.392578125, -0.007812500, 0.167968750, 0.476562500, -1.085937500, -0.058593750, 0.162109375, -0.191406250, -0.066406250, -0.685546875, -0.230468750, 0.134765625, -0.214843750, -0.033203125, 0.033203125, 0.720703125, 0.171875000, 0.380859375, -0.587890625, 0.212890625, -0.025390625, -0.203125000, 0.443359375, -0.212890625, 0.095703125, -0.259765625, -0.013671875, -0.218750000, 0.226562500, 0.240234375, -0.398437500, -0.021484375, -0.119140625, -0.103515625, 0.445312500, 0.269531250, -0.173828125, -0.474609375, -0.302734375, 0.111328125, 0.091796875, -0.328125000, -0.476562500, 0.070312500, -0.259765625, -0.683593750, 0.560546875, 0.460937500, 0.027343750, 0.583984375, 0.792968750, -0.591796875, 0.316406250, 0.242187500, 0.230468750, 0.595703125, 0.240234375, -0.947265625, 0.105468750, -0.015625000, -0.402343750, -0.175781250, 0.869140625, 0.279296875, 0.082031250, 0.255859375, -0.441406250, -0.222656250, -0.371093750, 0.275390625, -0.611328125, 0.000000000, -0.146484375, 0.685546875, 0.173828125, -0.220703125, -0.027343750, 0.423828125, 0.318359375, 0.128906250, 0.330078125, 0.189453125, -0.021484375, -0.099609375, -0.015625000, 0.000000000, -0.642578125, -0.480468750, 0.044921875, 0.257812500, -0.314453125, -0.531250000, 0.171875000, 0.724609375, 0.509765625, 0.072265625, 0.550781250, 0.267578125, 0.648437500, -0.048828125, 0.257812500, -0.181640625, 0.455078125, 0.824218750, -0.052734375, -0.603515625, -0.695312500, 0.757812500, -0.527343750, 0.529296875, 0.648437500, 0.666015625, -1.625000000, -0.314453125, -0.828125000, -0.978515625, -0.492187500, -1.501953125, 0.384765625, 0.162109375, 0.054687500, -0.541015625, -0.138671875, 0.175781250, 0.431640625, 1.304687500, -0.316406250, 0.275390625, -0.531250000, 0.527343750, 0.566406250, -0.099609375, -1.228515625, 0.347656250, -0.289062500, -0.464843750, 1.203125000, 0.460937500, -0.460937500, 0.367187500, -0.179687500, 0.201171875, -0.558593750, 0.119140625, -1.173828125, -0.056640625, 0.191406250, 0.228515625, 0.125000000, -0.509765625, -0.431640625, 0.539062500, 0.296875000, -0.044921875, 0.605468750, 0.171875000, 0.904296875, 0.462890625, -0.791015625, -1.408203125, -0.570312500, 0.191406250, 0.593750000, -0.292968750, 0.785156250, -1.236328125, 0.115234375, -0.134765625, -0.033203125, -0.636718750, -0.500000000, -0.451171875, 0.101562500, -0.253906250, -0.343750000, 0.888671875, -0.404296875, 0.216796875, -0.285156250, -0.857421875, -0.041015625, -0.009765625, -0.150390625, 0.216796875, -0.193359375, -0.082031250, 1.113281250, 0.011718750, 0.814453125, -1.125000000, -0.544921875, 0.394531250, 0.121093750, -0.285156250, -0.156250000, -0.376953125, 0.445312500, 0.255859375, -0.226562500, 0.160156250, 0.107421875, 0.146484375, 0.042968750, -0.083984375, -0.048828125, -0.087890625, -0.074218750, 0.158203125, 0.035156250, 0.171875000, -0.111328125, -0.181640625, -0.152343750, 0.195312500, 0.167968750, 0.263671875, -0.041015625, 0.025390625, 0.294921875, -0.289062500, 0.210937500, 0.121093750, 0.115234375, -0.126953125, 0.177734375, -0.099609375, -0.095703125, -0.109375000, 0.029296875, 0.062500000, -0.113281250, 0.009765625, -0.068359375, 0.164062500, -0.009765625, 0.148437500, 0.083984375, -0.078125000, 0.007812500, -0.025390625, 0.123046875, -0.238281250, 0.101562500, 0.019531250, -0.144531250, -0.169921875, 0.007812500, -0.128906250, -0.080078125, 0.208984375, -0.125000000, 0.060546875, 0.015625000, -0.095703125, -0.062500000, 0.001953125, -0.070312500, 0.095703125, -0.132812500, -0.033203125, -0.091796875, 0.060546875, -0.123046875, -0.017578125, -0.236328125, 0.052734375, 0.037109375, 0.144531250, 0.035156250, -0.005859375, 0.056640625, -0.013671875, 0.031250000, -0.113281250, 0.009765625, -0.105468750, 0.132812500, -0.015625000, -0.126953125, -0.175781250, 0.179687500, 0.191406250, 0.130859375, -0.056640625, 0.234375000, 0.056640625, -0.164062500, 0.083984375, -0.148437500, -0.001953125, 0.255859375, 0.064453125, -0.058593750, -0.087890625, 0.130859375, 0.070312500, -0.089843750, -0.179687500, -0.113281250, 0.072265625, 0.021484375, -0.214843750, 0.189453125, 0.056640625, 0.093750000, 0.244140625, 0.150390625, 0.064453125, 0.078125000, 0.013671875, 0.294921875, -0.009765625, 0.027343750, -0.126953125, -0.076171875, -0.095703125, -0.197265625, 0.111328125, 0.042968750, -0.304687500, 0.066406250, -0.109375000, -0.103515625, -0.033203125, 0.099609375, 0.091796875, -0.027343750, -0.119140625, -0.015625000, -0.027343750, 0.031250000, -0.136718750, -0.080078125, 0.126953125, -0.103515625, -0.083984375, 0.083984375, -0.019531250, 0.058593750, -0.027343750, -0.052734375, 0.003906250, 0.169921875, -0.291015625, -0.214843750, -0.109375000, -0.078125000, 0.052734375, 0.000000000, -0.132812500, -0.052734375, 0.089843750, 0.173828125, 0.058593750, -0.177734375, -0.083984375, -0.078125000, -0.107421875, -0.246093750, -0.085937500, 0.113281250, 0.111328125, -0.113281250, 0.195312500, -0.191406250, -0.076171875, 0.089843750, -0.095703125, 0.070312500, 0.109375000, 0.019531250, -0.099609375, 0.175781250, -0.009765625, 0.191406250, -0.189453125, 0.134765625, 0.167968750, -0.060546875, 0.105468750, 0.054687500, -0.267578125, -0.101562500, -0.046875000, -0.009765625, -0.080078125, -0.031250000, -0.044921875, 0.023437500, 0.220703125, 0.134765625, -0.005859375, -0.064453125, 0.044921875, -0.003906250, 0.244140625, -0.228515625, -0.013671875, 0.103515625, -0.019531250, -0.046875000, 0.119140625, 0.023437500, -0.179687500, 0.222656250, 0.097656250, 0.062500000, 0.101562500, 0.132812500, 0.015625000, 0.271484375, 0.144531250, 0.023437500, 0.054687500, -0.388671875, 0.355468750, 0.537109375, 0.013671875, -0.035156250, -0.119140625, -0.355468750, 0.121093750, -0.632812500, -0.281250000, -0.082031250, -0.093750000, 0.500000000, -0.027343750, -0.591796875, 0.347656250, -0.451171875, -0.558593750, -0.248046875, -0.710937500, -0.208984375, 0.609375000, -0.593750000, 0.871093750, -1.306640625, -0.554687500, 0.132812500, -0.886718750, 0.490234375, -0.054687500, 1.076171875, -0.621093750, -0.396484375, 0.113281250, -1.117187500, 0.251953125, -0.478515625, -0.166015625, 0.339843750, -0.548828125, -0.539062500, 0.101562500, -0.445312500, 0.441406250, 0.042968750, -0.486328125, -0.341796875, -0.826171875, -0.330078125, -0.087890625, -0.292968750, 0.195312500, 0.046875000, 0.000000000, -0.001953125, 0.248046875, 0.242187500, 0.382812500, -0.697265625, 0.433593750, -1.052734375, 0.097656250, 0.148437500, 0.519531250, 0.826171875, 0.593750000, 0.027343750, -0.636718750, 0.296875000, 0.625000000, -0.289062500, 0.427734375, 0.259765625, -0.443359375, -0.193359375, -0.119140625, -0.236328125, -0.099609375, -1.070312500, -0.691406250, -0.533203125, 0.115234375, 0.373046875, -0.441406250, -0.650390625, 0.292968750, -0.113281250, 0.693359375, -0.505859375, -0.189453125, 0.552734375, -0.314453125, 0.507812500, -0.369140625, 0.148437500, 0.281250000, 0.769531250, 1.048828125, -0.138671875, -0.181640625, 0.515625000, 0.447265625, -0.849609375, 0.058593750, -1.197265625, -0.302734375, 0.083984375, 0.164062500, 0.388671875, -0.142578125, 0.380859375, 0.007812500, -0.324218750, -0.146484375, -0.152343750, 0.785156250, 0.138671875, -0.160156250, 0.169921875, -0.029296875, 0.117187500, 0.226562500, -0.089843750, 0.078125000, 0.126953125, -0.166015625, 0.376953125, -0.255859375, -0.087890625, 0.390625000, -0.373046875, 0.646484375, -0.345703125, -0.554687500, 0.156250000, -0.142578125, -0.113281250, 0.126953125, 0.363281250, -0.789062500, 0.398437500, -0.066406250, -0.927734375, -0.144531250, 0.380859375, 0.183593750, 0.615234375, -0.441406250, -0.105468750, -0.289062500, 0.132812500, 0.347656250, 0.384765625, -0.363281250, -0.750000000, -0.089843750, -0.046875000, 0.210937500, -0.167968750, -0.261718750, 0.265625000, -0.326171875, -0.156250000, 0.441406250, 0.576171875, 0.263671875, -0.080078125, -0.109375000, -0.169921875, 0.494140625, 0.406250000, 0.107421875, 0.992187500, -0.183593750, -0.169921875, 0.365234375, -0.033203125, 0.091796875, -0.894531250, 0.800781250, -0.175781250, -0.037109375, 0.083984375, 0.521484375, 0.134765625, 0.042968750, -0.326171875, -0.175781250, 0.181640625, -0.095703125, -0.396484375, 0.859375000, -0.371093750, 0.751953125, -0.177734375, -0.121093750, -0.322265625, 0.775390625, 0.193359375, 0.138671875, 0.455078125, -0.382812500, 0.359375000, 0.855468750, 0.060546875, 0.257812500, 0.396484375, -0.277343750, 1.164062500, -0.238281250, 0.365234375, -0.083984375, -0.263671875, 0.099609375, 0.132812500, 0.136718750, 0.505859375, 0.443359375, 0.291015625, 0.199218750, 0.417968750, -0.304687500, 0.140625000, 1.021484375, 0.339843750, 0.060546875, 0.236328125, 0.140625000, 0.367187500, -0.292968750, 0.591796875, 0.220703125, 0.044921875, 0.494140625, -0.535156250, 0.851562500, -0.076171875, 0.373046875, 0.078125000, -0.060546875, -0.181640625, 0.207031250, -0.281250000, 0.398437500, 0.556640625, 0.638671875, 0.166015625, 0.408203125, 0.054687500, -0.371093750, 0.703125000, 0.050781250, 0.779296875, 0.212890625, -0.044921875, -0.148437500, 0.066406250, 0.089843750, 0.580078125, 0.408203125, 0.658203125, 0.707031250, -0.205078125, -0.326171875, 0.433593750, 0.396484375, -0.640625000, -0.015625000, 0.011718750, 0.583984375, 0.177734375, 0.878906250, 0.470703125, -0.738281250, 0.144531250, 0.482421875, 0.259765625, 0.449218750, 0.164062500, 0.599609375, -0.162109375, -0.300781250, 0.210937500, 0.294921875, -0.460937500, 0.529296875, 0.181640625, 0.281250000, 0.289062500, -0.349609375, 0.873046875, 0.869140625, -0.222656250, -0.337890625, -0.197265625, 0.390625000, 0.578125000, -0.255859375, -0.283203125, 0.128906250, 0.177734375, -0.511718750, -0.671875000, 0.460937500, -0.365234375, -0.023437500, -0.083984375, -0.123046875, 0.117187500, -0.779296875, -0.113281250, 0.542968750, 0.037109375, 0.593750000, -0.234375000, -0.087890625, 0.027343750, 0.027343750, 0.144531250, 0.531250000, -0.134765625, -0.373046875, 0.394531250, 0.214843750, -0.132812500, 0.804687500, -0.515625000, 0.849609375, 0.343750000, -0.074218750, -0.492187500, 0.601562500, 0.587890625, 0.255859375, 0.798828125, 0.636718750, -0.314453125, -0.941406250, -0.205078125, 0.488281250, -0.937500000, 0.220703125, -0.740234375, 0.634765625, -0.304687500, -0.957031250, 0.150390625, -0.056640625, -0.062500000, -0.169921875, 0.380859375, 1.091796875, 0.630859375, 0.458984375, 0.126953125, 1.015625000, -0.607421875, 0.679687500, 0.130859375, 0.078125000, 0.287109375, 0.000000000, -0.390625000, -1.160156250, -0.242187500, 0.029296875, -0.076171875, 0.011718750, 0.142578125, 0.740234375, -0.390625000, 0.003906250, 0.904296875, -1.177734375, -1.146484375, 0.667968750, 0.464843750, 0.414062500, 0.843750000, 0.179687500, -0.943359375, -1.054687500, 0.613281250, 0.685546875, -0.734375000, -0.734375000, -0.779296875, 1.105468750, 0.175781250, -1.031250000, -0.029296875, 0.378906250, 0.863281250, 0.609375000, 0.599609375, 0.093750000, -0.320312500, -0.193359375, 1.025390625, 0.464843750, -0.414062500, -0.277343750, -0.445312500, -0.119140625, -0.193359375, -0.486328125, 0.248046875, 0.417968750, -0.121093750, -1.445312500, -0.681640625, 0.537109375, 1.201171875, -0.398437500, 0.736328125, -0.822265625, -0.257812500, -0.591796875, -0.093750000, 0.083984375, 0.310546875, 0.634765625, 0.021484375, 0.097656250, 0.015625000, -0.417968750, -0.162109375, -0.041015625, 0.914062500, 0.265625000, 0.658203125, -0.173828125, -0.080078125, -0.156250000, 0.007812500, 0.162109375, -0.175781250, 0.015625000, 0.261718750, 0.066406250, -0.054687500, 0.130859375, -0.117187500, 0.134765625, -0.078125000, -0.158203125, -0.013671875, 0.277343750, -0.052734375, 0.058593750, 0.300781250, -0.148437500, -0.130859375, 0.009765625, 0.185546875, 0.080078125, -0.035156250, -0.005859375, -0.015625000, -0.240234375, 0.091796875, 0.134765625, 0.052734375, -0.142578125, -0.058593750, -0.085937500, -0.138671875, 0.005859375, -0.066406250, -0.123046875, -0.263671875, -0.070312500, 0.152343750, 0.062500000, -0.042968750, -0.121093750, -0.052734375, -0.175781250, -0.123046875, -0.130859375, 0.142578125, -0.136718750, 0.117187500, -0.078125000, 0.177734375, 0.130859375, 0.105468750, 0.091796875, -0.183593750, 0.240234375, 0.113281250, 0.238281250, 0.027343750, 0.132812500, -0.154296875, -0.066406250, -0.296875000, -0.003906250, -0.220703125, -0.210937500, -0.070312500, -0.082031250, -0.058593750, 0.015625000, 0.191406250, -0.175781250, -0.177734375, 0.035156250, 0.000000000, -0.226562500, -0.152343750, -0.148437500, -0.037109375, -0.052734375, 0.160156250, 0.078125000, -0.119140625, -0.085937500, 0.041015625, 0.210937500, 0.121093750, 0.072265625, 0.033203125, -0.105468750, -0.009765625, -0.269531250, -0.220703125, 0.074218750, 0.056640625, 0.105468750, 0.292968750, 0.123046875, -0.207031250, -0.134765625, 0.107421875, 0.078125000, -0.082031250, -0.042968750, 0.017578125, 0.187500000, -0.173828125, 0.185546875, 0.013671875, -0.113281250, 0.046875000, 0.162109375, 0.152343750, -0.240234375, -0.134765625, -0.113281250, 0.050781250, 0.144531250, 0.011718750, 0.242187500, 0.097656250, 0.087890625, -0.095703125, -0.082031250, -0.041015625, 0.308593750, -0.167968750, 0.011718750, 0.056640625, -0.164062500, -0.064453125, -0.177734375, 0.091796875, 0.060546875, 0.203125000, 0.207031250, 0.160156250, 0.019531250, 0.058593750, -0.267578125, -0.013671875, -0.070312500, 0.160156250, -0.103515625, 0.058593750, 0.212890625, -0.013671875, -0.236328125, 0.179687500, -0.267578125, 0.011718750, -0.037109375, -0.037109375, 0.242187500, -0.177734375, -0.044921875, -0.062500000, -0.070312500, 0.179687500, -0.062500000, -0.064453125, 0.083984375, 0.070312500, 0.039062500, -0.005859375, -0.089843750, 0.130859375, 0.019531250, -0.068359375, 0.011718750, 0.171875000, 0.191406250, 0.076171875, 0.222656250, 0.232421875, 0.099609375, 0.183593750, -0.193359375, 0.087890625, 0.068359375, -0.056640625, -0.259765625, -0.261718750, 0.027343750, 0.029296875, 0.142578125, -0.158203125, 0.005859375, 0.121093750, 0.025390625, -0.234375000, 0.257812500, 0.167968750, 0.224609375, 0.189453125, -0.152343750, 0.039062500, 0.142578125, -0.101562500, 0.138671875, 0.234375000, 0.011718750, 0.093750000, -0.005859375, 0.197265625, 0.082031250, -0.052734375, 0.109375000, -0.244140625, 0.152343750, -0.166015625, 0.109375000, 0.001953125, -0.886718750, -0.007812500, -0.832031250, 0.113281250, -0.738281250, 0.619140625, -0.035156250, 0.402343750, -0.273437500, -0.238281250, 0.425781250, -0.466796875, 0.167968750, -0.265625000, -0.376953125, 0.740234375, -0.072265625, 0.572265625, -2.234375000, 1.076171875, -0.283203125, -0.406250000, 1.226562500, -1.046875000, -0.746093750, 0.507812500, -0.357421875, 0.228515625, 0.216796875, -1.126953125, -0.892578125, 0.517578125, 0.066406250, 0.767578125, 0.375000000, 0.539062500, 0.962890625, -1.664062500, -0.031250000, -0.089843750, -0.248046875, 0.603515625, -0.062500000, -0.412109375, 0.544921875, -0.156250000, -0.173828125, -0.087890625, 0.798828125, -0.779296875, -0.892578125, 0.818359375, 0.203125000, 0.414062500, 0.072265625, -0.626953125, 0.152343750, 0.000000000, -0.105468750, 0.509765625, 0.128906250, 0.740234375, -0.556640625, -0.164062500, 1.484375000, -0.378906250, 0.169921875, 0.470703125, 0.464843750, -0.439453125, -0.900390625, 0.251953125, 0.455078125, -0.482421875, -0.828125000, -1.693359375, 0.714843750, -0.566406250, -0.220703125, -0.429687500, -0.289062500, -0.009765625, 0.937500000, -0.951171875, 0.148437500, -0.634765625, 0.671875000, 0.148437500, 0.093750000, 0.281250000, 1.126953125, 0.929687500, -1.048828125, 0.826171875, 0.160156250, 0.785156250, -0.539062500, 1.189453125, 0.185546875, -0.398437500, 1.144531250, -0.982421875, 0.464843750, 0.294921875, 0.986328125, -0.402343750, -0.878906250, -0.380859375, -0.599609375, 0.160156250, -0.316406250, -0.074218750, 0.294921875, 1.017578125, 0.121093750, 0.412109375, -0.580078125, 0.000000000, 0.484375000, -0.001953125, 0.359375000, 1.416015625, 0.527343750, 0.945312500, -0.552734375, -0.099609375, -1.972656250, 1.019531250, 0.181640625, -0.238281250, 0.876953125, 0.291015625, -0.589843750, 0.919921875, 0.039062500, 0.005859375, 0.503906250, 0.093750000, 0.361328125, 0.207031250, -0.175781250, 0.078125000, -0.195312500, 0.593750000, 0.367187500, 0.759765625, -0.554687500, 0.121093750, 0.150390625, -0.556640625, -0.226562500, 0.541015625, 0.685546875, 0.654296875, 0.414062500, 0.429687500, 0.371093750, -0.539062500, -0.304687500, 0.828125000, 0.443359375, 0.599609375, 1.003906250, -0.253906250, 0.025390625, 0.462890625, 0.078125000, 0.367187500, 0.646484375, -0.628906250, -0.687500000, 0.123046875, 0.472656250, -0.218750000, 0.125000000, 0.326171875, 0.382812500, 0.087890625, -0.001953125, 0.166015625, 0.636718750, 0.234375000, -0.185546875, -1.166015625, 0.621093750, -0.671875000, -0.066406250, 0.476562500, 0.748046875, 0.470703125, 0.548828125, 0.658203125, 0.449218750, -0.328125000, -0.269531250, 0.906250000, -0.138671875, 0.046875000, 1.416015625, -0.099609375, 0.437500000, 0.007812500, -0.513671875, 0.167968750, 0.488281250, 0.718750000, -0.042968750, 0.107421875, 1.117187500, 0.023437500, -0.851562500, 0.837890625, 0.501953125, -0.064453125, 0.187500000, 0.201171875, -0.177734375, 0.283203125, 0.513671875, 0.304687500, 0.441406250, 0.013671875, 0.117187500, 1.101562500, -1.248046875, 1.107421875, 1.285156250, 0.205078125, 0.972656250, 0.019531250, 0.656250000, 0.494140625, -0.365234375, 0.154296875, 0.535156250, -0.484375000, -0.693359375, -0.410156250, 0.646484375, 0.449218750, 0.068359375, 0.953125000, 0.611328125, -0.126953125, 0.675781250, 0.207031250, -1.818359375, 0.626953125, 1.138671875, 0.375000000, -0.117187500, 0.269531250, -0.044921875, 0.476562500, 0.201171875, -0.033203125, -0.003906250, 0.593750000, 0.072265625, 0.417968750, 0.189453125, -0.605468750, 0.226562500, 0.279296875, -0.080078125, 0.496093750, 0.486328125, 0.111328125, -0.212890625, 0.283203125, 0.330078125, 0.599609375, -0.562500000, -0.146484375, -0.154296875, -0.285156250, 0.730468750, -0.503906250, -0.712890625, -0.308593750, -0.925781250, 0.056640625, -0.447265625, -0.181640625, -0.308593750, 0.677734375, -0.267578125, -0.472656250, 0.613281250, 0.824218750, -0.234375000, -1.652343750, -0.656250000, -1.253906250, -0.142578125, 0.525390625, 1.115234375, -0.376953125, -0.015625000, 0.572265625, -0.042968750, -0.265625000, -0.687500000, 0.470703125, 0.179687500, 0.361328125, 0.728515625, 0.187500000, -0.957031250, -0.046875000, -1.617187500, -0.535156250, 0.869140625, -0.583984375, -0.197265625, 0.093750000, 0.861328125, -0.337890625, -0.666015625, 0.259765625, -0.068359375, 0.199218750, 0.027343750, 0.105468750, -0.623046875, 0.476562500, 0.816406250, -0.365234375, -0.421875000, 0.548828125, 0.076171875, -0.125000000, -0.759765625, 0.408203125, 0.785156250, 0.863281250, 0.763671875, 0.218750000, 0.277343750, 0.082031250, -0.355468750, 0.414062500, -0.017578125, 0.533203125, -0.253906250, -0.484375000, 1.134765625, 0.310546875, -0.753906250, 1.171875000, -1.058593750, -0.931640625, -0.576171875, 0.816406250, 0.439453125, 0.341796875, 0.402343750, -0.677734375, -0.914062500, 0.570312500, 0.929687500, -0.349609375, -0.750000000, 0.029296875, -0.648437500, 0.191406250, -0.265625000, -0.599609375, -0.453125000, -1.531250000, 0.558593750, -0.351562500, -0.876953125, 0.046875000, 1.445312500, 1.533203125, 0.472656250, 0.318359375, 0.802734375, 0.972656250, -1.261718750, 0.177734375, 0.591796875, 0.544921875, 0.525390625, 0.271484375, -1.037109375, -1.064453125, -0.796875000, -0.398437500, 0.093750000, 0.410156250, 0.470703125, -0.158203125, 0.642578125, 0.158203125, 1.253906250, -0.351562500, -0.583984375, -0.683593750, 0.048828125, 0.957031250, -0.183593750, 0.080078125, -0.140625000, -0.970703125, -0.031250000, 0.160156250, -0.240234375, 0.470703125, -0.402343750, 0.441406250, 0.283203125, -0.556640625, 0.187500000, -0.191406250, -0.011718750, 0.001953125, -0.267578125, -0.117187500, 0.871093750, 0.300781250, -0.898437500, -0.230468750, -0.166015625, 0.966796875, -0.779296875, 0.445312500, 0.167968750, -0.306640625, 0.121093750, -0.353515625, 0.054687500, -0.134765625, 0.042968750, 0.005859375, 0.152343750, 0.042968750, 0.236328125, 0.060546875, -0.023437500, 0.037109375, -0.166015625, 0.191406250, 0.232421875, 0.267578125, -0.021484375, 0.015625000, -0.218750000, -0.005859375, -0.068359375, -0.113281250, -0.058593750, 0.152343750, 0.048828125, 0.062500000, 0.095703125, 0.054687500, -0.017578125, 0.164062500, 0.162109375, 0.066406250, 0.236328125, 0.169921875, -0.203125000, -0.062500000, 0.148437500, -0.003906250, 0.089843750, -0.044921875, 0.228515625, 0.066406250, 0.089843750, -0.222656250, -0.195312500, 0.296875000, 0.085937500, -0.042968750, -0.142578125, 0.195312500, -0.273437500, -0.103515625, -0.064453125, 0.082031250, 0.021484375, -0.193359375, -0.025390625, 0.148437500, -0.095703125, 0.029296875, -0.117187500, 0.064453125, 0.011718750, 0.029296875, -0.302734375, -0.242187500, -0.021484375, -0.082031250, -0.058593750, 0.050781250, 0.152343750, 0.060546875, -0.027343750, 0.183593750, -0.257812500, 0.064453125, 0.099609375, -0.208984375, -0.068359375, -0.072265625, -0.187500000, -0.001953125, -0.140625000, -0.294921875, 0.001953125, 0.113281250, 0.031250000, -0.220703125, -0.253906250, -0.009765625, 0.001953125, -0.222656250, -0.083984375, -0.117187500, 0.048828125, 0.144531250, 0.083984375, -0.150390625, -0.031250000, -0.089843750, -0.152343750, -0.212890625, -0.007812500, -0.123046875, -0.208984375, -0.017578125, 0.072265625, -0.021484375, -0.015625000, 0.228515625, -0.039062500, 0.078125000, -0.019531250, -0.146484375, -0.066406250, 0.257812500, -0.156250000, -0.181640625, 0.179687500, -0.126953125, -0.181640625, 0.126953125, -0.224609375, 0.166015625, -0.111328125, -0.070312500, -0.023437500, 0.207031250, 0.214843750, 0.076171875, 0.212890625, 0.027343750, 0.130859375, -0.019531250, 0.128906250, 0.218750000, -0.005859375, 0.138671875, 0.039062500, -0.162109375, -0.304687500, 0.015625000, 0.123046875, 0.134765625, 0.162109375, -0.052734375, 0.105468750, -0.085937500, -0.154296875, -0.023437500, 0.097656250, 0.083984375, 0.138671875, -0.179687500, -0.021484375, 0.113281250, 0.041015625, 0.068359375, 0.001953125, -0.074218750, -0.062500000, 0.142578125, 0.029296875, -0.031250000, 0.253906250, -0.193359375, -0.027343750, 0.208984375, -0.082031250, -0.283203125, 0.064453125, -0.041015625, -0.263671875, 0.144531250, 0.259765625, 0.009765625, 0.066406250, 0.085937500, -0.199218750, -0.105468750, -0.105468750, 0.037109375, 0.130859375, -0.142578125, 0.210937500, -0.035156250, 0.054687500, -0.068359375, 0.259765625, -0.177734375, 0.275390625, -0.066406250, 0.105468750, 0.117187500, -0.132812500, 0.171875000, -0.031250000, 0.035156250, 0.248046875, -0.109375000, 0.093750000, -0.029296875, -0.132812500, 0.037109375, -0.068359375, 0.115234375, 0.195312500, 0.128906250, 0.218750000, -0.044921875, -0.025390625, -0.150390625, 0.169921875, -0.148437500, -0.066406250, -0.191406250, -0.009765625, -0.242187500, 0.033203125, -0.091796875, -0.109375000, 0.085937500, 0.121093750, -0.093750000, 0.277343750, -0.185546875, -0.152343750, 0.050781250, -0.279296875, 0.021484375, -0.107421875, 0.121093750, -0.144531250, 0.083984375, 0.228515625, -0.156250000, -0.035156250, 0.130859375, -0.109375000, -0.271484375, 0.003906250, 0.119140625, -0.109375000, 0.097656250, -0.046875000, 0.263671875, 0.085937500, 0.093750000, -0.132812500, -0.117187500, -0.015625000, -0.222656250, 0.300781250, -0.232421875, 0.019531250, -0.085937500, -0.128906250, -0.105468750, 0.044921875, -0.080078125, 0.103515625, 0.185546875, 0.041015625, -0.097656250, -0.125000000, -0.189453125, 0.119140625, 0.125000000, 0.136718750, -0.029296875, 0.044921875, 0.007812500, -0.072265625, -0.117187500, -0.076171875, -0.048828125, -0.117187500, -0.123046875, 0.048828125, -0.037109375, -0.035156250, -0.109375000, -0.072265625, 0.082031250, -0.095703125, 0.105468750, 0.304687500, 0.292968750, 0.107421875, -0.099609375, -0.099609375, -0.095703125, -0.171875000, -0.027343750, 0.150390625, 0.085937500, 0.013671875, 0.152343750, -0.123046875, -0.068359375, -0.193359375, 0.142578125, -0.050781250, -0.070312500, -0.099609375, -0.001953125, 0.179687500, 0.021484375, 0.023437500, 0.013671875, -0.189453125, -0.277343750, -0.009765625, 0.132812500, -0.126953125, 0.003906250, -0.232421875, -0.150390625, -0.224609375, -0.068359375, 0.000000000, -0.158203125, -0.222656250, 0.158203125, 0.244140625, -0.218750000, -0.072265625, -0.042968750, -0.148437500, -0.046875000, 0.017578125, -0.054687500, 0.291015625, 0.105468750, 0.089843750, -0.107421875, 0.171875000, 0.179687500, 0.033203125, -0.242187500, 0.082031250, -0.117187500, -0.148437500, 0.123046875, -0.271484375, 0.042968750, -0.119140625, -0.058593750, -0.097656250, -0.273437500, 0.242187500, -0.031250000, 0.064453125, -0.091796875, -0.005859375, -0.019531250, -0.064453125, 0.164062500, -0.212890625, 0.042968750, -0.134765625, 0.199218750, -0.001953125, -0.125000000, -0.064453125, -0.226562500, 0.074218750, 0.193359375, 0.044921875, -0.109375000, -0.218750000, -0.044921875, -0.025390625, -0.035156250, -0.068359375, 0.236328125, -0.179687500, 0.017578125, 0.007812500, -0.152343750, 0.181640625, 0.261718750, 0.015625000, -0.093750000, -0.193359375, -0.087890625, 0.005859375, -0.003906250, 0.048828125, -0.050781250, 0.113281250, 0.267578125, -0.294921875, 0.146484375, 0.296875000, 0.064453125, 0.195312500, 0.150390625, 0.177734375, 0.082031250, 0.111328125, 0.232421875, 0.033203125, 0.046875000, -0.033203125, -0.179687500, -0.013671875, -0.001953125, 0.003906250, 0.095703125, 0.244140625, -0.056640625, -0.060546875, -0.126953125, -0.095703125, -0.128906250, 0.025390625, 0.070312500, -0.191406250, -0.080078125, 0.031250000, -0.259765625, -0.183593750, -0.097656250, 0.103515625, 0.068359375, 0.044921875, 0.195312500, -0.029296875, -0.009765625, 0.101562500, 0.148437500, 0.033203125, -0.132812500, 0.015625000, 0.044921875, 0.033203125, -0.082031250, -0.167968750, -0.062500000, 0.027343750, 0.136718750, 0.138671875, 0.007812500, -0.205078125, -0.138671875, 0.074218750, -0.091796875, -0.109375000, -0.091796875, 0.160156250, 0.136718750, -0.136718750, 0.255859375, 0.019531250, -0.087890625, -0.144531250, 0.162109375, 0.216796875, 0.255859375, 0.144531250, 0.228515625, -0.050781250, -0.017578125, -0.183593750, 0.123046875, -0.134765625, 0.195312500, -0.177734375, -0.015625000, -0.148437500, 0.134765625, 0.033203125, -0.197265625, -0.177734375, -0.019531250, 0.277343750, 0.191406250, 0.007812500, 0.125000000, -0.003906250, -0.017578125, -0.156250000, -0.031250000, 0.193359375, -0.015625000, -0.074218750, 0.015625000, 0.009765625, -0.212890625, -0.076171875, -0.160156250, -0.097656250, -0.113281250, 0.132812500, -0.132812500, -0.205078125, 0.060546875, 0.003906250, -0.300781250, -0.095703125, -0.009765625, 0.292968750, -0.027343750, -0.113281250, 0.044921875, 0.105468750, 0.126953125, -0.046875000, -0.134765625, -0.164062500, 0.138671875, 0.218750000, 0.169921875, 0.242187500, -0.033203125, 0.046875000, -0.013671875, 0.171875000, 0.009765625, 0.119140625, 0.037109375, 0.017578125, -0.162109375, 0.029296875, 0.261718750, 0.150390625, 0.201171875, 0.076171875, 0.009765625, 0.267578125, 0.099609375, -0.091796875, 0.199218750, 0.095703125, 0.019531250, -0.175781250, 0.214843750, 0.060546875, 0.074218750, -0.128906250, -0.058593750, 0.250000000, 0.304687500, 0.101562500, 0.035156250, 0.019531250, 0.070312500, 0.195312500, 0.003906250, 0.103515625, 0.064453125, -0.146484375, -0.275390625, 0.085937500, -0.099609375, 0.277343750, -0.019531250, 0.052734375, -0.041015625, -0.210937500, 0.189453125, -0.146484375, -0.011718750, 0.007812500, -0.236328125, -0.046875000, -0.044921875, 0.039062500, 0.103515625, 0.076171875, -0.224609375, 0.216796875, 0.189453125, 0.099609375, -0.015625000, -0.041015625, -0.142578125, 0.035156250, -0.052734375, 0.197265625, -0.111328125, 0.296875000, 0.251953125, -0.117187500, 0.021484375, 0.128906250, -0.076171875, 0.005859375, 0.054687500, -0.152343750, 0.095703125, 0.134765625, 0.046875000, 0.019531250, 0.054687500, 0.083984375, 0.046875000, 0.152343750, -0.267578125, -0.136718750, -0.148437500, 0.125000000, -0.109375000, -0.123046875, 0.189453125, 0.152343750, -0.158203125, 0.300781250, -0.078125000, -0.031250000, 0.291015625, -0.150390625, 0.269531250, -0.136718750, 0.095703125, -0.027343750, -0.154296875, -0.039062500, 0.054687500, 0.064453125, 0.179687500, 0.185546875, 0.189453125, -0.056640625, 0.056640625, 0.082031250, 0.078125000, -0.060546875, 0.154296875, -0.017578125, 0.044921875, -0.166015625, 0.208984375, -0.095703125, -0.060546875, 0.103515625, 0.044921875, 0.019531250, 0.101562500, -0.060546875, 0.044921875, -0.037109375, -0.199218750, 0.125000000, 0.046875000, 0.101562500, 0.130859375, 0.238281250, -0.109375000, 0.125000000, -0.140625000, 0.234375000, -0.085937500, 0.031250000, 0.015625000, 0.226562500, 0.220703125, -0.015625000, 0.039062500, 0.011718750, -0.083984375, 0.173828125, -0.136718750, -0.033203125, 0.123046875, 0.015625000, -0.117187500, -0.033203125, 0.298828125, -0.160156250, -0.121093750, -0.035156250, -0.064453125, 0.238281250, -0.078125000, -0.064453125, 0.089843750, -0.041015625, -0.025390625, 0.123046875, -0.019531250, -0.201171875, -0.068359375, 0.123046875, -0.078125000, 0.281250000, 0.113281250, -0.220703125, -0.125000000, 0.103515625, -0.242187500, -0.152343750, -0.005859375, -0.179687500, 0.121093750, -0.222656250, 0.273437500, 0.140625000, 0.041015625, -0.220703125, 0.207031250, 0.029296875, 0.119140625, 0.257812500, 0.261718750, 0.156250000, 0.048828125, 0.023437500, 0.041015625, -0.117187500, -0.203125000, 0.142578125, 0.205078125, 0.144531250, 0.119140625, 0.152343750, -0.142578125, -0.185546875, -0.062500000, 0.000000000, 0.070312500, 0.078125000, 0.031250000, 0.062500000, 0.078125000, 0.203125000, -0.255859375, 0.033203125, -0.212890625, -0.101562500, 0.066406250, 0.134765625, -0.021484375, -0.078125000, -0.035156250, -0.095703125, -0.101562500, -0.281250000, -0.042968750, 0.083984375, 0.111328125, 0.017578125, 0.015625000, -0.085937500, 0.152343750, 0.294921875, -0.183593750, -0.119140625, 0.271484375, 0.091796875, 0.298828125, -0.001953125, 0.064453125, -0.111328125, -0.058593750, -0.134765625, 0.166015625};

#endif

#endif
