//Numpy array shape [64, 10]
//Min -3.236328125000
//Max 1.544921875000
//Number of zeros 0

#ifndef W14_H_
#define W14_H_

#ifndef __SYNTHESIS__
weight14_t w14[640];
#else
weight14_t w14[640] = {-0.394531250, -1.080078125, -1.275390625, -0.669921875, 0.269531250, 0.257812500, -0.851562500, 0.015625000, 1.212890625, -0.324218750, -0.017578125, -0.976562500, 0.519531250, -0.072265625, -0.634765625, -0.468750000, 0.183593750, -0.960937500, 0.289062500, -0.087890625, -0.953125000, -0.019531250, -0.130859375, 0.361328125, -0.673828125, 0.085937500, 0.699218750, 0.199218750, -0.082031250, -0.070312500, -0.244140625, 0.343750000, 0.058593750, 0.101562500, 0.716796875, -0.218750000, -0.654296875, -1.238281250, 0.308593750, 0.126953125, -0.146484375, -0.267578125, 0.023437500, 0.773437500, -0.625000000, -0.810546875, 0.289062500, -0.115234375, -0.242187500, -0.302734375, 0.048828125, 0.162109375, -1.365234375, -0.246093750, 0.070312500, 1.312500000, 0.042968750, -1.009765625, -0.472656250, 0.484375000, 0.373046875, -0.416015625, -0.919921875, -0.027343750, -1.281250000, 0.425781250, -0.615234375, 0.388671875, -0.033203125, 0.195312500, -0.378906250, 0.177734375, 0.361328125, 0.488281250, 0.001953125, -0.244140625, -0.941406250, 0.230468750, 0.496093750, 0.642578125, 0.093750000, -0.095703125, -0.601562500, 0.160156250, 0.539062500, 0.037109375, -2.650390625, 0.492187500, -0.017578125, 0.408203125, -3.046875000, -1.296875000, -0.830078125, 1.330078125, 0.318359375, 0.164062500, 1.191406250, 0.746093750, -2.257812500, -0.740234375, 0.005859375, 0.291015625, 0.376953125, 0.539062500, -0.728515625, -1.458984375, -0.912109375, 0.117187500, -0.433593750, 0.937500000, -0.050781250, 0.730468750, 0.496093750, -1.048828125, -1.072265625, 0.523437500, 0.826171875, 0.458984375, -0.185546875, 0.267578125, -2.074218750, -0.898437500, -0.390625000, 0.669921875, 1.451171875, -1.273437500, -1.201171875, 0.201171875, -1.285156250, 0.595703125, 0.062500000, 0.113281250, 0.187500000, 0.261718750, -0.083984375, -0.230468750, -0.091796875, -0.062500000, 0.003906250, -0.062500000, -0.291015625, 0.500000000, 0.804687500, -1.169921875, 0.664062500, -1.341796875, -1.005859375, 0.388671875, -0.341796875, 0.214843750, 0.390625000, 0.064453125, -0.300781250, 0.583984375, 0.019531250, 0.166015625, 0.441406250, -0.410156250, 0.312500000, -0.945312500, 0.080078125, 0.027343750, 0.861328125, 1.126953125, -1.992187500, 0.609375000, 0.150390625, -1.138671875, 0.136718750, -1.115234375, 1.013671875, 0.664062500, -0.572265625, -0.820312500, 0.517578125, -2.355468750, 0.480468750, 0.609375000, -0.093750000, 0.023437500, 0.111328125, -1.048828125, 0.125000000, -0.246093750, -0.070312500, 0.107421875, 0.246093750, 0.101562500, 0.226562500, -0.142578125, 0.117187500, -1.263671875, 0.123046875, 0.494140625, -0.843750000, 0.201171875, -0.082031250, -0.328125000, -0.162109375, -0.125000000, 0.974609375, -0.056640625, -0.982421875, 0.058593750, -1.015625000, 0.720703125, -0.214843750, -1.908203125, -0.646484375, 0.453125000, 0.431640625, -0.265625000, -0.232421875, 0.546875000, -0.228515625, -0.541015625, -0.414062500, 0.056640625, 0.269531250, -0.414062500, -0.240234375, 1.037109375, -0.257812500, -0.103515625, -0.750000000, 0.371093750, 0.597656250, -0.263671875, -1.384765625, 0.634765625, -0.457031250, -0.365234375, 0.748046875, 0.208984375, 0.068359375, 0.652343750, -2.246093750, 0.105468750, -0.056640625, 0.085937500, -1.369140625, 0.166015625, -1.595703125, -0.035156250, 0.207031250, -0.410156250, -0.027343750, 0.326171875, 0.476562500, 0.103515625, 0.572265625, -0.140625000, 0.035156250, 0.515625000, -1.574218750, 1.072265625, 0.220703125, 0.281250000, 0.548828125, -1.736328125, -0.462890625, 0.308593750, 1.009765625, -0.503906250, 0.218750000, 0.042968750, 0.326171875, 0.769531250, -0.974609375, -1.748046875, -0.044921875, 0.062500000, 0.263671875, -0.427734375, 0.740234375, -0.912109375, 0.494140625, -0.251953125, 0.007812500, 0.201171875, -1.509765625, 0.812500000, 0.779296875, -0.058593750, 0.433593750, -0.488281250, -1.677734375, 0.535156250, -1.244140625, -0.152343750, 0.300781250, -0.919921875, 0.519531250, 0.335937500, -0.216796875, -0.009765625, -0.236328125, -0.464843750, 0.679687500, 0.089843750, 0.369140625, -0.833984375, 0.072265625, 0.068359375, -0.458984375, 0.308593750, -0.275390625, -0.283203125, 0.486328125, 0.107421875, -0.544921875, -0.687500000, -0.048828125, -0.046875000, 0.205078125, -0.214843750, 0.492187500, -0.158203125, 0.224609375, 0.431640625, 0.476562500, 0.074218750, 0.496093750, -0.330078125, 0.314453125, 0.564453125, 0.365234375, -1.695312500, -0.308593750, -0.646484375, 0.039062500, -0.894531250, -0.937500000, -0.248046875, -0.154296875, 0.130859375, 0.365234375, 0.390625000, 0.041015625, 0.070312500, 0.425781250, -0.078125000, -0.056640625, 0.425781250, -0.341796875, -0.310546875, 0.476562500, -1.933593750, 0.298828125, -1.072265625, -1.162109375, -1.876953125, -1.175781250, 0.945312500, 0.353515625, 0.234375000, -0.103515625, -0.410156250, -0.214843750, 0.875000000, 0.562500000, -0.097656250, -0.421875000, -1.216796875, 0.398437500, 0.496093750, 0.664062500, -0.263671875, -1.080078125, 0.820312500, -0.136718750, -0.011718750, -0.001953125, 0.240234375, 0.722656250, -0.742187500, 0.546875000, -0.246093750, 0.068359375, 0.191406250, 0.849609375, 1.470703125, -1.642578125, -0.808593750, -1.740234375, 0.890625000, 0.232421875, -0.205078125, -0.074218750, -0.322265625, -0.021484375, -1.412109375, -0.382812500, 0.117187500, -0.027343750, -0.292968750, 0.492187500, -0.191406250, -0.511718750, 0.693359375, 1.183593750, 0.408203125, -1.265625000, -1.033203125, 0.859375000, -0.253906250, 0.169921875, 0.363281250, 0.337890625, 0.281250000, -0.345703125, 1.218750000, 0.220703125, 0.613281250, -0.261718750, -0.740234375, -1.771484375, 0.796875000, -0.673828125, -0.205078125, 0.121093750, -0.349609375, -0.037109375, -0.966796875, 0.294921875, -0.031250000, 0.281250000, 0.093750000, 0.476562500, -0.115234375, 0.474609375, 0.687500000, 0.746093750, -0.644531250, 0.582031250, -0.787109375, 0.085937500, 1.103515625, -1.093750000, -0.175781250, 0.429687500, -0.054687500, 1.236328125, -0.361328125, -0.908203125, 0.996093750, -1.177734375, 1.283203125, -1.109375000, -0.478515625, -0.312500000, 1.128906250, -1.751953125, 0.044921875, -0.287109375, 0.705078125, 0.757812500, -0.021484375, -0.458984375, 0.031250000, -1.136718750, 0.839843750, 0.119140625, -0.025390625, 0.755859375, -0.166015625, -1.599609375, 1.128906250, 0.357421875, -0.976562500, -1.179687500, 0.615234375, 0.732421875, 0.593750000, -1.572265625, -0.228515625, 0.095703125, -0.175781250, 0.861328125, -1.683593750, -0.732421875, 1.236328125, 0.423828125, -0.892578125, 0.746093750, 0.281250000, -0.617187500, -0.580078125, -2.419921875, 0.669921875, 0.650390625, 0.238281250, 1.458984375, -0.689453125, 0.703125000, -0.431640625, -0.078125000, 0.666015625, -1.957031250, -1.113281250, 0.248046875, -0.115234375, -0.437500000, -0.699218750, 0.363281250, -0.119140625, 0.708984375, 0.400390625, 0.091796875, 0.132812500, -3.236328125, 0.503906250, 1.544921875, 0.386718750, 0.119140625, 0.535156250, -1.093750000, -1.076171875, -0.318359375, -0.574218750, 0.195312500, 1.210937500, -0.746093750, -0.486328125, 0.525390625, 0.091796875, -0.480468750, 0.468750000, -0.445312500, -0.259765625, 0.148437500, -0.015625000, -0.230468750, 0.251953125, -0.228515625, -0.242187500, -1.275390625, 0.343750000, -0.595703125, 0.666015625, 0.001953125, -0.150390625, 0.578125000, -1.056640625, 0.273437500, -0.458984375, -0.001953125, -1.603515625, 0.675781250, -0.462890625, -0.255859375, -1.382812500, -1.314453125, -0.257812500, 0.535156250, 0.970703125, -0.160156250, -0.658203125, 0.658203125, -0.123046875, 0.455078125, 1.470703125, -0.222656250, -0.105468750, -0.796875000, -0.210937500, -0.087890625, -0.119140625, 1.042968750, -1.845703125, -1.765625000, -0.388671875, 0.248046875, 0.316406250, 0.054687500, 0.429687500, -0.296875000, -0.259765625, 0.412109375, -0.271484375, -0.029296875, -0.205078125, -0.232421875, 0.136718750, -0.208984375, -0.074218750, 0.310546875, 0.013671875, 0.199218750, 0.281250000, 1.044921875, 0.240234375, 0.630859375, -1.113281250, 0.191406250, 0.337890625, 0.558593750, -0.183593750, -0.662109375, -0.677734375, 0.216796875, -0.509765625, 0.429687500, 0.205078125, -2.039062500, 0.714843750, -0.113281250, 0.201171875, 0.726562500, -0.283203125, -0.654296875, 0.156250000, 0.126953125, -0.218750000, -0.193359375, -0.078125000, 0.453125000, -0.523437500, 0.611328125, -0.335937500, 0.535156250, 0.804687500, -0.250000000, -2.246093750, 0.376953125, -0.908203125, -0.751953125, 0.521484375, 0.427734375, 1.019531250, -0.871093750, -1.111328125, 0.037109375, -0.472656250, 0.388671875, -0.044921875, 0.962890625, 0.330078125, -0.449218750, 0.312500000};

#endif

#endif
