//Numpy array shape [196, 20]
//Min -14.750000000000
//Max 6.375000000000
//Number of zeros 143

#ifndef W10_H_
#define W10_H_

#ifndef __SYNTHESIS__
weight10_t w10[3920];
#else
weight10_t w10[3920] = {-7.125, 2.000, -2.750, 1.750, 0.125, -4.000, 0.375, 0.625, -3.750, 1.500, 4.250, -0.125, 3.500, 0.375, -2.000, -7.125, -3.250, 0.500, 1.250, -0.500, -2.875, 1.750, -6.000, 0.125, -1.500, -10.125, 1.625, -0.375, -1.125, 2.875, 4.625, 0.000, 4.000, 0.750, -2.250, -9.125, -3.000, -1.625, -0.625, -0.875, -3.375, 1.250, -7.000, -0.125, -1.125, -9.125, -1.250, -1.625, -3.000, 1.750, 3.375, -1.125, 1.625, 0.000, -2.625, -10.625, -2.125, 0.875, -0.625, 0.875, -3.250, 1.000, -5.375, 0.375, -1.250, -11.375, 0.875, 0.250, -0.750, 1.750, 4.000, 0.875, -0.500, 0.625, -3.625, -6.500, -2.125, -1.250, -2.000, 0.000, -2.250, 1.000, -5.250, 0.125, -1.750, -6.750, 0.625, -1.000, -1.000, 1.625, 3.875, 0.875, 2.375, 0.500, -1.625, -5.125, -2.750, 1.250, -0.125, 0.250, -2.625, 1.250, -4.750, 0.250, -1.375, -9.875, 0.375, 1.000, 0.000, 2.500, 4.000, 1.500, 2.000, 0.250, -1.875, -1.375, -3.125, -1.125, -0.750, -0.625, -2.625, 1.375, -4.375, 0.125, -2.000, -7.875, 0.250, 0.250, -1.125, 1.750, 4.375, 1.375, 2.750, 0.625, -2.500, 0.875, -4.375, 1.750, 0.125, 0.750, -2.000, 1.375, -2.750, 2.750, -1.375, -11.250, 3.000, 1.000, -1.000, 1.875, 4.250, 0.875, 0.875, 0.875, -3.625, 1.875, -3.875, 1.500, 1.250, 1.375, -1.750, 0.875, -5.875, -0.125, -1.500, -10.125, 1.250, -0.250, -1.625, 2.750, 4.250, -1.500, 1.125, -0.375, -2.500, 1.875, -6.000, 0.375, 0.750, 1.500, -2.000, 1.000, -4.625, -0.250, -1.625, -9.625, 0.750, -0.500, -0.625, 2.750, 4.375, -2.125, -0.125, 0.625, -2.750, 1.500, -2.625, -0.375, -1.500, 0.000, -3.000, 0.500, -4.875, 0.375, -1.875, -10.625, 1.500, 0.375, -1.875, 1.875, 4.375, -4.125, 2.250, 1.000, -4.000, 1.125, -7.625, 0.000, -0.125, 0.875, -2.000, 0.625, -5.375, 0.750, -1.250, -9.000, 1.500, -1.375, -2.375, 2.500, 4.375, -5.500, 2.125, 0.375, -1.625, -0.125, -4.500, -0.375, 0.500, 0.125, -2.375, 0.500, -4.000, -0.500, -1.875, -8.625, 1.750, -1.000, -1.500, 3.125, 5.125, -7.500, 2.250, 1.375, -0.625, 1.750, -2.125, 2.125, -0.375, 2.125, -2.750, 1.125, -3.250, -1.750, -1.375, -9.875, 1.625, -0.875, 0.250, 2.625, 5.000, -4.375, 0.000, 1.750, -0.125, 1.000, -12.125, 1.625, 0.500, 2.125, -3.000, 1.375, -3.625, 2.375, -0.375, -8.875, -1.125, -1.750, -2.375, 1.750, 4.250, -0.250, 1.750, 1.250, -1.375, -8.000, 0.000, 1.125, 0.000, -0.625, -2.750, -1.500, -5.500, 1.125, -2.375, -8.625, 0.250, 1.625, -0.875, 1.750, 3.750, 1.375, 3.875, 1.500, -2.250, -3.250, -0.250, -2.500, -0.125, -0.125, -2.375, 0.875, -3.125, 2.125, -1.250, -3.875, 2.875, 4.750, 1.125, 1.125, 3.375, 2.250, 0.750, 0.125, -4.375, -5.500, -1.375, 0.000, -0.125, -0.125, -0.875, 0.375, -4.250, -0.125, -1.750, -6.125, 0.000, 2.875, 1.375, 2.000, 3.250, 2.250, 3.000, 0.500, -1.500, -3.625, -0.875, 0.250, -0.375, 1.500, -1.875, 1.250, -3.000, -0.750, -1.500, -5.000, 0.500, 3.000, 1.375, 1.875, 2.875, 2.000, 2.250, 0.250, -4.250, 1.375, -0.375, 1.125, -0.875, 0.750, -1.375, 0.875, -3.750, 1.625, -1.250, -5.375, 2.500, 2.875, 0.875, 1.500, 2.125, 0.500, 1.375, 0.250, 0.125, 0.750, -0.625, -0.625, -1.250, 0.375, -1.375, 1.125, -4.250, 0.500, -1.250, -6.750, 4.125, 1.750, 1.875, 1.875, 2.500, 1.250, 1.125, -0.375, -1.375, 1.875, -1.500, -0.625, -5.250, 0.625, -1.000, 0.500, -3.375, 0.375, -1.375, -9.000, 3.375, 2.250, 1.375, 1.625, 2.250, 0.500, 0.125, -0.250, -4.625, 2.000, -2.125, -1.125, -0.125, 0.500, -1.125, 1.250, -5.250, -0.375, -2.000, -6.750, 2.750, 0.125, 1.250, 1.000, 2.250, 0.750, 1.625, 0.000, -3.375, 1.500, -5.250, -0.125, -3.625, 0.750, -1.250, 1.375, -4.500, 1.750, -1.250, -8.750, 0.875, 2.750, 0.500, 1.250, 2.625, -2.125, 1.750, 1.125, 0.125, 2.500, -1.750, 0.500, -6.000, 0.875, -1.625, 1.500, -4.250, 0.125, -2.500, -6.000, 2.375, -0.125, -0.125, 1.250, 2.875, -5.375, 1.375, -0.375, -3.250, 1.250, -4.000, 0.250, 1.375, 0.250, -2.000, 0.875, -3.875, 0.375, -1.875, -10.375, 1.875, -1.000, -1.000, 1.875, 2.750, -2.875, -0.500, 0.250, -2.000, 0.625, -2.000, -0.625, -1.750, 0.000, -0.875, 1.000, -4.500, -0.125, -1.625, -11.750, 2.125, 0.625, -0.625, 1.750, 4.250, -5.500, 1.000, -1.000, -1.250, 2.500, -2.625, -1.250, -1.750, 2.000, -0.875, 0.750, -5.000, -2.250, -2.625, -7.875, -0.500, -2.750, -1.250, 1.375, 3.625, -5.000, 0.375, 0.750, -1.875, -0.625, -6.375, 0.875, -1.375, 0.875, -2.500, 0.875, -4.500, 2.250, -0.625, -6.750, -0.250, 3.250, -0.750, 3.375, 5.250, 1.125, 2.500, -0.375, -0.750, -9.500, -2.000, -0.500, -0.250, -1.625, -1.375, -0.375, -4.250, 1.125, -1.125, -3.375, -0.500, 2.750, -0.750, 2.750, 3.250, 2.750, 2.000, -1.500, -4.500, -10.375, -0.375, -1.375, 1.000, -0.500, -1.500, 1.625, -3.375, 0.750, -1.125, -5.250, 1.125, 3.750, 1.875, 0.750, 2.625, 1.375, 1.500, 0.250, -3.125, -5.500, -1.375, -0.250, 0.125, 0.000, -1.625, 1.000, -3.375, -0.250, -1.750, -5.125, 1.750, 3.000, 1.500, 0.500, 1.625, 1.125, 1.625, 0.125, -0.250, -4.875, -0.875, 0.500, -1.250, -0.250, -1.250, 1.375, -3.250, 0.250, -1.500, -2.250, 0.875, 2.875, 1.375, 1.000, 2.500, 2.375, 1.000, 0.500, -3.875, -2.375, -0.500, 0.750, -1.250, 0.250, -1.375, 1.375, -3.375, 0.500, -0.750, -3.125, 2.625, 2.500, 2.375, 0.000, 1.125, 1.000, 1.500, 0.375, -3.000, 0.875, -0.500, 0.875, -2.375, 0.000, -1.125, 1.125, -2.625, 0.125, -0.500, -1.000, 2.750, 1.375, 1.375, 0.625, 1.625, 0.875, 1.000, -0.750, -3.875, 1.500, -3.500, -0.125, -5.375, -1.875, -0.625, 0.625, -3.125, 0.000, -1.375, -0.125, 2.000, 0.750, 1.375, 0.875, 2.125, 1.000, 2.375, 0.625, -2.500, 1.000, -1.500, 1.125, -2.250, 0.375, -0.875, 0.625, -3.250, 0.250, -1.375, -3.625, 2.250, 0.375, 0.875, 0.750, 2.125, 0.875, 1.250, 0.375, -4.125, 1.875, -2.625, 0.625, -4.500, -1.000, -1.250, 0.500, -3.500, 0.375, -1.375, -4.250, 2.875, 0.500, 1.000, 1.250, 1.750, 0.500, 0.000, 0.000, -5.250, 2.250, -4.875, 1.125, -0.500, -1.500, -1.250, 1.125, -3.375, 0.375, -1.375, -5.875, 2.875, 0.250, 0.875, 1.750, 3.125, -1.625, -0.250, 0.000, -3.750, 3.250, -2.750, -0.875, -0.375, -0.875, -0.875, 0.500, -5.000, 0.500, -1.250, -6.875, 2.750, 1.250, 0.500, 1.500, 2.250, -4.375, 0.875, -0.875, -3.000, 1.250, -2.375, -0.750, 0.000, 0.125, -1.250, 1.125, -5.625, 0.125, -1.875, -8.125, 1.750, 0.125, -1.000, 1.875, 3.125, -2.625, 1.625, -0.250, -2.125, 2.375, -3.375, -0.500, -1.250, 0.625, -1.750, 0.500, -5.125, -0.375, -2.250, -14.750, 1.000, -0.375, -0.250, 1.000, 3.125, -10.000, 1.250, 0.375, -0.750, 0.000, -5.125, 1.125, -0.500, 0.250, -3.375, 1.250, -4.125, 2.125, -1.375, -9.375, -1.000, 3.250, 0.250, 2.125, 3.500, 1.250, 0.500, 1.125, -1.500, -8.250, 0.375, 0.250, -1.125, -0.375, -2.750, 1.125, -4.375, -0.750, -1.875, -10.750, -2.125, 0.250, -0.750, 1.375, 3.000, 1.125, 1.875, 0.250, -0.375, -4.500, -0.875, 0.500, -1.500, -0.625, -1.375, 1.125, -3.500, -1.375, -1.625, -4.375, 0.250, 3.250, 2.000, 1.125, 2.375, 2.250, 0.875, 0.875, -0.500, -7.625, -0.500, -0.125, -2.750, -0.375, -1.625, 1.000, -3.750, -0.750, -0.750, -5.875, -1.000, 2.625, 0.875, 1.250, 2.000, 2.000, 1.250, 0.125, -1.875, 1.000, 0.250, -0.625, -6.000, -0.250, -1.125, 1.375, -2.625, 0.125, -0.875, -1.625, 0.875, 2.375, 1.250, 0.500, 1.500, 2.375, 1.750, 0.250, -4.125, -0.500, -0.500, 1.000, -5.250, 0.625, -1.000, 1.500, -1.750, -0.250, -0.625, 0.375, 2.000, 1.375, 2.000, 0.625, 1.750, 0.625, 1.500, 0.250, -3.500, 1.125, -1.125, 0.375, -1.375, -1.375, -1.125, 1.250, -1.625, 0.375, 0.125, 1.250, 0.875, 1.750, 1.250, 0.125, 1.500, 0.625, 1.000, 0.000, -2.125, -0.625, -1.500, 0.375, -1.625, -1.375, -0.625, 1.250, -1.375, 0.000, -0.625, 0.500, 1.625, 1.625, 1.375, 0.500, 1.125, 0.875, 1.500, -0.250, -4.000, 0.375, -1.625, 0.375, -1.750, -0.875, -0.125, 1.125, -1.750, 0.000, -1.250, 0.875, 1.625, 2.000, 1.625, 0.625, 1.500, 0.625, 1.500, -0.125, -3.000, 0.500, -1.000, 0.500, -1.625, 0.375, 0.500, 1.125, -2.625, 0.250, -1.500, 0.125, 2.000, 1.500, 2.000, 1.375, 2.000, -0.750, 1.250, -0.500, -3.250, 2.000, -1.250, 0.500, -2.875, -1.125, -0.750, 0.500, -3.250, -0.500, -1.375, -2.875, 2.875, 0.500, 1.125, 0.875, 1.375, -2.500, 0.625, -0.375, -4.000, 2.375, -1.625, 0.250, -0.250, -0.625, -1.500, 1.125, -3.125, -0.125, -1.750, -3.500, 3.500, 0.125, 1.375, 0.875, 2.375, -2.250, 1.250, -0.250, -4.000, 2.375, -4.000, 0.625, 0.500, 0.250, -1.125, 0.750, -4.750, 0.875, -1.375, -7.500, 3.750, -0.750, 0.625, 1.375, 2.500, -6.625, -0.375, -1.625, -3.875, 2.750, -2.000, 1.625, 0.125, -0.125, 0.000, 0.000, -5.250, 0.375, -1.875, -13.625, 2.375, -1.125, -0.875, 1.500, 4.000, -8.125, 1.500, -0.125, 0.375, 2.375, -3.625, 0.625, -3.500, 3.625, -3.125, 0.875, -4.250, 1.875, -1.375, -7.000, -5.000, 2.000, -1.375, 0.875, 3.875, 1.375, 1.375, 0.250, -2.125, -10.500, -0.875, 1.000, -0.125, -1.250, -1.375, 0.875, -4.000, 1.125, -1.125, -4.750, 0.125, 3.250, 1.000, 0.750, 1.875, 2.000, 1.750, -0.875, -5.750, -8.625, 0.125, 0.500, 0.125, 0.125, -1.375, 0.750, -3.250, -0.375, -1.375, -2.000, -1.750, 2.625, 1.000, 1.000, 1.750, 2.125, 1.500, 0.375, -2.375, -7.125, -0.125, 0.625, -5.250, 0.000, -1.375, 1.125, -2.375, -1.500, -1.250, -0.375, -1.125, 2.000, 1.125, 1.000, 1.875, 1.750, 1.625, 0.250, -2.250, -3.750, 0.750, 0.000, -4.500, 0.375, -0.875, 1.500, -1.625, 0.250, -0.500, 1.000, 1.625, 1.375, 1.250, 0.375, 1.375, 1.000, 0.500, -0.500, -4.500, 0.125, -0.500, 0.750, -1.750, 0.125, -0.625, 1.250, -1.250, 1.500, 0.125, 0.625, 1.000, 1.125, 0.250, 0.000, 1.000, 0.750, 0.125, -1.000, -4.000, 0.125, -0.500, 1.250, -0.625, 0.125, -0.500, 1.250, -1.125, 0.625, 0.000, 0.375, 0.625, 0.875, 0.125, 0.375, 0.875, 0.750, 0.000, -0.875, -3.125, -0.125, -1.750, 0.500, 0.125, 0.375, 0.000, 1.250, -1.000, 0.250, -0.500, 0.375, 0.500, 1.125, 0.625, 0.375, 0.625, 0.375, 0.125, -1.000, -3.750, 0.000, -1.625, 0.625, 0.375, 0.000, 0.000, 1.125, -1.125, 0.000, -0.750, 0.625, 0.875, 1.250, 1.000, 0.375, 0.875, 0.625, 0.750, -1.250, -3.125, 0.000, -1.000, 0.625, -0.375, 0.250, 0.250, 1.125, -1.500, 0.250, -0.875, 1.375, 1.375, 1.750, 1.500, 0.875, 1.250, -0.250, 0.375, -1.125, -2.375, 0.375, -1.875, 0.375, -1.500, -0.875, 1.000, 1.375, -2.375, 0.500, -1.250, -0.375, 2.000, 1.125, 2.125, 0.125, 1.500, -3.875, 1.500, -2.125, -3.500, 1.375, -0.250, -0.125, -0.250, -1.125, 0.125, 0.625, -3.375, 0.000, -2.000, -2.250, 3.250, -0.125, 2.125, 1.250, 1.625, -5.875, 0.875, -0.500, -5.625, 2.375, 0.625, 0.375, -1.250, -0.875, -1.125, 0.875, -3.375, 0.875, -2.125, -3.250, 2.750, -2.000, 0.625, 0.375, 1.875, -7.000, 0.000, 1.375, 0.125, 0.500, -0.375, -0.125, -1.375, 1.375, 0.000, 0.875, -4.375, 0.625, -2.125, -10.750, 3.875, -1.625, 0.750, 0.750, 3.000, -9.125, 0.625, 0.125, -1.625, 1.250, -2.375, 1.250, -2.000, 2.375, -2.000, 1.125, -3.750, 2.875, -1.375, -7.375, -0.500, 2.375, -0.625, 1.375, 3.500, 1.375, 1.375, 0.875, -1.500, -7.875, 1.125, 2.375, 0.000, 0.625, -2.000, 1.125, -3.500, 0.875, -1.500, -6.750, -1.375, 3.125, 0.000, 0.875, 2.125, 3.250, 1.375, -0.125, -2.375, -7.500, 0.000, 1.250, -7.375, 1.000, -1.250, 0.500, -2.875, -0.875, -1.125, -1.500, 0.875, 2.375, 1.625, 0.750, 1.750, 1.625, 1.250, -0.250, -5.250, -6.625, 0.625, 0.375, -2.750, -0.125, -1.000, 0.875, -1.750, 0.875, -0.250, 0.750, 1.625, 1.125, 0.875, 1.000, 1.625, 0.750, 1.750, -0.500, -2.625, -4.500, 1.000, 0.250, -2.250, 0.500, -0.875, 1.125, -1.250, 1.625, 0.375, 0.500, 1.375, 0.500, 0.000, 0.375, 1.000, 0.750, -1.000, -1.250, -4.375, 0.250, 0.250, 0.625, -0.375, -0.125, -0.250, 1.125, -0.625, 0.875, 0.125, 0.250, 0.625, -0.125, -0.125, 0.250, 0.875, 0.250, -0.500, -0.625, -3.250, 0.375, -0.125, 0.375, 0.250, 0.250, 0.000, 1.125, -0.500, 0.500, -0.125, 0.375, -0.250, 0.250, -0.250, 0.375, 0.625, 0.125, -0.250, -0.750, -2.500, 0.125, -0.250, 0.250, 0.500, 0.000, 0.125, 1.000, -0.375, 0.125, -0.375, 0.375, -0.500, 0.500, 0.000, 0.250, 0.625, 0.250, -0.375, -0.250, -1.500, 0.125, -0.250, 0.250, 0.375, 0.625, 0.000, 1.000, -0.625, 0.375, -0.375, 0.500, -0.125, 0.875, -0.125, 0.250, 0.625, 0.250, -0.250, -0.375, -3.000, 0.375, -0.375, 0.500, -0.375, 0.750, 0.250, 0.875, -1.000, 0.000, -0.625, 0.875, 0.500, 1.500, 1.000, 0.500, 1.000, 0.375, 0.875, -0.750, -3.500, 0.125, -0.500, 0.500, -1.250, 0.250, 0.500, 0.875, -1.875, 0.375, -1.250, 1.250, 1.375, 0.875, 1.750, 0.000, 1.375, -2.000, 0.750, -1.250, -2.875, 0.375, 0.000, 1.500, -2.125, -1.875, 0.125, 1.000, -2.625, 0.125, -1.375, -0.500, 2.375, 0.000, 1.750, 0.375, 1.625, -6.000, 0.125, -1.625, -3.625, 1.625, 0.250, -0.250, -0.875, -1.375, 0.250, 1.000, -3.750, 0.250, -1.875, -3.875, 2.625, -0.625, 1.750, 0.625, 2.250, -12.250, 0.875, -0.625, -4.375, 2.375, 0.375, 1.000, -0.750, -0.625, 0.125, 0.625, -4.250, 0.125, -2.000, -8.875, 0.750, -3.250, -1.250, 0.875, 2.625, -14.125, 0.125, -1.000, -3.000, 2.625, -1.750, 1.750, -1.500, 1.625, -3.875, 0.625, -3.750, 2.375, -1.125, -7.250, -2.250, 2.375, -2.250, 2.875, 3.375, 2.250, 1.375, -1.000, -2.375, -9.250, 1.500, 1.500, 0.875, -2.000, -1.375, 1.125, -3.750, 1.250, -1.750, -4.625, -0.750, 2.375, -0.375, 1.125, 2.000, 2.250, 0.500, -0.625, -3.375, -5.625, 1.125, 1.625, -6.500, 1.125, -1.250, 0.625, -2.250, 2.375, -0.375, -1.375, 2.250, 1.750, 1.250, 0.750, 1.625, 1.750, 2.125, -0.250, -3.750, -6.250, 1.750, 1.250, -2.000, -0.625, -0.875, 1.000, -1.500, 0.875, 0.000, 0.625, 2.125, 0.500, 1.500, 0.250, 1.250, 0.250, 0.000, -1.500, -3.625, -2.500, 1.125, 0.500, -1.250, -1.125, -0.625, 1.000, -0.750, 1.375, 0.000, 0.250, 1.125, 0.000, -0.125, 0.500, 0.750, 0.500, -0.375, -0.750, -3.750, 0.375, 0.375, 0.500, -0.750, -1.000, 0.000, 1.125, -0.250, 0.750, 0.000, 0.500, 0.250, -0.500, -0.125, 0.375, 0.500, 0.250, 0.000, -0.375, -1.500, 0.000, 0.250, 0.125, 0.750, -0.750, 0.125, 0.875, -0.125, 0.500, -0.125, 0.125, -0.375, -0.125, -0.250, 0.125, 0.125, -0.125, 0.500, 0.250, -0.125, 0.125, 0.125, 0.000, 0.250, 0.000, 0.125, 0.875, -0.125, -0.375, -0.250, 0.125, -0.875, -0.125, -0.125, 0.125, 0.125, -0.125, 0.500, 0.125, -0.250, -0.375, 0.250, 0.000, 0.500, 0.500, 0.125, 0.875, -0.125, -0.375, -0.500, 0.375, -0.500, 0.625, 0.125, 0.125, 0.375, 0.375, -0.375, 0.125, -1.625, 0.125, 0.000, 0.125, 0.000, 0.875, 0.375, 0.875, -0.750, -0.125, -1.125, 0.125, 0.250, 1.375, 0.625, 0.125, 0.375, 0.250, 0.000, -0.750, -3.375, 0.625, -0.250, 0.250, -1.125, 0.875, 0.125, 1.000, -1.500, -0.375, -1.125, 1.000, 1.125, 1.375, 2.000, -0.625, 1.000, -1.875, 1.125, -0.750, -3.375, -0.125, 0.375, 0.750, -1.500, 0.375, 0.250, 0.750, -2.125, 0.125, -2.000, -0.500, 2.250, 0.500, 2.125, 1.000, 1.625, -5.250, 0.500, -1.875, -4.875, 2.250, 1.000, 2.000, -1.125, 0.750, -0.125, 0.750, -3.000, 0.375, -2.500, -2.000, 4.000, -1.625, 2.375, 0.375, 1.875, -8.250, 0.875, -1.625, -5.375, 2.250, 0.875, 1.750, 0.625, 1.625, 0.000, 0.250, -4.000, -1.875, -2.125, -8.500, 3.750, -2.000, 0.750, 0.000, 3.500, -11.125, 0.750, -1.250, -3.750, 3.250, -0.875, 1.250, 1.250, 5.125, -2.125, 1.000, -3.875, 4.250, -1.875, -7.125, -2.125, 2.500, -2.250, 1.125, 3.625, 2.250, 0.250, -0.750, -2.250, -13.375, 1.875, 0.375, -1.375, 0.375, -2.000, 1.000, -3.250, 2.000, -1.625, -2.125, 0.125, 3.250, 0.250, 1.750, 1.625, 1.875, -0.250, -1.375, -5.375, -7.625, 2.875, 0.250, -2.625, 1.250, -1.125, 1.250, -2.250, 1.875, -1.250, -1.250, 1.250, 1.875, 1.000, -0.375, 1.125, 1.750, 0.875, -1.375, -3.375, -6.875, 1.500, 0.375, -1.875, 0.625, -1.125, 0.750, -1.250, 1.750, -1.000, 0.500, 2.250, 0.625, 0.875, 0.250, 0.875, 0.875, 1.625, -1.625, -2.750, -2.875, 1.250, 0.250, -0.750, -0.875, -0.500, 1.000, -0.375, 1.500, -0.375, -0.125, 1.500, -0.125, 0.125, 0.125, 0.500, 1.000, 0.500, -1.250, -4.875, 0.250, 0.125, 0.000, 0.125, -1.250, -0.125, 0.875, 0.125, 0.125, -0.500, 0.375, 0.500, -0.375, 0.250, 0.000, 0.250, -0.125, -0.250, -0.250, -1.500, 0.125, -0.125, -1.125, 1.000, -1.125, -0.125, 0.875, 0.375, 0.125, 0.000, -0.250, -0.250, -0.375, 0.000, -0.375, -0.125, 0.000, 0.250, 0.250, 0.125, 0.375, 0.125, -4.875, 0.625, -0.500, -0.125, 0.875, 0.375, -0.500, 0.000, -0.375, -0.375, -0.125, 0.000, -0.500, -0.125, 0.250, 0.125, 0.125, 0.000, -0.125, 0.125, -7.500, 0.875, -0.125, -0.375, 1.000, 0.125, -0.625, -0.875, 0.375, -0.250, 0.500, 0.375, -0.125, 0.000, 0.000, -0.500, 0.125, -1.750, -0.125, 0.250, -1.750, 0.250, 0.500, -0.625, 0.750, -0.375, 0.125, -1.250, 0.125, 0.375, 1.500, 0.875, 0.125, 0.125, 0.250, 0.500, -0.625, -2.125, 0.625, 0.375, -0.250, -1.125, 0.375, -0.250, 0.875, -1.125, 0.125, -2.375, 1.000, 1.375, 1.750, 2.000, -0.375, 0.750, -2.750, 1.500, -0.875, -4.375, 0.750, 0.500, 0.000, -0.875, 0.000, -0.250, 0.625, -1.625, 0.875, -1.375, -0.625, 2.375, 2.000, 2.250, -0.750, 1.000, -6.375, 0.875, -3.250, -3.375, 1.625, 1.125, 0.625, -0.375, 0.000, -1.250, 0.625, -2.875, 0.375, -1.875, -4.000, 3.000, 1.375, 0.625, 0.750, 2.125, -9.625, -0.625, -3.375, -5.375, 3.375, 0.750, 0.875, 0.750, 2.500, -0.875, 1.125, -3.250, 0.000, -2.750, -7.500, 3.875, -0.250, 1.625, -0.875, 3.500, -12.000, -0.125, -3.250, -3.625, 1.625, 0.000, -0.375, 2.000, 4.125, -2.000, 1.125, -4.375, 5.000, -3.875, -10.375, -0.250, 3.750, -1.250, -1.875, 1.750, 0.500, -0.125, -1.375, -1.875, -8.125, 2.375, -1.250, -2.250, 0.875, -0.250, 0.750, -2.250, 2.500, -3.500, -1.500, -3.875, 3.375, 0.750, 0.625, 2.375, 3.125, 0.125, -3.000, -3.000, -10.000, 3.125, 1.875, -4.250, 3.375, -0.750, 0.500, -2.000, 2.375, -2.125, -0.875, 2.250, 2.000, 1.500, -0.250, 1.125, 1.500, 1.375, -2.375, -3.250, -6.875, 1.875, 0.625, -0.875, 0.500, -0.500, 1.000, -1.250, 2.000, -2.375, 0.375, 2.625, 1.375, 1.500, -1.000, 0.500, 0.875, 2.625, -1.250, -3.500, -3.250, 1.000, 0.500, -1.375, 0.625, -0.375, 1.000, -0.375, 1.625, -3.125, 0.375, 2.000, 0.000, 0.375, -0.375, 0.375, 0.250, 0.875, -1.250, -2.875, 0.250, 0.375, -0.375, 0.000, 0.125, -0.750, 1.000, 0.125, 0.250, -0.625, 0.000, 0.875, 0.000, 0.375, -0.500, -0.125, 0.500, -1.750, -0.750, -2.250, 0.125, 0.000, -2.500, 0.125, -0.375, -0.125, 0.875, 0.250, 0.000, -1.000, 0.125, 0.375, -0.250, 0.500, -0.500, 0.000, 0.000, -0.875, 0.125, -1.000, 0.250, 0.375, -4.375, 0.000, -0.375, -0.500, 0.750, 0.125, -0.500, -0.500, 0.375, 0.000, 0.000, 0.375, -0.625, 0.000, -0.125, -0.625, 0.250, -0.250, 0.125, 0.000, -4.125, 0.125, 0.000, -0.375, 0.875, 0.000, -0.250, -1.875, 0.125, 0.250, 0.750, 0.750, -1.125, -0.250, 0.125, 0.625, -0.375, -1.875, 0.375, 0.000, -1.000, -0.375, 0.250, 0.000, 1.000, -0.500, 0.875, -2.750, 0.875, 0.750, 1.625, 1.125, -1.250, 0.000, -1.750, 1.500, -0.375, -2.750, 0.750, 0.000, 0.125, -0.625, -1.250, 0.125, 0.875, -0.750, 0.250, -1.875, 1.375, 1.500, 2.250, 1.625, -0.625, 0.750, -1.625, 0.625, -1.500, -3.625, 1.000, -0.375, 0.000, -0.375, 1.000, -1.625, 0.750, -1.375, 0.250, -2.125, 0.875, 2.625, 0.375, 2.000, -0.375, 1.500, -1.625, 0.125, -2.000, -3.750, 2.000, 0.625, 0.250, 0.625, -1.750, -0.250, 0.750, -2.750, 0.750, -1.000, -1.625, 4.875, 0.125, 3.375, -1.625, 1.500, -6.125, -0.250, -4.875, -6.000, 1.375, 2.750, 0.375, -0.875, 3.750, 0.750, 0.500, -3.375, 1.500, -1.625, -7.875, 2.250, -0.875, 0.750, -1.375, 3.500, -13.750, -0.500, -4.500, -1.125, 2.750, 0.750, 3.875, 2.250, 4.875, -3.625, 0.375, -4.875, 4.375, -1.625, -10.750, 0.375, 3.750, -0.500, -1.375, 2.250, -3.750, 0.500, 0.125, -0.625, -11.375, 4.750, 2.375, -5.750, 4.000, 0.375, -0.375, -2.750, 1.125, -3.875, -6.000, 1.125, 3.625, 3.500, -4.000, 0.750, 1.125, -0.250, -2.000, -3.250, -8.125, 4.375, 3.125, -1.875, 2.250, -0.125, 1.250, -2.500, -0.125, -1.250, -0.500, 0.750, 2.375, 2.750, -2.375, 1.625, 1.375, -1.375, -1.000, -3.125, -5.125, 1.500, -0.500, -4.250, 1.750, -1.250, 0.750, -1.250, 0.875, -2.375, 0.125, 1.750, 2.500, 1.625, 0.375, 0.750, 2.000, 0.375, -2.375, -3.625, -4.875, 1.250, 0.500, -1.375, -0.375, -0.625, 0.750, -0.750, 1.000, -1.625, 0.875, 1.875, 1.250, 1.000, -1.000, 0.125, 0.875, 1.250, -1.625, -1.250, -4.125, 0.375, -0.375, 0.000, -0.250, -0.750, 0.750, -0.125, 1.250, -2.125, -0.375, 1.875, 0.375, 0.000, -0.375, 0.000, 0.500, 0.875, -1.625, -2.500, 0.375, 1.625, 0.125, -0.250, 1.000, -0.375, 0.625, -0.125, 0.000, -2.250, 0.375, 1.250, 0.125, 0.875, -0.750, -0.125, 0.000, 0.750, -1.250, -3.000, 0.500, -0.125, -0.750, -0.250, -1.000, -1.125, 0.750, -0.125, 0.000, -2.250, 0.750, 1.125, 0.250, 0.875, -1.625, 0.000, 0.375, 0.625, -0.750, -2.250, -0.250, 0.375, -1.125, -0.375, -1.250, -0.125, 0.625, 0.000, 0.625, -2.500, 0.375, 1.375, 0.750, 1.000, -0.750, 0.000, 0.125, 1.875, 0.000, -2.375, 1.500, 0.375, -0.625, -0.125, -1.750, 0.125, 0.875, -0.500, 0.750, -1.875, 0.750, 1.750, 1.500, 1.500, -1.000, 0.375, -1.250, 1.750, -1.500, -2.375, 1.125, -0.625, -0.875, 0.625, -2.875, 0.375, -0.125, -0.750, 1.375, -1.750, 0.500, 2.875, 2.125, 2.125, 0.000, 0.750, -2.125, 0.500, -1.875, -3.000, 1.250, 1.500, 0.000, -1.000, -1.000, -0.500, 0.625, -1.625, 2.250, -1.500, 0.625, 3.375, 2.500, 1.750, 0.125, 1.750, -6.625, 0.125, -2.375, -2.875, 1.250, 1.000, -0.125, 0.625, -1.625, 0.375, 0.500, -2.750, 3.500, -1.250, -1.000, 2.625, 3.625, 0.250, -0.500, 2.000, -13.250, -2.000, -4.500, -4.250, 2.000, 1.125, 0.000, -1.500, -1.250, -0.875, 0.375, -3.125, -0.125, -2.375, -8.250, 3.250, -1.750, -0.250, 0.375, 2.500, -10.750, -2.500, -1.250, -2.500, 2.875, 0.750, 1.500, -1.000, 3.875, -4.500, -0.500, -3.125, 0.375, 1.250, -8.000, 1.625, 5.625, 2.250, -1.125, 2.625, -2.000, -1.750, -0.375, -1.250, -8.875, 2.875, 1.750, -0.875, 2.875, -0.750, 1.250, -2.000, -0.250, -0.500, 1.000, 0.500, 3.875, 3.125, -2.625, 2.500, -5.250, -0.125, -0.875, -2.125, -9.625, 3.125, 0.125, 0.750, 1.625, -0.875, 0.500, -2.500, 1.125, -5.625, 0.125, -0.250, 3.750, 3.125, -4.375, 1.000, -2.625, -0.875, -1.375, -2.750, -5.750, 3.375, 1.625, -2.375, 0.625, 0.375, 0.500, -1.875, 1.000, -1.125, 1.500, 1.500, 3.125, 2.875, -3.500, 1.000, -1.750, 0.000, -3.500, -4.250, -8.625, 1.000, -0.625, -2.375, 2.000, -0.250, -0.625, -1.250, -0.250, -1.000, 0.500, 2.000, 1.875, 1.500, 0.250, 0.625, 0.625, 0.125, -1.875, 0.250, -6.000, 1.125, 0.125, -1.125, 1.125, -0.625, 0.625, -0.750, 1.250, -2.125, 0.250, 3.250, 0.875, 1.375, -1.000, 0.625, 1.500, 1.500, -0.125, -3.625, 0.250, 0.875, -0.250, -1.125, 0.000, -0.750, 0.375, -0.375, 1.125, -1.625, 0.125, 2.125, 1.125, 1.000, -0.125, 0.125, 0.875, 2.000, -1.000, -1.250, 0.750, 1.250, -0.250, 0.125, -0.750, -0.125, 0.875, 0.000, 0.625, -2.375, 0.625, 2.250, 0.625, 1.375, -1.250, 0.375, 0.250, 1.500, -0.375, -3.500, 0.875, 1.250, -0.500, -0.500, 1.250, -0.375, 0.875, -0.625, 0.375, -1.625, 0.125, 2.375, 1.000, 2.125, -1.500, 0.250, -0.875, 1.250, -2.000, -2.250, 1.000, 0.875, -0.375, 0.500, -0.500, -0.750, 0.750, -0.875, 0.875, -1.125, 0.125, 2.375, 2.750, 2.500, -1.375, 0.500, -4.250, 0.625, -2.250, -2.125, 0.750, 2.000, 0.125, 0.000, 0.625, 0.250, 0.625, -0.875, 1.125, -2.125, 1.375, 3.625, 3.125, 2.250, 0.500, 1.250, -3.500, -0.125, -3.125, -3.000, 1.875, 0.875, 0.625, -0.125, -3.000, 0.250, 0.875, -2.375, 2.125, -2.375, 1.375, 1.750, 3.000, 1.500, -1.625, 2.125, -5.125, -1.250, -3.750, -4.250, 1.125, 1.000, -0.750, -2.625, 2.000, 0.000, 0.375, -2.500, 3.125, -0.125, 1.000, 1.875, 6.125, 1.500, -2.125, 2.250, -6.500, 0.000, -3.500, -3.625, 2.000, 0.125, 1.875, -6.000, 3.125, -2.500, 0.875, -2.375, 3.250, 0.875, -6.625, 4.250, 3.500, 1.750, -1.250, 3.625, -9.250, -0.750, -3.875, 0.250, 3.500, 1.500, 1.125, -1.625, 1.625, -1.500, 1.375, -5.000, -0.875, 0.250, -7.625, -4.500, 2.625, 2.125, -4.250, 4.375, -3.375, -2.625, -2.625, -4.250, -6.750, 4.375, -3.875, 0.125, 0.125, -1.875, -0.125, -4.250, -0.875, 1.500, -11.125, 1.625, 4.875, 2.875, -4.625, 2.875, -9.625, -2.250, -4.875, -0.750, -6.625, 4.125, 1.750, 0.375, 3.125, -0.625, 1.000, -2.000, 1.625, 0.250, -3.250, -1.625, 1.250, 0.875, -0.875, 1.125, -5.625, -1.250, -2.125, 3.750, -6.500, 2.250, -1.125, -0.250, 2.000, 0.375, 0.125, -1.750, 1.125, -1.625, 1.250, -1.875, 3.375, 1.375, -1.750, 1.125, -4.125, -0.375, -2.250, -2.875, -2.500, 1.625, -0.125, 0.625, 1.125, 0.500, 0.125, -1.125, 1.375, -0.875, 0.750, 2.625, 2.875, 2.750, -0.625, 1.625, 1.750, 0.375, -5.375, -3.000, -5.375, 1.500, 0.500, 0.500, 1.250, -1.125, 0.125, -1.125, 1.125, -0.250, 0.750, 2.000, 2.375, 1.375, -0.125, 0.750, 2.375, -0.125, -2.625, -1.500, -2.625, 0.875, 0.250, 0.000, -0.625, -1.125, 0.375, -0.875, -0.250, -0.750, 2.125, 0.000, 2.000, 1.125, -3.000, 0.125, -1.750, 0.750, -2.125, -3.250, -2.625, 1.125, 0.125, 0.500, 0.875, -0.500, 0.500, -1.000, 1.250, -1.000, 2.125, 2.625, 2.375, 0.750, -3.375, 0.625, -3.875, 1.625, -1.625, -2.250, -0.125, 0.125, -1.250, 0.625, 1.250, -0.625, -0.750, -0.750, 1.875, -0.500, 1.000, 2.375, 2.375, -1.125, 0.375, 0.750, -4.250, 0.500, -0.500, -3.500, 1.875, 0.375, -1.125, 1.000, 1.875, -0.250, 0.250, -1.125, 2.750, 0.125, 2.000, 2.125, 2.750, 0.625, -2.000, 1.250, -2.750, -0.500, -1.875, -3.125, -1.875, 0.750, 0.500, -1.125, 1.750, -1.000, 0.750, -1.750, 2.500, 0.625, 3.000, -0.500, 3.250, 2.125, -1.375, 1.875, -1.750, -1.125, -5.500, -2.500, -3.375, 1.625, 0.125, -2.500, 0.000, -0.875, 0.250, -1.875, 1.625, 0.875, 0.375, 2.750, 4.125, 1.250, -1.625, 2.500, -1.625, -1.625, -0.875, -1.375, 1.500, 0.000, 0.250, -5.250, 2.875, -0.250, -0.375, -2.750, 1.875, -0.875, 2.125, -1.500, 4.625, 0.250, -5.250, 2.750, -4.375, -2.000, -2.375, -1.875, -1.125, 1.750, 0.875, -2.000, 1.875, -1.625, 0.375, -4.750, 1.625, 0.625, -1.875, 3.250, 1.500, 1.750, -2.000, 3.375, -10.500, -2.375, -2.750, -1.125, 4.000, -2.250, 1.500, -1.125, 1.625, -4.875, -0.500, -4.625, 1.000, 0.375, -3.375, -3.000, 6.000, 0.125, -2.250, 3.750, -3.750, 0.000, -4.250, -1.000, -2.875, 2.750, 2.750, 0.625, 3.500, -1.000, 0.125, -2.375, 0.000, -1.625, 1.375, 2.625, 1.000, 1.625, -2.250, 3.250, -2.125, -0.750, -2.375, -2.000, -3.125, 1.250, 1.750, 0.375, 3.125, -0.625, -0.125, -2.500, 1.375, -3.250, -1.000, -2.000, 2.375, 0.750, -2.000, 1.750, -3.000, -2.875, -2.625, -0.375, -4.750, 1.750, -0.250, -1.625, 0.000, -2.125, 1.375, -3.125, 1.625, -0.500, 1.375, 1.625, 4.375, 0.625, -3.000, 1.875, -1.250, -0.625, -1.125, -2.250, -5.250, 0.625, 0.750, 2.250, 0.875, 0.500, 0.625, -1.625, -0.125, -2.125, 1.375, 0.875, 3.375, 2.125, -0.500, 1.125, 0.250, -0.375, -5.750, -3.875, -1.875, 0.250, -1.250, 1.875, -0.625, -1.250, -0.250, -1.625, -0.625, -1.250, 1.000, 1.125, 2.125, 0.625, -0.125, 1.500, -3.000, -0.625, -3.250, -1.750, -4.500, 0.750, -0.375, 2.500, 0.250, -0.500, -0.250, -1.250, 1.625, -2.750, 2.625, 4.625, 3.375, 2.375, -1.375, 1.125, -3.250, -0.125, -3.875, -2.750, -2.500, 1.375, -0.375, -1.750, -0.125, 0.000, 0.875, -1.500, 2.125, 0.625, 1.375, 2.125, 2.875, 2.750, -2.375, 1.500, -0.875, -1.000, -3.750, -2.875, -4.000, 0.750, 0.125, 0.750, 0.750, 0.000, 0.000, -1.250, 2.625, -0.500, 1.000, 2.750, 3.375, 0.750, -1.125, 0.500, -3.125, -0.250, -6.375, -0.500, -6.000, 0.750, 0.000, 0.125, 1.000, 0.375, 0.375, -1.625, 2.625, -0.250, 2.625, 0.000, 4.000, 0.125, -0.375, 1.375, -1.875, -0.250, -4.500, -1.375, -1.250, 0.000, 0.500, -2.875, 1.375, -0.750, 0.750, -2.125, 2.375, 0.125, 2.125, -0.750, 3.500, 1.625, -1.125, 2.000, -9.625, -0.875, -4.375, -0.250, -2.000, 1.250, 2.375, -1.875, 1.000, 0.125, -0.250, -2.750, 1.000, -1.000, 2.875, 0.750, 2.875, -0.875, 0.500, 2.375, -4.000, -2.750, -2.875, -0.500, -5.250, 0.375, 2.375, -2.250, 1.625, -1.000, -0.250, -4.125, 0.250, -0.750, 2.875, 0.875, 4.625, 1.750, -3.375, 3.250, -3.625, -0.875, -0.875, 0.375, -4.750, 1.750, 1.625, -6.875, 2.750, 0.125, -0.750, -2.500, 2.125, -0.250, 0.750, 2.500, 4.625, 0.875, 0.000, 2.500, -6.250, -1.875, -3.125, -1.000, 1.125, -2.125, 3.125, -0.250, 2.000, -2.875, 0.625, -2.625, 1.000, -0.375, -2.000, -0.750, -0.875, -1.250, -1.875, 4.000, -1.375, -2.500, -0.875, -0.125, -5.250, 1.375, -1.125, 0.375, 1.625, -0.750, 1.375, -3.000, 3.250, -3.875, -0.125, -1.000, 5.250, 1.125, 0.375, 2.625, -8.375, -1.250, -3.625, -3.125, -7.375, 2.125, 0.125, 1.000, 0.625, -3.000, 1.375, -3.250, 3.125, -3.250, -5.125, 1.500, 3.250, 0.750, -3.125, 3.250, -9.500, -1.125, -2.125, 0.125, -9.125, 3.750, 0.000, 2.250, 1.500, -1.125, 0.125, -2.250, 0.750, 0.000, 0.375, 1.750, 2.750, -0.625, 1.125, 2.750, -4.375, -2.875, -3.000, -3.125, -7.500, 1.500, -0.250, 1.625, 2.125, -0.625, 0.625, -2.500, 1.750, -2.000, 1.250, -2.500, 4.875, 3.125, -2.250, 3.000, -9.000, -0.500, -4.000, -0.750, -7.500, 1.750, -0.250, 2.125, -0.375, -1.125, -0.125, -3.000, -0.750, -2.250, 2.500, -2.000, 1.500, -0.500, -0.500, 2.625, -7.750, -0.625, -4.250, -1.875, -8.500, -1.000, -0.250, 1.500, 0.375, -2.125, -0.750, -2.125, 1.375, -0.125, 2.250, 0.000, 4.000, 0.125, -0.750, 1.250, -6.375, -0.875, -5.125, -0.625, -13.500, 0.375, -0.250, 1.625, -1.250, -1.375, -0.375, -2.000, 2.500, 0.000, 1.625, 1.000, 2.250, -1.125, -3.375, 2.500, -12.500, -0.750, -2.375, -1.375, -7.250, 0.250, 0.875, 2.125, -0.250, 0.000, 1.000, -2.750, 1.625, -0.500, 2.250, -3.875, 4.250, 1.000, -3.250, 2.750, -3.250, -1.000, -3.750, -3.125, -8.750, -0.375, -0.750, 0.125, 0.875, -1.125, -0.250, -3.500, 1.750, -1.875, 2.750, 1.500, 3.000, 1.750, -1.250, 2.125, -4.000, -2.250, -2.875, -1.875, -4.125, 0.250, -0.875, -1.875, -4.125, -0.750, -0.500, -1.750, 1.500, 0.625, 2.125, 5.125, 3.875, 1.625, -0.375, 2.875, -9.750, -3.125, -0.375, -0.375, -6.625, 0.375, 2.375, -2.000, 1.375, -1.125, 0.500, -2.750, 1.750, -0.500, 3.000, -3.375, 4.500, 1.750, -2.375, 3.625, -9.125, 0.875, -4.375, -0.750, -5.000, 1.500, -1.375, 0.000, 1.750, -1.125, 1.000, -2.000, 1.000, -1.000, 0.375, -1.375, 5.875, 0.125, -0.750, 2.750, -5.000, -2.625, -2.625, -0.375, 2.500, 0.625, 3.375, -0.750, 4.375, -2.000, 0.250, -2.375, 2.250, -0.500, 1.875, 0.250, 6.375, 0.750, -0.750, 4.000, -7.250, -2.875, -0.625, -2.750, -0.625, 0.750, 1.125, 0.125, 2.125};

#endif

#endif
