//Numpy array shape [9, 9, 1, 3]
//Min -6.375000000000
//Max 10.500000000000
//Number of zeros 16

#ifndef W2_H_
#define W2_H_

#ifndef __SYNTHESIS__
weight2_t w2[243];
#else
weight2_t w2[243] = {0.875, 2.250, -0.250, -0.375, 0.000, 3.375, -0.875, 3.250, 0.500, 1.375, 3.500, 4.625, -0.500, 3.125, -0.125, -2.250, -0.125, 4.875, -0.625, 2.000, 0.000, -0.875, 0.125, -1.250, -5.000, 1.250, -0.750, 4.000, 0.750, 3.000, -0.125, 0.250, 0.000, 2.500, 3.250, 2.000, -0.125, 0.125, 0.125, 0.125, 0.750, 3.625, 0.125, 0.000, 0.250, 0.125, -2.125, 0.125, -0.375, -0.250, 0.875, -0.125, 0.875, 1.250, -1.500, 1.250, -0.125, -2.375, -1.250, 1.000, 3.375, 4.000, 3.000, -0.875, -1.000, 6.375, 8.500, 3.375, 1.000, -0.750, -1.500, 3.500, 2.250, 4.125, 3.125, 1.125, 1.375, 3.125, -6.375, 2.000, -0.250, 1.250, 0.875, 2.250, 0.000, 0.125, -0.375, 1.625, 1.500, 1.875, -0.375, -0.250, 0.000, -1.750, -1.875, -0.125, 0.000, -0.125, -0.125, -1.625, -3.000, 1.250, 0.000, -0.125, -0.250, 3.250, 2.500, 0.250, -3.250, 1.875, -1.500, 0.000, 1.500, 2.125, 1.750, 3.750, 1.500, 1.875, 2.250, 6.250, 10.500, 9.000, 7.375, 6.625, 7.625, 4.375, 1.625, 4.625, 1.000, 4.000, 4.750, 4.625, -2.875, 2.000, -1.500, 6.375, 5.500, 5.625, 0.125, 0.125, 0.125, -0.625, -2.750, 1.875, -0.125, -0.125, 0.125, 1.500, -0.500, 1.625, 0.000, 0.000, 0.250, 6.625, 7.250, 3.875, -0.375, 0.000, -0.250, 3.000, 2.250, 0.125, -2.125, 0.875, 0.250, 1.750, 0.000, 0.750, 1.000, 3.375, 2.500, 3.500, 3.125, 2.875, 2.500, 5.625, 1.750, 5.875, 5.750, 5.625, 1.250, 3.250, 2.875, 6.250, 3.500, 8.250, -2.250, 0.375, 0.875, -0.625, 1.125, 4.875, -0.250, -0.500, 0.750, 1.625, 4.250, 3.375, 0.250, 0.125, 0.125, -1.000, -0.125, 0.750, 0.250, 0.000, 0.000, 2.125, 1.125, 0.375, -0.125, -0.125, 0.125, -0.250, -0.125, 3.875, -2.250, 0.500, 0.125, 0.375, 0.750, 0.750, 1.125, 0.250, -0.250, 1.125, 1.000, 2.750, 0.875, -1.375, -4.875, 1.750, 0.875, 4.875, 0.750, 0.375, 0.000, -2.250, -0.750, 2.875, -2.625, 0.625, -0.375};

#endif

#endif
