//Numpy array shape [9, 9, 3, 1]
//Min -3.875000000000
//Max 3.125000000000
//Number of zeros 34

#ifndef W5_H_
#define W5_H_

#ifndef __SYNTHESIS__
weight5_t w5[243];
#else
weight5_t w5[243] = {-0.125, 0.250, -0.375, 0.875, 0.500, 1.375, -0.125, 0.000, -0.125, 2.625, 0.625, 0.125, 0.500, -1.000, 0.250, 1.750, 2.250, -1.375, 0.250, -0.250, 0.000, -2.625, -3.875, -0.250, 0.000, 0.250, -0.125, 2.125, 1.500, -0.250, 0.125, 0.000, 0.000, 0.375, 0.875, 0.000, -0.125, 0.000, 0.125, 0.750, 2.375, 0.000, 0.125, 0.000, -0.125, -0.375, -1.625, -1.375, -0.500, -0.750, 0.875, 1.000, 1.125, 0.375, 0.000, 0.000, 0.000, -3.375, -2.875, 0.375, -0.125, 0.125, -0.625, 1.000, -0.625, 0.375, 0.125, -1.375, 0.000, 0.375, -0.250, -0.875, 0.125, -0.125, -0.500, 0.625, -0.875, 0.000, 0.000, 0.125, -0.375, 1.125, 0.875, 0.125, 0.125, 0.125, -0.125, 0.375, 1.125, -0.375, 0.000, 0.000, 0.125, 0.750, 0.000, 0.375, -0.250, -0.125, 0.125, -0.125, 0.125, 1.125, 0.000, -0.125, 0.125, -0.875, -1.625, -0.375, 0.000, -0.250, 0.125, 0.250, -0.500, 0.125, 0.125, -0.625, 0.125, -0.125, 0.750, -0.125, 1.750, 2.000, 1.750, 0.375, 0.625, -0.375, 0.000, -0.250, -0.125, 0.875, -0.250, 0.000, -0.125, 0.125, -0.125, 2.875, 2.625, -0.875, 0.000, -0.125, 0.000, -0.500, 0.750, 0.375, 0.000, 0.125, 0.125, 1.000, 1.750, 0.625, 0.125, 0.000, 0.125, 1.750, 0.500, -0.250, 0.125, -0.125, 0.000, 1.250, 1.125, 0.125, -0.125, 0.375, -0.250, 1.000, 0.250, 1.000, 0.000, 0.375, -0.750, 0.750, -0.750, -0.750, -1.125, 0.625, -0.250, 1.000, 0.125, -1.750, -0.250, 0.375, -0.625, 3.125, 2.000, 0.125, 0.125, 0.375, -0.625, 1.375, 1.375, -0.250, -0.625, -0.625, 0.875, -0.250, 0.250, 0.750, 0.125, 0.250, 0.000, 0.750, 0.000, -0.375, 0.125, 0.000, 0.000, -0.625, -0.250, -1.375, 0.000, -0.125, -0.125, 0.375, -0.125, 1.250, 0.125, 0.250, -0.625, -1.125, -0.750, 1.125, -0.125, 0.375, -0.500, 0.250, 0.250, 0.875, 0.000, 0.250, -0.250, 0.750, 1.375, -1.250, 0.125, 0.250, -0.500, 2.500, 2.875, -1.375, -0.125, 0.375, -0.625};

#endif

#endif
