//Numpy array shape [5, 5, 1, 3]
//Min -1.000000000000
//Max 0.992187500000
//Number of zeros 0

#ifndef W6_H_
#define W6_H_

#ifndef __SYNTHESIS__
weight6_t w6[75];
#else
weight6_t w6[75] = {0.3359375, 0.9296875, -0.5078125, 0.7187500, -1.0000000, -0.8359375, 0.7734375, -0.7265625, -0.7187500, 0.9921875, -0.5781250, -0.2578125, 0.7421875, 0.1796875, 0.5546875, -1.0000000, 0.8281250, 0.3828125, -1.0000000, 0.9921875, 0.0546875, 0.0078125, 0.9921875, 0.8828125, 0.2812500, 0.5546875, 0.0859375, -0.0703125, 0.2968750, 0.6250000, 0.7968750, -0.3281250, 0.8984375, -0.4453125, -0.5156250, 0.6953125, -0.5859375, -0.6015625, 0.4921875, -0.9921875, -0.3203125, -0.7187500, -0.9921875, -0.2578125, 0.0937500, 0.6484375, -0.2343750, 0.9531250, 0.0937500, 0.0078125, 0.9921875, 0.2031250, -0.1953125, -1.0000000, 0.7421875, -0.5078125, -0.4687500, 0.9531250, 0.1484375, -0.9687500, -0.6796875, 0.0625000, 0.5703125, 0.5703125, 0.0781250, -0.0781250, 0.5156250, 0.0937500, -1.0000000, 0.8593750, 0.6406250, -0.3828125, 0.9921875, -0.0703125, 0.5390625};

#endif

#endif
