//Numpy array shape [28, 5]
//Min -2.000000000000
//Max 1.984375000000
//Number of zeros 1

#ifndef W16_H_
#define W16_H_

#ifndef __SYNTHESIS__
weight16_t w16[140];
#else
weight16_t w16[140] = {-1.906250, -0.953125, 1.984375, 1.984375, -2.000000, 0.000000, 1.015625, 1.437500, 0.500000, -2.000000, -1.781250, -1.625000, 1.109375, 0.953125, 1.093750, 0.062500, -1.328125, -0.265625, -0.609375, 1.015625, 1.984375, -2.000000, -1.750000, -1.859375, -2.000000, 0.421875, -0.031250, 1.203125, 0.453125, -2.000000, 1.609375, 0.281250, -0.218750, -0.328125, -1.640625, 1.265625, 1.421875, -1.718750, -2.000000, 0.515625, 1.984375, 1.984375, -2.000000, -2.000000, 1.984375, 1.984375, 1.984375, -2.000000, -2.000000, 1.062500, 0.234375, 0.828125, 1.625000, 0.343750, -2.000000, 0.953125, 1.984375, -1.984375, -2.000000, 1.984375, 1.984375, 1.984375, -2.000000, 0.453125, 1.984375, 1.984375, 1.984375, -2.000000, -1.468750, -0.218750, -1.984375, -1.046875, 1.984375, 1.984375, -2.000000, 0.171875, 1.015625, -1.703125, 1.828125, -1.765625, 1.000000, 1.984375, -2.000000, -0.093750, -1.781250, 1.562500, -0.843750, -1.250000, -0.421875, 1.125000, -1.640625, -1.578125, 1.515625, 1.906250, -0.296875, -1.171875, 0.359375, -1.000000, -0.062500, 1.984375, -2.000000, -1.359375, 1.765625, 1.390625, 1.750000, -0.781250, -0.421875, -1.718750, 1.843750, 0.453125, -2.000000, -1.968750, 1.984375, 1.984375, -1.250000, -2.000000, -0.828125, 1.984375, 1.421875, 0.593750, 0.750000, -2.000000, -0.296875, 0.296875, 0.625000, -0.718750, -1.140625, -0.375000, 0.468750, 1.437500, 1.078125, 0.453125, 1.984375, -2.000000, 1.984375, 1.984375, -0.859375, 0.343750, -0.578125, -2.000000};

#endif

#endif
