//Numpy array shape [9, 9, 1, 3]
//Min -5.500000000000
//Max 11.875000000000
//Number of zeros 38

#ifndef W2_H_
#define W2_H_

#ifndef __SYNTHESIS__
weight2_t w2[243];
#else
weight2_t w2[243] = {1.625, 0.125, -0.125, -1.250, -0.125, 0.375, 2.500, 1.125, 0.000, 2.500, 0.375, 0.375, 3.000, 0.750, -0.125, 2.625, 5.000, -0.125, 2.750, 1.250, 0.125, -2.875, -1.000, 0.125, 0.750, 0.125, -0.125, 1.500, 3.375, 0.125, 0.000, 0.000, 0.250, 5.625, 4.250, 0.000, 0.000, 0.000, 0.000, 1.750, 2.750, 0.250, -0.375, 0.000, 0.000, -0.625, -1.125, 0.000, 0.125, -0.125, 0.250, -1.625, 3.125, 0.250, 2.375, 1.625, 0.125, -2.500, -2.500, 0.125, 4.875, 3.375, -0.125, 2.875, 3.250, 0.125, 7.000, 6.000, -0.250, -2.500, 2.125, 0.125, 4.875, 3.375, -0.125, 4.250, 2.375, 0.000, 1.000, -5.500, -0.250, 0.875, -2.000, -0.125, 0.000, -0.125, 0.125, 1.875, 1.000, 0.125, 0.125, -0.125, -0.125, 2.750, 3.250, 0.000, -0.250, 0.000, -0.250, 2.375, 2.000, -0.125, -0.125, 0.000, -0.125, 3.875, 5.250, -0.125, 2.375, 0.625, 0.000, 2.875, 3.875, 0.125, 7.000, 2.500, -0.125, 2.750, 4.375, 0.125, 11.875, 10.750, 0.000, 3.625, 4.500, -0.125, 5.750, 3.375, 0.000, 1.875, 3.500, -0.125, 2.000, -0.500, -0.125, 0.250, 3.000, 0.375, 0.000, 0.000, 0.000, 3.375, 5.250, 0.125, 0.250, 0.000, -0.125, 1.250, 1.625, 0.000, -0.250, -0.125, 0.000, 1.500, 0.625, 0.000, 0.000, 0.125, 0.000, 0.000, 3.125, 0.125, 2.125, 0.500, -0.125, 3.000, 4.000, 0.125, 4.625, 1.875, -0.250, -0.625, 5.625, -0.250, 4.125, 4.375, 0.000, 0.500, 3.375, -0.250, 3.250, 5.750, -0.125, 6.500, 6.625, -0.125, 2.125, 0.625, 0.125, 2.000, 2.500, 0.000, 0.000, 0.250, -0.125, 2.375, 3.000, 0.125, -0.125, -0.250, -0.250, 2.500, -0.250, -0.250, -0.125, 0.000, 0.125, 3.250, 2.000, -0.250, -0.125, 0.250, 0.125, 1.500, 3.125, -0.250, 2.000, 0.375, 0.000, -1.250, 1.375, -0.125, 2.625, 1.000, 0.000, -3.000, 1.250, -0.125, 1.625, 0.625, 0.000, -3.875, 2.750, -0.125, 1.875, 0.000, 0.000, 1.875, 3.875, -0.375, 1.750, -0.750, 0.000};

#endif

#endif
