//Numpy array shape [9, 9, 3, 1]
//Min -4.375000000000
//Max 5.750000000000
//Number of zeros 53

#ifndef W5_H_
#define W5_H_

#ifndef __SYNTHESIS__
weight5_t w5[243];
#else
weight5_t w5[243] = {0.625, -0.750, -0.125, -1.375, -0.625, 0.125, 0.375, -0.625, 0.125, 1.125, 0.875, 0.000, 0.000, -0.125, 0.125, -1.000, 0.000, 0.000, -0.250, 0.000, 0.125, -4.375, 0.125, 0.000, -0.250, 0.375, 0.000, 1.875, 3.125, 0.000, -0.125, 0.000, 0.000, 3.750, 3.000, 0.000, -0.125, 0.000, 0.000, 2.875, -0.250, 0.125, -0.125, 0.000, 0.000, 2.875, -1.875, -0.125, 0.125, 0.125, -0.125, 2.750, 1.625, 0.000, -0.125, -0.125, -0.125, -2.250, 0.000, -0.125, 0.500, -0.750, -0.125, 2.375, 1.125, 0.000, -0.250, -0.500, 0.000, -0.875, 1.250, 0.000, -0.125, -0.375, -0.125, -0.500, -0.250, -0.125, -0.250, 0.250, -0.125, -0.875, -3.500, -0.125, 0.125, 0.000, -0.125, -0.125, -0.125, -0.125, 0.000, 0.000, 0.000, 2.250, 2.625, -0.125, -0.125, 0.000, -0.125, 1.875, 0.000, 0.000, -0.125, 0.125, -0.125, 3.875, 5.750, 0.125, -0.500, 0.250, 0.000, 0.375, -0.375, -0.125, -0.500, -0.125, 0.125, 2.750, 0.250, -0.125, 2.250, 1.625, -0.125, 1.750, 0.125, 0.125, -0.875, 0.375, 0.000, 0.875, 0.000, 0.000, -0.500, 0.500, 0.000, 0.875, 4.125, -0.125, -0.125, 0.125, 0.125, 2.375, 4.000, -0.125, 0.000, 0.125, 0.000, 1.375, 1.875, 0.000, -0.125, -0.125, -0.125, 0.500, 1.375, 0.125, 0.125, 0.125, -0.125, 0.875, 1.000, 0.000, 0.250, -0.500, 0.000, 3.000, -0.250, 0.125, 0.375, -0.750, -0.125, 0.375, -1.250, 0.125, 0.125, -0.500, -0.125, 0.125, -1.250, -0.125, 0.250, -0.625, 0.000, 1.750, 0.875, 0.000, 0.375, -0.875, 0.000, 0.375, 1.000, -0.125, 0.125, 0.125, 0.000, 0.250, 0.750, 0.000, 0.125, -0.125, 0.125, 2.125, -0.625, 0.125, -0.250, -0.125, 0.125, 2.500, 0.750, 0.000, -0.125, 0.000, -0.125, 0.375, 3.500, -0.125, 0.125, -0.625, -0.125, -3.250, 0.375, 0.000, 0.375, -0.625, 0.000, 0.000, -0.750, 0.000, 0.000, -0.250, 0.125, 1.125, 0.000, -0.125, 0.375, -0.500, 0.000, 1.625, 0.000, -0.125, 0.375, -0.625, 0.000};

#endif

#endif
