//Numpy array shape [64]
//Min -0.591796875000
//Max 0.613281250000
//Number of zeros 0

#ifndef B10_H_
#define B10_H_

#ifndef __SYNTHESIS__
bias10_t b10[64];
#else
bias10_t b10[64] = {0.345703125, -0.486328125, 0.046875000, -0.009765625, -0.519531250, -0.048828125, -0.015625000, 0.080078125, 0.304687500, 0.021484375, -0.013671875, -0.046875000, -0.052734375, -0.058593750, -0.046875000, -0.550781250, -0.021484375, 0.357421875, -0.050781250, -0.017578125, 0.292968750, -0.017578125, -0.052734375, -0.345703125, 0.009765625, 0.001953125, -0.101562500, -0.039062500, -0.052734375, -0.230468750, 0.033203125, 0.251953125, -0.083984375, -0.054687500, -0.125000000, 0.210937500, -0.056640625, 0.306640625, -0.248046875, 0.435546875, -0.039062500, -0.037109375, -0.017578125, -0.013671875, 0.431640625, 0.013671875, -0.017578125, -0.591796875, -0.205078125, -0.027343750, -0.031250000, -0.074218750, 0.103515625, 0.054687500, -0.052734375, 0.066406250, -0.042968750, 0.613281250, -0.060546875, 0.400390625, -0.185546875, -0.041015625, -0.009765625, 0.007812500};

#endif

#endif
