//Numpy array shape [64, 5]
//Min -9.171875000000
//Max 6.302734375000
//Number of zeros 0

#ifndef W13_H_
#define W13_H_

#ifndef __SYNTHESIS__
weight13_t w13[320];
#else
weight13_t w13[320] = {-1.041015625, 0.384765625, -0.052734375, -0.167968750, 0.673828125, 0.183593750, 0.330078125, 0.195312500, -0.042968750, -0.693359375, 0.380859375, 0.089843750, -2.740234375, 0.851562500, 0.541015625, 0.058593750, 0.005859375, 0.001953125, -0.011718750, 0.021484375, 0.652343750, 0.787109375, 0.279296875, -0.230468750, -1.216796875, -0.164062500, -0.070312500, -0.056640625, -0.109375000, -0.005859375, 0.183593750, -0.183593750, -0.060546875, -0.246093750, 0.001953125, -0.578125000, -0.527343750, 0.847656250, 0.888671875, -1.181640625, -1.433593750, -1.300781250, 1.628906250, 0.755859375, 0.101562500, 0.160156250, 0.058593750, -2.072265625, 0.425781250, -0.267578125, 0.302734375, -0.066406250, 0.017578125, -0.142578125, -0.246093750, 0.113281250, 0.216796875, 0.042968750, 0.166015625, 0.111328125, 0.257812500, 0.154296875, -0.378906250, -0.009765625, -0.191406250, 1.117187500, 1.312500000, -2.472656250, -3.501953125, 0.607421875, -0.140625000, -0.074218750, 0.009765625, 0.033203125, -0.255859375, 0.453125000, 0.490234375, 0.181640625, -0.238281250, -0.906250000, 0.453125000, 0.777343750, -3.095703125, -0.550781250, 0.376953125, -0.121093750, 0.064453125, 0.078125000, -0.119140625, 0.251953125, 1.167968750, -0.212890625, -0.566406250, -1.148437500, 0.705078125, -2.578125000, 0.197265625, 2.140625000, 1.279296875, 0.681640625, -1.404296875, -1.328125000, 1.105468750, 0.937500000, 0.181640625, -0.580078125, 0.607421875, 0.585937500, 0.572265625, -1.111328125, 0.167968750, -0.242187500, 0.007812500, 0.017578125, 0.121093750, 0.835937500, -0.076171875, -0.345703125, -0.462890625, -0.123046875, 2.271484375, 1.707031250, -9.171875000, -0.060546875, 0.539062500, 0.833984375, 0.732421875, 2.949218750, 6.236328125, -1.253906250, 0.892578125, 0.945312500, -3.238281250, -2.447265625, 0.378906250, 0.179687500, -0.076171875, 0.099609375, 0.085937500, -0.044921875, 1.910156250, 1.693359375, -5.587890625, -5.419921875, 1.062500000, 0.755859375, 0.578125000, -0.361328125, -1.736328125, 0.935546875, 1.578125000, 1.490234375, -4.009765625, -4.226562500, 0.349609375, -0.556640625, -0.414062500, 0.242187500, 1.208984375, 0.162109375, -0.228515625, 0.179687500, 0.308593750, 0.832031250, -0.919921875, -0.097656250, 0.242187500, 0.089843750, -0.148437500, 0.025390625, -0.023437500, -0.056640625, -0.476562500, 0.474609375, -0.234375000, -0.138671875, -0.265625000, 0.652343750, 0.009765625, -0.195312500, -0.353515625, -0.125000000, -0.037109375, -0.253906250, -0.189453125, -0.935546875, -0.333984375, 0.550781250, 0.308593750, 0.019531250, 1.238281250, 0.982421875, -4.171875000, 2.632812500, -2.830078125, -0.775390625, 0.091796875, 0.132812500, 0.298828125, 0.251953125, -0.156250000, 0.238281250, 0.033203125, -0.105468750, 0.314453125, 0.023437500, -0.173828125, -0.023437500, -0.095703125, -0.101562500, -0.076171875, 0.029296875, 0.257812500, -0.259765625, -0.134765625, 0.351562500, 0.183593750, 0.054687500, -0.267578125, 0.277343750, -0.503906250, -0.082031250, 0.203125000, 0.185546875, 0.146484375, 0.123046875, -0.660156250, 0.306640625, 1.000000000, -1.697265625, -0.234375000, -0.052734375, -0.169921875, -0.226562500, -0.175781250, 0.607421875, 0.615234375, 0.175781250, -0.109375000, -0.837890625, 1.109375000, -1.958984375, 0.509765625, 1.494140625, 0.089843750, -0.488281250, 0.349609375, 0.548828125, 0.148437500, 0.437500000, 1.080078125, 0.677734375, -4.685546875, -0.949218750, -0.523437500, -0.134765625, 0.677734375, 0.273437500, 0.017578125, -0.437500000, -0.941406250, -0.779296875, 0.769531250, 0.332031250, -0.365234375, -1.851562500, 0.765625000, 2.531250000, 1.597656250, 1.158203125, -0.164062500, -0.029296875, 0.371093750, 0.082031250, -0.255859375, 0.009765625, -0.244140625, 0.890625000, 2.000000000, -0.757812500, -0.716796875, -0.472656250, 1.556640625, 1.935546875, -0.910156250, -0.322265625, -0.453125000, -0.218750000, -0.009765625, 0.449218750, 0.082031250, 0.316406250, 0.792968750, -2.248046875, 2.759765625, -0.535156250, -0.902343750, 0.701171875, 0.880859375, 0.138671875, 0.259765625, 0.900390625, 6.302734375, -2.263671875, -0.111328125, 3.623046875, -2.650390625, -3.714843750, -1.917968750, 5.201171875, -0.013671875, 0.011718750, -0.025390625, 0.169921875, -0.160156250, -0.548828125, -0.501953125, 0.740234375, 0.791015625, -1.103515625};

#endif

#endif
