//Numpy array shape [256, 12]
//Min -2.867187500000
//Max 1.291015625000
//Number of zeros 5

#ifndef W13_H_
#define W13_H_

#ifndef __SYNTHESIS__
weight13_t w13[3072];
#else
weight13_t w13[3072] = {-0.388671875, -0.322265625, -1.906250000, 0.226562500, 0.105468750, 0.203125000, 0.027343750, 0.228515625, 0.083984375, 0.255859375, 0.201171875, 0.273437500, -0.419921875, 0.363281250, -1.542968750, 0.205078125, 0.072265625, 0.216796875, 0.173828125, 0.296875000, 0.240234375, 0.058593750, 0.197265625, 0.273437500, -0.117187500, -0.273437500, -0.705078125, 0.228515625, -0.050781250, 0.287109375, 0.310546875, 0.244140625, 0.281250000, 0.349609375, 0.318359375, 0.158203125, -0.779296875, -0.041015625, -2.451171875, 0.015625000, -0.203125000, 0.181640625, 0.144531250, 0.210937500, -0.013671875, 0.017578125, 0.072265625, 0.216796875, 0.220703125, -0.527343750, -0.419921875, 0.044921875, -0.324218750, 0.017578125, -0.031250000, 0.101562500, 0.123046875, -0.125000000, 0.119140625, 0.128906250, 0.021484375, -0.251953125, -0.203125000, 0.277343750, 0.058593750, 0.222656250, 0.103515625, 0.302734375, 0.318359375, 0.175781250, 0.099609375, 0.019531250, -0.048828125, 0.000000000, -0.775390625, 0.160156250, -0.343750000, 0.281250000, 0.302734375, 0.164062500, 0.300781250, 0.292968750, 0.388671875, -0.099609375, 0.060546875, 0.318359375, -0.927734375, 0.212890625, 0.093750000, 0.394531250, 0.320312500, 0.320312500, 0.156250000, -0.123046875, 0.197265625, 0.416015625, 0.089843750, -0.718750000, 0.363281250, 0.353515625, -0.259765625, 0.193359375, 0.400390625, 0.322265625, 0.353515625, -0.042968750, 0.201171875, 0.236328125, 0.027343750, -0.292968750, 0.318359375, 0.023437500, 0.146484375, 0.128906250, 0.136718750, 0.099609375, 0.041015625, -0.417968750, 0.246093750, 0.091796875, -0.146484375, -0.080078125, -0.027343750, 0.136718750, -0.054687500, 0.197265625, 0.083984375, 0.216796875, 0.105468750, -0.419921875, 0.072265625, 0.117187500, 0.003906250, 0.279296875, -0.414062500, 0.033203125, -0.347656250, 0.039062500, 0.156250000, 0.146484375, 0.056640625, 0.082031250, 0.158203125, 0.248046875, 0.105468750, -0.718750000, 0.232421875, 0.271484375, -0.662109375, 0.326171875, 0.345703125, 0.306640625, 0.302734375, -1.134765625, 0.339843750, 0.263671875, 0.046875000, -0.099609375, -0.216796875, 0.052734375, -0.082031250, 0.148437500, 0.306640625, 0.220703125, 0.218750000, -1.572265625, 0.078125000, 0.242187500, -0.093750000, 0.126953125, -0.152343750, 0.169921875, 0.074218750, 0.324218750, 0.324218750, 0.404296875, 0.265625000, -0.761718750, 0.392578125, 0.246093750, 0.517578125, -0.335937500, 0.685546875, 0.003906250, -0.982421875, -0.001953125, -0.107421875, -0.298828125, -0.101562500, -0.486328125, -0.048828125, -0.042968750, 0.058593750, -0.445312500, 0.275390625, 0.158203125, -0.371093750, 0.187500000, 0.251953125, 0.166015625, 0.259765625, -0.021484375, 0.181640625, 0.291015625, 0.152343750, 0.132812500, -0.699218750, 0.376953125, -0.275390625, 0.232421875, 0.250000000, 0.203125000, 0.160156250, -0.205078125, 0.183593750, 0.267578125, -0.250000000, -0.195312500, -0.292968750, 0.095703125, 0.060546875, 0.144531250, 0.142578125, 0.341796875, 0.273437500, 0.353515625, 0.060546875, 0.097656250, 0.175781250, -0.148437500, 0.048828125, 0.183593750, -0.376953125, 0.199218750, 0.210937500, 0.333984375, 0.250000000, 0.109375000, 0.121093750, 0.261718750, 0.189453125, -0.531250000, -0.119140625, 0.312500000, -0.308593750, 0.292968750, 0.330078125, 0.283203125, 0.214843750, 0.167968750, 0.244140625, 0.419921875, -0.015625000, 0.164062500, 0.001953125, 0.345703125, -1.205078125, 0.289062500, 0.255859375, 0.201171875, 0.308593750, 0.154296875, 0.191406250, 0.125000000, -0.005859375, -0.232421875, 0.025390625, 0.419921875, -0.050781250, 0.441406250, 0.296875000, 0.351562500, 0.306640625, 0.371093750, 0.376953125, 0.314453125, 0.177734375, -0.232421875, 0.025390625, 0.445312500, 0.048828125, 0.265625000, 0.335937500, 0.152343750, 0.271484375, 0.582031250, 0.330078125, 0.361328125, 0.107421875, -0.332031250, 0.044921875, 0.496093750, 0.208984375, 0.394531250, 0.390625000, 0.601562500, 0.544921875, -0.097656250, 0.527343750, 0.544921875, 0.097656250, -0.289062500, 0.203125000, 0.291015625, -0.785156250, 0.140625000, 0.296875000, 0.126953125, 0.203125000, 0.076171875, 0.050781250, 0.017578125, -0.068359375, 0.005859375, 0.123046875, 0.156250000, 0.222656250, 0.298828125, 0.371093750, 0.314453125, 0.164062500, 0.011718750, 0.136718750, 0.183593750, 0.353515625, -0.029296875, 0.279296875, 0.425781250, -0.101562500, 0.468750000, 0.330078125, 0.251953125, 0.273437500, -0.283203125, 0.273437500, 0.216796875, 0.212890625, -2.208984375, 0.554687500, 0.507812500, -0.068359375, 0.347656250, 0.519531250, 0.451171875, 0.568359375, -1.154296875, 0.482421875, 0.552734375, -0.386718750, -1.833984375, 0.310546875, 0.447265625, -0.013671875, 0.492187500, 0.533203125, 0.539062500, 0.517578125, -0.828125000, 0.541015625, 0.541015625, -0.082031250, -1.628906250, 0.357421875, 0.083984375, -0.001953125, 0.326171875, 0.328125000, 0.224609375, 0.238281250, -0.294921875, 0.251953125, 0.230468750, -0.294921875, -2.511718750, 0.611328125, 0.449218750, 0.439453125, 0.400390625, 0.339843750, 0.345703125, 0.306640625, -1.000000000, 0.457031250, 0.218750000, 0.093750000, -0.058593750, -0.240234375, -0.060546875, 0.273437500, -0.064453125, -0.123046875, 0.001953125, -0.058593750, -1.013671875, -0.183593750, -0.054687500, 0.001953125, -0.091796875, -0.445312500, -0.085937500, 0.218750000, 0.121093750, 0.152343750, 0.017578125, 0.037109375, -0.800781250, -0.062500000, 0.048828125, 0.027343750, -0.408203125, -1.447265625, 0.515625000, -0.003906250, 0.458984375, 0.373046875, 0.279296875, 0.369140625, -0.927734375, 0.343750000, 0.257812500, -0.349609375, -0.111328125, -0.564453125, 0.458984375, 0.205078125, 0.441406250, 0.394531250, 0.439453125, 0.546875000, -1.603515625, 0.390625000, 0.419921875, 0.044921875, -0.220703125, -1.544921875, 0.242187500, -0.105468750, 0.300781250, 0.189453125, 0.314453125, 0.216796875, -0.150390625, 0.257812500, 0.281250000, 0.011718750, -0.021484375, -1.474609375, 0.296875000, -0.300781250, 0.136718750, 0.220703125, 0.091796875, 0.242187500, 0.179687500, 0.109375000, 0.326171875, -0.392578125, -0.390625000, -1.281250000, 0.019531250, -0.273437500, 0.001953125, -0.068359375, 0.232421875, 0.203125000, -0.052734375, -0.007812500, 0.082031250, -0.068359375, 0.253906250, -1.033203125, 0.328125000, -0.275390625, 0.376953125, 0.410156250, 0.218750000, 0.187500000, 0.285156250, 0.351562500, 0.333984375, -0.306640625, -0.232421875, 0.574218750, 0.050781250, -0.662109375, 0.103515625, 0.156250000, 0.183593750, -0.011718750, -0.603515625, 0.062500000, -0.117187500, 0.087890625, 0.154296875, -1.449218750, 0.294921875, 0.033203125, 0.421875000, 0.275390625, 0.292968750, 0.333984375, -0.148437500, 0.341796875, 0.359375000, 0.175781250, -0.253906250, -1.195312500, 0.621093750, 0.117187500, 0.404296875, 0.281250000, 0.496093750, 0.449218750, -1.265625000, 0.267578125, 0.398437500, -0.216796875, 0.042968750, -0.929687500, -0.056640625, -0.792968750, -0.123046875, -0.042968750, 0.013671875, -0.193359375, -0.263671875, -0.126953125, -0.076171875, -0.232421875, -0.250000000, 0.289062500, -0.064453125, -0.765625000, -0.070312500, 0.128906250, 0.029296875, 0.105468750, -0.972656250, 0.144531250, 0.091796875, 0.320312500, -0.152343750, -0.429687500, 0.279296875, -0.169921875, 0.150390625, 0.273437500, 0.273437500, 0.115234375, -0.408203125, 0.140625000, 0.248046875, -0.257812500, 0.064453125, -1.863281250, 0.445312500, 0.207031250, 0.253906250, 0.380859375, 0.554687500, 0.384765625, -0.498046875, 0.392578125, 0.419921875, -0.328125000, -0.046875000, -0.789062500, -0.154296875, -0.767578125, -0.119140625, 0.013671875, -0.093750000, 0.123046875, -0.628906250, -0.156250000, -0.109375000, -0.781250000, -0.439453125, 0.269531250, 0.130859375, -0.158203125, 0.169921875, 0.160156250, -0.029296875, 0.214843750, -0.453125000, 0.052734375, 0.062500000, -0.037109375, -0.119140625, 0.298828125, 0.197265625, -0.285156250, -0.001953125, 0.003906250, 0.140625000, 0.173828125, -0.455078125, 0.021484375, 0.046875000, -1.050781250, -0.273437500, -0.365234375, 0.164062500, 0.017578125, 0.210937500, 0.320312500, 0.351562500, 0.369140625, -0.773437500, 0.232421875, 0.240234375, -0.712890625, 0.244140625, 0.167968750, 0.136718750, -0.265625000, 0.220703125, 0.066406250, 0.208984375, 0.150390625, 0.292968750, 0.255859375, 0.271484375, 0.048828125, -0.296875000, 0.187500000, 0.072265625, -1.210937500, 0.154296875, 0.175781250, 0.298828125, 0.154296875, -0.234375000, 0.109375000, 0.126953125, -0.525390625, 0.250000000, 0.433593750, 0.466796875, -1.623046875, 0.396484375, 0.541015625, 0.476562500, 0.457031250, -0.291015625, 0.480468750, 0.375000000, -0.097656250, 0.105468750, 0.078125000, 0.609375000, -1.056640625, 0.462890625, 0.785156250, 0.685546875, 0.529296875, 0.306640625, 0.562500000, 0.523437500, -1.013671875, 0.130859375, 0.283203125, 0.398437500, -1.404296875, 0.437500000, 0.408203125, 0.431640625, 0.441406250, 0.501953125, 0.220703125, 0.294921875, 0.144531250, -0.306640625, 0.228515625, 0.386718750, -1.357421875, 0.238281250, 0.287109375, 0.212890625, 0.292968750, -0.041015625, 0.351562500, 0.125000000, 0.232421875, -0.617187500, 0.359375000, 0.292968750, -1.427734375, 0.503906250, 0.292968750, 0.271484375, 0.421875000, -0.515625000, 0.304687500, 0.357421875, 0.001953125, 0.105468750, 0.125000000, 0.423828125, -1.064453125, 0.539062500, 0.384765625, 0.443359375, 0.482421875, 0.341796875, 0.347656250, 0.558593750, -0.458984375, -0.785156250, 0.666015625, 0.156250000, -1.705078125, 0.126953125, 0.351562500, 0.033203125, 0.279296875, 0.458984375, 0.101562500, 0.060546875, 0.058593750, -2.867187500, 0.546875000, 0.410156250, 0.164062500, 0.414062500, 0.431640625, 0.294921875, 0.470703125, -0.343750000, 0.437500000, 0.361328125, -0.171875000, -2.503906250, 0.269531250, 0.365234375, -0.185546875, 0.306640625, 0.355468750, 0.365234375, 0.333984375, 0.212890625, 0.259765625, 0.246093750, 0.072265625, -2.794921875, -0.003906250, 0.253906250, 0.060546875, 0.072265625, 0.156250000, 0.105468750, 0.275390625, -0.222656250, 0.216796875, 0.121093750, -0.302734375, -2.167968750, 0.562500000, 0.367187500, 0.123046875, 0.302734375, 0.390625000, 0.230468750, 0.478515625, 0.173828125, 0.187500000, 0.517578125, 0.142578125, 0.009765625, -1.216796875, 0.039062500, -0.052734375, 0.007812500, 0.156250000, 0.160156250, -0.072265625, -1.033203125, -0.138671875, 0.191406250, -0.097656250, -0.248046875, -0.933593750, -0.039062500, 0.224609375, -0.050781250, 0.001953125, -0.089843750, 0.023437500, -0.312500000, 0.087890625, 0.054687500, -0.908203125, -0.246093750, -1.218750000, 0.230468750, -0.048828125, 0.333984375, 0.160156250, 0.226562500, 0.257812500, -1.728515625, 0.361328125, 0.246093750, 0.359375000, 0.130859375, -0.751953125, 0.181640625, -0.490234375, 0.257812500, -0.013671875, 0.189453125, 0.148437500, -1.763671875, 0.074218750, 0.214843750, -0.125000000, 0.007812500, -0.939453125, 0.265625000, -0.320312500, 0.349609375, 0.310546875, 0.320312500, 0.285156250, -1.197265625, 0.343750000, 0.332031250, 0.140625000, -0.085937500, -1.271484375, 0.130859375, -0.123046875, 0.175781250, 0.177734375, 0.324218750, 0.207031250, -1.123046875, 0.164062500, 0.197265625, 0.062500000, -0.275390625, -1.601562500, 0.236328125, -0.888671875, 0.361328125, 0.414062500, 0.166015625, 0.277343750, -0.998046875, 0.201171875, 0.453125000, -0.167968750, 0.191406250, -0.166015625, 0.130859375, -0.917968750, 0.066406250, 0.005859375, -0.101562500, 0.154296875, -1.250000000, 0.123046875, -0.048828125, 0.003906250, 0.212890625, 0.412109375, 0.371093750, -0.818359375, 0.312500000, 0.429687500, 0.382812500, 0.355468750, -0.595703125, 0.244140625, 0.316406250, 0.175781250, 0.107421875, 0.294921875, 0.316406250, 0.064453125, 0.353515625, 0.330078125, 0.279296875, 0.273437500, -0.322265625, 0.193359375, 0.320312500, -0.005859375, -0.589843750, -0.705078125, 0.123046875, -0.378906250, 0.238281250, 0.335937500, 0.152343750, 0.367187500, -1.085937500, 0.072265625, 0.201171875, -0.433593750, -0.271484375, -0.560546875, 0.093750000, -1.044921875, 0.058593750, 0.082031250, -0.033203125, 0.240234375, -0.386718750, 0.107421875, 0.113281250, -1.564453125, -0.074218750, -0.064453125, 0.203125000, -0.265625000, 0.226562500, -0.021484375, 0.054687500, 0.046875000, -0.056640625, 0.101562500, 0.171875000, -0.101562500, 0.029296875, 0.470703125, 0.265625000, 0.113281250, 0.585937500, 0.492187500, 0.351562500, 0.335937500, 0.097656250, 0.332031250, 0.289062500, -1.705078125, -0.431640625, -0.583984375, 0.333984375, 0.107421875, 0.375000000, 0.337890625, 0.382812500, 0.343750000, -1.066406250, 0.218750000, 0.400390625, -1.500000000, -0.132812500, -0.113281250, 0.130859375, -0.382812500, 0.220703125, 0.054687500, 0.132812500, 0.089843750, -0.945312500, 0.054687500, 0.158203125, -1.189453125, 0.048828125, -0.058593750, 0.267578125, -1.253906250, 0.419921875, 0.330078125, 0.193359375, 0.134765625, 0.150390625, 0.248046875, 0.515625000, -0.574218750, -0.013671875, 0.537109375, 0.308593750, -0.175781250, 0.240234375, 0.429687500, 0.199218750, 0.208984375, -1.302734375, 0.369140625, 0.158203125, -1.453125000, -0.425781250, -0.927734375, 0.375000000, -1.255859375, 0.376953125, 0.320312500, 0.283203125, 0.169921875, -0.140625000, 0.300781250, 0.162109375, -1.031250000, -0.068359375, 0.164062500, 0.085937500, -0.865234375, 0.146484375, -0.101562500, 0.144531250, 0.003906250, 0.070312500, -0.156250000, -0.052734375, -1.650390625, 0.021484375, -0.451171875, 0.089843750, -1.841796875, -0.042968750, 0.160156250, 0.189453125, 0.173828125, 0.101562500, 0.154296875, 0.304687500, -0.259765625, -0.119140625, 0.519531250, 0.328125000, -1.736328125, 0.322265625, 0.156250000, 0.259765625, 0.439453125, -0.046875000, 0.337890625, 0.458984375, -1.406250000, 0.142578125, -0.251953125, 0.273437500, -1.654296875, 0.431640625, 0.531250000, 0.343750000, 0.224609375, -0.367187500, 0.357421875, 0.353515625, -1.181640625, -0.244140625, 0.009765625, 0.373046875, -1.623046875, 0.357421875, 0.433593750, 0.509765625, 0.400390625, 0.416015625, 0.224609375, 0.294921875, -1.746093750, -0.263671875, 0.109375000, 0.251953125, -0.814453125, 0.103515625, 0.144531250, -0.015625000, 0.046875000, 0.011718750, 0.150390625, 0.146484375, -0.673828125, 0.097656250, -0.097656250, 0.093750000, 0.201171875, 0.216796875, 0.070312500, 0.189453125, 0.314453125, 0.052734375, 0.052734375, 0.101562500, -1.373046875, -0.462890625, 0.242187500, 0.259765625, -1.531250000, 0.376953125, 0.287109375, 0.392578125, 0.521484375, 0.166015625, 0.244140625, 0.503906250, -2.378906250, -0.128906250, 0.304687500, 0.429687500, -0.611328125, 0.601562500, 0.660156250, 0.726562500, 0.667968750, 0.082031250, 0.554687500, 0.458984375, -0.169921875, -0.861328125, 0.013671875, 0.279296875, -0.097656250, 0.144531250, 0.232421875, 0.216796875, 0.126953125, 0.125000000, 0.177734375, 0.250000000, 0.130859375, -0.964843750, -0.130859375, 0.312500000, -0.232421875, 0.435546875, 0.521484375, 0.384765625, 0.365234375, 0.480468750, 0.289062500, 0.500000000, 0.027343750, -1.771484375, 0.054687500, 0.345703125, 0.035156250, 0.291015625, 0.388671875, 0.373046875, 0.505859375, 0.273437500, 0.384765625, 0.472656250, 0.189453125, -1.056640625, -0.138671875, 0.125000000, -0.947265625, 0.287109375, 0.232421875, 0.365234375, 0.074218750, 0.359375000, 0.322265625, 0.115234375, -0.093750000, 0.191406250, -0.279296875, 0.226562500, 0.148437500, 0.250000000, 0.314453125, 0.271484375, 0.240234375, -0.759765625, 0.164062500, 0.322265625, -0.173828125, -0.140625000, -0.142578125, -0.035156250, 0.320312500, 0.115234375, 0.021484375, -0.042968750, 0.210937500, -0.644531250, -0.115234375, -0.080078125, 0.031250000, -0.085937500, -0.980468750, 0.257812500, -0.302734375, 0.375000000, 0.191406250, 0.267578125, 0.353515625, -1.337890625, 0.492187500, 0.308593750, 0.449218750, -0.169921875, -0.648437500, -0.066406250, -0.691406250, 0.171875000, 0.240234375, 0.218750000, 0.283203125, -0.417968750, 0.115234375, 0.136718750, -0.337890625, -0.064453125, 0.312500000, 0.470703125, -0.021484375, 0.373046875, 0.375000000, 0.457031250, 0.394531250, -0.357421875, 0.238281250, 0.480468750, 0.169921875, -0.062500000, 0.039062500, 0.306640625, 0.373046875, 0.234375000, 0.287109375, 0.390625000, 0.218750000, -1.050781250, 0.212890625, 0.367187500, 0.164062500, -0.414062500, -0.250000000, 0.285156250, -1.035156250, 0.361328125, 0.287109375, 0.363281250, 0.275390625, -0.998046875, 0.193359375, 0.166015625, -0.003906250, 0.105468750, -0.152343750, 0.160156250, -0.324218750, -0.027343750, -0.003906250, -0.140625000, -0.062500000, -1.105468750, -0.109375000, 0.109375000, -0.400390625, -0.273437500, 0.083984375, 0.099609375, -0.361328125, 0.218750000, 0.214843750, 0.035156250, 0.212890625, -0.753906250, 0.134765625, 0.251953125, -0.203125000, 0.148437500, 0.232421875, 0.191406250, 0.285156250, 0.150390625, 0.214843750, 0.193359375, 0.150390625, -0.677734375, 0.013671875, 0.232421875, 0.208984375, -0.505859375, 0.291015625, 0.447265625, -0.533203125, 0.507812500, 0.451171875, 0.658203125, 0.498046875, -1.251953125, 0.554687500, 0.357421875, -0.050781250, -0.109375000, -0.271484375, 0.115234375, -0.779296875, 0.050781250, 0.058593750, 0.097656250, 0.021484375, -1.132812500, -0.027343750, 0.150390625, -0.693359375, -0.097656250, -0.603515625, 0.093750000, -0.203125000, 0.359375000, 0.179687500, 0.212890625, 0.351562500, -0.066406250, 0.291015625, 0.261718750, -0.609375000, -0.095703125, 0.687500000, 0.193359375, -0.089843750, 0.304687500, 0.109375000, 0.238281250, 0.097656250, -0.166015625, 0.121093750, 0.263671875, -0.658203125, -0.394531250, -0.312500000, 0.349609375, -0.386718750, 0.314453125, 0.349609375, 0.386718750, 0.326171875, -0.699218750, 0.441406250, 0.304687500, -0.933593750, -0.150390625, -0.119140625, 0.300781250, -0.521484375, 0.263671875, 0.226562500, 0.091796875, 0.070312500, -0.798828125, 0.082031250, 0.072265625, -2.009765625, -0.074218750, -0.248046875, 0.367187500, -1.914062500, 0.169921875, 0.392578125, 0.332031250, 0.244140625, -0.304687500, 0.175781250, 0.328125000, -1.904296875, 0.082031250, 0.042968750, 0.091796875, -1.871093750, 0.021484375, 0.203125000, 0.208984375, 0.214843750, 0.298828125, 0.126953125, 0.097656250, -1.847656250, -0.150390625, -0.634765625, 0.484375000, -1.376953125, 0.492187500, 0.289062500, 0.505859375, 0.474609375, -0.468750000, 0.453125000, 0.578125000, -1.951171875, -0.375000000, -0.207031250, 0.003906250, -1.732421875, 0.095703125, -0.082031250, 0.095703125, 0.033203125, -0.380859375, -0.162109375, -0.123046875, -2.128906250, -0.076171875, -0.251953125, 0.250000000, -1.134765625, 0.095703125, 0.080078125, 0.291015625, 0.230468750, 0.164062500, 0.201171875, 0.250000000, -2.285156250, -0.115234375, 0.253906250, 0.361328125, -1.289062500, 0.388671875, 0.363281250, 0.271484375, 0.275390625, 0.316406250, 0.267578125, 0.314453125, -2.160156250, -0.503906250, -1.755859375, 0.181640625, -0.677734375, 0.371093750, 0.308593750, 0.312500000, 0.259765625, -0.556640625, 0.392578125, 0.445312500, -2.052734375, -0.388671875, -0.701171875, 0.064453125, -1.187500000, 0.158203125, 0.076171875, 0.101562500, -0.007812500, -0.449218750, -0.060546875, -0.154296875, -2.187500000, 0.248046875, -0.820312500, 0.398437500, -1.154296875, 0.369140625, 0.425781250, 0.378906250, 0.292968750, 0.195312500, 0.166015625, 0.322265625, -0.375000000, -0.218750000, -0.041015625, 0.169921875, -0.507812500, 0.277343750, 0.302734375, 0.257812500, 0.273437500, 0.126953125, 0.203125000, 0.152343750, -1.636718750, 0.123046875, -0.033203125, 0.388671875, -1.138671875, 0.464843750, 0.246093750, 0.322265625, 0.187500000, -0.257812500, 0.291015625, 0.271484375, -1.781250000, 0.224609375, -0.017578125, 0.437500000, -1.244140625, 0.224609375, 0.400390625, 0.279296875, 0.287109375, -0.042968750, 0.257812500, 0.347656250, 0.121093750, -0.095703125, 0.167968750, 0.482421875, -0.218750000, 0.576171875, 0.505859375, 0.490234375, 0.533203125, 0.482421875, 0.404296875, 0.525390625, 0.238281250, -0.412109375, -0.167968750, 0.470703125, -0.435546875, 0.503906250, 0.400390625, 0.361328125, 0.246093750, 0.478515625, 0.343750000, 0.267578125, -0.072265625, -0.091796875, -0.203125000, 0.216796875, -0.599609375, 0.283203125, 0.212890625, 0.294921875, 0.226562500, 0.148437500, 0.199218750, 0.158203125, -0.410156250, 0.091796875, 0.050781250, 0.248046875, -0.669921875, 0.285156250, 0.248046875, 0.392578125, 0.177734375, 0.271484375, 0.400390625, 0.275390625, -0.378906250, -0.123046875, 0.347656250, 0.107421875, -0.197265625, 0.078125000, -0.021484375, -0.019531250, 0.064453125, -1.570312500, -0.025390625, 0.169921875, -0.232421875, -0.041015625, 0.208984375, -0.060546875, 0.123046875, 0.033203125, 0.007812500, 0.052734375, 0.031250000, -1.197265625, -0.078125000, 0.126953125, 0.302734375, -0.472656250, -0.708984375, 0.300781250, -0.208984375, 0.361328125, 0.382812500, 0.285156250, 0.378906250, -1.003906250, 0.367187500, 0.345703125, 0.259765625, -0.322265625, -0.044921875, -0.117187500, -0.291015625, -0.255859375, -0.150390625, -0.042968750, -0.115234375, -1.623046875, -0.078125000, -0.044921875, -0.675781250, -0.191406250, 0.367187500, 0.296875000, -0.183593750, 0.212890625, 0.312500000, 0.308593750, 0.464843750, -1.718750000, 0.330078125, 0.341796875, 0.009765625, -0.060546875, 0.337890625, 0.103515625, 0.150390625, 0.218750000, 0.093750000, 0.349609375, 0.236328125, -2.128906250, 0.158203125, 0.160156250, 0.160156250, -0.216796875, -0.716796875, 0.314453125, -0.080078125, 0.203125000, 0.318359375, 0.318359375, 0.226562500, -1.285156250, 0.332031250, 0.222656250, 0.142578125, -0.027343750, 0.083984375, -0.074218750, -0.111328125, 0.261718750, 0.003906250, 0.191406250, 0.271484375, -1.531250000, -0.080078125, 0.117187500, -0.597656250, -0.349609375, 0.189453125, 0.304687500, -0.039062500, 0.164062500, 0.378906250, 0.062500000, 0.330078125, -0.242187500, 0.224609375, 0.105468750, -0.250000000, 0.042968750, 0.535156250, 0.402343750, 0.150390625, 0.164062500, 0.314453125, 0.207031250, 0.382812500, 0.187500000, 0.345703125, 0.261718750, 0.121093750, 0.255859375, -0.285156250, 0.439453125, -0.876953125, 0.560546875, 0.414062500, 0.388671875, 0.505859375, -0.740234375, 0.369140625, 0.572265625, 0.144531250, -0.076171875, -0.408203125, -0.031250000, -0.468750000, -0.007812500, 0.039062500, 0.009765625, 0.101562500, -0.994140625, -0.072265625, -0.080078125, -0.935546875, -0.343750000, -0.060546875, 0.146484375, -0.853515625, 0.230468750, 0.080078125, 0.072265625, 0.287109375, -0.275390625, 0.310546875, 0.130859375, -0.937500000, 0.144531250, 0.173828125, 0.292968750, -0.898437500, 0.392578125, 0.414062500, 0.109375000, 0.273437500, 0.371093750, 0.228515625, 0.294921875, -1.046875000, 0.132812500, -0.591796875, 0.353515625, -0.906250000, 0.509765625, 0.498046875, 0.412109375, 0.410156250, -0.900390625, 0.367187500, 0.347656250, -0.982421875, 0.011718750, -1.925781250, 0.101562500, -0.910156250, 0.107421875, 0.148437500, 0.054687500, 0.001953125, -1.238281250, 0.099609375, 0.166015625, -1.375000000, -0.457031250, -1.957031250, 0.076171875, -1.425781250, 0.111328125, 0.041015625, 0.005859375, 0.214843750, -0.283203125, 0.099609375, -0.042968750, -1.222656250, -0.259765625, -1.470703125, 0.353515625, -1.082031250, 0.328125000, 0.281250000, 0.412109375, 0.478515625, 0.794921875, 0.363281250, 0.376953125, -1.121093750, 0.031250000, -1.044921875, 0.412109375, -1.062500000, 0.402343750, 0.529296875, 0.554687500, 0.593750000, -0.443359375, 0.304687500, 0.363281250, -1.134765625, -0.496093750, -1.146484375, -0.121093750, -1.207031250, -0.142578125, -0.240234375, -0.371093750, -0.310546875, -0.576171875, -0.166015625, -0.054687500, -1.574218750, -1.554687500, -0.458984375, -0.142578125, -0.941406250, 0.070312500, 0.013671875, 0.023437500, -0.218750000, -0.123046875, -0.236328125, -0.060546875, -0.445312500, -0.222656250, 0.091796875, 0.222656250, -0.671875000, 0.373046875, 0.392578125, 0.187500000, 0.148437500, 0.376953125, -0.015625000, 0.306640625, -1.597656250, 0.000000000, -1.613281250, 0.388671875, -0.730468750, 0.382812500, 0.447265625, 0.412109375, 0.265625000, -0.572265625, 0.322265625, 0.326171875, -1.886718750, -1.732421875, -0.996093750, 0.167968750, -0.941406250, 0.275390625, 0.041015625, -0.025390625, 0.320312500, -0.259765625, 0.220703125, 0.146484375, -0.562500000, -1.587890625, -0.896484375, -0.076171875, -1.279296875, -0.070312500, 0.103515625, 0.046875000, -0.023437500, -0.363281250, 0.050781250, -0.064453125, -0.044921875, -0.294921875, 0.279296875, 0.222656250, -1.339843750, 0.285156250, 0.300781250, 0.068359375, 0.234375000, 0.125000000, 0.265625000, 0.216796875, -1.068359375, -0.437500000, -0.703125000, 0.431640625, -1.173828125, 0.318359375, 0.144531250, 0.222656250, 0.449218750, -0.056640625, 0.140625000, 0.212890625, -1.767578125, -0.291015625, -0.287109375, 0.255859375, -1.314453125, 0.132812500, 0.169921875, 0.314453125, 0.205078125, 0.013671875, 0.011718750, 0.181640625, 0.285156250, -0.376953125, -0.492187500, 0.208984375, -1.738281250, 0.138671875, 0.138671875, 0.007812500, 0.009765625, -0.466796875, 0.062500000, 0.107421875, -0.408203125, 0.156250000, 0.269531250, 0.095703125, -1.287109375, 0.003906250, 0.304687500, 0.183593750, 0.132812500, 0.023437500, 0.275390625, 0.193359375, 0.044921875, 0.011718750, -0.091796875, 0.300781250, -0.896484375, 0.431640625, 0.412109375, 0.503906250, 0.404296875, 0.283203125, 0.468750000, 0.320312500, -0.332031250, 0.089843750, -0.892578125, 0.208984375, -1.599609375, -0.009765625, 0.128906250, 0.142578125, 0.146484375, 0.074218750, 0.029296875, 0.117187500, 0.031250000, 0.017578125, 0.103515625, 0.054687500, -0.652343750, -0.224609375, 0.058593750, 0.070312500, -0.138671875, -0.271484375, -0.074218750, 0.148437500, -0.220703125, 0.126953125, 0.351562500, 0.115234375, 0.265625000, 0.134765625, 0.074218750, 0.048828125, 0.105468750, -0.525390625, 0.031250000, 0.009765625, 0.240234375, -0.271484375, -0.414062500, 0.384765625, 0.099609375, 0.507812500, 0.255859375, 0.435546875, 0.335937500, -0.400390625, 0.427734375, 0.214843750, 0.000000000, 0.072265625, -0.539062500, 0.244140625, -0.251953125, -0.027343750, -0.041015625, -0.062500000, 0.158203125, -0.501953125, 0.103515625, 0.074218750, -0.535156250, 0.117187500, 0.318359375, 0.146484375, -0.447265625, 0.304687500, 0.250000000, 0.240234375, 0.251953125, -1.119140625, 0.492187500, 0.210937500, -0.076171875, 0.009765625, 0.126953125, 0.146484375, 0.240234375, 0.058593750, -0.013671875, 0.164062500, 0.259765625, 0.160156250, -0.117187500, 0.103515625, 0.244140625, -0.693359375, -0.802734375, 0.310546875, -0.103515625, 0.519531250, 0.414062500, 0.310546875, 0.289062500, -0.943359375, 0.353515625, 0.289062500, 0.248046875, 0.308593750, -0.275390625, 0.005859375, -0.705078125, 0.068359375, 0.062500000, -0.021484375, 0.193359375, -0.500000000, -0.107421875, 0.107421875, 0.025390625, -0.505859375, 0.451171875, 0.371093750, -1.728515625, 0.330078125, 0.343750000, 0.552734375, 0.376953125, 0.056640625, 0.472656250, 0.359375000, -0.488281250, -0.103515625, 0.058593750, 0.291015625, 0.277343750, 0.123046875, 0.269531250, 0.144531250, 0.005859375, 0.609375000, 0.154296875, 0.076171875, 0.505859375, 0.080078125, -0.318359375, 0.574218750, -0.708984375, 0.433593750, 0.410156250, 0.394531250, 0.416015625, -0.490234375, 0.404296875, 0.562500000, -0.021484375, 0.167968750, -0.429687500, -0.060546875, -1.701171875, -0.289062500, -0.259765625, -0.181640625, -0.171875000, -0.978515625, -0.291015625, -0.130859375, -1.734375000, -0.333984375, 0.474609375, 0.210937500, -2.447265625, 0.291015625, 0.349609375, 0.107421875, 0.404296875, -0.480468750, 0.025390625, 0.283203125, -1.630859375, -0.033203125, 0.076171875, 0.292968750, -2.296875000, 0.300781250, 0.279296875, 0.320312500, 0.386718750, 0.537109375, 0.222656250, 0.380859375, -2.130859375, 0.314453125, -0.486328125, 0.513671875, -2.523437500, 0.263671875, 0.291015625, 0.314453125, 0.263671875, -0.650390625, 0.304687500, 0.248046875, -1.931640625, -0.273437500, -0.468750000, 0.023437500, -2.437500000, -0.181640625, -0.140625000, -0.058593750, 0.054687500, -0.560546875, -0.238281250, -0.082031250, -2.099609375, -0.156250000, 0.515625000, 0.486328125, -1.337890625, 0.474609375, 0.246093750, 0.369140625, 0.429687500, -0.390625000, 0.476562500, 0.433593750, -1.625000000, -0.101562500, 0.275390625, 0.367187500, -1.070312500, 0.359375000, 0.324218750, 0.449218750, 0.343750000, 0.687500000, 0.398437500, 0.328125000, -1.519531250, 0.037109375, -0.798828125, 0.119140625, -1.125000000, 0.460937500, 0.226562500, 0.414062500, 0.226562500, -0.662109375, 0.160156250, 0.228515625, -2.326171875, -0.482421875, -0.576171875, -0.109375000, -1.539062500, -0.156250000, -0.001953125, 0.099609375, 0.056640625, -0.958984375, 0.083984375, 0.080078125, -1.052734375, -0.183593750, 0.619140625, 0.285156250, -1.089843750, 0.283203125, 0.214843750, 0.220703125, 0.210937500, -0.671875000, 0.162109375, 0.218750000, -1.136718750, -0.419921875, 0.585937500, 0.162109375, -1.093750000, 0.248046875, 0.296875000, 0.302734375, 0.152343750, 0.195312500, 0.078125000, 0.265625000, -1.132812500, 0.271484375, -1.160156250, 0.365234375, -1.447265625, 0.306640625, 0.517578125, 0.308593750, 0.433593750, 0.101562500, 0.238281250, 0.414062500, -1.226562500, -1.308593750, -0.230468750, 0.162109375, -0.855468750, 0.054687500, 0.138671875, 0.099609375, 0.179687500, -0.041015625, 0.121093750, 0.138671875, -1.498046875, -1.156250000, 0.169921875, 0.310546875, -1.101562500, 0.185546875, 0.166015625, 0.095703125, 0.296875000, -0.304687500, 0.085937500, 0.261718750, -1.000000000, -0.810546875, 0.156250000, 0.253906250, -1.285156250, 0.193359375, 0.351562500, 0.101562500, 0.162109375, 0.230468750, 0.220703125, 0.146484375, -0.822265625, 0.044921875, -0.603515625, 0.265625000, -1.359375000, 0.218750000, 0.363281250, 0.230468750, 0.285156250, 0.119140625, 0.123046875, 0.359375000, -1.593750000, -1.199218750, -0.992187500, -0.033203125, -1.031250000, 0.142578125, 0.029296875, 0.097656250, 0.062500000, -0.085937500, -0.115234375, 0.216796875, -0.919921875, -0.033203125, -0.083984375, 0.083984375, -0.783203125, 0.316406250, 0.091796875, 0.189453125, 0.117187500, -0.130859375, 0.136718750, 0.138671875, 0.058593750, -0.214843750, 0.351562500, 0.250000000, -0.142578125, 0.210937500, 0.166015625, 0.197265625, 0.269531250, -0.007812500, 0.179687500, 0.152343750, -0.720703125, -0.050781250, -0.044921875, 0.154296875, -0.089843750, 0.177734375, 0.341796875, 0.255859375, 0.222656250, 0.013671875, 0.068359375, 0.125000000, -1.095703125, -1.144531250, -0.273437500, 0.048828125, -0.136718750, -0.005859375, -0.058593750, -0.062500000, 0.021484375, 0.117187500, 0.078125000, -0.095703125, 0.064453125, 0.304687500, -0.246093750, 0.148437500, -0.271484375, 0.128906250, 0.248046875, 0.330078125, 0.234375000, -0.003906250, 0.273437500, 0.138671875, -0.156250000, 0.191406250, 0.556640625, 0.072265625, 0.005859375, 0.152343750, 0.128906250, 0.041015625, 0.164062500, 0.070312500, -0.025390625, 0.164062500, -0.033203125, -0.335937500, -0.451171875, 0.130859375, 0.283203125, 0.058593750, 0.003906250, 0.044921875, 0.171875000, -0.363281250, 0.140625000, 0.111328125, -0.396484375, 0.066406250, -0.615234375, -0.021484375, -0.253906250, 0.009765625, -0.048828125, -0.005859375, -0.187500000, -0.152343750, -0.083984375, -0.082031250, 0.037109375, -0.005859375, -0.238281250, 0.205078125, -1.035156250, 0.328125000, 0.183593750, 0.201171875, 0.382812500, 0.382812500, 0.361328125, 0.435546875, -0.296875000, 0.033203125, 0.353515625, 0.220703125, 0.015625000, 0.250000000, 0.126953125, 0.230468750, 0.117187500, 0.187500000, 0.171875000, 0.037109375, 0.003906250, -0.179687500, -0.509765625, 0.314453125, 0.015625000, 0.158203125, 0.130859375, 0.259765625, 0.212890625, -0.468750000, 0.296875000, 0.402343750, 0.425781250, 0.162109375, -0.130859375, -0.140625000, -0.402343750, -0.173828125, -0.187500000, -0.070312500, -0.253906250, -0.910156250, -0.154296875, -0.302734375, -0.263671875, -0.341796875, 0.101562500, 0.281250000, -2.041015625, 0.244140625, 0.271484375, 0.183593750, 0.246093750, 0.003906250, 0.240234375, 0.130859375, -0.232421875, 0.019531250, -0.064453125, 0.158203125, -1.554687500, -0.005859375, 0.015625000, 0.101562500, 0.136718750, 0.320312500, 0.169921875, -0.011718750, 0.371093750, -0.191406250, 0.158203125, 0.412109375, -1.443359375, 0.390625000, 0.546875000, 0.402343750, 0.246093750, -0.089843750, 0.212890625, 0.380859375, 0.361328125, 0.066406250, -0.371093750, -0.023437500, -1.968750000, 0.054687500, 0.185546875, 0.015625000, 0.166015625, -1.226562500, 0.033203125, 0.042968750, -0.091796875, -0.710937500, 0.433593750, 0.320312500, -1.482421875, 0.414062500, 0.621093750, 0.390625000, 0.302734375, 0.300781250, 0.419921875, 0.263671875, -0.410156250, -0.199218750, 0.251953125, 0.259765625, -1.255859375, 0.304687500, 0.201171875, 0.107421875, 0.285156250, 0.580078125, 0.228515625, 0.277343750, -0.494140625, 0.501953125, -0.466796875, 0.326171875, -1.314453125, 0.298828125, 0.302734375, 0.414062500, 0.244140625, -1.568359375, 0.242187500, 0.324218750, -0.521484375, 0.009765625, -0.140625000, -0.177734375, -1.560546875, -0.046875000, 0.039062500, -0.158203125, -0.125000000, -0.673828125, 0.015625000, 0.058593750, -1.296875000, -0.396484375, 0.746093750, 0.167968750, -1.408203125, 0.339843750, 0.304687500, 0.191406250, 0.148437500, -0.037109375, 0.212890625, 0.177734375, -1.388671875, -0.021484375, 0.257812500, 0.298828125, -1.371093750, 0.175781250, 0.275390625, 0.236328125, 0.259765625, 0.400390625, 0.082031250, 0.308593750, -1.230468750, -0.039062500, -1.257812500, 0.097656250, -0.820312500, 0.205078125, 0.261718750, 0.292968750, 0.091796875, -1.054687500, 0.291015625, 0.365234375, -1.199218750, -0.105468750, -0.830078125, 0.115234375, -1.509765625, -0.039062500, 0.068359375, 0.050781250, 0.191406250, -0.140625000, -0.160156250, 0.078125000, -2.134765625, -0.951171875, 0.332031250, 0.240234375, -1.593750000, 0.396484375, 0.343750000, 0.394531250, 0.476562500, 0.183593750, 0.271484375, 0.341796875, -2.201171875, 0.212890625, 0.189453125, 0.074218750, -1.234375000, 0.113281250, 0.078125000, 0.191406250, -0.089843750, 0.130859375, 0.138671875, 0.025390625, -2.251953125, -0.277343750, -1.304687500, 0.169921875, -1.628906250, 0.144531250, 0.189453125, 0.029296875, 0.123046875, -0.207031250, 0.128906250, 0.208984375, -2.378906250, -0.380859375, -0.675781250, 0.169921875, -1.726562500, 0.218750000, 0.220703125, 0.007812500, 0.207031250, -0.523437500, 0.203125000, 0.244140625, -0.806640625, -2.226562500, 0.583984375, 0.332031250, -0.599609375, 0.455078125, 0.539062500, 0.435546875, 0.552734375, 0.208984375, 0.333984375, 0.261718750, -1.183593750, -1.552734375, 0.156250000, 0.214843750, -0.339843750, -0.042968750, 0.193359375, 0.283203125, 0.228515625, 0.140625000, -0.046875000, 0.160156250, -1.240234375, -2.218750000, -0.523437500, 0.181640625, -0.244140625, 0.312500000, 0.101562500, 0.289062500, 0.273437500, -0.056640625, 0.052734375, 0.103515625, -0.992187500, -1.658203125, -0.187500000, 0.271484375, -0.203125000, 0.406250000, 0.406250000, 0.169921875, 0.289062500, -0.375000000, 0.273437500, 0.300781250, -1.931640625, -1.958984375, 0.410156250, 0.357421875, -0.876953125, 0.279296875, 0.640625000, 0.539062500, 0.390625000, 0.355468750, 0.468750000, 0.507812500, -1.939453125, -0.328125000, 0.142578125, 0.123046875, 0.177734375, 0.212890625, 0.033203125, 0.167968750, 0.013671875, -0.335937500, 0.189453125, 0.130859375, -1.957031250, -0.716796875, -0.285156250, 0.185546875, 0.072265625, -0.017578125, 0.162109375, 0.011718750, 0.083984375, -0.324218750, 0.146484375, 0.117187500, -1.794921875, -1.763671875, -0.236328125, 0.097656250, 0.121093750, 0.181640625, 0.222656250, 0.064453125, 0.074218750, -0.244140625, 0.154296875, 0.144531250, 0.064453125, -1.041015625, -0.320312500, 0.066406250, 0.089843750, 0.142578125, 0.083984375, 0.083984375, 0.281250000, -0.611328125, 0.072265625, 0.060546875, -0.353515625, 0.058593750, 0.406250000, -0.021484375, -0.160156250, -0.105468750, -0.050781250, -0.062500000, -0.115234375, 0.162109375, 0.044921875, 0.103515625, 0.250000000, -1.255859375, -1.562500000, 0.292968750, 0.363281250, 0.447265625, 0.275390625, 0.332031250, 0.421875000, -0.419921875, 0.183593750, 0.177734375, 0.201171875, -0.308593750, -0.162109375, 0.166015625, -0.072265625, 0.179687500, 0.228515625, 0.242187500, 0.160156250, -0.902343750, 0.367187500, 0.224609375, 0.263671875, -0.166015625, 0.050781250, 0.242187500, -0.355468750, 0.291015625, 0.257812500, 0.173828125, 0.185546875, 0.240234375, 0.287109375, 0.238281250, -0.128906250, 0.017578125, -0.406250000, -0.281250000, -0.064453125, -0.183593750, -0.187500000, -0.201171875, -0.109375000, -0.173828125, -0.117187500, -0.169921875, -0.226562500, -0.005859375, -0.947265625, 0.248046875, 0.207031250, 0.335937500, 0.255859375, 0.283203125, 0.392578125, -0.539062500, 0.382812500, 0.447265625, 0.261718750, -0.679687500, -0.775390625, 0.228515625, -0.097656250, 0.056640625, 0.085937500, 0.035156250, 0.062500000, -0.826171875, 0.064453125, 0.162109375, 0.130859375, -0.871093750, -1.027343750, 0.076171875, -1.748046875, 0.152343750, 0.244140625, 0.152343750, 0.085937500, 0.074218750, 0.044921875, 0.148437500, 0.005859375, 0.189453125, 0.000000000, 0.111328125, -1.201171875, 0.009765625, 0.019531250, 0.025390625, -0.017578125, 0.218750000, 0.123046875, 0.076171875, -0.058593750, -0.214843750, 0.416015625, 0.181640625, -0.912109375, 0.259765625, 0.097656250, 0.298828125, 0.294921875, -0.408203125, 0.289062500, 0.173828125, 0.093750000, -0.025390625, -0.132812500, 0.105468750, -1.601562500, 0.109375000, 0.216796875, 0.455078125, 0.146484375, -0.515625000, 0.353515625, 0.240234375, 0.064453125, -0.525390625, -0.392578125, 0.359375000, -1.423828125, 0.238281250, 0.216796875, 0.119140625, 0.107421875, 0.250000000, 0.326171875, 0.177734375, -0.087890625, -0.001953125, -0.367187500, 0.085937500, -1.427734375, -0.267578125, -0.267578125, 0.091796875, 0.085937500, 0.376953125, -0.158203125, -0.031250000, -0.419921875, 0.009765625, 0.025390625, 0.390625000, -1.212890625, 0.099609375, 0.105468750, 0.384765625, 0.320312500, -0.367187500, 0.095703125, 0.292968750, -0.046875000, -0.503906250, -0.724609375, 0.003906250, -1.449218750, 0.095703125, -0.042968750, 0.080078125, 0.107421875, -0.816406250, 0.121093750, -0.095703125, -1.335937500, -0.160156250, 0.109375000, 0.242187500, -1.248046875, 0.306640625, 0.152343750, 0.253906250, 0.232421875, 0.009765625, 0.167968750, 0.162109375, -0.925781250, -0.261718750, -0.876953125, 0.031250000, -0.867187500, 0.074218750, 0.152343750, -0.062500000, 0.044921875, 0.416015625, 0.015625000, -0.015625000, -0.863281250, 0.068359375, -1.378906250, 0.246093750, -0.435546875, 0.314453125, 0.064453125, 0.306640625, 0.332031250, -1.634765625, 0.064453125, 0.160156250, -1.312500000, 0.074218750, -0.820312500, 0.097656250, -0.953125000, 0.201171875, 0.197265625, 0.138671875, 0.093750000, -0.462890625, 0.027343750, 0.095703125, -2.021484375, -0.644531250, -0.113281250, 0.291015625, -1.138671875, 0.173828125, 0.269531250, 0.281250000, 0.240234375, 0.015625000, 0.208984375, 0.277343750, -2.132812500, -0.349609375, 0.123046875, 0.070312500, -0.787109375, 0.150390625, 0.021484375, 0.152343750, 0.125000000, 0.367187500, 0.076171875, 0.052734375, -1.998046875, -0.021484375, -1.257812500, -0.025390625, -1.796875000, 0.128906250, 0.201171875, 0.017578125, 0.048828125, -0.589843750, -0.046875000, -0.039062500, -2.195312500, -0.351562500, -1.550781250, 0.017578125, -1.265625000, 0.097656250, 0.156250000, 0.144531250, -0.001953125, -0.501953125, 0.121093750, 0.019531250, -1.587890625, -2.492187500, 0.236328125, 0.431640625, 0.351562500, 0.375000000, 0.539062500, 0.447265625, 0.498046875, 0.021484375, 0.449218750, 0.519531250, -1.328125000, -1.726562500, 0.173828125, 0.025390625, -0.082031250, 0.070312500, -0.005859375, -0.050781250, 0.101562500, 0.203125000, -0.078125000, 0.044921875, -1.304687500, -1.705078125, -1.011718750, 0.039062500, -0.234375000, 0.058593750, 0.033203125, 0.076171875, 0.125000000, -0.361328125, 0.119140625, 0.134765625, -1.222656250, -2.279296875, -1.113281250, 0.189453125, -0.417968750, 0.148437500, 0.326171875, 0.097656250, 0.080078125, -0.673828125, 0.251953125, 0.216796875, -1.126953125, -2.261718750, 0.076171875, 0.460937500, -0.464843750, 0.251953125, 0.453125000, 0.396484375, 0.351562500, 0.021484375, 0.453125000, 0.386718750, -1.023437500, -1.781250000, 0.406250000, 0.017578125, 0.210937500, 0.068359375, -0.060546875, 0.000000000, -0.083984375, -0.031250000, -0.070312500, -0.095703125, -0.777343750, -2.046875000, 0.542968750, 0.076171875, -0.931640625, 0.220703125, 0.361328125, 0.220703125, 0.218750000, -0.482421875, 0.246093750, 0.046875000, -1.177734375, -2.199218750, -0.042968750, 1.060546875, -0.660156250, 0.912109375, 1.291015625, 1.048828125, 1.150390625, -0.673828125, 1.072265625, 1.154296875};

#endif

#endif
