//Numpy array shape [7, 7, 1, 3]
//Min -2.302734375000
//Max 2.052734375000
//Number of zeros 0

#ifndef W5_H_
#define W5_H_

#ifndef __SYNTHESIS__
weight5_t w5[147];
#else
weight5_t w5[147] = {0.355468750, 0.277343750, -0.615234375, 0.408203125, -0.597656250, 0.310546875, -0.173828125, 0.021484375, -0.859375000, -0.361328125, -0.285156250, -0.265625000, -0.097656250, 0.101562500, -1.253906250, -0.763671875, -1.287109375, -0.898437500, 1.203125000, 0.230468750, -0.429687500, -0.148437500, -0.382812500, -0.525390625, -0.146484375, -0.953125000, 0.277343750, -0.056640625, 0.191406250, -0.380859375, -0.126953125, 0.029296875, -1.056640625, 0.144531250, -0.404296875, -0.994140625, 0.261718750, 0.425781250, 0.216796875, 1.416015625, 1.380859375, 0.519531250, 0.689453125, 1.375000000, 1.810546875, 0.263671875, -0.773437500, 0.535156250, -0.347656250, -0.621093750, -0.130859375, -0.074218750, -0.580078125, -0.878906250, 0.746093750, 1.166015625, 0.996093750, 0.740234375, 1.904296875, 1.314453125, 0.898437500, 1.759765625, 0.507812500, 0.472656250, 1.904296875, 1.755859375, -0.443359375, 1.619140625, 1.746093750, 1.105468750, 1.650390625, 1.947265625, 1.412109375, 1.599609375, 1.501953125, 0.443359375, 1.164062500, 2.052734375, 0.509765625, 1.146484375, 1.054687500, 0.123046875, 0.679687500, 0.171875000, 0.917968750, 1.820312500, 0.777343750, 0.562500000, 0.748046875, 0.837890625, 0.402343750, 0.308593750, 0.892578125, -0.421875000, -2.248046875, -0.865234375, -0.214843750, -0.673828125, -0.423828125, -0.771484375, -0.361328125, -0.138671875, -0.173828125, 0.363281250, 0.839843750, 0.843750000, 1.603515625, 0.208984375, 1.419921875, 1.074218750, 1.156250000, -0.554687500, -1.853515625, -0.773437500, -0.093750000, -1.791015625, -0.277343750, -1.082031250, -1.994140625, -0.312500000, -1.689453125, -0.902343750, 0.015625000, -1.578125000, -1.386718750, -1.134765625, 1.863281250, 1.115234375, 1.632812500, -0.242187500, -0.277343750, -0.802734375, -0.720703125, -1.189453125, 0.238281250, -0.166015625, -0.232421875, -0.490234375, 0.025390625, -2.302734375, -0.195312500, -1.964843750, -1.857421875, -0.812500000, -0.056640625, -0.978515625, -0.578125000};

#endif

#endif
