//Numpy array shape [64]
//Min -0.277343750000
//Max 0.265625000000
//Number of zeros 1

#ifndef B11_H_
#define B11_H_

#ifndef __SYNTHESIS__
bias11_t b11[64];
#else
bias11_t b11[64] = {0.041015625, 0.125000000, 0.000000000, -0.003906250, -0.277343750, -0.033203125, 0.037109375, 0.062500000, 0.003906250, 0.259765625, -0.167968750, -0.031250000, -0.128906250, 0.250000000, -0.031250000, 0.066406250, -0.039062500, -0.015625000, -0.058593750, -0.160156250, -0.003906250, -0.039062500, 0.126953125, 0.166015625, -0.039062500, 0.097656250, -0.113281250, 0.130859375, 0.091796875, 0.140625000, 0.031250000, -0.039062500, -0.066406250, 0.265625000, -0.007812500, 0.265625000, 0.203125000, -0.187500000, -0.039062500, 0.183593750, 0.054687500, -0.037109375, -0.013671875, 0.244140625, -0.029296875, -0.085937500, 0.003906250, -0.130859375, -0.150390625, 0.044921875, 0.005859375, 0.125000000, 0.146484375, -0.031250000, -0.148437500, 0.048828125, 0.128906250, 0.195312500, 0.064453125, -0.087890625, -0.025390625, 0.099609375, 0.035156250, -0.197265625};

#endif

#endif
