//Numpy array shape [64, 10]
//Min -2.544921875000
//Max 1.986328125000
//Number of zeros 1

#ifndef W14_H_
#define W14_H_

#ifndef __SYNTHESIS__
weight14_t w14[640];
#else
weight14_t w14[640] = {-0.408203125, -0.005859375, -0.751953125, -0.822265625, 0.853515625, 0.798828125, 0.431640625, 0.541015625, 0.357421875, 0.066406250, -0.691406250, 0.193359375, 0.964843750, -0.494140625, 0.654296875, 0.166015625, 0.683593750, 0.236328125, 0.279296875, -1.021484375, 0.148437500, -0.029296875, 0.166015625, 0.033203125, 0.007812500, 0.142578125, -0.001953125, -0.142578125, -0.044921875, 0.169921875, -0.005859375, -0.013671875, -0.115234375, 0.226562500, -0.105468750, 0.101562500, 0.132812500, 0.171875000, -0.048828125, 0.154296875, 0.587890625, 0.750000000, -1.078125000, 1.013671875, -0.367187500, 0.832031250, 0.396484375, -0.935546875, -0.355468750, -1.027343750, 0.136718750, -1.527343750, 0.232421875, 0.435546875, -0.773437500, 0.060546875, -0.646484375, 0.097656250, -0.064453125, 0.080078125, 0.025390625, -1.218750000, -0.246093750, 0.568359375, 0.072265625, 0.314453125, -0.148437500, -0.080078125, 0.722656250, 0.111328125, 0.972656250, 0.228515625, -0.025390625, -1.859375000, -0.195312500, -0.964843750, -0.976562500, 0.693359375, 0.611328125, 0.546875000, 0.865234375, 0.402343750, 0.707031250, -0.558593750, 0.265625000, -0.066406250, -0.306640625, 0.412109375, -2.050781250, 0.333984375, -0.949218750, 0.363281250, -0.066406250, 0.154296875, 0.734375000, -0.029296875, -0.009765625, 0.312500000, 0.351562500, -0.304687500, -1.109375000, -0.097656250, 0.373046875, 0.990234375, -1.369140625, 0.734375000, -1.304687500, 0.310546875, -1.255859375, 0.087890625, 0.552734375, -0.574218750, 0.281250000, 0.771484375, -1.359375000, 0.060546875, -0.513671875, -0.144531250, 0.408203125, -0.144531250, -1.136718750, -0.236328125, 0.806640625, -0.277343750, 0.792968750, 1.115234375, -0.267578125, -1.263671875, 0.253906250, -0.464843750, 1.072265625, 0.326171875, -0.785156250, -0.699218750, 0.818359375, -0.013671875, -0.312500000, -2.103515625, 0.154296875, 0.666015625, -0.138671875, -0.175781250, -0.130859375, -0.078125000, 0.154296875, -0.134765625, 0.013671875, 0.187500000, 0.195312500, 0.037109375, -0.183593750, 0.310546875, 0.927734375, 0.189453125, 0.914062500, -2.425781250, -1.089843750, 0.328125000, -0.052734375, 0.515625000, -0.169921875, 0.082031250, 0.283203125, -0.234375000, 0.160156250, 0.289062500, -0.230468750, 0.269531250, 0.097656250, -0.099609375, -0.210937500, -0.074218750, -0.044921875, -0.093750000, 0.035156250, 0.015625000, -0.175781250, -0.068359375, 0.234375000, 0.185546875, -0.232421875, 1.441406250, 1.349609375, -0.574218750, -1.451171875, -0.705078125, -0.943359375, 0.757812500, 0.294921875, -1.748046875, 0.171875000, -0.062500000, 0.216796875, 0.251953125, -0.818359375, 0.351562500, 0.406250000, -0.970703125, -0.023437500, -0.583984375, -0.644531250, 0.392578125, 0.117187500, 0.773437500, -1.707031250, -1.464843750, -1.046875000, 0.902343750, -0.222656250, 0.304687500, 0.533203125, -0.732421875, -0.605468750, -1.164062500, -0.798828125, 0.521484375, 1.277343750, -0.677734375, 0.580078125, 0.072265625, 0.400390625, 0.730468750, -0.066406250, 0.304687500, 0.605468750, -1.771484375, 0.330078125, 0.175781250, -0.312500000, 0.378906250, 0.324218750, 1.412109375, -0.628906250, 0.078125000, -0.443359375, -0.220703125, -0.136718750, -0.152343750, -0.681640625, 0.660156250, -2.544921875, -0.033203125, -1.400390625, 0.398437500, 0.617187500, 0.212890625, -2.044921875, -0.017578125, -0.199218750, 0.748046875, -0.220703125, 0.546875000, -1.386718750, -1.093750000, -0.306640625, 0.464843750, 1.636718750, -0.279296875, 0.152343750, 0.687500000, 0.324218750, 0.468750000, 0.595703125, 0.164062500, 0.902343750, 0.705078125, -0.357421875, -0.164062500, -0.152343750, -1.708984375, 0.402343750, 0.269531250, 1.148437500, -0.718750000, 0.478515625, -0.271484375, -0.728515625, 0.337890625, -0.464843750, 0.617187500, -0.462890625, -0.189453125, -0.015625000, -0.607421875, 0.775390625, 0.373046875, -0.945312500, 0.255859375, -0.152343750, 0.523437500, 0.875000000, 0.097656250, 0.667968750, -0.861328125, 0.140625000, -1.847656250, 0.673828125, 0.705078125, 0.314453125, -1.017578125, 0.048828125, 0.226562500, -0.533203125, 0.855468750, 0.701171875, 0.365234375, 0.052734375, 0.371093750, -0.585937500, -1.187500000, 0.445312500, -1.414062500, 0.355468750, -0.537109375, 0.646484375, 0.675781250, 0.185546875, -0.398437500, 0.322265625, -0.443359375, -0.015625000, 0.056640625, -0.060546875, 0.292968750, -0.072265625, -0.046875000, -0.201171875, 0.136718750, -0.148437500, -0.066406250, -1.023437500, -1.992187500, -0.533203125, 0.095703125, 0.593750000, -0.085937500, 0.712890625, -0.355468750, -0.820312500, 0.767578125, -0.292968750, 0.121093750, 0.175781250, 0.177734375, -0.052734375, -0.339843750, -0.019531250, 0.279296875, -0.076171875, -0.162109375, -0.980468750, -0.371093750, -0.185546875, 0.392578125, 0.007812500, -0.031250000, -1.224609375, 0.798828125, 0.148437500, 0.628906250, -0.302734375, 1.369140625, -1.496093750, -0.984375000, -0.001953125, 1.023437500, -0.142578125, -0.222656250, -0.984375000, 0.722656250, 0.757812500, 0.500000000, -0.132812500, 0.751953125, -1.927734375, 0.781250000, -0.205078125, -1.041015625, 0.275390625, 0.003906250, 0.343750000, 0.337890625, 0.785156250, -0.519531250, 1.583984375, -0.863281250, -0.273437500, 1.609375000, -1.085937500, 1.271484375, -0.478515625, 0.382812500, 0.410156250, 0.427734375, 0.080078125, 0.222656250, -1.318359375, 0.384765625, 0.058593750, 0.175781250, 0.164062500, 0.134765625, 1.408203125, -0.478515625, -0.912109375, 0.025390625, -0.775390625, 0.343750000, -0.132812500, -0.257812500, 0.091796875, -0.466796875, -0.386718750, -0.240234375, -0.044921875, 0.513671875, -0.005859375, -0.111328125, 0.523437500, 0.607421875, -0.019531250, -0.164062500, 0.000000000, -0.240234375, -0.001953125, -0.115234375, -0.046875000, 0.046875000, -0.162109375, -0.228515625, -2.535156250, 0.308593750, -0.333984375, 0.009765625, 1.060546875, 0.808593750, -0.400390625, 0.296875000, 0.386718750, 0.199218750, 0.048828125, -0.123046875, -0.187500000, -0.056640625, -0.136718750, 0.244140625, 0.160156250, 0.044921875, -0.039062500, 0.005859375, -0.250000000, 0.371093750, -0.861328125, 0.460937500, 0.425781250, 0.367187500, -0.214843750, 0.031250000, -0.777343750, 0.730468750, 0.488281250, -2.111328125, 0.039062500, 0.201171875, 0.064453125, 0.503906250, 0.310546875, -0.867187500, 0.179687500, 0.634765625, 0.603515625, -0.015625000, 0.150390625, 1.056640625, -1.617187500, 0.289062500, 0.087890625, -0.912109375, -0.103515625, -0.882812500, 0.042968750, -0.125000000, 0.302734375, 0.365234375, -0.333984375, -0.292968750, 0.281250000, -0.609375000, 0.560546875, 0.076171875, 0.005859375, 0.453125000, -0.160156250, -2.056640625, 0.671875000, 0.031250000, 0.556640625, 0.490234375, 1.292968750, -0.970703125, -0.308593750, -0.343750000, -0.042968750, 0.039062500, 0.064453125, -0.218750000, 0.029296875, 0.085937500, -0.031250000, 0.027343750, -0.804687500, 0.476562500, 0.478515625, -0.339843750, -0.283203125, -0.275390625, 0.419921875, -0.833984375, 0.593750000, -0.003906250, 0.501953125, -1.820312500, -0.269531250, 0.058593750, 0.138671875, 0.140625000, 0.591796875, -0.123046875, -0.273437500, 0.650390625, -0.068359375, 0.193359375, 0.203125000, -0.066406250, 0.164062500, 0.011718750, -0.015625000, -0.035156250, -0.207031250, 0.037109375, -0.603515625, 0.361328125, 0.894531250, 0.839843750, -0.894531250, 0.310546875, -1.568359375, 0.847656250, -1.101562500, 0.865234375, 0.564453125, -0.869140625, -0.148437500, 0.205078125, 0.457031250, -0.753906250, -0.433593750, 0.064453125, 0.632812500, 0.072265625, 1.068359375, -0.222656250, -1.658203125, -1.041015625, 0.843750000, 0.140625000, -0.072265625, 0.164062500, -0.355468750, 0.169921875, 0.390625000, 1.042968750, -0.546875000, -0.607421875, 0.541015625, 0.855468750, 0.203125000, 0.882812500, -0.576171875, -1.259765625, 0.068359375, 1.628906250, 0.322265625, 0.798828125, -0.253906250, -1.685546875, 0.164062500, 0.412109375, -0.708984375, -0.919921875, -1.251953125, 0.179687500, 0.275390625, -0.322265625, 0.693359375, 0.363281250, -0.650390625, 1.148437500, 0.298828125, -1.115234375, 0.029296875, -0.115234375, -0.064453125, -0.054687500, 0.058593750, -0.126953125, 0.060546875, 0.123046875, 0.060546875, -0.080078125, -0.015625000, 0.275390625, 0.917968750, -0.423828125, -0.367187500, -0.482421875, 1.986328125, 0.542968750, -0.601562500, -0.455078125, -0.253906250, -0.457031250, -0.250000000, -0.460937500, 0.283203125, -0.142578125, -0.003906250, 0.527343750, 0.015625000, 0.072265625, 0.015625000, 0.994140625, -0.189453125, 0.083984375, -1.162109375, 0.105468750, 1.650390625, 1.070312500, -0.478515625, -0.089843750};

#endif

#endif
