//Numpy array shape [5, 5, 1, 3]
//Min -1.470703125000
//Max 1.542968750000
//Number of zeros 0

#ifndef W6_H_
#define W6_H_

#ifndef __SYNTHESIS__
weight6_t w6[75];
#else
weight6_t w6[75] = {-0.382812500, 0.878906250, 0.001953125, -1.236328125, -1.470703125, -0.242187500, 1.044921875, -1.140625000, -0.810546875, 0.785156250, -0.515625000, -0.197265625, 0.318359375, 0.039062500, 0.544921875, -0.732421875, 1.078125000, 0.021484375, -1.273437500, 1.273437500, -0.205078125, 1.123046875, 1.318359375, 0.898437500, 0.449218750, 0.384765625, 0.798828125, 0.064453125, 0.398437500, 0.341796875, 1.062500000, -0.253906250, 0.572265625, -0.580078125, -0.005859375, 0.876953125, -0.769531250, -0.511718750, 0.935546875, -1.035156250, -0.236328125, -0.597656250, -1.138671875, -0.072265625, 0.619140625, 1.050781250, 0.425781250, 0.333984375, 0.623046875, -0.234375000, 1.542968750, -0.199218750, -0.806640625, -1.070312500, 0.185546875, -0.847656250, -0.904296875, 1.152343750, -0.197265625, -0.595703125, -0.767578125, 0.408203125, 0.457031250, 0.119140625, -0.539062500, 0.500000000, 0.652343750, 0.304687500, -1.287109375, 0.294921875, 0.830078125, -0.167968750, 0.214843750, 0.333984375, 0.166015625};

#endif

#endif
