//Numpy array shape [28, 5]
//Min -2.000000000000
//Max 1.984375000000
//Number of zeros 0

#ifndef W16_H_
#define W16_H_

#ifndef __SYNTHESIS__
weight16_t w16[140];
#else
weight16_t w16[140] = {-2.000000, -1.968750, 1.984375, 1.750000, 1.531250, -1.921875, -1.640625, 1.843750, 1.437500, 0.640625, 0.390625, -0.343750, -0.781250, 1.031250, -0.640625, 1.796875, 1.984375, -1.859375, -0.468750, -1.921875, 0.015625, 0.437500, 1.281250, 0.218750, -2.000000, -2.000000, -0.843750, 1.984375, 1.984375, -0.765625, -1.984375, -1.968750, 1.984375, 1.984375, -2.000000, -0.812500, 0.421875, 1.234375, 1.984375, -1.984375, 0.812500, 1.593750, 0.359375, -1.218750, -1.656250, -1.031250, -1.500000, 0.593750, -0.078125, 1.406250, 1.984375, -1.906250, -1.984375, -1.703125, -1.515625, -2.000000, -0.625000, 1.984375, 1.984375, -1.578125, -2.000000, -1.140625, 1.984375, 1.984375, -1.031250, 1.984375, 1.984375, -2.000000, -2.000000, 1.984375, 0.625000, -0.656250, -0.281250, -0.359375, 0.609375, -2.000000, -1.890625, 1.984375, 1.968750, 0.937500, 1.562500, 0.093750, -1.703125, -0.437500, -0.500000, 0.906250, 1.984375, -2.000000, 0.343750, 1.984375, 1.515625, 1.078125, -2.000000, -0.093750, 0.328125, -2.000000, -1.437500, 1.984375, 1.578125, 1.375000, -1.984375, -1.843750, 0.828125, 1.703125, 0.843750, 1.671875, 1.984375, -2.000000, -2.000000, 1.984375, 0.453125, 0.843750, 0.750000, 0.062500, -2.000000, 1.671875, 1.921875, -2.000000, 1.984375, -1.234375, 1.984375, -0.125000, 0.296875, -0.156250, -1.984375, -1.484375, -0.250000, 0.406250, 1.281250, 1.546875, 0.890625, 0.890625, -2.000000, 0.562500, 0.671875, 1.406250, 1.531250, 1.984375, -2.000000, 1.984375};

#endif

#endif
