//Numpy array shape [64, 5]
//Min -1.000000000000
//Max 0.992187500000
//Number of zeros 0

#ifndef W13_H_
#define W13_H_

#ifndef __SYNTHESIS__
weight13_t w13[320];
#else
weight13_t w13[320] = {0.9921875, 0.9843750, -0.9921875, -0.9531250, 0.6250000, -1.0000000, -0.1953125, 0.9921875, 0.9921875, -0.9531250, 0.9531250, 0.1171875, 0.4843750, -0.9140625, -0.9921875, -0.5703125, -0.4296875, -0.5781250, -0.3906250, 0.8984375, 0.0625000, 0.9921875, -0.9921875, 0.9843750, -1.0000000, -0.1562500, 0.5312500, 0.9921875, -0.9687500, -0.0859375, 0.8437500, -0.3906250, -1.0000000, 0.9921875, -0.1406250, -0.9921875, -1.0000000, 0.9921875, 0.9921875, -0.9921875, -0.8359375, -0.9765625, -0.2343750, 0.4375000, 0.9921875, -0.9921875, -0.9843750, 0.9921875, 0.5000000, 0.9765625, 0.9843750, 0.9921875, -1.0000000, 0.1171875, 0.9921875, 0.8515625, 0.8750000, -0.2968750, -0.8671875, -0.9843750, 0.0312500, 0.3828125, -0.9921875, 0.9921875, 0.9921875, 0.5390625, 0.6562500, 0.6171875, 0.3125000, -1.0000000, -1.0000000, -0.9843750, 0.9921875, 0.9921875, -0.7890625, 0.9765625, 0.9921875, -1.0000000, -0.9921875, 0.9921875, -1.0000000, -1.0000000, 0.7812500, 0.9921875, 0.9921875, 0.9921875, 0.9921875, -0.9921875, -0.9921875, 0.9921875, -0.9921875, 0.9921875, 0.0468750, 0.9921875, -1.0000000, 0.9843750, -0.9453125, 0.2265625, 0.9921875, -0.9921875, -1.0000000, -0.4609375, 0.9921875, 0.9843750, -1.0000000, 0.0937500, 0.9765625, 0.9921875, 0.7812500, -1.0000000, 0.9921875, -0.9921875, -0.0156250, -0.0156250, 0.6562500, -0.4375000, 0.9921875, -0.9921875, 0.8593750, 0.9921875, 0.9843750, -0.9687500, -0.9843750, -0.9218750, -0.0156250, -1.0000000, 0.0468750, 0.9843750, 0.3046875, 0.3203125, 0.9921875, 0.9921875, -1.0000000, -0.9921875, 0.9921875, -1.0000000, -0.9687500, 0.2421875, 0.9453125, 0.9921875, 0.9765625, 0.9921875, -1.0000000, -0.9921875, 0.9921875, 0.9921875, -0.2500000, -0.2343750, -0.4062500, -0.9921875, 0.5468750, 0.3281250, -0.2031250, -1.0000000, 0.9921875, -0.5703125, -0.9843750, 0.1718750, -0.0625000, 0.9921875, 0.9921875, 0.6250000, 0.7343750, 0.0390625, -1.0000000, -1.0000000, 0.1328125, 0.9921875, 0.9921875, -0.9843750, -1.0000000, -0.8750000, 0.9140625, 0.9921875, 0.9843750, -0.9921875, -0.3125000, 0.9218750, 0.9921875, 0.6562500, 0.9843750, 0.9921875, -1.0000000, -0.9921875, 0.9921875, 0.9921875, -0.9218750, -0.1015625, -0.9921875, -0.9921875, -1.0000000, -0.9062500, 0.9921875, 0.9843750, -0.9921875, 0.2265625, -0.7109375, 0.9921875, 0.9921875, -0.9921875, 0.9921875, 0.9921875, -0.4453125, 0.1093750, -1.0000000, 0.9843750, 0.9921875, -1.0000000, -0.9921875, 0.9921875, -0.0468750, 0.6562500, 0.9921875, -0.9921875, 0.6250000, -0.4453125, -0.1328125, -0.9921875, 0.9921875, 0.0781250, 0.9843750, 0.9921875, -1.0000000, -0.8515625, -0.9140625, -1.0000000, -1.0000000, 0.9921875, 0.9843750, 0.2265625, 0.9843750, 0.9921875, -1.0000000, -0.9921875, 0.9296875, 0.3593750, 0.9921875, -1.0000000, 0.9921875, -0.9921875, 0.9921875, 0.9765625, -0.9921875, -0.7187500, -0.9765625, 0.9921875, -1.0000000, -0.9843750, -1.0000000, -0.9921875, -1.0000000, -0.9765625, 0.9921875, 0.9921875, -0.9921875, -0.6562500, -0.7421875, 0.9921875, 0.9921875, -0.9921875, 0.4218750, -0.3906250, -0.4765625, -0.7343750, 0.9843750, 0.9921875, 0.9921875, -0.9921875, -0.9687500, 0.9687500, -1.0000000, -0.9921875, 0.6250000, 0.9921875, 0.8437500, 0.9921875, -1.0000000, 0.2265625, 0.7734375, -1.0000000, 0.0234375, 0.6718750, -1.0000000, -0.9843750, 0.9921875, 0.3593750, 0.7031250, 0.1796875, -0.0078125, -1.0000000, -1.0000000, -0.4218750, 0.9921875, 0.7265625, -0.9921875, 0.9843750, 0.9921875, -1.0000000, -0.9843750, -0.2812500, -0.9843750, -1.0000000, -0.2578125, 0.9843750, 0.3046875, 0.9921875, 0.0937500, 0.5156250, 0.2500000, -0.9921875, -0.7343750, 0.6640625, -0.5859375, 0.9921875, -0.9921875, -0.5703125, 0.9921875, -0.3203125, -1.0000000, 0.9921875};

#endif

#endif
