//Numpy array shape [5, 5, 3, 2]
//Min -1.140625000000
//Max 1.984375000000
//Number of zeros 8

#ifndef W5_H_
#define W5_H_

#ifndef __SYNTHESIS__
weight5_t w5[150];
#else
weight5_t w5[150] = {0.015625, 0.078125, -0.421875, -0.218750, 0.000000, -0.390625, -0.203125, -0.031250, 0.062500, -0.281250, -0.015625, -0.546875, -0.031250, -0.171875, 0.250000, -0.390625, -0.156250, -0.718750, -0.109375, -0.078125, 0.250000, -0.375000, -0.093750, -0.281250, -0.031250, -0.031250, -0.046875, -0.109375, -0.203125, -0.093750, -0.234375, -0.015625, 0.062500, 0.000000, 0.203125, -0.312500, -0.343750, -0.140625, 0.343750, 0.140625, 0.046875, -0.250000, -0.015625, -0.203125, -0.125000, -0.203125, 0.093750, -0.640625, -0.203125, -0.046875, 0.140625, -0.015625, -0.125000, -0.640625, 0.015625, -0.187500, 0.046875, -0.187500, -0.265625, 0.156250, -0.203125, 0.000000, -0.203125, -0.250000, 0.328125, -0.531250, -0.296875, -0.375000, -0.109375, -0.109375, 0.359375, -0.562500, 1.093750, 1.984375, 1.031250, 1.390625, 0.171875, 0.218750, 0.046875, -0.796875, -0.031250, 1.234375, -0.015625, -0.156250, 0.000000, -0.078125, 0.078125, -0.031250, -0.531250, -0.484375, -0.031250, 0.000000, -0.500000, -0.250000, 0.187500, -0.359375, 0.250000, -0.062500, -0.968750, -0.609375, -0.062500, -0.531250, -0.046875, -0.312500, -0.468750, -0.343750, -0.046875, -0.734375, 0.125000, -0.031250, -0.468750, 0.015625, -0.140625, -1.140625, 0.062500, 0.000000, -0.203125, 0.187500, 0.015625, -1.109375, -0.062500, 0.000000, 0.000000, -0.078125, -0.078125, -0.296875, 0.062500, -0.015625, -0.437500, -0.140625, 0.062500, -0.156250, 0.046875, 0.015625, -0.546875, -0.187500, 0.062500, -0.250000, 0.187500, 0.093750, -0.484375, -0.296875, -0.062500, -0.390625, -0.046875, 0.140625, -0.062500, -0.375000, -0.109375, -0.500000};

#endif

#endif
