//Numpy array shape [5, 5, 1, 3]
//Min -1.000000000000
//Max 0.992187500000
//Number of zeros 0

#ifndef W6_H_
#define W6_H_

#ifndef __SYNTHESIS__
weight6_t w6[75];
#else
weight6_t w6[75] = {-0.9843750, -0.4453125, -1.0000000, -1.0000000, 0.9921875, -0.6562500, -0.2187500, 0.9921875, -1.0000000, 0.6328125, 0.9453125, -0.6875000, 0.9921875, 0.8593750, -1.0000000, 0.9921875, 0.9921875, 0.9687500, 0.7656250, 0.9921875, 0.9921875, 0.9921875, 0.9921875, -1.0000000, 0.9921875, 0.9921875, -1.0000000, -1.0000000, 0.9921875, 0.9921875, -0.9921875, 0.0156250, 0.9921875, -1.0000000, -1.0000000, 0.9921875, 0.9921875, 0.9921875, 0.0859375, -1.0000000, -1.0000000, 0.9921875, 0.9921875, -1.0000000, 0.9921875, -0.9921875, -1.0000000, 0.9921875, 0.9921875, -1.0000000, -1.0000000, 0.9921875, 0.9921875, -1.0000000, -0.2421875, -1.0000000, 0.9921875, 0.9921875, -1.0000000, 0.8515625, -1.0000000, 0.6875000, 0.7187500, -0.7109375, 0.9921875, -1.0000000, -1.0000000, 0.9921875, 0.9843750, -1.0000000, 0.9921875, 0.9921875, 0.9921875, -0.6640625, -0.9921875};

#endif

#endif
