//Numpy array shape [36, 10]
//Min -1.000000000000
//Max 0.992187500000
//Number of zeros 0

#ifndef W14_H_
#define W14_H_

#ifndef __SYNTHESIS__
weight14_t w14[360];
#else
weight14_t w14[360] = {0.9921875, -1.0000000, 0.9921875, 0.9921875, -1.0000000, 0.9921875, -1.0000000, -1.0000000, 0.9921875, 0.9921875, -1.0000000, 0.9921875, -1.0000000, -0.9921875, 0.9921875, 0.9921875, 0.9921875, -1.0000000, 0.9921875, -1.0000000, 0.9921875, -1.0000000, -1.0000000, -1.0000000, -0.9921875, 0.9921875, 0.9921875, 0.9921875, -1.0000000, 0.9921875, -1.0000000, 0.9921875, 0.9921875, -1.0000000, -0.7500000, -1.0000000, 0.9921875, 0.9921875, -1.0000000, -1.0000000, 0.9921875, 0.9921875, 0.9921875, -1.0000000, 0.9921875, -1.0000000, 0.9921875, -1.0000000, -1.0000000, 0.1953125, -0.6015625, -1.0000000, -1.0000000, -1.0000000, 0.9921875, -1.0000000, -1.0000000, 0.9921875, -1.0000000, 0.9921875, -1.0000000, 0.5078125, 0.9921875, -1.0000000, -1.0000000, 0.9921875, 0.9921875, -1.0000000, -0.9921875, 0.9765625, 0.3281250, 0.9921875, -1.0000000, -1.0000000, 0.9921875, -0.9218750, -1.0000000, 0.3125000, 0.9921875, -0.9921875, 0.9921875, 0.9921875, -0.6796875, -0.9843750, -1.0000000, -1.0000000, 0.9921875, -1.0000000, 0.9921875, -1.0000000, -1.0000000, -1.0000000, -1.0000000, 0.9921875, -1.0000000, 0.9921875, 0.9921875, 0.9921875, 0.7343750, 0.9921875, -0.9843750, 0.9921875, -1.0000000, 0.9921875, 0.3203125, -0.9921875, -1.0000000, 0.3750000, 0.9921875, 0.9921875, 0.9921875, -0.9921875, -1.0000000, -1.0000000, -1.0000000, 0.9921875, 0.9921875, 0.9921875, -1.0000000, -1.0000000, 0.9921875, -1.0000000, 0.9921875, 0.9375000, -1.0000000, -0.9921875, -1.0000000, 0.9921875, 0.9921875, 0.9921875, -1.0000000, -1.0000000, 0.9921875, -1.0000000, 0.9921875, -1.0000000, -1.0000000, 0.9921875, -0.6875000, 0.9921875, 0.9375000, 0.9921875, 0.9921875, 0.8750000, -1.0000000, -1.0000000, -1.0000000, 0.9921875, 0.9921875, 0.9921875, 0.9921875, -0.8359375, 0.9921875, 0.8750000, -1.0000000, 0.9921875, -1.0000000, 0.9921875, -1.0000000, -1.0000000, 0.9921875, 0.9921875, 0.9921875, 0.9921875, -0.3828125, 0.9921875, 0.9921875, -1.0000000, -1.0000000, -1.0000000, -1.0000000, 0.2968750, 0.9921875, -0.2968750, -1.0000000, 0.9921875, -1.0000000, 0.9921875, 0.9921875, -1.0000000, 0.9921875, -0.9921875, 0.9921875, 0.1718750, 0.1953125, -1.0000000, -1.0000000, 0.5546875, -1.0000000, 0.9921875, -1.0000000, 0.6250000, 0.9921875, -0.4687500, 0.9921875, -1.0000000, 0.5546875, -0.2578125, -1.0000000, 0.9921875, -0.6562500, -1.0000000, -1.0000000, 0.0937500, 0.9921875, 0.9921875, 0.9921875, -1.0000000, 0.9921875, 0.9921875, 0.9921875, -1.0000000, 0.9921875, 0.9921875, -1.0000000, -0.9921875, 0.3046875, 0.9843750, -1.0000000, -1.0000000, 0.9921875, 0.9921875, -1.0000000, -1.0000000, -1.0000000, 0.0468750, -0.9921875, 0.9921875, -0.9921875, 0.9921875, -0.9921875, 0.9921875, -1.0000000, 0.9921875, -1.0000000, 0.9921875, -1.0000000, -1.0000000, -1.0000000, 0.9921875, 0.9921875, -1.0000000, 0.9921875, -1.0000000, -1.0000000, 0.9921875, 0.9921875, -1.0000000, 0.9921875, -1.0000000, -1.0000000, -1.0000000, -1.0000000, 0.9921875, 0.9921875, 0.9921875, -1.0000000, 0.6875000, -1.0000000, 0.9921875, -1.0000000, -0.5859375, 0.6562500, 0.9921875, 0.9921875, -1.0000000, -1.0000000, -1.0000000, -1.0000000, -1.0000000, 0.9921875, -1.0000000, -1.0000000, -1.0000000, 0.9921875, 0.9921875, 0.9921875, -1.0000000, -0.1640625, -0.2890625, -0.3828125, -1.0000000, -0.8359375, 0.9921875, -1.0000000, 0.9921875, 0.9921875, -1.0000000, 0.9921875, -1.0000000, 0.9921875, -1.0000000, -1.0000000, -1.0000000, 0.9921875, -0.9921875, 0.9921875, -1.0000000, 0.9921875, 0.9921875, -0.0078125, 0.1562500, -0.4609375, -0.1171875, 0.0468750, -0.1484375, -0.2031250, 0.0937500, -0.1406250, -0.2109375, -0.9218750, -1.0000000, 0.9921875, -0.0078125, -0.2656250, 0.9921875, -1.0000000, 0.9921875, 0.9921875, -1.0000000, 0.9921875, -0.5781250, -0.2890625, 0.6093750, -1.0000000, -0.1953125, -1.0000000, -0.8046875, 0.9921875, 0.9921875, -0.0234375, 0.9921875, -1.0000000, 0.9921875, 0.9921875, -1.0000000, -1.0000000, 0.9921875, -1.0000000, -1.0000000, -1.0000000, 0.9921875, 0.9921875, 0.9921875, 0.9921875, -1.0000000, 0.9921875, -1.0000000, 0.9921875, -1.0000000, -1.0000000, -1.0000000, -0.3281250, 0.9921875, -1.0000000, 0.9921875, -1.0000000, 0.9921875, -1.0000000, -0.9687500};

#endif

#endif
