//Numpy array shape [128]
//Min -0.250000000000
//Max 0.312500000000
//Number of zeros 16

#ifndef B11_H_
#define B11_H_

#ifndef __SYNTHESIS__
bias11_t b11[128];
#else
bias11_t b11[128] = {0.09375, 0.25000, -0.06250, 0.00000, 0.12500, 0.00000, 0.06250, 0.21875, -0.09375, 0.21875, -0.09375, -0.03125, 0.06250, 0.09375, 0.03125, -0.18750, 0.28125, 0.12500, -0.06250, 0.21875, 0.09375, 0.25000, -0.25000, -0.09375, 0.03125, 0.15625, 0.12500, 0.12500, 0.06250, 0.15625, 0.03125, 0.18750, 0.21875, 0.00000, -0.03125, 0.00000, 0.06250, -0.15625, -0.15625, -0.09375, -0.09375, 0.00000, 0.06250, 0.12500, 0.06250, 0.03125, 0.15625, -0.09375, -0.09375, 0.06250, 0.25000, 0.09375, 0.00000, -0.03125, 0.25000, 0.15625, 0.12500, 0.21875, 0.12500, -0.18750, 0.03125, -0.09375, -0.09375, -0.21875, -0.09375, 0.03125, -0.25000, 0.09375, 0.31250, 0.15625, 0.28125, 0.09375, -0.12500, 0.09375, 0.00000, 0.03125, -0.03125, 0.00000, 0.03125, 0.00000, 0.21875, 0.06250, 0.03125, 0.06250, 0.00000, -0.09375, -0.03125, -0.18750, -0.21875, -0.03125, 0.18750, 0.28125, -0.09375, -0.15625, 0.25000, 0.09375, 0.00000, 0.12500, -0.06250, -0.06250, -0.12500, 0.00000, 0.12500, -0.09375, 0.06250, 0.06250, 0.03125, 0.09375, -0.06250, 0.15625, 0.00000, 0.09375, 0.18750, 0.06250, 0.03125, 0.21875, 0.00000, 0.18750, 0.00000, 0.31250, -0.06250, 0.00000, 0.03125, 0.09375, -0.09375, 0.09375, -0.15625, -0.06250};

#endif

#endif
