//Numpy array shape [100, 64]
//Min -9.308593750000
//Max 7.550781250000
//Number of zeros 8

#ifndef W10_H_
#define W10_H_

#ifndef __SYNTHESIS__
weight10_t w10[6400];
#else
weight10_t w10[6400] = {3.882812500, -3.246093750, 2.992187500, -1.947265625, -1.578125000, -1.666015625, 0.111328125, -1.005859375, -1.958984375, 0.740234375, 0.203125000, 4.001953125, 3.632812500, 0.054687500, 1.896484375, -1.882812500, -2.816406250, 1.457031250, -0.636718750, -0.166015625, -0.080078125, -0.109375000, 1.574218750, -0.546875000, 0.912109375, 2.662109375, -2.789062500, 0.154296875, 1.886718750, -2.546875000, -2.037109375, -1.992187500, -1.878906250, -0.236328125, 0.294921875, -0.048828125, 1.998046875, 3.031250000, -1.332031250, -2.013671875, -0.162109375, 3.134765625, 0.201171875, -0.869140625, -2.207031250, -1.656250000, 0.187500000, 1.894531250, 0.902343750, 2.724609375, -1.738281250, 3.494140625, 1.332031250, -0.701171875, -2.355468750, 4.121093750, -3.382812500, 2.402343750, 4.179687500, 0.156250000, 0.351562500, 3.080078125, 3.818359375, -0.511718750, 0.048828125, -0.531250000, -1.318359375, -1.220703125, 3.783203125, -0.154296875, -3.613281250, 1.751953125, -0.765625000, -0.800781250, 0.179687500, 1.064453125, 1.923828125, 0.011718750, 3.902343750, 3.000000000, -0.773437500, 2.265625000, -3.394531250, -1.375000000, -1.917968750, 0.162109375, -1.167968750, 1.591796875, -1.519531250, 0.632812500, -1.853515625, 0.072265625, 0.238281250, -3.648437500, 0.046875000, 1.746093750, -1.158203125, 0.994140625, -1.097656250, 0.128906250, -1.214843750, 1.025390625, -3.724609375, -2.013671875, -1.259765625, -0.121093750, -0.623046875, -0.287109375, -0.115234375, -0.273437500, -0.587890625, 1.291015625, 1.037109375, -2.333984375, 1.021484375, 0.566406250, 0.261718750, -0.789062500, 3.144531250, 0.300781250, 0.642578125, 2.037109375, -0.103515625, -0.289062500, 0.058593750, -1.244140625, 0.398437500, -2.029296875, -0.283203125, -0.361328125, 1.871093750, 0.714843750, -1.343750000, 2.455078125, -2.339843750, -1.142578125, 0.291015625, -1.646484375, -1.689453125, -1.687500000, -0.609375000, 0.816406250, 2.017578125, -1.798828125, -0.123046875, 1.675781250, 1.039062500, -0.880859375, 1.480468750, -0.671875000, 0.794921875, 1.353515625, -1.210937500, 0.066406250, -0.054687500, -2.968750000, -0.587890625, 1.599609375, -0.052734375, -0.173828125, 0.003906250, -0.337890625, -0.566406250, 0.125000000, 3.312500000, 0.779296875, 1.652343750, 0.029296875, -1.357421875, 0.498046875, -1.677734375, 1.335937500, 0.080078125, -0.806640625, 3.392578125, 1.134765625, 0.843750000, -3.839843750, -3.226562500, 0.218750000, 1.830078125, -1.248046875, -2.279296875, 0.537109375, 0.894531250, 1.832031250, 0.523437500, -0.146484375, -0.400390625, -1.109375000, -0.707031250, -0.037109375, 0.730468750, -0.353515625, 2.339843750, 1.896484375, -3.792968750, 2.457031250, 1.195312500, 0.128906250, 0.656250000, -1.531250000, 0.728515625, -1.470703125, -0.453125000, 0.767578125, 0.345703125, -2.500000000, 0.085937500, 1.355468750, 0.699218750, -0.835937500, 0.558593750, -2.484375000, 0.294921875, 1.492187500, -2.361328125, -0.107421875, 0.234375000, -2.427734375, -1.703125000, 0.740234375, -0.335937500, -0.773437500, 0.126953125, -0.166015625, -0.207031250, -0.023437500, 0.041015625, -0.359375000, 0.857421875, 0.595703125, -1.460937500, 1.021484375, -0.681640625, 0.121093750, 0.449218750, 1.132812500, 2.123046875, 2.041015625, 0.095703125, -2.001953125, -0.023437500, 0.322265625, 1.185546875, -1.115234375, -2.269531250, 0.199218750, -0.710937500, 1.246093750, -0.207031250, -2.591796875, 0.787109375, -1.218750000, -0.832031250, -0.212890625, 0.181640625, -0.816406250, 2.355468750, -1.064453125, -3.427734375, 2.259765625, -1.210937500, 1.919921875, 0.072265625, -1.988281250, 0.408203125, -1.033203125, -0.625000000, 1.001953125, -1.548828125, 0.062500000, -1.408203125, 0.853515625, 1.109375000, -0.994140625, -2.566406250, -1.312500000, 0.757812500, 0.875000000, -1.777343750, -0.285156250, -0.154296875, -5.345703125, -0.335937500, -0.083984375, 0.156250000, -5.400390625, 0.464843750, 0.525390625, -1.087890625, 0.626953125, 0.244140625, -0.341796875, -0.115234375, 0.509765625, -1.742187500, -0.441406250, -0.169921875, 0.708984375, -0.162109375, -0.029296875, -0.080078125, 0.623046875, -1.064453125, -1.447265625, 1.300781250, 0.041015625, 1.470703125, -2.345703125, -0.806640625, 0.312500000, -2.177734375, 1.773437500, -0.439453125, -0.796875000, 1.152343750, -0.458984375, -1.226562500, -1.841796875, 1.791015625, 0.294921875, 2.439453125, 1.691406250, -5.287109375, 2.167968750, -1.767578125, 1.507812500, 1.007812500, -0.419921875, 0.496093750, -1.035156250, -0.183593750, -0.548828125, -0.074218750, -0.126953125, -0.400390625, 1.253906250, -0.125000000, -0.111328125, -1.462890625, -1.326171875, 2.960937500, 0.917968750, 2.146484375, 0.238281250, 0.396484375, -1.863281250, -1.054687500, 1.175781250, 0.427734375, -1.835937500, 1.007812500, -2.453125000, -0.908203125, 0.222656250, -0.087890625, 0.041015625, -3.160156250, -0.753906250, -3.181640625, 1.033203125, 0.525390625, -0.068359375, 0.492187500, 0.443359375, 2.617187500, 0.226562500, 0.455078125, -0.890625000, -1.240234375, 0.511718750, 0.779296875, -1.580078125, 0.533203125, 0.546875000, -0.460937500, 0.703125000, -0.166015625, -0.064453125, 0.851562500, -1.283203125, -0.757812500, 0.298828125, 1.966796875, -0.228515625, 2.091796875, 1.394531250, -3.132812500, 1.861328125, 0.128906250, 0.890625000, 0.406250000, -1.363281250, 0.718750000, -1.041015625, 0.189453125, -1.531250000, -0.453125000, -0.060546875, -0.166015625, 1.128906250, 0.554687500, -0.636718750, 0.164062500, -3.097656250, 1.166015625, -0.757812500, 1.861328125, 0.371093750, 0.250000000, -0.169921875, -0.722656250, 2.554687500, -1.427734375, -3.851562500, 1.792968750, -2.802734375, -0.414062500, -0.685546875, 1.220703125, -0.648437500, -2.626953125, -1.078125000, -1.228515625, 1.583984375, -0.033203125, 1.548828125, 0.753906250, -0.357421875, 0.937500000, -1.371093750, -0.433593750, -1.119140625, -0.787109375, 1.371093750, 0.416015625, -1.328125000, 0.380859375, -0.191406250, 0.015625000, 2.214843750, -1.660156250, -1.996093750, 0.818359375, -0.494140625, -1.320312500, -1.541015625, 1.615234375, -0.130859375, 2.470703125, -1.392578125, -2.820312500, 2.779296875, -3.195312500, 0.406250000, 0.531250000, -1.917968750, 0.794921875, -0.833984375, 0.158203125, 2.160156250, -1.419921875, -0.832031250, -1.103515625, 2.052734375, 0.767578125, -0.138671875, -2.582031250, -2.187500000, -0.146484375, 0.222656250, 1.236328125, -0.753906250, -0.507812500, -2.093750000, -1.349609375, 0.007812500, -0.341796875, -4.210937500, 0.373046875, -3.214843750, -1.421875000, 0.978515625, -0.955078125, -0.570312500, -2.703125000, -0.238281250, -0.828125000, 1.492187500, -2.906250000, 0.044921875, -0.847656250, -2.003906250, -1.154296875, -0.804687500, -0.365234375, -0.744140625, 1.115234375, 0.271484375, 0.115234375, -3.697265625, 2.074218750, 0.005859375, -0.236328125, 3.162109375, -1.988281250, -1.533203125, -2.261718750, -2.048828125, -1.509765625, -0.923828125, 1.742187500, -0.814453125, 1.173828125, 1.289062500, -0.994140625, -1.207031250, -3.482421875, 1.101562500, 0.656250000, 1.570312500, -1.166015625, -0.271484375, -0.324218750, 0.287109375, 0.330078125, -0.621093750, 0.996093750, 1.671875000, 0.324218750, 0.925781250, 2.056640625, -1.636718750, -0.626953125, 0.304687500, -4.031250000, 0.611328125, -1.460937500, -0.404296875, -0.062500000, -2.308593750, 2.394531250, -1.390625000, -0.300781250, -0.609375000, 1.144531250, 0.062500000, -2.093750000, 1.728515625, 0.941406250, 2.662109375, 1.181640625, 0.705078125, 0.607421875, 0.050781250, 2.617187500, 1.593750000, -3.083984375, -1.146484375, -2.003906250, 1.699218750, 2.257812500, 0.765625000, -0.359375000, 2.337890625, -1.798828125, 0.589843750, 2.314453125, -1.447265625, 0.501953125, 2.697265625, 1.322265625, 1.916015625, 0.857421875, 1.230468750, -0.107421875, 2.984375000, -0.601562500, 2.505859375, 0.107421875, 0.818359375, -1.591796875, 0.164062500, 2.980468750, -1.193359375, -0.105468750, -0.916015625, -1.695312500, 0.128906250, -0.144531250, 2.902343750, 1.414062500, 2.703125000, 2.320312500, -1.730468750, 2.515625000, 0.292968750, -0.916015625, 2.041015625, -2.054687500, 0.294921875, 2.564453125, -0.105468750, 0.076171875, -0.216796875, 2.876953125, 0.916015625, 2.626953125, 0.578125000, -0.457031250, -0.228515625, -1.068359375, 1.222656250, 0.134765625, 2.722656250, -0.130859375, -0.021484375, -0.214843750, 2.501953125, 3.033203125, -0.380859375, -0.699218750, -1.253906250, -0.181640625, -1.208984375, 1.593750000, -1.835937500, -0.517578125, -0.078125000, 1.267578125, -2.154296875, 2.085937500, -1.548828125, -0.785156250, 0.068359375, 1.542968750, -1.529296875, -1.712890625, -0.373046875, 1.582031250, 0.494140625, 2.457031250, 2.267578125, 2.308593750, -0.750000000, -2.095703125, -0.574218750, 2.062500000, -3.320312500, 0.271484375, -0.345703125, -1.828125000, -0.128906250, 1.244140625, -0.005859375, 1.687500000, 4.078125000, -0.833984375, -3.007812500, -0.953125000, -0.078125000, 1.126953125, 0.767578125, -0.107421875, -1.136718750, 1.603515625, -0.207031250, 0.275390625, -0.261718750, 0.292968750, -1.804687500, 1.089843750, -0.384765625, -2.443359375, 1.539062500, 3.187500000, 5.458984375, -4.728515625, -0.285156250, -2.742187500, 1.857421875, 0.150390625, -0.876953125, 0.058593750, -4.544921875, 0.697265625, -2.082031250, -0.658203125, -1.482421875, 2.388671875, 0.748046875, 2.419921875, 0.085937500, 2.056640625, 0.078125000, 0.066406250, 0.568359375, 0.650390625, -0.900390625, 2.082031250, -1.085937500, -2.464843750, -3.330078125, 0.849609375, 0.058593750, 1.894531250, 0.693359375, -1.464843750, 1.996093750, -0.449218750, 1.021484375, 0.962890625, -2.708984375, 0.251953125, -1.341796875, -0.060546875, 0.554687500, 0.234375000, -5.029296875, -0.234375000, 1.472656250, 0.337890625, -0.912109375, -0.917968750, -0.269531250, -1.031250000, 1.998046875, -3.677734375, -0.048828125, 0.412109375, -1.400390625, -0.732421875, 0.126953125, 1.492187500, -3.728515625, 0.179687500, -1.941406250, -1.660156250, 0.740234375, -1.431640625, 0.021484375, 1.841796875, 0.453125000, -1.617187500, 1.244140625, -1.234375000, -0.724609375, 0.673828125, 0.546875000, -0.906250000, 1.384765625, 1.154296875, -2.015625000, 0.097656250, 0.824218750, 1.542968750, -1.933593750, -0.443359375, -0.109375000, 1.076171875, 2.287109375, 0.832031250, -1.744140625, -0.380859375, -0.794921875, -1.142578125, -1.144531250, 0.511718750, -0.197265625, 2.339843750, 0.994140625, -3.613281250, 2.042968750, -2.230468750, -5.980468750, 1.140625000, -1.339843750, 0.609375000, -1.541015625, -0.578125000, 0.279296875, -0.144531250, -2.330078125, -0.457031250, 1.109375000, -1.738281250, -0.136718750, -0.878906250, -1.042968750, 0.808593750, 2.355468750, -1.720703125, -0.400390625, -0.253906250, -5.904296875, 0.250000000, 0.517578125, 0.128906250, -0.111328125, -0.597656250, 0.523437500, -1.105468750, -0.392578125, -1.015625000, -0.732421875, 1.849609375, 0.281250000, -4.449218750, 1.150390625, -0.912109375, 0.691406250, 0.259765625, 0.330078125, 0.460937500, 0.792968750, -0.027343750, -1.064453125, -0.546875000, -0.294921875, 0.857421875, -3.906250000, -2.751953125, 0.125000000, -0.636718750, 1.326171875, -0.146484375, -1.121093750, 0.347656250, -0.234375000, -1.447265625, -0.462890625, 0.175781250, -0.093750000, 1.886718750, 0.810546875, -4.683593750, 1.669921875, -1.232421875, -0.132812500, 0.673828125, -0.597656250, 0.513671875, -1.091796875, -0.242187500, -0.615234375, -0.070312500, -1.335937500, 0.400390625, 0.738281250, 0.892578125, -0.677734375, 0.251953125, -3.185546875, -0.953125000, 1.583984375, -1.771484375, -0.025390625, -0.332031250, -5.240234375, -0.236328125, -0.128906250, 0.173828125, 0.191406250, 0.218750000, -1.876953125, -0.705078125, -0.500000000, 0.710937500, 0.218750000, 1.416015625, 0.091796875, -0.904296875, 0.667968750, -0.300781250, 0.419921875, 0.195312500, 0.029296875, -0.033203125, 1.660156250, -1.074218750, -0.853515625, -1.367187500, 0.144531250, 0.857421875, -0.419921875, -3.779296875, -0.091796875, -0.164062500, 1.287109375, -0.458984375, -0.871093750, -0.527343750, -0.648437500, -1.046875000, 0.242187500, 0.781250000, -0.117187500, 1.486328125, -0.800781250, -5.968750000, 1.507812500, -0.232421875, 2.068359375, 0.232421875, -0.177734375, 0.564453125, -0.716796875, -0.603515625, 0.128906250, -0.410156250, -0.005859375, 0.109375000, 0.808593750, 0.982421875, -1.072265625, -0.375000000, -1.757812500, 2.117187500, 1.535156250, 0.480468750, -0.169921875, 0.365234375, -3.613281250, -0.064453125, 0.324218750, 0.218750000, 0.535156250, 1.261718750, -0.869140625, -0.158203125, -2.492187500, 2.148437500, 0.058593750, 0.732421875, 0.269531250, -0.958984375, 1.277343750, -0.296875000, 0.066406250, 0.091796875, -0.599609375, 0.228515625, 1.136718750, -0.501953125, -0.744140625, -0.343750000, 0.511718750, 0.775390625, 0.308593750, -1.828125000, 0.109375000, 0.083984375, 1.203125000, -0.712890625, -0.263671875, 0.808593750, -0.513671875, -0.738281250, -0.134765625, 0.734375000, -0.113281250, 1.613281250, 1.337890625, -4.740234375, 1.447265625, -0.408203125, 1.603515625, 0.216796875, -0.744140625, 0.878906250, -0.689453125, 0.507812500, -0.121093750, 0.369140625, -0.115234375, -0.539062500, 1.515625000, 0.296875000, -0.808593750, -0.103515625, -0.634765625, 2.074218750, 1.041015625, 1.263671875, 0.128906250, -0.306640625, -2.529296875, -0.412109375, -0.056640625, 0.169921875, -2.564453125, 0.048828125, -1.304687500, -0.947265625, -3.121093750, 0.199218750, -2.035156250, 0.777343750, 0.158203125, -0.464843750, -0.228515625, -0.291015625, -0.105468750, 0.005859375, -0.072265625, 1.830078125, -0.238281250, -0.814453125, -0.855468750, 0.648437500, 0.179687500, 0.167968750, 0.148437500, -1.556640625, -0.125000000, -0.031250000, 1.062500000, -0.425781250, -1.048828125, 0.916015625, -0.708984375, -0.640625000, -0.386718750, 0.439453125, -0.144531250, 1.894531250, 0.791015625, -2.259765625, 1.759765625, -1.037109375, 1.130859375, 0.570312500, -0.685546875, 0.625000000, -1.189453125, 0.826171875, -0.570312500, -0.054687500, 0.376953125, -0.253906250, 1.521484375, 1.382812500, -0.494140625, 0.072265625, -2.380859375, 1.703125000, -0.841796875, 1.914062500, -0.433593750, -0.656250000, -4.089843750, -0.064453125, -1.003906250, -0.048828125, -3.332031250, 0.935546875, -1.693359375, -0.197265625, -1.093750000, 1.492187500, -1.451171875, -1.917968750, 0.091796875, -0.470703125, -0.144531250, -0.015625000, -0.294921875, -0.128906250, -0.175781250, 0.339843750, -0.402343750, -1.562500000, -1.025390625, -0.029296875, 1.191406250, 0.173828125, -0.720703125, 0.242187500, 0.095703125, -0.003906250, 1.044921875, -0.632812500, -0.421875000, -0.019531250, -0.671875000, -1.078125000, -1.515625000, 0.380859375, -0.099609375, 2.121093750, 0.035156250, -1.224609375, 2.103515625, 0.166015625, 0.878906250, 0.718750000, -0.552734375, 0.675781250, -1.281250000, 0.453125000, -0.810546875, -0.251953125, -0.146484375, -0.240234375, 1.439453125, 1.589843750, -0.451171875, -1.212890625, 0.302734375, 1.634765625, 0.376953125, 1.271484375, 0.007812500, -0.068359375, -1.937500000, -0.765625000, 0.031250000, 0.175781250, -6.298828125, -0.410156250, -3.806640625, -0.361328125, 0.523437500, -3.511718750, -0.750000000, -1.230468750, 0.113281250, -0.511718750, 0.000000000, -0.320312500, 0.251953125, 0.226562500, -0.494140625, 0.984375000, -0.263671875, 1.005859375, -0.886718750, -0.005859375, 0.792968750, 0.289062500, -0.707031250, 1.091796875, 0.406250000, -0.351562500, 1.847656250, -0.123046875, -1.724609375, 1.066406250, -1.082031250, -1.033203125, -0.662109375, 0.455078125, -0.302734375, 1.423828125, 1.464843750, -2.441406250, 1.808593750, -5.513671875, -0.033203125, -0.998046875, -1.636718750, 0.996093750, -1.255859375, 0.011718750, 1.646484375, 0.240234375, -0.320312500, 0.064453125, 0.484375000, 1.878906250, 0.785156250, 1.736328125, -2.640625000, 3.263671875, 1.337890625, 0.875000000, -1.748046875, -0.005859375, 0.142578125, 0.119140625, 0.785156250, -0.876953125, -3.234375000, 1.152343750, -2.398437500, -0.279296875, 0.593750000, 2.292968750, -0.753906250, -2.238281250, -0.404296875, -1.589843750, 0.171875000, -1.849609375, 1.560546875, -0.085937500, -0.128906250, 2.673828125, -3.359375000, 0.628906250, -0.119140625, -0.042968750, 1.544921875, -0.113281250, -0.416015625, 1.300781250, 0.068359375, 0.267578125, 2.246093750, -0.335937500, -1.349609375, 1.337890625, -1.166015625, -0.361328125, -0.601562500, 1.710937500, 0.599609375, 0.773437500, 0.144531250, -2.083984375, 3.378906250, -0.218750000, 3.832031250, 0.316406250, 0.015625000, 0.728515625, -2.992187500, -1.271484375, 0.357421875, -0.351562500, 4.501953125, 1.767578125, -0.376953125, 0.699218750, -2.498046875, 1.281250000, -2.289062500, 1.617187500, 0.699218750, 0.326171875, -2.388671875, 0.750000000, 1.562500000, -0.162109375, 1.412109375, 0.324218750, -1.814453125, 0.521484375, 0.927734375, -3.410156250, -0.169921875, -4.160156250, 1.000000000, -3.363281250, 2.220703125, -0.591796875, -1.544921875, 0.964843750, -0.152343750, 3.128906250, -0.537109375, 0.898437500, -4.552734375, -2.929687500, -1.826171875, -0.318359375, 0.482421875, -0.767578125, -2.474609375, 0.806640625, -2.855468750, 7.550781250, 1.488281250, -3.228515625, 0.236328125, -0.421875000, -0.744140625, -1.970703125, 3.726562500, -0.484375000, -0.082031250, 2.675781250, -0.302734375, -0.794921875, 2.941406250, -1.240234375, -3.791015625, -0.292968750, -1.882812500, -0.029296875, 0.183593750, 0.722656250, -0.494140625, -0.339843750, 1.460937500, 0.736328125, -0.082031250, 2.455078125, -0.572265625, 0.345703125, -1.585937500, -2.064453125, 0.445312500, -0.974609375, 0.099609375, -0.429687500, -5.265625000, -0.384765625, 0.732421875, 1.132812500, -3.021484375, -0.042968750, -1.765625000, -1.732421875, 1.902343750, 1.814453125, -0.154296875, 1.042968750, 0.330078125, -4.048828125, 0.984375000, -1.814453125, -0.496093750, 1.400390625, 0.531250000, 3.082031250, 0.931640625, -0.460937500, -0.609375000, -0.943359375, -0.207031250, 1.273437500, -1.117187500, -1.414062500, 0.812500000, -1.474609375, 1.271484375, 0.164062500, -1.490234375, 0.130859375, -1.724609375, -0.574218750, -0.037109375, 0.517578125, -0.421875000, 2.355468750, -0.384765625, 0.615234375, 2.001953125, -1.201171875, -4.607421875, 0.773437500, -0.687500000, 0.408203125, -1.509765625, -0.472656250, 0.722656250, -0.773437500, -1.472656250, -0.558593750, 0.968750000, 0.251953125, -0.878906250, 0.992187500, -1.583984375, -3.072265625, 2.132812500, -5.162109375, -0.472656250, -0.285156250, -5.423828125, -0.734375000, 0.140625000, 0.896484375, -4.751953125, 0.351562500, -0.609375000, -1.388671875, -1.492187500, -0.421875000, -1.304687500, 0.402343750, 0.822265625, -1.437500000, 0.730468750, -0.820312500, -0.466796875, 0.474609375, 0.248046875, -0.185546875, 1.886718750, -0.667968750, -1.291015625, 0.677734375, -0.199218750, 1.126953125, -2.734375000, -3.460937500, 0.199218750, 0.041015625, 1.666015625, -0.115234375, -1.052734375, 0.167968750, -1.150390625, -0.535156250, -0.148437500, 0.708984375, 0.285156250, 1.521484375, 0.927734375, 0.593750000, 1.521484375, 0.121093750, -1.767578125, 0.019531250, -0.572265625, 0.390625000, -0.861328125, -0.675781250, 0.849609375, 0.181640625, -1.816406250, -0.291015625, 0.298828125, 0.830078125, -0.914062500, -0.308593750, -1.447265625, 1.875000000, 2.121093750, -2.843750000, -0.187500000, 0.015625000, -7.423828125, -0.136718750, 0.505859375, 0.654296875, -0.255859375, 0.037109375, 0.039062500, -0.632812500, -0.146484375, 1.972656250, -0.548828125, 0.833984375, 0.232421875, -0.683593750, 0.253906250, 0.470703125, 0.128906250, -0.255859375, -0.046875000, 0.511718750, 1.759765625, -0.861328125, -0.507812500, 1.470703125, 0.488281250, 0.816406250, -0.982421875, -5.085937500, 0.054687500, 0.376953125, 1.222656250, -0.296875000, -0.511718750, -0.064453125, -1.722656250, -0.539062500, -1.378906250, 0.505859375, -0.064453125, 1.277343750, 0.402343750, -4.597656250, 1.011718750, 0.410156250, 0.462890625, 0.267578125, -0.478515625, 0.447265625, -0.250000000, -1.140625000, -0.419921875, -0.187500000, -0.152343750, -0.951171875, 0.169921875, 0.384765625, -0.773437500, 0.292968750, 0.060546875, 0.437500000, 1.265625000, -1.240234375, -0.417968750, 0.076171875, -4.623046875, -0.039062500, -0.109375000, 0.201171875, 0.804687500, -0.033203125, 0.587890625, -1.138671875, 0.220703125, 1.605468750, 0.384765625, -0.349609375, 0.253906250, -0.173828125, 0.748046875, -0.187500000, 0.101562500, 0.152343750, -0.138671875, 1.115234375, 1.238281250, -0.523437500, -0.525390625, -0.451171875, 0.332031250, 0.630859375, -0.171875000, -2.931640625, -0.201171875, 0.757812500, 0.671875000, -0.078125000, -0.611328125, -0.060546875, -0.427734375, -0.597656250, -1.812500000, 0.419921875, -0.130859375, 0.869140625, -0.017578125, -0.007812500, 0.828125000, 0.896484375, 0.470703125, 0.207031250, -0.574218750, 0.642578125, 0.361328125, -0.255859375, -0.945312500, -0.050781250, 0.566406250, -1.476562500, 0.203125000, 0.117187500, -0.490234375, 0.771484375, -0.445312500, 1.191406250, 0.595703125, 0.070312500, -0.810546875, -0.167968750, -3.693359375, -0.162109375, 0.724609375, 0.535156250, 0.496093750, 0.369140625, 0.443359375, -0.937500000, -0.595703125, 1.386718750, -0.251953125, -0.644531250, 0.533203125, -0.195312500, 0.505859375, 0.203125000, 0.287109375, 0.123046875, -0.294921875, 0.869140625, 0.658203125, -0.236328125, -0.574218750, 0.017578125, 0.562500000, 0.287109375, -0.234375000, -3.228515625, 0.089843750, 0.371093750, 0.605468750, -0.197265625, -0.658203125, -0.425781250, -0.341796875, -0.464843750, -2.292968750, 0.291015625, 0.044921875, 0.886718750, 0.001953125, -1.072265625, 0.802734375, 0.884765625, 0.156250000, 0.664062500, -0.390625000, 0.597656250, 0.080078125, 0.005859375, -1.093750000, -0.435546875, 0.214843750, -0.224609375, 0.537109375, 0.406250000, -0.818359375, 0.050781250, -2.183593750, 1.216796875, -0.132812500, 1.419921875, -0.230468750, 0.582031250, -4.890625000, -0.001953125, -0.009765625, 0.027343750, -0.134765625, 0.458984375, 0.876953125, -0.736328125, -0.501953125, 0.224609375, -0.925781250, -0.085937500, 0.039062500, 0.013671875, 0.408203125, -0.343750000, 0.031250000, 0.070312500, -0.115234375, 0.978515625, -0.132812500, -0.031250000, -0.484375000, -0.279296875, 0.527343750, 0.312500000, -0.404296875, -2.076171875, 0.003906250, 0.236328125, 0.589843750, -0.830078125, -0.628906250, -0.312500000, -0.332031250, -0.363281250, -1.511718750, 0.474609375, 0.095703125, 1.080078125, 0.619140625, -3.476562500, 1.050781250, 1.255859375, 0.394531250, 0.058593750, -0.382812500, 0.722656250, 0.287109375, -0.201171875, -0.291015625, -0.037109375, -0.240234375, -0.443359375, 0.128906250, 0.970703125, -0.378906250, 0.763671875, -0.417968750, 1.572265625, -0.429687500, 1.396484375, -0.214843750, -0.087890625, -3.113281250, -0.025390625, 0.164062500, 0.205078125, -1.015625000, 0.242187500, 0.732421875, -1.246093750, 0.281250000, 0.304687500, -1.353515625, -0.148437500, 0.132812500, -0.353515625, -0.195312500, -0.128906250, 0.462890625, 0.109375000, -0.410156250, 1.099609375, -2.197265625, -1.464843750, -0.548828125, 0.328125000, 0.421875000, 0.212890625, -0.107421875, -0.527343750, 0.236328125, 0.708984375, 0.775390625, -0.562500000, -1.162109375, 0.386718750, -0.431640625, -0.533203125, -3.867187500, 0.800781250, 0.011718750, 1.667968750, -0.685546875, -1.646484375, 1.333984375, 0.667968750, -0.853515625, -0.275390625, -0.322265625, 0.689453125, 0.427734375, -0.824218750, 0.681640625, -0.441406250, -0.279296875, -0.544921875, 0.273437500, 1.660156250, -0.310546875, -0.183593750, -1.015625000, 1.796875000, -0.542968750, 1.816406250, -1.312500000, 0.234375000, -2.880859375, 0.097656250, -0.144531250, 0.373046875, -4.183593750, -0.589843750, 0.121093750, -0.580078125, -0.685546875, 1.015625000, -1.300781250, -0.796875000, 0.062500000, -0.351562500, -0.119140625, -0.044921875, 0.189453125, 0.103515625, -3.013671875, 1.736328125, -0.583984375, -0.419921875, -0.501953125, -0.042968750, 0.605468750, -0.382812500, -0.226562500, 0.019531250, -0.171875000, 0.550781250, 1.121093750, -0.554687500, -1.535156250, 0.585937500, -1.041015625, -0.619140625, -0.656250000, -0.089843750, -0.525390625, 2.009765625, 0.765625000, -0.941406250, 0.953125000, -1.720703125, -0.253906250, 0.314453125, -0.886718750, 0.916015625, -0.781250000, 0.732421875, 0.833984375, -0.337890625, -0.255859375, -0.228515625, -1.439453125, 2.556640625, 0.128906250, 0.378906250, -1.625000000, 0.572265625, 1.416015625, 0.083984375, -1.679687500, 0.011718750, 0.144531250, -0.419921875, -0.748046875, -0.808593750, -5.767578125, 0.175781250, -6.621093750, -0.574218750, -1.630859375, -1.781250000, -0.927734375, 0.732421875, 0.378906250, 0.109375000, 0.527343750, -0.888671875, -0.041015625, 0.152343750, -4.568359375, 2.482421875, -2.074218750, -0.585937500, -0.863281250, -0.308593750, 0.814453125, 0.443359375, -0.166015625, 0.496093750, -0.103515625, -0.453125000, 1.423828125, -0.853515625, -1.677734375, 0.238281250, -1.078125000, -1.054687500, 0.433593750, -0.062500000, -2.123046875, -2.021484375, 1.052734375, 0.695312500, 1.398437500, -3.437500000, 0.656250000, 0.279296875, -0.175781250, 0.560546875, -0.578125000, -0.718750000, 0.480468750, -1.251953125, -0.390625000, 0.328125000, -3.273437500, 1.611328125, 0.046875000, -1.490234375, -1.533203125, 3.304687500, 1.216796875, -1.404296875, -1.486328125, -0.349609375, -0.251953125, -0.035156250, -0.763671875, -0.070312500, -7.503906250, 2.130859375, -3.140625000, -0.025390625, 1.451171875, 1.835937500, -0.240234375, -2.005859375, -0.822265625, -2.160156250, 0.195312500, -1.210937500, -0.449218750, 0.105468750, -2.658203125, 1.810546875, -4.658203125, 0.917968750, -0.914062500, 0.386718750, 1.972656250, 0.931640625, -1.908203125, -1.628906250, -0.492187500, -0.382812500, 1.679687500, -0.488281250, -3.320312500, 0.384765625, -2.115234375, -0.898437500, -0.630859375, 1.009765625, -0.480468750, 2.121093750, 0.240234375, 0.644531250, 2.214843750, -1.056640625, -2.255859375, 0.398437500, -2.156250000, 0.554687500, -0.468750000, -0.976562500, 1.171875000, -0.476562500, 1.611328125, -0.218750000, 0.132812500, 2.300781250, -0.033203125, -0.070312500, -0.677734375, 1.275390625, 0.738281250, -4.273437500, 1.591796875, -0.367187500, -3.687500000, -0.416015625, 1.175781250, 1.222656250, -4.324218750, -0.197265625, -0.277343750, -0.064453125, 0.031250000, -1.626953125, 0.027343750, 1.621093750, -0.068359375, -3.513671875, 1.212890625, -0.361328125, -0.162109375, 0.347656250, 0.009765625, -3.882812500, 0.308593750, -0.742187500, -1.529296875, 0.533203125, 0.261718750, 0.921875000, -4.166015625, 0.308593750, -0.552734375, -0.039062500, 1.755859375, 0.191406250, -1.076171875, -0.259765625, -0.173828125, -1.296875000, -1.310546875, 0.953125000, -0.234375000, 2.023437500, -0.435546875, -0.773437500, 1.693359375, -0.755859375, -5.312500000, 0.896484375, -1.230468750, 0.306640625, -0.537109375, -0.171875000, 0.500000000, -0.175781250, 0.652343750, -0.316406250, 0.554687500, 1.705078125, -0.654296875, -0.333984375, -0.080078125, -1.640625000, 0.861328125, -4.027343750, 0.140625000, -0.294921875, -4.003906250, 0.228515625, 0.177734375, 0.156250000, -3.951171875, 0.304687500, -0.169921875, 0.052734375, 0.371093750, 0.931640625, 0.074218750, 0.894531250, 0.406250000, -2.681640625, 0.115234375, -0.433593750, 0.140625000, 0.027343750, 0.412109375, 0.335937500, 1.853515625, -0.748046875, -0.777343750, 0.404296875, 0.119140625, 0.810546875, -0.701171875, -1.601562500, -0.128906250, -0.210937500, 1.417968750, 0.304687500, -1.070312500, -0.111328125, -0.496093750, -1.062500000, 0.087890625, 0.328125000, 0.783203125, 1.095703125, 0.150390625, -2.363281250, 0.990234375, 0.107421875, -2.566406250, 0.164062500, -0.515625000, 0.378906250, -0.773437500, -0.253906250, -0.378906250, -0.703125000, -0.597656250, -0.183593750, 0.802734375, 1.435546875, -0.781250000, 0.486328125, -0.830078125, -0.015625000, 0.025390625, -4.369140625, 0.037109375, -0.130859375, -6.187500000, 1.287109375, -0.205078125, -0.261718750, 0.302734375, -0.113281250, 0.457031250, -0.367187500, -1.386718750, 1.521484375, 0.285156250, 1.371093750, -0.091796875, -0.207031250, 0.140625000, -0.251953125, 0.255859375, 0.111328125, 0.281250000, 1.082031250, 1.121093750, -0.595703125, -0.468750000, 0.363281250, 0.277343750, 0.509765625, 0.095703125, -1.005859375, -0.103515625, -0.089843750, 0.871093750, -0.064453125, -0.908203125, -0.326171875, -0.011718750, -0.562500000, -0.134765625, 0.265625000, 0.857421875, 0.625000000, -0.554687500, -0.064453125, 0.593750000, -0.142578125, 0.523437500, 0.123046875, -0.085937500, 0.462890625, 0.050781250, -0.162109375, -1.066406250, -0.070312500, -0.589843750, -0.259765625, 0.123046875, 0.343750000, -0.605468750, -0.236328125, -0.505859375, 0.691406250, 0.337890625, -0.599609375, -0.677734375, -0.138671875, -3.142578125, 0.957031250, 0.455078125, -0.007812500, 0.445312500, 0.382812500, -0.097656250, -0.595703125, -2.140625000, 0.914062500, -0.189453125, -0.312500000, 0.335937500, -0.359375000, 0.072265625, 0.035156250, 0.306640625, 0.246093750, -0.058593750, 0.689453125, 0.591796875, -0.755859375, -0.390625000, -0.935546875, 0.175781250, 0.449218750, -0.464843750, -0.072265625, 0.042968750, 0.373046875, 0.642578125, 0.355468750, -0.335937500, 0.458984375, -0.050781250, -0.257812500, -0.722656250, 0.013671875, 0.082031250, 0.406250000, 0.062500000, 0.000000000, 0.367187500, 0.515625000, 0.052734375, 0.056640625, -0.050781250, 0.380859375, -0.017578125, -0.169921875, -0.527343750, -0.439453125, 0.203125000, -0.517578125, 0.343750000, -0.187500000, -0.529296875, 0.535156250, -0.394531250, 0.367187500, -0.150390625, 0.041015625, -0.529296875, -0.220703125, -0.037109375, 0.195312500, 0.468750000, 0.167968750, 0.314453125, 0.128906250, -0.406250000, -0.150390625, -0.820312500, 0.619140625, 0.109375000, -0.302734375, 0.408203125, 0.042968750, 0.392578125, 0.228515625, 0.027343750, 0.046875000, 0.013671875, 0.425781250, 0.605468750, -1.335937500, -0.208984375, 0.328125000, 0.277343750, 0.210937500, -0.417968750, 0.009765625, -0.019531250, 0.421875000, -0.330078125, 0.343750000, -0.113281250, -0.066406250, -0.246093750, -0.478515625, -3.156250000, 0.089843750, 0.333984375, 0.371093750, -0.058593750, 0.021484375, 0.384765625, 0.554687500, -0.277343750, 0.490234375, -0.101562500, 0.392578125, -0.035156250, 0.273437500, -0.578125000, -0.470703125, -0.105468750, -0.568359375, 0.083984375, 0.304687500, -0.287109375, -0.335937500, -0.074218750, 0.482421875, -0.015625000, 0.232421875, -0.490234375, 0.601562500, -0.072265625, 0.048828125, 0.478515625, 0.003906250, 0.306640625, 0.103515625, 0.253906250, -0.431640625, -0.992187500, 0.160156250, 0.013671875, -0.056640625, 0.041015625, 0.378906250, 0.275390625, 0.298828125, 0.550781250, -0.029296875, 0.033203125, 0.402343750, -0.085937500, -1.246093750, -0.183593750, -0.144531250, 0.134765625, 0.123046875, -0.220703125, -0.148437500, -0.041015625, -0.505859375, 0.365234375, -0.107421875, 0.275390625, -0.093750000, -0.117187500, -0.560546875, -4.203125000, 0.054687500, 0.234375000, 0.650390625, -0.388671875, -0.021484375, 0.544921875, 0.708984375, -0.031250000, -0.111328125, -0.498046875, 0.515625000, 0.187500000, 0.234375000, -0.367187500, -0.552734375, -0.203125000, -0.574218750, 0.115234375, 0.105468750, 0.335937500, 0.869140625, 0.191406250, 0.691406250, -0.037109375, 0.222656250, -1.447265625, -0.574218750, -0.265625000, -0.111328125, 0.068359375, 0.443359375, -0.224609375, 0.503906250, 0.654296875, -0.236328125, -1.199218750, 0.679687500, -0.060546875, 0.292968750, -0.033203125, 0.142578125, 0.541015625, 0.158203125, 0.300781250, 0.109375000, -4.384765625, 0.654296875, -1.910156250, -0.451171875, -0.328125000, -0.529296875, 0.318359375, 0.152343750, -0.689453125, -0.240234375, -0.464843750, 0.751953125, 0.353515625, -0.468750000, -0.531250000, -0.021484375, -0.210937500, -0.435546875, -2.736328125, 0.435546875, 0.742187500, 1.294921875, 0.589843750, 0.433593750, 0.972656250, 0.769531250, -0.355468750, 0.138671875, -0.269531250, 0.628906250, -0.316406250, 0.255859375, -0.337890625, -1.287109375, -0.412109375, -0.339843750, 0.435546875, -0.212890625, 0.642578125, 0.898437500, 0.390625000, 1.386718750, 0.218750000, 1.875000000, -1.302734375, -0.054687500, -2.863281250, -0.128906250, -0.263671875, 0.175781250, -2.044921875, 0.144531250, 0.457031250, -1.150390625, -1.533203125, -0.597656250, -0.439453125, -0.806640625, 0.033203125, -0.355468750, 0.533203125, 0.130859375, 0.634765625, -0.029296875, -4.619140625, 1.167968750, -3.468750000, -0.539062500, -0.494140625, 0.001953125, 0.531250000, 0.023437500, -1.044921875, 0.144531250, -0.464843750, 0.486328125, 0.558593750, -0.158203125, -0.957031250, 0.123046875, -0.578125000, -0.541015625, -0.822265625, 1.169921875, -0.582031250, 1.478515625, -0.593750000, 0.886718750, 1.615234375, 1.007812500, -0.275390625, 0.619140625, -0.632812500, 0.748046875, -0.767578125, 0.412109375, 0.498046875, 0.011718750, -0.011718750, 0.259765625, 0.064453125, 0.791015625, 0.755859375, -0.070312500, -1.582031250, 2.277343750, 2.210937500, 1.527343750, -0.941406250, -0.183593750, -1.330078125, -0.019531250, -0.568359375, 0.048828125, -5.328125000, 0.251953125, -2.357421875, -0.193359375, -0.765625000, -0.951171875, -1.132812500, -3.429687500, 0.652343750, -0.677734375, 0.511718750, 0.109375000, 1.277343750, 0.246093750, -2.935546875, 1.316406250, -3.798828125, 0.679687500, -0.677734375, -0.398437500, 0.585937500, -0.181640625, 0.289062500, 0.470703125, -0.414062500, 0.408203125, 1.373046875, 0.167968750, -2.054687500, 0.314453125, -0.966796875, -0.675781250, 0.021484375, 0.775390625, 0.697265625, 2.300781250, 0.279296875, 1.039062500, 1.166015625, -0.205078125, 0.216796875, 0.292968750, -0.908203125, 0.765625000, -0.984375000, -0.125000000, 1.597656250, 0.751953125, 0.134765625, -0.216796875, -0.306640625, 1.964843750, 0.681640625, 0.173828125, -0.658203125, 0.576171875, 1.908203125, 1.378906250, -1.193359375, 0.218750000, 0.152343750, 0.386718750, 0.019531250, 0.595703125, -4.544921875, 1.060546875, -1.386718750, -0.292968750, -0.388671875, 1.611328125, 0.960937500, -2.164062500, 0.023437500, -1.074218750, 1.044921875, -1.996093750, 0.406250000, 0.087890625, -2.570312500, 2.642578125, -3.822265625, 0.693359375, -0.845703125, -0.214843750, 1.763671875, -0.318359375, -0.023437500, -0.478515625, -0.326171875, 0.396484375, 2.464843750, -0.482421875, -0.126953125, 0.357421875, -0.894531250, -0.494140625, -1.195312500, 0.048828125, 0.080078125, 2.023437500, 0.265625000, 0.957031250, 1.964843750, -1.632812500, -3.544921875, 0.046875000, -2.144531250, 0.169921875, -0.958984375, -0.398437500, 0.310546875, -0.869140625, 1.162109375, -1.896484375, 0.947265625, 0.179687500, 0.103515625, -1.916015625, 0.363281250, -0.625000000, -0.013671875, -3.015625000, 0.732421875, -0.363281250, -4.880859375, 0.224609375, 0.480468750, 1.357421875, -3.460937500, 0.207031250, 0.671875000, -0.109375000, 0.236328125, -0.230468750, -0.240234375, -0.822265625, 0.798828125, -2.988281250, 2.410156250, 0.292968750, 0.925781250, -0.566406250, -0.708984375, -0.300781250, 1.164062500, -2.054687500, -0.910156250, -0.218750000, 0.496093750, 0.714843750, -3.523437500, 0.529296875, -0.230468750, -0.101562500, 1.488281250, 0.351562500, -1.207031250, -0.587890625, 0.044921875, -1.175781250, -0.742187500, -0.496093750, 1.171875000, 1.562500000, 0.447265625, 0.228515625, 1.486328125, -0.798828125, -6.343750000, 1.187500000, -0.687500000, 0.322265625, -0.181640625, -0.322265625, -0.960937500, -1.072265625, -0.099609375, -0.449218750, 0.876953125, 1.136718750, -0.585937500, -1.039062500, 1.103515625, 0.671875000, -0.908203125, -7.066406250, 0.509765625, -0.136718750, -5.332031250, 0.005859375, 1.083984375, 0.318359375, -3.798828125, 0.287109375, 1.445312500, -0.064453125, 0.292968750, 2.169921875, 0.261718750, 0.888671875, 0.294921875, -1.835937500, 0.482421875, 0.271484375, -0.121093750, 0.154296875, 0.429687500, -0.050781250, 1.580078125, -1.154296875, -0.527343750, 1.312500000, 0.064453125, 0.679687500, -1.230468750, -0.035156250, -0.716796875, -0.189453125, 1.333984375, 0.429687500, -1.597656250, 0.125000000, -0.462890625, -0.015625000, 0.230468750, 0.224609375, 0.712890625, 0.949218750, 0.896484375, -0.355468750, 0.820312500, -0.281250000, -2.787109375, -0.066406250, -0.128906250, 0.253906250, -0.376953125, -0.130859375, -0.769531250, -1.072265625, -0.021484375, -1.242187500, 0.455078125, 0.537109375, -0.236328125, -0.205078125, 0.490234375, -2.292968750, -1.164062500, -5.322265625, 0.216796875, 0.230468750, -3.714843750, 0.953125000, 0.976562500, 0.068359375, 0.097656250, 0.294921875, -0.609375000, -0.191406250, -1.390625000, 1.220703125, 0.625000000, 0.279296875, 0.318359375, -1.500000000, 0.285156250, -0.083984375, 0.207031250, 0.281250000, 0.433593750, 0.625000000, 1.011718750, -0.517578125, -0.388671875, 0.142578125, 0.076171875, 0.406250000, -0.355468750, 0.212890625, -0.568359375, -0.189453125, 0.214843750, 0.558593750, -0.732421875, -0.164062500, -0.791015625, -0.123046875, -0.037109375, 0.152343750, 0.605468750, 0.429687500, 0.595703125, 0.107421875, 0.353515625, 0.087890625, 0.142578125, 0.003906250, 0.330078125, 0.208984375, -0.136718750, 0.099609375, -0.628906250, 0.455078125, -0.458984375, -0.501953125, 0.333984375, 0.193359375, -0.781250000, 0.236328125, 0.292968750, 0.054687500, -1.576171875, -0.867187500, -0.373046875, -0.050781250, 0.041015625, 0.660156250, 0.238281250, 0.046875000, 0.136718750, 0.156250000, -1.404296875, -0.349609375, -5.482421875, 0.505859375, 0.052734375, 0.304687500, 0.810546875, -0.103515625, 0.171875000, -0.003906250, -0.042968750, -0.554687500, 0.076171875, 0.376953125, 0.021484375, -0.107421875, 0.066406250, -0.431640625, 0.210937500, 0.332031250, -2.132812500, -0.167968750, -0.298828125, -0.066406250, -0.466796875, 0.455078125, -0.136718750, 0.322265625, -0.488281250, 0.123046875, -0.089843750, -4.074218750, -0.109375000, 0.062500000, 0.177734375, 0.166015625, 0.162109375, 0.134765625, 0.119140625, 0.320312500, 0.156250000, 0.230468750, -0.031250000, 0.126953125, 0.074218750, 0.279296875, -0.197265625, -0.281250000, 0.371093750, -0.074218750, 0.021484375, -0.730468750, 0.201171875, 0.021484375, -0.109375000, -0.083984375, -0.179687500, 0.000000000, 0.000000000, 0.257812500, 0.177734375, 0.787109375, 0.046875000, 0.000000000, 0.134765625, 0.210937500, 0.119140625, 0.218750000, 0.171875000, -0.255859375, 0.240234375, 0.240234375, 0.009765625, 0.220703125, -0.175781250, 0.363281250, 0.019531250, 0.035156250, -0.003906250, 0.134765625, 0.000000000, 0.035156250, 0.076171875, 0.236328125, -0.097656250, 0.072265625, 0.046875000, -0.542968750, -0.345703125, 0.093750000, 0.343750000, -0.115234375, -0.271484375, 0.134765625, -0.027343750, -2.658203125, -0.236328125, -0.001953125, 0.162109375, -0.095703125, 0.009765625, 0.306640625, -0.318359375, -0.050781250, 0.083984375, 0.277343750, -0.025390625, -0.009765625, -0.007812500, 0.201171875, -0.066406250, -0.175781250, -0.095703125, -0.041015625, 0.119140625, 0.003906250, 0.294921875, 0.210937500, 0.089843750, 0.042968750, 0.046875000, 0.128906250, 0.076171875, 0.205078125, 0.148437500, -0.341796875, -0.011718750, 0.460937500, 0.027343750, 0.078125000, 0.115234375, -0.005859375, -0.154296875, 0.119140625, -0.089843750, -0.263671875, 0.019531250, 0.105468750, 0.734375000, 0.164062500, 0.054687500, 0.205078125, -0.001953125, 0.146484375, 0.111328125, 0.189453125, -1.623046875, 0.134765625, -0.091796875, 0.083984375, 0.064453125, 0.099609375, 0.087890625, -0.011718750, 0.376953125, 0.195312500, 0.253906250, -0.257812500, -0.039062500, 0.210937500, 0.562500000, 0.326171875, 0.826171875, 0.087890625, 0.195312500, 0.310546875, -0.519531250, -0.037109375, -0.125000000, 0.281250000, -0.091796875, 0.289062500, -0.390625000, -0.248046875, -0.050781250, -0.554687500, -0.207031250, 0.025390625, 0.623046875, 0.208984375, 0.578125000, 0.464843750, -0.175781250, 0.083984375, -0.546875000, 0.203125000, 0.126953125, 0.101562500, 0.564453125, 0.121093750, 0.296875000, -0.125000000, -0.023437500, -0.654296875, -3.822265625, -0.113281250, -0.316406250, 0.246093750, 0.195312500, -0.140625000, 0.044921875, 0.183593750, 0.275390625, 0.515625000, -9.308593750, 0.388671875, -0.541015625, -0.955078125, -0.248046875, 0.400390625, -0.400390625, 0.273437500, -0.625000000, -0.671875000, -1.232421875, -0.398437500, 0.314453125, -0.164062500, 0.470703125, 0.132812500, -0.542968750, -0.152343750, -0.052734375, -1.136718750, 0.707031250, 0.835937500, -0.441406250, -0.091796875, 0.634765625, -1.419921875, -0.357421875, 0.916015625, -0.314453125, 0.269531250, -0.595703125, -0.228515625, -0.755859375, -0.937500000, -0.070312500, -0.181640625, 0.406250000, -0.726562500, 1.162109375, -2.126953125, 0.789062500, 1.259765625, 1.099609375, 1.294921875, -0.978515625, 0.460937500, -0.119140625, 0.060546875, 0.058593750, 0.078125000, -0.406250000, 0.734375000, 1.152343750, -1.142578125, -2.736328125, 0.033203125, -1.011718750, -3.283203125, -0.214843750, -0.291015625, 0.318359375, 0.091796875, 0.611328125, 0.013671875, -3.941406250, 0.939453125, -3.812500000, 0.748046875, -0.158203125, -0.607421875, 0.644531250, 0.158203125, 0.570312500, -2.962890625, -1.263671875, -0.058593750, 0.660156250, -0.666015625, -1.140625000, -0.375000000, -1.207031250, -0.509765625, -0.382812500, -1.601562500, 0.675781250, 0.912109375, 1.218750000, 0.677734375, 0.310546875, -1.529296875, -1.083984375, -0.414062500, -0.761718750, 0.537109375, -0.935546875, -0.302734375, 0.451171875, 0.373046875, -0.117187500, -0.152343750, -0.453125000, -0.810546875, 1.277343750, -1.882812500, 0.392578125, 2.095703125, 1.482421875, 1.203125000, -0.837890625, -0.201171875, 0.189453125, 0.806640625, 0.945312500, 0.107421875, -5.662109375, 1.246093750, 1.730468750, -0.658203125, -3.763671875, -0.007812500, 0.337890625, -4.699218750, -0.357421875, -0.562500000, 0.193359375, 0.115234375, 0.927734375, -0.001953125, -2.312500000, 1.880859375, -2.923828125, 1.753906250, -0.013671875, 0.177734375, 1.091796875, -0.226562500, -1.585937500, 0.087890625, -0.728515625, -0.076171875, 1.074218750, -0.597656250, -1.062500000, 1.281250000, -2.177734375, 0.054687500, 0.480468750, 1.900390625, 0.001953125, 1.742187500, -0.228515625, 0.365234375, 0.333984375, -1.751953125, -0.623046875, -1.392578125, -0.943359375, 0.365234375, -1.619140625, 0.322265625, 1.318359375, 0.416015625, 0.001953125, 1.238281250, 0.914062500, 0.134765625, 0.498046875, -0.273437500, -0.984375000, 1.873046875, 2.550781250, 2.029296875, -1.673828125, 1.011718750, -0.748046875, -0.304687500, 0.488281250, -0.785156250, -5.486328125, 1.419921875, 0.755859375, 0.669921875, -0.882812500, 0.566406250, -0.320312500, -3.587890625, -0.210937500, -0.871093750, 0.642578125, -0.890625000, 1.679687500, 0.804687500, -1.000000000, 1.869140625, -4.556640625, 1.369140625, -0.251953125, 0.068359375, 1.916015625, 0.015625000, -1.324218750, 1.613281250, -0.570312500, -0.099609375, 1.601562500, 0.074218750, -1.634765625, 0.167968750, -2.474609375, 0.449218750, 0.753906250, -0.505859375, 1.232421875, 2.171875000, 0.761718750, 0.808593750, 2.041015625, -0.117187500, -4.509765625, 3.218750000, -1.705078125, 0.441406250, -2.927734375, -0.269531250, 1.068359375, -0.261718750, -0.529296875, -0.123046875, 1.716796875, -2.572265625, 0.640625000, -1.021484375, -0.873046875, 0.207031250, 1.439453125, -5.326171875, 1.308593750, 0.552734375, -4.728515625, -0.724609375, 1.283203125, 0.671875000, -4.187500000, 0.175781250, -0.089843750, -0.156250000, 0.050781250, 2.406250000, -2.103515625, 1.509765625, 0.425781250, -2.228515625, 1.025390625, 0.388671875, -0.054687500, 0.281250000, 0.781250000, -0.353515625, 1.566406250, -0.673828125, -1.304687500, -0.388671875, -1.458984375, 0.378906250, -2.531250000, 0.177734375, -0.648437500, -1.152343750, 2.210937500, -0.435546875, 0.001953125, -0.244140625, -1.083984375, -2.234375000, 0.054687500, 0.259765625, 1.433593750, 1.628906250, -1.517578125, 1.103515625, 1.230468750, 0.173828125, -1.861328125, -0.337890625, -1.179687500, 0.050781250, -0.783203125, -2.226562500, -0.464843750, -0.527343750, -0.654296875, -1.308593750, 1.269531250, 0.296875000, 0.677734375, -0.455078125, 0.296875000, 0.410156250, -1.275390625, -5.111328125, 0.648437500, 0.843750000, -4.458984375, -0.232421875, 1.326171875, 0.910156250, -3.171875000, 0.419921875, 0.070312500, 0.179687500, 0.025390625, 1.695312500, -1.755859375, 2.031250000, 0.792968750, -4.994140625, 1.046875000, -0.437500000, 0.386718750, -0.919921875, 0.650390625, 0.046875000, 0.550781250, -1.169921875, -1.171875000, 0.349609375, 1.648437500, 0.667968750, -0.892578125, 1.044921875, -0.273437500, 0.017578125, 0.925781250, -0.121093750, -1.445312500, 0.478515625, -0.345703125, -0.417968750, -0.230468750, -0.423828125, 1.347656250, 0.777343750, -1.126953125, 0.078125000, 0.796875000, -0.792968750, -2.267578125, 0.197265625, -0.675781250, 0.287109375, -0.718750000, -0.734375000, -1.046875000, -1.599609375, 0.521484375, -0.060546875, 0.689453125, 0.330078125, 0.359375000, 0.708984375, 0.312500000, 0.035156250, -0.050781250, -2.207031250, 1.146484375, 0.667968750, -2.734375000, 0.107421875, 0.601562500, -0.125000000, 0.312500000, 0.691406250, -0.050781250, -0.304687500, -0.091796875, 1.189453125, 0.380859375, 0.544921875, 0.033203125, -1.076171875, -0.166015625, -0.033203125, -0.423828125, -0.621093750, 0.158203125, -0.039062500, 1.080078125, -1.082031250, -0.488281250, 0.240234375, 0.402343750, 0.226562500, -1.470703125, 0.722656250, -0.806640625, 0.195312500, 0.611328125, 0.179687500, -0.248046875, -0.687500000, -0.474609375, -0.185546875, 0.435546875, 0.236328125, 0.718750000, 0.210937500, -0.316406250, -0.261718750, 0.259765625, -0.343750000, 0.669921875, 0.087890625, -0.056640625, 0.298828125, -0.244140625, 0.029296875, -0.183593750, -0.132812500, 0.427734375, 0.134765625, -0.062500000, 0.121093750, 0.583984375, 0.189453125, 0.130859375, 0.015625000, 0.335937500, -0.587890625, -0.386718750, 0.189453125, -0.091796875, 0.283203125, 0.128906250, 0.253906250, 0.445312500, -0.126953125, -1.533203125, -0.808593750, -2.650390625, 0.546875000, 0.595703125, 0.238281250, 0.255859375, 0.054687500, -3.925781250, 0.148437500, 0.193359375, 0.070312500, 0.011718750, -0.042968750, 0.076171875, -0.478515625, 0.144531250, -0.503906250, 0.296875000, 0.298828125, -1.033203125, -0.693359375, -0.517578125, 0.162109375, 0.261718750, 0.232421875, -0.847656250, -0.794921875, -0.128906250, 0.078125000, -0.056640625, -0.076171875, 0.236328125, 0.001953125, -0.011718750, -0.113281250, -0.013671875, -0.007812500, 0.091796875, 0.031250000, -0.121093750, 0.207031250, -0.101562500, -0.814453125, 0.183593750, 0.232421875, -0.177734375, 0.125000000, -0.083984375, 0.392578125, 0.273437500, -0.074218750, -0.005859375, -0.015625000, 0.169921875, -0.021484375, 0.173828125, -0.099609375, 0.054687500, 0.267578125, -1.140625000, -0.009765625, -0.085937500, -0.023437500, 0.009765625, -0.027343750, 0.117187500, 0.083984375, 0.072265625, -0.060546875, -0.175781250, 0.103515625, -4.833984375, 0.183593750, 0.099609375, 0.273437500, 0.029296875, -0.015625000, -0.095703125, 0.183593750, 0.046875000, -0.062500000, 0.003906250, 0.158203125, 0.138671875, -0.429687500, 0.027343750, 0.242187500, 0.007812500, -0.044921875, 0.060546875, -0.808593750, 0.082031250, 0.066406250, 0.066406250, -0.029296875, 0.240234375, 0.007812500, -0.001953125, -0.439453125, -0.021484375, 0.115234375, 0.082031250, -0.830078125, -0.025390625, 0.199218750, -0.291015625, -2.287109375, 0.605468750, 0.351562500, -0.132812500, 0.054687500, 0.285156250, 0.007812500, 0.039062500, -0.033203125, 0.041015625, -0.003906250, 0.062500000, 0.000000000, 0.060546875, -0.080078125, -0.011718750, 0.242187500, 0.011718750, 0.373046875, -0.089843750, 0.244140625, 0.119140625, -0.062500000, 0.066406250, -0.009765625, 0.291015625, 0.037109375, -3.035156250, -0.302734375, -0.441406250, 0.494140625, -0.001953125, -0.242187500, -0.230468750, -0.009765625, 0.160156250, 0.039062500, -0.021484375, 0.365234375, -0.232421875, 0.146484375, 0.123046875, 0.085937500, -8.607421875, -0.085937500, -0.011718750, -3.978515625, -0.003906250, -0.105468750, 0.105468750, 0.054687500, 0.013671875, 0.003906250, 0.646484375, 0.257812500, -0.501953125, -0.732421875, 0.017578125, -0.076171875, 0.175781250, -0.115234375, -0.312500000, 0.531250000, -0.865234375, 0.384765625, -0.044921875, -0.353515625, 0.892578125, 0.248046875, -0.283203125, -0.324218750, 0.085937500, -0.234375000, 0.650390625, 0.181640625, -0.138671875, -0.544921875, -0.302734375, 0.359375000, 0.441406250, -0.123046875, 0.425781250, 0.751953125, 0.054687500, 0.179687500, 1.171875000, -0.580078125, -2.408203125, -0.009765625, -0.082031250, 0.443359375, -0.050781250, -0.527343750, -0.013671875, 0.271484375, 0.181640625, -0.488281250, -1.335937500, 0.181640625, 0.031250000, -1.283203125, -0.050781250, 0.304687500, 0.656250000, 0.267578125, -0.777343750, -1.029296875, -6.468750000, 0.205078125, 0.322265625, -3.064453125, -0.542968750, 0.166015625, 0.304687500, -0.101562500, -0.332031250, 0.091796875, 0.542968750, 0.677734375, -0.722656250, 0.646484375, 0.183593750, -1.431640625, 0.017578125, 0.919921875, -0.953125000, 0.765625000, -3.810546875, -1.109375000, 0.394531250, 0.660156250, 0.619140625, 0.361328125, -0.218750000, -0.740234375, -0.207031250, -1.121093750, 1.029296875, 0.751953125, 0.279296875, 0.027343750, -0.830078125, -1.789062500, 0.232421875, -0.080078125, 1.861328125, 0.033203125, -1.564453125, 0.285156250, 1.658203125, -2.066406250, -0.962890625, -0.050781250, -1.128906250, -1.531250000, 0.597656250, -0.849609375, -0.066406250, 0.453125000, 1.632812500, -1.076171875, -2.949218750, 0.738281250, -1.769531250, -1.191406250, -0.300781250, -1.853515625, 0.503906250, -0.144531250, -0.351562500, -0.349609375, -5.912109375, 0.794921875, 1.214843750, 0.292968750, -1.031250000, -0.109375000, -0.613281250, 0.037109375, -0.533203125, 0.212890625, 0.160156250, 0.849609375, -1.427734375, 1.582031250, 0.425781250, 1.904296875, 0.210937500, 0.435546875, -0.576171875, 0.855468750, -4.148437500, -0.230468750, 0.916015625, -0.031250000, 0.873046875, 0.759765625, -0.779296875, -0.322265625, -0.798828125, -0.019531250, 1.031250000, 2.269531250, 2.232421875, -0.732421875, -2.730468750, 1.892578125, 0.253906250, 0.185546875, 2.154296875, -0.136718750, -6.906250000, 0.203125000, 1.218750000, -1.142578125, -0.693359375, 0.378906250, 0.298828125, -4.183593750, 0.869140625, -1.451171875, 1.257812500, 0.494140625, 1.839843750, -0.871093750, -0.402343750, 1.414062500, -5.007812500, -1.583984375, -0.720703125, -0.169921875, 1.310546875, 0.060546875, -1.451171875, 1.925781250, -3.220703125, 1.158203125, 2.333984375, -0.298828125, -0.412109375, 1.919921875, -0.400390625, 0.423828125, -0.341796875, 3.781250000, 0.314453125, 1.871093750, 0.144531250, -0.330078125, 1.078125000, 0.566406250, 1.353515625, -1.984375000, -1.001953125, 1.027343750, -3.666015625, -2.582031250, 1.550781250, -0.464843750, 2.093750000, 0.328125000, 0.802734375, 1.828125000, -0.248046875, -0.365234375, 0.125000000, 1.779296875, 1.328125000, -1.837890625, -1.650390625, -0.269531250, -0.248046875, -0.486328125, 1.171875000, 0.955078125, -5.085937500, 0.183593750, 0.806640625, 0.148437500, -0.302734375, -0.041015625, -0.792968750, -4.417968750, 1.730468750, -0.410156250, -1.542968750, -0.173828125, 0.298828125, -0.904296875, -1.066406250, 2.486328125, -4.781250000, -0.564453125, -1.080078125, -0.509765625, 2.091796875, -0.148437500, -0.470703125, 0.478515625, -2.105468750, 3.687500000, 3.341796875, 0.921875000, -0.449218750, 2.123046875, -1.878906250, -1.230468750, 0.082031250, -0.546875000, 0.890625000, 2.343750000, -0.044921875, -2.166015625, 1.355468750, 0.787109375, -3.037109375, 2.419921875, -1.044921875, 0.289062500, -4.283203125, -0.931640625, 0.322265625, 0.250000000, -0.976562500, -0.421875000, 1.410156250, -0.384765625, -0.812500000, 2.140625000, 1.160156250, 0.064453125, 0.576171875, -4.031250000, 0.666015625, -0.693359375, -2.371093750, 0.455078125, 0.660156250, 1.962890625, -2.449218750, 0.130859375, 0.634765625, -0.273437500, 0.339843750, 3.208984375, 0.068359375, 1.476562500, 6.244140625, -1.708984375, -0.095703125, 0.701171875, -0.923828125, 0.173828125, -2.941406250, 1.117187500, 0.308593750, -0.935546875, -1.007812500, 0.558593750, 0.886718750, -1.250000000, -0.941406250, 1.261718750, -3.796875000, -3.541015625, 1.701171875, -2.908203125, 0.115234375, -0.402343750, -0.423828125, -2.892578125, 0.923828125, 3.744140625, 1.343750000, 1.656250000, -1.841796875, -3.564453125, 1.591796875, 0.203125000, -1.197265625, 0.285156250, -1.947265625, -0.087890625, -1.996093750, -1.503906250, 0.365234375, -0.539062500, -2.183593750, -0.464843750, 2.212890625, -1.525390625, -0.027343750, -0.271484375, 1.109375000, -0.039062500, -0.392578125, -4.966796875, 0.207031250, 0.392578125, -3.208984375, 0.669921875, 0.642578125, 0.708984375, -6.382812500, 0.189453125, 0.855468750, -0.746093750, -0.513671875, 2.478515625, -1.761718750, 1.101562500, 0.990234375, -0.564453125, 0.994140625, -1.300781250, 0.689453125, -1.109375000, -0.837890625, -0.125000000, 0.843750000, -2.287109375, -0.640625000, -0.902343750, -0.111328125, -0.375000000, 0.580078125, 1.187500000, -4.748046875, 0.232421875, 0.572265625, -4.822265625, -0.671875000, -0.580078125, -0.626953125, -0.685546875, -1.187500000, 1.300781250, 1.503906250, 0.943359375, -0.628906250, -2.097656250, 0.857421875, 0.230468750, -1.875000000, 0.177734375, -0.611328125, 0.619140625, -4.111328125, -1.476562500, 0.941406250, -1.703125000, 0.933593750, 0.085937500, 2.000000000, -0.154296875, 0.027343750, -1.542968750, 0.435546875, -0.751953125, -1.638671875, -2.650390625, 0.599609375, 0.210937500, -0.488281250, 0.158203125, 0.300781250, -0.910156250, -1.304687500, 0.515625000, 0.955078125, -0.806640625, -1.050781250, 1.669921875, -0.148437500, 0.675781250, 0.025390625, -0.005859375, 1.820312500, -0.212890625, 0.345703125, -0.523437500, 0.818359375, 0.103515625, 0.976562500, -0.878906250, -0.033203125, -1.255859375, -0.617187500, 0.054687500, 0.031250000, 1.414062500, -3.425781250, 1.119140625, 0.427734375, -6.029296875, -0.343750000, -0.775390625, -0.095703125, -1.328125000, 0.125000000, -1.371093750, 1.191406250, 0.615234375, -1.498046875, -0.220703125, 0.542968750, -0.330078125, -2.826171875, 0.009765625, -0.566406250, 0.369140625, -2.019531250, -0.660156250, 0.066406250, -0.587890625, -0.044921875, 0.074218750, -1.009765625, -0.451171875, 0.558593750, 0.291015625, 0.203125000, 0.042968750, -0.087890625, -0.623046875, -0.361328125, 0.410156250, -0.160156250, 0.398437500, 0.226562500, -0.019531250, -0.011718750, 0.212890625, 0.519531250, -0.015625000, 0.513671875, 0.800781250, 0.091796875, 0.607421875, 0.783203125, 0.019531250, 0.134765625, 0.417968750, 0.457031250, -0.806640625, 0.072265625, -0.064453125, 0.876953125, -0.607421875, -0.037109375, 0.638671875, 0.617187500, -0.082031250, 0.179687500, -0.501953125, -6.037109375, -0.453125000, 0.310546875, -3.416015625, -0.181640625, -0.406250000, -1.500000000, -1.222656250, -1.531250000, 0.261718750, 0.093750000, 0.277343750, -0.310546875, 0.632812500, 0.044921875, -0.517578125, 0.117187500, 0.794921875, -0.441406250, 0.302734375, -1.095703125, -0.003906250, -0.046875000, -0.285156250, 0.095703125, -0.187500000, -1.677734375, -0.001953125, 0.162109375, 0.072265625, -0.097656250, -0.033203125, 0.046875000, -0.033203125, -0.470703125, -0.470703125, 0.085937500, 0.320312500, 0.121093750, 0.220703125, 0.402343750, 0.093750000, 0.478515625, 0.191406250, -0.726562500, 0.107421875, 0.789062500, -0.384765625, 0.740234375, -0.099609375, 0.164062500, 0.429687500, -0.048828125, -0.025390625, 0.107421875, -0.093750000, -0.013671875, -0.886718750, 0.261718750, -0.195312500, 0.320312500, 0.251953125, 0.718750000, -0.402343750, -5.890625000, -0.007812500, 0.324218750, -4.423828125, -0.353515625, -0.451171875, -0.919921875, -0.845703125, 0.136718750, 0.289062500, 0.019531250, -0.115234375, -0.417968750, -0.380859375, -0.072265625, -0.949218750, -0.199218750, -0.458984375, -0.572265625, 0.464843750, -2.048828125, -1.162109375, -0.203125000, 0.005859375, 0.628906250, 0.164062500, -0.146484375, -0.142578125, 0.087890625, -0.292968750, 0.542968750, 0.406250000, -1.154296875, 0.187500000, -0.001953125, -0.099609375, 0.095703125, 0.644531250, 0.326171875, -0.035156250, 0.095703125, 0.363281250, 0.205078125, -0.820312500, -0.427734375, 0.035156250, -0.548828125, 0.041015625, -0.064453125, -0.302734375, -0.039062500, 0.074218750, -0.400390625, 0.351562500, -0.074218750, 0.201171875, 0.031250000, -0.330078125, -0.789062500, -2.763671875, 0.107421875, -0.333984375, 0.218750000, 0.007812500, -8.041015625, 0.945312500, -0.136718750, -0.337890625, -0.212890625, 0.917968750, -0.392578125, -0.283203125, 0.072265625, -0.136718750, 0.986328125, 0.333984375, -0.443359375, 0.400390625, -0.566406250, 0.212890625, -0.126953125, -0.664062500, 0.859375000, 0.509765625, -3.011718750, 0.037109375, -0.335937500, 0.216796875, 1.166015625, 0.156250000, 0.332031250, -0.314453125, -0.044921875, 0.445312500, 0.535156250, 0.765625000, 0.035156250, -0.644531250, -0.056640625, -0.046875000, 0.113281250, 0.011718750, 0.523437500, 0.636718750, -0.542968750, -0.197265625, 0.703125000, -2.044921875, 0.222656250, 0.132812500, -0.210937500, -2.074218750, -0.275390625, -1.013671875, 0.171875000, 0.242187500, 0.195312500, -0.947265625, -0.011718750, 0.603515625, 0.171875000, -0.964843750, -0.486328125, -3.296875000, 0.375000000, -0.179687500, -0.210937500, -0.044921875, -6.660156250, 0.982421875, 0.201171875, -0.218750000, -0.357421875, 0.164062500, 0.271484375, 0.318359375, -1.392578125, 1.617187500, 0.658203125, 0.607421875, -1.164062500, 0.832031250, 0.246093750, 0.742187500, -0.162109375, -0.296875000, 0.310546875, 0.859375000, -3.798828125, -0.212890625, 0.429687500, 0.154296875, 1.439453125, 0.255859375, -0.056640625, -1.310546875, -0.357421875, 0.341796875, 0.972656250, 1.414062500, -2.367187500, -3.308593750, -0.322265625, 0.933593750, 0.878906250, 0.208984375, 0.835937500, -0.031250000, -5.783203125, -0.533203125, 0.781250000, -1.177734375, 0.054687500, -0.390625000, -0.076171875, -1.705078125, 1.236328125, -0.785156250, 0.013671875, 0.179687500, 1.332031250, -2.783203125, 0.080078125, 0.746093750, -4.335937500, -0.837890625, -0.560546875, -1.468750000, 0.667968750, -5.685546875, -1.013671875, 0.630859375, -4.187500000, -0.484375000, 0.066406250, 1.031250000, -0.398437500, -0.134765625, -0.626953125, -0.011718750, -1.843750000, 5.873046875, -0.113281250, 1.349609375, -2.490234375, 1.207031250, 0.251953125, 0.478515625, -0.304687500, -0.785156250, -0.443359375, 0.585937500, -5.488281250, 1.046875000, 0.851562500, -0.298828125, -0.371093750, -0.154296875, 0.082031250, 1.025390625, -1.414062500, 1.199218750, 0.435546875, 0.732421875, -0.191406250, -4.056640625, -3.351562500, 0.466796875, -0.064453125, -0.558593750, 1.205078125, -0.097656250, -7.652343750, 1.287109375, 0.716796875, -0.052734375, -0.279296875, -0.541015625, -0.382812500, -4.154296875, -1.302734375, 0.068359375, -0.728515625, -0.500000000, 1.236328125, -3.275390625, 0.332031250, 1.634765625, -3.900390625, -1.267578125, -1.390625000, -0.503906250, 1.189453125, -1.210937500, 0.720703125, 1.187500000, -3.585937500, -0.416015625, -0.490234375, -0.066406250, -0.507812500, 0.931640625, -0.255859375, 0.070312500, 0.300781250, 3.630859375, -0.796875000, 0.621093750, -2.632812500, -0.431640625, -0.402343750, 0.695312500, 0.740234375, -2.042968750, -0.666015625, 0.892578125, -3.781250000, -2.529296875, -0.251953125, -1.248046875, 1.027343750, 0.654296875, -0.501953125, 1.587890625, -0.824218750, -1.994140625, -0.353515625, 0.912109375, 2.718750000, -0.332031250, -2.507812500, 0.505859375, 0.322265625, -0.085937500, 1.343750000, -0.425781250, -1.810546875, 0.732421875, 0.183593750, -0.330078125, -1.099609375, 0.140625000, -1.271484375, -3.025390625, 1.222656250, 0.039062500, 2.572265625, 0.416015625, 1.882812500, -2.400390625, -2.605468750, 1.769531250, -3.875000000, 0.437500000, -1.542968750, -0.574218750, 0.681640625, -2.089843750, -0.808593750, -0.974609375, -2.757812500, 1.816406250, 3.533203125, -2.095703125, -0.238281250, -0.607421875, -1.767578125, 0.582031250, -0.316406250, -2.656250000, 2.279296875, 2.921875000, -0.423828125, -3.277343750, 2.617187500, 0.044921875, -0.753906250, 1.863281250, -0.480468750, 0.800781250, -2.681640625, 2.421875000, 0.003906250, 0.226562500, -4.525390625, 0.558593750, 0.712890625, 1.697265625, -0.880859375, -0.263671875, 0.865234375, 1.048828125, 0.998046875, 0.410156250, 0.796875000, 0.990234375, -0.048828125, -0.607421875, 1.832031250, 0.771484375, -0.582031250, 0.546875000, -0.919921875, -0.095703125, 1.062500000, 0.851562500, 1.007812500, 0.689453125, 1.419921875, -3.396484375, 3.945312500, -1.451171875, 0.054687500, 0.251953125, -2.156250000, 1.056640625, -0.171875000, -1.828125000, -0.386718750, -0.605468750, 2.039062500, 0.658203125, 0.275390625, -0.464843750, 0.738281250, 0.876953125, 1.300781250, -1.146484375, -0.453125000, -1.728515625, 0.115234375, -3.308593750, 1.132812500, -2.312500000, 0.373046875, 1.671875000, -0.185546875, -0.931640625, 1.703125000, 0.361328125, -1.548828125, -0.568359375, -0.636718750, -0.537109375, -1.990234375, -0.773437500, 0.585937500, -0.224609375, 1.148437500, 0.386718750, 1.529296875, 0.492187500, 0.283203125, -2.515625000, 0.244140625, -0.308593750, 1.648437500, -0.621093750, 1.384765625, -0.093750000, 0.103515625, 0.574218750, 0.064453125, -0.103515625, -2.275390625, 0.009765625, -1.250000000, -0.277343750, -0.642578125, 0.517578125, -0.169921875, 0.718750000, 0.150390625, -0.871093750, 1.988281250, -1.111328125, -0.107421875, -0.271484375, 1.312500000, 0.607421875, -0.099609375, 0.376953125, 0.140625000, -0.162109375, 2.726562500, 0.195312500, -0.873046875, -0.146484375, -2.248046875, 0.746093750, -0.193359375, -2.916015625, -0.228515625, -1.777343750, 0.117187500, -1.470703125, 0.755859375, 0.687500000, -0.601562500, 1.611328125, -1.169921875, -1.781250000, 1.201171875, 0.535156250, -2.611328125, 0.800781250, -0.666015625, 0.433593750, -3.056640625, 0.556640625, 0.359375000, -0.269531250, -0.074218750, -0.314453125, 1.783203125, -2.603515625, 0.164062500, -0.716796875, -0.140625000, -0.431640625, -1.464843750, -1.396484375, -0.115234375, -0.058593750, 0.486328125, 0.267578125, 0.595703125, -1.224609375, -5.480468750, 0.517578125, 0.378906250, -0.412109375, 0.722656250, 1.123046875, 0.666015625, 0.988281250, 0.886718750, 0.757812500, 1.435546875, -0.537109375, -0.011718750, -1.201171875, 0.951171875, -0.058593750, -0.013671875, -1.884765625, -0.189453125, -1.021484375, -1.986328125, -0.068359375, -0.267578125, 0.650390625, -2.646484375, -0.257812500, 0.707031250, -4.027343750, -0.390625000, -0.626953125, -0.730468750, -1.640625000, -0.662109375, -0.857421875, 0.292968750, 0.871093750, 0.640625000, 1.824218750, 0.828125000, 0.017578125, -4.636718750, 0.300781250, -0.025390625, 0.011718750, -3.683593750, 0.728515625, -0.621093750, 0.162109375, 0.248046875, 0.197265625, -1.009765625, -0.205078125, -0.886718750, -1.238281250, 0.115234375, 0.123046875, 0.554687500, -1.525390625, 0.042968750, -0.562500000, 0.140625000, 0.353515625, -0.613281250, -1.337890625, -2.001953125, -0.335937500, 0.619140625, -0.269531250, -1.001953125, 1.656250000, -2.537109375, 0.976562500, 0.701171875, 0.193359375, 1.478515625, -0.326171875, 0.109375000, -1.390625000, -0.574218750, 0.179687500, 0.906250000, -0.626953125, -0.091796875, 0.400390625, -0.287109375, -0.078125000, -0.230468750, 0.578125000, -1.843750000, -0.330078125, 0.445312500, -3.808593750, 0.277343750, -0.078125000, -0.556640625, -1.996093750, -0.451171875, -0.105468750, 0.498046875, 0.894531250, 0.343750000, 0.802734375, 0.605468750, -0.443359375, -3.859375000, -0.019531250, 0.628906250, 0.167968750, -4.648437500, 1.228515625, -0.166015625, -0.642578125, -0.082031250, -0.771484375, 0.375000000, 1.144531250, -1.074218750, -1.615234375, 0.218750000, -0.062500000, -3.384765625, -0.197265625, -0.140625000, -0.566406250, -0.285156250, 0.679687500, 0.703125000, -0.333984375, -0.244140625, -0.107421875, 0.574218750, -0.414062500, -0.146484375, -0.072265625, -1.154296875, -0.240234375, 0.667968750, 0.162109375, 0.652343750, -0.156250000, -0.060546875, -1.820312500, 0.667968750, -0.011718750, 0.486328125, -0.957031250, -1.121093750, 0.492187500, -0.189453125, -0.115234375, 0.029296875, 0.605468750, -3.205078125, -0.644531250, 0.593750000, -3.351562500, 0.296875000, 0.267578125, -0.015625000, -0.517578125, -0.296875000, -0.164062500, 0.673828125, 0.638671875, -1.248046875, 0.300781250, 0.001953125, 0.408203125, -2.011718750, 0.638671875, -0.218750000, 0.113281250, -5.193359375, 0.074218750, 0.478515625, 0.318359375, 0.136718750, 0.720703125, 0.205078125, 0.042968750, -0.333984375, -0.347656250, 0.335937500, 0.933593750, -1.867187500, -0.554687500, -0.322265625, -0.753906250, 0.205078125, -0.181640625, 0.882812500, -0.904296875, -4.146484375, 0.707031250, 0.558593750, -0.748046875, 0.257812500, 0.195312500, -1.115234375, 0.472656250, -0.441406250, -0.587890625, 0.751953125, 0.023437500, 0.341796875, -3.408203125, -0.261718750, 0.111328125, 0.873046875, -1.058593750, -0.826171875, -0.089843750, 0.041015625, -0.912109375, 0.265625000, 1.503906250, -4.693359375, -0.078125000, -0.378906250, 0.939453125, -0.115234375, -0.011718750, 0.339843750, -0.742187500, 0.378906250, 1.197265625, 0.234375000, 0.744140625, -2.013671875, 0.275390625, 0.197265625, 0.117187500, -0.800781250, -0.843750000, -0.140625000, 0.271484375, -5.328125000, 0.158203125, 0.589843750, -0.498046875, -0.123046875, 0.378906250, -0.708984375, 2.062500000, -0.376953125, -0.230468750, 0.255859375, 1.169921875, -1.457031250, -0.804687500, 0.300781250, 0.410156250, 0.578125000, 0.015625000, 0.544921875, -0.126953125, -2.742187500, 1.039062500, 0.320312500, -1.783203125, -0.933593750, -0.226562500, -0.373046875, 0.708984375, -0.958984375, -0.773437500, -0.236328125, -0.070312500, -0.082031250, -2.089843750, -0.134765625, 0.927734375, 0.214843750, -0.593750000, -0.357421875, 0.066406250, 0.457031250, -1.953125000, 0.083984375, -0.025390625, -6.013671875, 1.300781250, 0.955078125, -0.457031250, -0.830078125, -0.435546875, -0.005859375, 0.292968750, -1.056640625, 2.400390625, -1.763671875, 1.007812500, 0.630859375, 0.408203125, 0.251953125, 0.044921875, 0.009765625, -0.097656250, -0.775390625, 0.375000000, -2.845703125, 0.693359375, -0.521484375, -0.062500000, 1.078125000, 0.402343750, 0.166015625, 1.892578125, -0.343750000, -1.349609375, 0.111328125, 1.187500000, 0.248046875, -4.535156250, -1.337890625, -2.603515625, 0.380859375, 0.257812500, -0.152343750, -0.273437500, -4.136718750, -0.107421875, 0.080078125, -0.337890625, -2.449218750, 0.115234375, -0.257812500, -2.828125000, -0.191406250, -0.712890625, 0.353515625, 0.042968750, 0.210937500, -0.732421875, 0.351562500, 1.144531250, -3.363281250, -0.976562500, 0.373046875, -1.441406250, 2.484375000, -1.716796875, 0.201171875, 0.876953125, -1.572265625, -0.039062500, 2.406250000, -1.099609375, -1.134765625, 1.894531250, 0.216796875, 0.769531250, 1.283203125, 2.882812500, 1.156250000, 1.857421875, -0.878906250, -0.236328125, 0.792968750, -1.246093750, 0.589843750, -1.482421875, -0.955078125, -0.097656250, -3.640625000, 1.476562500, 0.484375000, 0.296875000, 0.582031250, 0.804687500, 1.619140625, 1.216796875, 0.712890625, 0.800781250, 0.375000000, 2.511718750, 0.947265625, -1.984375000, -0.378906250, -1.523437500, 0.769531250, -0.126953125, -0.095703125, 0.347656250, -3.402343750, 0.158203125, -0.609375000, -0.041015625, -0.105468750, -0.671875000, -0.640625000, -3.675781250, 0.447265625, 0.005859375, 1.384765625, 0.066406250, 0.869140625, -3.886718750, -0.748046875, 0.728515625, -2.132812500, -0.408203125, -0.560546875, 0.568359375, 2.185546875, -3.269531250, -0.601562500, 1.650390625, 0.484375000, 2.724609375, 3.412109375, -0.611328125, -0.796875000, 0.693359375, -0.294921875, 0.437500000, 0.544921875, 0.218750000, 0.154296875, 2.408203125, -0.029296875, 0.408203125, -1.685546875, 0.949218750, -0.408203125, -2.513671875, -0.941406250, 0.509765625, -2.595703125, 0.003906250, 0.593750000, -0.763671875, 0.267578125, 1.152343750, 0.324218750, 0.595703125, 0.345703125, 1.814453125, -2.322265625, 2.599609375, -0.173828125, 1.623046875, -1.531250000, 0.335937500, 0.078125000, 0.587890625, 0.187500000, -0.488281250, 2.031250000, 1.458984375, -1.253906250, 0.363281250, -0.533203125, 0.007812500, -0.132812500, -1.330078125, -1.554687500, 1.398437500, -1.156250000, -3.699218750, 0.730468750, -0.726562500, 0.039062500, 1.164062500, -0.892578125, 0.291015625, -0.248046875, -0.656250000, 0.568359375, -2.445312500, -0.763671875, 0.574218750, -2.085937500, 2.291015625, 1.857421875, 1.755859375, -0.613281250, -0.886718750, -2.080078125, -0.048828125, -1.205078125, -0.058593750, 0.105468750, 0.150390625, 0.029296875, 0.052734375, 0.050781250, -0.197265625, 0.185546875, 0.013671875, 0.001953125, 0.255859375, 0.128906250, -0.035156250, -0.210937500, -0.246093750, -0.152343750, 0.023437500, 0.058593750, 0.218750000, 0.082031250, -0.070312500, 0.095703125, -0.109375000, -0.056640625, -0.154296875, 0.082031250, -0.185546875, 0.089843750, -0.074218750, -0.054687500, 0.189453125, 0.066406250, -0.109375000, 0.017578125, 0.101562500, 0.154296875, 0.169921875, 0.083984375, -0.210937500, 0.050781250, 0.132812500, 0.025390625, -0.097656250, -0.025390625, -0.142578125, 0.125000000, -0.083984375, 0.015625000, 0.119140625, 0.119140625, -0.273437500, 0.171875000, 0.128906250, 0.271484375, -0.015625000, -0.281250000, 0.019531250, 0.015625000, 0.074218750, -0.017578125, 0.121093750, -0.044921875, -0.044921875, 0.052734375, 1.187500000, 1.115234375, 1.992187500, 0.339843750, -2.470703125, 2.027343750, 0.216796875, -4.638671875, 2.017578125, -0.972656250, 0.585937500, 0.076171875, -2.582031250, 2.574218750, 0.263671875, -0.919921875, 0.373046875, -0.091796875, 1.148437500, -0.917968750, -0.621093750, 0.517578125, -1.097656250, 0.929687500, -0.812500000, 0.820312500, 0.416015625, -0.150390625, 0.017578125, 1.152343750, 1.562500000, -0.550781250, 0.166015625, -0.009765625, 0.126953125, -0.314453125, 4.052734375, 1.441406250, 0.628906250, 0.136718750, -4.242187500, -2.998046875, -0.392578125, 0.572265625, -0.646484375, -1.535156250, 0.677734375, 0.978515625, -1.488281250, -1.007812500, -0.089843750, 5.298828125, -0.328125000, -0.494140625, -0.033203125, -1.367187500, 1.541015625, 1.283203125, -2.128906250, -0.392578125, -0.556640625, -0.384765625, -3.833984375, -0.214843750, 1.214843750, 2.044921875, 2.214843750, -0.125000000, 3.652343750, 1.634765625, -0.289062500, 0.978515625, -1.253906250, -0.095703125, 0.675781250, -3.669921875, 1.517578125, -1.128906250, 0.253906250, -2.402343750, 0.767578125, 0.296875000, 2.472656250, -0.041015625, -1.744140625, 0.218750000, 0.601562500, -1.425781250, 2.636718750, 0.304687500, 0.287109375, 0.359375000, 0.017578125, 1.277343750, 1.175781250, -4.474609375, -0.179687500, 0.117187500, 0.259765625, 1.138671875, 0.853515625, -0.189453125, -0.460937500, -1.791015625, 1.148437500, -0.146484375, -1.167968750, 0.173828125, -0.933593750, -0.623046875, 0.757812500, 0.681640625, -2.250000000, -0.091796875, -0.923828125, 4.066406250, -2.833984375, -0.224609375, 0.267578125, -1.912109375, -1.925781250, 1.158203125, -1.867187500, -0.064453125, -1.707031250, -0.058593750, -0.146484375, -0.339843750, -1.341796875, 0.167968750, 0.816406250, -0.449218750, -0.875000000, 1.306640625, 0.052734375, -0.017578125, 1.890625000, 0.367187500, -0.875000000, 0.322265625, -1.896484375, -1.339843750, -0.214843750, 0.400390625, 0.539062500, -0.990234375, 2.783203125, -0.353515625, -1.335937500, -0.166015625, 0.291015625, -0.605468750, 0.185546875, 0.214843750, -0.789062500, -0.140625000, 0.228515625, 0.896484375, 1.976562500, -3.326171875, -0.455078125, 0.003906250, -0.474609375, -0.460937500, 1.000000000, -0.830078125, 0.199218750, 0.951171875, 0.568359375, 0.457031250, -0.437500000, -0.312500000, -0.658203125, -0.048828125, 0.136718750, 1.035156250, -1.253906250, 0.164062500, 0.154296875, -4.398437500, -0.869140625, -0.718750000, 0.242187500, -1.000000000, -0.654296875, 1.197265625, -0.357421875, 0.220703125, 0.062500000, -0.093750000, -0.335937500, -0.316406250, 1.632812500, -0.277343750, 1.716796875, -0.308593750, -0.708984375, 0.968750000, -0.664062500, -0.443359375, -0.117187500, 0.144531250, -0.496093750, -0.597656250, 1.996093750, -1.935546875, -0.488281250, 0.146484375, -0.810546875, -2.302734375, 1.064453125, 0.201171875, -0.912109375, 0.248046875, -1.197265625, -3.628906250, -2.789062500, -0.343750000, -0.988281250, 0.083984375, 0.294921875, -0.164062500, 0.404296875, -2.902343750, 0.406250000, -0.228515625, -0.076171875, -0.019531250, 0.068359375, -1.652343750, 0.152343750, -0.015625000, -0.210937500, -0.482421875, -0.232421875, -0.070312500, -0.187500000, 0.007812500, 0.359375000, 1.449218750, -2.021484375, -0.169921875, -0.156250000, -0.009765625, -0.365234375, -0.251953125, -0.126953125, -0.597656250, 0.107421875, 0.892578125, -1.931640625, -0.869140625, 1.298828125, -1.023437500, -0.867187500, -0.042968750, 0.886718750, -0.621093750, 1.207031250, -0.457031250, 1.167968750, 0.376953125, -0.212890625, -1.376953125, -0.376953125, 0.414062500, 0.503906250, -1.882812500, 0.886718750, 0.535156250, -0.892578125, 0.988281250, 0.789062500, 0.603515625, 0.431640625, -0.632812500, -0.076171875, -0.109375000, -0.324218750, -2.990234375, -3.685546875, -0.914062500, 0.267578125, -0.312500000, 0.613281250, -0.201171875, -0.828125000, -2.808593750, 0.492187500, 0.335937500, 0.083984375, 0.574218750, 0.300781250, -2.033203125, 0.785156250, -0.238281250, 0.570312500, 0.732421875, 0.638671875, 1.296875000, -2.550781250, 1.015625000, 0.753906250, -0.308593750, -2.185546875, -0.589843750, 0.207031250, 0.099609375, -1.498046875, 0.298828125, 0.361328125, -0.138671875, 1.605468750, 1.166015625, 0.349609375, -0.937500000, -2.398437500, -1.595703125, -0.357421875, -0.285156250, 2.296875000, 2.494140625, 0.988281250, 0.162109375, 0.185546875, 0.449218750, 0.417968750, 0.705078125, -0.939453125, 0.541015625, 0.068359375, -1.119140625, 1.158203125, 0.138671875, -0.132812500, -0.392578125, 0.556640625, -0.673828125, 2.064453125, -0.343750000, 1.287109375, 0.326171875, 1.232421875, -1.851562500, -1.492187500, -1.359375000, 0.613281250, -0.550781250, 0.091796875, -0.089843750, 0.242187500, -4.843750000, 0.128906250, 0.001953125, 0.246093750, -1.402343750, 0.451171875, -0.171875000, -3.746093750, -0.876953125, -0.003906250, -1.958984375, 0.248046875, 0.509765625, -1.564453125, 0.025390625, 1.589843750, 1.671875000, -0.632812500, -0.066406250, -0.191406250, 0.693359375, -2.617187500, -0.080078125, -0.027343750, -1.333984375, 4.078125000, 2.757812500, -1.304687500, 0.005859375, 1.937500000, -0.066406250, -0.535156250, -0.150390625, 2.339843750, 2.414062500, 1.212890625, -0.501953125, 0.074218750, -0.183593750, -0.132812500, 0.777343750, -1.164062500, 0.435546875, 0.601562500, -0.720703125, 1.662109375, -0.775390625, 1.162109375, 0.416015625, 0.205078125, 0.402343750, 0.617187500, 0.337890625, 3.324218750, 0.613281250, 2.373046875, -0.843750000, -3.636718750, 0.060546875, -1.498046875, 0.302734375, -0.224609375, 0.113281250, 0.156250000, -4.535156250, -0.949218750, 0.343750000, -0.169921875, 0.750000000, 0.337890625, 0.371093750, -3.607421875, 0.154296875, -0.283203125, -1.800781250, -0.056640625, 1.812500000, -1.617187500, 0.800781250, 1.841796875, 1.484375000, -0.363281250, 0.287109375, -1.970703125, -0.576171875, -0.562500000, 0.369140625, 0.394531250, -1.843750000, 1.396484375, 1.728515625, -2.339843750, 0.458984375, -0.923828125, 0.388671875, -0.138671875, 0.271484375, -2.527343750, 0.574218750, 0.140625000, 0.458984375, 0.808593750, 0.464843750, 1.234375000, 1.757812500, 0.306640625, -0.177734375, 0.001953125, -1.789062500, 0.769531250, -0.447265625, -0.246093750, -1.097656250, 1.386718750, 0.378906250, 0.677734375, 1.162109375, 2.130859375, 0.867187500, -2.527343750, 0.648437500, -1.082031250, 0.787109375, -0.423828125, 0.068359375, 1.019531250, 2.173828125, -0.794921875, -0.648437500, 0.396484375, -0.607421875, 1.001953125, 0.876953125, 0.994140625, 0.035156250, -0.615234375, -0.154296875, 0.490234375, -0.730468750, 0.416015625, 1.919921875, -1.341796875, -0.078125000, -2.210937500, -1.183593750, 0.330078125, 0.248046875, 0.835937500, 0.820312500, -0.587890625, -0.722656250, 0.332031250, -3.939453125, -0.316406250, -2.828125000, -2.402343750, -0.125000000, 0.654296875, -0.751953125, 0.820312500, -0.482421875, 0.042968750, 0.205078125, -0.093750000, 0.009765625, 0.265625000, 0.083984375, 0.037109375, 0.031250000, 0.031250000, 0.041015625, -0.037109375, -0.109375000, 0.181640625, -0.091796875, 0.144531250, -0.167968750, -0.027343750, 0.076171875, -0.113281250, -0.154296875, -0.011718750, 0.097656250, -0.066406250, -0.195312500, 0.076171875, -0.171875000, -0.068359375, 0.251953125, -0.099609375, 0.224609375, 0.107421875, -0.039062500, -0.123046875, 0.103515625, -0.197265625, -0.029296875, 0.056640625, -0.105468750, 0.140625000, -0.212890625, 0.062500000, 0.031250000, -0.044921875, -0.128906250, 0.222656250, 0.001953125, 0.025390625, -0.001953125, -0.011718750, 0.011718750, 0.171875000, 0.144531250, 0.041015625, 0.212890625, -0.023437500, -0.109375000, -0.130859375, -0.046875000, -0.039062500, -0.214843750, 0.054687500, -0.025390625, -0.226562500, -0.212890625, 0.062500000, -0.289062500, 0.080078125, -0.156250000, 0.220703125, 0.298828125, 0.105468750, -0.320312500, -0.210937500, 0.203125000, 0.123046875, 0.068359375, -0.148437500, -0.167968750, 0.158203125, -0.099609375, 0.019531250, -0.236328125, 0.251953125, 0.056640625, 0.050781250, -0.228515625, -0.134765625, 0.076171875, 0.138671875, -0.003906250, -0.185546875, 0.005859375, 0.085937500, -0.300781250, -0.126953125, 0.125000000, -0.298828125, 0.076171875, -0.035156250, -0.031250000, 0.009765625, 0.138671875, 0.083984375, 0.105468750, -0.027343750, -0.126953125, 0.156250000, 0.035156250, 0.068359375, -0.021484375, -0.146484375, -0.025390625, -0.269531250, -0.154296875, -0.019531250, 0.103515625, 0.212890625, 0.085937500, 0.000000000, -0.121093750, 0.062500000, 0.037109375, 0.068359375, -0.117187500, 0.062500000, -0.234375000, 0.128906250, 0.064453125, -0.025390625, -0.177734375, 0.078125000, 0.103515625, 0.089843750, -0.054687500, -0.039062500, -0.078125000, -0.009765625, 0.042968750, 0.099609375, 0.130859375, 0.041015625, 0.158203125, 0.027343750, -0.074218750, 0.156250000, 0.109375000, -0.078125000, 0.271484375, 0.146484375, -0.074218750, -0.019531250, -0.285156250, 0.083984375, 0.234375000, 0.119140625, -0.140625000, -0.087890625, -0.003906250, -0.015625000, 0.201171875, 0.203125000, 0.263671875, -0.099609375, 0.113281250, 0.001953125, 0.125000000, -0.113281250, -0.142578125, 0.162109375, -0.156250000, 0.158203125, -0.302734375, -0.060546875, -0.070312500, -0.251953125, -0.093750000, 0.078125000, 0.089843750, 0.214843750, -0.041015625, 0.042968750, 0.066406250, 0.169921875, 0.097656250, 0.160156250, 0.062500000, -0.017578125, -0.009765625, 0.087890625, 0.074218750, -0.185546875, 0.076171875, 2.195312500, -2.111328125, 2.277343750, -0.060546875, 0.201171875, 2.148437500, -0.402343750, 1.203125000, 0.117187500, -0.021484375, -1.294921875, -0.322265625, 1.103515625, -0.556640625, -0.105468750, 1.783203125, 0.078125000, -1.699218750, 0.373046875, 0.058593750, -1.382812500, 0.941406250, 2.093750000, 0.623046875, -0.398437500, -0.400390625, -0.302734375, -0.707031250, 0.410156250, 0.693359375, 1.150390625, 0.353515625, -0.224609375, 0.558593750, 0.335937500, 0.994140625, 0.232421875, 0.589843750, -0.470703125, 2.416015625, 1.189453125, 0.740234375, -0.246093750, 0.050781250, -1.298828125, 1.482421875, 0.158203125, 0.685546875, -1.314453125, 0.019531250, -0.482421875, -1.074218750, 0.236328125, -0.105468750, 0.654296875, -3.667968750, -1.996093750, 2.498046875, -2.748046875, -0.441406250, -0.652343750, -0.144531250, -1.304687500, 0.900390625, 3.251953125, -0.599609375, 2.576171875, -0.384765625, 0.291015625, 0.898437500, 0.886718750, -4.414062500, 1.751953125, 0.986328125, -0.222656250, 0.718750000, -1.919921875, -2.677734375, 0.244140625, 1.212890625, 0.634765625, 0.630859375, 0.648437500, -0.353515625, 0.255859375, 1.492187500, 0.314453125, 0.279296875, -1.191406250, -1.400390625, 0.187500000, 0.578125000, -0.037109375, -0.619140625, 2.710937500, -2.570312500, 0.046875000, 0.771484375, 0.265625000, 0.144531250, 3.687500000, -1.892578125, 1.679687500, -1.470703125, -0.335937500, 1.996093750, 0.845703125, 0.384765625, 0.679687500, 0.519531250, -0.011718750, 1.449218750, -2.576171875, -0.125000000, -0.039062500, 0.820312500, 0.322265625, 0.830078125, -0.236328125, -2.480468750, -2.515625000, 2.513671875, -0.996093750, -0.289062500, -3.177734375, 0.257812500, -0.759765625, -0.921875000, 2.527343750, -0.091796875, 0.835937500, -0.095703125, 0.611328125, 1.080078125, 0.945312500, -3.429687500, -4.419921875, 0.402343750, -0.986328125, -0.271484375, -0.320312500, -2.564453125, -0.591796875, -0.296875000, 0.953125000, 0.935546875, 0.679687500, 0.697265625, 1.093750000, 0.587890625, 0.802734375, 1.656250000, -4.015625000, -2.400390625, -0.453125000, 0.529296875, 0.919921875, 0.835937500, -0.349609375, -4.376953125, -0.183593750, 0.105468750, 0.898437500, -0.408203125, 0.050781250, -0.599609375, -0.650390625, -0.251953125, 1.796875000, -1.750000000, -1.068359375, 0.644531250, -0.806640625, 0.208984375, 1.175781250, 0.677734375, -0.798828125, -0.134765625, -0.400390625, 1.761718750, 0.298828125, -1.015625000, 1.017578125, 0.564453125, 0.605468750, 1.810546875, -5.021484375, -0.048828125, 0.062500000, -0.570312500, -0.185546875, -0.224609375, -0.314453125, 1.128906250, 1.070312500, -0.220703125, -1.687500000, 1.228515625, -0.242187500, -4.390625000, -3.210937500, -0.148437500, 0.896484375, 0.339843750, 2.304687500, -0.085937500, -0.804687500, 0.451171875, 1.765625000, 0.564453125, -0.291015625, 0.396484375, -1.152343750, 1.990234375, 2.666015625, 0.640625000, -2.458984375, 0.791015625, -0.199218750, 0.722656250, 1.023437500, -0.257812500, 0.080078125, -4.429687500, 0.476562500, 0.599609375, 0.429687500, 0.138671875, -0.134765625, 0.414062500, 1.041015625, 0.826171875, -0.148437500, -2.162109375, -1.697265625, 0.855468750, -0.587890625, 1.486328125, -0.300781250, 0.376953125, -0.435546875, 0.595703125, -0.392578125, 4.431640625, -1.509765625, -1.144531250, 1.091796875, -1.177734375, -1.283203125, 2.431640625, -3.556640625, -0.707031250, -2.431640625, 0.332031250, -0.097656250, 0.617187500, 1.414062500, 1.871093750, 1.583984375, 0.103515625, -1.232421875, 0.232421875, 1.091796875, -0.917968750, -0.246093750, 0.349609375, -0.029296875, -0.851562500, 1.605468750, -1.433593750, -0.265625000, 2.503906250, 1.923828125, -0.009765625, 2.894531250, 0.236328125, 3.246093750, 1.496093750, 1.720703125, 1.636718750, -2.556640625, -1.843750000, 0.263671875, -0.175781250, 0.337890625, 1.757812500, 0.744140625, -4.103515625, 0.628906250, 0.355468750, 0.544921875, 0.128906250, -1.996093750, -0.056640625, 0.771484375, -0.513671875, 0.380859375, -2.550781250, -0.285156250, 0.599609375, -1.707031250, 0.947265625, 1.164062500, -0.033203125, -0.570312500, 0.183593750, 0.585937500, 1.148437500, -3.621093750, -0.033203125, 0.498046875, -0.404296875, -0.810546875, 3.250000000, -2.910156250, -0.054687500, -2.777343750, 0.462890625, -0.013671875, 1.636718750, 2.851562500, 1.400390625, 1.761718750, 0.373046875, 1.326171875, 1.203125000, 0.097656250, 0.671875000, -1.000000000, 0.365234375, 0.617187500, -1.224609375, 0.589843750, -2.410156250, 0.027343750, -0.064453125, 2.357421875, 0.130859375, -0.312500000, -0.337890625, 1.656250000, 0.654296875, 0.871093750, 0.976562500, -2.658203125, -2.193359375, 0.308593750, -0.021484375, -0.500000000, 0.128906250, 1.013671875, -2.167968750, -0.027343750, -0.349609375, 0.300781250, 0.263671875, 0.228515625, 0.099609375, -3.402343750, 1.166015625, 1.351562500, 0.900390625, -2.238281250, 0.425781250, 0.101562500, 1.488281250, 2.138671875, 0.240234375, -1.712890625, -0.460937500, -0.765625000, -1.449218750, -1.009765625, 0.226562500, -0.578125000, 1.148437500, 2.060546875, -2.076171875, 1.966796875, -0.072265625, 0.566406250, 0.357421875, -0.302734375, 1.664062500, 0.019531250, -0.037109375, 0.080078125, 0.201171875, 0.242187500, -0.082031250, -0.078125000, -0.023437500, -0.044921875, -0.193359375, 0.068359375, 0.037109375, 0.035156250, 0.121093750, -0.117187500, 0.171875000, 0.179687500, -0.068359375, -0.078125000, -0.066406250, -0.035156250, -0.017578125, -0.205078125, 0.050781250, -0.156250000, -0.064453125, 0.150390625, -0.306640625, 0.023437500, -0.007812500, 0.007812500, 0.119140625, -0.060546875, 0.185546875, -0.060546875, 0.164062500, 0.152343750, -0.126953125, -0.037109375, -0.111328125, 0.031250000, 0.191406250, -0.064453125, -0.060546875, -0.142578125, 0.296875000, 0.142578125, -0.050781250, -0.029296875, 0.072265625, 0.162109375, -0.089843750, 0.007812500, -0.101562500, 0.019531250, -0.013671875, 0.103515625, -0.035156250, -0.132812500, 0.193359375, 0.130859375, -0.091796875, -0.050781250, -0.017578125, -0.023437500, 0.253906250, -0.171875000, -0.093750000, -0.015625000, -0.044921875, 0.074218750, 0.011718750, -0.125000000, -0.039062500, -0.083984375, -0.142578125, 0.212890625, 0.046875000, -0.179687500, 0.207031250, -0.070312500, 0.281250000, 0.113281250, -0.289062500, 0.048828125, 0.091796875, 0.062500000, -0.187500000, 0.183593750, -0.048828125, 0.189453125, -0.091796875, -0.177734375, -0.027343750, -0.082031250, -0.150390625, 0.208984375, 0.097656250, -0.076171875, 0.058593750, -0.064453125, -0.029296875, 0.166015625, 0.158203125, 0.134765625, -0.003906250, 0.103515625, -0.166015625, 0.087890625, -0.087890625, 0.025390625, -0.103515625, 0.181640625, -0.128906250, 0.087890625, -0.025390625, -0.052734375, 0.027343750, -0.119140625, -0.171875000, 0.037109375, 0.007812500, -0.082031250, 0.226562500, 0.064453125, 0.101562500, -0.125000000, -0.031250000};

#endif

#endif
