//Numpy array shape [196, 20]
//Min -11.929687500000
//Max 6.214843750000
//Number of zeros 6

#ifndef W10_H_
#define W10_H_

#ifndef __SYNTHESIS__
weight10_t w10[3920];
#else
weight10_t w10[3920] = {2.095703125, 1.826171875, 3.296875000, -0.833984375, -0.644531250, 1.890625000, -1.777343750, -0.847656250, -1.021484375, 0.109375000, 1.298828125, -2.617187500, 1.839843750, -0.701171875, -2.421875000, 1.523437500, -0.167968750, 2.005859375, -0.068359375, -2.777343750, 1.009765625, 1.236328125, 1.980468750, -0.636718750, -0.437500000, 2.738281250, -0.388671875, -0.562500000, 1.828125000, -0.357421875, 2.470703125, -5.576171875, 1.300781250, -0.365234375, -0.693359375, 1.298828125, -0.115234375, 0.984375000, 0.425781250, -5.283203125, -0.072265625, 0.236328125, 1.917968750, -0.162109375, -0.837890625, 2.269531250, 0.990234375, -0.382812500, 1.404296875, -0.417968750, 2.945312500, -5.091796875, 0.541015625, -0.925781250, -0.767578125, 1.318359375, 0.236328125, 0.191406250, 0.857421875, -6.402343750, -0.384765625, 0.294921875, 2.341796875, -0.007812500, 0.154296875, 1.931640625, 0.839843750, -0.326171875, 0.312500000, 0.142578125, 1.472656250, -3.996093750, 0.732421875, -1.224609375, -2.175781250, -0.845703125, 0.087890625, 0.460937500, -1.781250000, -4.404296875, 0.582031250, 1.355468750, 1.931640625, -1.058593750, 0.416015625, 2.066406250, 0.011718750, -0.320312500, 0.404296875, 0.232421875, 1.021484375, -3.402343750, 0.904296875, -1.335937500, -0.580078125, 0.947265625, -1.816406250, -0.193359375, -2.519531250, -4.298828125, 0.269531250, 1.289062500, 1.796875000, -0.644531250, 0.121093750, 1.769531250, 0.718750000, -0.376953125, 1.646484375, -0.396484375, -1.630859375, -4.544921875, 0.677734375, -1.015625000, -0.333984375, 1.490234375, -0.574218750, 2.353515625, 0.570312500, -3.666015625, 0.082031250, 0.990234375, 1.900390625, -1.601562500, -1.861328125, 1.740234375, -0.130859375, -0.677734375, 1.603515625, -4.345703125, -0.343750000, -2.414062500, 1.048828125, -0.957031250, -0.816406250, 0.960937500, -1.187500000, 1.972656250, 0.109375000, -4.384765625, -0.308593750, 0.859375000, 1.656250000, -0.654296875, -1.376953125, 2.164062500, -0.373046875, -0.421875000, 2.230468750, -3.345703125, 1.582031250, -4.990234375, 0.457031250, -0.796875000, -0.611328125, 0.763671875, -0.787109375, 1.046875000, -1.007812500, -2.105468750, -0.121093750, 0.603515625, 1.960937500, -0.179687500, 0.001953125, 2.138671875, -0.267578125, -0.302734375, 2.179687500, -7.412109375, 1.697265625, -3.687500000, 1.179687500, -0.945312500, -1.421875000, 0.722656250, -1.082031250, 1.308593750, -2.867187500, -0.660156250, 0.021484375, 1.441406250, 1.839843750, -0.457031250, 0.142578125, 1.431640625, -0.291015625, -0.544921875, 0.767578125, -4.341796875, 1.019531250, -4.740234375, 1.039062500, -0.750000000, -1.007812500, 0.650390625, -0.626953125, -0.011718750, -2.078125000, 0.039062500, -0.246093750, 1.058593750, 2.015625000, -0.587890625, 0.664062500, 2.281250000, -0.417968750, -0.333984375, 1.796875000, -5.478515625, 1.197265625, -5.443359375, 0.957031250, -0.699218750, -0.669921875, 1.761718750, -0.882812500, -0.160156250, 0.033203125, -0.009765625, 0.574218750, 1.257812500, 2.419921875, -0.636718750, -1.970703125, 2.511718750, -0.046875000, -0.630859375, 0.466796875, -2.423828125, 2.552734375, -5.427734375, 1.134765625, -0.636718750, -1.410156250, 1.195312500, 0.251953125, 0.378906250, 0.699218750, -0.021484375, 0.949218750, 1.521484375, 2.259765625, -1.572265625, -0.568359375, 2.150390625, -0.488281250, 0.376953125, 1.335937500, -1.697265625, 2.580078125, -6.214843750, 1.882812500, -1.125000000, -1.085937500, 0.992187500, -0.623046875, 0.949218750, -2.478515625, -0.400390625, -1.292968750, 0.847656250, 3.056640625, -0.556640625, 2.070312500, 2.117187500, -0.494140625, 0.736328125, 0.488281250, -5.958984375, 1.759765625, -6.455078125, 1.556640625, -0.919921875, -2.126953125, 2.425781250, -0.939453125, -0.298828125, -1.132812500, 0.457031250, 1.791015625, 1.013671875, 2.279296875, -0.152343750, 0.556640625, 0.878906250, 0.505859375, -0.625000000, 1.019531250, -0.097656250, 2.707031250, -5.007812500, 0.677734375, -0.689453125, -0.175781250, 1.294921875, 0.357421875, 0.423828125, 0.357421875, -7.757812500, -0.802734375, 0.964843750, 2.394531250, -0.412109375, -0.244140625, 2.904296875, 0.814453125, -0.367187500, 2.121093750, 0.353515625, 1.828125000, -2.675781250, 0.445312500, -1.271484375, -0.158203125, 1.166015625, -0.869140625, 0.160156250, 0.537109375, -7.724609375, 0.052734375, 0.498046875, 1.357421875, -0.285156250, 0.388671875, 2.216796875, -0.125000000, -0.001953125, 2.664062500, 0.677734375, 1.898437500, -6.447265625, 0.597656250, -1.060546875, -0.322265625, 1.396484375, -0.654296875, -0.828125000, 0.191406250, -2.861328125, -0.435546875, 0.722656250, 1.648437500, 0.376953125, 0.699218750, 1.953125000, -0.345703125, 0.281250000, 2.080078125, 0.136718750, 1.603515625, -2.066406250, 0.386718750, -0.843750000, -0.335937500, 0.513671875, -0.876953125, 0.611328125, -0.980468750, -6.306640625, 0.056640625, 0.539062500, 1.296875000, -0.197265625, 0.099609375, 1.470703125, -0.458984375, -0.193359375, 1.220703125, -0.181640625, -0.634765625, -2.486328125, 0.371093750, -0.769531250, -0.642578125, 0.244140625, -1.474609375, 0.609375000, -0.019531250, -3.511718750, -0.085937500, 0.566406250, 1.320312500, -0.787109375, -0.042968750, 1.509765625, -0.365234375, -0.251953125, 1.757812500, -0.837890625, -0.867187500, -1.982421875, 0.699218750, -0.646484375, -0.394531250, 0.246093750, -1.390625000, 1.441406250, 0.015625000, -2.796875000, -0.039062500, 0.177734375, 1.253906250, -0.945312500, -0.148437500, 1.554687500, 0.265625000, -0.082031250, 1.671875000, -1.970703125, 0.035156250, -1.847656250, 0.917968750, -0.636718750, -0.373046875, 0.455078125, -1.191406250, 2.146484375, 0.912109375, -1.507812500, -0.296875000, 0.402343750, 1.332031250, -0.546875000, -0.132812500, 1.500000000, -0.511718750, -0.115234375, 1.500000000, -1.863281250, 0.992187500, -2.726562500, 0.486328125, -0.673828125, -0.281250000, 0.478515625, -1.371093750, 0.865234375, -0.181640625, -0.628906250, -0.181640625, 0.443359375, 1.033203125, -0.767578125, -0.218750000, 1.587890625, -0.199218750, -0.181640625, 1.875000000, 0.152343750, 0.960937500, -3.894531250, 0.412109375, -0.605468750, -0.267578125, -0.099609375, -0.361328125, -0.025390625, 0.617187500, 0.316406250, 0.750000000, 0.623046875, 1.417968750, -0.216796875, 0.031250000, 1.806640625, -0.351562500, -0.154296875, 1.769531250, -4.429687500, 1.773437500, -4.439453125, 0.779296875, -0.630859375, -0.269531250, 0.208984375, -0.371093750, 0.287109375, 0.603515625, 0.701171875, 0.324218750, 0.003906250, 1.421875000, -0.179687500, 0.058593750, 1.810546875, 0.402343750, -0.263671875, 2.111328125, -5.054687500, 1.779296875, -3.367187500, 0.277343750, -0.894531250, -0.464843750, 0.027343750, -0.474609375, 0.628906250, -0.169921875, -0.484375000, -0.664062500, 0.611328125, 1.619140625, 0.259765625, -0.683593750, 2.072265625, -0.363281250, -0.253906250, 1.984375000, -4.785156250, 1.404296875, -6.503906250, 0.464843750, -0.904296875, -0.667968750, 0.501953125, -0.587890625, -0.375000000, -0.181640625, -0.037109375, -0.085937500, 0.859375000, 1.541015625, 1.062500000, -1.498046875, 2.787109375, -0.164062500, -0.322265625, 2.943359375, -4.578125000, 1.779296875, -6.074218750, 0.361328125, -1.011718750, 0.136718750, 0.978515625, 0.371093750, 1.375000000, 0.351562500, 0.535156250, -1.101562500, 0.906250000, 1.117187500, -0.552734375, 0.488281250, 2.029296875, -0.830078125, -0.250000000, 0.771484375, -5.972656250, 2.175781250, -4.091796875, 1.742187500, -0.171875000, -2.781250000, 1.058593750, 0.197265625, -0.705078125, -4.443359375, 0.082031250, 0.306640625, 1.265625000, 2.207031250, -0.097656250, 0.248046875, 2.542968750, -0.558593750, -0.343750000, 2.046875000, 0.576171875, 2.376953125, -7.134765625, 2.072265625, -1.250000000, -0.818359375, 1.382812500, -0.460937500, -0.169921875, -0.912109375, -4.210937500, -0.472656250, 0.863281250, 2.115234375, -0.482421875, 0.603515625, 1.894531250, -0.578125000, -0.128906250, 0.302734375, 1.388671875, 0.134765625, -2.199218750, 1.166015625, -0.271484375, -0.732421875, 0.421875000, -0.363281250, 0.648437500, 1.634765625, -10.349609375, -0.250000000, 1.287109375, 1.458984375, -0.173828125, 0.287109375, 1.787109375, -0.425781250, -0.349609375, 2.228515625, 0.591796875, 1.937500000, -3.962890625, 0.861328125, -0.265625000, -0.332031250, -0.404296875, 0.382812500, 0.392578125, -1.224609375, -6.220703125, -0.044921875, 0.550781250, 1.207031250, -1.070312500, -0.353515625, 1.591796875, -0.062500000, -0.212890625, 1.669921875, 0.449218750, 1.369140625, -2.818359375, 0.695312500, -0.619140625, -0.537109375, 0.677734375, -0.226562500, 0.261718750, 0.683593750, -5.474609375, -0.412109375, 0.763671875, 1.099609375, -0.363281250, 0.337890625, 1.349609375, 0.119140625, -0.300781250, 1.585937500, 0.687500000, 0.966796875, -0.314453125, 0.728515625, -0.572265625, -0.250000000, 0.109375000, -0.177734375, 0.193359375, -0.062500000, -4.675781250, -0.253906250, 0.191406250, 0.835937500, -0.458984375, 0.544921875, 1.164062500, -0.222656250, 0.388671875, 1.359375000, 0.029296875, -0.289062500, 0.005859375, 0.546875000, -0.539062500, -0.583984375, 0.484375000, -1.000000000, 1.154296875, -0.050781250, -1.859375000, 0.425781250, 0.525390625, 0.828125000, -0.242187500, -0.085937500, 1.078125000, -0.253906250, -0.355468750, 1.248046875, -1.509765625, -0.619140625, 0.060546875, 0.478515625, -0.566406250, -0.298828125, 0.203125000, -0.998046875, 1.492187500, -0.498046875, -1.689453125, 0.279296875, 0.017578125, 0.810546875, -0.419921875, 0.683593750, 1.082031250, -1.183593750, 0.195312500, 1.277343750, -2.386718750, 0.726562500, 0.226562500, 0.480468750, -0.583984375, -0.183593750, -0.119140625, -1.417968750, 0.537109375, -0.742187500, -1.314453125, -0.208984375, -0.359375000, 0.818359375, -0.294921875, 0.349609375, 1.212890625, -0.769531250, 0.240234375, 1.322265625, -3.656250000, 1.027343750, -0.158203125, 0.697265625, -0.533203125, -0.607421875, 0.332031250, -0.769531250, 0.259765625, 0.396484375, 0.347656250, 0.382812500, 0.609375000, 1.119140625, -0.029296875, -0.041015625, 1.248046875, -0.289062500, -0.144531250, 1.462890625, -3.074218750, 1.019531250, -1.669921875, 0.517578125, -0.666015625, -0.443359375, 0.251953125, -0.291015625, 0.078125000, 0.531250000, 0.708984375, -0.115234375, 0.699218750, 0.912109375, -0.207031250, 0.300781250, 1.568359375, -0.103515625, 0.007812500, 1.923828125, -2.794921875, 0.039062500, -3.050781250, 0.617187500, -0.730468750, -0.302734375, 0.498046875, -0.558593750, 0.623046875, 0.408203125, 0.558593750, 0.294921875, 0.751953125, 1.246093750, 0.169921875, 0.544921875, 1.765625000, 0.222656250, -0.033203125, 1.939453125, -2.373046875, 1.482421875, -2.304687500, 0.800781250, -0.687500000, -0.730468750, 0.240234375, 0.132812500, -0.152343750, 0.558593750, 1.054687500, 0.544921875, 0.214843750, 1.894531250, -0.007812500, 1.539062500, 2.308593750, -0.777343750, -0.039062500, 2.570312500, -1.330078125, 2.201171875, -3.765625000, 1.632812500, -0.845703125, -0.876953125, -0.726562500, -0.734375000, 0.583984375, -0.707031250, 0.814453125, 0.289062500, 0.320312500, 2.103515625, -0.691406250, -0.462890625, 2.013671875, 0.101562500, -0.767578125, 0.902343750, -7.261718750, 2.589843750, -8.201171875, 1.314453125, -1.046875000, -2.150390625, -0.142578125, -0.353515625, -0.632812500, -3.871093750, -0.335937500, -0.191406250, 1.949218750, 1.728515625, -0.238281250, -0.179687500, 1.453125000, 0.253906250, -0.755859375, 0.873046875, 0.832031250, -0.007812500, -8.691406250, 0.550781250, -0.617187500, -1.603515625, 1.576171875, 0.115234375, 0.529296875, 0.449218750, -3.136718750, 0.042968750, 1.179687500, 1.714843750, -0.109375000, 0.742187500, 1.787109375, -0.068359375, -0.642578125, 1.970703125, 0.466796875, -0.195312500, -7.732421875, 1.119140625, -0.972656250, -0.544921875, 0.308593750, -1.097656250, 0.964843750, -0.935546875, -4.898437500, 0.257812500, 0.863281250, 1.087890625, -0.273437500, 0.330078125, 1.607421875, 0.105468750, -0.099609375, 1.738281250, 0.992187500, 1.937500000, -3.199218750, 0.833984375, -0.886718750, -0.425781250, 0.812500000, -0.351562500, -0.322265625, -0.531250000, -3.833984375, 0.000000000, 0.714843750, 0.878906250, -0.388671875, 0.365234375, 1.236328125, -0.136718750, -0.267578125, 1.496093750, 0.509765625, -0.054687500, -1.003906250, 0.648437500, -0.505859375, -0.248046875, 0.187500000, -0.691406250, 0.509765625, 0.095703125, -2.980468750, 0.441406250, 0.167968750, 0.789062500, -0.298828125, 0.443359375, 0.986328125, 0.082031250, -0.074218750, 1.130859375, -0.046875000, 0.755859375, 0.265625000, 0.296875000, -0.566406250, -0.353515625, 0.226562500, -0.705078125, 0.232421875, -0.097656250, -2.951171875, 0.140625000, 0.384765625, 0.662109375, -0.359375000, 0.429687500, 0.822265625, 0.142578125, -0.183593750, 0.953125000, -0.167968750, -0.316406250, 0.167968750, 0.300781250, -0.527343750, -0.146484375, 0.214843750, -0.705078125, 0.384765625, -0.023437500, -1.957031250, -0.099609375, 0.050781250, 0.519531250, -0.400390625, 0.662109375, 0.775390625, 0.099609375, 0.031250000, 0.871093750, -0.208984375, 0.152343750, 0.501953125, 0.130859375, -0.572265625, -0.310546875, 0.027343750, -0.679687500, -0.847656250, -0.626953125, -0.126953125, 0.263671875, 0.378906250, 0.599609375, -0.726562500, 0.265625000, 0.789062500, -0.275390625, -0.064453125, 0.828125000, -1.353515625, 0.289062500, 0.361328125, 0.160156250, -0.458984375, -0.248046875, 0.263671875, -0.640625000, 0.148437500, -0.201171875, -0.386718750, -0.039062500, 0.218750000, 0.648437500, -0.347656250, 0.097656250, 0.839843750, -0.308593750, 0.078125000, 0.957031250, -2.423828125, 0.191406250, 0.246093750, 0.265625000, -0.529296875, 0.009765625, 0.460937500, -0.693359375, 0.384765625, 0.449218750, -0.115234375, 0.330078125, 0.703125000, 0.818359375, -0.335937500, 0.285156250, 1.042968750, -0.480468750, -0.095703125, 1.072265625, -3.394531250, 0.048828125, -0.371093750, 0.339843750, -0.515625000, -0.421875000, 0.271484375, -0.775390625, -0.277343750, 0.468750000, 0.644531250, -0.048828125, 1.138671875, 1.000000000, -0.251953125, 0.091796875, 1.201171875, -0.054687500, -0.183593750, 1.384765625, -2.542968750, -0.162109375, -2.808593750, 0.476562500, -0.572265625, -0.314453125, 0.437500000, -0.296875000, -0.203125000, 0.523437500, 0.945312500, 0.039062500, 1.068359375, 1.048828125, 0.125000000, 0.257812500, 1.474609375, -0.767578125, -0.220703125, 1.728515625, -5.404296875, 0.490234375, -2.667968750, 0.408203125, -0.650390625, -0.519531250, 0.423828125, -0.482421875, -0.177734375, 0.042968750, 0.740234375, 0.234375000, 1.583984375, 1.746093750, -1.632812500, -0.923828125, 1.964843750, -0.833984375, 0.236328125, 1.917968750, -7.062500000, 2.080078125, -6.226562500, 0.562500000, -0.789062500, -0.515625000, 1.121093750, -0.236328125, -0.199218750, 0.503906250, 0.972656250, -0.011718750, 1.164062500, 2.107421875, -0.310546875, -0.531250000, 1.978515625, -0.171875000, -0.257812500, 1.482421875, -7.757812500, 2.562500000, -8.390625000, 1.103515625, -0.968750000, -1.896484375, -0.111328125, 0.292968750, -0.423828125, -3.177734375, 0.759765625, 0.058593750, 1.189453125, 1.970703125, -0.380859375, -0.050781250, 1.564453125, -0.177734375, -0.652343750, -0.033203125, 1.281250000, 1.757812500, -5.433593750, 1.105468750, -0.746093750, -1.517578125, 0.738281250, 0.533203125, -0.488281250, -0.035156250, -4.906250000, -0.173828125, 1.458984375, 1.507812500, -0.500000000, 0.712890625, 1.640625000, -0.119140625, -0.167968750, 1.613281250, 0.880859375, -0.070312500, -2.560546875, 0.546875000, -0.759765625, -0.652343750, 0.361328125, -0.849609375, 0.281250000, -1.156250000, -10.205078125, -0.166015625, 0.626953125, 1.078125000, -0.660156250, 0.667968750, 1.308593750, 0.060546875, 0.015625000, 1.505859375, 0.437500000, 0.054687500, -1.798828125, 0.697265625, -0.447265625, -0.435546875, 0.351562500, -0.562500000, 0.861328125, 0.298828125, -5.482421875, 0.048828125, 0.376953125, 0.798828125, -0.158203125, 0.400390625, 0.992187500, -0.841796875, -0.130859375, 1.130859375, 0.283203125, 0.320312500, -0.072265625, 0.296875000, -0.474609375, -0.337890625, 0.257812500, -0.882812500, -0.134765625, -0.072265625, -3.970703125, 0.431640625, 0.464843750, 0.601562500, -0.138671875, 0.167968750, 0.753906250, -0.593750000, -0.097656250, 0.855468750, 0.121093750, 0.417968750, 0.132812500, 0.216796875, -0.509765625, -0.232421875, 0.365234375, -0.748046875, 0.148437500, -0.074218750, -2.154296875, -0.015625000, 0.169921875, 0.488281250, -0.349609375, 0.033203125, 0.576171875, -0.253906250, 0.056640625, 0.656250000, -0.087890625, 0.119140625, 0.169921875, 0.240234375, -0.345703125, -0.302734375, 0.195312500, -0.484375000, 0.306640625, -0.023437500, -0.892578125, -0.087890625, 0.005859375, 0.419921875, -0.046875000, 0.281250000, 0.476562500, -0.181640625, 0.095703125, 0.554687500, -0.023437500, 0.146484375, 0.203125000, 0.132812500, -0.355468750, -0.597656250, 0.121093750, -0.437500000, -0.121093750, -0.246093750, -0.109375000, -0.007812500, -0.130859375, 0.386718750, -0.037109375, 0.357421875, 0.484375000, -0.337890625, 0.195312500, 0.548828125, -0.167968750, 0.273437500, 0.177734375, 0.167968750, -0.341796875, -0.605468750, 0.169921875, -0.457031250, 0.150390625, -0.144531250, -0.105468750, 0.005859375, 0.121093750, 0.410156250, -0.291015625, 0.173828125, 0.587890625, -0.376953125, 0.037109375, 0.662109375, -0.423828125, 0.144531250, 0.253906250, 0.212890625, -0.349609375, -0.373046875, 0.203125000, -0.529296875, -0.005859375, -0.048828125, -0.111328125, 0.154296875, 0.226562500, 0.542968750, -0.072265625, 0.693359375, 0.728515625, -0.580078125, 0.250000000, 0.857421875, -2.281250000, 0.080078125, 0.171875000, 0.224609375, -0.505859375, -0.158203125, 0.345703125, -0.755859375, 0.097656250, -0.214843750, 0.119140625, -0.246093750, 0.810546875, 0.822265625, 0.214843750, 0.087890625, 0.996093750, -0.691406250, -0.154296875, 1.101562500, -4.185546875, 0.187500000, -0.392578125, 0.328125000, -0.529296875, -0.250000000, 0.335937500, -0.349609375, 0.462890625, -0.111328125, 0.589843750, 0.236328125, 1.333984375, 0.900390625, 0.197265625, 0.404296875, 1.300781250, 0.072265625, -0.181640625, 1.535156250, -6.142578125, 0.087890625, -2.847656250, 0.636718750, -0.601562500, -0.234375000, 0.615234375, -0.271484375, 0.320312500, 0.173828125, 1.259765625, -0.669921875, 0.224609375, 1.484375000, -0.513671875, 0.994140625, 1.537109375, 0.759765625, -0.468750000, 1.447265625, -5.771484375, 1.146484375, -3.525390625, 0.277343750, -0.464843750, -0.462890625, 0.320312500, -0.421875000, 0.015625000, 0.216796875, -0.193359375, 0.187500000, 0.791015625, 1.623046875, 0.658203125, 1.271484375, 1.701171875, 0.388671875, -0.806640625, 2.011718750, -9.085937500, 0.730468750, -6.683593750, 1.230468750, -0.648437500, -1.560546875, 0.564453125, 0.091796875, 0.964843750, -1.007812500, 0.689453125, 0.470703125, 0.904296875, 1.783203125, -0.617187500, 0.273437500, 1.763671875, 0.156250000, -0.498046875, 0.748046875, 0.414062500, 2.082031250, -6.298828125, 1.115234375, -1.082031250, -0.591796875, 1.570312500, -1.031250000, -0.767578125, -0.232421875, -3.898437500, 0.167968750, 0.830078125, 1.078125000, -0.507812500, 0.050781250, 1.500000000, -0.142578125, -0.546875000, 1.587890625, 0.552734375, 0.839843750, -2.791015625, 0.500000000, -0.812500000, -0.623046875, 0.294921875, -0.732421875, 0.259765625, -0.527343750, -4.167968750, -0.375000000, 0.705078125, 0.990234375, 0.443359375, 1.003906250, 1.238281250, -0.128906250, -0.265625000, 1.316406250, 0.658203125, -0.039062500, -1.091796875, 0.148437500, -0.552734375, 0.076171875, 0.419921875, -0.763671875, -0.253906250, -0.154296875, -2.845703125, 0.001953125, 0.414062500, 0.224609375, 0.410156250, 0.654296875, 0.845703125, -0.341796875, -0.671875000, 0.986328125, 0.275390625, -0.115234375, 0.152343750, 0.214843750, -0.490234375, 0.337890625, 0.144531250, -0.763671875, -0.503906250, -0.091796875, -2.781250000, -0.060546875, -0.021484375, 0.033203125, 0.054687500, 0.080078125, 0.562500000, -0.251953125, -0.085937500, 0.677734375, -0.099609375, 0.128906250, 0.292968750, 0.191406250, -0.513671875, -0.242187500, 0.087890625, -0.654296875, -0.201171875, -0.150390625, -0.714843750, -0.033203125, 0.027343750, -0.277343750, 0.050781250, -0.027343750, 0.402343750, -0.177734375, 0.001953125, 0.439453125, -0.031250000, 0.064453125, 0.203125000, 0.078125000, -0.380859375, -0.501953125, 0.150390625, -0.425781250, -0.236328125, -0.205078125, -0.109375000, -0.107421875, -0.128906250, -0.023437500, 0.169921875, -0.136718750, 0.318359375, -0.193359375, 0.011718750, 0.345703125, -0.041015625, 0.111328125, 0.152343750, 0.054687500, -0.330078125, -0.525390625, 0.035156250, -0.367187500, -0.400390625, -0.197265625, -0.080078125, -0.031250000, -0.263671875, 0.248046875, 0.269531250, 0.091796875, 0.326171875, -0.078125000, 0.013671875, 0.337890625, -0.095703125, 0.152343750, 0.189453125, 0.044921875, -0.328125000, -0.509765625, -0.900390625, -0.312500000, -0.345703125, -0.056640625, -0.041015625, -0.037109375, -0.078125000, 0.318359375, 0.205078125, 0.109375000, 0.417968750, -0.072265625, -0.041015625, 0.443359375, -0.064453125, 0.167968750, 0.208984375, 0.076171875, -0.388671875, -0.552734375, 0.089843750, -0.363281250, -0.333984375, -0.234375000, -0.017578125, -0.080078125, 0.185546875, 0.468750000, 0.005859375, -0.070312500, 0.587890625, -0.625000000, -0.060546875, 0.650390625, -0.511718750, 0.201171875, 0.144531250, 0.152343750, -0.367187500, -0.484375000, 0.126953125, -0.439453125, 0.283203125, -0.162109375, -0.066406250, -0.927734375, 0.697265625, 0.662109375, -0.130859375, 0.345703125, 0.843750000, -0.457031250, 0.119140625, 0.949218750, -2.916015625, -0.896484375, 0.085937500, 0.146484375, -0.560546875, 0.134765625, 0.570312500, -0.794921875, 0.042968750, -0.560546875, 0.207031250, -1.044921875, 1.144531250, 0.964843750, 0.240234375, 1.724609375, 1.148437500, 0.210937500, -0.060546875, 1.273437500, -2.306640625, -0.542968750, -1.216796875, 0.787109375, -0.404296875, 0.544921875, 0.847656250, -0.734375000, 0.722656250, -0.140625000, 0.660156250, -1.283203125, 0.478515625, 1.261718750, -0.392578125, 0.337890625, 1.560546875, 0.017578125, 0.130859375, 1.705078125, -6.341796875, -0.435546875, -3.533203125, 0.783203125, -0.574218750, -0.431640625, 0.847656250, -0.847656250, 0.496093750, 1.099609375, 0.867187500, -0.931640625, 0.716796875, 1.347656250, -0.402343750, 0.634765625, 1.132812500, 1.238281250, -0.333984375, 0.822265625, -8.935546875, 0.652343750, -5.785156250, 0.839843750, -0.685546875, -1.056640625, 1.361328125, 0.519531250, 0.939453125, 0.619140625, 0.523437500, -0.164062500, 1.208984375, 1.535156250, 0.466796875, -0.623046875, 1.173828125, -1.707031250, -1.613281250, -1.117187500, 0.384765625, 0.103515625, -3.978515625, 0.056640625, -0.824218750, 0.117187500, 2.457031250, -2.175781250, -0.685546875, 0.828125000, -6.437500000, -0.902343750, 1.339843750, 0.763671875, -0.058593750, 0.214843750, 1.638671875, -0.242187500, -0.458984375, 1.914062500, 1.158203125, 0.894531250, -2.044921875, 0.207031250, -0.726562500, -0.371093750, 0.937500000, -0.445312500, -0.470703125, -0.642578125, -2.728515625, -0.667968750, 1.017578125, 0.478515625, 0.158203125, 0.615234375, 1.109375000, -0.035156250, -0.666015625, 1.269531250, 0.785156250, 0.246093750, -0.347656250, 0.220703125, -0.517578125, 0.437500000, 0.595703125, -0.593750000, -0.558593750, 0.187500000, -3.287109375, -1.439453125, 0.468750000, -0.101562500, 0.029296875, 0.447265625, 0.769531250, 0.212890625, -1.025390625, 0.869140625, 0.072265625, -0.484375000, 0.208984375, 0.205078125, -0.792968750, 0.244140625, 0.642578125, -0.927734375, -0.365234375, -0.468750000, -2.548828125, -0.988281250, 0.064453125, -0.037109375, 0.078125000, 0.001953125, 0.486328125, -0.210937500, 0.056640625, 0.558593750, 0.015625000, 0.046875000, 0.257812500, 0.117187500, -0.482421875, -0.123046875, 0.279296875, -0.462890625, -0.148437500, -0.257812500, -0.351562500, 0.046875000, 0.142578125, -0.240234375, -0.279296875, -1.427734375, 0.318359375, 0.330078125, -0.109375000, 0.349609375, -0.064453125, 0.091796875, 0.179687500, 0.044921875, -0.339843750, -0.677734375, 0.138671875, -0.023437500, -0.058593750, -0.148437500, -0.042968750, 0.074218750, -0.187500000, -0.072265625, -0.037109375, -0.435546875, 0.222656250, 0.291015625, 0.123046875, 0.216796875, -0.115234375, 0.384765625, 0.089843750, -4.808593750, -0.212890625, -0.005859375, -0.384765625, 0.083984375, -0.191406250, -0.011718750, -0.033203125, 0.054687500, -0.244140625, 0.148437500, -0.142578125, 0.429687500, 0.085937500, 0.466796875, 0.107421875, 0.085937500, 0.074218750, -0.025390625, -0.042968750, -4.535156250, -0.208984375, 0.000000000, -0.943359375, -0.105468750, -0.357421875, 0.023437500, -0.015625000, 0.109375000, -0.126953125, 0.263671875, 0.140625000, 0.091796875, 0.017578125, 0.091796875, -0.419921875, -0.003906250, -0.035156250, -0.529296875, 0.175781250, -4.425781250, -0.347656250, -0.474609375, 0.062500000, -0.308593750, -0.248046875, -0.005859375, -0.041015625, -0.576171875, 0.009765625, 0.457031250, 0.546875000, 0.175781250, 0.277343750, -0.638671875, -0.595703125, 0.232421875, 0.017578125, -0.583984375, 0.142578125, -1.394531250, -0.541015625, -1.158203125, 0.271484375, -0.505859375, -0.269531250, -0.546875000, 0.144531250, -1.628906250, 0.636718750, 0.750000000, -0.359375000, -0.263671875, 0.363281250, 0.044921875, -0.806640625, 0.273437500, -2.337890625, -1.681640625, -0.183593750, 0.417968750, -0.669921875, -0.437500000, 0.708984375, -0.855468750, 0.398437500, -1.015625000, 0.246093750, -0.845703125, 1.222656250, 1.023437500, 0.933593750, 0.951171875, 0.480468750, 0.455078125, -1.011718750, 0.357421875, -4.218750000, 0.294921875, -0.712890625, 0.333984375, -0.708984375, 1.451171875, 1.171875000, -0.285156250, 0.136718750, 1.150390625, 0.779296875, -2.031250000, 1.099609375, 1.361328125, -0.730468750, 0.078125000, 0.937500000, 0.109375000, -1.117187500, 1.150390625, -1.173828125, 0.943359375, -4.728515625, 1.191406250, -0.494140625, 0.398437500, 1.265625000, -0.533203125, 0.070312500, 0.996093750, 0.710937500, -0.548828125, 0.398437500, 2.361328125, -1.945312500, 0.988281250, 1.417968750, -0.474609375, -0.589843750, 1.261718750, -7.785156250, 1.712890625, -5.257812500, 0.896484375, -1.048828125, -0.820312500, 2.515625000, -1.203125000, -0.375000000, -0.005859375, 0.738281250, -0.509765625, 1.232421875, 0.828125000, -3.943359375, 1.564453125, 1.521484375, -0.644531250, -1.523437500, 1.425781250, 0.607421875, -2.001953125, -6.333984375, 1.277343750, -1.351562500, -1.789062500, 1.968750000, -1.234375000, 0.812500000, -2.873046875, -1.880859375, -4.164062500, 2.517578125, 0.927734375, -2.566406250, 1.035156250, 1.177734375, -0.179687500, -0.980468750, 1.140625000, 1.605468750, 0.490234375, -2.500000000, -0.322265625, -0.623046875, 0.128906250, 2.505859375, -0.888671875, -3.937500000, -4.703125000, -3.775390625, -3.050781250, 1.353515625, 0.255859375, -0.128906250, 0.253906250, 0.785156250, 0.382812500, -0.574218750, 0.791015625, 0.769531250, -0.214843750, -0.427734375, -0.021484375, -1.101562500, 0.421875000, 2.017578125, -0.162109375, 0.191406250, -1.718750000, -1.289062500, -2.562500000, 1.025390625, -0.130859375, 0.738281250, 1.072265625, 0.750000000, -0.048828125, -0.146484375, 0.835937500, 1.195312500, 1.507812500, 0.437500000, 0.568359375, -0.445312500, 1.072265625, 1.068359375, 0.669921875, -0.789062500, -2.146484375, -1.429687500, -0.134765625, 0.498046875, -0.076171875, -0.287109375, -0.148437500, 0.363281250, -0.796875000, 0.367187500, 0.523437500, 0.154296875, -0.175781250, 0.269531250, -2.884765625, -0.425781250, 0.218750000, 0.330078125, 0.113281250, 0.267578125, -0.279296875, -0.384765625, 0.234375000, 0.103515625, -0.023437500, -3.826171875, -0.591796875, 0.011718750, 0.242187500, -1.060546875, 0.060546875, -0.273437500, 0.152343750, 0.281250000, -6.042968750, -0.191406250, -0.500000000, 0.001953125, 0.078125000, -0.142578125, -0.779296875, -0.203125000, -1.636718750, -0.095703125, 0.021484375, -3.830078125, 0.001953125, 0.007812500, 0.783203125, -0.060546875, 0.000000000, -0.011718750, 0.187500000, -0.125000000, -2.988281250, -0.146484375, 0.072265625, -0.343750000, 0.425781250, 0.355468750, -0.707031250, 0.005859375, -6.263671875, -0.087890625, 0.013671875, -2.005859375, 0.412109375, 0.037109375, 0.685546875, -0.183593750, -0.011718750, 0.029296875, 0.062500000, -0.123046875, -2.585937500, -0.193359375, 0.181640625, -0.414062500, 0.119140625, -0.015625000, -0.560546875, 0.001953125, -1.648437500, 0.275390625, 0.289062500, 0.064453125, -0.476562500, -0.042968750, -0.076171875, -3.328125000, -0.015625000, 0.281250000, -0.812500000, -0.183593750, -2.091796875, -0.964843750, -0.820312500, -0.181640625, 0.037109375, -0.312500000, -0.222656250, 0.119140625, -5.652343750, 0.447265625, 0.617187500, 0.214843750, 0.023437500, -0.023437500, -0.714843750, -2.865234375, -0.054687500, -0.441406250, -1.494140625, 0.044921875, 0.304687500, -0.654296875, -0.769531250, 0.666015625, -0.138671875, 0.498046875, -0.085937500, 0.712890625, -9.828125000, 0.275390625, 1.130859375, 0.582031250, 0.763671875, 0.093750000, -1.230468750, -2.847656250, -0.027343750, -1.824218750, -1.328125000, -0.082031250, 0.781250000, -1.222656250, 0.011718750, 1.187500000, -1.431640625, 0.984375000, -1.679687500, 0.138671875, -0.458984375, 0.591796875, 0.939453125, 1.490234375, 1.005859375, 0.333984375, -0.433593750, -8.828125000, 0.392578125, -3.222656250, 1.029296875, -0.982421875, -6.281250000, -1.296875000, 1.693359375, 1.880859375, -0.646484375, 1.167968750, -0.898437500, -0.025390625, 0.058593750, 2.894531250, 1.816406250, -3.158203125, 0.966796875, 0.980468750, -0.035156250, -2.677734375, 1.054687500, -2.207031250, -0.371093750, -1.949218750, 2.212890625, -0.230468750, 1.816406250, 2.328125000, -1.056640625, 1.156250000, 0.576171875, 0.373046875, 2.679687500, -0.736328125, 1.445312500, -1.560546875, 2.669921875, 0.839843750, -0.472656250, -4.019531250, 0.806640625, -9.369140625, 2.730468750, -3.740234375, -0.449218750, -1.158203125, -1.914062500, 6.214843750, 0.027343750, 1.287109375, 3.681640625, 0.148437500, 1.095703125, 1.357421875, 1.220703125, -0.005859375, 1.675781250, 0.580078125, 0.660156250, -1.882812500, -0.357421875, -0.197265625, 1.958984375, -6.439453125, 1.917968750, 0.156250000, 1.238281250, 4.871093750, -2.646484375, 0.984375000, -2.658203125, -0.816406250, -0.785156250, 1.437500000, 0.777343750, 2.615234375, 0.332031250, 1.412109375, -2.982421875, -5.607421875, -1.781250000, 1.115234375, -0.142578125, -1.808593750, 1.369140625, -0.195312500, -1.050781250, 5.664062500, -0.560546875, -0.294921875, -2.009765625, 1.160156250, -0.087890625, 0.746093750, 0.119140625, 0.865234375, 0.998046875, 1.128906250, -0.787109375, -2.089843750, 1.263671875, 0.474609375, 0.519531250, 1.013671875, -1.332031250, -0.791015625, 0.441406250, 4.845703125, -0.550781250, 0.298828125, 1.361328125, -1.029296875, -0.597656250, 0.841796875, 0.138671875, 0.933593750, 0.792968750, 0.572265625, -0.037109375, -3.429687500, 0.353515625, 0.693359375, -0.326171875, 0.677734375, 1.085937500, -0.718750000, 0.824218750, 1.369140625, 0.798828125, -2.462890625, 0.142578125, -1.080078125, 0.039062500, 0.007812500, -0.064453125, -0.156250000, 0.341796875, 0.148437500, -1.359375000, -7.025390625, 0.421875000, 0.218750000, -0.611328125, 0.294921875, 0.521484375, -0.404296875, 0.419921875, 0.769531250, -0.148437500, -0.671875000, 1.044921875, -0.578125000, -1.992187500, 0.582031250, -0.062500000, -0.292968750, 0.078125000, -0.072265625, -0.294921875, -8.251953125, 0.023437500, 0.302734375, -0.167968750, 0.271484375, 0.066406250, 0.236328125, -0.089843750, 0.255859375, 0.585937500, 0.066406250, -0.552734375, -0.029296875, -1.755859375, 0.660156250, -0.015625000, -1.804687500, -0.361328125, 0.007812500, 0.068359375, -5.693359375, 0.029296875, -0.009765625, -0.158203125, 0.242187500, -0.097656250, 0.136718750, -0.179687500, 0.105468750, 0.644531250, 0.382812500, -0.730468750, 0.078125000, -5.128906250, 0.111328125, 0.041015625, -0.222656250, -0.089843750, -0.013671875, 0.000000000, -5.570312500, 0.000000000, 0.101562500, -0.308593750, 0.130859375, -1.173828125, -0.205078125, -0.148437500, 0.130859375, 0.000000000, -0.392578125, -1.021484375, -0.078125000, -3.404296875, 0.458984375, 0.417968750, 0.158203125, 0.125000000, -0.150390625, -0.476562500, -8.503906250, -0.058593750, 0.126953125, -0.371093750, 0.109375000, 0.158203125, 0.019531250, 0.009765625, 0.191406250, 0.087890625, 0.066406250, -0.826171875, 0.123046875, -1.429687500, 0.103515625, 0.841796875, 0.853515625, 0.685546875, -0.257812500, -0.671875000, -7.171875000, -0.035156250, 0.353515625, 0.021484375, -0.630859375, -0.298828125, -0.562500000, 0.699218750, 0.568359375, -0.169921875, 0.308593750, 1.285156250, 0.652343750, -1.847656250, 1.445312500, 1.269531250, -1.253906250, 1.929687500, 0.332031250, 0.712890625, -2.054687500, 0.187500000, -0.613281250, -0.615234375, -1.710937500, -0.525390625, -1.248046875, 0.705078125, 1.285156250, -0.048828125, 0.908203125, 0.404296875, 1.449218750, -0.470703125, 0.232421875, -0.476562500, -0.623046875, -0.759765625, -0.050781250, -0.804687500, -10.796875000, 0.244140625, -0.125000000, 0.529296875, -0.671875000, 1.458984375, -0.449218750, 0.449218750, 2.755859375, -0.568359375, 0.115234375, 1.537109375, 0.357421875, 0.039062500, 0.921875000, 1.326171875, 2.013671875, 3.035156250, 1.318359375, -0.775390625, -10.785156250, 0.957031250, -7.892578125, 1.294921875, -1.013671875, -6.849609375, 0.492187500, -0.636718750, 4.093750000, -0.501953125, 0.339843750, 1.404296875, 1.207031250, -1.628906250, -1.382812500, 2.375000000, 0.832031250, 3.808593750, 0.974609375, -0.001953125, -10.789062500, 0.921875000, -7.210937500, 3.537109375, -5.623046875, 5.849609375, 0.265625000, -0.412109375, 3.078125000, -0.960937500, -0.666015625, 1.580078125, -0.095703125, -1.830078125, -2.740234375, 0.423828125, 5.554687500, 0.291015625, 2.277343750, -0.683593750, -6.447265625, 3.019531250, 0.953125000, -0.943359375, -6.662109375, -0.425781250, 0.013671875, -1.230468750, 5.214843750, -1.865234375, -3.076171875, 1.882812500, -2.804687500, -6.347656250, 1.171875000, 0.054687500, -0.041015625, 1.236328125, 0.330078125, 1.189453125, -10.507812500, -0.638671875, -0.572265625, 0.582031250, -9.566406250, -0.808593750, 1.091796875, -1.763671875, 4.621093750, 0.451171875, 2.300781250, -3.082031250, -0.529296875, 0.386718750, 1.818359375, 0.767578125, -0.017578125, 1.126953125, 0.867187500, -0.400390625, -5.328125000, 0.324218750, -0.500000000, -1.640625000, -3.386718750, 0.312500000, -1.343750000, 1.732421875, 2.958984375, -2.062500000, 0.056640625, 0.419921875, 0.509765625, -1.445312500, 0.636718750, 0.279296875, 0.681640625, 0.287109375, 0.791015625, -1.167968750, -7.341796875, 0.697265625, 0.240234375, -0.023437500, 0.398437500, 2.470703125, -0.792968750, -0.259765625, 2.691406250, -0.480468750, 0.857421875, 0.115234375, -1.314453125, -5.638671875, 0.031250000, 0.085937500, 1.542968750, 2.195312500, -0.103515625, 0.296875000, -9.882812500, 0.078125000, 0.318359375, 0.378906250, 0.539062500, 0.433593750, -0.263671875, 0.980468750, 2.107421875, -0.042968750, -3.312500000, -0.017578125, -0.386718750, -7.115234375, 0.341796875, -0.113281250, 1.023437500, 0.267578125, 0.019531250, -0.697265625, -8.019531250, 0.013671875, -0.087890625, -0.250000000, 0.265625000, 0.164062500, -0.382812500, 0.505859375, 1.994140625, -0.048828125, -0.945312500, -0.466796875, 0.316406250, -6.173828125, 0.439453125, 0.072265625, -0.265625000, -0.421875000, 0.054687500, -0.697265625, -5.142578125, 0.003906250, 0.185546875, -0.169921875, -0.302734375, -0.107421875, 0.201171875, 0.322265625, 0.236328125, 0.269531250, -0.001953125, 0.744140625, 0.498046875, -2.576171875, 0.189453125, 0.273437500, 0.384765625, 0.164062500, -0.136718750, -1.375000000, -6.384765625, -0.207031250, 0.796875000, 0.214843750, -0.373046875, 0.253906250, -0.089843750, -0.115234375, 0.449218750, 0.117187500, -0.787109375, -0.384765625, 0.234375000, -2.679687500, 0.900390625, 0.541015625, 0.460937500, 0.164062500, 0.070312500, -0.732421875, -9.828125000, 0.062500000, 0.298828125, -0.474609375, -0.083984375, -0.580078125, -0.089843750, 1.285156250, 0.433593750, -0.068359375, -0.058593750, 1.007812500, 0.134765625, -0.037109375, -0.509765625, 0.890625000, 1.240234375, 1.369140625, -0.007812500, -0.253906250, -6.226562500, 0.154296875, 0.630859375, -0.734375000, -0.029296875, 0.498046875, -0.027343750, -0.349609375, 1.203125000, -0.576171875, 0.851562500, 0.576171875, 0.298828125, -1.269531250, -0.025390625, 0.062500000, 0.017578125, -0.173828125, -0.443359375, -1.341796875, -11.148437500, 0.066406250, 0.072265625, 1.126953125, -0.775390625, 2.730468750, -0.812500000, 0.593750000, 2.039062500, -0.869140625, 1.074218750, -1.474609375, -0.097656250, 0.957031250, 1.263671875, 1.396484375, -0.445312500, 2.251953125, 0.101562500, -0.093750000, -5.437500000, 0.392578125, -1.642578125, 0.371093750, 0.421875000, -2.056640625, -0.214843750, -0.617187500, 2.716796875, 0.462890625, 1.330078125, -0.908203125, -0.675781250, -0.142578125, 1.470703125, 2.400390625, -0.162109375, 4.849609375, -0.357421875, 0.673828125, -3.839843750, -0.369140625, 0.314453125, 0.498046875, 0.210937500, 1.359375000, -1.011718750, 0.998046875, 2.082031250, 0.408203125, -0.365234375, -3.029296875, 0.162109375, 1.847656250, -1.908203125, 3.154296875, -0.332031250, 2.447265625, 1.037109375, -1.179687500, -2.072265625, 1.162109375, -4.015625000, 1.716796875, 0.162109375, -0.812500000, -1.101562500, -1.371093750, 4.810546875, -1.066406250, 0.861328125, 1.212890625, -0.429687500, 2.988281250, -1.531250000, 1.287109375, 0.060546875, -0.726562500, 2.673828125, -4.220703125, -4.814453125, 0.632812500, -0.220703125, 3.451171875, -7.156250000, 3.142578125, -2.224609375, -2.417968750, 2.078125000, -0.773437500, -7.687500000, 1.390625000, 1.869140625, -1.306640625, 1.984375000, 1.177734375, 0.298828125, 2.457031250, 2.308593750, -0.802734375, -9.529296875, 1.248046875, -0.111328125, -0.919921875, 1.960937500, 4.423828125, 0.876953125, 0.490234375, 1.212890625, -1.099609375, 0.837890625, -3.732421875, 0.945312500, 0.884765625, -2.359375000, 0.130859375, -0.337890625, 2.962890625, 0.205078125, -0.421875000, -9.787109375, 1.148437500, 0.408203125, 1.451171875, -2.679687500, 3.046875000, 0.550781250, -0.236328125, -0.234375000, 0.171875000, -1.500000000, -4.800781250, 0.490234375, -3.886718750, 1.412109375, 0.312500000, 1.845703125, 1.214843750, 1.130859375, 1.097656250, -5.134765625, 0.419921875, -0.396484375, 1.476562500, -1.970703125, -5.171875000, 0.896484375, 1.455078125, 1.273437500, 0.134765625, -3.666015625, 0.816406250, 0.615234375, -4.240234375, 0.312500000, 0.056640625, 0.962890625, 1.044921875, 0.326171875, -0.050781250, -6.316406250, 1.140625000, 0.552734375, -0.480468750, -2.107421875, -0.181640625, -0.021484375, 2.130859375, 0.347656250, -0.658203125, -5.792968750, 1.839843750, 0.945312500, 0.513671875, 1.496093750, 0.083984375, -1.146484375, 0.757812500, 0.207031250, -0.333984375, -2.101562500, 0.384765625, 0.269531250, -2.162109375, 0.767578125, 0.990234375, -0.167968750, 0.943359375, 3.654296875, 0.009765625, -1.255859375, -1.925781250, 0.400390625, -0.845703125, 0.683593750, 0.169921875, 1.275390625, 1.148437500, -0.128906250, -1.058593750, -9.656250000, -0.056640625, 0.548828125, 0.650390625, -0.285156250, 0.537109375, -0.953125000, 1.248046875, 0.953125000, -0.015625000, -0.888671875, -0.214843750, 0.416015625, 0.761718750, 0.054687500, 0.351562500, -1.263671875, 0.621093750, 0.023437500, -2.468750000, -3.476562500, 0.011718750, -0.046875000, 1.625000000, -0.136718750, 0.316406250, -0.199218750, 1.818359375, 0.839843750, 0.580078125, 0.890625000, 1.609375000, 0.003906250, -0.708984375, 1.275390625, 0.802734375, 0.156250000, 0.230468750, -0.103515625, -0.105468750, -4.220703125, 0.144531250, 1.439453125, -1.283203125, -1.494140625, 0.191406250, -2.933593750, 1.953125000, 0.656250000, -0.472656250, -2.751953125, 1.541015625, -0.207031250, 0.597656250, 0.562500000, -0.527343750, -0.160156250, 0.007812500, 0.390625000, -2.466796875, -6.728515625, 0.509765625, -0.335937500, -1.367187500, 0.738281250, -0.160156250, 0.488281250, -1.142578125, 1.740234375, -0.978515625, -2.035156250, 0.576171875, 0.958984375, 0.123046875, -3.212890625, 0.578125000, 3.009765625, 0.472656250, 0.763671875, -7.322265625, -11.494140625, 0.529296875, -0.599609375, 0.576171875, 0.337890625, -1.060546875, 0.660156250, -0.138671875, 2.849609375, -1.363281250, -0.568359375, -2.326171875, 0.824218750, -2.482421875, 1.304687500, 2.921875000, -0.412109375, 3.750000000, 0.087890625, 0.128906250, -1.992187500, -0.242187500, -0.355468750, 2.181640625, -2.162109375, 1.347656250, -1.761718750, 0.570312500, 2.642578125, -0.226562500, -3.097656250, -0.152343750, 1.472656250, -0.701171875, 0.882812500, 1.128906250, 3.599609375, -1.160156250, 0.484375000, -0.044921875, -1.314453125, 0.902343750, -0.097656250, -0.353515625, -0.271484375, 0.140625000, 0.890625000, 0.689453125, 2.527343750, 0.185546875, 2.671875000, 0.041015625, 0.740234375, 1.921875000, -0.130859375, 2.677734375, -1.847656250, 0.021484375, 1.394531250, -0.265625000, -10.482421875, 0.443359375, 0.654296875, 1.160156250, 0.087890625, -0.816406250, 1.617187500, -1.236328125, 2.734375000, -0.443359375, -0.302734375, -0.589843750, 1.158203125, 2.146484375, -5.703125000, 0.857421875, -1.130859375, 0.031250000, 1.181640625, 0.533203125, -1.376953125, -0.464843750, -0.095703125, 1.587890625, -0.574218750, -1.259765625, -0.599609375, -1.130859375, -2.087890625, -0.128906250, -4.355468750, -2.908203125, 1.783203125, 2.857421875, 2.078125000, 1.128906250, -4.443359375, 1.255859375, 0.302734375, 0.220703125, -8.917968750, 0.019531250, 1.177734375, 1.185546875, -4.369140625, 0.591796875, 0.261718750, 0.771484375, -1.392578125, -0.734375000, -3.412109375, -6.216796875, 3.007812500, -6.582031250, -4.716796875, 0.568359375, 1.265625000, 3.611328125, 1.878906250, 1.435546875, -7.541015625, -1.093750000, -0.357421875, 0.830078125, 0.757812500, 0.537109375, 1.359375000, -1.289062500, -1.599609375, -0.406250000, 2.351562500, -3.343750000, 2.457031250, 0.277343750, -0.601562500, -0.560546875, 1.257812500, -0.355468750, 1.384765625, 0.812500000, -3.671875000, 1.615234375, 0.240234375, 0.634765625, -3.740234375, 2.035156250, 0.605468750, 1.144531250, -0.666015625, -0.498046875, -0.435546875, 0.689453125, 0.115234375, 0.583984375, -0.548828125, 0.312500000, 0.908203125, 2.720703125, 0.644531250, -1.820312500, -11.929687500, 1.080078125, -1.335937500, -0.994140625, 2.271484375, 2.236328125, -0.123046875, 0.787109375, 0.476562500, -0.785156250, -10.640625000, 0.726562500, 0.082031250, -1.275390625, -0.611328125, 0.230468750, 0.736328125, 0.052734375, 0.492187500, 0.019531250, -9.679687500, 0.949218750, 0.671875000, 1.585937500, 0.382812500, 2.996093750, -0.330078125, 0.197265625, 2.146484375, 1.048828125, 2.175781250, -0.324218750, 0.593750000, 0.462890625, -0.664062500, -0.279296875, 1.681640625, 1.490234375, 0.048828125, -1.246093750, -4.744140625, 0.460937500, -0.378906250, -1.248046875, 0.617187500, 0.933593750, -0.117187500, 0.630859375, -1.523437500, -0.830078125, 0.496093750, 0.974609375, -0.113281250, -0.468750000, -0.105468750, 1.052734375, -0.076171875, -2.001953125, 0.056640625, 1.740234375, -5.533203125, -0.015625000, -1.888671875, 0.474609375, -0.121093750, 0.396484375, -0.314453125, 1.890625000, 0.843750000, -0.994140625, 0.277343750, 1.812500000, 0.197265625, -3.882812500, 1.197265625, 0.708984375, 0.794921875, -0.765625000, 0.519531250, -1.267578125, -4.363281250, 0.556640625, 0.558593750, 1.677734375, -0.949218750, 2.324218750, -1.605468750, 1.443359375, 1.671875000, -0.375000000, 1.291015625, 1.462890625, 0.736328125, -0.914062500, -0.392578125, -4.253906250, 1.597656250, -2.806640625, 0.212890625, 0.037109375, -8.191406250, -0.005859375, -0.357421875, -0.373046875, 0.312500000, -3.572265625, -0.494140625, -1.802734375, 3.126953125, -0.607421875, -3.511718750, 1.470703125, -0.158203125, -1.044921875, -0.871093750, 2.283203125, -0.070312500, -3.537109375, 0.400390625, 0.041015625, -7.523437500, 0.578125000, -0.033203125, -1.431640625, -0.826171875, -0.447265625, -3.177734375, 1.152343750, 0.230468750, -1.453125000, 2.322265625, 2.113281250, 0.281250000, -0.519531250, 0.496093750, 1.712890625, 2.816406250, -6.693359375, 0.765625000, -1.087890625, -6.292968750, 1.281250000, -4.753906250, 1.775390625, -0.005859375, -1.951171875, -0.314453125, 0.406250000, 3.001953125, 0.570312500, 0.414062500, 3.695312500, -1.109375000, 0.748046875, 1.359375000, -2.916015625, 0.900390625, 1.146484375, 0.578125000, 2.130859375, -1.583984375, 0.781250000, -1.550781250, -1.449218750, 0.615234375, 1.953125000, 0.902343750, 0.572265625, 0.019531250, -0.226562500, 0.345703125, 4.416015625, 0.908203125, 3.285156250, 3.201171875, 3.974609375, 0.474609375, 2.466796875, 1.488281250, -1.328125000, -2.416015625, 2.214843750, -2.777343750, 0.062500000, 0.392578125, -3.496093750, -2.240234375, 0.544921875, 1.693359375, 0.136718750, 1.716796875, -1.050781250, 0.099609375, -1.810546875, 1.626953125, -1.902343750, 2.169921875, 2.566406250, -0.949218750, -0.257812500, -0.585937500, 1.771484375, -1.968750000, 4.287109375, 1.048828125, 0.253906250, -2.218750000, -1.150390625, 0.234375000, -1.507812500, 2.130859375, 1.876953125, 0.117187500, 3.195312500, -4.675781250, 0.626953125, -5.523437500, 0.898437500, 3.039062500, -1.488281250, -1.427734375, 2.369140625, 0.396484375, 0.195312500, 0.156250000, -3.406250000, 0.152343750, -2.990234375, 3.433593750, 0.277343750, -5.154296875, -3.121093750, -0.136718750, 0.177734375, 1.695312500, 1.837890625, 0.556640625, 3.265625000, -1.865234375, 0.378906250, -2.875000000, 1.357421875, -0.736328125, -1.849609375, -1.613281250, -3.800781250, -2.033203125, -1.675781250, 0.068359375, -0.453125000, -0.392578125, -3.416015625, 0.376953125, 1.685546875, 3.900390625, 0.453125000, 3.367187500, 1.755859375, 1.146484375, 1.318359375, -0.447265625, 0.460937500, 0.464843750, -0.914062500, 1.298828125, -4.996093750, 2.130859375, 0.951171875, 0.427734375, -0.806640625, -7.152343750, -0.861328125, 1.294921875, 1.390625000, -1.927734375, 0.556640625, 2.134765625, 2.859375000, 0.447265625, -0.976562500, -3.138671875, 0.710937500, -1.552734375, 0.128906250, 0.562500000, 1.099609375, -0.177734375, -1.250000000, 2.736328125, -0.980468750, -0.527343750, 1.062500000, 1.078125000, -3.880859375, 0.453125000, 0.490234375, 1.750000000, 2.675781250, 1.097656250, 0.078125000, -9.357421875, 0.720703125, -3.050781250, 1.859375000, -1.431640625, -1.416015625, -0.203125000, -0.843750000, 2.414062500, 0.039062500, -0.312500000, 0.400390625, 2.328125000, -1.775390625, -2.804687500, 1.109375000, 0.826171875, 0.681640625, 1.167968750, -0.498046875, -4.146484375, 1.246093750, 0.197265625, 1.197265625, 0.671875000, -1.882812500, -0.492187500, 0.224609375, 4.328125000, 0.867187500, -9.693359375, 1.216796875, 1.039062500, -1.117187500, -0.802734375, 0.619140625, 0.191406250, -3.351562500, -0.333984375, -0.544921875, -2.150390625, 0.640625000, 1.253906250, -0.521484375, 0.207031250, 0.066406250, 1.164062500, 0.085937500, 0.318359375, 0.572265625, -5.814453125, 2.189453125, 3.082031250, -1.271484375, -0.902343750, -1.009765625, 3.287109375, -1.773437500, -0.679687500, -1.503906250, -4.695312500, -1.078125000, -0.898437500, 1.542968750, -0.400390625, -4.007812500, 0.189453125, -0.269531250, 2.943359375, 0.046875000, -3.792968750, 1.396484375, 0.615234375, -0.027343750, 0.718750000, 3.246093750, -0.679687500, 1.152343750, 0.105468750, -1.833984375, -8.130859375, 0.177734375, 1.626953125, 1.271484375, -0.767578125, -3.726562500, 0.720703125, -0.654296875, 3.597656250, 0.513671875, -2.552734375, 0.576171875, 1.568359375, -1.607421875, 0.128906250, 0.023437500, 2.671875000, -6.097656250, 0.091796875, -0.650390625, 0.646484375, 0.373046875, -5.873046875, -0.093750000, 0.517578125, -0.697265625, 0.958984375, 1.773437500, 1.658203125, -1.912109375, 1.984375000, -0.355468750, 0.310546875, 1.517578125, 1.380859375, -0.044921875, 1.388671875, 1.056640625, -0.011718750, -0.318359375, -5.509765625, -1.837890625, -3.996093750, -0.269531250, -0.166015625, -0.062500000, -0.888671875, -0.390625000, -0.666015625, -0.109375000, 3.490234375, 2.427734375, -0.701171875, 1.394531250, 2.552734375, -0.066406250, 1.500000000, -7.619140625, 0.869140625, 1.226562500, 0.015625000, 1.208984375, -2.455078125, 0.425781250, 0.863281250, -0.064453125, -0.138671875, -0.902343750, 5.130859375, 0.306640625, 1.941406250, 1.302734375, -0.714843750, -1.392578125, 1.003906250, -0.150390625, -0.109375000, 0.208984375, 1.152343750, -1.001953125, 0.619140625, -0.632812500, -1.042968750, -0.798828125, 2.853515625, -0.152343750, -0.666015625, 0.558593750, 0.175781250, 0.812500000, -0.738281250, -0.476562500, -0.556640625, 1.634765625, -2.843750000, -0.685546875, -1.431640625, -0.419921875, -0.099609375, 0.673828125, -7.246093750, 0.626953125, 0.632812500, 1.542968750, 2.611328125, -0.015625000, 0.978515625, 1.605468750, -0.003906250, -0.058593750, 0.955078125, 1.658203125, 1.542968750, -0.615234375, -1.582031250, 2.843750000, -1.634765625, -0.242187500, 2.050781250, 2.158203125, -4.423828125, 3.447265625, 0.044921875, -0.679687500, 0.912109375, 4.349609375, 5.511718750, -0.277343750, -0.025390625, -0.070312500, -5.916015625, 0.027343750, 3.851562500, -3.199218750, -4.500000000, 0.287109375, -2.931640625, 2.000000000, -0.242187500, 0.408203125, -8.580078125, 2.216796875, -2.351562500, 0.496093750, -0.015625000, 0.072265625, -0.736328125, -0.712890625, -0.017578125, -0.310546875, 3.287109375, -0.882812500, 1.724609375, 0.687500000, 0.195312500, 0.433593750, -4.759765625, -2.955078125, 1.230468750, -1.091796875, -1.619140625, 1.888671875, 1.050781250, 1.572265625, 1.410156250, -2.240234375, -2.707031250, 0.187500000, -1.132812500, 0.794921875, -0.980468750, -2.179687500, -0.013671875, -3.867187500, 1.191406250, 1.019531250, -1.712890625, 0.279296875, 1.125000000, -1.656250000, -10.525390625, 1.871093750, -0.759765625, -0.250000000, -0.669921875, 1.570312500, 0.990234375, -2.207031250, -2.398437500, 0.224609375, 3.505859375, -1.074218750, 2.558593750, -0.162109375, -4.351562500, 0.792968750, 0.070312500, 1.570312500, 0.869140625, -2.867187500, -9.273437500, 1.101562500, 0.455078125, 1.205078125, -1.259765625, 2.816406250, -0.015625000, -1.537109375, 1.689453125, -1.933593750, -5.015625000, -2.666015625, 0.550781250, 1.351562500, -1.009765625, 1.392578125, 2.951171875, 4.767578125, 0.548828125, -1.042968750, -8.390625000, 1.048828125, 1.408203125, 0.792968750, -0.111328125, 2.707031250, 0.609375000, -0.033203125, 0.925781250, -2.162109375, -8.451171875, -1.902343750, 1.312500000, -0.058593750, -1.642578125, 1.634765625, 0.250000000, -3.187500000, 0.248046875, -0.212890625, -3.986328125, 0.308593750, -0.855468750, 0.437500000, -0.470703125, 3.410156250, 1.097656250, 0.167968750, 0.207031250, 0.138671875, -6.279296875, 0.648437500, 1.441406250, 2.279296875, -4.000000000, 2.236328125, 0.562500000, -3.455078125, 0.443359375, -1.867187500, -10.033203125, 0.837890625, -0.138671875, -1.246093750, -0.941406250, -3.363281250, -1.078125000, -1.875000000, 4.589843750, -1.216796875, -0.126953125, 1.919921875, 0.779296875, -0.146484375, -2.406250000, 1.539062500, 1.921875000, -4.734375000, 0.304687500, -2.361328125, -4.578125000, 0.183593750, -3.466796875, 1.595703125, 0.910156250, 0.199218750, 1.410156250, 1.419921875, 0.414062500, 0.527343750, 3.388671875, -1.250000000, 0.312500000, 0.613281250, -3.498046875, -0.257812500, 2.746093750, -3.119140625, 0.863281250, 0.152343750, -8.771484375, 0.322265625, 2.769531250, 0.804687500, -0.041015625, 0.089843750, 2.261718750, -0.695312500, 1.621093750, 1.298828125, 1.689453125, 1.240234375, -0.322265625, -2.068359375, 0.058593750, 0.062500000, -1.039062500, -4.525390625, -1.218750000, -0.548828125, -8.134765625, 1.083984375, -1.253906250, 1.716796875, 0.238281250, 0.007812500, 1.193359375, 0.300781250, -0.933593750, 0.181640625, 2.708984375, -1.435546875, 1.904296875, 3.701171875, 0.792968750, 0.160156250, 0.236328125, 2.826171875, 0.478515625, -0.750000000, -3.634765625, -1.714843750, 3.607421875, 1.345703125, -1.572265625, -0.029296875, -0.193359375, -0.554687500, 1.910156250, 0.125000000, -0.769531250, -4.925781250, 0.964843750, -1.230468750, -0.591796875, 0.074218750, 2.644531250, -6.996093750, 1.603515625, -0.787109375, -2.587890625, 0.484375000, -0.876953125, 1.859375000, -0.798828125, 0.062500000, 0.693359375, -2.134765625, 4.783203125, 0.433593750, -0.009765625, -1.208984375, -0.707031250};

#endif

#endif
