//Numpy array shape [64, 5]
//Min -5.312500000000
//Max 3.283203125000
//Number of zeros 1

#ifndef W13_H_
#define W13_H_

#ifndef __SYNTHESIS__
weight13_t w13[320];
#else
weight13_t w13[320] = {0.873046875, 0.587890625, -1.994140625, -1.494140625, 0.664062500, -0.511718750, -0.564453125, 0.087890625, 0.156250000, 0.750000000, 0.640625000, 0.652343750, -4.425781250, 0.347656250, 0.396484375, 0.042968750, -0.142578125, -0.546875000, 0.431640625, 0.541015625, -0.894531250, -0.603515625, 0.435546875, 0.542968750, -0.341796875, 0.578125000, 1.244140625, 3.283203125, -5.312500000, 0.824218750, -0.281250000, 0.175781250, -0.285156250, 0.833984375, -0.837890625, -0.845703125, -0.255859375, 0.919921875, 0.617187500, -0.619140625, 0.000000000, -0.583984375, -0.199218750, 0.310546875, 0.492187500, -0.078125000, 0.298828125, -0.294921875, -0.193359375, -0.726562500, 3.164062500, -1.119140625, -0.525390625, -0.947265625, -1.759765625, 0.015625000, -1.587890625, 1.074218750, 0.341796875, -0.679687500, 0.529296875, -0.125000000, -0.109375000, -0.404296875, -0.539062500, -0.240234375, 0.687500000, -0.705078125, 0.263671875, -0.798828125, 0.064453125, -0.097656250, 0.281250000, -0.541015625, 0.140625000, -0.601562500, -0.238281250, -0.037109375, 0.277343750, 0.636718750, 0.535156250, 0.386718750, -1.287109375, -0.345703125, 0.980468750, -0.050781250, -0.958984375, 0.169921875, 0.240234375, 0.050781250, -0.617187500, -1.179687500, 0.822265625, 0.824218750, -0.109375000, 0.458984375, 0.300781250, 0.171875000, 0.160156250, -0.757812500, 0.089843750, -0.466796875, -0.621093750, 0.384765625, 0.287109375, 0.177734375, 0.412109375, 0.585937500, 0.181640625, -1.210937500, 0.765625000, 0.625000000, -3.542968750, 0.064453125, 0.447265625, -0.603515625, -1.042968750, 0.816406250, 0.705078125, -0.353515625, -1.087890625, -0.744140625, 1.746093750, 0.814453125, -1.197265625, 0.351562500, 0.240234375, -0.382812500, 0.224609375, -1.083984375, 0.134765625, 0.015625000, -0.238281250, -0.009765625, 0.599609375, -1.423828125, -0.857421875, 1.033203125, 0.837890625, -0.628906250, -0.097656250, 0.140625000, 0.503906250, 0.777343750, -1.011718750, 0.123046875, 0.595703125, -0.941406250, -0.386718750, -0.089843750, -0.521484375, -0.494140625, 0.173828125, 0.410156250, 0.791015625, -1.109375000, -0.998046875, 1.437500000, 1.210937500, -0.755859375, -0.335937500, -0.351562500, -0.035156250, 0.320312500, 0.679687500, -0.779296875, -0.337890625, 0.503906250, 0.292968750, -0.322265625, 0.222656250, 0.148437500, -0.511718750, 0.357421875, -0.488281250, -1.013671875, 0.289062500, 0.445312500, 0.873046875, 1.267578125, 0.982421875, 0.898437500, -4.953125000, -0.820312500, 0.667968750, 0.445312500, 0.009765625, -0.017578125, -0.382812500, 0.617187500, -0.701171875, -0.238281250, 0.943359375, 0.250000000, -0.689453125, -0.576171875, 0.132812500, -0.248046875, -0.234375000, 0.619140625, -0.029296875, 0.687500000, -0.236328125, -0.066406250, -0.611328125, 0.843750000, 0.031250000, -1.080078125, -1.023437500, 0.201171875, 0.080078125, 0.548828125, -0.025390625, -0.332031250, -1.406250000, -0.285156250, -0.609375000, 0.203125000, 0.271484375, 0.871093750, -0.152343750, 0.119140625, -0.339843750, -0.429687500, 0.720703125, -1.064453125, -0.208984375, 0.791015625, 0.417968750, -0.248046875, 0.724609375, 0.914062500, -1.078125000, -4.246093750, 0.763671875, -0.562500000, -0.345703125, 0.892578125, 0.617187500, -1.162109375, 0.509765625, 0.232421875, -0.472656250, -0.408203125, -0.191406250, 0.169921875, 0.521484375, 0.109375000, 0.035156250, -0.849609375, 0.167968750, -0.214843750, 0.271484375, -0.427734375, 0.427734375, 0.957031250, 0.873046875, -0.892578125, -0.691406250, 0.037109375, 2.335937500, -0.310546875, -0.878906250, -0.654296875, -1.087890625, 0.013671875, 0.509765625, -0.429687500, -0.751953125, 0.158203125, -0.976562500, -0.679687500, 0.591796875, -0.070312500, 0.068359375, 1.031250000, 0.298828125, -0.548828125, -0.724609375, -0.783203125, -0.591796875, 0.179687500, 0.455078125, -0.072265625, 0.097656250, 0.738281250, 1.068359375, -2.605468750, -1.074218750, -0.070312500, 0.871093750, 0.087890625, -0.189453125, -0.349609375, -0.402343750, 0.417968750, 0.449218750, -0.158203125, -0.537109375, -0.478515625, 0.044921875, -0.576171875, -0.015625000, 0.457031250, 0.359375000, 0.269531250, 0.509765625, -0.601562500, -0.486328125, -0.501953125, 0.482421875, 0.632812500, -0.232421875, -0.265625000, -0.892578125, -0.931640625, -0.183593750, 0.710937500, 0.435546875, 0.015625000};

#endif

#endif
