//Numpy array shape [144, 28]
//Min -10.171875000000
//Max 7.908203125000
//Number of zeros 9

#ifndef W13_H_
#define W13_H_

#ifndef __SYNTHESIS__
weight13_t w13[4032];
#else
weight13_t w13[4032] = {-0.011718750, 0.027343750, 0.142578125, 0.005859375, -0.070312500, 0.062500000, -0.253906250, 0.132812500, -0.005859375, 0.085937500, -0.070312500, -0.189453125, -0.162109375, 0.007812500, -0.044921875, -0.062500000, -0.179687500, -0.167968750, -0.039062500, -0.021484375, -0.044921875, -0.107421875, -0.140625000, -0.029296875, 0.224609375, 0.041015625, -0.019531250, 0.123046875, -0.207031250, 1.751953125, 0.222656250, -0.248046875, 1.146484375, 1.902343750, -0.166015625, -0.041015625, 0.535156250, 0.746093750, -2.007812500, 0.082031250, 1.099609375, -0.154296875, -1.792968750, 0.958984375, 1.488281250, -0.011718750, 0.232421875, -1.628906250, 1.648437500, 3.123046875, -0.013671875, -0.275390625, 1.767578125, -1.876953125, -0.765625000, -0.490234375, -0.406250000, -3.824218750, 3.490234375, 4.050781250, -3.310546875, -3.091796875, -0.025390625, -0.089843750, -2.587890625, -2.126953125, 4.046875000, 1.261718750, 0.835937500, -0.162109375, 4.193359375, -0.072265625, -3.369140625, 0.109375000, 0.859375000, 4.386718750, -3.445312500, 2.451171875, -0.412109375, -3.650390625, -3.605468750, 2.933593750, 3.236328125, -0.093750000, -0.421875000, 0.486328125, 3.222656250, -0.466796875, -0.515625000, 2.716796875, -0.050781250, -3.746093750, -2.623046875, 0.597656250, -0.691406250, 1.671875000, 3.865234375, -0.083984375, 2.570312500, 1.873046875, 1.068359375, 0.218750000, 1.501953125, 0.507812500, 0.298828125, 3.664062500, 3.935546875, -0.291015625, 0.736328125, 0.625000000, 1.234375000, -1.751953125, -0.660156250, 1.564453125, 2.130859375, -1.662109375, 0.337890625, 5.257812500, -0.033203125, 0.085937500, 0.130859375, -2.390625000, -1.568359375, 3.542968750, -0.234375000, 0.119140625, 1.574218750, -2.117187500, 3.216796875, 0.142578125, -4.041015625, -0.554687500, 1.214843750, -0.052734375, 0.072265625, -4.177734375, -1.816406250, 1.539062500, 2.503906250, -0.609375000, 4.652343750, 1.914062500, -1.158203125, -0.144531250, 3.343750000, 0.166015625, -0.371093750, -5.441406250, -3.898437500, -4.240234375, 0.785156250, 4.865234375, 0.843750000, -1.515625000, 0.656250000, -3.125000000, 0.271484375, -3.294921875, 2.603515625, 0.417968750, 1.277343750, 1.136718750, 1.386718750, -2.410156250, -1.248046875, 0.970703125, -0.416015625, 0.578125000, 2.679687500, 1.220703125, -0.242187500, -1.757812500, 0.447265625, -0.818359375, -4.111328125, 0.517578125, -1.666015625, 0.089843750, -0.144531250, 5.226562500, -5.876953125, -1.437500000, 1.537109375, -7.224609375, 1.341796875, -2.492187500, 3.701171875, -0.529296875, 1.160156250, 1.775390625, -0.492187500, -2.714843750, 1.468750000, -1.339843750, 0.552734375, -0.310546875, 2.535156250, 0.523437500, 4.357421875, -0.087890625, 1.136718750, 3.226562500, -4.474609375, -7.392578125, -5.710937500, -0.798828125, 0.144531250, 1.685546875, -7.712890625, -1.615234375, -1.634765625, 0.306640625, 2.650390625, 2.457031250, -2.585937500, 1.771484375, 1.923828125, -0.082031250, 1.957031250, -5.300781250, -0.744140625, 2.054687500, 4.417968750, 2.078125000, 2.183593750, 1.767578125, 0.849609375, -4.537109375, -1.130859375, 5.384765625, -0.121093750, -1.541015625, -0.121093750, 1.751953125, -0.302734375, 0.117187500, 0.115234375, -1.542968750, 0.474609375, -0.027343750, 2.455078125, 3.699218750, 1.675781250, -0.462890625, 1.398437500, -0.107421875, 0.558593750, 1.054687500, -0.177734375, -2.183593750, 0.441406250, 2.603515625, -0.097656250, 0.154296875, 0.132812500, -0.099609375, 0.087890625, 0.005859375, 0.095703125, -0.164062500, -0.083984375, 0.031250000, -0.087890625, -0.001953125, 0.257812500, -0.056640625, -0.060546875, 0.101562500, -0.099609375, 0.052734375, -0.183593750, -0.214843750, -0.109375000, 0.048828125, -0.039062500, -0.007812500, -0.019531250, 0.029296875, 0.208984375, 0.093750000, 0.082031250, -0.046875000, -0.005859375, 0.056640625, 0.027343750, 0.035156250, 0.017578125, -0.013671875, -0.042968750, 0.167968750, 0.242187500, 0.039062500, -0.011718750, -0.011718750, -0.197265625, -0.003906250, -0.052734375, -0.199218750, 0.246093750, -0.066406250, 0.070312500, -0.017578125, -0.023437500, -0.187500000, 0.048828125, 0.121093750, -0.171875000, -0.072265625, 0.232421875, -0.027343750, 0.121093750, -0.066406250, 0.111328125, 0.000000000, -0.013671875, 0.085937500, 0.171875000, 0.064453125, 0.113281250, 0.078125000, -0.033203125, 0.144531250, -0.177734375, -0.123046875, -0.183593750, -0.246093750, -0.015625000, 0.103515625, -0.070312500, -0.046875000, -0.230468750, 0.101562500, -0.113281250, -0.158203125, -0.216796875, -0.029296875, -0.058593750, -0.005859375, -0.236328125, 0.224609375, 0.054687500, -0.113281250, -0.265625000, 0.050781250, 0.017578125, 0.113281250, -0.054687500, -0.031250000, -0.259765625, 0.001953125, 0.117187500, -0.082031250, -0.113281250, 0.101562500, -0.078125000, 0.019531250, -0.070312500, -0.091796875, -0.048828125, 0.146484375, -0.126953125, 0.169921875, -0.027343750, -0.050781250, -0.066406250, 2.859375000, 2.978515625, -3.835937500, 0.660156250, 5.529296875, -0.154296875, 0.414062500, -0.261718750, 4.800781250, -4.275390625, -0.115234375, 0.177734375, -0.210937500, -2.787109375, 0.009765625, 4.314453125, 0.031250000, 0.003906250, -0.744140625, 5.126953125, 0.027343750, -1.558593750, -4.175781250, 5.070312500, -3.031250000, 3.117187500, -2.185546875, 0.089843750, -1.638671875, -4.220703125, 0.652343750, -2.519531250, -0.244140625, -0.375000000, -1.851562500, 3.492187500, 1.064453125, -2.597656250, 2.914062500, -1.742187500, -3.001953125, -1.363281250, 1.644531250, -1.578125000, 2.544921875, -1.599609375, -2.957031250, 0.681640625, 4.162109375, -1.583984375, 2.484375000, -2.517578125, -3.621093750, -2.240234375, 4.291015625, -4.449218750, 2.226562500, -2.800781250, 1.039062500, 2.574218750, 0.244140625, -2.351562500, -1.300781250, -5.878906250, -0.341796875, 0.033203125, -0.562500000, -2.490234375, -1.019531250, 2.248046875, -3.767578125, 0.865234375, -1.025390625, -2.332031250, 0.296875000, 0.882812500, -1.054687500, -1.089843750, 0.060546875, -3.031250000, -0.210937500, 1.855468750, -3.355468750, -1.625000000, 2.611328125, -0.074218750, 0.738281250, 1.582031250, 0.054687500, -4.371093750, -1.251953125, -1.349609375, -1.031250000, -0.072265625, -0.498046875, -2.513671875, -1.748046875, 0.542968750, -4.775390625, 0.902343750, 1.066406250, -2.925781250, 1.064453125, -0.486328125, 0.472656250, -2.472656250, 1.601562500, 0.503906250, 0.296875000, 2.285156250, -0.777343750, -4.091796875, 2.519531250, 1.970703125, 1.345703125, 0.980468750, 0.179687500, -4.390625000, -1.083984375, 0.734375000, -1.580078125, -0.386718750, -0.382812500, -1.679687500, -0.361328125, -0.064453125, -5.447265625, 1.318359375, -1.287109375, -6.548828125, 1.003906250, -0.697265625, 0.750000000, -2.714843750, 0.935546875, -0.953125000, -1.447265625, -1.085937500, 0.765625000, -3.656250000, 2.052734375, 1.916015625, 0.152343750, 2.382812500, -0.041015625, -1.673828125, -0.744140625, 0.810546875, -0.871093750, 0.560546875, 0.607421875, -2.410156250, -0.666015625, 2.351562500, -5.011718750, 1.519531250, 1.412109375, -2.968750000, 0.890625000, 0.201171875, 0.828125000, -2.310546875, 0.947265625, -0.488281250, -0.566406250, 1.505859375, 0.708984375, -4.169921875, 3.314453125, 3.007812500, 0.550781250, 0.800781250, 1.134765625, -3.900390625, -1.458984375, 2.609375000, -1.181640625, 0.154296875, -0.359375000, -2.222656250, -1.253906250, 1.044921875, -5.046875000, 2.222656250, 0.642578125, -1.027343750, 0.605468750, -1.628906250, 0.703125000, -0.843750000, -0.902343750, -1.207031250, -4.513671875, 0.794921875, 0.800781250, -5.769531250, 2.128906250, -0.841796875, -0.480468750, 0.724609375, -0.228515625, -4.650390625, -1.166015625, 1.478515625, -1.134765625, -0.113281250, -1.167968750, -4.857421875, -1.533203125, 0.832031250, -8.347656250, 4.587890625, 3.115234375, 1.431640625, 1.091796875, 0.105468750, 0.660156250, -1.414062500, 0.263671875, -0.457031250, -1.568359375, 1.289062500, -0.367187500, -0.554687500, -0.726562500, 0.617187500, 0.880859375, -1.285156250, 1.373046875, 0.386718750, 0.714843750, -4.265625000, 1.289062500, 0.927734375, 3.681640625, -0.216796875, -0.824218750, 0.289062500, -1.214843750, 0.154296875, -0.628906250, 0.203125000, 1.814453125, 0.546875000, -0.976562500, -2.023437500, -0.007812500, -3.537109375, 4.695312500, 1.687500000, -0.349609375, 0.042968750, -3.708984375, 3.144531250, 3.359375000, -3.714843750, -3.191406250, -0.109375000, -0.035156250, -2.419921875, -0.220703125, 3.947265625, 0.101562500, -0.011718750, 0.134765625, 3.888671875, -0.900390625, -2.914062500, 0.144531250, 0.058593750, 3.640625000, -0.523437500, -0.119140625, 0.107421875, -2.769531250, -1.421875000, 3.810546875, 2.777343750, -0.160156250, 0.064453125, 0.054687500, -0.113281250, -0.232421875, 0.113281250, 0.003906250, 0.089843750, 0.132812500, 0.027343750, 0.142578125, -0.117187500, -0.093750000, -0.068359375, 0.142578125, -0.066406250, -0.015625000, -0.173828125, -0.078125000, -0.021484375, -0.021484375, 0.062500000, 0.097656250, -0.042968750, 0.146484375, -0.062500000, -0.007812500, 0.123046875, -0.015625000, -0.056640625, 2.324218750, 5.150390625, -5.042968750, -0.144531250, 7.908203125, -2.814453125, 6.050781250, -2.835937500, 6.501953125, -5.003906250, 0.904296875, 0.150390625, -0.132812500, -1.035156250, -0.105468750, 4.343750000, -0.062500000, -3.494140625, 3.306640625, 7.515625000, -0.171875000, -1.410156250, -6.281250000, 7.037109375, -4.087890625, 5.123046875, -0.808593750, -0.019531250, 2.271484375, 0.460937500, 0.353515625, 1.902343750, 3.041015625, -5.025390625, -5.376953125, -3.384765625, -0.625000000, 0.984375000, 5.554687500, -2.654296875, -0.541015625, -2.189453125, -2.181640625, 2.039062500, -0.087890625, 0.582031250, 1.906250000, 0.998046875, -0.640625000, 3.048828125, -3.025390625, -0.013671875, 0.167968750, 2.705078125, 3.312500000, -2.525390625, 2.716796875, -4.115234375, 1.718750000, -1.287109375, 1.423828125, -3.042968750, -1.205078125, 0.791015625, -0.955078125, -0.021484375, -0.710937500, -2.886718750, -1.441406250, -0.449218750, -5.705078125, 2.337890625, -1.611328125, -4.996093750, 0.232421875, 0.453125000, 0.857421875, -0.705078125, 1.326171875, -2.437500000, 0.363281250, 1.390625000, 0.615234375, -4.164062500, 2.548828125, -3.744140625, 1.972656250, -0.236328125, 0.568359375, -3.468750000, -0.824218750, -4.345703125, -1.097656250, -0.154296875, -0.578125000, -1.396484375, -0.396484375, -0.792968750, -4.775390625, 0.865234375, 0.357421875, -3.351562500, 0.292968750, -1.269531250, 0.542968750, -3.095703125, 1.238281250, -0.140625000, -0.117187500, 1.626953125, -1.123046875, -1.992187500, 1.845703125, 1.345703125, 1.109375000, 0.085937500, 0.033203125, -2.369140625, -0.966796875, -0.468750000, -1.095703125, -0.054687500, -0.587890625, -0.914062500, -1.414062500, 0.041015625, -4.455078125, 0.857421875, 0.552734375, -2.031250000, -0.589843750, -0.982421875, 0.472656250, -2.736328125, 1.478515625, -0.439453125, -0.064453125, 1.189453125, -3.175781250, -7.416015625, 1.439453125, 2.080078125, 0.919921875, 1.357421875, 1.011718750, -1.023437500, -1.304687500, 1.056640625, -0.951171875, 0.328125000, -0.652343750, -0.945312500, -1.687500000, 0.164062500, -2.203125000, 0.982421875, 0.320312500, -3.822265625, 1.798828125, -1.048828125, 0.621093750, -2.210937500, 1.673828125, -0.236328125, -0.011718750, -1.986328125, -2.833984375, -4.324218750, 1.617187500, 1.833984375, 0.535156250, 1.109375000, 0.480468750, -0.632812500, -0.843750000, 1.755859375, -0.820312500, 0.335937500, -0.488281250, -0.802734375, -2.027343750, 1.105468750, -4.234375000, 1.197265625, 1.693359375, -0.138671875, 1.066406250, -0.597656250, 0.484375000, -2.212890625, 0.582031250, -0.220703125, 0.279296875, -0.164062500, -0.013671875, -5.589843750, 1.494140625, 1.744140625, -0.853515625, 0.792968750, -0.322265625, -1.066406250, -1.076171875, 1.679687500, -1.109375000, -0.132812500, -0.031250000, -1.910156250, -1.718750000, 1.281250000, -5.738281250, 1.050781250, 2.001953125, 1.126953125, 0.429687500, 0.115234375, 0.507812500, -2.462890625, -0.648437500, -0.755859375, -0.580078125, 0.421875000, -0.189453125, -3.662109375, 1.994140625, -1.945312500, -0.066406250, 0.914062500, -0.039062500, -1.812500000, -0.681640625, 0.910156250, -0.339843750, 0.912109375, 0.119140625, -2.525390625, 0.316406250, 2.130859375, -6.716796875, 1.328125000, 2.787109375, -0.490234375, 1.371093750, -0.117187500, 0.863281250, -2.541015625, -2.322265625, -0.603515625, -2.337890625, 1.347656250, 1.009765625, -4.648437500, 3.041015625, -0.748046875, 0.500000000, 1.541015625, 0.037109375, -0.642578125, -1.003906250, 1.431640625, -0.326171875, 0.080078125, -0.039062500, -3.050781250, 0.359375000, 3.263671875, -4.384765625, 2.269531250, 2.681640625, 1.687500000, 2.117187500, 0.703125000, 1.003906250, -0.470703125, -6.111328125, -0.253906250, -0.787109375, 1.863281250, -0.234375000, 0.941406250, -2.132812500, -1.144531250, -0.250000000, 0.107421875, -6.937500000, -5.724609375, -0.861328125, 2.466796875, -2.578125000, 2.033203125, 5.814453125, -5.128906250, -3.343750000, -0.667968750, -3.212890625, 1.347656250, 2.472656250, 2.250000000, 0.058593750, -2.841796875, -0.595703125, 6.544921875, -7.666015625, -5.644531250, 4.408203125, -1.171875000, 3.958984375, 0.062500000, 0.173828125, -0.144531250, -0.019531250, 0.132812500, 0.083984375, -0.046875000, -0.083984375, -0.074218750, 0.099609375, 0.132812500, 0.253906250, 0.216796875, 0.121093750, -0.138671875, -0.044921875, -0.136718750, 0.210937500, -0.185546875, -0.148437500, -0.125000000, 0.101562500, -0.029296875, 0.117187500, 0.156250000, -0.205078125, 0.201171875, -0.150390625, -0.001953125, 0.154296875, 0.751953125, 0.826171875, 2.585937500, 3.505859375, 2.343750000, -4.287109375, -0.007812500, -1.025390625, -0.242187500, 2.982421875, 0.207031250, -2.414062500, -2.041015625, -0.017578125, 1.246093750, -0.080078125, 1.076171875, 0.644531250, 0.216796875, 0.119140625, 4.128906250, -3.363281250, 0.347656250, -0.253906250, 1.585937500, 3.220703125, -4.449218750, 3.160156250, 1.560546875, 2.851562500, 2.988281250, 2.070312500, -2.572265625, 0.382812500, -2.582031250, 0.904296875, 1.302734375, 2.013671875, -1.048828125, -1.054687500, 1.544921875, -6.011718750, 0.060546875, -3.515625000, 2.535156250, 1.982421875, -0.906250000, 0.857421875, -0.416015625, -0.738281250, -2.701171875, 2.503906250, 1.609375000, 2.810546875, -3.056640625, 1.806640625, 2.419921875, 0.458984375, 1.089843750, 0.041015625, -1.505859375, -1.500000000, -1.646484375, -1.255859375, 0.662109375, 0.015625000, -1.458984375, -0.597656250, 1.035156250, -6.240234375, 1.234375000, 1.544921875, -2.660156250, -0.222656250, -0.929687500, 0.810546875, -2.501953125, 2.736328125, 1.001953125, -0.179687500, 0.757812500, 0.445312500, -4.009765625, 1.816406250, 1.605468750, -1.837890625, 1.431640625, 0.542968750, -0.548828125, -1.111328125, -1.863281250, -0.835937500, 0.845703125, -1.990234375, -0.587890625, -1.074218750, 0.244140625, -1.857421875, 1.021484375, -3.181640625, -3.550781250, 0.572265625, -0.921875000, 0.521484375, -2.093750000, 1.908203125, -0.876953125, 0.355468750, 1.222656250, -1.445312500, -4.005859375, 1.281250000, 1.269531250, -0.562500000, 0.890625000, 0.927734375, -0.216796875, -1.380859375, -1.685546875, -0.669921875, 0.847656250, -1.964843750, -0.496093750, -1.470703125, 0.716796875, 0.277343750, 0.742187500, 0.253906250, -2.656250000, -0.121093750, -0.507812500, 0.380859375, -1.060546875, 1.142578125, -0.292968750, 0.242187500, 0.177734375, -4.314453125, -2.914062500, 0.980468750, 1.021484375, 0.066406250, 0.968750000, 0.675781250, -0.525390625, -0.583984375, 0.203125000, -0.529296875, 0.578125000, -1.380859375, -0.970703125, -1.441406250, 0.322265625, 0.609375000, 0.580078125, 0.240234375, -2.521484375, 0.509765625, -0.287109375, 0.423828125, -0.857421875, 0.652343750, 0.269531250, 0.408203125, -0.060546875, -2.023437500, -4.009765625, 0.884765625, 0.933593750, -0.478515625, 0.617187500, 0.720703125, -0.548828125, -0.839843750, 1.003906250, -0.511718750, 0.851562500, -1.230468750, -0.847656250, -1.552734375, 0.533203125, 0.175781250, 0.445312500, 1.119140625, 0.261718750, 0.568359375, 0.072265625, 0.423828125, -0.947265625, -0.083984375, -0.101562500, 0.150390625, -0.476562500, -0.785156250, -4.279296875, 0.783203125, 1.123046875, 1.218750000, 1.425781250, 0.539062500, -0.263671875, -0.554687500, 1.531250000, -0.580078125, 0.457031250, -0.154296875, -1.195312500, -1.527343750, 1.183593750, 0.337890625, 0.751953125, 1.474609375, 0.146484375, 0.396484375, -0.308593750, 0.404296875, -1.068359375, -2.589843750, -0.007812500, 0.007812500, 0.242187500, -1.384765625, -3.960937500, 1.830078125, 1.166015625, 1.003906250, 0.884765625, -0.103515625, -0.273437500, -0.927734375, 1.255859375, -0.750000000, 0.662109375, -1.101562500, -0.742187500, -1.263671875, 0.152343750, -3.392578125, 1.207031250, 1.814453125, 0.396484375, 1.019531250, -0.441406250, 0.326171875, -1.699218750, -2.041015625, 0.195312500, -0.558593750, 0.853515625, 0.173828125, -6.039062500, 1.802734375, 0.628906250, 1.003906250, 0.593750000, -0.339843750, -0.533203125, -1.531250000, 0.099609375, -1.085937500, -0.058593750, -0.003906250, -3.542968750, -1.072265625, 0.187500000, -5.677734375, 0.519531250, 1.513671875, 0.283203125, 0.255859375, 0.539062500, 0.482421875, -2.773437500, -2.835937500, -0.960937500, -0.746093750, 0.443359375, 1.783203125, -3.810546875, 1.152343750, -4.121093750, 1.310546875, 1.587890625, 0.150390625, 0.308593750, -4.947265625, -1.460937500, 0.437500000, -0.861328125, -0.375000000, -3.132812500, 0.169921875, 3.123046875, -9.359375000, 2.384765625, -1.070312500, -2.697265625, 0.611328125, -2.443359375, 1.449218750, -0.033203125, -9.884765625, 1.378906250, -0.482421875, -0.396484375, 1.376953125, -0.105468750, -0.236328125, 1.021484375, 0.152343750, -0.828125000, 1.574218750, -4.369140625, -4.820312500, -0.328125000, 0.042968750, -0.003906250, -1.425781250, -0.669921875, -0.142578125, -3.644531250, -1.779296875, 0.386718750, 0.005859375, -1.722656250, 0.521484375, -4.691406250, -0.005859375, 1.091796875, 0.152343750, 3.869140625, 0.144531250, 1.027343750, -0.023437500, 1.656250000, 2.996093750, 1.880859375, 3.343750000, 1.011718750, 4.775390625, -1.419921875, -4.208984375, -6.556640625, -1.189453125, -0.162109375, 4.201171875, -0.306640625, -0.509765625, -0.511718750, -2.074218750, 2.337890625, -4.832031250, -7.287109375, 0.923828125, -2.937500000, -0.546875000, 3.519531250, 1.388671875, -2.632812500, -1.333984375, 1.994140625, 0.148437500, -3.953125000, 1.380859375, 2.628906250, 1.425781250, 2.460937500, 0.738281250, -2.189453125, -1.353515625, -3.322265625, -1.095703125, 0.033203125, 0.662109375, -1.890625000, -1.261718750, 0.460937500, -4.486328125, 1.191406250, -2.871093750, 2.183593750, -0.216796875, -2.248046875, 1.044921875, -3.539062500, 0.273437500, 0.708984375, 0.740234375, -0.273437500, 1.035156250, -5.152343750, 1.568359375, 1.984375000, 0.105468750, 1.433593750, 0.544921875, -0.896484375, -0.787109375, -3.363281250, -0.912109375, 0.033203125, -0.121093750, -1.304687500, -1.705078125, 0.167968750, -4.984375000, 0.798828125, -2.410156250, 0.578125000, 0.205078125, -0.365234375, 0.207031250, -1.925781250, 1.958984375, -1.101562500, 0.785156250, 0.767578125, 0.564453125, -4.488281250, 1.107421875, 1.273437500, -0.312500000, 0.986328125, 0.253906250, -0.361328125, -0.851562500, -4.074218750, -0.625000000, 0.404296875, -1.324218750, -0.619140625, -1.550781250, 0.609375000, -1.902343750, 0.746093750, -0.091796875, 0.210937500, -0.089843750, -0.546875000, 0.396484375, -1.167968750, 1.322265625, -0.230468750, 0.089843750, 0.636718750, -1.464843750, -2.537109375, 0.640625000, 0.701171875, 0.000000000, 0.619140625, 0.357421875, -0.156250000, -0.750000000, -0.929687500, -0.437500000, 0.589843750, -0.939453125, -0.185546875, -1.296875000, 0.460937500, 0.287109375, 0.437500000, -2.347656250, -0.218750000, 0.208984375, -0.179687500, 0.468750000, -0.613281250, 0.728515625, 0.197265625, -0.248046875, -0.128906250, 0.140625000, -0.107421875, 0.392578125, 0.437500000, -0.185546875, 0.462890625, 0.152343750, -0.251953125, -0.394531250, 0.003906250, -0.333984375, 0.695312500, -0.572265625, 0.150390625, -2.119140625, 0.435546875, 0.318359375, 0.087890625, 0.001953125, -0.462890625, 0.144531250, 0.242187500, 0.392578125, -0.363281250, 0.546875000, 0.523437500, 0.064453125, -0.123046875, 0.199218750, -0.056640625, 0.343750000, 0.408203125, -0.037109375, 0.361328125, 0.220703125, -0.478515625, -0.162109375, 0.253906250, -0.333984375, 0.818359375, -0.574218750, 0.353515625, -2.513671875, 0.318359375, 0.302734375, 0.181640625, 0.509765625, 0.042968750, -0.410156250, 0.343750000, 0.285156250, -0.363281250, -0.011718750, -0.173828125, -0.220703125, 0.103515625, 0.042968750, -0.248046875, 0.552734375, 0.697265625, 0.093750000, 0.484375000, 0.048828125, -0.162109375, -0.232421875, 0.548828125, -0.371093750, 0.628906250, -0.744140625, -0.408203125, -2.542968750, 0.068359375, 0.125000000, 0.236328125, 0.751953125, -0.076171875, 0.326171875, 0.503906250, 0.320312500, -0.667968750, -2.535156250, -0.841796875, 0.214843750, -0.035156250, -1.480468750, -3.103515625, 0.941406250, 1.511718750, -0.058593750, 1.128906250, 0.328125000, -0.093750000, -0.556640625, 2.001953125, -0.560546875, 0.775390625, -0.281250000, -1.250000000, -1.507812500, 0.140625000, 0.107421875, 0.746093750, 1.148437500, -0.406250000, 0.812500000, 0.017578125, 0.287109375, -1.250000000, -4.839843750, -0.707031250, 0.220703125, 0.818359375, -1.974609375, -3.472656250, 1.392578125, 1.937500000, 0.003906250, 0.845703125, -0.156250000, -0.302734375, -1.302734375, 2.494140625, -0.794921875, 1.017578125, -0.089843750, -2.556640625, -1.253906250, 0.648437500, -5.605468750, 1.480468750, 2.263671875, -2.929687500, 0.800781250, -1.226562500, 0.123046875, -2.773437500, -4.550781250, 0.050781250, -0.750000000, 0.880859375, -3.876953125, -2.277343750, 2.289062500, -0.228515625, 1.423828125, 0.343750000, 0.361328125, -1.628906250, -0.519531250, 2.164062500, -0.808593750, 1.029296875, 0.171875000, -4.835937500, 0.033203125, -0.582031250, -6.121093750, 2.623046875, 1.904296875, -0.289062500, 1.330078125, 0.851562500, 0.425781250, -2.330078125, -4.941406250, -0.304687500, 0.996093750, 1.388671875, -2.439453125, -0.072265625, 0.316406250, 6.388671875, -1.781250000, -1.990234375, -1.673828125, 1.779296875, 2.486328125, -3.271484375, 2.152343750, -1.537109375, 2.708984375, -0.394531250, 0.029296875, -2.767578125, -1.335937500, 3.001953125, 1.371093750, 1.968750000, 0.607421875, 3.787109375, 3.496093750, -3.113281250, -3.636718750, -0.304687500, -1.601562500, 1.873046875, 0.224609375, -1.818359375, 1.324218750, 2.796875000, 0.316406250, 1.427734375, 3.388671875, -5.335937500, -4.271484375, -7.171875000, -7.687500000, 0.312500000, 3.240234375, 4.125000000, -1.242187500, -3.457031250, -1.845703125, -0.160156250, -5.380859375, -4.390625000, 1.199218750, -0.583984375, 4.576171875, 1.949218750, 0.130859375, -1.099609375, -2.529296875, 2.050781250, -4.107421875, -4.927734375, -0.126953125, -2.250000000, -0.728515625, 2.394531250, 1.587890625, -1.421875000, -0.253906250, -0.720703125, -1.251953125, -0.312500000, -0.406250000, -3.599609375, 0.724609375, 1.283203125, -9.093750000, 0.802734375, -1.298828125, -0.164062500, -0.083984375, -1.292968750, 0.595703125, -3.056640625, 0.406250000, -0.947265625, 0.976562500, 0.433593750, 1.037109375, -2.939453125, 1.613281250, 1.570312500, -0.755859375, 1.435546875, 0.167968750, -0.355468750, -0.394531250, -3.636718750, -0.724609375, 0.603515625, -0.451171875, -1.505859375, -1.296875000, 0.171875000, -6.324218750, 0.828125000, -2.783203125, 0.425781250, 0.507812500, -0.757812500, 0.316406250, -1.662109375, 1.501953125, -0.876953125, -0.048828125, 1.246093750, 0.027343750, -3.433593750, 1.013671875, 0.996093750, -0.404296875, 0.779296875, 0.441406250, 0.505859375, -0.644531250, -4.234375000, -0.451171875, 0.835937500, -0.849609375, -0.486328125, -1.298828125, -0.058593750, -0.373046875, 0.517578125, -0.808593750, 0.529296875, 0.203125000, -0.132812500, 0.324218750, -0.906250000, 0.843750000, -0.738281250, -0.113281250, 1.003906250, 0.064453125, -0.107421875, 0.380859375, 0.439453125, 0.326171875, 0.443359375, 0.076171875, 0.216796875, -0.257812500, -1.308593750, -0.335937500, 0.710937500, -0.541015625, -0.390625000, -1.304687500, 0.224609375, 0.222656250, 0.054687500, -0.369140625, 0.183593750, -0.333984375, 0.291015625, 0.351562500, -0.328125000, 0.041015625, 0.417968750, 0.080078125, 0.109375000, 0.021484375, -0.023437500, 0.173828125, 0.029296875, 0.027343750, -0.050781250, 0.029296875, 0.144531250, 0.148437500, -0.023437500, -0.208984375, -0.085937500, -0.277343750, 0.189453125, -0.060546875, -0.246093750, 0.076171875, -3.220703125, -0.074218750, -0.238281250, 0.207031250, 0.142578125, 0.279296875, -0.156250000, -0.031250000, 0.113281250, 0.164062500, -0.027343750, 0.310546875, 0.011718750, -0.113281250, -0.007812500, -0.496093750, 0.210937500, 0.019531250, 0.056640625, 0.169921875, -0.009765625, -0.205078125, -0.050781250, -0.234375000, 0.425781250, 0.029296875, 0.271484375, 0.064453125, -0.085937500, 0.142578125, 0.185546875, 0.035156250, 0.007812500, 0.250000000, -0.050781250, 0.015625000, -0.117187500, -0.314453125, 0.134765625, -0.052734375, -0.037109375, 0.341796875, 0.115234375, 0.208984375, 0.386718750, 0.027343750, 0.376953125, 0.296875000, 0.013671875, -0.333984375, 0.267578125, -0.474609375, -0.335937500, -1.824218750, 0.207031250, 0.250000000, 0.160156250, 0.562500000, 0.033203125, 0.099609375, 0.076171875, 0.263671875, -0.158203125, -1.255859375, -0.630859375, 0.322265625, 0.583984375, -0.156250000, -0.005859375, 0.757812500, 0.347656250, 0.132812500, 1.150390625, -1.013671875, 0.976562500, -0.472656250, 0.697265625, -0.410156250, 0.281250000, -0.548828125, -2.054687500, -1.109375000, 0.976562500, 0.357421875, 0.162109375, 1.304687500, -5.865234375, 0.976562500, -0.408203125, 0.146484375, -0.365234375, -4.306640625, -0.125000000, -0.070312500, 1.277343750, -4.666015625, -0.173828125, 0.826171875, -0.158203125, -2.910156250, 2.091796875, -0.078125000, 0.500000000, -1.300781250, 2.351562500, -0.414062500, 0.843750000, -0.167968750, -3.031250000, -1.628906250, 2.193359375, -5.951171875, -0.058593750, 2.320312500, -5.634765625, 0.736328125, -1.691406250, 0.093750000, -1.673828125, -4.324218750, -0.269531250, -0.083984375, 2.101562500, -3.736328125, -3.464843750, 2.244140625, 0.419921875, -3.457031250, 2.650390625, 0.357421875, -0.132812500, -1.720703125, 2.068359375, -0.439453125, 1.080078125, -0.556640625, -3.691406250, 0.058593750, 3.904296875, -4.455078125, 1.873046875, -0.103515625, -0.796875000, 1.341796875, -0.962890625, 0.470703125, -1.189453125, -5.705078125, 0.732421875, -1.207031250, 1.685546875, 0.630859375, -0.275390625, 0.406250000, 1.177734375, -1.326171875, 1.525390625, 2.662109375, 3.544921875, -1.406250000, -3.871093750, -6.574218750, -1.226562500, 2.691406250, 0.207031250, -1.480468750, -0.994140625, 0.037109375, 1.615234375, -1.498046875, -4.365234375, 0.152343750, 2.101562500, -0.101562500, -0.431640625, -0.802734375, -2.078125000, -2.615234375, 3.603515625, 1.263671875, -0.076171875, 0.201171875, 0.068359375, 0.152343750, -0.046875000, -0.009765625, -0.117187500, -0.023437500, 0.025390625, 0.046875000, -0.121093750, -0.115234375, 0.039062500, -0.027343750, 0.033203125, -0.121093750, 0.015625000, 0.005859375, -0.150390625, -0.126953125, -0.164062500, 0.005859375, -0.029296875, 0.074218750, -0.109375000, 0.050781250, 0.164062500, -0.068359375, -4.654296875, 2.242187500, 1.679687500, -1.000000000, 2.400390625, 0.412109375, -1.162109375, -0.664062500, -6.937500000, -0.865234375, 0.000000000, -0.927734375, 0.314453125, -0.312500000, 0.271484375, -5.326171875, 1.666015625, -0.138671875, 1.697265625, 1.435546875, -1.886718750, 0.429687500, -2.203125000, -0.150390625, -2.818359375, 1.435546875, 1.421875000, 2.146484375, -4.193359375, 1.558593750, 1.697265625, -2.078125000, 1.273437500, 0.544921875, -0.257812500, -0.025390625, -3.609375000, -0.369140625, -0.763671875, -1.199218750, -0.587890625, -0.291015625, 0.355468750, -4.855468750, 0.945312500, -3.464843750, 1.097656250, 0.179687500, -1.734375000, 0.382812500, -0.373046875, 0.048828125, -2.492187500, 1.474609375, 0.623046875, 2.507812500, -0.337890625, 0.974609375, 0.847656250, 0.564453125, 0.359375000, -1.837890625, 1.183593750, -0.222656250, -3.441406250, -0.312500000, 0.449218750, 0.031250000, -0.990234375, -1.763671875, 0.482421875, -3.582031250, 0.582031250, 0.585937500, 0.634765625, 0.910156250, -0.513671875, 0.296875000, -1.279296875, 0.103515625, -1.384765625, 0.396484375, 0.203125000, -0.111328125, 0.033203125, 0.189453125, 0.408203125, 0.572265625, 0.203125000, -3.177734375, 0.642578125, -0.017578125, -0.462890625, -0.324218750, 0.876953125, -0.128906250, -0.851562500, -0.902343750, 0.023437500, 0.017578125, 0.154296875, 0.089843750, 0.289062500, 0.187500000, 0.119140625, 0.298828125, -0.205078125, -0.029296875, 0.529296875, -0.302734375, 0.146484375, -0.529296875, 0.025390625, -0.015625000, 0.009765625, 0.375000000, -0.093750000, -7.910156250, 0.144531250, 0.351562500, 0.109375000, -0.166015625, 0.011718750, 0.058593750, 0.015625000, 0.339843750, 0.085937500, -0.099609375, -0.056640625, 0.009765625, -0.011718750, -0.189453125, -0.125000000, 0.236328125, 0.011718750, -0.035156250, 0.458984375, 0.341796875, 0.064453125, -0.009765625, -0.019531250, -0.013671875, 0.011718750, 0.179687500, -0.033203125, -0.896484375, 0.214843750, 0.210937500, -0.093750000, -0.296875000, -0.005859375, 0.052734375, 0.335937500, 0.324218750, 0.488281250, -0.097656250, -0.023437500, 0.015625000, -0.080078125, -0.156250000, -8.035156250, 0.222656250, 0.025390625, 0.019531250, 0.087890625, -0.316406250, -0.187500000, 0.117187500, -0.017578125, 0.224609375, 0.140625000, 0.443359375, 0.091796875, -1.935546875, -0.042968750, 0.207031250, -0.111328125, -1.292968750, 0.195312500, -0.144531250, -1.128906250, -0.248046875, -0.035156250, 0.300781250, 0.091796875, 0.296875000, -0.273437500, 0.191406250, -0.177734375, 0.378906250, -0.095703125, -1.302734375, -0.457031250, 0.486328125, -0.562500000, 0.056640625, 0.259765625, 0.195312500, 0.724609375, 0.873046875, 1.302734375, -1.429687500, 0.406250000, -1.292968750, 0.835937500, -4.830078125, 0.716796875, 0.011718750, -1.435546875, -1.203125000, 1.476562500, 0.046875000, 0.750000000, 0.968750000, -1.648437500, -0.228515625, 0.404296875, 0.353515625, -0.441406250, -3.712890625, -0.808593750, 1.017578125, -0.937500000, -1.134765625, 0.646484375, 1.052734375, 1.615234375, -0.486328125, 1.765625000, 0.330078125, 0.412109375, -1.544921875, 1.890625000, -5.486328125, 0.843750000, 0.458984375, -1.394531250, 0.523437500, 3.167968750, -3.082031250, 1.433593750, 2.468750000, -5.451171875, 1.660156250, -2.765625000, 0.476562500, -0.384765625, -5.660156250, 0.806640625, -0.550781250, 0.259765625, -0.173828125, 0.015625000, 1.537109375, 1.210937500, 0.201171875, 3.253906250, -3.880859375, -1.849609375, 0.242187500, 1.365234375, -4.533203125, 2.083984375, 0.642578125, -1.435546875, 0.417968750, 4.097656250, -5.634765625, 4.275390625, 2.353515625, -3.275390625, 0.222656250, -2.576171875, 0.318359375, -1.402343750, -2.003906250, 0.664062500, 0.060546875, 1.056640625, 0.080078125, 0.000000000, -0.011718750, 0.171875000, -0.199218750, -0.179687500, -0.318359375, -0.513671875, -3.730468750, -0.193359375, -1.099609375, 3.802734375, 3.132812500, -1.185546875, -0.154296875, 3.363281250, -0.048828125, 1.498046875, 0.017578125, 0.718750000, 3.380859375, -2.478515625, -0.033203125, 2.871093750, -3.277343750, -0.626953125, 0.316406250, 3.136718750, 1.259765625, 0.253906250, -2.658203125, 1.748046875, 0.968750000, -2.730468750, -1.974609375, 0.123046875, -0.150390625, -1.158203125, -0.078125000, 2.755859375, 0.226562500, 0.095703125, -0.007812500, 2.781250000, -0.015625000, -2.205078125, 0.183593750, -0.111328125, 2.669921875, -0.429687500, -3.484375000, -0.011718750, 0.111328125, -2.580078125, 2.707031250, 2.224609375, 2.617187500, -3.900390625, 0.205078125, 3.099609375, 1.617187500, 1.955078125, 0.248046875, -0.740234375, -1.080078125, -4.414062500, -1.919921875, -0.507812500, -2.013671875, 0.082031250, -0.693359375, -0.552734375, -5.996093750, 1.326171875, -0.998046875, 0.251953125, 0.816406250, -5.791015625, -0.130859375, -1.265625000, 1.365234375, -1.197265625, 5.707031250, 0.566406250, 2.273437500, -0.486328125, 2.455078125, 2.001953125, -2.404296875, 0.126953125, -0.259765625, 0.193359375, -0.804687500, -5.511718750, -0.125000000, 0.207031250, -0.003906250, -1.570312500, 0.404296875, -0.648437500, -10.171875000, 1.308593750, 0.654296875, 0.847656250, 1.328125000, 0.011718750, 0.931640625, -0.171875000, 0.412109375, -2.556640625, 0.892578125, -1.880859375, 3.453125000, 0.000000000, 1.462890625, 1.064453125, -0.857421875, 0.246093750, -4.730468750, -0.208984375, -0.457031250, -3.031250000, -4.117187500, 0.832031250, 0.445312500, -0.068359375, 0.378906250, 0.224609375, -5.119140625, 0.972656250, -0.556640625, 0.208984375, 0.341796875, -3.257812500, 0.562500000, -0.857421875, 0.687500000, -1.388671875, -0.228515625, -1.304687500, 2.529296875, 0.232421875, 0.498046875, 0.697265625, -2.429687500, 0.115234375, -0.347656250, -0.451171875, 0.580078125, -0.126953125, -3.109375000, 0.310546875, 0.121093750, -1.271484375, -0.406250000, 0.046875000, -0.376953125, 0.492187500, 0.111328125, 0.667968750, 0.128906250, -0.701171875, 0.421875000, -0.455078125, -0.591796875, -1.720703125, 1.564453125, -0.363281250, 0.408203125, 0.246093750, 0.126953125, -0.009765625, 0.193359375, 0.382812500, -3.861328125, 0.388671875, 0.171875000, 0.095703125, -4.216796875, -0.058593750, 0.009765625, -1.478515625, -0.130859375, 0.001953125, 0.283203125, 0.099609375, 0.105468750, 0.271484375, 0.539062500, 0.013671875, 0.369140625, 0.013671875, 0.019531250, -1.009765625, 0.984375000, 0.121093750, -0.568359375, 0.191406250, -0.054687500, 0.267578125, -0.033203125, 0.113281250, -0.089843750, 0.042968750, 0.236328125, -0.099609375, -3.154296875, 0.373046875, -0.097656250, -0.863281250, 0.509765625, -0.531250000, 0.103515625, -0.078125000, 0.015625000, 0.132812500, -0.150390625, -0.335937500, 0.396484375, -0.029296875, 0.230468750, -0.949218750, 0.966796875, -0.187500000, -0.357421875, 0.056640625, -0.062500000, 0.599609375, -1.171875000, 0.869140625, -0.189453125, 1.105468750, -0.701171875, 0.296875000, -1.722656250, 0.822265625, 0.056640625, -0.925781250, -0.005859375, 1.402343750, -0.019531250, 0.123046875, -1.468750000, -2.691406250, -0.265625000, 0.017578125, 0.376953125, -0.093750000, -0.404296875, -2.164062500, 0.425781250, -0.298828125, 0.250000000, 0.208984375, 0.314453125, 0.890625000, -0.160156250, 0.982421875, -1.583984375, 0.101562500, -0.564453125, 0.771484375, -0.394531250, 1.000000000, 0.455078125, -1.775390625, 0.343750000, 0.195312500, 0.242187500, 3.587890625, 0.673828125, -4.570312500, -0.080078125, 0.085937500, 0.322265625, -0.572265625, -6.285156250, 0.765625000, 0.925781250, -0.791015625, 0.515625000, 0.003906250, 0.460937500, 2.029296875, -1.414062500, 2.027343750, -1.441406250, -0.359375000, -0.009765625, 1.310546875, -2.878906250, 0.634765625, -0.183593750, -3.048828125, 1.205078125, 2.148437500, 0.400390625, 7.041015625, -5.701171875, -4.005859375, 0.382812500, 0.201171875, 0.062500000, 0.750000000, -5.490234375, -0.271484375, -1.044921875, 1.177734375, -0.613281250, 1.650390625, 1.908203125, 0.755859375, 3.064453125, 2.763671875, 0.310546875, 0.839843750, -2.322265625, 1.802734375, 1.167968750, 0.154296875, -0.035156250, 0.320312500, -4.335937500, 1.017578125, -4.390625000, 6.029296875, 0.207031250, 0.669921875, -0.355468750, -2.564453125, -0.884765625, -0.947265625, -6.048828125, 0.054687500, 0.544921875, 1.433593750, -2.800781250, 0.175781250, 0.140625000, 0.126953125, 0.046875000, 0.128906250, 0.242187500, -0.134765625, 0.234375000, 0.027343750, 0.050781250, 0.046875000, -0.162109375, -0.013671875, -0.222656250, 0.080078125, -0.132812500, -0.224609375, 0.087890625, 0.236328125, -0.085937500, 0.064453125, -0.064453125, 0.142578125, -0.158203125, -0.074218750, 0.183593750, 0.246093750, 0.021484375, 0.046875000, -0.041015625, -0.119140625, 0.031250000, -0.054687500, 0.263671875, -0.025390625, -0.138671875, -0.076171875, 0.015625000, -0.113281250, -0.199218750, 0.025390625, -0.082031250, -0.056640625, -0.222656250, -0.111328125, -0.152343750, 0.070312500, -0.056640625, 0.025390625, 0.144531250, -0.169921875, 0.035156250, -0.007812500, -0.185546875, 0.048828125, -0.095703125, -0.025390625, 2.070312500, 1.343750000, -0.220703125, 3.248046875, 3.732421875, -1.613281250, -1.345703125, -6.437500000, 2.267578125, 2.974609375, -1.576171875, -0.294921875, 0.125000000, 0.568359375, 0.490234375, 2.046875000, -0.158203125, 1.386718750, 1.333984375, 2.427734375, 0.871093750, -0.066406250, 2.064453125, -3.458984375, 3.453125000, 0.726562500, -5.539062500, 0.166015625, 1.392578125, 1.751953125, 2.261718750, 0.841796875, -1.429687500, 0.281250000, -0.029296875, -0.505859375, 0.265625000, 1.281250000, -1.212890625, 0.298828125, 0.291015625, 0.105468750, -0.982421875, 1.617187500, -0.802734375, 1.142578125, 0.429687500, -1.816406250, 0.113281250, -0.582031250, 0.771484375, -0.412109375, 0.742187500, 0.064453125, -0.947265625, -0.228515625, 0.640625000, 1.519531250, -2.960937500, 0.375000000, 0.302734375, -0.558593750, 0.025390625, 0.443359375, -1.398437500, -1.449218750, 0.257812500, 1.193359375, 0.001953125, 0.759765625, -9.521484375, 1.369140625, 0.013671875, 0.958984375, 0.277343750, -1.695312500, -0.117187500, -0.791015625, 0.390625000, -3.074218750, 0.263671875, -0.906250000, 2.082031250, 0.550781250, 0.917968750, 1.099609375, -6.021484375, 0.335937500, -0.755859375, -0.542968750, 1.123046875, -0.671875000, -1.894531250, 0.445312500, -0.533203125, -0.197265625, -0.865234375, 0.496093750, -3.619140625, 0.828125000, -0.279296875, -0.255859375, 0.671875000, -2.833984375, 0.214843750, -0.841796875, -0.261718750, -4.029296875, 0.878906250, -0.625000000, 0.708984375, 0.683593750, 1.128906250, 0.648437500, 0.322265625, 0.275390625, 0.562500000, 0.474609375, -0.191406250, 0.023437500, -0.185546875, 0.380859375, 0.238281250, -1.833984375, -0.818359375, -0.726562500, -0.025390625, 0.224609375, 0.566406250, -0.042968750, 0.470703125, -0.714843750, -0.357421875, -0.556640625, -2.972656250, -1.121093750, 0.457031250, -0.087890625, 0.681640625, 0.279296875, -0.529296875, 0.826171875, -0.367187500, 1.029296875, -0.714843750, -0.062500000, -1.062500000, 0.162109375, -1.669921875, 0.927734375, 0.230468750, -1.451171875, 0.355468750, -0.033203125, 0.103515625, 0.869140625, -0.986328125, 1.726562500, -0.429687500, 1.236328125, 0.142578125, -0.289062500, -3.750000000, -0.736328125, -0.380859375, -0.187500000, 0.208984375, 0.806640625, 0.466796875, 1.058593750, -0.027343750, 0.744140625, -1.509765625, -0.154296875, -0.912109375, 1.119140625, -1.226562500, 0.996093750, -0.121093750, -1.333984375, 0.300781250, -0.105468750, -0.539062500, 2.552734375, -0.390625000, 0.160156250, -0.289062500, -0.005859375, 0.060546875, 0.044921875, -5.345703125, -0.468750000, -1.580078125, -0.113281250, -0.830078125, -0.539062500, 1.363281250, 1.222656250, -1.363281250, 1.734375000, -0.939453125, -0.419921875, -0.779296875, 1.412109375, -2.544921875, 0.126953125, 0.148437500, -1.544921875, 0.419921875, 0.333984375, 1.011718750, 3.765625000, 0.800781250, -1.357421875, 1.416015625, -0.683593750, 0.064453125, -0.582031250, -6.992187500, -0.595703125, -0.392578125, -1.554687500, 1.046875000, 0.734375000, 0.605468750, 2.576171875, 0.228515625, 1.542968750, -0.015625000, -0.761718750, 0.429687500, 0.345703125, 1.640625000, 1.453125000, -0.884765625, -1.289062500, 0.160156250, 3.179687500, -0.402343750, 6.355468750, 3.140625000, -5.835937500, 0.134765625, 0.822265625, -0.792968750, 0.156250000, -7.339843750, 0.287109375, -0.941406250, 0.583984375, -0.287109375, 0.759765625, 0.679687500, 3.126953125, -0.869140625, -5.384765625, -5.052734375, 0.687500000, -1.605468750, -1.150390625, -2.685546875, -1.476562500, 0.029296875, -0.158203125, -1.539062500, 3.814453125, 1.091796875, 1.181640625, 3.632812500, 1.666015625, 0.208984375, 1.355468750, -0.294921875, -0.117187500, -0.376953125, -0.882812500, 1.492187500, 1.162109375, -0.175781250, 0.072265625, 0.064453125, 0.255859375, -0.050781250, -0.117187500, -0.126953125, -0.082031250, -0.175781250, 0.181640625, 0.007812500, 0.248046875, -0.033203125, 0.068359375, -0.224609375, 0.160156250, 0.027343750, 0.062500000, -0.140625000, 0.093750000, 0.011718750, 0.246093750, -0.156250000, 0.144531250, -0.037109375, 0.013671875, -0.052734375, -0.093750000, 0.152343750, -0.074218750, -0.082031250, 0.228515625, -0.019531250, 0.113281250, -0.158203125, 0.050781250, -0.017578125, -0.113281250, 0.039062500, -0.097656250, 0.148437500, 0.029296875, -0.144531250, 0.228515625, -0.044921875, -0.107421875, 0.080078125, 0.070312500, 0.066406250, -0.093750000, -0.027343750, -0.001953125, -0.113281250, 0.013671875, -0.150390625, 0.199218750, 0.042968750, -0.082031250, 0.064453125, -0.162109375, 0.089843750, -0.011718750, -0.078125000, -0.125000000, -0.119140625, -0.031250000, -0.044921875, 0.011718750, -0.037109375, 0.216796875, -0.060546875, -0.060546875, 0.025390625, 0.189453125, 0.062500000, -0.027343750, -0.134765625, -0.109375000, -0.074218750, 0.117187500, 0.152343750, -0.056640625, 0.015625000, 0.058593750, 0.048828125, -1.044921875, 3.974609375, 1.318359375, 2.482421875, 2.085937500, -4.925781250, -0.769531250, -2.445312500, 4.734375000, 0.632812500, 0.050781250, 0.796875000, 0.662109375, -0.162109375, 0.792968750, -1.474609375, 3.435546875, -4.326171875, 1.611328125, 1.273437500, -2.162109375, -0.062500000, -2.332031250, -0.054687500, -4.212890625, 5.074218750, 1.982421875, -1.449218750, -0.652343750, 2.498046875, 2.898437500, 1.914062500, 1.269531250, -0.820312500, -0.072265625, 0.578125000, -0.921875000, 0.433593750, 0.998046875, 0.255859375, -1.162109375, 1.701171875, 1.283203125, -3.957031250, 1.720703125, 0.910156250, -0.533203125, -0.398437500, -1.214843750, 0.220703125, -0.779296875, 1.248046875, -0.849609375, -0.121093750, 0.123046875, 2.457031250, 0.289062500, 1.578125000, 1.888671875, 0.191406250, 0.119140625, -0.150390625, 0.302734375, 0.792968750, -4.039062500, -0.218750000, 1.714843750, -1.115234375, -0.648437500, 0.587890625, 0.164062500, -4.050781250, 1.888671875, -2.121093750, -0.943359375, 0.074218750, -3.107421875, -0.732421875, -1.564453125, -0.111328125, -2.089843750, 1.996093750, 0.259765625, 0.359375000, 0.685546875, 1.798828125, 1.644531250, -1.289062500, 0.558593750, -2.052734375, 0.576171875, -0.412109375, -1.242187500, -0.607421875, -0.351562500, -0.880859375, -1.404296875, -0.716796875, 0.767578125, 0.236328125, 1.083984375, 0.138671875, -0.396484375, -0.107421875, -0.666015625, -0.980468750, -0.023437500, -2.638671875, -1.001953125, -0.750000000, -0.017578125, 0.675781250, 0.060546875, 0.748046875, 1.462890625, -1.111328125, 0.769531250, -5.523437500, 0.230468750, -0.882812500, 1.166015625, 0.539062500, 0.929687500, -0.533203125, -0.238281250, -0.060546875, -1.177734375, -0.388671875, 0.583984375, 2.410156250, 2.474609375, 0.332031250, 0.505859375, 0.220703125, -0.900390625, -1.730468750, -2.617187500, 1.705078125, -0.494140625, -0.523437500, 0.718750000, 0.287109375, 1.240234375, -0.310546875, 2.078125000, 0.162109375, 0.347656250, -0.724609375, 1.759765625, 0.250000000, 1.705078125, 0.636718750, 0.988281250, 0.359375000, 2.779296875, -1.740234375, 7.355468750, -0.802734375, -2.298828125, -0.058593750, -0.414062500, -0.460937500, -0.341796875, -4.890625000, -1.140625000, -0.140625000, 0.962890625, -0.337890625, 0.638671875, -0.361328125, 2.013671875, 2.550781250, 2.777343750, -1.238281250, 1.078125000, 1.400390625, -1.208984375, 0.345703125, 3.050781250, -0.433593750, -0.732421875, 0.240234375, 1.988281250, -2.224609375, -3.031250000, 0.628906250, -3.332031250, -1.064453125, -2.107421875, 0.050781250, -0.240234375, -1.601562500, -0.052734375, 0.326171875, -0.748046875, 0.361328125, 1.074218750, 1.873046875, 0.652343750, -0.033203125, -1.001953125, 0.792968750, 0.861328125, -0.853515625, 0.271484375, -3.054687500, -3.779296875, 0.958984375, 1.851562500, -1.111328125, -0.332031250, 0.841796875, -4.013671875, -4.062500000, -4.343750000, 0.322265625, -0.843750000, -0.974609375, -0.863281250, -3.896484375, -0.966796875, 0.099609375, 1.324218750, 1.859375000, -0.246093750, 0.068359375, -0.191406250, -0.101562500, -0.199218750, -0.261718750, 0.095703125, -0.095703125, 0.019531250, 0.216796875, 0.173828125, -0.056640625, 0.214843750, -0.117187500, -0.062500000, 0.128906250, -0.257812500, 0.011718750, -0.113281250, -0.031250000, 0.138671875, 0.164062500, -0.013671875, 0.248046875, 0.164062500, -0.011718750, 0.037109375, 0.025390625, 0.164062500, -0.148437500, 0.025390625, -0.009765625, -0.058593750, 0.158203125, 0.250000000, -0.113281250, 0.224609375, -0.208984375, 0.000000000, 0.238281250, 0.255859375, -0.060546875, -0.109375000, 0.039062500, 0.164062500, 0.169921875, 0.017578125, -0.109375000, 0.099609375, -0.248046875, -0.074218750, -0.078125000, -0.210937500, 0.138671875, 0.035156250, 0.156250000, 0.015625000, 0.089843750, 0.103515625, 0.097656250, -0.185546875, -0.089843750, -0.041015625, 0.009765625, -0.169921875, 0.025390625, -0.103515625, 0.121093750, 0.048828125, -0.089843750, -0.035156250, -0.001953125, -0.164062500, 0.093750000, 0.017578125, -0.148437500, -0.027343750, -0.013671875, -0.013671875, 0.154296875, 0.087890625, -0.031250000, 0.052734375, -0.138671875, 0.171875000, -0.097656250, 0.177734375, -0.052734375, 0.095703125, 0.029296875, -0.009765625, 0.054687500, -0.052734375, 0.021484375, 0.052734375, -0.189453125, -0.031250000, -0.080078125, -0.039062500, -0.115234375, -0.046875000, -0.140625000, -0.199218750, 0.218750000, 0.162109375, 0.031250000, -0.158203125, -0.101562500, -0.203125000, 0.087890625, 0.083984375, -0.132812500, -0.146484375, 0.087890625, -0.193359375, 0.035156250, -0.146484375, -0.134765625, 0.076171875, -0.097656250, -0.097656250, -0.015625000, -0.095703125, 0.111328125, 0.025390625, 0.021484375, -0.058593750, -0.019531250, 0.046875000, -0.078125000, 0.228515625, -0.001953125, -0.005859375, 0.103515625, 0.099609375, -0.050781250, 0.050781250, 0.005859375, -0.263671875, -0.169921875, 1.726562500, 3.744140625, 4.531250000, -2.554687500, 1.416015625, 1.683593750, 0.968750000, -2.265625000, -1.482421875, 3.457031250, 1.410156250, 0.531250000, -0.150390625, 0.044921875, 1.455078125, -6.302734375, 1.849609375, -2.210937500, -0.498046875, 0.023437500, -2.095703125, -1.412109375, 1.296875000, -4.527343750, -2.517578125, 3.000000000, -0.775390625, 2.140625000, 2.732421875, -2.488281250, 2.455078125, -6.710937500, 2.777343750, -3.869140625, 0.011718750, -1.242187500, -6.197265625, -0.320312500, 3.238281250, 0.470703125, 0.132812500, -2.738281250, -0.449218750, 0.730468750, 6.763671875, -3.804687500, -2.166015625, 0.166015625, -1.833984375, 0.201171875, -0.974609375, 3.261718750, -0.962890625, 3.330078125, -0.019531250, 1.160156250, 2.542968750, 2.201171875, 1.191406250, -1.949218750, 2.328125000, -3.660156250, 0.312500000, -0.578125000, -2.316406250, -1.484375000, 2.087890625, 0.109375000, -0.017578125, -3.527343750, 1.371093750, -4.369140625, -2.400390625, 1.375000000, -1.230468750, -0.505859375, -3.640625000, -0.960937500, -1.382812500, 0.904296875, -2.082031250, -1.937500000, 0.429687500, 2.031250000, 0.142578125, 0.519531250, 1.865234375, -6.072265625, 2.943359375, -1.003906250, 0.498046875, 1.062500000, 0.251953125, -4.408203125, -1.466796875, -0.464843750, -0.560546875, 0.554687500, 3.531250000, -1.648437500, 2.843750000, 1.353515625, -1.630859375, 0.179687500, -2.937500000, 0.041015625, -1.367187500, -1.384765625, 0.111328125, -0.130859375, 1.242187500, 1.003906250, 1.078125000, 1.175781250, -1.150390625, -1.015625000, 2.847656250, -1.580078125, 0.435546875, -0.402343750, 1.193359375, -0.556640625, -2.800781250, -0.246093750, 0.015625000, -0.980468750, -0.677734375, -1.224609375, -1.343750000, -3.488281250, 2.847656250, 0.828125000, -0.748046875, -1.253906250, -0.925781250, -3.611328125, 0.078125000, 0.710937500, 2.390625000, 1.251953125, 1.277343750, 0.798828125, 2.673828125, 0.195312500, 2.417968750, -2.492187500, -0.335937500, -0.410156250, -1.486328125, -0.269531250, 0.343750000, 1.214843750, -1.902343750, -1.576171875, 3.212890625, -2.162109375, 6.345703125, 2.035156250, -1.333984375, 0.638671875, 1.269531250, 0.234375000, -0.332031250, -3.847656250, -2.404296875, 2.871093750, 0.150390625, 1.953125000, 0.173828125, -0.042968750, -0.095703125, -0.011718750, -0.015625000, 0.101562500, -0.035156250, -0.017578125, -0.041015625, 0.064453125, 0.105468750, 0.085937500, -0.044921875, -0.062500000, 0.050781250, -0.109375000, 0.146484375, 0.001953125, -0.203125000, -0.039062500, -0.111328125, -0.080078125, -0.148437500, -0.193359375, -0.197265625, -0.005859375, -0.080078125, -0.099609375, 0.001953125, -0.126953125, 0.089843750, 0.007812500, -0.171875000, -0.009765625, -0.041015625, 0.050781250, -0.121093750, -0.240234375, 0.060546875, -0.093750000, -0.011718750, -0.037109375, 0.107421875, 0.234375000, -0.113281250, -0.031250000, -0.023437500, -0.117187500, 0.078125000, 0.042968750, 0.156250000, 0.185546875, 0.042968750, 0.000000000, -0.023437500, 0.074218750, 0.080078125, 0.228515625, -0.201171875, -0.228515625, 0.169921875, 0.240234375, -0.082031250, 0.009765625, -0.091796875, 0.177734375, 0.064453125, -0.017578125, -0.056640625, 0.078125000, 0.123046875, 0.035156250, 0.160156250, -0.037109375, -0.056640625, 0.156250000, 0.087890625, -0.046875000, -0.107421875, 0.000000000, -0.154296875, -0.099609375, 0.087890625, -0.003906250, -0.041015625, 0.052734375, 0.091796875, -0.001953125, 0.033203125, 0.009765625, 0.082031250, -0.097656250, -0.044921875, 0.103515625, 0.035156250, 0.074218750, -0.083984375, -0.152343750, 0.027343750, 0.003906250, -0.142578125, -0.054687500, 0.005859375, 0.183593750, -0.220703125, 0.210937500, -0.005859375, -0.175781250, 0.015625000, 0.126953125, 0.076171875, 0.080078125, -0.021484375, 0.166015625, -0.179687500, -0.046875000, -0.001953125, -0.013671875, -0.154296875, -0.058593750, -0.230468750, -0.101562500, -0.232421875, 0.060546875, 0.205078125, -0.125000000, -0.072265625, 0.085937500, -0.087890625, 0.089843750, 0.003906250, 0.115234375, 0.091796875, -0.148437500, -0.005859375, -0.060546875, -0.138671875, 0.050781250, -0.054687500, -0.052734375, -0.093750000, 0.044921875, -0.123046875, -0.240234375, 0.126953125, 0.031250000, -0.160156250, -0.056640625, -0.054687500, -0.074218750, -0.109375000, 0.076171875, 0.080078125, -0.126953125, -0.070312500, -0.156250000, 0.191406250, -0.164062500, -0.013671875, -0.074218750, 0.173828125, 0.052734375, -0.072265625, -0.062500000, 0.154296875, -0.021484375, -0.041015625, 0.013671875, 0.019531250, -0.123046875, -0.148437500, 0.015625000, -0.031250000, -0.111328125, -0.222656250, -0.013671875, 0.070312500, 0.025390625, 0.062500000, -0.085937500, -0.191406250, -0.230468750, 0.210937500, 0.248046875, 0.095703125, 0.140625000, -0.052734375, -0.019531250, -0.123046875, -0.044921875, -0.228515625, 0.177734375, 0.093750000, -0.023437500, -0.046875000, 0.060546875, 0.246093750, -0.080078125, -0.087890625, 0.000000000, -0.068359375, -0.068359375, -0.017578125, -0.029296875, 0.015625000, 0.216796875, -0.144531250, -0.005859375, -0.097656250, 0.103515625, 0.164062500, -0.111328125, -0.115234375, -0.044921875, -0.027343750, 0.095703125, -0.082031250, -0.064453125, -0.087890625, -0.142578125, -0.134765625, 0.078125000, 0.029296875, 0.097656250, 0.113281250, 0.076171875, 0.056640625, -0.009765625, 0.080078125, -0.072265625, 0.152343750, -0.074218750, -0.039062500, 0.091796875, 0.023437500, 0.095703125, 0.085937500, -0.097656250, 0.099609375, 0.089843750, 0.087890625, 0.101562500, 0.080078125, -0.087890625, -0.115234375, 0.105468750, -0.095703125, 0.189453125, 0.029296875, 0.087890625, -0.097656250, -0.054687500, 0.123046875, -0.015625000, -0.068359375, 0.005859375, 0.089843750, -0.107421875, -0.027343750, -0.093750000, -0.210937500, -0.060546875, -0.125000000, -0.058593750, 0.050781250, 0.130859375, 0.214843750, 0.054687500, 0.154296875, 0.064453125, 0.066406250, -0.039062500, -0.062500000, -0.078125000, 0.054687500, 0.212890625, 0.089843750, -0.085937500, -0.009765625, 0.054687500, 0.166015625, 0.011718750, 0.023437500, -0.214843750, -0.066406250, 0.033203125, 0.132812500, -0.146484375, 0.191406250, 0.029296875, -0.019531250, 0.062500000, 0.113281250, -0.105468750, -0.087890625, -0.015625000, 0.138671875, -0.023437500, -0.001953125, -0.140625000, -0.152343750, 0.007812500, -0.037109375, 0.115234375, 0.033203125, -0.093750000, 0.162109375, 0.066406250, 0.054687500, 0.244140625, -0.150390625, -0.136718750, 0.085937500, 0.218750000, 0.021484375, -0.021484375, -0.111328125, -0.152343750, 0.130859375, -0.046875000, 0.029296875, -0.228515625, 0.101562500, 0.007812500, -0.050781250, -0.236328125, -0.017578125, 0.228515625, -0.023437500, 0.134765625, -0.156250000, 0.070312500, -0.255859375, -0.087890625, 0.185546875, 0.095703125, -0.017578125, 0.218750000, -0.023437500, -0.027343750, 0.187500000, -0.048828125, 0.060546875, -0.087890625, -0.060546875, -0.103515625, 0.242187500, 0.070312500, 0.031250000, -0.128906250, 0.125000000, -0.201171875, -0.041015625, -0.183593750, -0.011718750, -0.087890625, -0.156250000, -0.048828125, -0.037109375, -0.083984375, -0.087890625, 0.244140625, -0.015625000, 0.035156250, -0.125000000, 0.089843750, -0.027343750, 0.109375000, 0.003906250, -0.087890625, 0.146484375, -0.068359375, 0.144531250, -0.056640625, -0.013671875, 0.007812500, 0.177734375, -0.035156250, -0.203125000, 0.212890625, -0.058593750, 0.136718750, -0.007812500, -0.074218750, -0.068359375, -0.027343750, 0.078125000, 0.140625000, -0.226562500, 0.062500000, -0.113281250, 0.019531250, 0.015625000, -0.017578125, 0.173828125, 0.039062500, 0.156250000, 0.052734375, -0.076171875, -0.019531250, -0.078125000, -0.136718750, -0.072265625, -0.242187500, 0.134765625, 0.183593750, -0.236328125, 0.009765625, -0.212890625, -0.148437500, 0.173828125, 0.091796875, 0.177734375, 0.041015625, 0.246093750, -0.224609375, -0.054687500, 0.031250000, -0.056640625, -0.140625000};

#endif

#endif
