//Numpy array shape [9, 9, 1, 3]
//Min -5.847656250000
//Max 10.845703125000
//Number of zeros 0

#ifndef W2_H_
#define W2_H_

#ifndef __SYNTHESIS__
weight2_t w2[243];
#else
weight2_t w2[243] = {1.169921875, -0.951171875, -5.128906250, -0.009765625, -0.078125000, 1.205078125, 1.578125000, 1.619140625, -3.111328125, 1.591796875, 0.580078125, 1.062500000, 2.517578125, 0.701171875, -2.648437500, 3.134765625, 4.865234375, 6.359375000, 1.472656250, 1.326171875, -0.636718750, -2.810546875, -1.857421875, -0.083984375, 0.335937500, 0.617187500, -3.609375000, 2.986328125, 2.867187500, 3.128906250, 0.054687500, 0.023437500, 0.234375000, 2.363281250, 2.681640625, 2.701171875, 0.005859375, 0.015625000, -0.041015625, 1.212890625, 2.412109375, 2.722656250, -0.316406250, 0.031250000, -0.060546875, -4.648437500, -1.806640625, -1.654296875, 0.185546875, -0.142578125, 0.189453125, 5.044921875, 5.767578125, 4.890625000, 0.771484375, 1.017578125, 0.183593750, -2.273437500, -3.695312500, -3.894531250, 1.666015625, 2.871093750, 4.101562500, 3.208984375, 2.283203125, 1.070312500, 2.015625000, 4.939453125, 2.476562500, -2.212890625, -1.890625000, 1.345703125, 1.515625000, 3.001953125, 3.669921875, 3.177734375, 2.507812500, 1.644531250, 0.457031250, -0.263671875, -5.847656250, 0.191406250, -1.779296875, -2.656250000, 0.005859375, -0.160156250, 0.126953125, 1.589843750, 1.546875000, 1.630859375, 0.076171875, -0.148437500, -0.125000000, 1.919921875, 2.097656250, 1.927734375, -0.240234375, 0.035156250, -0.207031250, 2.664062500, 2.878906250, 2.613281250, -0.070312500, -0.041015625, -0.166015625, 2.298828125, 2.658203125, 2.773437500, 1.835937500, 0.093750000, -2.759765625, 0.531250000, 0.933593750, 1.841796875, 3.431640625, 0.496093750, 2.662109375, 1.800781250, 1.962890625, -0.033203125, 8.337890625, 8.582031250, 10.845703125, 1.894531250, 2.376953125, 1.664062500, 3.701171875, 0.742187500, 2.458984375, 1.255859375, 2.066406250, 1.716796875, 1.611328125, 0.537109375, -1.466796875, -0.015625000, -0.619140625, -0.128906250, -0.009765625, 0.044921875, 0.023437500, 3.648437500, 3.916015625, 4.082031250, 0.306640625, -0.017578125, -0.066406250, 0.753906250, 0.365234375, 0.400390625, -0.240234375, -0.095703125, 0.039062500, 0.111328125, -0.281250000, -0.392578125, 0.027343750, 0.103515625, -0.052734375, -0.316406250, -0.568359375, -0.324218750, 0.431640625, 0.484375000, 0.156250000, 3.103515625, 3.068359375, 1.380859375, 1.191406250, 0.808593750, 4.562500000, 1.617187500, 1.906250000, -0.048828125, 0.933593750, 1.287109375, 3.107421875, 0.466796875, 0.462890625, 3.757812500, 1.267578125, 2.121093750, 4.931640625, 3.218750000, 2.349609375, 1.724609375, 0.099609375, 0.833984375, -1.138671875, 4.851562500, 5.195312500, 5.175781250, -0.050781250, 0.250000000, -0.166015625, -0.408203125, 0.517578125, 0.906250000, -0.146484375, -0.240234375, -0.207031250, 1.568359375, 1.142578125, 0.902343750, -0.150390625, 0.019531250, 0.128906250, 0.218750000, -0.511718750, -0.449218750, -0.105468750, 0.271484375, 0.125000000, 3.125000000, 3.095703125, 2.705078125, 0.537109375, 1.351562500, -2.126953125, -0.679687500, -0.679687500, -0.324218750, 0.726562500, 1.017578125, -2.921875000, -4.130859375, -0.591796875, -0.699218750, 0.507812500, 0.947265625, -4.578125000, -0.544921875, -1.677734375, 0.845703125, 1.113281250, 0.578125000, 0.164062500, 0.267578125, 1.347656250, 2.265625000, 0.812500000, 0.998046875, -4.337890625};

#endif

#endif
