//Numpy array shape [36, 10]
//Min -1.000000000000
//Max 0.992187500000
//Number of zeros 1

#ifndef W14_H_
#define W14_H_

#ifndef __SYNTHESIS__
weight14_t w14[360];
#else
weight14_t w14[360] = {0.5625000, 0.9921875, -0.9921875, -0.7187500, -0.9765625, 0.9921875, -1.0000000, -1.0000000, -0.6250000, -1.0000000, -0.8046875, -1.0000000, -1.0000000, -1.0000000, 0.9921875, 0.9921875, 0.9921875, -1.0000000, 0.9921875, -1.0000000, -1.0000000, 0.9921875, -1.0000000, 0.9921875, 0.9921875, -1.0000000, -1.0000000, 0.9765625, 0.9921875, 0.9921875, -1.0000000, -1.0000000, 0.9921875, 0.9921875, -0.8828125, 0.2500000, -1.0000000, 0.9921875, 0.9921875, -1.0000000, -0.0468750, -1.0000000, 0.9921875, -1.0000000, -1.0000000, 0.9921875, 0.9921875, -1.0000000, 0.9921875, 0.5546875, 0.9921875, 0.9921875, 0.9921875, 0.9921875, -1.0000000, -1.0000000, 0.9921875, -1.0000000, 0.4296875, -1.0000000, 0.9921875, -0.9921875, 0.9921875, 0.9921875, -1.0000000, 0.9921875, -1.0000000, 0.9921875, -1.0000000, -0.3593750, 0.9921875, -0.9453125, 0.9921875, -1.0000000, -1.0000000, 0.9921875, 0.9921875, -1.0000000, -1.0000000, -1.0000000, -1.0000000, 0.9921875, -1.0000000, -1.0000000, 0.9921875, -1.0000000, -1.0000000, 0.9921875, -1.0000000, 0.9921875, 0.9921875, -1.0000000, -0.1953125, -1.0000000, -1.0000000, -0.1562500, 0.2265625, 0.9921875, -1.0000000, -1.0000000, 0.9921875, -1.0000000, -0.9921875, -1.0000000, 0.9921875, -1.0000000, 0.9921875, -0.9843750, -1.0000000, 0.9921875, 0.9921875, -1.0000000, 0.9921875, -1.0000000, 0.7187500, -0.9921875, -0.0312500, -1.0000000, 0.9921875, 0.9921875, 0.4296875, -0.1328125, 0.1328125, -0.1015625, 0.0546875, -0.1640625, -0.2187500, -0.1171875, 0.3359375, -0.1640625, -1.0000000, 0.9921875, -1.0000000, -1.0000000, 0.9921875, -0.1640625, -0.9843750, 0.9921875, -0.4765625, 0.9921875, -0.9921875, 0.9921875, -1.0000000, -1.0000000, -1.0000000, 0.9921875, 0.9921875, -1.0000000, 0.9921875, -1.0000000, 0.9921875, -0.8359375, -0.4062500, 0.9921875, 0.9921875, -1.0000000, -1.0000000, 0.9921875, -0.9921875, 0.9921875, -1.0000000, -1.0000000, 0.9921875, 0.9921875, -0.9921875, -0.9921875, -1.0000000, 0.9921875, -1.0000000, -1.0000000, -0.9921875, 0.9921875, -0.2031250, 0.9921875, -1.0000000, -0.9765625, -1.0000000, -1.0000000, 0.9921875, 0.8984375, -1.0000000, -1.0000000, 0.9921875, -0.0859375, 0.9921875, 0.9921875, 0.9375000, 0.9921875, -1.0000000, -1.0000000, 0.5859375, -1.0000000, 0.0000000, 0.0156250, 0.9921875, -0.1328125, 0.2890625, -1.0000000, -0.0546875, 0.9921875, -1.0000000, 0.9921875, 0.9921875, -1.0000000, 0.9921875, -1.0000000, -1.0000000, 0.9921875, -0.3359375, -1.0000000, 0.9921875, 0.9921875, 0.9921875, 0.9921875, -1.0000000, -1.0000000, -1.0000000, 0.9921875, 0.9921875, -1.0000000, 0.9921875, -0.9140625, -1.0000000, 0.9921875, 0.9921875, 0.9921875, 0.9921875, -1.0000000, -1.0000000, -1.0000000, -1.0000000, 0.9921875, 0.9921875, 0.9921875, -1.0000000, -1.0000000, -1.0000000, 0.9921875, -0.9921875, 0.9921875, 0.9921875, -1.0000000, 0.9921875, 0.9921875, -1.0000000, 0.9921875, -1.0000000, 0.9921875, 0.9921875, -1.0000000, 0.9921875, -1.0000000, -1.0000000, 0.9921875, -1.0000000, 0.9921875, -0.9921875, -1.0000000, 0.1562500, 0.9921875, 0.9921875, -1.0000000, -1.0000000, -1.0000000, -0.6093750, -1.0000000, -1.0000000, 0.9921875, 0.9921875, 0.9921875, -1.0000000, 0.9921875, 0.9921875, -1.0000000, 0.9921875, -1.0000000, 0.9921875, -0.2812500, -1.0000000, -1.0000000, 0.9921875, -1.0000000, -1.0000000, -1.0000000, -1.0000000, -0.9921875, 0.9921875, 0.9921875, -1.0000000, 0.9921875, 0.9921875, -1.0000000, -1.0000000, -1.0000000, -1.0000000, 0.9921875, 0.9921875, 0.9921875, -1.0000000, 0.9921875, 0.9921875, 0.9921875, 0.5468750, -1.0000000, 0.9921875, -1.0000000, 0.9921875, -1.0000000, 0.9921875, -1.0000000, 0.9921875, 0.9921875, -1.0000000, -0.9921875, -1.0000000, -1.0000000, 0.9921875, -1.0000000, 0.9921875, -1.0000000, 0.9921875, 0.9921875, 0.9921875, -0.1640625, -1.0000000, -1.0000000, 0.9921875, -1.0000000, -1.0000000, -1.0000000, -1.0000000, 0.9921875, -1.0000000, 0.9921875, -1.0000000, 0.9921875, -1.0000000, -0.9921875, -1.0000000, 0.9921875, -1.0000000, -1.0000000, -1.0000000, 0.9921875, 0.9921875, 0.9921875, 0.9921875, -0.3125000, 0.8281250, 0.9921875, -1.0000000, 0.9921875, -1.0000000, 0.9921875, -1.0000000, 0.9921875, 0.9921875, -1.0000000, 0.3515625, -1.0000000};

#endif

#endif
