//Numpy array shape [5, 5, 1, 3]
//Min -1.000000000000
//Max 0.992187500000
//Number of zeros 0

#ifndef W6_H_
#define W6_H_

#ifndef __SYNTHESIS__
weight6_t w6[75];
#else
weight6_t w6[75] = {0.1406250, -1.0000000, -1.0000000, -0.9921875, -1.0000000, 0.9921875, 0.7343750, -1.0000000, 0.9921875, 0.9921875, -1.0000000, -0.7734375, 0.9921875, -0.6406250, 0.9921875, -1.0000000, 0.8593750, 0.9921875, -1.0000000, -0.9921875, 0.9921875, 0.9921875, -1.0000000, 0.9921875, 0.9921875, -1.0000000, -1.0000000, -0.9921875, 0.9921875, 0.9296875, -0.7578125, 0.9843750, -1.0000000, -1.0000000, 0.9921875, -1.0000000, 0.9921875, 0.8281250, 0.9921875, -1.0000000, 0.9921875, -1.0000000, -1.0000000, 0.9921875, 0.6171875, 0.8125000, 0.9921875, -1.0000000, 0.9921875, -1.0000000, -1.0000000, 0.9921875, -1.0000000, 0.9921875, -1.0000000, 0.9921875, 0.9921875, -1.0000000, 0.8828125, 0.9921875, 0.2265625, 0.9921875, -0.7109375, 0.9921875, -1.0000000, -0.1562500, 0.5625000, 0.0625000, 0.9921875, -0.8281250, 0.5781250, 0.3359375, -0.8203125, -0.7968750, -0.9843750};

#endif

#endif
