//Numpy array shape [3, 3, 1, 2]
//Min -1.000000000000
//Max 0.968750000000
//Number of zeros 0

#ifndef W4_H_
#define W4_H_

#ifndef __SYNTHESIS__
weight4_t w4[150];
#else
weight4_t w4[150] = {-7.021484375, 3.896484375, -12.1796875, 8.61328125, -4.439453125, 14.25390625, -1.2421875, 10.107421875, -6.701171875, 1.359375, -15.291015625, 5.572265625, -9.86328125, 12.720703125, -2.986328125, 7.455078125, -11.09375, 0.544921875, -13.658203125, 4.181640625, -8.005859375, 15.015625, -3.439453125, 9.26171875, -5.771484375, 13.123046875, -0.859375, 6.841796875, -10.48046875, 2.541015625, -14.083984375, 8.796875, -1.693359375, 11.6328125, -7.287109375, 3.244140625, -12.45703125, 0.931640625, -9.455078125, 5.984375, -4.083984375, 14.828125, -2.1953125, 10.73828125, -6.126953125, 1.74609375, -15.466796875, 7.607421875, -11.84765625, 4.509765625, -12.783203125, 7.416015625, -3.57421875, 11.083984375, -8.73046875, 2.2265625, -14.515625, 6.333984375, -1.689453125, 13.91015625, -5.478515625, 9.30078125, -10.205078125, 0.802734375, -6.16796875, 15.021484375, -2.939453125, 8.685546875, -11.56640625, 3.060546875, -7.75, 12.44921875, -4.2890625, 1.541015625, -13.185546875, 5.90234375, -9.935546875, 10.609375, -0.353515625, 7.0234375, -15.326171875, 4.802734375, -8.140625, 13.62890625, -2.1015625, 9.9296875, -6.544921875, 0.1953125, -12.05859375, 7.74609375, -3.1953125, 14.79296875, -5.15234375, 2.734375, -10.78515625, 6.126953125, -1.0703125, 11.8515625, -7.611328125, 3.916015625, -13.669921875, 8.283203125, -4.7265625, 12.97265625, -9.462890625, 1.314453125, -15.169921875, 5.466796875, -0.625, 10.443359375, -6.9609375, 2.482421875, -11.841796875, 7.609375, -3.833984375, 13.267578125, -8.46875, 0.509765625, -14.037109375, 4.18359375, -9.193359375, 11.396484375, -2.57421875, 6.904296875, -12.59765625, 1.892578125, -7.27734375, 15.412109375, -5.625, 9.771484375, -1.19921875, 14.337890625, -10.412109375, 3.369140625, -6.75, 12.17578125, -4.4921875, 0.923828125, -13.458984375, 8.8671875, -2.228515625, 11.013671875, -7.990234375, 5.181640625, -15.390625, 9.08203125};

#endif

#endif
