//Numpy array shape [64]
//Min -2.644531250000
//Max 2.509765625000
//Number of zeros 1

#ifndef B10_H_
#define B10_H_

#ifndef __SYNTHESIS__
bias10_t b10[64];
#else
bias10_t b10[64] = {-1.632812500, 0.000000000, 1.125000000, 1.357421875, -0.011718750, 0.537109375, -0.091796875, -0.136718750, 0.712890625, -0.460937500, -2.404296875, -0.609375000, -1.068359375, -1.597656250, -2.644531250, -0.546875000, 0.205078125, 0.205078125, -0.810546875, -0.007812500, -2.025390625, 0.642578125, -0.458984375, -0.109375000, 0.369140625, -1.062500000, -1.085937500, -0.085937500, -0.353515625, 0.341796875, 0.447265625, -0.601562500, 0.378906250, 0.957031250, 0.279296875, 0.125000000, -1.400390625, -1.507812500, -1.291015625, -1.871093750, -0.992187500, -1.037109375, -0.693359375, 0.400390625, -1.267578125, 0.148437500, 0.634765625, -0.951171875, 0.023437500, -0.003906250, -0.525390625, -0.722656250, -0.978515625, -0.779296875, -0.664062500, 0.306640625, -1.515625000, 0.093750000, 2.359375000, 2.509765625, 0.724609375, -0.244140625, 0.988281250, -0.843750000};

#endif

#endif
