//Numpy array shape [20, 5]
//Min -9.550781250000
//Max 11.074218750000
//Number of zeros 0

#ifndef W13_H_
#define W13_H_

#ifndef __SYNTHESIS__
weight13_t w13[100];
#else
weight13_t w13[100] = {0.988281250, 1.093750000, 5.257812500, -6.218750000, 0.312500000, -1.792968750, -0.263671875, 0.912109375, 0.177734375, 0.751953125, 1.517578125, 0.017578125, -5.330078125, 1.500000000, -0.371093750, -1.285156250, -0.134765625, 1.076171875, 0.316406250, -0.074218750, -1.693359375, -1.259765625, 1.619140625, 0.757812500, -0.419921875, -0.341796875, -0.517578125, 11.074218750, -5.666015625, 1.312500000, -1.373046875, -1.205078125, 1.371093750, 1.679687500, -0.304687500, 1.056640625, -1.490234375, 1.595703125, 1.187500000, -4.066406250, 1.318359375, 0.925781250, -4.761718750, 1.255859375, -0.480468750, -0.208984375, 1.017578125, -0.521484375, -0.742187500, -1.597656250, 2.373046875, 0.146484375, -2.798828125, -2.062500000, 0.166015625, 0.527343750, -0.046875000, -0.031250000, -0.019531250, -1.824218750, 1.691406250, 0.246093750, -2.263671875, -1.240234375, -0.324218750, -0.128906250, 0.658203125, -0.630859375, 1.037109375, -2.537109375, 0.259765625, 0.429687500, -0.753906250, -1.769531250, 1.937500000, 0.560546875, 0.191406250, -5.828125000, 2.753906250, -0.152343750, 1.048828125, 2.117187500, -9.550781250, -2.224609375, 1.160156250, -1.160156250, -0.662109375, 2.634765625, 1.421875000, -1.546875000, 0.468750000, -1.251953125, -0.060546875, 0.533203125, -0.025390625, -2.019531250, 0.585937500, 1.875000000, 1.333984375, -1.712890625};

#endif

#endif
