//Numpy array shape [28, 5]
//Min -6.236328125000
//Max 7.820312500000
//Number of zeros 0

#ifndef W16_H_
#define W16_H_

#ifndef __SYNTHESIS__
weight16_t w16[140];
#else
weight16_t w16[140] = {-1.251953125, -1.330078125, 4.371093750, 7.820312500, -0.406250000, -0.535156250, 0.412109375, 0.951171875, 1.410156250, -1.375000000, 0.435546875, 0.298828125, 0.279296875, 0.451171875, -0.925781250, -1.482421875, -0.431640625, 1.316406250, 1.015625000, -0.857421875, -1.500000000, -0.041015625, 1.191406250, 1.349609375, -0.404296875, -1.005859375, -0.025390625, 0.300781250, 0.361328125, 0.089843750, -1.371093750, -0.542968750, 1.658203125, 1.144531250, -1.224609375, -0.375000000, 0.205078125, -0.125000000, -0.062500000, 1.052734375, 1.039062500, 1.167968750, -6.236328125, 0.468750000, 0.044921875, -1.197265625, -0.435546875, 0.476562500, -0.035156250, 0.025390625, -0.076171875, -0.968750000, 0.695312500, 0.591796875, 0.433593750, 1.291015625, 1.101562500, -0.351562500, -0.585937500, -0.535156250, -1.208984375, -0.970703125, 1.236328125, 1.146484375, 0.142578125, -1.128906250, -0.796875000, 1.566406250, 1.453125000, -1.041015625, 0.335937500, 0.001953125, -2.212890625, 0.710937500, 0.185546875, 5.453125000, 0.009765625, -5.898437500, -4.640625000, 3.527343750, -0.818359375, -0.031250000, 0.240234375, 0.093750000, 0.259765625, 0.070312500, 0.068359375, 4.291015625, -5.431640625, 0.255859375, 0.378906250, 0.927734375, 2.718750000, -3.484375000, 0.205078125, -0.396484375, -0.580078125, 0.677734375, 0.556640625, 0.427734375, 1.623046875, 0.892578125, -2.822265625, -0.251953125, -0.906250000, -0.677734375, -0.572265625, 0.357421875, 0.951171875, 0.283203125, 0.732421875, -0.355468750, -0.572265625, -0.433593750, 0.779296875, 0.517578125, 0.617187500, -0.291015625, -0.304687500, -0.761718750, 1.681640625, 1.365234375, -3.779296875, -0.298828125, -0.763671875, -0.591796875, 0.322265625, 0.660156250, -1.183593750, 2.787109375, 1.570312500, 0.388671875, -2.273437500, 0.750000000, -1.138671875, 0.005859375, 0.085937500, 0.312500000, 0.369140625, -1.580078125};

#endif

#endif
