//Numpy array shape [5, 5, 1, 3]
//Min -1.248046875000
//Max 3.423828125000
//Number of zeros 0

#ifndef W2_H_
#define W2_H_

#ifndef __SYNTHESIS__
weight2_t w2[75];
#else
weight2_t w2[75] = {0.089843750, -0.111328125, -0.042968750, 0.308593750, -0.232421875, -0.148437500, 0.384765625, -1.248046875, -0.074218750, 0.171875000, -0.181640625, -0.031250000, 0.158203125, -0.150390625, -0.066406250, 0.169921875, -0.572265625, -0.070312500, 0.564453125, 0.855468750, 0.601562500, 1.818359375, 0.722656250, 0.658203125, 0.726562500, 0.839843750, 0.398437500, 0.111328125, -0.474609375, 0.097656250, 0.279296875, 0.083984375, -0.214843750, 0.375000000, -0.882812500, 1.132812500, 3.423828125, 0.093750000, 0.181640625, 0.289062500, 0.283203125, 0.806640625, 0.156250000, -0.994140625, 0.042968750, 0.115234375, 0.060546875, -0.267578125, 0.552734375, 0.447265625, 0.941406250, 1.558593750, 0.218750000, 0.746093750, 0.505859375, 0.406250000, 0.906250000, 0.125000000, -0.007812500, -0.007812500, 0.097656250, 0.134765625, -0.861328125, 0.132812500, 0.296875000, 0.039062500, 0.136718750, -0.015625000, -0.441406250, 0.208984375, 0.228515625, -0.322265625, -0.025390625, 0.019531250, -0.048828125};

#endif

#endif
