//Numpy array shape [9, 9, 1, 3]
//Min -6.671875000000
//Max 11.943359375000
//Number of zeros 1

#ifndef W2_H_
#define W2_H_

#ifndef __SYNTHESIS__
weight2_t w2[243];
#else
weight2_t w2[243] = {0.570312500, -0.701171875, -3.392578125, -0.775390625, -1.734375000, 0.958984375, 0.724609375, 1.566406250, -0.121093750, 1.046875000, 0.904296875, 1.958984375, 0.777343750, 0.574218750, -6.671875000, 2.765625000, 2.697265625, 5.935546875, 0.660156250, 1.107421875, -0.443359375, 2.693359375, 1.701171875, 2.402343750, 0.638671875, 0.525390625, -2.013671875, -0.019531250, -2.175781250, -0.400390625, 0.054687500, 0.023437500, 0.234375000, 1.812500000, 1.037109375, 2.066406250, 0.005859375, 0.015625000, -0.041015625, 1.552734375, 0.103515625, -5.076171875, -0.316406250, 0.031250000, -0.060546875, 0.882812500, -0.603515625, -4.074218750, 0.103515625, -1.644531250, -0.544921875, -0.169921875, -0.921875000, -1.279296875, 1.548828125, -0.568359375, 0.386718750, -0.572265625, -1.494140625, 2.572265625, 2.089843750, 2.445312500, 3.603515625, 0.466796875, 0.488281250, 2.212890625, 3.048828125, 1.126953125, 2.753906250, 0.132812500, 0.351562500, 3.900390625, 1.394531250, 2.941406250, 3.917968750, 1.605468750, 3.449218750, 3.001953125, 1.351562500, -0.250000000, 1.123046875, 2.562500000, 1.623046875, -1.072265625, 0.005859375, -0.160156250, 0.126953125, 1.179687500, 1.226562500, 2.974609375, 0.076171875, -0.148437500, -0.125000000, 1.199218750, 0.244140625, -0.429687500, -0.240234375, 0.035156250, -0.207031250, -1.623046875, -0.863281250, 0.714843750, -0.070312500, -0.041015625, -0.166015625, 2.230468750, 0.777343750, 0.130859375, 1.363281250, -0.060546875, -3.246093750, -2.191406250, -1.027343750, -1.164062500, 1.330078125, 2.486328125, 0.550781250, 2.705078125, 1.339843750, 1.904296875, 6.121093750, 7.826171875, 11.943359375, 1.330078125, 1.732421875, 4.613281250, 1.400390625, 5.470703125, -1.128906250, 1.369140625, 1.404296875, 1.490234375, 1.656250000, -0.025390625, -2.146484375, 4.685546875, 3.849609375, 1.835937500, -0.009765625, 0.044921875, 0.023437500, 2.498046875, 2.271484375, 0.900390625, 0.306640625, -0.017578125, -0.066406250, -0.296875000, 0.833984375, -1.394531250, -0.240234375, -0.095703125, 0.039062500, 3.683593750, 2.445312500, -1.167968750, 0.027343750, 0.103515625, -0.052734375, 0.640625000, -0.033203125, -0.697265625, 0.460937500, -0.107421875, 0.287109375, -0.929687500, -1.300781250, 2.128906250, 1.912109375, 1.644531250, 3.080078125, 0.447265625, 1.466796875, 1.664062500, 5.109375000, 0.697265625, 1.748046875, 2.216796875, 1.791015625, 1.683593750, 1.966796875, 1.578125000, 2.878906250, -2.533203125, 1.144531250, 0.000000000, 0.994140625, -0.087890625, 0.896484375, -0.822265625, 0.080078125, 2.382812500, -1.525390625, -1.015625000, -0.400390625, -1.736328125, 2.843750000, -0.025390625, -0.146484375, -0.240234375, -0.207031250, 2.005859375, 1.785156250, -1.699218750, -0.150390625, 0.019531250, 0.128906250, -1.253906250, -1.091796875, -5.349609375, -0.105468750, 0.271484375, 0.125000000, -0.041015625, 2.191406250, 0.115234375, 0.064453125, 0.251953125, -0.279296875, 2.716796875, 1.783203125, -0.285156250, -0.064453125, 0.837890625, -0.332031250, 4.123046875, 2.029296875, 4.173828125, 0.009765625, 1.085937500, -2.634765625, 0.261718750, 1.972656250, 5.351562500, 0.005859375, 1.109375000, -0.068359375, -1.619140625, 2.541015625, 3.007812500, 0.597656250, 0.521484375, -0.380859375};

#endif

#endif
