//Numpy array shape [5, 5, 3, 2]
//Min -2.726562500000
//Max 2.570312500000
//Number of zeros 0

#ifndef W5_H_
#define W5_H_

#ifndef __SYNTHESIS__
weight5_t w5[150];
#else
weight5_t w5[150] = {0.205078125, 0.017578125, -0.855468750, -0.080078125, -0.300781250, -0.115234375, -0.121093750, -0.025390625, -0.310546875, 0.064453125, -0.222656250, -0.205078125, -0.298828125, -0.076171875, -0.281250000, 0.128906250, -0.009765625, -0.332031250, -0.117187500, 0.046875000, 0.167968750, 0.015625000, -0.345703125, -0.531250000, 0.130859375, 0.005859375, -0.830078125, 0.056640625, 0.003906250, -0.279296875, 0.179687500, -0.044921875, -0.822265625, 0.212890625, 0.031250000, -0.302734375, 0.267578125, -0.027343750, -1.060546875, -0.144531250, -0.523437500, -0.529296875, -0.693359375, -0.291015625, -1.126953125, 0.310546875, -0.605468750, 0.042968750, 0.123046875, -0.148437500, -0.837890625, 0.044921875, -0.724609375, -0.183593750, 0.023437500, 0.041015625, -0.312500000, -0.087890625, -0.476562500, -0.322265625, -0.199218750, 0.115234375, -0.699218750, -0.166015625, -0.246093750, -0.058593750, 0.566406250, -0.318359375, -1.753906250, -0.390625000, -2.482421875, -0.226562500, 2.570312500, 2.392578125, 0.294921875, 0.353515625, -0.072265625, 1.003906250, 0.314453125, -0.126953125, 0.492187500, -0.337890625, -2.726562500, -0.414062500, -0.164062500, 0.109375000, -0.066406250, -0.089843750, -0.134765625, -0.371093750, 0.218750000, 0.064453125, -0.593750000, -0.009765625, -0.304687500, -0.154296875, 0.310546875, 0.039062500, -1.113281250, -0.306640625, 0.072265625, -0.068359375, -0.425781250, -0.304687500, -1.013671875, -0.013671875, -0.673828125, 0.074218750, 0.470703125, 0.048828125, -1.171875000, -0.115234375, -0.560546875, -0.181640625, 0.140625000, 0.121093750, -0.212890625, -0.285156250, -0.650390625, -0.082031250, 0.023437500, 0.085937500, -1.177734375, 0.251953125, 0.091796875, -0.175781250, -0.189453125, 0.138671875, -0.253906250, -0.205078125, 0.103515625, -0.185546875, -0.195312500, 0.201171875, 0.244140625, -0.417968750, -1.177734375, -0.294921875, -0.193359375, 0.037109375, -0.525390625, -0.140625000, 0.066406250, -0.203125000, 0.183593750, 0.048828125, -1.009765625, 0.017578125, -0.439453125, -0.164062500};

#endif

#endif
