//Numpy array shape [128]
//Min -0.250000000000
//Max 0.593750000000
//Number of zeros 8

#ifndef B11_H_
#define B11_H_

#ifndef __SYNTHESIS__
bias11_t b11[128];
#else
bias11_t b11[128] = {0.25000, -0.03125, 0.15625, 0.09375, -0.06250, 0.06250, 0.06250, 0.12500, 0.06250, 0.03125, 0.03125, 0.15625, 0.31250, -0.25000, 0.18750, 0.15625, -0.21875, 0.40625, 0.00000, 0.15625, -0.03125, 0.43750, 0.09375, 0.21875, 0.06250, -0.06250, -0.06250, 0.43750, 0.15625, -0.03125, -0.09375, 0.06250, -0.03125, 0.21875, 0.12500, 0.18750, 0.06250, 0.09375, 0.03125, 0.09375, 0.06250, -0.03125, -0.09375, -0.15625, 0.15625, 0.09375, 0.59375, 0.21875, -0.03125, -0.09375, 0.28125, 0.21875, -0.09375, 0.21875, -0.03125, 0.15625, 0.03125, -0.03125, 0.06250, 0.28125, 0.00000, 0.15625, 0.15625, 0.15625, -0.25000, -0.03125, 0.09375, -0.18750, 0.21875, 0.00000, 0.00000, 0.25000, -0.03125, 0.31250, 0.21875, 0.15625, 0.31250, 0.12500, 0.06250, 0.12500, -0.09375, 0.00000, -0.09375, -0.03125, 0.15625, 0.46875, 0.03125, 0.12500, 0.46875, 0.18750, -0.09375, 0.18750, 0.34375, 0.28125, 0.12500, 0.12500, 0.03125, 0.28125, 0.18750, 0.34375, 0.00000, -0.03125, 0.25000, 0.09375, 0.21875, -0.21875, 0.40625, 0.37500, 0.09375, 0.18750, 0.18750, 0.00000, 0.06250, -0.03125, 0.18750, 0.25000, 0.00000, 0.31250, 0.56250, 0.06250, 0.31250, 0.34375, -0.15625, -0.18750, -0.15625, 0.28125, -0.09375, 0.31250};

#endif

#endif
