//Numpy array shape [128]
//Min -0.187500000000
//Max 0.343750000000
//Number of zeros 19

#ifndef B11_H_
#define B11_H_

#ifndef __SYNTHESIS__
bias11_t b11[128];
#else
bias11_t b11[128] = {0.00000, 0.00000, 0.25000, -0.03125, 0.18750, 0.28125, 0.00000, -0.03125, 0.15625, 0.00000, 0.00000, 0.25000, 0.00000, -0.03125, -0.03125, 0.03125, 0.06250, -0.03125, 0.18750, -0.12500, 0.18750, 0.15625, 0.18750, 0.00000, 0.15625, 0.21875, 0.15625, 0.00000, 0.21875, -0.03125, 0.15625, 0.00000, 0.06250, -0.06250, 0.06250, 0.09375, 0.09375, 0.21875, 0.25000, -0.03125, -0.03125, -0.03125, -0.03125, -0.18750, -0.03125, 0.06250, -0.03125, 0.15625, -0.06250, -0.12500, 0.09375, 0.25000, 0.09375, 0.28125, 0.03125, 0.09375, 0.06250, 0.06250, -0.06250, 0.18750, 0.12500, 0.06250, 0.00000, 0.09375, -0.03125, 0.12500, 0.00000, 0.34375, 0.06250, 0.12500, 0.09375, 0.34375, 0.00000, 0.00000, -0.03125, 0.00000, 0.00000, -0.03125, -0.03125, 0.18750, 0.06250, -0.03125, 0.06250, 0.06250, -0.18750, 0.12500, -0.09375, 0.18750, 0.00000, 0.00000, -0.06250, 0.28125, 0.09375, 0.06250, 0.28125, 0.18750, -0.12500, -0.03125, -0.03125, 0.12500, 0.00000, -0.03125, 0.09375, 0.15625, -0.03125, 0.31250, -0.09375, 0.06250, -0.09375, 0.09375, 0.06250, 0.09375, 0.15625, 0.03125, -0.03125, 0.15625, -0.03125, 0.03125, 0.03125, -0.03125, -0.12500, 0.28125, 0.21875, 0.18750, 0.21875, 0.00000, 0.03125, -0.03125};

#endif

#endif
