//Numpy array shape [7, 7, 1, 4]
//Min -0.875000000000
//Max 0.992187500000
//Number of zeros 0

#ifndef W8_H_
#define W8_H_

#ifndef __SYNTHESIS__
weight8_t w8[196];
#else
weight8_t w8[196] = {-0.5000000, 0.9921875, 0.9921875, 0.2656250, -0.2031250, 0.8750000, 0.6484375, -0.5546875, -0.8750000, 0.8593750, -0.1640625, -0.3750000, 0.9921875, 0.9921875, -0.4140625, -0.6953125, 0.1250000, -0.3125000, 0.1562500, 0.0312500, 0.9921875, -0.6015625, -0.2578125, 0.9921875, 0.7578125, -0.4609375, 0.9921875, 0.9921875, -0.6250000, 0.9921875, 0.9140625, 0.6093750, -0.1406250, 0.9921875, 0.7500000, 0.4687500, -0.4062500, 0.7187500, 0.3906250, -0.3828125, 0.9921875, 0.7812500, -0.1562500, -0.3515625, 0.9921875, -0.4218750, -0.3515625, 0.9140625, 0.9921875, -0.2500000, 0.4765625, 0.9765625, 0.9687500, -0.5312500, 0.9921875, 0.9921875, 0.1328125, 0.9921875, 0.3828125, 0.6875000, -0.3125000, 0.9921875, 0.7031250, 0.9921875, -0.3828125, 0.9921875, 0.8671875, 0.3203125, 0.7265625, 0.6484375, 0.0390625, -0.2734375, 0.9921875, -0.3593750, 0.4687500, 0.9921875, 0.9921875, -0.3671875, 0.9921875, 0.9843750, 0.9921875, 0.0234375, 0.9843750, 0.9921875, 0.9921875, 0.9921875, 0.5859375, 0.3281250, 0.7890625, 0.9921875, 0.8906250, 0.9921875, 0.3046875, 0.0859375, 0.9921875, 0.9921875, 0.7500000, 0.9921875, 0.8046875, 0.6640625, 0.2343750, -0.0234375, 0.7812500, 0.9921875, 0.8203125, 0.8281250, 0.9921875, 0.9843750, 0.9921875, 0.9843750, 0.7890625, 0.9921875, 0.9921875, -0.6406250, 0.3593750, 0.3828125, 0.9921875, -0.6015625, 0.9921875, 0.9921875, 0.9921875, -0.3593750, 0.6328125, 0.9921875, 0.2031250, 0.5546875, -0.1406250, -0.3359375, -0.3359375, 0.9921875, 0.9843750, 0.6328125, -0.6171875, 0.9921875, 0.9921875, 0.9921875, -0.7968750, 0.9921875, 0.9687500, 0.9921875, 0.9765625, -0.4140625, 0.9921875, 0.9921875, 0.9921875, -0.2343750, 0.9765625, 0.9921875, 0.7421875, -0.1484375, -0.6093750, 0.9921875, 0.5546875, 0.5703125, -0.3828125, -0.2031250, -0.3046875, 0.9921875, 0.9921875, -0.6406250, -0.3125000, 0.9921875, 0.9687500, 0.9921875, -0.4296875, 0.9921875, 0.9921875, 0.9921875, 0.9609375, -0.6250000, 0.9062500, 0.8125000, 0.9921875, -0.6718750, -0.7343750, 0.9921875, 0.9921875, 0.9921875, 0.9921875, 0.9921875, 0.3593750, 0.2187500, -0.5546875, -0.3671875, -0.4531250, 0.9921875, 0.9921875, -0.3671875, -0.3906250, 0.9921875, 0.9218750, -0.7578125, -0.4140625, 0.9921875, 0.9921875, 0.9921875};

#endif

#endif
