//Numpy array shape [64, 10]
//Min -1.000000000000
//Max 0.992187500000
//Number of zeros 1

#ifndef W14_H_
#define W14_H_

#ifndef __SYNTHESIS__
weight14_t w14[640];
#else
weight14_t w14[640] = {-0.9140625, -1.0000000, 0.9843750, 0.9921875, -1.0000000, 0.9921875, -1.0000000, 0.9921875, -1.0000000, -1.0000000, -0.2656250, -0.9921875, -1.0000000, -0.9921875, 0.9921875, 0.9921875, 0.9921875, -1.0000000, 0.9921875, -1.0000000, 0.0859375, 0.9921875, 0.3359375, 0.9921875, 0.2968750, -1.0000000, -1.0000000, 0.9921875, 0.9921875, -1.0000000, -1.0000000, 0.9921875, 0.9921875, 0.8046875, 0.9921875, -0.9921875, -0.9921875, -0.6328125, 0.3906250, -1.0000000, 0.9375000, -0.9921875, -1.0000000, -1.0000000, -0.9921875, 0.9921875, 0.9921875, -0.9921875, 0.9921875, 0.9218750, 0.9921875, 0.9921875, 0.3125000, -0.4453125, -1.0000000, 0.9921875, 0.9921875, -0.9921875, 0.9921875, -1.0000000, -0.8437500, -1.0000000, 0.9921875, 0.9921875, -1.0000000, 0.9921875, -1.0000000, 0.8046875, -0.3671875, 0.3281250, 0.6718750, 0.9921875, 0.9921875, -1.0000000, -0.2421875, -1.0000000, 0.9921875, -1.0000000, 0.9921875, 0.6093750, 0.6718750, 0.9921875, -0.9921875, -1.0000000, 0.9921875, 0.7890625, 0.9921875, 0.9921875, -1.0000000, -0.0468750, 0.9609375, 0.9921875, -1.0000000, -0.9921875, 0.9921875, 0.9921875, 0.9921875, -0.9921875, 0.6093750, -1.0000000, 0.1718750, -1.0000000, -1.0000000, 0.9921875, 0.6328125, -0.2578125, 0.1953125, 0.9921875, -0.6250000, 0.9921875, -0.1406250, -0.0703125, 0.1953125, -0.3046875, -0.1328125, -0.1093750, 0.1640625, -0.1640625, -0.0781250, 0.0546875, 0.9921875, -0.3281250, -1.0000000, -1.0000000, 0.9921875, -1.0000000, 0.9921875, -0.1796875, 0.9921875, 0.9921875, -0.6562500, 0.6562500, 0.4843750, 0.9921875, -1.0000000, 0.9843750, -1.0000000, 0.9921875, -1.0000000, 0.7109375, -1.0000000, 0.9921875, -0.9921875, 0.9921875, 0.9843750, 0.9921875, 0.2265625, -0.9921875, 0.9687500, -1.0000000, 0.9921875, -0.8906250, -1.0000000, 0.9921875, 0.9062500, 0.5625000, -0.6093750, -0.9843750, 0.4765625, 0.9921875, 0.9921875, 0.8359375, -0.9921875, 0.9921875, 0.9921875, 0.8046875, 0.9921875, -1.0000000, -1.0000000, -0.9765625, -1.0000000, 0.6015625, 0.9921875, 0.9921875, 0.6953125, -1.0000000, -0.9921875, -1.0000000, 0.4531250, 0.2265625, -1.0000000, -1.0000000, 0.2734375, 0.9921875, 0.3203125, 0.9921875, -1.0000000, -0.9921875, 0.5546875, -1.0000000, -0.6015625, -1.0000000, -0.1484375, 0.9921875, 0.7343750, -0.7031250, 0.3984375, -1.0000000, -0.2265625, 0.9921875, -0.9921875, 0.9921875, 0.4921875, -1.0000000, 0.9921875, 0.6250000, 0.9687500, 0.9921875, -1.0000000, 0.2656250, -0.3359375, -1.0000000, 0.9921875, 0.9921875, 0.7031250, -1.0000000, -0.9765625, 0.3828125, 0.9921875, -0.7812500, 0.9921875, 0.2578125, 0.9921875, -0.9921875, 0.6718750, -0.2109375, 0.9921875, -1.0000000, -1.0000000, 0.0859375, 0.9921875, 0.4140625, 0.9921875, 0.3359375, -1.0000000, -1.0000000, 0.9140625, 0.2343750, 0.7734375, -1.0000000, 0.2187500, -0.9843750, 0.6562500, 0.8593750, -1.0000000, -1.0000000, -1.0000000, 0.9921875, 0.9921875, 0.3828125, 0.9843750, -1.0000000, -1.0000000, 0.8515625, -1.0000000, 0.9921875, -1.0000000, -0.9921875, 0.8281250, -0.2187500, -1.0000000, -0.9921875, -1.0000000, -0.9375000, 0.9921875, -0.0937500, 0.7421875, -1.0000000, 0.9921875, 0.9921875, -0.4296875, 0.9921875, -0.1093750, 0.9921875, 0.9921875, -1.0000000, 0.7187500, -1.0000000, -0.4687500, -0.9921875, 0.8359375, -1.0000000, -1.0000000, -0.3125000, -1.0000000, 0.9921875, -1.0000000, 0.5703125, 0.8906250, 0.9921875, 0.5546875, -1.0000000, 0.0234375, -0.4296875, -1.0000000, 0.4531250, -1.0000000, 0.9921875, 0.9921875, 0.9921875, -0.9453125, 0.9921875, 0.2421875, 0.9921875, 0.9921875, -1.0000000, -0.5390625, 0.9921875, 0.9921875, -0.9921875, 0.9921875, 0.9921875, 0.9921875, -1.0000000, -1.0000000, -0.0078125, 0.9921875, -1.0000000, 0.9453125, -0.9921875, 0.9921875, 0.9921875, 0.9921875, 0.8203125, -1.0000000, -0.3359375, -0.5312500, 0.9921875, -0.9921875, -1.0000000, -1.0000000, 0.1015625, -0.8125000, 0.0390625, -0.7265625, 0.9921875, 0.9921875, -0.8671875, 0.2187500, -1.0000000, 0.4843750, -1.0000000, 0.2812500, 0.5937500, 0.6718750, 0.9921875, 0.9921875, -1.0000000, -1.0000000, 0.9921875, -1.0000000, 0.9843750, -0.9921875, 0.9921875, -0.6250000, 0.9921875, 0.1171875, -1.0000000, -0.7968750, -1.0000000, 0.9921875, -0.6171875, 0.9921875, -1.0000000, 0.1093750, -1.0000000, -1.0000000, 0.9921875, -1.0000000, 0.9921875, 0.9921875, -1.0000000, -1.0000000, 0.3281250, -1.0000000, 0.9921875, 0.9921875, -1.0000000, 0.8437500, 0.9921875, -0.9921875, 0.7890625, -1.0000000, 0.0078125, 0.9921875, -1.0000000, -1.0000000, 0.9921875, -1.0000000, 0.9921875, -0.1640625, 0.9921875, 0.9921875, -1.0000000, -1.0000000, 0.9921875, -1.0000000, 0.9921875, -1.0000000, -1.0000000, 0.0390625, -0.1484375, 0.0937500, -0.0625000, 0.2812500, -0.0781250, -0.0546875, 0.2578125, 0.0390625, -0.1015625, -1.0000000, 0.9921875, -0.9921875, 0.9921875, -1.0000000, 0.9921875, -1.0000000, -0.8671875, -0.9921875, -0.2500000, 0.5937500, -1.0000000, 0.9921875, -0.9921875, -0.0390625, -1.0000000, 0.1328125, 0.9921875, -1.0000000, -0.8984375, -0.5625000, -1.0000000, -0.9921875, 0.9921875, -1.0000000, 0.9921875, 0.9843750, -0.9921875, -0.0390625, -0.5156250, 0.9843750, 0.9921875, 0.9921875, -0.9921875, -1.0000000, -0.9921875, -0.9765625, 0.9921875, 0.9921875, 0.9921875, -1.0000000, -0.6484375, 0.9921875, 0.9921875, 0.7031250, -1.0000000, -1.0000000, 0.6484375, 0.9921875, -1.0000000, 0.9921875, 0.9921875, -1.0000000, -1.0000000, 0.9921875, -1.0000000, 0.9921875, 0.9921875, -0.5234375, -0.8828125, 0.9843750, -1.0000000, 0.9921875, -1.0000000, -0.9921875, 0.9921875, 0.9921875, -1.0000000, 0.9921875, 0.2812500, 0.8593750, -1.0000000, 0.9921875, 0.9921875, -0.9921875, -0.6875000, -1.0000000, -0.9843750, -1.0000000, -1.0000000, -0.3125000, 0.9921875, 0.9921875, -1.0000000, -0.9921875, -0.9921875, 0.9921875, 0.9921875, -0.1875000, -0.9921875, -1.0000000, 0.3671875, -0.2109375, 0.4687500, -1.0000000, 0.9921875, 0.7265625, -0.5937500, 0.8984375, 0.2656250, -1.0000000, 0.9921875, 0.9921875, -0.9687500, -0.1796875, -1.0000000, 0.9921875, 0.9921875, 0.8125000, 0.5781250, -0.2109375, 0.9921875, -1.0000000, -1.0000000, 0.9921875, 0.9921875, -0.9140625, 0.8437500, -0.4375000, 0.9687500, -1.0000000, -1.0000000, -0.7187500, 0.5156250, 0.9921875, -0.6718750, -1.0000000, 0.9921875, 0.6484375, 0.9921875, 0.9921875, 0.9921875, 0.9921875, 0.9921875, -0.5078125, -1.0000000, -1.0000000, 0.9921875, -0.6640625, -1.0000000, 0.9921875, 0.9921875, -1.0000000, -1.0000000, 0.9921875, -0.9609375, -0.0156250, -1.0000000, 0.9921875, 0.9921875, -1.0000000, -1.0000000, 0.9921875, 0.9921875, -0.9921875, 0.9921875, -1.0000000, 0.8203125, -1.0000000, 0.9921875, 0.9921875, -1.0000000, 0.3125000, -0.9843750, 0.6953125, -0.7656250, -1.0000000, 0.8203125, 0.1484375, 0.7421875, -1.0000000, -1.0000000, 0.9921875, -1.0000000, -1.0000000, 0.9921875, -0.7500000, -1.0000000, 0.9921875, 0.5703125, -0.9921875, -0.9921875, -1.0000000, -1.0000000, -1.0000000, 0.9921875, 0.9921875, -0.8515625, 0.9921875, -1.0000000, -0.9921875, 0.9921875, 0.9921875, 0.9921875, 0.3984375, -1.0000000, -1.0000000, 0.9921875, -0.8671875, 0.6953125, -0.0468750, -0.1875000, -0.0937500, -0.1328125, -0.0390625, 0.0000000, -0.3046875, 0.1328125, 0.0312500, -0.3046875, -1.0000000, 0.9921875, -1.0000000, -1.0000000, 0.9921875, 0.9921875, -0.8046875, -0.9921875, -1.0000000, 0.9921875, 0.9921875, 0.9921875, 0.9921875, -1.0000000, 0.9921875, -1.0000000, 0.9921875, 0.6875000, -1.0000000, -0.9921875};

#endif

#endif
