//Numpy array shape [5, 5, 1, 3]
//Min -1.000000000000
//Max 0.992187500000
//Number of zeros 0

#ifndef W6_H_
#define W6_H_

#ifndef __SYNTHESIS__
weight6_t w6[75];
#else
weight6_t w6[75] = {-0.2578125, 0.0703125, -1.0000000, 0.1406250, 0.9765625, -0.1484375, 0.5625000, -1.0000000, 0.9218750, 0.9921875, -1.0000000, -0.6406250, 0.9921875, -0.7500000, 0.9687500, 0.4609375, -0.0468750, 0.9921875, -1.0000000, 0.9921875, 0.9921875, 0.9921875, -1.0000000, 0.9921875, 0.9921875, -1.0000000, -1.0000000, -0.7968750, 0.9921875, 0.2734375, -0.7187500, 0.8984375, -1.0000000, -1.0000000, 0.9921875, -1.0000000, 0.9921875, 0.3593750, 0.9921875, -1.0000000, 0.9921875, -1.0000000, -1.0000000, 0.9921875, 0.9609375, -0.2500000, 0.9921875, -1.0000000, 0.9921875, -1.0000000, -1.0000000, 0.9921875, -1.0000000, 0.9921875, -1.0000000, 0.9921875, 0.9921875, -1.0000000, 0.9921875, 0.9921875, 0.5781250, 0.5468750, -1.0000000, 0.9218750, -1.0000000, -0.0625000, -1.0000000, -0.7343750, 0.9921875, -1.0000000, 0.2578125, 0.9921875, -0.4765625, -0.6406250, -0.2656250};

#endif

#endif
