//Numpy array shape [64]
//Min -2.117187500000
//Max 1.207031250000
//Number of zeros 1

#ifndef B10_H_
#define B10_H_

#ifndef __SYNTHESIS__
bias10_t b10[64];
#else
bias10_t b10[64] = {-0.857421875, -0.226562500, -0.041015625, 0.404296875, 0.619140625, 0.406250000, -0.978515625, 0.251953125, 0.023437500, 0.054687500, -1.068359375, -0.638671875, 0.050781250, 0.203125000, 0.000000000, -0.181640625, 0.257812500, 0.423828125, 0.242187500, -0.875000000, 0.164062500, 0.023437500, 0.066406250, -0.609375000, -1.357421875, 0.150390625, -0.800781250, -0.384765625, -1.019531250, -0.007812500, 0.203125000, 0.099609375, 1.207031250, 0.148437500, 0.117187500, -0.175781250, -0.640625000, -2.117187500, -0.017578125, -0.064453125, 0.937500000, -0.160156250, 0.050781250, 0.083984375, 0.533203125, 0.132812500, -0.847656250, 0.935546875, -0.796875000, -0.126953125, 0.064453125, -1.107421875, 0.275390625, -1.460937500, -0.300781250, -1.679687500, -0.916015625, -1.882812500, 0.447265625, -1.173828125, -0.826171875, -1.873046875, 0.609375000, 1.044921875};

#endif

#endif
