//Numpy array shape [20, 5]
//Min -8.777343750000
//Max 2.632812500000
//Number of zeros 0

#ifndef W13_H_
#define W13_H_

#ifndef __SYNTHESIS__
weight13_t w13[100];
#else
weight13_t w13[100] = {1.390625000, 2.087890625, -2.140625000, -1.755859375, 0.574218750, -1.552734375, -0.142578125, -0.251953125, 1.023437500, -0.066406250, 1.472656250, -0.050781250, -0.109375000, -0.585937500, -0.712890625, -1.392578125, -0.757812500, -0.017578125, 0.052734375, 0.113281250, 0.986328125, 0.904296875, -1.861328125, -1.300781250, 0.667968750, 0.875000000, 1.523437500, -0.076171875, -1.048828125, -0.750000000, 0.017578125, -0.261718750, -1.197265625, 0.300781250, -0.689453125, 0.599609375, -0.851562500, -0.324218750, 0.023437500, 0.880859375, -0.951171875, -1.363281250, 0.570312500, 0.464843750, 0.130859375, -0.955078125, -0.412109375, 1.599609375, 0.496093750, -1.646484375, 1.558593750, 1.683593750, -8.777343750, -2.152343750, 0.675781250, 2.632812500, -1.132812500, 0.308593750, -0.191406250, -3.589843750, 1.878906250, 1.214843750, -7.257812500, -1.378906250, 0.492187500, -1.224609375, -0.263671875, 2.062500000, 1.183593750, -1.697265625, -1.771484375, -1.580078125, 1.390625000, 1.410156250, -1.886718750, 1.759765625, -0.468750000, -0.732421875, -1.011718750, -0.308593750, -1.062500000, -1.048828125, 1.869140625, 1.847656250, -0.363281250, -1.628906250, -0.439453125, 1.095703125, -0.160156250, 0.968750000, -3.693359375, 0.494140625, 2.115234375, 1.972656250, -1.585937500, 0.144531250, -1.023437500, 0.017578125, 0.757812500, 0.369140625};

#endif

#endif
