//Numpy array shape [5, 5, 1, 3]
//Min -2.140625000000
//Max 2.783203125000
//Number of zeros 1

#ifndef W2_H_
#define W2_H_

#ifndef __SYNTHESIS__
weight2_t w2[75];
#else
weight2_t w2[75] = {0.177734375, -0.480468750, -1.162109375, 0.121093750, -0.009765625, -0.373046875, 0.171875000, -0.312500000, -2.140625000, 0.101562500, -0.296875000, -0.615234375, 0.140625000, -0.146484375, -0.339843750, 0.091796875, -0.302734375, 0.060546875, 0.546875000, 0.060546875, 1.410156250, 0.705078125, 0.734375000, 1.316406250, 0.621093750, -0.039062500, 1.279296875, 0.263671875, 0.087890625, -0.218750000, -0.013671875, -0.009765625, -1.171875000, 1.539062500, 0.753906250, 1.058593750, 2.626953125, 2.783203125, -0.617187500, 1.443359375, 0.750000000, 0.939453125, 0.009765625, -0.017578125, -0.882812500, 0.056640625, 0.144531250, 0.164062500, 0.521484375, 0.152343750, 1.039062500, 0.445312500, 0.158203125, 1.203125000, 0.431640625, 0.167968750, 1.048828125, 0.085937500, 0.421875000, -0.005859375, -0.001953125, 0.101562500, 0.052734375, 0.000000000, 0.314453125, 0.025390625, 0.013671875, 0.308593750, -0.332031250, 0.003906250, 0.275390625, -0.050781250, 0.009765625, -0.001953125, -0.035156250};

#endif

#endif
