//Numpy array shape [5, 5, 3, 2]
//Min -2.072265625000
//Max 2.021484375000
//Number of zeros 0

#ifndef W5_H_
#define W5_H_

#ifndef __SYNTHESIS__
weight5_t w5[150];
#else
weight5_t w5[150] = {0.076171875, 0.607421875, -0.193359375, -0.429687500, 0.013671875, -1.386718750, 0.279296875, -0.517578125, 0.033203125, 0.375000000, -0.097656250, -1.175781250, -0.183593750, 0.228515625, 0.263671875, 0.111328125, 0.138671875, -1.371093750, -0.457031250, 0.755859375, 0.738281250, -0.134765625, 0.041015625, -1.093750000, -0.089843750, 0.515625000, 0.066406250, -0.367187500, 0.003906250, -0.882812500, -0.101562500, 0.060546875, 0.138671875, -0.041015625, -0.220703125, -0.298828125, -0.365234375, -1.087890625, 0.148437500, 1.560546875, -0.544921875, 0.093750000, 0.298828125, -0.160156250, 0.695312500, 0.761718750, -0.435546875, -0.568359375, -0.525390625, -0.447265625, 0.111328125, 0.648437500, -0.373046875, -0.152343750, -0.156250000, 0.031250000, 0.125000000, 0.185546875, 0.021484375, -0.511718750, 0.244140625, -0.697265625, 0.152343750, 0.794921875, -0.314453125, -0.492187500, -0.394531250, -1.347656250, -0.511718750, 0.527343750, 0.066406250, -0.802734375, 1.888671875, 1.384765625, 2.021484375, 1.044921875, 0.402343750, 0.990234375, -0.632812500, -0.751953125, -0.474609375, 0.058593750, 0.003906250, -0.927734375, 0.240234375, 0.148437500, -0.003906250, -0.181640625, -0.361328125, -0.484375000, 0.271484375, -0.214843750, -0.205078125, -0.125000000, -0.238281250, -0.166015625, 0.451171875, 0.255859375, -0.396484375, 0.070312500, -0.222656250, -0.873046875, 0.728515625, 0.695312500, -0.160156250, -0.642578125, -0.527343750, -2.072265625, 0.503906250, 0.156250000, -0.277343750, 0.111328125, -0.125000000, -0.986328125, 0.240234375, -0.087890625, -0.464843750, -0.107421875, -0.128906250, -0.328125000, 0.363281250, -0.707031250, -0.322265625, 0.654296875, -0.238281250, -0.398437500, 0.386718750, 0.619140625, -0.349609375, -0.792968750, -0.326171875, -0.248046875, 0.164062500, 0.833984375, -0.285156250, -1.048828125, -0.355468750, -0.333984375, 0.371093750, 0.617187500, -0.335937500, -0.775390625, -0.292968750, -0.191406250, 0.285156250, -0.064453125, -0.234375000, 0.171875000, -0.281250000, -0.666015625};

#endif

#endif
