//Numpy array shape [64]
//Min -0.933593750000
//Max 0.832031250000
//Number of zeros 0

#ifndef B11_H_
#define B11_H_

#ifndef __SYNTHESIS__
bias11_t b11[64];
#else
bias11_t b11[64] = {0.019531250, 0.177734375, -0.228515625, -0.005859375, 0.119140625, 0.759765625, 0.078125000, 0.007812500, -0.021484375, -0.074218750, 0.167968750, 0.423828125, -0.271484375, -0.140625000, 0.353515625, 0.832031250, -0.300781250, -0.171875000, -0.632812500, 0.414062500, -0.039062500, 0.152343750, 0.425781250, 0.511718750, 0.054687500, 0.312500000, -0.210937500, 0.140625000, -0.398437500, 0.066406250, 0.228515625, 0.453125000, -0.312500000, 0.423828125, 0.087890625, 0.156250000, 0.302734375, -0.431640625, -0.195312500, 0.166015625, -0.035156250, 0.304687500, -0.125000000, 0.398437500, 0.128906250, -0.255859375, 0.597656250, 0.380859375, -0.152343750, -0.078125000, 0.535156250, 0.144531250, -0.240234375, 0.556640625, -0.316406250, 0.197265625, -0.109375000, 0.212890625, 0.001953125, 0.230468750, -0.003906250, 0.228515625, -0.933593750, 0.425781250};

#endif

#endif
