//Numpy array shape [64, 10]
//Min -2.589843750000
//Max 1.878906250000
//Number of zeros 1

#ifndef W14_H_
#define W14_H_

#ifndef __SYNTHESIS__
weight14_t w14[640];
#else
weight14_t w14[640] = {-0.453125000, -0.546875000, -0.160156250, -0.380859375, 0.216796875, -0.597656250, 0.638671875, 0.259765625, 0.470703125, 0.621093750, 0.244140625, 0.615234375, 0.453125000, -0.322265625, -0.083984375, -0.890625000, -0.375000000, -0.757812500, 1.572265625, -1.228515625, 0.605468750, -0.291015625, -0.273437500, 0.232421875, -0.349609375, -0.154296875, 0.068359375, -0.357421875, 0.177734375, -0.308593750, -0.113281250, -0.111328125, -0.087890625, 0.021484375, -0.287109375, 0.070312500, -0.158203125, -0.212890625, -0.226562500, 0.371093750, 0.287109375, -2.238281250, 0.484375000, -0.910156250, 0.585937500, -0.396484375, 0.230468750, -0.572265625, -0.011718750, 0.503906250, -0.033203125, 0.765625000, -0.656250000, -1.472656250, 0.113281250, 1.712890625, 0.080078125, 0.560546875, -0.142578125, -0.673828125, -0.472656250, -0.681640625, -0.679687500, 0.605468750, -0.347656250, -0.095703125, -0.945312500, 0.523437500, 0.519531250, 0.349609375, -1.697265625, 0.214843750, 0.085937500, 0.437500000, -0.240234375, 0.447265625, -0.367187500, -0.402343750, 0.169921875, -0.347656250, 0.560546875, 0.837890625, -0.818359375, -1.238281250, 1.148437500, 0.048828125, 1.162109375, -0.480468750, 0.128906250, -0.443359375, -0.140625000, -0.150390625, -0.242187500, 0.037109375, -0.003906250, -0.406250000, 0.072265625, 0.080078125, 0.089843750, -0.039062500, -2.240234375, 0.582031250, -0.009765625, 0.796875000, -0.777343750, 1.068359375, -1.849609375, 0.003906250, 0.054687500, 0.666015625, 0.500000000, 0.361328125, -1.281250000, -0.443359375, -0.062500000, 0.126953125, 0.722656250, -0.681640625, -0.220703125, 0.425781250, 0.376953125, -2.083984375, 1.082031250, 0.759765625, 0.275390625, -0.517578125, 0.033203125, -1.316406250, -0.394531250, -0.109375000, 0.476562500, -1.308593750, -0.068359375, 0.255859375, 0.164062500, -0.214843750, -0.130859375, -0.105468750, 0.705078125, 0.734375000, 0.343750000, 0.296875000, 0.025390625, 0.166015625, -0.654296875, 0.332031250, 0.263671875, -0.234375000, -0.845703125, -0.183593750, -0.843750000, 0.679687500, 0.494140625, -0.080078125, 0.542968750, -0.220703125, 0.818359375, 0.291015625, -1.908203125, 0.490234375, -1.207031250, 1.787109375, -0.632812500, -0.992187500, 0.414062500, -0.488281250, -0.523437500, 1.111328125, -0.117187500, 0.427734375, -0.250000000, -0.396484375, 0.802734375, 0.562500000, -2.517578125, 0.378906250, -0.029296875, 0.416015625, 0.382812500, -1.039062500, -0.613281250, -0.082031250, 0.554687500, 0.921875000, -0.843750000, 0.125000000, -1.156250000, 0.435546875, 0.162109375, -1.548828125, -0.937500000, 1.025390625, 1.455078125, -0.576171875, 0.681640625, -0.923828125, -0.023437500, 0.558593750, -1.085937500, -0.203125000, -0.083984375, -0.093750000, -0.072265625, 0.335937500, 0.105468750, -0.210937500, -0.109375000, -0.105468750, -0.072265625, -0.199218750, 0.441406250, -0.853515625, 0.257812500, -0.476562500, 0.015625000, 0.007812500, -0.376953125, 0.552734375, 0.169921875, -0.554687500, -1.191406250, -2.076171875, -0.750000000, 0.201171875, 0.347656250, 0.437500000, 0.462890625, 0.488281250, -0.117187500, 0.267578125, 0.349609375, 0.783203125, 0.830078125, 0.480468750, -1.892578125, 0.093750000, 0.669921875, -0.589843750, 0.455078125, -1.541015625, 1.416015625, 0.232421875, 1.039062500, -0.771484375, -0.125000000, -1.527343750, 0.222656250, 0.009765625, -1.361328125, 0.642578125, -0.890625000, -1.181640625, 0.537109375, -0.277343750, 0.814453125, -0.154296875, -1.785156250, 0.818359375, 0.222656250, -0.019531250, 1.000000000, -0.414062500, 0.644531250, -0.105468750, -1.644531250, 0.966796875, -0.228515625, -1.339843750, 0.636718750, 0.011718750, -0.029296875, -0.875000000, -0.693359375, -0.148437500, -0.550781250, 0.648437500, 0.181640625, -0.007812500, -0.199218750, -0.201171875, 0.595703125, -0.761718750, 0.011718750, -0.056640625, 0.480468750, 0.027343750, 0.240234375, -0.810546875, 0.406250000, 0.033203125, 0.101562500, -0.099609375, -0.968750000, 0.253906250, 0.376953125, 0.333984375, 0.392578125, -0.253906250, 0.212890625, -0.189453125, -0.185546875, 0.544921875, 0.181640625, -1.171875000, -0.681640625, -0.175781250, 0.576171875, -0.367187500, 0.394531250, 0.230468750, 0.443359375, 0.759765625, 0.246093750, 0.384765625, -1.416015625, 0.710937500, -2.125000000, 0.015625000, -0.539062500, -0.111328125, 0.458984375, -0.880859375, 0.480468750, 0.343750000, -0.492187500, -0.292968750, 0.138671875, -0.283203125, 0.259765625, 0.232421875, -0.023437500, 0.228515625, 0.234375000, 0.417968750, -0.125000000, -0.179687500, -1.037109375, 0.773437500, -1.048828125, 0.451171875, -0.429687500, -1.312500000, 0.218750000, 0.375000000, 0.117187500, 0.513671875, 0.164062500, -1.208984375, 0.234375000, 0.167968750, 0.636718750, 1.056640625, -0.652343750, -0.779296875, 0.832031250, -0.056640625, -0.097656250, -1.080078125, -1.445312500, 0.978515625, -0.132812500, 0.568359375, -0.808593750, -0.384765625, 0.544921875, 0.525390625, 0.300781250, 0.101562500, -0.941406250, 0.398437500, -0.449218750, -0.470703125, 0.605468750, 1.021484375, -0.308593750, -0.060546875, -2.425781250, 0.613281250, -0.427734375, 0.630859375, 0.228515625, 0.914062500, -0.417968750, 0.619140625, -0.871093750, 0.308593750, 0.388671875, -2.007812500, -0.291015625, -0.267578125, -0.048828125, -0.859375000, -0.193359375, 0.650390625, -0.529296875, 0.250000000, 0.267578125, 0.595703125, 0.025390625, -0.353515625, -0.050781250, -0.279296875, -0.066406250, 0.126953125, -0.142578125, 0.076171875, 0.003906250, -0.447265625, -0.021484375, -0.187500000, 0.650390625, -0.339843750, -0.630859375, -0.435546875, 0.123046875, 0.132812500, -1.736328125, 0.417968750, -0.505859375, 0.462890625, 0.044921875, 0.419921875, -0.384765625, 0.410156250, 0.865234375, -1.283203125, -0.513671875, 0.187500000, 0.306640625, 0.851562500, -0.707031250, 0.605468750, -0.904296875, 0.240234375, 0.277343750, 0.025390625, -2.343750000, 0.343750000, 0.000000000, 0.603515625, -2.285156250, 0.300781250, 1.150390625, -0.294921875, -0.300781250, 0.333984375, 0.546875000, -0.029296875, -0.447265625, -1.339843750, 0.539062500, -0.837890625, -0.337890625, 0.453125000, 0.369140625, 0.646484375, 0.318359375, -1.343750000, -0.576171875, -0.910156250, 0.039062500, 1.593750000, -0.636718750, -0.255859375, 0.306640625, -0.035156250, 0.710937500, -1.328125000, -1.070312500, 0.189453125, -0.501953125, 0.576171875, 1.525390625, -0.289062500, 0.224609375, -0.361328125, 0.218750000, 1.037109375, -0.755859375, -1.630859375, 0.123046875, 0.597656250, 0.501953125, -0.486328125, 1.089843750, 0.318359375, -2.589843750, 0.832031250, -0.082031250, -0.470703125, -0.031250000, -0.560546875, -0.445312500, -0.289062500, 0.205078125, -0.076171875, 0.384765625, 0.210937500, 0.498046875, 0.410156250, 0.240234375, -1.443359375, -0.863281250, -1.623046875, 1.132812500, 0.009765625, 0.345703125, 0.916015625, 0.068359375, 0.080078125, -0.199218750, -0.253906250, 0.412109375, -0.416015625, 0.160156250, 0.363281250, 0.537109375, 0.230468750, 0.666015625, -1.675781250, -0.117187500, 0.337890625, 0.957031250, -0.832031250, 0.759765625, -1.103515625, -0.546875000, 0.392578125, 0.533203125, -0.425781250, 0.294921875, 0.412109375, 0.720703125, 0.148437500, -0.035156250, -0.927734375, 0.394531250, 0.509765625, -1.556640625, 0.158203125, 1.222656250, 0.650390625, -1.054687500, -1.179687500, 0.849609375, -0.832031250, 0.455078125, -0.466796875, 0.771484375, 0.056640625, 0.158203125, -0.238281250, -0.851562500, -0.896484375, -0.283203125, 1.285156250, 0.328125000, -1.003906250, 0.695312500, 0.105468750, 0.072265625, -0.710937500, -0.093750000, 0.460937500, -0.550781250, 0.841796875, 0.462890625, -1.037109375, 0.179687500, 0.080078125, -0.078125000, 0.074218750, 0.562500000, -0.781250000, 0.164062500, 0.044921875, 1.107421875, 0.193359375, -1.378906250, 0.335937500, -0.824218750, 0.224609375, 0.236328125, 0.568359375, 0.611328125, -0.287109375, 0.318359375, -0.556640625, 0.257812500, -0.744140625, 0.167968750, -0.199218750, -1.843750000, 0.396484375, 0.140625000, -0.232421875, -0.224609375, 0.585937500, -0.859375000, 0.636718750, 0.466796875, 0.449218750, -0.320312500, 0.685546875, -0.082031250, -1.251953125, -1.037109375, 0.666015625, 0.105468750, 0.238281250, -0.406250000, 1.878906250, 0.505859375, -0.193359375, -0.181640625, -1.658203125, -0.482421875, 0.244140625, -0.273437500, -0.066406250, 0.341796875, 0.769531250, 0.384765625, -0.173828125, -1.953125000, 0.605468750, -0.275390625, 0.107421875, 0.744140625, -1.537109375, 0.316406250, -1.552734375, 0.625000000, -0.898437500, -0.828125000, 1.318359375, 0.177734375, 0.943359375, 0.281250000, -0.611328125};

#endif

#endif
