//Numpy array shape [36, 10]
//Min -2.775390625000
//Max 1.587890625000
//Number of zeros 0

#ifndef W14_H_
#define W14_H_

#ifndef __SYNTHESIS__
weight14_t w14[360];
#else
weight14_t w14[360] = {-2.349609375, 1.466796875, -0.562500000, -0.005859375, 0.423828125, 1.201171875, -2.332031250, -0.279296875, -0.892578125, 0.068359375, 0.253906250, 0.957031250, -1.042968750, -1.650390625, -0.164062500, 0.748046875, 0.876953125, 0.929687500, 0.037109375, -0.750000000, -0.380859375, 0.710937500, 0.562500000, 0.160156250, 0.091796875, -0.912109375, 0.277343750, 1.574218750, -1.492187500, -0.835937500, -1.810546875, 0.017578125, 0.507812500, 0.751953125, -0.093750000, 0.230468750, -1.039062500, 0.908203125, 0.669921875, -1.248046875, 0.310546875, -0.960937500, -0.203125000, -0.810546875, -0.357421875, 0.404296875, 0.496093750, -1.253906250, 0.595703125, -0.083984375, 1.134765625, 0.574218750, 0.335937500, -0.439453125, -1.056640625, -0.500000000, 0.404296875, 0.781250000, -0.605468750, -1.412109375, 0.894531250, -0.974609375, -0.513671875, 0.845703125, -1.736328125, 0.697265625, -0.017578125, 0.177734375, -1.273437500, 0.330078125, 1.382812500, 0.267578125, 0.537109375, -1.167968750, -1.712890625, 0.625000000, 1.453125000, 0.037109375, -1.261718750, -1.449218750, 0.736328125, 0.472656250, -1.650390625, -0.513671875, 0.783203125, -0.910156250, -0.156250000, 0.802734375, -0.808593750, 0.369140625, 0.673828125, 0.511718750, -0.066406250, -1.556640625, -0.355468750, -1.925781250, 1.554687500, -0.695312500, -0.511718750, -0.423828125, 0.632812500, -1.599609375, -0.984375000, -0.425781250, 0.263671875, -0.314453125, 0.822265625, -1.349609375, -1.126953125, 1.070312500, -0.794921875, 0.382812500, 1.060546875, -0.947265625, -0.509765625, -0.175781250, 0.363281250, -0.619140625, 0.015625000, 0.458984375, 0.437500000, -0.132812500, 0.134765625, -0.089843750, 0.054687500, -0.101562500, -0.236328125, -0.144531250, 0.320312500, -0.160156250, -1.523437500, 0.152343750, -0.144531250, 0.208984375, 0.093750000, -0.162109375, -0.279296875, 0.287109375, 0.324218750, -0.117187500, -0.207031250, -0.271484375, -0.966796875, 0.250000000, -1.996093750, 0.673828125, -0.025390625, -0.912109375, 1.167968750, -0.332031250, 0.398437500, 0.097656250, -0.203125000, 0.181640625, 0.457031250, -0.353515625, -1.837890625, 0.369140625, -0.509765625, 0.568359375, -0.289062500, 1.251953125, 0.779296875, 0.566406250, -1.675781250, -0.580078125, -0.693359375, 1.001953125, -1.636718750, -0.599609375, 0.943359375, 0.626953125, 0.521484375, 0.748046875, -1.964843750, -0.449218750, -1.021484375, -0.472656250, 0.019531250, -0.273437500, -1.003906250, -0.242187500, 0.441406250, -0.089843750, 1.167968750, 0.294921875, -0.316406250, 0.134765625, -0.251953125, -0.599609375, 0.281250000, -0.146484375, -0.191406250, 0.050781250, 0.705078125, 0.109375000, 0.433593750, -1.550781250, -0.298828125, 0.445312500, 0.281250000, 0.380859375, 0.605468750, -1.611328125, 0.289062500, -0.492187500, 0.093750000, 0.986328125, 0.208984375, -0.533203125, 0.082031250, 0.218750000, 1.191406250, 0.880859375, -0.894531250, -0.712890625, -0.664062500, 0.648437500, 0.181640625, -0.939453125, 0.332031250, -0.371093750, -0.417968750, 0.718750000, 0.515625000, 0.154296875, -0.031250000, -1.619140625, -0.025390625, -0.671875000, -0.212890625, 0.203125000, 1.230468750, 0.244140625, 0.050781250, -1.308593750, -1.517578125, -0.136718750, -0.492187500, 0.564453125, 0.205078125, -1.550781250, 0.017578125, 0.470703125, -1.083984375, -0.201171875, -0.078125000, 0.289062500, 0.580078125, -0.027343750, 0.339843750, -0.460937500, -0.224609375, -0.128906250, 0.226562500, 0.583984375, -1.279296875, -0.558593750, 0.699218750, 0.724609375, -0.261718750, -0.925781250, -0.814453125, -0.199218750, 0.603515625, -0.414062500, 0.218750000, 0.394531250, 0.679687500, 0.732421875, 0.283203125, 0.744140625, -0.087890625, -1.316406250, 1.257812500, -0.261718750, 0.707031250, 0.146484375, -2.099609375, -0.029296875, 0.857421875, -0.513671875, -0.136718750, -1.140625000, 0.027343750, -1.695312500, -0.039062500, 0.234375000, -1.433593750, 1.587890625, -0.230468750, -0.902343750, -0.087890625, -0.150390625, -1.560546875, 0.808593750, -0.851562500, 0.503906250, -1.107421875, 0.541015625, 0.130859375, 0.707031250, 0.652343750, -1.503906250, 0.056640625, -1.644531250, 0.626953125, -0.234375000, 0.123046875, -0.085937500, 0.804687500, 0.113281250, -0.007812500, 0.324218750, -0.242187500, 0.091796875, 0.986328125, -2.775390625, 0.542968750, -1.496093750, 0.255859375, 0.400390625, 0.392578125, -0.357421875, -0.384765625, -0.070312500, 0.390625000, 0.386718750, -0.369140625, -2.111328125, -1.410156250, 1.392578125, -1.462890625, 0.501953125, -0.691406250, 0.839843750, -1.236328125, -0.505859375, 0.585937500, 0.091796875, -0.962890625, -1.062500000, -0.533203125, 0.574218750, 0.494140625, 0.214843750, 0.214843750, 0.054687500, -0.365234375, 0.427734375, -1.710937500, 0.308593750, 0.320312500, -0.644531250, -1.593750000, 0.695312500, 1.263671875, 0.445312500, -0.419921875, -0.201171875};

#endif

#endif
