//Numpy array shape [5, 5, 1, 3]
//Min -2.742187500000
//Max 4.361328125000
//Number of zeros 0

#ifndef W6_H_
#define W6_H_

#ifndef __SYNTHESIS__
weight6_t w6[75];
#else
weight6_t w6[75] = {-0.761718750, -1.033203125, -0.953125000, -0.166015625, -0.707031250, 0.289062500, -0.046875000, -0.470703125, 0.544921875, 0.099609375, -1.156250000, 0.052734375, 0.593750000, -0.740234375, 0.914062500, -0.296875000, 0.947265625, 0.539062500, -1.791015625, -0.470703125, 4.361328125, 1.128906250, -1.302734375, 0.654296875, 1.683593750, 0.914062500, -2.699218750, -0.564453125, 1.521484375, -0.201171875, 0.099609375, 0.544921875, -1.328125000, -2.742187500, 0.427734375, -0.734375000, 3.025390625, 3.273437500, 1.982421875, -1.988281250, 0.664062500, -1.195312500, -0.902343750, 0.398437500, 0.042968750, -0.064453125, 0.843750000, -1.085937500, 1.628906250, -0.255859375, -1.218750000, 1.365234375, -1.500000000, 0.439453125, 0.134765625, 2.644531250, 1.589843750, 0.328125000, 1.361328125, -0.101562500, -0.236328125, 0.556640625, 0.197265625, 0.509765625, -0.812500000, 0.376953125, 0.224609375, 0.318359375, 1.087890625, -0.513671875, -0.533203125, -0.228515625, -0.501953125, -0.332031250, -0.236328125};

#endif

#endif
