//Numpy array shape [7, 7, 1, 3]
//Min -3.031250000000
//Max 1.031250000000
//Number of zeros 5

#ifndef W5_H_
#define W5_H_

#ifndef __SYNTHESIS__
weight5_t w5[147];
#else
weight5_t w5[147] = {0.40625, 0.50000, -0.28125, 0.12500, 0.25000, -0.71875, -0.06250, -0.21875, -1.40625, -0.09375, -2.46875, 0.12500, -0.28125, -3.03125, -1.15625, -0.06250, -0.65625, -0.96875, 0.03125, -2.53125, 0.00000, 0.03125, -0.53125, -0.78125, -0.15625, -0.40625, -0.65625, 0.65625, 0.09375, 0.21875, -0.68750, 0.09375, 0.34375, -0.87500, -1.18750, 0.46875, 0.90625, -1.12500, -0.12500, -0.21875, -0.53125, 0.09375, -0.31250, -0.15625, -0.15625, 0.21875, -0.59375, 0.46875, 0.00000, -0.40625, 0.12500, -0.21875, 0.90625, -0.18750, -0.25000, 0.78125, 0.25000, 0.31250, -0.31250, 0.68750, -0.09375, -0.31250, 0.43750, -0.46875, 0.43750, 0.03125, -0.34375, 0.62500, 0.50000, 0.81250, 0.18750, 0.06250, -0.53125, -0.21875, -0.53125, 0.09375, 0.53125, -0.68750, 0.00000, 0.62500, -0.31250, -0.81250, -0.06250, 0.56250, -0.59375, -0.18750, -0.21875, 0.06250, 0.28125, 0.09375, 0.43750, 0.84375, 0.28125, -0.03125, 1.03125, 0.06250, 0.21875, -0.40625, -0.28125, 0.09375, 0.00000, -1.28125, -0.37500, -0.37500, -0.59375, -0.59375, 0.15625, 0.28125, 0.09375, -0.59375, 0.31250, 0.43750, -0.50000, 0.21875, 0.18750, 0.18750, 0.50000, -0.46875, -0.09375, 0.40625, 0.40625, -0.37500, 0.12500, -0.50000, 0.31250, -0.84375, 0.34375, -0.62500, 0.00000, -0.18750, -0.68750, -0.06250, 0.12500, -1.09375, 0.18750, 0.15625, -1.03125, 0.09375, 0.43750, 0.06250, -0.37500, 0.25000, -0.21875, -0.46875, -0.31250, -0.46875, -0.53125};

#endif

#endif
