//Numpy array shape [64]
//Min -0.689453125000
//Max 0.738281250000
//Number of zeros 0

#ifndef B11_H_
#define B11_H_

#ifndef __SYNTHESIS__
bias11_t b11[64];
#else
bias11_t b11[64] = {0.214843750, 0.056640625, -0.365234375, -0.244140625, -0.023437500, 0.121093750, 0.099609375, 0.236328125, 0.367187500, 0.408203125, 0.349609375, -0.052734375, -0.251953125, 0.234375000, 0.255859375, -0.345703125, 0.125000000, -0.054687500, -0.109375000, -0.300781250, 0.365234375, -0.689453125, 0.189453125, -0.427734375, -0.277343750, -0.273437500, 0.095703125, 0.138671875, 0.009765625, 0.738281250, -0.255859375, -0.363281250, 0.257812500, -0.216796875, 0.527343750, 0.021484375, 0.492187500, -0.263671875, 0.353515625, 0.265625000, -0.029296875, 0.273437500, 0.123046875, 0.154296875, 0.412109375, -0.427734375, 0.449218750, -0.177734375, -0.066406250, 0.375000000, 0.224609375, 0.193359375, 0.203125000, 0.164062500, -0.035156250, 0.177734375, -0.138671875, 0.169921875, -0.101562500, -0.271484375, 0.382812500, -0.019531250, 0.609375000, 0.453125000};

#endif

#endif
