//Numpy array shape [108, 36]
//Min -4.966796875000
//Max 2.664062500000
//Number of zeros 11

#ifndef W11_H_
#define W11_H_

#ifndef __SYNTHESIS__
weight11_t w11[3888];
#else
weight11_t w11[3888] = {-0.076171875, -0.015625000, -0.054687500, 0.160156250, 0.056640625, -0.207031250, 0.037109375, -0.183593750, -0.228515625, 0.029296875, -0.078125000, 0.244140625, -0.021484375, 0.074218750, -0.111328125, 0.158203125, -0.230468750, -0.111328125, 0.150390625, -0.062500000, -0.197265625, 0.291015625, 0.000000000, -0.197265625, -0.074218750, -0.140625000, -0.138671875, -0.203125000, -0.166015625, 0.183593750, 0.140625000, -0.175781250, 0.085937500, 0.011718750, 0.000000000, 0.025390625, -0.062500000, -0.148437500, -0.115234375, -0.076171875, 0.126953125, 0.062500000, 0.119140625, 0.205078125, -0.105468750, -0.009765625, 0.156250000, 0.212890625, 0.113281250, -0.167968750, -0.046875000, 0.070312500, -0.023437500, -0.039062500, 0.007812500, -0.167968750, 0.267578125, -0.097656250, 0.158203125, -0.248046875, 0.095703125, 0.029296875, 0.023437500, -0.041015625, -0.255859375, -0.056640625, 0.019531250, -0.031250000, 0.101562500, 0.023437500, 0.257812500, -0.271484375, -0.042968750, 0.142578125, 0.007812500, 0.031250000, 0.130859375, 0.068359375, 0.056640625, -0.054687500, 0.136718750, 0.234375000, 0.111328125, 0.275390625, -0.146484375, -0.087890625, 0.152343750, -0.009765625, 0.052734375, -0.033203125, -0.152343750, 0.083984375, -0.121093750, -0.205078125, 0.056640625, -0.277343750, -0.062500000, -0.050781250, -0.080078125, -0.037109375, 0.169921875, 0.007812500, -0.048828125, -0.048828125, 0.142578125, 0.205078125, 0.080078125, -0.062500000, -0.060546875, -0.130859375, 0.207031250, 0.072265625, -0.044921875, 0.039062500, -0.074218750, 0.044921875, -0.082031250, 0.013671875, 0.140625000, -0.115234375, -0.021484375, -0.054687500, 0.101562500, 0.078125000, -0.021484375, 0.152343750, 0.070312500, -0.148437500, -0.021484375, 0.062500000, -0.048828125, -0.181640625, -0.111328125, 0.093750000, -0.105468750, -0.037109375, -0.173828125, 0.011718750, -0.029296875, -0.078125000, 0.029296875, -0.048828125, 0.087890625, -0.240234375, 0.082031250, -0.207031250, 0.142578125, -0.054687500, -0.212890625, -0.230468750, -0.044921875, -0.031250000, -0.041015625, 0.091796875, 0.021484375, 0.085937500, 0.173828125, 0.253906250, 0.191406250, 0.009765625, 0.179687500, 0.146484375, 0.132812500, -0.253906250, -0.039062500, -0.289062500, -0.183593750, 0.054687500, 0.066406250, -0.162109375, -0.054687500, -0.099609375, -0.193359375, -0.154296875, -0.261718750, 0.101562500, 0.042968750, -0.074218750, 0.056640625, 0.013671875, -0.107421875, 0.066406250, -0.126953125, 0.154296875, 0.199218750, -0.123046875, -0.058593750, -0.123046875, 0.167968750, 0.164062500, 0.076171875, -0.128906250, 0.162109375, -0.029296875, 0.052734375, 0.013671875, -0.105468750, -0.150390625, -0.033203125, 0.207031250, -0.074218750, 0.109375000, -0.066406250, -0.021484375, 0.076171875, 0.029296875, 0.035156250, 0.076171875, -0.013671875, -0.275390625, 0.009765625, -0.087890625, -0.017578125, -0.111328125, 0.066406250, -0.111328125, 0.029296875, -0.171875000, -0.132812500, 0.212890625, 0.216796875, -0.097656250, 0.074218750, 0.304687500, 0.181640625, 0.080078125, -0.078125000, 0.085937500, -0.046875000, 0.169921875, 0.171875000, -0.142578125, 0.076171875, -0.046875000, 0.044921875, 0.156250000, -0.089843750, -0.074218750, -0.083984375, 0.029296875, -0.097656250, -0.070312500, -0.296875000, -0.011718750, -0.031250000, -0.220703125, -0.119140625, 0.035156250, 0.070312500, 0.033203125, 0.007812500, 0.164062500, -0.021484375, -0.105468750, 0.046875000, -0.173828125, 0.246093750, 0.015625000, -0.070312500, 0.001953125, -0.107421875, -0.160156250, -0.138671875, 0.091796875, 0.125000000, 0.039062500, -0.101562500, 0.050781250, 0.138671875, 0.162109375, 0.033203125, 0.189453125, -0.087890625, 0.171875000, -0.113281250, 0.144531250, -0.007812500, 0.074218750, -0.109375000, 0.111328125, 0.154296875, 0.191406250, 0.173828125, 0.033203125, -0.220703125, -0.041015625, -0.070312500, 0.031250000, 0.146484375, -0.056640625, -0.052734375, 0.037109375, -0.091796875, 0.023437500, 0.074218750, 0.074218750, -0.115234375, -0.052734375, -0.119140625, -0.044921875, -0.087890625, -0.134765625, 0.046875000, 0.093750000, -0.060546875, -0.099609375, 0.123046875, 0.171875000, 0.205078125, -0.119140625, -0.074218750, 0.275390625, -0.117187500, -0.179687500, -0.078125000, -0.269531250, -0.218750000, -0.130859375, -0.126953125, 0.167968750, 0.111328125, -0.123046875, -0.076171875, -0.111328125, 0.251953125, -0.068359375, -0.083984375, 0.082031250, 0.017578125, 0.162109375, -0.244140625, -0.156250000, 0.234375000, -0.076171875, 0.246093750, 0.011718750, 0.062500000, 0.208984375, -0.007812500, -0.107421875, 0.005859375, -0.140625000, -0.087890625, 0.236328125, 0.121093750, -0.099609375, -0.013671875, -0.220703125, -0.250000000, -0.076171875, -0.164062500, -0.119140625, 0.029296875, -0.269531250, 0.056640625, 0.062500000, 0.013671875, 0.007812500, -0.148437500, -0.175781250, -0.228515625, -0.056640625, 0.042968750, -0.175781250, -0.068359375, 0.136718750, 0.130859375, -0.039062500, -0.187500000, -0.255859375, -0.224609375, -0.046875000, 0.009765625, -0.238281250, -0.183593750, -0.042968750, 0.037109375, -0.039062500, 0.187500000, -0.085937500, -0.037109375, 0.242187500, 0.253906250, -0.117187500, 0.078125000, 0.060546875, -0.201171875, 0.050781250, -0.191406250, 0.021484375, 0.089843750, 0.115234375, -0.148437500, -0.199218750, -0.134765625, -0.048828125, 0.046875000, -0.273437500, -0.169921875, 0.082031250, 0.156250000, 0.007812500, -0.005859375, -0.039062500, -0.085937500, 0.080078125, 0.005859375, -0.052734375, -0.121093750, 0.150390625, -0.273437500, -0.046875000, 0.117187500, -0.101562500, -0.175781250, 0.218750000, 0.222656250, -0.019531250, 0.031250000, -0.005859375, -0.001953125, 0.177734375, -0.105468750, -0.126953125, 0.125000000, -0.126953125, -0.027343750, 0.212890625, 0.183593750, 0.027343750, -0.179687500, 0.017578125, -0.093750000, 0.259765625, -0.103515625, 0.261718750, -0.099609375, 0.095703125, 0.199218750, 0.033203125, -0.017578125, -0.078125000, -0.064453125, -0.046875000, -0.214843750, 0.003906250, -0.111328125, -0.060546875, -0.056640625, -0.023437500, -0.294921875, -0.197265625, -0.009765625, -0.201171875, -0.076171875, -0.236328125, -0.177734375, -0.042968750, 0.099609375, -0.164062500, 0.052734375, -0.062500000, 0.158203125, -0.156250000, -0.107421875, -0.179687500, 0.052734375, 0.179687500, -0.144531250, 0.041015625, -0.007812500, 0.187500000, -0.107421875, -0.216796875, -0.048828125, -0.041015625, -0.183593750, 0.044921875, -0.167968750, 0.162109375, -0.191406250, 0.054687500, 0.037109375, -0.093750000, -0.121093750, -0.017578125, 0.103515625, 0.013671875, -0.037109375, 0.003906250, -0.058593750, -0.107421875, -0.056640625, -0.005859375, -0.125000000, 0.007812500, 0.074218750, 0.246093750, 0.052734375, 0.039062500, -0.091796875, 0.027343750, -0.171875000, -0.023437500, 0.089843750, -0.013671875, 0.046875000, 0.007812500, -0.148437500, 0.025390625, 0.142578125, 0.080078125, 0.162109375, 0.117187500, 0.103515625, -0.099609375, -0.158203125, -0.173828125, 0.181640625, -0.132812500, 0.021484375, 0.095703125, 0.068359375, 0.064453125, 0.015625000, -0.154296875, -0.119140625, -0.167968750, -0.130859375, -0.177734375, -0.150390625, -0.023437500, 0.224609375, -0.210937500, 0.166015625, 0.080078125, -0.169921875, -0.164062500, -0.056640625, -0.070312500, -0.068359375, -0.269531250, -0.121093750, 0.283203125, 0.218750000, -0.144531250, -0.039062500, 0.060546875, -0.130859375, 0.203125000, 0.298828125, -0.138671875, 0.105468750, -0.087890625, 0.125000000, 0.130859375, -0.064453125, 0.167968750, 0.224609375, 0.013671875, -0.244140625, 0.152343750, -0.041015625, 0.058593750, 0.078125000, 0.097656250, -0.007812500, -0.015625000, 0.269531250, -0.023437500, 0.021484375, -0.031250000, 0.062500000, -0.070312500, 0.167968750, 0.085937500, 0.126953125, -0.103515625, 0.095703125, -0.144531250, 0.115234375, 0.044921875, -0.083984375, 0.126953125, 0.009765625, -0.234375000, -0.083984375, -0.195312500, 0.279296875, 0.023437500, 0.025390625, -0.230468750, 0.009765625, -0.197265625, -0.109375000, 0.121093750, -0.166015625, -0.080078125, 0.218750000, 0.291015625, -0.072265625, 0.066406250, -0.136718750, 0.054687500, 0.027343750, 0.078125000, 0.103515625, -0.226562500, 0.189453125, 0.011718750, 0.138671875, -0.039062500, -0.095703125, 0.078125000, 0.068359375, 0.085937500, 0.037109375, 0.013671875, -0.005859375, 0.201171875, -0.123046875, 0.017578125, 0.021484375, -0.009765625, -0.064453125, -0.027343750, -0.033203125, 0.101562500, -0.119140625, 0.214843750, 0.166015625, 0.052734375, 0.113281250, -0.091796875, -0.128906250, 0.011718750, 0.080078125, -0.201171875, -0.210937500, 0.060546875, 0.101562500, 0.087890625, 0.210937500, -0.017578125, -0.183593750, 0.052734375, -0.001953125, -0.236328125, -0.021484375, 0.160156250, 0.109375000, -0.201171875, -0.082031250, 0.244140625, 0.039062500, 0.083984375, 0.123046875, 0.195312500, 0.048828125, 0.253906250, -0.136718750, 0.031250000, -0.224609375, -0.257812500, -0.023437500, -0.125000000, 0.208984375, 0.015625000, 0.023437500, 0.013671875, -0.007812500, 0.248046875, -0.134765625, -0.187500000, -0.183593750, 0.128906250, 0.207031250, 0.068359375, 0.259765625, -0.173828125, 0.097656250, 0.070312500, 0.158203125, -0.029296875, -0.162109375, -0.037109375, -0.054687500, 0.078125000, -0.003906250, -0.123046875, 0.179687500, -0.222656250, -0.005859375, -0.068359375, -0.132812500, -0.009765625, -0.037109375, 0.007812500, -0.041015625, -0.154296875, 0.099609375, -0.148437500, -0.175781250, -0.201171875, 0.105468750, 0.121093750, -0.044921875, 0.044921875, 0.058593750, -0.021484375, 0.003906250, -0.101562500, 0.152343750, 0.037109375, 0.107421875, 0.041015625, -0.197265625, 0.111328125, 0.201171875, 0.195312500, 0.085937500, 0.220703125, 0.076171875, 0.203125000, -0.039062500, 0.033203125, 0.066406250, -0.148437500, 0.097656250, 0.078125000, 0.041015625, 0.041015625, 0.152343750, -0.111328125, 0.203125000, -0.050781250, -0.080078125, 0.306640625, -0.179687500, 0.072265625, 0.003906250, -0.054687500, 0.189453125, -0.023437500, -0.115234375, 0.062500000, 0.130859375, 0.048828125, 0.234375000, -0.078125000, -0.230468750, 0.169921875, -0.070312500, 0.072265625, 0.037109375, 0.072265625, 0.652343750, -2.169921875, 0.849609375, -1.042968750, 1.560546875, 0.408203125, 0.722656250, -0.099609375, -1.285156250, -0.005859375, -0.906250000, -0.291015625, 0.396484375, -0.343750000, 1.253906250, 0.632812500, -0.103515625, 1.746093750, 0.820312500, 0.373046875, -0.279296875, 0.505859375, 0.935546875, 0.830078125, -0.369140625, 0.263671875, -0.939453125, -0.001953125, -0.542968750, -0.792968750, -0.011718750, 0.191406250, -0.035156250, 0.750000000, -0.468750000, -0.300781250, -0.068359375, -0.679687500, 0.056640625, -0.289062500, 0.466796875, 0.603515625, -0.880859375, -0.351562500, 0.285156250, 0.873046875, -1.681640625, 0.541015625, -0.429687500, 0.296875000, -0.902343750, -0.126953125, 0.330078125, 0.904296875, 0.730468750, -0.111328125, 0.220703125, 1.093750000, -0.533203125, -0.447265625, 1.310546875, 0.351562500, -0.306640625, -0.460937500, -0.091796875, -0.250000000, -0.597656250, 0.296875000, -0.201171875, 0.187500000, -0.240234375, 0.208984375, 1.162109375, -1.486328125, 0.578125000, 0.345703125, 0.906250000, 0.021484375, -0.832031250, 0.818359375, 0.728515625, -1.089843750, 0.083984375, -0.384765625, 0.126953125, 0.544921875, 0.089843750, -1.845703125, 0.064453125, -0.925781250, 1.341796875, 0.353515625, -0.035156250, -1.480468750, 0.986328125, 0.080078125, -0.980468750, -0.851562500, -0.423828125, 1.394531250, 1.330078125, -0.935546875, 1.921875000, 0.417968750, 0.248046875, 0.683593750, -0.527343750, -0.169921875, 0.859375000, -0.595703125, 0.406250000, -0.707031250, 0.875000000, -0.863281250, 0.656250000, 0.654296875, 0.839843750, -0.570312500, 0.677734375, -0.697265625, -0.123046875, 0.695312500, -0.101562500, -0.072265625, -1.027343750, -0.455078125, 0.972656250, 0.294921875, 0.033203125, -0.414062500, 0.644531250, 0.882812500, -1.761718750, 1.220703125, 0.089843750, 1.287109375, -0.783203125, -0.113281250, 0.222656250, -0.003906250, 0.291015625, 1.269531250, 0.710937500, -0.570312500, 0.044921875, 0.029296875, 0.103515625, 0.054687500, -0.736328125, 0.785156250, -0.378906250, -0.548828125, 0.302734375, 0.701171875, -0.662109375, 0.078125000, 0.287109375, 0.337890625, 0.671875000, 0.949218750, 1.203125000, 0.853515625, 1.183593750, 0.115234375, -0.197265625, 0.576171875, -0.273437500, 0.099609375, 0.113281250, 0.007812500, 0.251953125, 0.093750000, -1.654296875, 0.396484375, -0.060546875, 0.339843750, 0.621093750, -0.513671875, 0.548828125, 0.292968750, 0.062500000, -0.009765625, 0.337890625, -0.349609375, 1.242187500, 0.421875000, -0.906250000, 0.441406250, 0.580078125, -0.125000000, -0.128906250, 0.013671875, -0.501953125, -0.578125000, 0.294921875, -0.330078125, 0.968750000, 0.169921875, 1.421875000, -0.380859375, -0.031250000, -1.134765625, -0.822265625, 0.279296875, -1.214843750, -0.935546875, 0.468750000, 0.923828125, 0.322265625, -0.378906250, 0.449218750, -0.271484375, -1.335937500, 0.568359375, -0.119140625, 1.007812500, 0.890625000, -0.447265625, 1.093750000, -0.275390625, 0.322265625, 0.105468750, 1.568359375, -0.427734375, 0.265625000, -0.478515625, 0.164062500, 0.029296875, -0.318359375, 0.613281250, -2.101562500, 0.144531250, 0.458984375, -0.351562500, 0.738281250, -0.068359375, -0.126953125, -0.546875000, 0.162109375, 0.519531250, 0.164062500, 0.207031250, -0.937500000, 0.751953125, 0.371093750, -0.001953125, 0.656250000, -0.140625000, 0.732421875, 1.300781250, -0.328125000, -0.333984375, 1.300781250, 0.132812500, -0.544921875, 0.607421875, -0.755859375, 0.056640625, -0.658203125, -0.609375000, 0.402343750, -0.105468750, 0.437500000, -0.318359375, 0.761718750, 0.693359375, -0.789062500, 0.501953125, -0.357421875, 0.029296875, 0.755859375, 1.164062500, -0.175781250, 0.382812500, -0.281250000, 0.255859375, 1.021484375, 0.718750000, 0.044921875, -0.255859375, -0.939453125, -0.349609375, 0.533203125, -0.261718750, 0.863281250, -0.250000000, 1.041015625, -0.062500000, -0.337890625, -0.076171875, -0.900390625, -0.648437500, 0.425781250, 0.519531250, 0.802734375, -1.753906250, 0.753906250, -0.429687500, -0.097656250, 0.597656250, -1.009765625, -0.400390625, -1.009765625, 0.609375000, 0.675781250, 0.179687500, 0.900390625, -1.660156250, -0.015625000, -0.125000000, 0.562500000, 0.146484375, -1.689453125, -0.675781250, 0.658203125, 0.439453125, -1.205078125, 0.410156250, -0.722656250, 0.066406250, -0.380859375, -0.230468750, 1.355468750, 0.324218750, 1.531250000, -0.056640625, 0.029296875, 0.974609375, 0.500000000, -0.080078125, 0.142578125, -0.634765625, -0.273437500, 0.490234375, -0.619140625, -0.294921875, 0.761718750, 1.628906250, -3.150390625, 0.550781250, -1.177734375, -0.162109375, 0.134765625, 0.080078125, -0.080078125, -0.478515625, -0.382812500, -0.759765625, -0.269531250, 0.169921875, 0.761718750, -0.001953125, 0.550781250, 0.544921875, 0.791015625, -0.601562500, 1.351562500, 0.203125000, -0.839843750, 0.044921875, 1.408203125, 0.166015625, -1.064453125, 0.615234375, -1.318359375, 0.074218750, 0.625000000, 0.419921875, 1.179687500, 0.166015625, -0.708984375, -0.748046875, 0.789062500, -0.019531250, -2.984375000, 0.685546875, -0.138671875, 0.646484375, -0.183593750, 1.378906250, -0.097656250, 0.210937500, 0.164062500, -0.529296875, -0.152343750, -0.470703125, 0.248046875, 0.560546875, 0.818359375, -0.906250000, 0.589843750, 0.003906250, 0.607421875, -0.402343750, 0.343750000, 0.005859375, 1.445312500, -0.513671875, -0.539062500, -0.460937500, 1.416015625, 1.570312500, 0.931640625, -1.849609375, 0.857421875, 0.634765625, 0.554687500, 0.578125000, -0.777343750, -0.271484375, -1.013671875, 1.164062500, 1.191406250, -0.390625000, -0.753906250, -0.650390625, 0.011718750, 0.097656250, 0.703125000, 0.351562500, 1.064453125, -0.703125000, 1.783203125, -0.041015625, 0.375000000, -0.835937500, -0.585937500, 0.451171875, 0.335937500, -0.833984375, 2.380859375, 0.785156250, 0.011718750, 0.003906250, 0.087890625, -0.177734375, 0.095703125, -0.107421875, 0.253906250, 0.029296875, 0.080078125, -0.023437500, -0.111328125, -0.292968750, 0.019531250, 0.101562500, 0.181640625, 0.019531250, -0.015625000, 0.021484375, -0.123046875, 0.183593750, 0.080078125, -0.166015625, -0.158203125, 0.007812500, 0.013671875, -0.015625000, -0.011718750, -0.080078125, -0.292968750, -0.191406250, -0.240234375, -0.007812500, -0.046875000, 0.093750000, 0.265625000, 0.244140625, -0.101562500, 0.097656250, -0.222656250, -0.105468750, 0.050781250, 0.011718750, 0.072265625, -0.042968750, -0.085937500, 0.191406250, 0.130859375, 0.097656250, -0.306640625, 0.136718750, 0.119140625, -0.003906250, 0.003906250, -0.166015625, -0.054687500, -0.203125000, 0.074218750, -0.148437500, 0.076171875, -0.007812500, -0.195312500, 0.214843750, -0.238281250, -0.044921875, 0.162109375, 0.011718750, -0.099609375, -0.066406250, -0.080078125, 0.023437500, -0.181640625, 0.007812500, 0.070312500, 0.126953125, -0.160156250, 0.158203125, 0.027343750, 0.074218750, -0.025390625, 0.037109375, 0.105468750, -0.134765625, -0.132812500, 0.021484375, -0.177734375, -0.207031250, 0.070312500, 0.000000000, -0.093750000, 0.210937500, 0.128906250, 0.107421875, 0.203125000, 0.136718750, 0.064453125, 0.035156250, -0.044921875, -0.199218750, 0.224609375, 0.015625000, 0.089843750, -0.019531250, -0.181640625, 0.083984375, 0.121093750, -0.140625000, -0.048828125, 0.111328125, 0.091796875, -0.107421875, -0.103515625, -0.019531250, -0.140625000, -0.011718750, 0.003906250, 0.183593750, -0.050781250, 0.017578125, -0.050781250, 0.007812500, 0.074218750, 0.132812500, -0.078125000, 0.121093750, 0.167968750, 0.087890625, 0.263671875, 0.216796875, 0.046875000, 0.167968750, 0.050781250, 0.113281250, 0.017578125, 0.126953125, -0.128906250, -0.087890625, 0.058593750, -0.126953125, 0.021484375, 0.203125000, -0.056640625, -0.005859375, -0.089843750, -0.195312500, 0.013671875, 0.205078125, 0.154296875, 0.128906250, 0.058593750, 0.117187500, -0.187500000, 0.037109375, -0.023437500, -0.039062500, 0.238281250, 0.183593750, -0.039062500, 0.011718750, -0.193359375, 0.097656250, -0.042968750, -0.044921875, 0.064453125, 0.179687500, -0.044921875, 0.183593750, 0.060546875, 0.171875000, 0.138671875, 0.154296875, 0.013671875, 0.052734375, -0.097656250, 0.089843750, -0.164062500, 0.123046875, -0.021484375, -0.136718750, -0.054687500, 0.103515625, 0.054687500, 0.109375000, 0.072265625, 0.009765625, 0.162109375, 0.123046875, 0.105468750, 0.179687500, -0.003906250, 0.117187500, -0.197265625, -0.058593750, 0.226562500, -0.103515625, -0.060546875, -0.154296875, -0.255859375, 0.074218750, -0.070312500, -0.035156250, -0.017578125, 0.173828125, -0.076171875, -0.208984375, -0.134765625, -0.019531250, 0.160156250, 0.021484375, -0.017578125, -0.107421875, 0.041015625, -0.101562500, 0.007812500, -0.072265625, -0.103515625, 0.048828125, 0.134765625, -1.037109375, -0.257812500, -0.052734375, -0.195312500, -2.833984375, -1.267578125, 0.072265625, 0.173828125, -0.199218750, 0.099609375, 0.386718750, 0.308593750, 0.253906250, 0.597656250, -2.179687500, -0.814453125, -0.089843750, -0.345703125, 0.814453125, -0.232421875, -0.031250000, 0.257812500, 0.208984375, -0.617187500, 0.158203125, -0.169921875, -0.312500000, 0.144531250, -0.185546875, 0.392578125, 0.269531250, 0.402343750, 0.546875000, 0.339843750, 0.167968750, -0.093750000, -0.839843750, 0.072265625, 0.261718750, 0.410156250, 0.005859375, -0.232421875, 0.261718750, 0.503906250, 0.558593750, 0.046875000, 0.541015625, -0.193359375, -0.287109375, -0.412109375, 0.087890625, -0.925781250, 0.582031250, -0.048828125, 0.164062500, -0.042968750, 0.263671875, 0.056640625, -0.179687500, 0.365234375, 0.208984375, 0.171875000, -0.181640625, 0.246093750, 0.484375000, 0.458984375, 0.541015625, 0.064453125, -0.339843750, -0.017578125, 0.699218750, 0.001953125, -0.107421875, 0.458984375, 0.712890625, -0.156250000, 0.878906250, -0.482421875, -0.818359375, 0.587890625, 0.511718750, -0.773437500, 0.648437500, 0.205078125, 0.292968750, 0.238281250, -0.263671875, 0.265625000, -0.556640625, -0.423828125, -0.029296875, -0.222656250, 0.363281250, -0.398437500, -0.238281250, 0.078125000, -0.373046875, 0.292968750, -0.332031250, 0.412109375, 0.154296875, 0.101562500, 0.257812500, -0.468750000, 0.136718750, -0.107421875, -0.185546875, 0.281250000, -0.128906250, -0.384765625, 0.140625000, 0.236328125, -0.416015625, -0.031250000, 0.113281250, 0.646484375, 0.054687500, 0.046875000, 0.570312500, -0.099609375, 0.390625000, -0.082031250, -1.558593750, 0.548828125, -0.566406250, -0.095703125, -0.027343750, -0.064453125, 0.304687500, 0.632812500, 0.212890625, -0.017578125, 0.185546875, 0.232421875, -0.384765625, 0.380859375, 0.140625000, 0.048828125, -1.726562500, 0.041015625, -0.078125000, -0.064453125, -0.376953125, -0.087890625, 0.076171875, 0.183593750, 0.218750000, -0.160156250, 0.005859375, -0.294921875, -0.250000000, 0.367187500, 0.658203125, 0.617187500, 0.312500000, 0.107421875, -0.710937500, 0.248046875, 0.667968750, -0.058593750, 0.080078125, -0.333984375, 0.320312500, -0.033203125, 0.136718750, -0.968750000, -0.441406250, 0.105468750, 0.683593750, -0.027343750, 0.447265625, -0.003906250, 0.193359375, -0.203125000, 1.060546875, 0.060546875, 0.050781250, 0.500000000, 0.587890625, -0.083984375, 0.234375000, 0.097656250, 0.296875000, -0.214843750, 0.347656250, -0.531250000, 0.554687500, 0.158203125, 0.380859375, 0.156250000, -0.080078125, 0.398437500, 0.851562500, 0.304687500, -1.023437500, -1.265625000, -0.087890625, -0.511718750, 0.066406250, -0.111328125, -0.015625000, -0.330078125, 0.013671875, 0.359375000, -0.240234375, 0.539062500, 0.296875000, -0.050781250, 0.642578125, 0.228515625, 0.041015625, -0.599609375, -0.167968750, 0.183593750, 0.001953125, -0.408203125, 0.324218750, 0.835937500, 0.498046875, 0.822265625, -0.015625000, -0.162109375, -0.732421875, 0.166015625, 0.173828125, 0.154296875, 0.537109375, 0.332031250, 0.095703125, 0.660156250, 0.205078125, 0.416015625, 0.244140625, 0.343750000, -1.728515625, 0.019531250, -0.134765625, 0.091796875, -0.138671875, 0.677734375, 0.376953125, 0.201171875, -1.093750000, 1.031250000, 1.044921875, -0.025390625, -0.009765625, -0.050781250, -0.212890625, -0.269531250, 0.523437500, 0.992187500, -0.253906250, 0.224609375, 0.255859375, -0.304687500, 0.195312500, 0.482421875, 0.578125000, 0.322265625, 0.240234375, 0.201171875, 0.054687500, 0.943359375, -0.832031250, 0.140625000, 0.404296875, 0.019531250, 0.416015625, 0.070312500, 0.726562500, -0.142578125, -0.054687500, -0.175781250, 0.074218750, -0.095703125, 0.113281250, -0.261718750, -0.968750000, -0.009765625, -0.193359375, 0.167968750, -0.457031250, 0.574218750, 0.826171875, 0.941406250, 0.603515625, -0.589843750, -0.005859375, -0.246093750, 0.230468750, -0.210937500, -0.054687500, 0.216796875, -0.013671875, 0.451171875, -0.101562500, -0.470703125, 0.515625000, 0.029296875, 0.390625000, -0.121093750, -0.166015625, -0.718750000, 0.097656250, -0.292968750, 0.078125000, 0.007812500, 0.636718750, 0.650390625, -0.218750000, 0.570312500, 0.058593750, 0.355468750, 0.458984375, -0.128906250, 0.529296875, -0.681640625, -0.388671875, -0.642578125, -0.017578125, -0.222656250, -0.259765625, 0.355468750, -0.802734375, 1.525390625, -0.091796875, -0.650390625, -0.382812500, 0.650390625, -1.623046875, 0.728515625, 0.023437500, -0.066406250, 0.871093750, 0.146484375, 0.585937500, -1.123046875, -0.064453125, 0.802734375, 0.193359375, 0.591796875, -0.937500000, 0.181640625, -0.210937500, -0.339843750, 0.156250000, -0.126953125, 0.707031250, 0.869140625, 0.027343750, 0.427734375, 0.433593750, -0.322265625, -0.472656250, 0.470703125, -0.248046875, -0.464843750, 0.222656250, 0.701171875, 0.050781250, -0.201171875, 0.291015625, -0.726562500, 0.591796875, 0.638671875, 0.916015625, 1.074218750, -0.197265625, 0.253906250, -0.228515625, 0.373046875, 0.277343750, -0.044921875, 0.138671875, -0.603515625, 0.275390625, -1.636718750, 0.263671875, -0.113281250, -0.599609375, -0.435546875, -0.085937500, 0.265625000, -0.681640625, 0.630859375, -1.863281250, -0.216796875, 0.523437500, 0.371093750, -0.417968750, 0.570312500, -0.371093750, -0.976562500, 0.031250000, 0.330078125, -0.546875000, -1.343750000, -0.291015625, -0.470703125, 0.041015625, 0.503906250, 0.021484375, 0.082031250, 1.035156250, -0.205078125, 0.357421875, 0.064453125, -1.152343750, 1.105468750, 0.398437500, -0.193359375, 0.287109375, -0.308593750, -0.761718750, -0.029296875, 0.474609375, -0.025390625, 0.279296875, 0.935546875, 0.400390625, 1.316406250, -0.429687500, 0.236328125, 0.187500000, -0.933593750, 0.076171875, 0.617187500, 0.173828125, 0.123046875, -0.330078125, 0.085937500, 0.037109375, -0.138671875, -0.074218750, 0.105468750, -0.003906250, -0.292968750, 0.128906250, -0.058593750, 0.121093750, 0.162109375, 0.177734375, -0.111328125, 0.005859375, -0.267578125, 0.173828125, -0.201171875, -0.183593750, 0.013671875, -0.126953125, 0.171875000, 0.115234375, 0.144531250, 0.068359375, 0.144531250, 0.068359375, -0.191406250, -0.091796875, -0.046875000, -0.095703125, 0.156250000, -0.203125000, 0.189453125, 0.060546875, 0.097656250, 0.041015625, 0.273437500, 0.037109375, -0.228515625, -0.187500000, 0.230468750, -0.142578125, 0.015625000, -0.201171875, 0.025390625, 0.138671875, 0.042968750, 0.181640625, 0.083984375, 0.171875000, -0.095703125, -0.019531250, -0.152343750, -0.285156250, -0.205078125, 0.226562500, -0.197265625, 0.041015625, -0.017578125, 0.091796875, 0.060546875, 0.052734375, 0.023437500, 0.015625000, -0.228515625, -0.074218750, 0.205078125, 0.029296875, 0.107421875, -0.013671875, -0.171875000, 0.015625000, -0.085937500, -0.089843750, 0.066406250, 0.167968750, 0.169921875, -0.005859375, 0.148437500, -0.271484375, -0.064453125, -0.173828125, 0.224609375, -0.103515625, -0.029296875, 0.007812500, -0.076171875, -0.212890625, 0.041015625, 0.117187500, 0.001953125, 0.134765625, -0.187500000, -0.025390625, -0.015625000, 0.015625000, 0.119140625, -0.234375000, 0.148437500, 0.013671875, -0.158203125, 0.025390625, 0.080078125, 0.156250000, -0.083984375, 0.091796875, 0.044921875, 0.107421875, 0.142578125, 0.066406250, 0.029296875, -0.214843750, 0.021484375, 0.054687500, -0.164062500, -0.166015625, -0.144531250, -0.109375000, 0.208984375, -0.029296875, 0.294921875, -0.179687500, -0.041015625, -0.085937500, -0.078125000, -0.246093750, 0.044921875, -0.160156250, 0.005859375, -0.064453125, 0.222656250, 0.234375000, -0.087890625, 0.005859375, -0.046875000, 0.121093750, 0.175781250, 0.064453125, 0.041015625, -0.115234375, -0.062500000, 0.177734375, -0.181640625, -0.089843750, 0.123046875, 0.218750000, 0.142578125, 0.216796875, 0.113281250, 0.115234375, -0.148437500, -0.296875000, 0.126953125, -0.109375000, -0.134765625, 0.130859375, -0.123046875, 0.058593750, 0.251953125, -0.259765625, 0.017578125, -0.054687500, -0.119140625, -0.125000000, -0.001953125, 0.269531250, -0.046875000, 0.230468750, -0.222656250, 0.259765625, -0.121093750, 0.160156250, 0.074218750, -0.126953125, -0.056640625, 0.005859375, 0.062500000, 0.007812500, 0.060546875, -0.107421875, -0.003906250, -0.156250000, -0.212890625, 0.171875000, -0.029296875, 0.107421875, 0.203125000, -0.123046875, 0.064453125, -0.191406250, 0.089843750, -0.001953125, -0.007812500, 0.042968750, 0.021484375, 0.066406250, 0.091796875, 0.208984375, -0.017578125, -0.298828125, 0.191406250, -0.017578125, -0.019531250, 0.177734375, 0.017578125, -0.253906250, 0.095703125, 0.111328125, 0.046875000, -0.222656250, -0.185546875, 0.232421875, 0.259765625, -0.017578125, -0.191406250, 0.070312500, -0.121093750, -1.697265625, 0.666015625, -0.394531250, 1.248046875, -0.351562500, -0.324218750, -0.351562500, -1.011718750, -0.753906250, -0.167968750, -0.076171875, 0.773437500, -0.535156250, -0.212890625, -0.406250000, -0.326171875, 0.009765625, -0.341796875, 0.037109375, -0.029296875, -0.017578125, 0.093750000, 0.396484375, 0.146484375, 0.001953125, 1.248046875, -2.337890625, 0.513671875, -0.140625000, -0.695312500, 0.929687500, 0.371093750, 0.246093750, -0.398437500, -0.445312500, -0.158203125, 0.556640625, -0.648437500, 0.507812500, -0.359375000, 0.562500000, 0.757812500, 1.205078125, 0.851562500, -0.236328125, 0.111328125, -0.046875000, -0.933593750, -0.644531250, 0.183593750, 0.333984375, -0.052734375, 0.310546875, -0.429687500, -0.355468750, 0.171875000, 0.417968750, 0.906250000, -0.542968750, -0.199218750, 0.031250000, 0.222656250, 0.480468750, 0.105468750, -0.757812500, 0.437500000, -0.072265625, 0.164062500, -0.267578125, -0.001953125, 0.562500000, 0.134765625, -0.824218750, -0.347656250, 0.556640625, 0.599609375, 1.761718750, 1.302734375, -0.470703125, 0.570312500, -0.591796875, 0.066406250, 0.701171875, -0.468750000, -1.011718750, 1.056640625, -0.265625000, 0.187500000, -0.187500000, 0.527343750, 0.203125000, -0.203125000, 0.199218750, 0.794921875, -0.230468750, -0.701171875, 0.171875000, -0.097656250, -0.064453125, -0.933593750, -0.496093750, 0.802734375, -0.410156250, 0.289062500, -0.355468750, -0.033203125, 0.361328125, 0.054687500, 0.462890625, -0.203125000, -0.953125000, 0.359375000, 0.058593750, -0.085937500, -0.109375000, -0.810546875, -0.613281250, -0.193359375, -0.308593750, 0.419921875, 0.478515625, -0.441406250, -0.292968750, -0.101562500, 0.037109375, 0.101562500, -0.734375000, -0.027343750, 0.160156250, -1.369140625, 1.070312500, 0.214843750, -0.197265625, 0.363281250, -0.787109375, 0.148437500, 0.423828125, 0.484375000, 0.201171875, 0.011718750, -0.162109375, -0.384765625, -0.091796875, -0.072265625, -0.197265625, -0.617187500, 0.777343750, 0.039062500, 0.646484375, -0.267578125, -0.212890625, 0.050781250, 0.107421875, 0.294921875, -0.751953125, -0.068359375, 0.101562500, 0.019531250, 0.335937500, -0.214843750, 1.093750000, -0.648437500, -0.009765625, -0.320312500, 1.003906250, 1.101562500, -0.062500000, 0.052734375, -0.271484375, 0.470703125, 0.097656250, -0.236328125, -0.033203125, 0.218750000, -0.347656250, 0.109375000, -0.025390625, 0.244140625, 0.509765625, 0.001953125, 0.650390625, -0.001953125, -0.339843750, 0.636718750, 0.265625000, -0.361328125, 0.316406250, -0.226562500, 0.158203125, 1.074218750, 0.296875000, 0.599609375, -0.722656250, 0.281250000, -0.048828125, 0.728515625, 0.238281250, 0.123046875, 0.160156250, -0.140625000, 0.244140625, 0.953125000, 0.224609375, -0.419921875, -0.863281250, 0.000000000, -0.072265625, 0.162109375, 0.140625000, 0.078125000, 0.527343750, -0.632812500, 0.982421875, -0.054687500, -0.273437500, 0.623046875, 1.031250000, 0.429687500, 0.398437500, -0.285156250, -1.207031250, 0.582031250, 0.199218750, -2.308593750, -0.482421875, 0.013671875, 0.738281250, -0.056640625, 0.302734375, 0.658203125, -0.435546875, -0.531250000, 0.097656250, 0.242187500, -0.673828125, -0.273437500, -0.119140625, -0.375000000, -0.052734375, 0.416015625, 0.871093750, 0.384765625, -0.294921875, 0.121093750, 0.269531250, -0.593750000, 0.578125000, 0.347656250, 0.578125000, -0.279296875, 0.042968750, 0.257812500, -0.156250000, 0.677734375, 0.187500000, 0.044921875, 0.056640625, 0.453125000, 0.191406250, 0.470703125, 0.203125000, -0.447265625, -0.878906250, -0.457031250, 0.046875000, -0.376953125, 0.683593750, -0.279296875, 1.117187500, -0.343750000, 0.207031250, -0.113281250, 0.812500000, 0.771484375, -0.212890625, 0.037109375, -0.929687500, 0.017578125, 0.753906250, 0.751953125, -0.417968750, -0.400390625, -0.130859375, 0.900390625, 0.593750000, -0.882812500, 0.085937500, 0.455078125, -0.562500000, 0.316406250, 0.154296875, 0.792968750, 0.630859375, 0.318359375, -0.058593750, -0.986328125, -0.150390625, 0.792968750, 0.654296875, 0.314453125, -0.812500000, -0.421875000, 0.939453125, -0.357421875, -0.035156250, 0.310546875, 0.013671875, 0.000000000, -0.160156250, -0.056640625, 0.511718750, -0.375000000, -0.970703125, -0.384765625, 0.083984375, 0.193359375, 0.085937500, 0.462890625, 0.349609375, -0.763671875, 0.666015625, 0.642578125, -0.025390625, 0.095703125, -0.849609375, 0.353515625, 0.212890625, 0.269531250, -1.679687500, -0.095703125, 0.736328125, -0.042968750, 0.843750000, 0.134765625, 0.658203125, -0.507812500, -0.238281250, -0.037109375, -1.326171875, -0.474609375, -0.154296875, 0.732421875, 0.507812500, -0.050781250, -0.173828125, 0.404296875, 0.492187500, 0.013671875, -0.050781250, -0.277343750, 0.794921875, 0.048828125, -4.966796875, -0.718750000, 0.015625000, 0.466796875, 1.216796875, -0.937500000, 0.306640625, -1.746093750, -0.277343750, 0.158203125, -0.234375000, 0.794921875, -0.966796875, -0.810546875, 0.447265625, 1.146484375, 0.494140625, 0.466796875, 0.123046875, -1.302734375, 0.324218750, 0.921875000, 0.445312500, 1.080078125, 0.611328125, -0.753906250, 0.214843750, -0.132812500, 0.564453125, -0.140625000, -1.033203125, -0.873046875, -0.822265625, 0.156250000, 0.464843750, -1.087890625, 1.345703125, -0.558593750, -0.261718750, -0.261718750, 0.765625000, -2.166015625, -0.185546875, 0.234375000, -0.957031250, 0.726562500, -0.210937500, 0.615234375, -0.839843750, 0.544921875, -0.417968750, -0.074218750, 0.943359375, 0.068359375, 0.296875000, -0.230468750, -1.990234375, -0.203125000, 0.496093750, -0.826171875, 0.970703125, 1.027343750, 0.623046875, 0.080078125, 0.468750000, 1.441406250, 0.390625000, -0.107421875, -0.705078125, -0.250000000, 1.367187500, -0.322265625, -3.308593750, -0.064453125, 0.587890625, -0.912109375, 0.791015625, -0.781250000, 0.486328125, 0.001953125, 0.015625000, -0.015625000, -0.212890625, -0.201171875, -0.201171875, -0.070312500, -0.154296875, -0.041015625, 0.072265625, -0.050781250, 0.080078125, -0.195312500, -0.046875000, 0.078125000, -0.017578125, -0.035156250, -0.152343750, 0.097656250, 0.232421875, 0.009765625, 0.175781250, 0.037109375, -0.066406250, 0.087890625, 0.193359375, -0.158203125, 0.037109375, 0.021484375, 0.011718750, -0.001953125, -0.175781250, 0.021484375, -0.048828125, -0.074218750, 0.082031250, -0.103515625, -0.199218750, 0.140625000, 0.121093750, -0.037109375, -0.136718750, -0.144531250, 0.066406250, 0.062500000, -0.222656250, -0.033203125, 0.048828125, -0.019531250, 0.162109375, 0.167968750, 0.025390625, 0.076171875, -0.263671875, 0.078125000, 0.083984375, 0.296875000, -0.072265625, 0.062500000, -0.046875000, 0.093750000, 0.056640625, -0.001953125, -0.058593750, -0.138671875, 0.162109375, -0.248046875, -0.037109375, 0.005859375, 0.199218750, -0.171875000, -0.292968750, 0.050781250, -0.134765625, 0.029296875, 0.001953125, 0.001953125, 0.019531250, -0.037109375, 0.041015625, 0.000000000, 0.226562500, -0.238281250, 0.136718750, 0.216796875, -0.037109375, 0.164062500, 0.021484375, -0.111328125, 0.021484375, -0.105468750, -0.050781250, -0.044921875, 0.105468750, 0.109375000, 0.119140625, -0.003906250, -0.144531250, 0.263671875, -0.177734375, -0.023437500, 0.134765625, 0.007812500, 0.091796875, -0.085937500, 0.140625000, -0.031250000, -0.042968750, 0.128906250, 0.082031250, -0.029296875, -0.138671875, 0.097656250, -0.126953125, -0.130859375, -0.109375000, -0.082031250, 0.015625000, -0.093750000, -0.142578125, -0.257812500, 0.000000000, 0.031250000, -0.109375000, -0.003906250, -0.119140625, -0.162109375, -0.187500000, 0.222656250, -0.246093750, -0.078125000, -0.076171875, -0.158203125, -0.058593750, -0.035156250, 0.291015625, -0.167968750, -0.119140625, 0.048828125, 0.035156250, -0.175781250, 0.050781250, 0.082031250, 0.046875000, -0.064453125, 0.115234375, 0.142578125, -0.039062500, -0.087890625, -0.013671875, -0.091796875, 0.162109375, -0.005859375, -0.142578125, 0.259765625, -0.001953125, -0.306640625, 0.154296875, 0.166015625, -0.105468750, 0.193359375, -0.031250000, -0.210937500, -0.082031250, 0.015625000, 0.048828125, 0.005859375, -0.083984375, 0.181640625, -0.158203125, -0.208984375, -0.101562500, 0.162109375, 0.044921875, -0.099609375, 0.085937500, 0.275390625, 0.060546875, -0.082031250, -0.199218750, 0.089843750, -0.228515625, 0.236328125, -0.044921875, -0.191406250, -0.027343750, 0.166015625, -0.123046875, -0.058593750, -0.121093750, 0.148437500, -0.255859375, 0.082031250, 0.013671875, 0.109375000, 0.080078125, 0.160156250, 0.046875000, -0.044921875, 0.218750000, -0.220703125, 0.257812500, 0.298828125, 0.126953125, 0.242187500, -0.191406250, -0.050781250, 0.134765625, 0.216796875, 0.103515625, -0.099609375, -0.007812500, -0.068359375, 0.126953125, -0.101562500, -0.111328125, -0.042968750, 0.544921875, 0.933593750, 1.199218750, 0.222656250, -0.671875000, -0.283203125, 0.626953125, 0.060546875, 0.318359375, 0.236328125, 0.722656250, 1.001953125, 0.191406250, -0.173828125, 0.343750000, -0.660156250, 0.125000000, -0.281250000, 1.095703125, 0.082031250, -2.046875000, -1.326171875, -0.312500000, 0.693359375, -0.791015625, 0.039062500, -0.394531250, 1.103515625, -0.146484375, -0.046875000, 1.068359375, 1.363281250, -0.427734375, 0.439453125, 0.111328125, 0.298828125, 0.355468750, 0.185546875, 0.800781250, -0.277343750, 0.265625000, -0.265625000, 0.498046875, -0.140625000, 0.316406250, -0.626953125, 0.126953125, -0.898437500, -0.076171875, -0.349609375, 0.394531250, 0.791015625, -0.154296875, 0.138671875, 0.498046875, -0.101562500, 0.144531250, -0.742187500, -0.482421875, -0.666015625, 0.080078125, 0.384765625, 1.123046875, -1.167968750, -1.037109375, -0.410156250, 0.335937500, 0.039062500, -1.179687500, 0.908203125, 0.298828125, 0.105468750, 0.232421875, -1.884765625, 0.419921875, -0.222656250, 0.134765625, 0.251953125, -0.685546875, -1.564453125, 0.275390625, -0.787109375, 0.279296875, -1.220703125, -0.593750000, -0.306640625, 0.242187500, 0.185546875, -0.322265625, 0.494140625, 0.271484375, 0.046875000, 1.359375000, -0.974609375, 0.132812500, 0.982421875, -0.400390625, 0.671875000, 1.162109375, -0.880859375, -1.021484375, -0.693359375, -0.142578125, -0.091796875, -1.289062500, 0.587890625, -0.609375000, -0.914062500, 0.921875000, 0.386718750, 0.128906250, -0.400390625, -0.429687500, -0.800781250, 0.607421875, -1.609375000, 0.275390625, -0.523437500, -0.005859375, 0.935546875, 0.177734375, -1.476562500, 0.115234375, 0.275390625, 1.078125000, 0.300781250, -0.070312500, 0.173828125, -0.351562500, -0.466796875, 0.009765625, 0.164062500, 0.560546875, -0.771484375, -0.177734375, 0.845703125, 0.542968750, 0.720703125, 0.113281250, -0.433593750, -0.490234375, 0.250000000, 1.062500000, 1.287109375, 0.046875000, 0.103515625, -0.066406250, 0.292968750, 0.400390625, 0.162109375, 0.173828125, 0.603515625, 0.632812500, 0.167968750, 0.425781250, -0.375000000, 0.257812500, 0.150390625, 0.671875000, 0.039062500, -0.316406250, 0.416015625, 0.275390625, -0.271484375, -0.503906250, -0.308593750, 0.455078125, 0.015625000, 0.011718750, 0.960937500, 0.962890625, -1.289062500, -0.412109375, -0.148437500, 0.130859375, 0.917968750, -0.427734375, 0.843750000, 0.273437500, 0.593750000, -0.296875000, 0.130859375, -0.929687500, -0.244140625, 0.646484375, 0.539062500, -0.783203125, -0.328125000, 0.390625000, 0.244140625, -0.220703125, 0.197265625, 0.769531250, 0.076171875, 0.005859375, 0.113281250, -0.404296875, -0.164062500, 0.453125000, 0.171875000, 0.623046875, -0.125000000, 0.949218750, -0.437500000, 0.126953125, 0.460937500, 0.466796875, -0.119140625, -0.130859375, -0.404296875, 0.335937500, -0.455078125, -0.113281250, 0.451171875, -0.595703125, -0.441406250, 0.312500000, 0.593750000, 1.574218750, 0.097656250, -0.648437500, -1.792968750, 0.240234375, -0.015625000, 1.246093750, 0.128906250, 2.664062500, 1.035156250, -0.224609375, -0.246093750, -0.662109375, -4.433593750, -0.058593750, 0.357421875, 1.187500000, -0.142578125, 0.125000000, -0.224609375, 0.021484375, -0.410156250, 0.664062500, -0.945312500, -0.546875000, 0.138671875, 0.500000000, 0.158203125, 0.125000000, 0.671875000, -0.660156250, 0.115234375, 0.457031250, 0.414062500, -2.314453125, 0.484375000, -0.628906250, 0.775390625, -0.900390625, 0.125000000, -0.236328125, 0.886718750, 0.478515625, -0.250000000, -0.140625000, -0.910156250, 0.095703125, 0.343750000, 0.406250000, -0.052734375, 0.119140625, 0.158203125, 0.675781250, 0.031250000, -0.128906250, -0.201171875, 0.078125000, 0.423828125, -0.917968750, 0.814453125, -0.091796875, -0.859375000, -1.597656250, 0.312500000, 0.210937500, -0.408203125, -0.208984375, -0.966796875, 0.982421875, -1.033203125, -0.800781250, 0.208984375, -0.660156250, 0.177734375, 0.337890625, 0.156250000, -0.349609375, -1.736328125, 0.066406250, -0.066406250, -0.044921875, 0.199218750, 0.861328125, -0.511718750, 0.292968750, -0.628906250, 0.751953125, -1.214843750, 1.283203125, -0.169921875, 0.359375000, -0.123046875, 1.025390625, 0.054687500, 0.177734375, -0.802734375, -0.197265625, 0.361328125, 0.156250000, 0.673828125, -0.050781250, -0.601562500, -0.839843750, -0.261718750, 0.080078125, -0.507812500, 0.035156250, 0.386718750, 1.167968750, -0.677734375, -0.115234375, 0.082031250, -0.533203125, -0.066406250, 0.724609375, -0.607421875, 1.173828125, 2.492187500, -0.660156250, -0.470703125, -1.826171875, -1.220703125, -0.302734375, 0.089843750, -0.371093750, -0.277343750, 0.048828125, 0.537109375, -2.248046875, 1.175781250, 2.193359375, -0.414062500, -0.357421875, 1.482421875, -0.617187500, -0.033203125, -0.332031250, 0.814453125, -0.212890625, -0.693359375, -0.033203125, -0.214843750, -1.195312500, -0.296875000, 1.314453125, -0.443359375, 0.021484375, 1.224609375, -0.568359375, -0.541015625, 0.404296875, 0.642578125, -0.171875000, -0.312500000, 0.154296875, 0.197265625, 0.373046875, -0.267578125, 0.808593750, 1.224609375, 0.027343750, -0.029296875, 0.453125000, 1.291015625, -3.257812500, 0.121093750, 1.783203125, 1.904296875, 0.013671875, 1.041015625, -0.916015625, 0.365234375, 0.851562500, 0.326171875, -0.394531250, 0.601562500, 1.873046875, -0.554687500, -0.761718750, 0.296875000, 0.609375000, -0.384765625, 1.289062500, 1.248046875, -1.019531250, 0.072265625, 1.312500000, -0.210937500, 1.400390625, 1.492187500, 0.798828125, 0.347656250, 0.271484375, 0.976562500, 0.123046875, -0.353515625, -0.244140625, -0.187500000, -0.277343750, 1.246093750, -0.603515625, 0.714843750, 1.789062500, 0.265625000, 0.714843750, 0.273437500, -1.400390625, -0.482421875, -0.679687500, 0.537109375, -1.613281250, 0.876953125, 1.160156250, 0.060546875, -0.093750000, 0.171875000, 0.001953125, -0.023437500, -0.203125000, 0.189453125, 0.070312500, -0.142578125, -0.031250000, 0.019531250, -0.236328125, 0.119140625, 0.207031250, 0.023437500, -0.068359375, 0.144531250, 0.037109375, 0.037109375, 0.154296875, 0.125000000, 0.080078125, -0.148437500, 0.089843750, -0.033203125, -0.107421875, 0.062500000, 0.091796875, 0.033203125, -0.189453125, 0.072265625, 0.003906250, -0.150390625, 0.078125000, -0.228515625, -0.029296875, 0.078125000, -0.089843750, -0.021484375, 0.181640625, 0.181640625, 0.224609375, 0.152343750, 0.056640625, -0.132812500, -0.023437500, 0.236328125, -0.183593750, -0.074218750, -0.039062500, -0.222656250, -0.021484375, -0.123046875, -0.019531250, 0.011718750, -0.171875000, 0.085937500, 0.126953125, 0.017578125, 0.031250000, 0.011718750, -0.009765625, 0.000000000, -0.078125000, -0.050781250, 0.171875000, 0.140625000, 0.242187500, 0.148437500, -0.005859375, 0.136718750, -0.025390625, -0.013671875, -0.019531250, -0.205078125, 0.128906250, -0.062500000, -0.148437500, 0.203125000, -0.146484375, -0.074218750, 0.035156250, 0.103515625, -0.128906250, 0.080078125, -0.246093750, 0.125000000, 0.056640625, -0.263671875, 0.152343750, -0.052734375, 0.130859375, -0.087890625, 0.121093750, -0.011718750, 0.025390625, -0.048828125, -0.021484375, -0.292968750, 0.001953125, -0.113281250, 0.193359375, -0.029296875, -0.044921875, 0.021484375, 0.074218750, -0.121093750, 0.140625000, 0.029296875, 0.097656250, 0.082031250, 0.093750000, 0.105468750, 0.208984375, 0.156250000, 0.144531250, 0.134765625, 0.160156250, -0.191406250, -0.105468750, 0.072265625, 0.058593750, 0.195312500, -0.113281250, 0.214843750, -0.162109375, 0.087890625, -0.025390625, 0.296875000, 0.212890625, -0.160156250, -0.181640625, -0.050781250, 0.271484375, 0.160156250, -0.009765625, 0.113281250, -0.044921875, -0.015625000, 0.039062500, -0.027343750, -0.164062500, 0.171875000, 0.033203125, -0.083984375, 0.078125000, 0.158203125, -0.208984375, 0.126953125, 0.140625000, 0.029296875, -0.015625000, -0.162109375, 0.021484375, 0.009765625, -0.007812500, 0.037109375, -0.123046875, 0.134765625, -0.035156250, -0.015625000, -0.039062500, -0.273437500, -0.017578125, 0.070312500, -0.021484375, 0.123046875, 0.052734375, -0.076171875, 0.187500000, 0.132812500, -0.076171875, -0.039062500, 0.056640625, 0.009765625, 0.121093750, -0.132812500, 0.050781250, -0.015625000, 0.027343750, 0.246093750, -0.035156250, -0.050781250, 0.009765625, -0.300781250, -0.054687500, -0.083984375, 0.140625000, -0.105468750, -0.150390625, -0.154296875, 0.011718750, -0.070312500, -0.128906250, 0.130859375, 0.294921875, -0.021484375, -0.277343750, -0.031250000, -0.169921875, 0.093750000, -0.064453125, -0.115234375, 0.003906250, 0.132812500, 0.128906250, 0.103515625, 0.066406250, 0.000000000, 0.095703125, 0.089843750, 0.039062500, -0.232421875, 0.089843750, -0.105468750, 0.175781250, 0.109375000, -0.082031250, 0.023437500, 0.031250000, 0.179687500, -0.042968750, 0.033203125, -0.140625000, -0.064453125, 0.083984375, 0.136718750, 0.136718750, 0.123046875, 0.019531250, 0.183593750, -0.123046875, -0.017578125, 0.039062500, 0.083984375, 0.216796875, 0.029296875, -0.185546875, -0.013671875, 0.158203125, 0.189453125, 0.087890625, 0.009765625, -0.050781250, 0.126953125, -0.121093750, 0.136718750, -0.058593750, 0.103515625, -0.003906250, 0.046875000, -0.031250000, -0.101562500, -0.142578125, 0.152343750, 0.042968750, 0.080078125, -0.046875000, -0.013671875, -0.083984375, -0.125000000, 0.042968750, 0.101562500, -0.300781250, -0.150390625, -0.130859375, 0.101562500, 0.078125000, 0.046875000, -0.179687500, 0.087890625, 0.134765625, -0.050781250, 0.023437500, -0.076171875, -0.091796875, -0.037109375, 0.285156250, -0.292968750, -0.078125000, 0.058593750, 0.179687500, -0.111328125, -0.134765625, -0.173828125, 0.160156250, -0.191406250, -0.003906250, -0.064453125, -0.130859375, 0.146484375, -0.261718750, -0.072265625, -0.308593750, 0.123046875, -0.005859375, -0.003906250, 0.121093750, 0.148437500, -0.101562500, 0.095703125, -0.238281250, -0.156250000, 0.021484375, 0.146484375, 0.058593750, 0.062500000, -0.019531250, 0.181640625, -0.226562500, 0.193359375, -0.115234375, 0.210937500, -0.050781250, -0.072265625, 0.078125000, 0.091796875, -0.105468750, 0.294921875, -0.291015625, -0.201171875, -0.105468750, 0.000000000, -0.179687500, 0.035156250, 0.080078125, 0.210937500, 0.033203125, -0.017578125, -0.068359375, 0.267578125, 0.001953125, -0.089843750, 0.041015625, -0.076171875, 0.023437500, 0.191406250, 0.052734375, -0.074218750, 0.199218750, 0.115234375, -0.068359375, 0.037109375, 0.164062500, 0.005859375, -0.097656250, -0.085937500, 0.210937500, 0.058593750, -0.177734375, 0.162109375, 0.166015625, -0.076171875, -0.257812500, -0.064453125, -0.205078125, 0.011718750, -0.285156250, -0.132812500, 0.021484375, -0.101562500, 0.125000000, 0.177734375, 0.158203125, -0.158203125, -0.238281250, -0.042968750, -0.105468750, -0.001953125, 0.091796875, 0.037109375, -0.013671875, -0.107421875, -0.009765625, 0.003906250, -0.128906250, -0.099609375, -0.083984375, 0.039062500, -0.058593750, -0.138671875, -0.080078125, 0.113281250, -0.097656250, 0.005859375, -0.076171875, 0.154296875, -0.195312500, 0.078125000, -0.138671875, 0.009765625, 0.021484375, 0.031250000, 0.148437500, -0.281250000, 0.048828125, -0.066406250, -0.060546875, -0.017578125, -0.058593750, 0.109375000, 0.195312500, -0.046875000, 0.126953125, 0.052734375, 0.220703125, 0.183593750, 0.072265625, 0.064453125, 0.300781250, -0.226562500, -0.123046875, 0.019531250, -0.146484375, -0.136718750, 0.111328125, 0.181640625, 0.062500000, 0.025390625, 0.007812500, 0.093750000, 0.007812500, -0.089843750, 0.113281250, 0.062500000, -0.222656250, 0.306640625, 0.207031250, 0.250000000, 0.060546875, -0.107421875, 0.046875000, 0.171875000, 0.123046875, -0.056640625, -0.300781250, -0.001953125, 0.179687500, -0.025390625, -0.035156250, -0.304687500, -0.021484375, -0.255859375, 0.214843750, -0.095703125, -0.296875000, 0.103515625, 0.103515625, -0.023437500, -0.167968750, 0.013671875, 0.175781250, 0.171875000, 0.240234375, 0.019531250, 0.048828125, -0.220703125, -0.160156250, 0.255859375, -0.074218750, -0.248046875, 0.074218750, -0.257812500, 0.115234375, 0.085937500, 0.031250000, -0.273437500, -0.216796875, -0.119140625, -0.035156250, 0.152343750, -0.035156250, -0.166015625, -0.035156250, 0.011718750, -0.109375000, 0.058593750, 0.146484375, -0.076171875, -0.189453125, -0.005859375, 0.085937500, 0.070312500, -0.240234375, -0.076171875, 0.044921875, -0.076171875, 0.199218750, 0.003906250, 0.023437500, -0.054687500, 0.234375000, 0.101562500, 0.082031250, 0.128906250, 0.185546875, -0.236328125, 0.070312500, 0.123046875, 0.103515625, 0.185546875, -0.267578125, -0.005859375, 0.146484375, -0.027343750, -0.091796875, 0.083984375, 0.060546875, 0.115234375, 0.097656250, 0.230468750, -0.103515625, 0.171875000, 0.107421875, -0.039062500, 0.203125000, 0.181640625, 0.082031250, 0.185546875, -0.117187500, 0.236328125, -0.123046875, 0.128906250, -0.191406250, 0.072265625, 0.017578125, -0.291015625, 0.027343750, 0.140625000, 0.099609375, -0.126953125, 0.205078125, 0.171875000, 0.003906250, 0.117187500, 0.013671875, -0.062500000, -0.164062500, -0.021484375, -0.082031250, 0.060546875, -0.009765625, 0.070312500, 0.033203125, -0.009765625, 0.076171875, 0.021484375, 0.056640625, -0.085937500, 0.027343750, 0.082031250, 0.277343750, 0.191406250, -0.103515625, -0.093750000, -0.072265625, 0.033203125, 0.099609375, -0.060546875, -0.046875000, 0.160156250, -0.160156250, 0.082031250, 0.189453125, 0.189453125, 0.162109375, 0.179687500, 0.076171875, 0.074218750, -0.068359375, -0.154296875, 0.017578125, 0.113281250, 0.289062500, 0.080078125, -0.156250000, -0.089843750, 0.091796875, -0.148437500, -0.142578125, 0.197265625, 0.039062500, -0.138671875, 0.001953125, -0.164062500, 0.166015625, -0.123046875, 0.197265625, -0.121093750, 0.076171875, 0.107421875, -0.093750000, 0.062500000, -0.121093750, 0.064453125, 0.037109375, 0.138671875, 0.029296875, 0.130859375, 0.228515625, -0.171875000, 0.138671875, -0.156250000, -0.042968750, -0.068359375, -0.109375000, -0.062500000, -0.091796875, -0.160156250, -0.179687500, 0.099609375, 0.171875000, 0.025390625, 0.103515625, 0.072265625, -0.078125000, -0.232421875, 0.189453125, -0.044921875, 0.140625000, 0.070312500, 0.265625000, 0.003906250, -0.179687500, 0.146484375, -0.064453125, -0.216796875, 0.060546875, -0.216796875, 0.132812500, 0.292968750, 0.011718750, 0.091796875, 0.156250000, -0.294921875, -0.175781250, -0.154296875, -0.197265625, 0.138671875, -0.121093750, 0.060546875, -0.287109375, -0.125000000, 0.236328125, -0.289062500, 0.099609375, -0.083984375, 0.226562500, 0.093750000, -0.064453125, -0.068359375, -0.166015625, 0.060546875, 0.013671875, 0.257812500, 0.128906250, -0.169921875, 0.128906250, -0.019531250, -0.052734375, 0.306640625, 0.115234375, 0.230468750, -0.105468750, -0.052734375, -0.181640625, 0.056640625, -0.046875000, -0.035156250, -0.017578125, 0.138671875, 0.021484375, 0.136718750, 0.185546875, 0.066406250, -0.072265625, 0.099609375, 0.226562500, 0.015625000, 0.072265625, -0.140625000, -0.029296875, -0.099609375, 0.005859375, -0.029296875, -0.220703125, 0.181640625, -0.060546875, 0.187500000, 0.158203125, 0.208984375, -0.005859375, -0.109375000, -0.171875000, -0.074218750, 0.271484375, -0.017578125, -0.101562500, 0.042968750, -0.080078125, -0.056640625, 0.003906250, -0.136718750, -0.058593750, 0.039062500, 0.072265625, -0.140625000, 0.173828125, -0.109375000, 0.281250000, -0.007812500, 0.027343750, -0.232421875, -0.265625000, 0.095703125, -0.031250000, 0.179687500, -0.052734375, -0.152343750, -0.208984375, 0.123046875, 0.177734375, 0.115234375, -0.152343750, 0.228515625, -0.128906250, -0.080078125, -0.011718750, 0.128906250, -0.048828125, 0.076171875, 0.187500000, -0.013671875, 0.226562500, 0.263671875, 0.000000000, -0.162109375, 0.177734375, -0.072265625, 0.125000000, -0.023437500, 0.156250000, -0.076171875, -0.128906250, -0.082031250, -0.017578125, -0.191406250, 0.207031250, -0.160156250, 0.242187500, 0.009765625, -0.039062500, -0.117187500, -0.171875000, 0.123046875, -0.021484375};

#endif

#endif
