//Numpy array shape [64, 10]
//Min -2.410156250000
//Max 1.695312500000
//Number of zeros 0

#ifndef W14_H_
#define W14_H_

#ifndef __SYNTHESIS__
weight14_t w14[640];
#else
weight14_t w14[640] = {0.917968750, -0.416015625, -0.046875000, 0.134765625, -0.175781250, 0.820312500, -2.263671875, 0.455078125, -0.750000000, 0.044921875, -0.162109375, -1.898437500, -0.517578125, -1.666015625, 0.152343750, 0.773437500, 0.800781250, -0.535156250, 1.011718750, -0.337890625, 0.886718750, -0.037109375, -0.367187500, 0.214843750, 0.716796875, -1.433593750, -1.613281250, 0.683593750, 0.972656250, -0.839843750, -0.355468750, -0.291015625, 1.025390625, -0.267578125, 1.173828125, -0.064453125, -0.869140625, -0.123046875, 0.517578125, -1.076171875, 0.464843750, -0.265625000, -0.074218750, -0.990234375, 0.001953125, -0.128906250, 0.484375000, -0.673828125, 0.042968750, -0.015625000, -0.207031250, -0.550781250, 0.695312500, -0.025390625, 0.091796875, 0.164062500, 0.587890625, 0.060546875, -0.296875000, -2.410156250, 0.402343750, -1.087890625, 0.212890625, 0.394531250, -0.791015625, -0.160156250, -0.167968750, 0.134765625, 0.099609375, 0.585937500, 0.337890625, 0.412109375, 0.003906250, -0.994140625, -0.197265625, -1.304687500, 1.089843750, -0.919921875, 1.041015625, -0.414062500, -0.242187500, 0.253906250, -1.457031250, -0.589843750, 0.484375000, 0.068359375, 0.265625000, 0.949218750, -0.388671875, -0.167968750, 0.212890625, 0.150390625, -1.732421875, -1.228515625, -0.667968750, 1.222656250, 0.443359375, -0.388671875, 0.566406250, -0.082031250, -0.117187500, -1.333984375, -0.568359375, 0.285156250, 0.138671875, -0.244140625, 0.386718750, 0.169921875, -0.253906250, 0.570312500, -0.142578125, -0.074218750, 0.189453125, -0.292968750, -0.123046875, -0.123046875, 0.205078125, -0.148437500, -0.062500000, 0.062500000, 0.603515625, -0.320312500, 0.162109375, -0.382812500, 0.091796875, -0.291015625, -0.107421875, -0.386718750, 0.357421875, 0.201171875, -0.392578125, 0.169921875, -0.505859375, 0.816406250, -0.191406250, -0.267578125, -0.761718750, 0.343750000, 0.148437500, -0.242187500, -0.904296875, 1.695312500, -0.945312500, 0.132812500, 0.058593750, 0.259765625, -0.791015625, -0.330078125, 0.166015625, 0.458984375, 0.888671875, -1.740234375, -0.796875000, 0.494140625, 0.267578125, -0.011718750, -0.833984375, -1.500000000, 0.455078125, 0.478515625, 0.244140625, 0.380859375, -0.755859375, 1.322265625, 0.335937500, 0.044921875, 0.324218750, -0.132812500, -0.271484375, -1.238281250, 0.064453125, 0.175781250, -0.031250000, 0.615234375, -0.056640625, -0.255859375, -0.843750000, -0.509765625, 0.095703125, 0.019531250, -0.923828125, -1.267578125, 0.039062500, 0.382812500, 0.156250000, 0.542968750, -0.390625000, 0.093750000, 0.412109375, -0.214843750, 0.162109375, -0.935546875, -0.138671875, 0.455078125, 0.101562500, -0.519531250, 0.767578125, -1.171875000, 0.238281250, 0.208984375, 0.427734375, 1.414062500, 0.042968750, -1.992187500, 0.488281250, 0.386718750, -0.009765625, -0.144531250, -0.226562500, -0.095703125, 0.347656250, -0.792968750, 0.437500000, 0.427734375, 0.007812500, -0.179687500, -0.080078125, -0.238281250, 0.537109375, 0.115234375, 1.113281250, -0.021484375, 0.458984375, -0.609375000, 0.619140625, -0.541015625, 0.212890625, -0.728515625, -1.404296875, 0.474609375, 0.554687500, 0.869140625, 1.050781250, -0.748046875, -0.466796875, -1.101562500, 0.599609375, -0.291015625, 0.384765625, -0.886718750, 0.210937500, -0.646484375, 0.277343750, 0.384765625, -1.669921875, -0.517578125, 0.681640625, 0.644531250, 0.138671875, -0.326171875, 0.595703125, 0.111328125, -0.841796875, 0.111328125, -0.376953125, 0.648437500, -0.960937500, -1.867187500, 0.597656250, 0.439453125, -1.773437500, -0.527343750, -0.603515625, 1.050781250, -0.351562500, 0.121093750, -0.232421875, -0.693359375, 0.851562500, 0.687500000, -0.417968750, -0.394531250, 1.482421875, -0.189453125, -0.505859375, 1.052734375, 0.410156250, -0.140625000, 0.796875000, -2.365234375, 0.281250000, -1.619140625, -0.863281250, -0.013671875, -0.933593750, 0.623046875, 0.283203125, 0.628906250, 0.394531250, 0.054687500, -0.304687500, 0.320312500, 0.390625000, -0.507812500, -1.275390625, 0.525390625, -0.728515625, 0.660156250, -0.669921875, 0.289062500, -0.042968750, 0.279296875, 0.412109375, 0.197265625, -0.212890625, -1.353515625, -0.675781250, 0.259765625, 0.025390625, -0.019531250, 0.535156250, 0.128906250, 0.378906250, -0.392578125, -0.253906250, 0.171875000, 0.843750000, -1.003906250, 0.408203125, -0.941406250, -0.466796875, 0.601562500, 0.466796875, 0.152343750, -0.890625000, 0.175781250, -0.265625000, 0.822265625, -0.669921875, -1.494140625, -1.890625000, 0.089843750, -0.232421875, 0.449218750, -1.210937500, 0.394531250, -0.222656250, -1.000000000, 0.869140625, 0.230468750, -0.070312500, -0.742187500, 0.500000000, -0.593750000, 0.117187500, 0.167968750, 0.667968750, -0.583984375, -1.019531250, 0.675781250, -0.693359375, 0.130859375, -0.144531250, 0.314453125, -0.164062500, 1.501953125, 0.033203125, -0.220703125, -0.480468750, -1.472656250, -0.169921875, -0.236328125, -0.097656250, -0.978515625, 0.179687500, -0.197265625, -0.703125000, 0.892578125, -0.890625000, 0.068359375, 1.060546875, -1.498046875, -0.474609375, 0.298828125, -0.664062500, 0.347656250, 1.550781250, -0.873046875, -0.513671875, 0.466796875, 0.056640625, -0.246093750, -0.935546875, 0.027343750, 0.324218750, -1.451171875, 0.910156250, 0.250000000, -0.841796875, 0.914062500, -0.509765625, 0.449218750, 0.923828125, 0.214843750, -0.781250000, -0.013671875, -1.250000000, 0.675781250, -0.601562500, -1.146484375, 0.023437500, -0.142578125, 0.080078125, -0.087890625, 0.279296875, -0.066406250, -0.078125000, 0.259765625, 0.021484375, -0.103515625, -0.291015625, 1.312500000, -0.902343750, 0.519531250, -0.455078125, 0.925781250, -0.974609375, 0.029296875, -0.791015625, -0.292968750, 0.029296875, -0.775390625, 0.359375000, -0.775390625, 0.210937500, -0.265625000, 0.201171875, 0.181640625, -0.281250000, 0.144531250, 0.396484375, 1.222656250, 1.525390625, -0.871093750, -0.048828125, 0.273437500, -1.492187500, -0.351562500, -0.578125000, -1.148437500, -0.867187500, 0.123046875, -0.298828125, -1.769531250, 1.691406250, -0.755859375, -0.335937500, 1.421875000, -0.261718750, 0.427734375, 0.060546875, -0.486328125, 0.732421875, 0.601562500, 0.392578125, -0.828125000, -0.142578125, -0.705078125, 0.478515625, -0.402343750, 0.705078125, 1.029296875, -1.160156250, 0.400390625, -0.300781250, 0.585937500, 0.609375000, -1.359375000, 0.130859375, -1.265625000, 0.529296875, 0.287109375, 0.302734375, -0.349609375, -1.259765625, 0.568359375, 0.156250000, 0.382812500, 0.193359375, -1.326171875, 0.136718750, 0.919921875, 0.853515625, 0.750000000, -1.582031250, -0.376953125, -1.541015625, 0.646484375, -0.880859375, 0.369140625, -0.679687500, 0.185546875, 1.019531250, -0.558593750, -0.341796875, -0.500000000, 0.208984375, 0.093750000, -0.228515625, 0.228515625, -1.447265625, 0.035156250, 0.333984375, 0.375000000, -0.681640625, -0.007812500, 0.611328125, 0.126953125, 0.013671875, 0.333984375, -0.771484375, -0.052734375, 0.166015625, 0.132812500, 0.035156250, -0.826171875, 0.093750000, 0.320312500, 0.210937500, 0.238281250, 0.828125000, 0.878906250, -2.099609375, -1.189453125, 0.822265625, -0.080078125, -0.394531250, -0.925781250, -0.123046875, 0.667968750, -1.121093750, 0.351562500, -1.298828125, 1.154296875, 0.474609375, 0.416015625, -1.281250000, -0.193359375, -0.093750000, 0.671875000, 0.550781250, 1.580078125, 0.527343750, -0.388671875, 1.072265625, -1.296875000, -1.005859375, 1.070312500, -0.503906250, -1.142578125, -1.333984375, 0.322265625, 0.048828125, -0.076171875, 0.402343750, 0.152343750, -0.261718750, -0.537109375, 0.603515625, 0.412109375, -0.820312500, -0.568359375, 0.466796875, 0.929687500, -0.166015625, 0.671875000, -0.728515625, -0.804687500, -0.490234375, 0.935546875, 0.375000000, -1.449218750, -0.064453125, -0.169921875, 0.304687500, -0.261718750, -0.687500000, 0.318359375, 0.402343750, 0.378906250, -0.001953125, 0.312500000, -0.142578125, 0.623046875, -0.929687500, 1.046875000, 0.714843750, -1.810546875, 0.253906250, -0.265625000, -0.630859375, 0.052734375, -0.031250000, 0.107421875, -0.738281250, 1.263671875, 0.343750000, 0.484375000, 0.218750000, -1.214843750, -0.527343750, 0.759765625, 0.263671875, 0.470703125, 0.011718750, -1.083984375, -0.654296875, 0.755859375, -0.373046875, 0.220703125, -0.054687500, -0.138671875, -0.117187500, -0.109375000, -0.046875000, 0.054687500, -0.246093750, 0.123046875, 0.050781250, -0.314453125, -0.996093750, 1.232421875, -0.728515625, -0.457031250, 0.656250000, -0.287109375, 0.164062500, 0.126953125, -0.683593750, 0.554687500, -0.251953125, 0.449218750, 0.605468750, -0.724609375, 0.828125000, -0.501953125, 0.810546875, 0.716796875, -2.406250000, 0.310546875};

#endif

#endif
