//Numpy array shape [36, 10]
//Min -3.468750000000
//Max 2.007812500000
//Number of zeros 1

#ifndef W14_H_
#define W14_H_

#ifndef __SYNTHESIS__
weight14_t w14[360];
#else
weight14_t w14[360] = {0.150390625, -1.449218750, -0.957031250, 0.527343750, -0.533203125, 0.578125000, 0.730468750, -1.531250000, 0.537109375, -0.648437500, 0.582031250, -0.802734375, -1.619140625, -0.189453125, 0.890625000, 0.230468750, 0.414062500, 0.111328125, -0.941406250, 0.935546875, -1.806640625, -0.281250000, -0.234375000, 0.257812500, 0.632812500, -0.289062500, 0.386718750, 0.167968750, 1.138671875, -0.103515625, -0.839843750, 0.099609375, -0.001953125, 0.371093750, 0.164062500, 0.818359375, -1.378906250, 0.611328125, -0.001953125, 0.123046875, -0.060546875, 0.687500000, 0.509765625, -0.097656250, 0.568359375, -1.642578125, 0.033203125, -1.166015625, 0.304687500, -0.726562500, -1.197265625, 0.451171875, 0.496093750, 0.837890625, -0.460937500, 0.384765625, -0.945312500, 1.501953125, 0.574218750, -1.619140625, 0.320312500, 0.107421875, 0.193359375, 0.583984375, -1.216796875, 1.224609375, 0.923828125, -2.505859375, 0.548828125, -0.884765625, -0.363281250, 0.701171875, 0.330078125, 0.175781250, -0.306640625, 0.845703125, -0.257812500, 0.847656250, -0.865234375, -1.740234375, 0.326171875, -0.193359375, 0.642578125, -0.265625000, 0.792968750, -0.949218750, 1.341796875, -0.648437500, 0.923828125, -0.730468750, 0.302734375, -0.960937500, 0.058593750, 0.740234375, -0.142578125, -0.093750000, -1.068359375, 0.203125000, 0.306640625, 0.154296875, -0.019531250, -0.238281250, 0.914062500, -1.121093750, 0.406250000, 0.203125000, 0.521484375, -1.156250000, -0.085937500, 0.464843750, 0.675781250, 0.609375000, -1.044921875, 0.708984375, 0.337890625, -0.718750000, -1.113281250, 0.419921875, -0.851562500, 0.519531250, -0.554687500, -0.292968750, -1.027343750, -0.380859375, -0.203125000, 0.175781250, 0.175781250, 0.394531250, 0.833984375, 0.373046875, 0.509765625, 0.732421875, 1.511718750, -1.093750000, -0.451171875, -1.437500000, -0.615234375, 0.785156250, -0.398437500, -1.119140625, 0.935546875, -1.390625000, -0.136718750, -1.224609375, -0.916015625, 0.089843750, 1.777343750, -0.646484375, -0.755859375, 0.548828125, -0.533203125, 1.789062500, 0.685546875, 0.218750000, -0.953125000, -1.218750000, -0.400390625, 1.521484375, -1.566406250, -1.455078125, -0.882812500, 1.113281250, 1.167968750, 0.250000000, -1.431640625, -1.171875000, -1.763671875, 1.281250000, -1.375000000, -1.390625000, -0.875000000, -1.121093750, 1.087890625, 0.333984375, -0.466796875, -0.484375000, 0.318359375, 0.314453125, 0.302734375, 0.347656250, 0.966796875, 0.025390625, 0.388671875, 0.654296875, -2.146484375, 1.332031250, -1.433593750, -0.449218750, 0.343750000, -0.648437500, 0.845703125, -0.064453125, -1.332031250, -0.710937500, -1.021484375, 1.593750000, 0.306640625, -0.228515625, -0.390625000, -0.031250000, 0.150390625, 0.066406250, 0.054687500, -0.093750000, -0.349609375, -0.250000000, 0.433593750, -0.326171875, 0.119140625, -0.220703125, 0.400390625, -0.212890625, 0.679687500, 0.687500000, -1.931640625, 0.199218750, -0.078125000, 0.089843750, -0.210937500, -0.367187500, 0.462890625, -0.128906250, -1.070312500, -1.455078125, 1.953125000, -0.132812500, 0.001953125, -0.658203125, -0.783203125, 1.062500000, 0.322265625, 0.570312500, -0.343750000, -0.720703125, -0.615234375, -0.193359375, 0.878906250, -0.566406250, 0.507812500, 0.087890625, 0.744140625, 0.740234375, 0.021484375, 0.539062500, -1.744140625, 0.134765625, -3.468750000, 0.513671875, 0.162109375, -0.386718750, -0.130859375, -0.208984375, 1.048828125, -0.882812500, 0.218750000, -0.189453125, 0.582031250, 1.667968750, -1.566406250, -0.169921875, 0.833984375, -0.343750000, 0.568359375, -0.535156250, -0.271484375, 0.033203125, -0.912109375, -0.605468750, 0.339843750, -0.500000000, -0.814453125, 2.007812500, -1.117187500, 0.339843750, -0.705078125, 0.476562500, -0.685546875, -1.427734375, -0.806640625, 0.419921875, 1.285156250, 1.800781250, -0.310546875, -1.257812500, 0.580078125, 0.000000000, 1.314453125, -0.388671875, -1.410156250, -1.166015625, -0.076171875, 0.787109375, -0.720703125, -0.546875000, 0.625000000, -0.916015625, -1.246093750, 0.517578125, -0.005859375, 0.613281250, -1.474609375, 0.398437500, -0.384765625, 0.349609375, 0.439453125, 0.857421875, 0.519531250, -0.214843750, 0.207031250, -0.253906250, 0.263671875, -0.417968750, 0.966796875, -1.720703125, 0.208984375, 0.388671875, -1.945312500, 0.234375000, 0.703125000, -0.263671875, 0.460937500, 1.148437500, -0.044921875, -1.851562500, 0.175781250, -2.390625000, 0.070312500, 1.535156250, -0.748046875, 0.828125000, 0.457031250, -1.556640625, -0.363281250, -0.445312500, 0.355468750, -0.460937500, 1.414062500, 0.970703125, -0.771484375, -0.566406250, -0.164062500, -1.552734375, -0.068359375, 0.197265625, -0.517578125, 0.058593750, 0.542968750, -1.550781250, 0.269531250, 0.812500000, -0.998046875, -1.433593750, 0.333984375, 0.474609375, 0.460937500, -0.277343750, -0.564453125, -0.371093750, -0.076171875, 0.425781250};

#endif

#endif
