//Numpy array shape [196, 20]
//Min -11.123046875000
//Max 6.259765625000
//Number of zeros 7

#ifndef W10_H_
#define W10_H_

#ifndef __SYNTHESIS__
weight10_t w10[3920];
#else
weight10_t w10[3920] = {0.605468750, -2.359375000, -2.423828125, 0.402343750, -0.773437500, -2.572265625, 0.429687500, 3.832031250, -1.937500000, 1.853515625, 2.222656250, 1.746093750, -0.556640625, -0.724609375, -0.640625000, -1.876953125, -3.125000000, -2.914062500, -4.498046875, 0.115234375, 0.449218750, -0.009765625, -2.939453125, 0.878906250, -0.703125000, -7.308593750, 1.371093750, 3.710937500, -0.208984375, 1.929687500, 3.599609375, 2.523437500, 0.533203125, -1.742187500, -3.529296875, -0.988281250, -2.216796875, 0.183593750, -0.931640625, -1.054687500, 0.386718750, -0.972656250, -3.722656250, -0.326171875, 0.025390625, -8.546875000, -2.093750000, 2.408203125, 0.224609375, 0.667968750, 0.480468750, 0.337890625, 1.603515625, -1.101562500, -1.541015625, -3.107421875, -1.750000000, 0.029296875, -0.892578125, -3.015625000, 0.324218750, -0.011718750, -3.048828125, 0.751953125, -0.558593750, -8.007812500, -0.986328125, 2.550781250, 0.076171875, 0.970703125, 1.615234375, 0.904296875, -0.097656250, -1.283203125, -1.314453125, -1.314453125, -2.335937500, -2.929687500, -1.597656250, -0.068359375, 0.390625000, -1.439453125, -2.443359375, 0.687500000, -0.214843750, -6.435546875, -0.310546875, 2.712890625, -0.021484375, 1.419921875, 2.148437500, 1.630859375, 0.771484375, -0.775390625, -1.642578125, -1.007812500, -1.464843750, 1.484375000, -0.673828125, -1.089843750, 0.427734375, -0.736328125, -3.048828125, 0.941406250, -0.019531250, -6.458984375, 2.263671875, 2.208984375, 0.089843750, 0.683593750, 1.824218750, 0.419921875, 0.974609375, -2.927734375, -1.132812500, 0.189453125, -1.333984375, -0.636718750, -0.191406250, 0.544921875, 0.566406250, -0.685546875, -2.121093750, 1.330078125, -0.152343750, -3.433593750, 1.527343750, 2.585937500, 0.103515625, 0.345703125, 2.044921875, 0.884765625, 1.300781250, -0.250000000, -1.658203125, 0.220703125, -1.591796875, 0.664062500, -1.013671875, -1.189453125, 0.599609375, -0.613281250, -1.888671875, 2.208984375, 0.046875000, -7.595703125, 2.218750000, 1.980468750, -0.789062500, 0.033203125, 2.039062500, 0.648437500, 2.039062500, 0.046875000, -1.300781250, 1.222656250, -1.169921875, 0.421875000, -1.228515625, -3.589843750, 0.455078125, -0.437500000, -3.138671875, 2.691406250, 0.115234375, -6.199218750, 1.130859375, 1.214843750, 0.666015625, 0.294921875, 2.283203125, -1.910156250, 0.716796875, -0.638671875, -0.601562500, 0.488281250, -1.591796875, 0.457031250, -1.031250000, -0.019531250, 0.597656250, -1.705078125, -2.513671875, 1.781250000, -0.027343750, -5.853515625, 1.109375000, 0.300781250, 1.380859375, 0.785156250, 1.560546875, -2.306640625, 0.166015625, -0.220703125, -2.867187500, -0.582031250, -0.931640625, -0.060546875, -0.841796875, 0.138671875, 0.658203125, -0.384765625, -3.210937500, 3.177734375, 0.158203125, -5.580078125, -0.367187500, 1.179687500, -0.990234375, -0.089843750, 2.257812500, -2.962890625, 1.634765625, -2.085937500, -0.623046875, -1.503906250, -2.406250000, -0.427734375, -2.181640625, 0.966796875, 0.691406250, -0.908203125, -2.865234375, 2.939453125, -0.199218750, -8.333984375, 2.111328125, 0.441406250, -0.250000000, 0.148437500, 2.945312500, -0.873046875, 1.519531250, 0.322265625, -0.175781250, 0.285156250, -0.794921875, 0.384765625, -2.345703125, -0.517578125, 0.029296875, -1.529296875, -3.738281250, 2.509765625, 0.529296875, -6.609375000, 1.640625000, 1.207031250, 1.228515625, 1.812500000, 3.050781250, -3.689453125, 0.001953125, -2.265625000, -0.277343750, -1.669921875, -1.636718750, -0.964843750, -0.826171875, 0.781250000, 0.722656250, -0.640625000, -3.671875000, 2.742187500, -0.015625000, -7.255859375, -0.244140625, 0.634765625, 1.064453125, 0.773437500, 1.845703125, -4.291015625, 0.359375000, -1.234375000, -0.087890625, -1.556640625, -2.380859375, 1.242187500, -1.193359375, 0.021484375, 0.337890625, -0.888671875, -2.402343750, -0.808593750, -0.326171875, -7.138671875, -1.406250000, 2.871093750, -0.583984375, 1.710937500, 0.460937500, 0.853515625, -0.273437500, -0.908203125, -2.861328125, 0.121093750, -2.222656250, 0.128906250, -0.582031250, -1.353515625, 0.152343750, -2.083984375, -2.763671875, 0.734375000, -1.353515625, -7.021484375, 2.089843750, 2.687500000, -0.375000000, 1.421875000, 2.791015625, 2.376953125, -0.705078125, -1.085937500, -0.281250000, 0.199218750, -0.949218750, -1.000000000, -0.875000000, -0.447265625, 0.050781250, -0.101562500, -1.937500000, 1.212890625, -1.388671875, -3.724609375, 2.498046875, 2.785156250, -0.185546875, 0.121093750, 2.173828125, 1.746093750, 0.146484375, -2.556640625, -1.615234375, 0.292968750, -1.160156250, -0.146484375, -1.074218750, 1.380859375, 0.248046875, -0.570312500, -1.804687500, 1.558593750, -0.906250000, -4.658203125, 2.437500000, 2.052734375, 0.271484375, 1.285156250, 2.234375000, 1.962890625, 0.496093750, -0.789062500, -1.521484375, 1.333984375, -0.388671875, 0.230468750, -0.546875000, -0.369140625, 0.244140625, -0.115234375, -1.615234375, 0.687500000, -1.119140625, -1.623046875, 1.630859375, 2.187500000, 0.199218750, 0.548828125, 1.753906250, 1.888671875, 0.177734375, -3.074218750, -0.537109375, 0.781250000, -0.941406250, 1.505859375, -0.951171875, 0.541015625, 0.462890625, -0.507812500, -1.261718750, 1.849609375, -0.029296875, -2.792968750, 1.742187500, 1.695312500, -0.162109375, 0.353515625, 1.597656250, 0.589843750, 0.964843750, -0.103515625, -1.705078125, 1.236328125, -0.748046875, 0.199218750, -0.250000000, 0.261718750, 0.439453125, -0.287109375, -1.412109375, 1.974609375, -0.400390625, -2.917968750, 1.527343750, 1.810546875, -0.134765625, 0.394531250, 1.765625000, 1.257812500, 0.714843750, -2.796875000, -0.560546875, 1.537109375, -0.751953125, 0.552734375, 0.097656250, 0.294921875, 0.468750000, -0.431640625, -1.267578125, 1.720703125, 0.457031250, -4.259765625, 1.619140625, 1.955078125, -0.435546875, -0.480468750, 1.623046875, 0.363281250, 1.603515625, -0.880859375, -1.101562500, 1.164062500, -0.738281250, -0.058593750, -0.529296875, 0.267578125, 0.650390625, -0.878906250, -1.855468750, 1.902343750, -0.085937500, -3.953125000, 1.208984375, -0.123046875, -0.250000000, -0.091796875, 1.394531250, -0.609375000, -0.376953125, -4.044921875, -0.556640625, 1.404296875, -0.994140625, 0.121093750, -0.210937500, 0.294921875, 0.570312500, -0.332031250, -1.566406250, 2.095703125, 0.394531250, -5.130859375, 0.667968750, 1.230468750, -0.085937500, 0.281250000, 1.701171875, -1.062500000, 0.525390625, -1.667968750, 0.667968750, 1.601562500, -0.968750000, 0.736328125, -0.419921875, 0.314453125, 0.734375000, -1.681640625, -2.041015625, 2.240234375, 0.001953125, -4.490234375, 1.783203125, -0.466796875, 0.253906250, -0.193359375, 1.978515625, -2.550781250, 0.255859375, -2.154296875, -0.582031250, 1.001953125, -1.119140625, 0.779296875, 0.328125000, 0.058593750, 0.371093750, -0.431640625, -2.039062500, 2.253906250, -0.058593750, -5.105468750, 2.351562500, -0.058593750, 0.105468750, -0.349609375, 2.214843750, -2.914062500, -0.414062500, -0.925781250, -0.039062500, 1.611328125, -1.720703125, 0.621093750, -3.404296875, -0.380859375, 0.443359375, -1.417968750, -2.460937500, 3.355468750, -0.025390625, -6.232421875, 1.589843750, 1.363281250, 1.841796875, 0.093750000, 2.933593750, -4.767578125, -0.136718750, -1.439453125, -0.761718750, 0.312500000, -0.699218750, -1.292968750, -1.050781250, 1.541015625, 0.519531250, -0.419921875, -3.255859375, 0.935546875, -0.138671875, -5.861328125, -2.259765625, 0.757812500, 0.433593750, 1.091796875, 1.136718750, -3.640625000, -0.718750000, -0.457031250, -0.537109375, -1.115234375, -2.144531250, -1.595703125, -0.359375000, -3.339843750, -0.136718750, -0.595703125, -3.208984375, 0.531250000, -2.224609375, -6.683593750, 2.031250000, 2.908203125, -1.068359375, 1.037109375, 1.619140625, 1.281250000, 1.017578125, -0.982421875, -1.281250000, -0.939453125, -1.046875000, -0.777343750, -1.947265625, -0.316406250, 0.185546875, 0.021484375, -1.976562500, 1.044921875, -0.673828125, -3.322265625, 1.220703125, 2.796875000, 0.841796875, 1.296875000, 2.431640625, 3.029296875, 0.648437500, -2.007812500, -4.824218750, -0.009765625, -1.259765625, 0.332031250, -0.343750000, -0.912109375, 0.457031250, -0.890625000, -1.693359375, 0.302734375, -0.880859375, -4.503906250, 2.238281250, 2.017578125, -0.154296875, 0.023437500, 1.853515625, 1.021484375, -0.251953125, -0.966796875, -1.093750000, 1.041015625, -0.759765625, 1.042968750, -0.994140625, 0.382812500, 0.359375000, -0.300781250, -1.533203125, 1.107421875, -0.601562500, -4.117187500, 1.814453125, 1.552734375, 0.171875000, 0.291015625, 1.542968750, 1.054687500, -0.472656250, -1.693359375, -0.035156250, 1.316406250, -1.392578125, 0.707031250, -0.390625000, -1.097656250, 0.277343750, -0.720703125, -1.238281250, 0.578125000, -0.601562500, -1.992187500, 1.113281250, 1.835937500, -0.195312500, 0.429687500, 1.375000000, 1.544921875, 0.480468750, -3.193359375, -2.060546875, 0.654296875, -0.716796875, 0.933593750, 0.005859375, -0.177734375, 0.521484375, -0.191406250, -1.152343750, 1.443359375, 0.339843750, -1.351562500, 1.306640625, 1.177734375, 0.267578125, 0.132812500, 1.142578125, 0.455078125, 0.810546875, -1.916015625, -1.261718750, 0.984375000, -0.810546875, 0.279296875, -0.279296875, 0.248046875, 0.542968750, -0.371093750, -1.048828125, 1.285156250, 0.017578125, 0.291015625, 0.673828125, 1.226562500, 0.570312500, 0.101562500, 1.091796875, 0.277343750, 0.232421875, -3.443359375, -0.923828125, 1.019531250, -0.662109375, 1.121093750, -0.710937500, -0.074218750, 0.548828125, -0.261718750, -1.126953125, 1.085937500, -0.052734375, 0.351562500, 0.951171875, 1.253906250, 0.333984375, 0.390625000, 1.074218750, 0.251953125, 0.185546875, -1.220703125, -1.529296875, 1.417968750, -0.591796875, 1.232421875, 0.093750000, -0.259765625, 0.550781250, -0.746093750, -1.199218750, 1.482421875, 0.126953125, -0.990234375, 0.853515625, 0.322265625, 0.041015625, -0.074218750, 1.142578125, -1.583984375, -0.384765625, -1.605468750, -3.585937500, 1.353515625, -0.671875000, 0.361328125, -0.191406250, -0.062500000, 0.433593750, -0.582031250, -1.492187500, 1.611328125, 0.185546875, -1.792968750, 1.289062500, 0.371093750, -1.447265625, 0.113281250, 1.250000000, -1.466796875, -0.232421875, -1.378906250, -1.666015625, 1.886718750, -0.958984375, 0.531250000, -0.384765625, -0.492187500, 0.562500000, -0.638671875, -1.718750000, 1.794921875, 0.076171875, -2.494140625, 1.857421875, -0.109375000, 0.054687500, -0.150390625, 1.673828125, -2.927734375, -0.253906250, -2.597656250, -0.865234375, 1.630859375, -0.763671875, 0.330078125, -0.246093750, 0.185546875, 0.642578125, -0.869140625, -1.816406250, 2.066406250, 0.208984375, -2.666015625, 1.251953125, 0.675781250, -0.048828125, -0.066406250, 1.718750000, -4.460937500, 0.279296875, 0.029296875, -1.439453125, 1.289062500, -0.837890625, -0.167968750, -0.685546875, -0.414062500, 0.677734375, -0.966796875, -2.218750000, 1.755859375, 0.300781250, -6.646484375, 3.447265625, -0.119140625, 1.333984375, -0.234375000, 2.044921875, 0.302734375, 0.113281250, -0.042968750, -2.033203125, 0.742187500, -1.255859375, -0.009765625, -1.087890625, 0.300781250, 0.421875000, -1.873046875, -2.642578125, 1.835937500, -0.369140625, -10.517578125, -1.041015625, 0.314453125, -0.632812500, 0.500000000, 1.568359375, -5.714843750, 0.199218750, 0.326171875, -1.033203125, -1.339843750, -1.488281250, -0.080078125, -0.589843750, -0.060546875, 0.150390625, -0.767578125, -2.779296875, 0.480468750, -1.554687500, -7.230468750, -0.468750000, 2.886718750, -1.345703125, 1.726562500, 1.669921875, 2.248046875, -1.085937500, -1.992187500, -2.312500000, 0.048828125, -2.074218750, -0.519531250, -0.861328125, 0.144531250, 0.355468750, -0.958984375, -1.855468750, 0.291015625, -0.800781250, -6.337890625, 0.716796875, 2.255859375, 0.062500000, 0.896484375, 1.732421875, 1.617187500, -0.082031250, -0.925781250, -0.695312500, 0.044921875, -1.250000000, 0.904296875, -0.304687500, 0.289062500, 0.306640625, -0.105468750, -1.777343750, 0.939453125, -0.968750000, -3.828125000, 1.748046875, 1.785156250, 0.660156250, 0.917968750, 1.378906250, 1.832031250, -0.347656250, -2.486328125, 0.394531250, 0.960937500, -0.912109375, 0.708984375, -0.732421875, -0.384765625, 0.388671875, -0.355468750, -1.214843750, -0.326171875, -0.103515625, -1.697265625, 1.349609375, 1.509765625, -0.250000000, 0.257812500, 1.250000000, 0.966796875, -0.480468750, -2.027343750, 0.023437500, 1.234375000, -1.003906250, 1.021484375, -0.771484375, -2.517578125, 0.402343750, 0.212890625, -0.970703125, 1.113281250, -0.507812500, -0.062500000, 0.966796875, 1.132812500, 0.205078125, 0.171875000, 1.035156250, 1.148437500, 0.556640625, -3.048828125, 0.164062500, 0.839843750, -0.740234375, 1.039062500, -0.283203125, -2.052734375, 0.593750000, 0.208984375, -0.806640625, 1.027343750, -0.023437500, 0.460937500, 0.375000000, 0.998046875, 0.710937500, 0.357421875, 0.855468750, 0.072265625, -0.029296875, -1.765625000, -0.748046875, 1.333984375, -0.599609375, 1.091796875, 0.027343750, -0.205078125, 0.433593750, 0.246093750, -0.625000000, 0.882812500, -0.152343750, 0.412109375, 0.062500000, 0.923828125, -0.312500000, 0.085937500, 0.755859375, 0.263671875, 0.509765625, -0.166015625, -1.701171875, 0.552734375, -0.601562500, 0.623046875, -0.087890625, 0.126953125, 0.609375000, -0.095703125, -0.611328125, 0.832031250, 0.000000000, 0.400390625, 0.289062500, 0.933593750, 0.117187500, 0.220703125, 0.759765625, 0.046875000, 0.126953125, -0.632812500, -1.705078125, 1.027343750, -0.453125000, 0.855468750, -0.351562500, 0.033203125, 0.460937500, -0.337890625, -0.724609375, 0.837890625, 0.236328125, 0.427734375, 0.550781250, 1.132812500, -0.142578125, 0.302734375, 0.916015625, 0.103515625, 0.244140625, -1.048828125, -0.949218750, 1.140625000, -0.595703125, 0.654296875, -0.326171875, -0.986328125, 0.554687500, -0.365234375, -1.013671875, 1.076171875, 0.417968750, 0.388671875, 0.859375000, 1.246093750, -0.150390625, 0.083984375, 1.021484375, -1.826171875, 1.015625000, -1.685546875, -1.458984375, 0.992187500, -0.605468750, 0.712890625, -0.095703125, -0.187500000, 0.537109375, -0.677734375, -1.333984375, 1.480468750, -0.119140625, -1.337890625, 1.025390625, 0.529296875, -0.369140625, -0.179687500, 1.203125000, -2.447265625, -0.412109375, -1.205078125, -1.705078125, 1.353515625, -0.609375000, 0.236328125, -0.404296875, 0.210937500, 0.439453125, -0.650390625, -1.560546875, 1.644531250, -0.005859375, -2.125000000, 1.830078125, 0.751953125, -0.265625000, -0.027343750, 1.562500000, -0.689453125, 0.078125000, -2.296875000, -1.269531250, 1.527343750, -1.091796875, 0.951171875, -0.007812500, 0.125000000, 0.806640625, -0.201171875, -1.914062500, 2.117187500, 0.285156250, -6.167968750, 2.615234375, -0.330078125, -0.257812500, -0.839843750, 2.070312500, -5.015625000, 1.050781250, -0.912109375, -0.708984375, 2.068359375, -0.904296875, 1.757812500, -0.201171875, -0.207031250, 0.021484375, -1.181640625, -3.490234375, 2.755859375, 0.376953125, -8.798828125, 0.833984375, -0.617187500, 1.548828125, 0.376953125, 2.259765625, -3.558593750, 0.326171875, -3.251953125, 0.414062500, -1.218750000, -1.283203125, -0.197265625, -1.111328125, 0.910156250, 0.242187500, -1.902343750, -2.599609375, -0.273437500, -1.921875000, -5.007812500, 0.537109375, 2.388671875, -1.841796875, 0.830078125, 2.027343750, 1.646484375, -0.361328125, -1.308593750, -1.083984375, -0.794921875, -1.353515625, 0.302734375, -0.527343750, -1.414062500, 0.146484375, -0.308593750, -1.353515625, 0.919921875, -0.968750000, -3.003906250, 2.009765625, 1.873046875, 0.134765625, 0.279296875, 1.839843750, 2.177734375, 0.781250000, -3.660156250, -3.748046875, 0.404296875, -0.759765625, 0.396484375, -0.439453125, -0.673828125, 0.142578125, -0.367187500, -1.314453125, -0.070312500, -0.853515625, -0.951171875, 1.675781250, 1.265625000, 0.123046875, -0.013671875, 1.222656250, 1.843750000, 0.929687500, -3.078125000, -0.847656250, -0.310546875, -0.761718750, 0.718750000, -0.890625000, -4.369140625, 0.363281250, -0.136718750, -0.958984375, 0.470703125, -0.644531250, -0.167968750, 0.978515625, 1.164062500, 0.156250000, 0.152343750, 0.972656250, 1.078125000, -0.162109375, -1.525390625, -0.302734375, 0.718750000, -0.703125000, 0.755859375, -0.488281250, -4.015625000, 0.345703125, 0.576171875, -0.712890625, 0.851562500, -0.585937500, 0.435546875, 0.585937500, 0.826171875, 0.173828125, -0.189453125, 0.722656250, 0.341796875, 0.625000000, -1.507812500, -0.830078125, 0.970703125, -0.519531250, 0.941406250, -0.531250000, -2.312500000, 0.437500000, 0.560546875, -0.490234375, 0.632812500, -0.416015625, 0.294921875, 0.179687500, 0.683593750, 0.015625000, -0.373046875, 0.548828125, 0.144531250, 0.574218750, -0.208984375, -1.525390625, 0.574218750, -0.439453125, 0.660156250, -0.392578125, -0.013671875, 0.458984375, 0.308593750, -0.375000000, 0.558593750, -0.175781250, 0.187500000, 0.044921875, 0.515625000, -0.035156250, -0.275390625, 0.464843750, 0.087890625, 0.558593750, 0.097656250, -1.587890625, 0.302734375, -0.324218750, 0.500000000, -0.056640625, 0.056640625, 0.455078125, 0.248046875, -0.408203125, 0.556640625, -0.232421875, 0.154296875, -0.013671875, 0.533203125, 0.025390625, -0.162109375, 0.447265625, -0.013671875, 0.417968750, -0.035156250, -1.687500000, 0.556640625, -0.208984375, 0.583984375, -0.357421875, 0.052734375, 0.556640625, 0.160156250, -0.455078125, 0.580078125, -0.166015625, 0.269531250, 0.250000000, 0.650390625, 0.078125000, -0.121093750, 0.511718750, -0.058593750, 0.402343750, -0.005859375, -1.423828125, 0.685546875, -0.179687500, 0.595703125, -0.150390625, -0.062500000, 0.587890625, -0.388671875, -0.558593750, 0.750000000, 0.136718750, 0.457031250, 0.525390625, 0.906250000, -0.048828125, 0.031250000, 0.716796875, -0.626953125, 0.884765625, -0.529296875, -1.058593750, 0.712890625, -0.275390625, 0.763671875, -0.052734375, -0.152343750, 0.638671875, -0.671875000, -0.878906250, 1.050781250, 0.164062500, -0.179687500, 0.986328125, 0.951171875, -0.533203125, -0.466796875, 0.970703125, -2.191406250, 0.623046875, -1.255859375, -1.630859375, 0.986328125, -0.527343750, 0.371093750, -0.115234375, -0.082031250, 0.585937500, -1.111328125, -1.779296875, 1.406250000, -0.039062500, -1.685546875, 1.591796875, -1.142578125, -0.048828125, 0.060546875, 1.197265625, -4.421875000, -0.880859375, -3.585937500, -1.166015625, 1.054687500, -0.603515625, -0.484375000, -0.425781250, 0.832031250, 0.402343750, -0.835937500, -1.597656250, 2.121093750, 0.349609375, -2.144531250, 0.324218750, -0.349609375, 0.656250000, 0.072265625, 1.365234375, -3.703125000, 0.335937500, -3.421875000, 0.664062500, 0.970703125, -1.310546875, 1.023437500, -0.005859375, -0.820312500, 0.425781250, -0.609375000, -2.636718750, 2.341796875, -0.167968750, -7.271484375, 0.964843750, 0.117187500, 0.367187500, 0.085937500, 1.939453125, -4.443359375, -0.189453125, -1.425781250, -0.595703125, -0.046875000, -1.292968750, -0.988281250, -0.105468750, 0.498046875, 0.107421875, -0.570312500, -2.876953125, 0.468750000, -1.431640625, -6.851562500, 1.871093750, 2.207031250, -1.398437500, 0.574218750, 2.029296875, 1.691406250, 0.224609375, -2.343750000, -0.375000000, -0.371093750, -1.218750000, -0.630859375, -0.447265625, 0.308593750, 0.134765625, -0.568359375, -1.144531250, 0.216796875, -0.980468750, -3.951171875, 1.917968750, 1.789062500, 0.031250000, 0.011718750, 1.675781250, 2.244140625, 0.212890625, -3.978515625, -0.470703125, 0.783203125, -0.908203125, 1.111328125, -1.927734375, -2.339843750, 0.261718750, -0.519531250, -1.093750000, 0.121093750, -0.835937500, -0.595703125, 1.066406250, 1.396484375, 0.615234375, 0.472656250, 1.097656250, 1.804687500, 0.054687500, -3.033203125, -1.298828125, 0.154296875, -0.638671875, 0.880859375, -0.556640625, -3.277343750, 0.214843750, 0.093750000, -0.716796875, 1.027343750, -0.839843750, 0.292968750, 0.667968750, 0.705078125, -0.130859375, 0.148437500, 0.832031250, 0.597656250, 0.142578125, -0.675781250, -0.410156250, 0.878906250, -0.445312500, 0.705078125, -0.394531250, -3.738281250, 0.328125000, 0.681640625, -0.464843750, 0.732421875, -0.515625000, 0.216796875, 0.337890625, 0.453125000, 0.031250000, -0.332031250, 0.527343750, 0.054687500, 0.291015625, -0.255859375, -1.140625000, 1.019531250, -0.388671875, 0.687500000, -0.343750000, -1.042968750, 0.443359375, 0.351562500, -0.320312500, 0.458984375, -0.279296875, 0.232421875, -0.134765625, 0.369140625, 0.042968750, -0.263671875, 0.339843750, 0.011718750, 0.296875000, 0.027343750, -1.230468750, 0.320312500, -0.222656250, 0.382812500, 0.091796875, -0.111328125, 0.441406250, 0.050781250, -0.287109375, 0.246093750, -0.126953125, 0.171875000, -0.275390625, 0.343750000, -0.041015625, -0.166015625, 0.187500000, 0.054687500, 0.474609375, -0.351562500, -1.214843750, -0.001953125, -0.117187500, 0.257812500, 0.380859375, 0.044921875, 0.425781250, 0.076171875, -0.248046875, 0.156250000, -0.150390625, 0.173828125, -0.220703125, 0.347656250, -0.097656250, -0.220703125, 0.152343750, 0.050781250, 0.701171875, -0.037109375, -0.693359375, -0.003906250, 0.005859375, 0.285156250, 0.255859375, -0.003906250, 0.478515625, 0.031250000, -0.306640625, 0.113281250, -0.181640625, 0.326171875, 0.082031250, 0.460937500, 0.144531250, -0.214843750, 0.259765625, 0.044921875, 0.757812500, -0.048828125, -1.132812500, 0.005859375, 0.029296875, 0.457031250, -0.044921875, 0.005859375, 0.490234375, -0.207031250, -0.439453125, 0.279296875, -0.091796875, 0.203125000, 0.437500000, 0.640625000, 0.072265625, -0.017578125, 0.398437500, -0.003906250, 0.824218750, -0.031250000, -1.841796875, 0.664062500, 0.191406250, 0.585937500, -0.412109375, 0.085937500, 0.535156250, -0.458984375, -0.615234375, 0.697265625, -0.248046875, 0.453125000, 0.564453125, 0.941406250, -0.419921875, -0.380859375, 0.666015625, -1.046875000, 0.892578125, -0.189453125, -1.279296875, 0.892578125, -0.005859375, 0.990234375, -0.333984375, -0.535156250, 0.566406250, -0.765625000, -1.144531250, 1.171875000, 0.007812500, -0.564453125, 1.310546875, 0.007812500, 0.269531250, -0.378906250, 1.046875000, -2.867187500, -0.169921875, -1.785156250, -1.541015625, 1.074218750, -0.394531250, 0.275390625, -0.371093750, 0.203125000, 0.582031250, -1.041015625, -1.449218750, 1.837890625, 0.058593750, -2.101562500, 1.107421875, -0.357421875, 0.056640625, -0.164062500, 1.451171875, -5.625000000, -0.308593750, -5.300781250, -1.316406250, 1.751953125, -0.628906250, 1.757812500, -0.609375000, 0.791015625, 0.484375000, -1.369140625, -3.005859375, 1.783203125, -0.076171875, -5.800781250, -0.302734375, -1.105468750, -0.898437500, -0.197265625, 1.378906250, -7.919921875, 0.630859375, -3.144531250, -1.482421875, -1.296875000, -1.078125000, -0.476562500, 0.017578125, 0.533203125, 0.171875000, -1.484375000, -3.011718750, 0.005859375, -2.621093750, -4.908203125, -0.763671875, 2.085937500, -0.468750000, 1.521484375, 1.523437500, 2.210937500, -0.626953125, -2.390625000, -0.433593750, -1.480468750, -1.173828125, 0.082031250, -0.316406250, -0.105468750, 0.513671875, -0.193359375, -1.189453125, -0.447265625, -0.884765625, -2.587890625, 2.617187500, 1.287109375, 0.806640625, -0.289062500, 1.564453125, 1.830078125, 0.375000000, -2.917968750, -1.300781250, 0.533203125, -0.890625000, 1.373046875, -0.208984375, -3.023437500, 0.119140625, -0.289062500, -1.093750000, 0.285156250, -1.023437500, -0.548828125, 1.294921875, 0.902343750, -0.736328125, -0.044921875, 0.962890625, 1.197265625, -0.177734375, -3.125000000, -0.603515625, 0.980468750, -0.488281250, 0.787109375, -0.437500000, -2.394531250, 0.154296875, 0.285156250, -0.648437500, 0.957031250, -0.646484375, 0.126953125, 0.681640625, 0.404296875, -0.279296875, -0.583984375, 0.632812500, 0.302734375, 0.388671875, -0.650390625, -1.128906250, 0.808593750, -0.429687500, 0.849609375, -0.367187500, -3.251953125, 0.240234375, 0.492187500, -0.445312500, 0.570312500, -0.500000000, 0.220703125, 0.333984375, 0.240234375, -0.273437500, -0.458984375, 0.380859375, -0.128906250, 0.253906250, -0.281250000, -1.001953125, 0.798828125, -0.195312500, 0.513671875, -0.503906250, -1.212890625, 0.382812500, 0.050781250, -0.255859375, 0.322265625, -0.220703125, 0.119140625, -0.171875000, 0.134765625, -0.142578125, -0.259765625, 0.138671875, 0.048828125, 0.199218750, -0.267578125, -0.623046875, 0.078125000, -0.117187500, 0.242187500, 0.240234375, 0.025390625, 0.326171875, 0.267578125, -0.130859375, 0.037109375, -0.179687500, 0.070312500, -0.289062500, 0.119140625, -0.173828125, -0.314453125, 0.001953125, -0.039062500, 0.648437500, -0.115234375, 0.033203125, -0.048828125, 0.152343750, 0.113281250, 0.347656250, -0.025390625, 0.345703125, 0.685546875, -0.087890625, -0.005859375, -0.179687500, 0.031250000, -0.263671875, 0.121093750, 0.445312500, -0.345703125, -0.007812500, -0.005859375, 0.480468750, 0.011718750, 0.033203125, -0.089843750, 0.001953125, 0.072265625, 0.351562500, -0.083984375, 0.408203125, 0.113281250, -0.208984375, -0.033203125, -0.216796875, 0.103515625, -0.101562500, 0.310546875, 0.195312500, -0.248046875, 0.027343750, 0.083984375, 0.308593750, 0.007812500, -0.724609375, 0.000000000, -0.003906250, 0.201171875, 0.150390625, 0.046875000, 0.445312500, -0.001953125, -0.394531250, 0.105468750, -0.466796875, -0.001953125, 0.386718750, 0.480468750, 0.121093750, -0.158203125, 0.300781250, -0.023437500, 0.117187500, 0.041015625, -0.927734375, 0.777343750, 0.126953125, 0.242187500, -0.103515625, 0.031250000, 0.480468750, -0.519531250, -0.697265625, 0.328125000, -0.593750000, 0.125000000, 0.798828125, 0.718750000, 0.367187500, -0.277343750, 0.492187500, -0.738281250, -0.230468750, -0.316406250, -0.865234375, 0.798828125, -0.023437500, 0.476562500, -0.250000000, 0.349609375, 0.580078125, -0.832031250, -1.134765625, 0.935546875, -0.720703125, -0.021484375, 1.292968750, -0.173828125, -0.191406250, -0.240234375, 0.806640625, -4.343750000, -0.412109375, -1.638671875, -1.699218750, 1.681640625, -0.068359375, 1.248046875, -0.210937500, 0.308593750, 0.505859375, -1.005859375, -1.853515625, 1.736328125, 0.117187500, -0.957031250, 1.119140625, -1.560546875, 1.087890625, -0.281250000, 1.195312500, -4.601562500, 0.070312500, -1.781250000, -1.970703125, 0.757812500, -0.695312500, 1.763671875, -0.044921875, 1.388671875, 0.535156250, -1.693359375, -3.181640625, 2.050781250, 0.439453125, -3.992187500, -2.013671875, 0.287109375, 2.035156250, 0.552734375, 1.716796875, -5.570312500, -0.228515625, -3.476562500, -1.208984375, -2.326171875, -1.414062500, 0.451171875, 0.886718750, 1.128906250, 0.148437500, -1.886718750, -2.125000000, 1.611328125, -2.357421875, -5.517578125, -0.896484375, 1.837890625, -2.785156250, 0.140625000, 1.509765625, 1.919921875, 0.921875000, -0.582031250, -0.857421875, -0.921875000, -0.726562500, -2.511718750, -0.531250000, 0.267578125, 0.601562500, 0.195312500, -1.183593750, 0.804687500, -1.189453125, 0.062500000, 2.025390625, 1.267578125, 1.234375000, -0.195312500, 1.294921875, 1.187500000, 0.492187500, -1.746093750, -3.042968750, -0.228515625, -1.025390625, 0.062500000, 0.759765625, 1.205078125, 0.410156250, 0.015625000, -0.923828125, 0.927734375, -0.921875000, -0.527343750, 1.421875000, 0.755859375, 1.060546875, -0.457031250, 0.908203125, 1.185546875, 0.298828125, -0.740234375, -1.134765625, 0.289062500, -0.511718750, -0.210937500, 0.050781250, -2.945312500, 0.226562500, 0.044921875, -0.853515625, 0.904296875, -0.955078125, -0.039062500, 0.845703125, 0.267578125, -0.146484375, -0.466796875, 0.632812500, 0.712890625, 0.417968750, -0.416015625, -0.785156250, 0.421875000, -0.562500000, 0.265625000, -0.408203125, -3.251953125, 0.339843750, 0.460937500, -0.013671875, 0.552734375, -0.341796875, 0.083984375, 0.449218750, 0.052734375, -0.306640625, -0.550781250, 0.345703125, -0.195312500, 0.205078125, 0.160156250, -1.626953125, 0.863281250, -0.375000000, 0.267578125, 0.187500000, -0.488281250, 0.314453125, -0.001953125, -0.007812500, 0.203125000, -0.164062500, 0.074218750, -0.021484375, 0.013671875, -0.183593750, -0.207031250, 0.068359375, -0.048828125, 0.064453125, -0.119140625, -0.548828125, 0.185546875, -0.115234375, -0.130859375, 0.462890625, -0.089843750, 0.306640625, 0.230468750, 0.056640625, 0.023437500, -0.105468750, -0.117187500, -0.095703125, -0.019531250, -0.572265625, -0.357421875, -0.023437500, -0.011718750, 0.015625000, 0.140625000, 0.019531250, -0.033203125, -0.138671875, -1.595703125, 0.388671875, -0.046875000, 0.318359375, 0.429687500, 0.023437500, -0.042968750, -0.216796875, -0.128906250, -0.087890625, 0.027343750, 0.302734375, -0.400390625, -0.048828125, -0.033203125, -0.050781250, 0.154296875, -0.027343750, -0.021484375, -0.117187500, -1.796875000, 0.406250000, 0.072265625, 0.404296875, 0.289062500, 0.037109375, -0.046875000, -0.160156250, 0.097656250, 0.009765625, 0.162109375, 0.130859375, -0.253906250, 0.001953125, 0.037109375, 0.285156250, 0.001953125, -0.638671875, -0.041015625, -0.402343750, -0.242187500, 0.568359375, -0.078125000, 0.427734375, 0.003906250, -0.166015625, 0.039062500, -0.464843750, 0.103515625, 0.537109375, 0.365234375, 0.115234375, -0.296875000, 0.177734375, -0.023437500, -0.154296875, 0.236328125, -0.822265625, 0.572265625, -0.396484375, -0.175781250, 0.095703125, 0.011718750, 0.460937500, -0.554687500, -0.970703125, 0.265625000, -0.966796875, -0.107421875, 0.990234375, 0.503906250, 0.402343750, -0.578125000, 0.417968750, -1.216796875, 0.001953125, -0.751953125, -1.599609375, 0.248046875, -0.228515625, -0.218750000, 0.041015625, 1.189453125, 0.517578125, -0.605468750, -0.304687500, 0.873046875, -0.447265625, -0.011718750, 1.105468750, 0.707031250, 1.255859375, -0.531250000, 0.638671875, -3.322265625, 0.089843750, -0.777343750, -1.845703125, -0.033203125, -0.505859375, 0.451171875, 0.390625000, 2.123046875, 0.783203125, -1.093750000, -0.748046875, 1.363281250, -0.091796875, -0.425781250, 0.294921875, 1.583984375, 2.130859375, 0.021484375, 1.308593750, -5.835937500, -0.173828125, 1.412109375, -2.378906250, -0.607421875, -0.660156250, 0.960937500, 0.158203125, 2.917968750, 0.730468750, -1.560546875, -2.242187500, 2.222656250, -0.726562500, -3.394531250, 1.361328125, -0.263671875, 2.441406250, -0.457031250, 1.720703125, -10.089843750, 0.925781250, -3.710937500, -1.064453125, -1.736328125, -1.332031250, 0.279296875, 1.214843750, 1.687500000, 0.275390625, -1.601562500, -1.597656250, -0.005859375, -3.775390625, -5.400390625, 0.517578125, 1.847656250, 0.390625000, -0.064453125, 1.189453125, 1.281250000, 0.410156250, -1.166015625, -0.587890625, -0.277343750, -0.435546875, -0.156250000, 0.476562500, 0.048828125, 0.388671875, -0.962890625, -1.113281250, -0.039062500, -3.869140625, -0.029296875, 3.027343750, 1.046875000, 1.453125000, -0.218750000, 1.226562500, 1.589843750, 0.224609375, -1.513671875, -0.369140625, 0.886718750, -0.267578125, 1.376953125, -0.093750000, -0.396484375, 0.539062500, -0.414062500, -0.423828125, 0.646484375, -3.359375000, 0.296875000, 1.925781250, 0.691406250, 2.197265625, -0.337890625, 1.031250000, 0.919921875, 0.632812500, 0.099609375, -1.275390625, -0.421875000, -0.205078125, 0.152343750, -0.312500000, -2.527343750, 0.687500000, -0.517578125, -0.275390625, 0.894531250, -0.623046875, 0.125000000, 0.974609375, 0.595703125, 1.921875000, -0.576171875, 0.718750000, 0.361328125, 0.324218750, -0.630859375, -1.072265625, 0.882812500, -0.101562500, 0.406250000, -0.064453125, -1.400390625, 0.437500000, -0.562500000, -0.044921875, 0.605468750, -0.509765625, 0.218750000, 0.578125000, 0.101562500, 0.576171875, -0.486328125, 0.326171875, 0.003906250, 0.367187500, 0.023437500, -1.105468750, 0.251953125, -0.142578125, -0.173828125, 0.177734375, 0.105468750, 0.337890625, -0.298828125, 0.005859375, 0.283203125, -0.402343750, 0.085937500, 0.214843750, -0.009765625, -0.175781250, -0.505859375, 0.070312500, -0.140625000, 0.056640625, 0.037109375, -0.490234375, 0.033203125, -0.146484375, -1.240234375, 0.292968750, 0.277343750, 0.308593750, -0.021484375, 0.009765625, 0.011718750, -0.332031250, 0.011718750, 0.144531250, -0.025390625, -0.033203125, -0.468750000, -0.017578125, -0.095703125, -0.371093750, -0.148437500, -0.242187500, 0.144531250, -0.351562500, -1.472656250, 0.400390625, -0.078125000, 0.357421875, -0.185546875, 0.009765625, -0.015625000, -0.291015625, 0.007812500, 0.167968750, 0.001953125, 0.019531250, -0.335937500, -0.015625000, -0.019531250, -0.224609375, 0.044921875, -0.292968750, 0.113281250, -0.248046875, -1.093750000, 0.445312500, -0.013671875, 0.417968750, -0.548828125, 0.013671875, -0.021484375, -0.486328125, 0.000000000, 0.402343750, 0.072265625, -0.013671875, -0.435546875, 0.021484375, -0.050781250, -0.236328125, 0.150390625, -0.302734375, 0.330078125, -0.162109375, -0.210937500, 0.281250000, 0.011718750, 0.394531250, 0.007812500, 0.033203125, 0.083984375, -0.531250000, 0.298828125, 0.753906250, 0.296875000, 0.017578125, -0.486328125, 0.218750000, -0.597656250, 0.234375000, 0.285156250, -1.232421875, 0.257812500, -0.554687500, -0.009765625, 0.376953125, 0.380859375, 0.312500000, -0.521484375, -0.269531250, 0.324218750, -0.789062500, 0.378906250, 1.085937500, 0.607421875, 0.070312500, -0.640625000, 0.353515625, -0.890625000, 0.314453125, -0.093750000, -1.156250000, 0.867187500, -0.111328125, 0.500000000, -0.119140625, 0.082031250, 0.541015625, -0.326171875, -0.087890625, 1.126953125, -0.742187500, 0.257812500, -0.771484375, 0.708984375, 0.333984375, -0.611328125, 0.804687500, -4.027343750, -0.388671875, 0.783203125, -1.718750000, 0.697265625, -1.326171875, 0.306640625, 0.599609375, 1.621093750, 0.939453125, -2.388671875, -1.003906250, 1.402343750, -1.042968750, -0.412109375, 0.244140625, 1.156250000, 2.699218750, -0.474609375, 1.167968750, -1.179687500, -0.265625000, -3.177734375, -2.316406250, -0.302734375, 0.365234375, 0.402343750, 0.433593750, 3.187500000, 0.349609375, -1.802734375, -1.830078125, 2.351562500, 0.181640625, -2.783203125, -2.304687500, -0.558593750, 0.617187500, 0.224609375, 1.490234375, -10.488281250, 1.042968750, -0.388671875, -0.267578125, -1.464843750, -0.240234375, 1.476562500, 0.667968750, 2.949218750, -0.125000000, -1.734375000, -1.902343750, -1.076171875, -4.033203125, -8.654296875, 0.667968750, 1.763671875, -2.328125000, 0.152343750, 1.939453125, 2.367187500, 2.191406250, -1.593750000, 0.859375000, -0.572265625, -0.431640625, 0.923828125, -0.742187500, -4.562500000, 0.316406250, -3.216796875, -0.666015625, -1.363281250, -3.468750000, -3.404296875, 3.240234375, 1.121093750, 0.460937500, -0.591796875, 1.292968750, 1.574218750, 0.517578125, -0.083984375, -1.865234375, 0.972656250, 0.109375000, 0.386718750, 2.056640625, 0.953125000, 0.142578125, 0.058593750, -0.900390625, -0.769531250, -3.998046875, -0.240234375, 2.251953125, 0.972656250, 1.876953125, -0.712890625, 0.910156250, 1.169921875, 0.410156250, -1.984375000, -1.384765625, -2.265625000, -0.208984375, -0.041015625, 0.296875000, -0.224609375, 0.220703125, -0.630859375, -0.269531250, 0.169921875, -0.804687500, 0.404296875, 1.951171875, 0.666015625, 0.916015625, -0.074218750, 0.732421875, 0.943359375, 0.396484375, -0.337890625, -0.599609375, 0.289062500, -0.205078125, 0.671875000, -0.394531250, -2.859375000, 0.414062500, -0.050781250, -0.076171875, 0.625000000, -0.982421875, 0.103515625, 0.917968750, 0.429687500, 1.138671875, -0.492187500, 0.355468750, 0.591796875, 0.486328125, -0.234375000, -0.787109375, -0.527343750, -0.248046875, -0.240234375, 0.365234375, 0.269531250, 0.357421875, -0.878906250, 0.000000000, 0.408203125, -0.722656250, -0.048828125, 0.783203125, 0.029296875, 0.548828125, -0.542968750, 0.246093750, 0.199218750, -0.132812500, -0.029296875, -0.642578125, 0.257812500, -0.144531250, -0.130859375, 0.347656250, 0.062500000, 0.324218750, -0.751953125, 0.039062500, 0.207031250, -0.585937500, 0.082031250, 0.652343750, -0.029296875, 0.255859375, -0.511718750, 0.148437500, -0.248046875, -1.064453125, 0.097656250, -0.371093750, 0.437500000, -0.273437500, -0.177734375, -0.103515625, 0.000000000, 0.371093750, -0.238281250, 0.046875000, 0.085937500, -0.572265625, -0.041015625, 0.708984375, 0.039062500, 0.318359375, -0.507812500, 0.087890625, -0.027343750, -0.681640625, 0.107421875, -0.460937500, 0.552734375, -0.560546875, -0.269531250, 0.421875000, -0.068359375, 0.330078125, -0.630859375, 0.046875000, 0.175781250, -0.521484375, 0.195312500, 0.880859375, 0.042968750, 0.072265625, -0.796875000, 0.117187500, -0.570312500, -0.308593750, 0.169921875, -0.726562500, 0.619140625, -0.525390625, 0.035156250, 0.380859375, -0.273437500, 0.371093750, -0.603515625, 0.017578125, 0.533203125, -0.507812500, 0.015625000, 0.974609375, 0.216796875, -0.257812500, -0.544921875, 0.214843750, -1.308593750, 0.376953125, 0.056640625, -1.050781250, 0.882812500, -0.173828125, 0.197265625, 0.511718750, 0.568359375, 0.455078125, -0.601562500, -0.640625000, 0.822265625, -2.199218750, -0.423828125, 0.539062500, 0.619140625, -0.101562500, -1.242187500, 0.501953125, -0.900390625, -0.078125000, -0.386718750, -0.181640625, 1.275390625, -0.388671875, 0.050781250, 0.416015625, 0.904296875, 0.382812500, -1.486328125, -0.496093750, 1.115234375, -0.388671875, 0.326171875, -0.005859375, 0.869140625, -0.646484375, -0.330078125, 0.890625000, -1.685546875, 0.353515625, 0.025390625, -1.037109375, 0.361328125, -0.453125000, 0.230468750, 0.285156250, 0.787109375, 0.250000000, -1.001953125, -0.312500000, 1.707031250, -0.488281250, 0.562500000, -0.669921875, 1.312500000, -0.287109375, 0.474609375, 1.765625000, -8.798828125, 1.419921875, -0.832031250, -2.789062500, -1.822265625, 0.185546875, 0.570312500, 1.158203125, 3.142578125, 0.683593750, -3.060546875, -1.636718750, 2.218750000, 0.191406250, -2.343750000, -3.080078125, 0.357421875, 2.716796875, 0.005859375, 1.916015625, -6.888671875, -0.953125000, -0.921875000, -0.666015625, -2.644531250, -1.164062500, 0.294921875, 0.466796875, 2.037109375, -1.132812500, -1.304687500, -1.890625000, 1.296875000, -1.347656250, -5.250000000, 0.845703125, 1.650390625, -0.861328125, 0.146484375, 2.113281250, 2.048828125, 1.824218750, 0.416015625, -1.285156250, 0.451171875, -0.396484375, 2.173828125, -0.652343750, -3.148437500, 0.343750000, -0.837890625, -0.517578125, 0.501953125, -2.917968750, -0.058593750, 3.697265625, 1.654296875, 0.423828125, 0.042968750, 1.759765625, 1.798828125, 2.429687500, -4.232421875, -0.091796875, -0.287109375, 0.929687500, 0.894531250, 0.726562500, 2.562500000, 0.134765625, -1.482421875, -0.722656250, 1.539062500, -4.953125000, -0.601562500, 1.515625000, 1.277343750, 0.132812500, -0.080078125, 1.257812500, 0.966796875, 1.490234375, -1.851562500, -0.609375000, 0.453125000, 0.244140625, 0.976562500, 1.335937500, 2.535156250, 0.189453125, -0.275390625, -0.240234375, 1.449218750, -6.509765625, 1.066406250, 2.435546875, 0.855468750, 1.849609375, -0.662109375, 1.167968750, 0.431640625, -0.150390625, -0.162109375, -1.994140625, 0.460937500, -0.884765625, 0.427734375, 0.132812500, -0.330078125, 0.292968750, -0.210937500, -0.326171875, 1.076171875, -1.699218750, 0.378906250, 1.083984375, 0.382812500, 1.185546875, -0.386718750, 0.736328125, 0.308593750, 0.480468750, -0.253906250, 0.320312500, -0.558593750, -0.650390625, -0.132812500, 0.730468750, -1.091796875, 0.240234375, 0.314453125, -0.042968750, 0.445312500, -1.134765625, 0.353515625, 1.423828125, 0.298828125, 0.646484375, -0.781250000, 0.460937500, 0.296875000, -0.167968750, -0.384765625, -1.083984375, 0.783203125, -0.650390625, 0.359375000, 0.246093750, -0.710937500, 0.316406250, -0.621093750, -0.021484375, 0.396484375, -0.998046875, 0.060546875, 1.232421875, 0.054687500, 0.472656250, -0.419921875, 0.382812500, 0.123046875, -0.449218750, -0.001953125, -0.285156250, 0.953125000, -0.013671875, -0.033203125, 0.240234375, -0.578125000, 0.238281250, -0.730468750, 0.160156250, 0.421875000, -0.792968750, 0.316406250, 1.220703125, -0.082031250, -0.375000000, -0.908203125, 0.289062500, -0.201171875, -0.394531250, 0.101562500, -0.640625000, 1.046875000, -0.849609375, 0.158203125, 0.564453125, -1.787109375, 0.419921875, -0.451171875, -0.011718750, 0.558593750, -0.980468750, 0.132812500, 1.417968750, -0.318359375, 0.691406250, -0.968750000, 0.357421875, -0.654296875, -0.333984375, -0.343750000, -0.070312500, 1.179687500, -0.326171875, 0.285156250, 0.349609375, -0.638671875, 0.232421875, -0.859375000, -0.167968750, 1.015625000, -1.851562500, -0.355468750, 1.718750000, 0.255859375, -0.261718750, -0.494140625, 0.496093750, -2.771484375, 0.000000000, -1.167968750, 0.628906250, 1.193359375, 0.542968750, 0.046875000, -0.351562500, 1.617187500, 0.646484375, -1.017578125, -0.302734375, 1.144531250, -0.193359375, -0.021484375, 0.089843750, 0.767578125, -0.447265625, -0.494140625, 0.921875000, -3.167968750, -0.011718750, -0.140625000, -0.677734375, 1.537109375, -0.390625000, 0.669921875, 0.679687500, 0.345703125, 0.349609375, -1.494140625, -0.673828125, 1.607421875, -1.464843750, 0.210937500, 0.230468750, 0.982421875, 0.625000000, -0.544921875, 1.392578125, -4.330078125, -0.681640625, -2.308593750, -2.648437500, 0.777343750, -0.072265625, -0.121093750, 0.382812500, 2.613281250, 0.498046875, -1.181640625, 0.451171875, 2.232421875, 0.791015625, 1.062500000, 0.218750000, 1.359375000, 0.306640625, -0.406250000, 1.658203125, -6.359375000, 1.775390625, -4.150390625, 0.062500000, 0.533203125, -0.498046875, 1.177734375, 0.062500000, 1.582031250, 0.037109375, -0.496093750, -0.287109375, 2.138671875, 0.957031250, 0.017578125, -2.232421875, 1.908203125, 0.914062500, -0.246093750, 2.031250000, -10.761718750, 1.259765625, 2.072265625, -0.150390625, -1.578125000, -0.658203125, 1.328125000, -0.630859375, 1.601562500, -0.191406250, -0.613281250, -1.748046875, 1.382812500, -0.246093750, -4.544921875, 0.035156250, 2.179687500, 1.908203125, -0.345703125, 2.730468750, 1.146484375, -1.357421875, -2.003906250, -1.423828125, -0.335937500, 1.236328125, -2.296875000, 0.062500000, 1.125000000, -0.703125000, -0.882812500, -3.226562500, 2.564453125, -6.458984375, -9.234375000, 1.082031250, 1.566406250, 0.818359375, 0.371093750, 1.853515625, 2.378906250, 1.105468750, -4.714843750, -0.136718750, -0.189453125, -0.115234375, 1.378906250, 0.539062500, -0.257812500, 0.619140625, -0.267578125, -1.068359375, 0.576171875, 0.101562500, -2.816406250, 0.265625000, 1.316406250, 1.755859375, 0.318359375, 1.406250000, 0.724609375, 0.589843750, -2.988281250, 2.267578125, -0.513671875, 0.609375000, -0.955078125, 0.570312500, 1.865234375, 0.000000000, -0.867187500, -0.718750000, 2.054687500, -2.726562500, 0.398437500, -0.289062500, 0.740234375, 0.001953125, -0.169921875, 1.402343750, 0.203125000, -0.132812500, -1.781250000, -0.886718750, -0.166015625, -0.058593750, 1.101562500, 0.164062500, 2.380859375, 0.119140625, -0.162109375, -0.410156250, 1.488281250, -3.250000000, 0.484375000, 1.798828125, 0.755859375, 0.976562500, -0.310546875, 1.085937500, 1.375000000, 2.041015625, -1.632812500, -1.255859375, -0.167968750, -0.021484375, 1.062500000, 0.695312500, 0.693359375, 0.332031250, -0.261718750, -0.031250000, 1.177734375, -1.826171875, 0.763671875, 2.382812500, 0.468750000, 1.246093750, -0.500000000, 0.945312500, 0.294921875, 0.607421875, -0.152343750, -0.705078125, 1.617187500, 0.115234375, 0.496093750, 0.113281250, -0.769531250, 0.343750000, -0.039062500, -0.039062500, 0.921875000, -1.136718750, 1.171875000, 1.443359375, 0.328125000, 2.953125000, -0.476562500, 0.603515625, -0.185546875, 0.267578125, -2.906250000, -0.707031250, -0.996093750, -0.138671875, 0.335937500, 0.343750000, 0.763671875, 0.312500000, -0.394531250, 0.179687500, 0.683593750, -1.781250000, 1.390625000, 1.708984375, 0.683593750, 1.142578125, -1.419921875, 0.615234375, -1.156250000, 0.546875000, 0.521484375, -2.082031250, -0.031250000, -0.150390625, 0.197265625, -0.224609375, 0.521484375, 0.072265625, -0.375000000, -0.205078125, 0.707031250, -1.115234375, 1.203125000, 2.089843750, 0.605468750, -1.564453125, -0.636718750, 0.515625000, -4.710937500, 0.873046875, -1.685546875, -0.058593750, 0.562500000, -0.822265625, -0.160156250, 0.138671875, -0.121093750, 0.191406250, -0.261718750, -0.173828125, 1.173828125, -1.636718750, 1.210937500, 2.083984375, 0.341796875, 0.701171875, -0.507812500, 0.964843750, -1.593750000, 1.539062500, -0.220703125, -1.138671875, -0.199218750, -0.283203125, 0.927734375, 0.974609375, 0.699218750, 0.736328125, -0.455078125, -0.265625000, 1.906250000, -4.603515625, 0.751953125, 0.289062500, 0.919921875, 1.902343750, -1.050781250, 1.189453125, 1.275390625, 0.500000000, -1.960937500, 0.289062500, 2.164062500, 0.390625000, 0.759765625, -0.462890625, 1.267578125, 0.193359375, -0.328125000, -0.646484375, 1.505859375, -1.695312500, 0.533203125, 0.863281250, 1.103515625, 0.312500000, -0.623046875, 1.751953125, -2.556640625, 0.974609375, -3.257812500, -0.400390625, -0.841796875, -0.062500000, -0.013671875, 0.304687500, 0.783203125, 0.093750000, -1.951171875, -0.853515625, 2.353515625, -2.105468750, 0.482421875, -4.693359375, 0.078125000, -1.939453125, -1.269531250, 1.921875000, -4.738281250, -0.265625000, -2.550781250, -0.074218750, 0.462890625, -0.199218750, 2.025390625, 1.109375000, 1.330078125, 0.095703125, -1.865234375, -1.603515625, 2.638671875, 0.974609375, -0.363281250, -2.880859375, 1.498046875, 0.458984375, -0.062500000, 2.550781250, -11.123046875, 2.099609375, 0.332031250, -0.548828125, 0.257812500, -0.392578125, 1.292968750, -0.458984375, 0.957031250, -0.064453125, -2.101562500, -2.658203125, 1.443359375, -1.289062500, -0.710937500, 1.820312500, 2.310546875, 0.453125000, 0.609375000, 3.458984375, 1.466796875, 0.134765625, -3.246093750, 0.396484375, 0.341796875, -0.445312500, 4.330078125, -0.035156250, 2.117187500, -0.070312500, -1.496093750, -1.607421875, 0.599609375, -3.152343750, 0.259765625, 2.974609375, 1.283203125, 2.814453125, -0.289062500, 1.998046875, 1.121093750, 1.142578125, -0.587890625, -2.589843750, 0.451171875, 0.548828125, 2.099609375, 0.564453125, 0.011718750, -0.099609375, -1.900390625, -0.449218750, -0.501953125, -4.906250000, -0.390625000, 0.259765625, 1.257812500, 1.392578125, -0.417968750, -0.478515625, 0.847656250, 0.222656250, -0.517578125, -0.080078125, 0.330078125, 0.498046875, 0.654296875, 0.224609375, -0.539062500, 0.203125000, -0.101562500, -1.697265625, 1.822265625, -3.712890625, 0.330078125, 0.193359375, 1.457031250, 1.046875000, -1.279296875, 1.267578125, 1.083984375, 0.884765625, -2.076171875, -2.570312500, -0.328125000, -1.007812500, 1.644531250, 1.056640625, -0.406250000, 0.123046875, -2.392578125, -0.466796875, 1.787109375, -3.570312500, 0.654296875, -1.587890625, 1.138671875, 0.037109375, -0.070312500, 1.451171875, 0.714843750, 0.277343750, -1.519531250, -1.234375000, 1.585937500, 0.646484375, 0.113281250, 0.189453125, -0.828125000, 0.378906250, -1.851562500, -0.441406250, 1.703125000, -5.869140625, 1.287109375, 0.150390625, 0.947265625, 0.292968750, -0.589843750, 1.421875000, -1.048828125, 0.818359375, -2.449218750, -1.140625000, -0.972656250, -0.277343750, 0.060546875, 0.703125000, 1.761718750, 0.253906250, -0.498046875, 0.349609375, 1.207031250, -4.986328125, 1.980468750, 1.521484375, 1.117187500, -0.113281250, -0.828125000, 1.021484375, 0.388671875, 1.076171875, 0.439453125, -0.810546875, -0.408203125, -1.054687500, 0.277343750, 0.246093750, 0.636718750, 0.492187500, -1.285156250, -0.636718750, 1.207031250, -5.552734375, 1.667968750, -1.787109375, 0.654296875, 0.876953125, -0.785156250, 0.802734375, -1.857421875, 1.820312500, -3.316406250, -1.722656250, -0.652343750, 0.302734375, 0.625000000, 0.541015625, -1.947265625, 0.640625000, -3.191406250, -0.283203125, 1.535156250, -0.423828125, 0.880859375, 1.804687500, 0.308593750, 2.632812500, -0.326171875, 1.035156250, -3.121093750, 1.492187500, -3.468750000, 0.361328125, -1.623046875, 0.189453125, -0.343750000, 0.308593750, -0.494140625, 0.019531250, -1.558593750, -0.337890625, 1.703125000, 1.000000000, 0.490234375, -2.279296875, 0.822265625, -1.498046875, -0.578125000, 1.132812500, -0.656250000, 1.224609375, -2.843750000, 0.781250000, 0.566406250, 0.005859375, 0.261718750, -0.947265625, 0.265625000, 0.804687500, -2.796875000, -0.199218750, 1.921875000, -1.031250000, 1.023437500, -1.138671875, 0.804687500, 0.167968750, -0.568359375, 1.828125000, -3.589843750, 0.031250000, 1.867187500, -2.117187500, 2.746093750, -0.373046875, 2.054687500, 1.234375000, 0.039062500, 0.449218750, -1.539062500, -0.714843750, 2.261718750, -0.673828125, 1.234375000, -1.710937500, 0.958984375, -3.335937500, -1.027343750, 1.962890625, -10.052734375, 1.794921875, -1.939453125, 0.417968750, -0.576171875, -0.212890625, 0.125000000, -1.015625000, 0.503906250, -0.119140625, -1.496093750, -0.615234375, 2.324218750, 1.634765625, -0.302734375, -3.384765625, 2.478515625, 1.185546875, 1.003906250, 2.654296875, -6.175781250, -1.236328125, -4.007812500, -0.685546875, 3.033203125, -0.955078125, 0.765625000, 1.628906250, 1.025390625, -0.226562500, -2.333984375, -0.863281250, 3.107421875, 0.744140625, 1.511718750, 3.433593750, 0.888671875, 2.140625000, 0.914062500, 2.484375000, -4.599609375, 2.839843750, -1.294921875, -0.826171875, -1.558593750, 0.617187500, 1.990234375, -2.388671875, 0.734375000, 0.259765625, -1.011718750, -0.878906250, -2.994140625, -1.291015625, -1.603515625, 0.533203125, 2.585937500, 0.757812500, 0.552734375, 2.558593750, 2.345703125, 2.910156250, -0.369140625, -0.263671875, -0.322265625, 0.269531250, 0.623046875, 0.662109375, -1.705078125, 0.267578125, -0.695312500, -1.078125000, -2.330078125, -3.218750000, -0.179687500, 6.259765625, 1.691406250, -0.250000000, 0.472656250, 2.343750000, 1.164062500, 2.800781250, 1.060546875, -1.728515625, 1.126953125, -0.244140625, 0.453125000, 0.958984375, 0.582031250, 0.365234375, -1.261718750, -1.638671875, 2.236328125, -2.910156250, -4.275390625, 2.552734375, 2.150390625, 0.318359375, -1.181640625, 2.052734375, 1.335937500, 2.199218750, 0.125000000, -0.039062500, -0.164062500, -0.843750000, 0.900390625, 1.943359375, 3.031250000, 0.371093750, -1.234375000, -0.720703125, -1.212890625, -0.466796875, 0.527343750, 0.580078125, 2.246093750, 1.322265625, 1.382812500, 1.740234375, 2.359375000, 2.375000000, -3.435546875, -0.810546875, -2.617187500, 0.201171875, 0.652343750, 1.232421875, -0.347656250, 0.054687500, -0.666015625, -0.541015625, -1.521484375, -3.830078125, 1.498046875, 0.652343750, 1.626953125, 1.246093750, 0.224609375, 1.621093750, 0.554687500, 1.802734375, 1.082031250, 0.183593750, -2.093750000, 0.500000000, 1.894531250, 0.523437500, -1.330078125, -0.310546875, -1.876953125, -0.941406250, -0.558593750, 0.009765625, 1.708984375, -2.638671875, 1.537109375, 0.804687500, 0.109375000, 1.103515625, 1.031250000, 0.751953125, -0.353515625, -1.296875000, -1.531250000, 0.343750000, 1.605468750, -1.361328125, -0.388671875, 0.015625000, -2.867187500, -0.861328125, 2.031250000, -5.396484375, 1.650390625, 0.605468750, 0.880859375, -0.539062500, -0.382812500, 1.673828125, -1.000000000, 0.906250000, -0.035156250, 0.109375000, -0.863281250, -0.324218750, 0.134765625, 0.216796875, -1.921875000, -0.017578125, -0.677734375, -0.064453125, 2.609375000, -2.343750000, 2.009765625, 2.660156250, 0.224609375, 1.064453125, -0.671875000, 1.484375000, -5.988281250, 1.931640625, 1.630859375, -1.292968750, -1.273437500, -0.015625000, 1.267578125, 0.390625000, -2.267578125, 0.371093750, -2.052734375, -0.730468750, 2.000000000, -4.533203125, 1.556640625, -6.296875000, 1.416015625, 2.072265625, -0.765625000, 1.966796875, -1.328125000, -0.279296875, -1.001953125, -2.042968750, -0.095703125, -0.109375000, 0.835937500, 0.230468750, -1.433593750, -0.283203125, -1.630859375, -0.896484375, 1.898437500, -1.289062500, 1.343750000, 2.552734375, 1.320312500, -1.083984375, -0.437500000, 1.779296875, -2.300781250, 0.894531250, -0.408203125, -0.814453125, 1.033203125, 0.039062500, 1.181640625, -0.216796875, 1.337890625, -0.265625000, -1.496093750, -0.792968750, 1.066406250, 0.656250000, 0.765625000, 2.552734375, 1.515625000, 0.759765625, 0.712890625, 2.000000000, -4.919921875, 0.482421875, -1.636718750, -0.677734375, -2.429687500, -1.091796875, 1.523437500, 0.935546875, -0.945312500, -0.185546875, -2.998046875, -0.714843750, 2.251953125, 1.472656250, -0.402343750, -5.449218750, 1.794921875, 0.330078125, -0.175781250, 2.689453125, -7.019531250, 2.521484375, -1.859375000, -1.009765625, -1.017578125, -0.273437500, 0.894531250, 0.966796875, 2.416015625, 1.021484375, -3.884765625, -0.958984375, 3.289062500, -0.728515625, 0.921875000, -0.548828125, 1.253906250, 3.029296875, -0.179687500, 2.470703125, -5.087890625, 1.783203125, -3.701171875, -0.625000000, 1.029296875, -0.099609375, 2.886718750, 0.623046875, 0.521484375, -0.142578125, -2.210937500, -1.380859375, 1.775390625, -0.470703125, 1.511718750, 0.724609375, 2.144531250, 0.861328125, -0.123046875, 3.279296875, -5.228515625, 2.099609375, 0.292968750, -3.251953125, -2.523437500, -0.511718750, 1.710937500, 1.369140625, -1.302734375};

#endif

#endif
