//Numpy array shape [64, 5]
//Min -6.113281250000
//Max 9.990234375000
//Number of zeros 1

#ifndef W13_H_
#define W13_H_

#ifndef __SYNTHESIS__
weight13_t w13[320];
#else
weight13_t w13[320] = {0.740234375, 0.093750000, -1.712890625, 0.492187500, -0.896484375, -0.269531250, 0.339843750, 0.548828125, 0.488281250, -1.423828125, 1.451171875, 1.304687500, -4.255859375, -1.113281250, -0.580078125, -0.232421875, -0.238281250, -0.226562500, -0.283203125, 0.074218750, 0.490234375, 0.117187500, -0.152343750, -0.154296875, -0.847656250, -1.359375000, -1.015625000, 1.566406250, 1.275390625, -0.390625000, 0.132812500, 0.246093750, -1.087890625, -0.234375000, 0.427734375, 0.839843750, 0.671875000, -3.742187500, 0.025390625, 0.126953125, -0.763671875, -0.554687500, 0.445312500, 0.292968750, 0.042968750, -0.652343750, -0.714843750, 0.791015625, -0.021484375, 0.058593750, 0.746093750, -0.136718750, -2.765625000, -2.177734375, 0.703125000, -1.037109375, -0.072265625, 0.750000000, 0.769531250, -0.609375000, 0.367187500, 0.308593750, -2.740234375, 0.691406250, 0.023437500, 0.201171875, 0.160156250, -0.751953125, 0.421875000, -0.501953125, 0.392578125, 0.619140625, -0.460937500, -0.720703125, 0.113281250, -1.142578125, -0.808593750, 1.878906250, 1.253906250, -0.906250000, -0.804687500, -0.109375000, 1.476562500, 0.693359375, -1.005859375, -0.652343750, -0.816406250, 0.964843750, 1.345703125, -0.630859375, 0.513671875, 0.972656250, -3.222656250, -0.074218750, 0.191406250, -0.824218750, -0.083984375, 0.878906250, -0.001953125, -0.203125000, -0.396484375, -0.496093750, -0.058593750, 0.210937500, 0.136718750, -0.785156250, -1.044921875, 9.990234375, -1.343750000, 0.201171875, 0.050781250, 0.496093750, -1.810546875, 0.988281250, -0.121093750, 0.199218750, 0.605468750, 0.300781250, 0.203125000, -0.792968750, -0.347656250, -0.343750000, 0.466796875, -0.185546875, 0.261718750, -1.458984375, -0.175781250, 1.199218750, 0.968750000, -0.505859375, -0.419921875, -1.257812500, 0.330078125, 0.416015625, 0.152343750, -0.074218750, 0.451171875, 3.292968750, -4.619140625, 0.183593750, 0.429687500, -0.025390625, -1.279296875, 0.322265625, 0.212890625, -0.427734375, -0.736328125, 0.501953125, 0.296875000, 0.240234375, 0.792968750, 0.669921875, -0.816406250, 0.197265625, -0.904296875, 0.998046875, 0.462890625, -2.916015625, -0.572265625, -0.177734375, -1.599609375, -0.511718750, 1.464843750, 0.957031250, -1.187500000, -0.296875000, 0.128906250, 0.316406250, -0.146484375, 0.406250000, -0.775390625, 0.710937500, 0.822265625, 0.546875000, -1.732421875, 0.550781250, 0.064453125, -0.630859375, 0.142578125, -0.437500000, 0.373046875, 0.310546875, 0.169921875, -0.443359375, -0.814453125, -0.287109375, -0.773437500, 0.375000000, 0.605468750, 0.388671875, -0.158203125, 0.164062500, 0.830078125, 0.410156250, -2.089843750, -1.832031250, 0.314453125, 0.927734375, 1.435546875, -0.322265625, -1.216796875, -1.000000000, 1.287109375, 1.113281250, -0.273437500, -0.583984375, 0.023437500, 0.455078125, 0.117187500, 0.525390625, -0.873046875, -0.398437500, 1.091796875, 0.466796875, -0.820312500, 2.714843750, -0.500000000, 0.089843750, -0.097656250, -3.330078125, 0.964843750, 1.238281250, -4.226562500, -1.142578125, 0.244140625, -0.732421875, -0.980468750, 0.601562500, 0.726562500, 0.341796875, -0.955078125, -0.326171875, 1.015625000, 0.337890625, -0.830078125, -0.388671875, -0.005859375, -0.154296875, -0.187500000, 0.630859375, 0.500000000, 0.585937500, -0.365234375, -0.673828125, 0.183593750, 0.486328125, 0.615234375, -0.072265625, -0.228515625, -1.193359375, 0.941406250, 0.626953125, -1.078125000, -0.300781250, -0.179687500, 0.763671875, 0.826171875, -3.154296875, -0.718750000, -0.001953125, -0.708984375, -0.931640625, 0.619140625, 0.410156250, 0.267578125, -1.216796875, 0.580078125, 0.591796875, 0.566406250, -1.136718750, 0.708984375, 0.529296875, -1.871093750, -0.302734375, -0.429687500, 4.621093750, -0.464843750, -6.113281250, -4.406250000, 6.990234375, 0.482421875, 0.378906250, -0.275390625, -1.701171875, 0.044921875, -0.478515625, -0.658203125, 0.306640625, 0.785156250, 0.023437500, -0.091796875, -0.185546875, -0.443359375, -0.720703125, 0.904296875, -0.818359375, -0.058593750, 0.429687500, 0.232421875, 0.441406250, 0.796875000, -0.501953125, 0.810546875, 1.220703125, -1.132812500, -0.189453125, -0.765625000, 0.394531250, 0.000000000, -0.107421875, -1.533203125, 0.087890625, 0.970703125, 1.005859375, -0.273437500, 0.437500000, 0.396484375, -0.628906250, -1.238281250, 2.730468750};

#endif

#endif
