//Numpy array shape [144, 28]
//Min -11.123046875000
//Max 10.257812500000
//Number of zeros 8

#ifndef W13_H_
#define W13_H_

#ifndef __SYNTHESIS__
weight13_t w13[4032];
#else
weight13_t w13[4032] = {-0.097656250, 0.041015625, 0.064453125, 0.044921875, 0.070312500, -0.037109375, -0.238281250, 0.130859375, -0.117187500, -0.019531250, -0.195312500, 0.041015625, -0.068359375, 0.023437500, 0.031250000, -0.208984375, -0.011718750, 0.169921875, 0.062500000, 0.201171875, -0.125000000, 0.183593750, 0.117187500, 0.074218750, -0.132812500, -0.150390625, -0.126953125, 0.078125000, 0.072265625, 0.105468750, -0.062500000, 1.380859375, -1.705078125, -0.476562500, 0.011718750, 0.101562500, -0.980468750, 0.111328125, -0.462890625, -0.042968750, 2.322265625, -0.267578125, 2.039062500, -1.701171875, -0.964843750, 0.462890625, 0.212890625, -1.656250000, 1.152343750, -1.542968750, -0.164062500, 1.289062500, 0.669921875, -1.890625000, 0.011718750, -0.070312500, -0.142578125, 0.226562500, 0.074218750, -5.130859375, 5.324218750, -0.314453125, -0.148437500, -0.234375000, 2.830078125, -2.652343750, 3.583984375, 0.203125000, -2.564453125, -0.675781250, 2.164062500, 6.189453125, 4.849609375, 0.171875000, -0.072265625, -1.166015625, -5.544921875, 6.052734375, -2.761718750, 1.166015625, -1.861328125, 4.210937500, 0.023437500, -0.162109375, -0.199218750, -0.021484375, 0.101562500, 5.250000000, -1.345703125, -0.972656250, 0.150390625, 0.009765625, -2.871093750, -2.119140625, -0.394531250, -0.123046875, 2.419921875, -0.814453125, 2.203125000, -1.982421875, 2.228515625, -2.386718750, -0.013671875, 3.224609375, 3.554687500, -3.843750000, -2.236328125, 2.000000000, -0.257812500, -0.476562500, -0.199218750, -4.351562500, -0.210937500, 3.587890625, -0.216796875, 0.130859375, -4.716796875, 0.078125000, 2.439453125, 3.027343750, -0.435546875, -0.007812500, 1.550781250, -4.097656250, -3.371093750, 2.679687500, 0.142578125, -1.343750000, -2.601562500, 2.027343750, 0.052734375, 2.392578125, 2.769531250, 3.707031250, -6.269531250, 1.835937500, 0.513671875, -1.468750000, 0.029296875, -2.980468750, -1.271484375, -1.484375000, -4.208984375, -1.380859375, 1.201171875, -1.441406250, 7.767578125, -6.816406250, -1.861328125, 0.503906250, -3.189453125, 8.093750000, 2.878906250, -7.138671875, 0.398437500, -1.511718750, -0.912109375, 1.966796875, 2.724609375, 5.855468750, 2.408203125, 0.378906250, -9.222656250, -1.656250000, -5.349609375, 0.710937500, -0.101562500, 1.757812500, 3.460937500, 2.802734375, 1.166015625, -0.595703125, -0.013671875, -0.089843750, 2.449218750, -2.513671875, 0.384765625, 2.250000000, 2.246093750, 2.072265625, 1.195312500, -4.845703125, -0.558593750, -1.164062500, 0.863281250, 1.291015625, 1.882812500, 0.316406250, 2.330078125, -1.941406250, 1.205078125, 1.494140625, 3.544921875, -1.054687500, 0.064453125, -8.076171875, -0.816406250, -0.207031250, -0.982421875, 3.750000000, 1.667968750, -3.691406250, 1.462890625, -1.671875000, -0.525390625, -0.255859375, 1.789062500, 4.072265625, -8.054687500, -0.226562500, -0.812500000, 2.236328125, -0.931640625, 2.078125000, 1.947265625, -2.611328125, -0.142578125, -2.714843750, -2.884765625, 1.376953125, 0.632812500, -3.927734375, -0.037109375, -5.880859375, -0.191406250, 0.216796875, -0.076171875, 4.714843750, 3.740234375, -3.009765625, 0.425781250, 2.552734375, -2.808593750, 0.525390625, -6.986328125, -0.539062500, -5.353515625, 3.435546875, 1.107421875, -0.488281250, 0.208984375, 2.656250000, -0.136718750, 3.175781250, 2.839843750, -2.294921875, -0.527343750, 5.611328125, 1.972656250, -0.089843750, -0.089843750, -0.324218750, 0.023437500, -0.064453125, -0.033203125, 0.152343750, 0.158203125, 0.126953125, 0.003906250, 0.115234375, -0.115234375, 0.195312500, 0.224609375, -0.185546875, -0.156250000, 0.109375000, -0.117187500, 0.203125000, -0.162109375, 0.044921875, -0.099609375, -0.253906250, -0.029296875, -0.064453125, 0.005859375, 0.033203125, 0.056640625, -0.025390625, 0.078125000, 0.210937500, 0.121093750, -0.066406250, -0.058593750, 0.095703125, 0.003906250, 0.039062500, -0.177734375, -0.058593750, 0.244140625, -0.193359375, -0.187500000, -0.046875000, 0.076171875, -0.146484375, -0.107421875, 0.169921875, -0.072265625, 0.246093750, 0.066406250, -0.169921875, -0.197265625, -0.041015625, 0.265625000, 0.183593750, 0.074218750, -0.007812500, -0.162109375, 0.074218750, -0.070312500, 0.187500000, 0.035156250, -0.119140625, 0.089843750, 0.078125000, -0.011718750, 0.179687500, -0.033203125, 0.048828125, -0.167968750, 0.158203125, -0.064453125, 0.082031250, -0.033203125, -0.113281250, -0.011718750, 0.035156250, 0.099609375, -0.117187500, 0.074218750, -0.066406250, -0.179687500, 0.021484375, -0.023437500, 0.109375000, -0.185546875, -0.046875000, 0.119140625, -0.121093750, 0.005859375, -0.078125000, -0.158203125, -0.009765625, -0.150390625, 0.050781250, -0.089843750, -0.042968750, -0.117187500, -0.083984375, 0.025390625, -0.072265625, 0.134765625, 0.052734375, -0.130859375, 0.205078125, -0.152343750, 0.000000000, 0.058593750, -0.019531250, 0.046875000, 0.056640625, -0.025390625, 0.025390625, -0.046875000, -0.126953125, 0.097656250, -0.041015625, -0.060546875, 6.257812500, -0.367187500, 0.042968750, 2.035156250, 2.707031250, -2.458984375, 0.365234375, -1.136718750, -2.294921875, 5.796875000, 2.640625000, 0.154296875, 1.798828125, 2.378906250, 2.970703125, -1.240234375, 0.058593750, 4.746093750, -4.316406250, -2.662109375, -0.189453125, 3.736328125, -2.251953125, -0.041015625, 0.039062500, -0.259765625, -0.105468750, -0.050781250, 1.218750000, -1.121093750, -0.136718750, 1.908203125, 2.908203125, -3.744140625, 1.542968750, 2.306640625, -2.710937500, 0.076171875, -2.968750000, -1.529296875, -3.781250000, -4.869140625, 2.289062500, -1.376953125, 2.523437500, -2.650390625, 0.177734375, -4.824218750, -0.333984375, 3.167968750, -2.589843750, 0.123046875, 4.080078125, -2.671875000, -1.701171875, -1.166015625, 1.457031250, -0.154296875, -4.765625000, 1.837890625, 1.630859375, 1.554687500, 2.699218750, 0.923828125, 1.203125000, -0.210937500, -0.740234375, 0.023437500, 1.576171875, 1.507812500, 4.240234375, 0.423828125, 0.308593750, 4.148437500, 1.548828125, 1.091796875, 0.486328125, -1.699218750, -0.181640625, -3.177734375, -5.375000000, -1.685546875, -1.052734375, -0.843750000, 1.748046875, 0.435546875, -7.246093750, 1.121093750, 1.388671875, -0.880859375, 2.591796875, -1.058593750, 0.550781250, -0.955078125, -1.970703125, -0.013671875, 0.533203125, 0.345703125, 1.519531250, 0.183593750, -2.587890625, 3.839843750, 0.267578125, 1.064453125, 0.730468750, -1.212890625, 1.738281250, -2.755859375, -0.902343750, -2.783203125, -0.306640625, 0.230468750, 1.271484375, -0.056640625, -4.968750000, 1.853515625, 0.671875000, 0.398437500, 2.369140625, 0.425781250, 0.478515625, -1.498046875, -1.273437500, 0.115234375, 0.806640625, 0.519531250, 1.457031250, -0.255859375, -0.265625000, 3.095703125, 0.072265625, 2.796875000, 0.105468750, -1.017578125, -1.953125000, -2.787109375, -1.832031250, -3.492187500, -0.832031250, -0.164062500, 0.677734375, 0.238281250, -0.388671875, 0.775390625, 0.054687500, 2.234375000, 2.695312500, -0.939453125, -1.548828125, -1.458984375, -1.105468750, 0.281250000, 0.466796875, 2.189453125, -0.630859375, 1.574218750, 0.994140625, 2.683593750, -0.621093750, 1.542968750, 1.003906250, 0.978515625, 2.025390625, -1.767578125, -3.982421875, -3.154296875, 0.250000000, -0.591796875, 0.386718750, -0.943359375, 2.408203125, 2.244140625, 0.351562500, 4.060546875, 2.980468750, 0.359375000, -1.320312500, -2.458984375, -1.085937500, -0.060546875, 1.089843750, 0.486328125, 2.177734375, -0.361328125, -1.527343750, 2.662109375, -0.824218750, 1.945312500, 0.269531250, 0.666015625, 2.306640625, -1.935546875, -2.302734375, -2.091796875, -1.058593750, -2.128906250, 2.316406250, -0.890625000, 1.658203125, 0.554687500, -0.478515625, 1.675781250, 3.996093750, -0.906250000, 1.367187500, -3.572265625, -1.087890625, -0.414062500, 0.841796875, 0.027343750, 2.628906250, -1.652343750, -2.056640625, 3.847656250, -0.447265625, 2.541015625, 0.410156250, 0.984375000, 0.205078125, -3.478515625, -4.212890625, 0.087890625, -0.199218750, -0.722656250, -1.919921875, -3.160156250, -1.931640625, -1.458984375, -0.441406250, 0.216796875, -0.462890625, 4.779296875, -0.466796875, 2.279296875, 0.255859375, -1.220703125, -1.080078125, -0.685546875, 6.349609375, 0.324218750, -0.908203125, 0.281250000, -0.154296875, -0.783203125, 0.351562500, -0.417968750, -0.632812500, -0.021484375, -2.408203125, 0.048828125, 0.197265625, 0.070312500, -4.222656250, 4.298828125, -0.095703125, 0.025390625, -0.103515625, 4.287109375, -2.707031250, 0.759765625, 0.171875000, 0.009765625, 0.197265625, -0.099609375, 4.472656250, 0.191406250, -0.462890625, 0.023437500, -0.062500000, -4.423828125, 4.318359375, -3.673828125, -0.093750000, -0.455078125, -0.013671875, 0.111328125, 0.164062500, -0.001953125, 0.117187500, -0.083984375, -0.003906250, -0.054687500, -0.250000000, -0.033203125, -0.201171875, -0.060546875, -0.074218750, -0.078125000, -0.042968750, -0.099609375, -0.171875000, -0.003906250, -0.007812500, 0.207031250, -0.093750000, 0.201171875, -0.019531250, 0.113281250, -0.167968750, 0.050781250, -0.041015625, 0.044921875, -0.091796875, -0.138671875, -0.105468750, -0.570312500, 0.003906250, 0.708984375, 7.794921875, -4.484375000, -0.046875000, 1.755859375, 2.667968750, -5.611328125, 0.136718750, -2.138671875, -2.615234375, 7.236328125, 2.226562500, 0.042968750, -3.496093750, -1.585937500, 5.210937500, -0.980468750, -1.083984375, 4.103515625, -6.324218750, -3.140625000, 3.554687500, 5.632812500, -2.732421875, -0.125000000, -0.037109375, -1.224609375, 0.156250000, 0.626953125, 1.664062500, 0.949218750, 3.675781250, 3.607421875, -1.916015625, -2.064453125, 1.652343750, 1.769531250, -1.732421875, 0.693359375, -3.171875000, 0.742187500, 1.867187500, 3.521484375, 1.976562500, -0.375000000, -3.353515625, 2.150390625, -3.720703125, -2.498046875, -0.937500000, -6.728515625, 6.916015625, -0.105468750, -3.490234375, -2.494140625, -2.943359375, 0.900390625, 1.556640625, -0.146484375, -1.552734375, 0.347656250, 0.880859375, -4.373046875, 2.919921875, -0.638671875, 1.558593750, -2.228515625, 0.011718750, 0.238281250, 0.552734375, 1.667968750, 0.968750000, -0.033203125, -3.949218750, 3.593750000, -0.292968750, -0.361328125, 0.044921875, -1.531250000, 1.687500000, -1.734375000, -2.035156250, -2.507812500, -2.583984375, 0.058593750, 0.562500000, -0.302734375, -5.867187500, -1.087890625, 1.042968750, 0.185546875, 2.472656250, 0.646484375, -0.464843750, -1.068359375, -0.482421875, -0.005859375, 0.138671875, 0.373046875, 1.390625000, -1.228515625, -3.021484375, 2.433593750, -0.462890625, -0.583984375, 0.304687500, -0.851562500, 1.849609375, -2.425781250, -5.806640625, -1.550781250, -1.697265625, 0.064453125, 0.884765625, 0.287109375, -4.595703125, -0.179687500, 1.031250000, -2.566406250, 1.675781250, -0.119140625, -1.021484375, -0.994140625, -0.759765625, 0.265625000, 0.091796875, 0.494140625, 0.939453125, 0.308593750, 0.773437500, 2.107421875, 0.123046875, -0.455078125, 0.412109375, -0.871093750, 0.289062500, -2.160156250, -5.988281250, -0.261718750, -1.648437500, -0.093750000, 0.152343750, 0.093750000, -4.218750000, -0.503906250, 0.474609375, 1.867187500, 1.765625000, 0.130859375, 0.863281250, -0.816406250, -0.576171875, 0.218750000, 0.406250000, 0.568359375, 1.273437500, -0.974609375, -4.322265625, 1.791015625, -0.740234375, 0.505859375, 0.560546875, -0.943359375, 0.462890625, -1.746093750, -3.445312500, -1.800781250, -1.867187500, -0.035156250, 0.533203125, 0.156250000, -0.195312500, -0.228515625, 0.917968750, 1.689453125, 1.783203125, 0.056640625, 0.216796875, -1.394531250, -0.648437500, 0.232421875, 0.449218750, 0.894531250, 1.070312500, 0.751953125, -2.246093750, 1.792968750, -0.470703125, 0.916015625, 0.500000000, -0.775390625, -1.248046875, -1.718750000, -2.878906250, -2.078125000, -0.640625000, 0.197265625, 0.884765625, 0.109375000, 1.039062500, 0.728515625, -0.537109375, 2.091796875, 1.832031250, -0.093750000, -1.492187500, -1.550781250, -0.892578125, 0.283203125, 0.001953125, 1.486328125, -0.060546875, -0.076171875, 0.154296875, 1.896484375, -0.779296875, 1.541015625, 0.330078125, 0.125000000, -2.630859375, -1.681640625, -1.593750000, -2.794921875, -0.919921875, 0.253906250, 1.162109375, -0.376953125, 0.162109375, 1.710937500, 0.935546875, 1.392578125, 2.146484375, 0.199218750, 0.654296875, -1.707031250, 0.027343750, 0.121093750, 1.332031250, 2.132812500, 0.523437500, 0.072265625, 1.832031250, 2.716796875, -0.781250000, 1.712890625, 0.416015625, 0.457031250, -1.425781250, -2.083984375, -1.093750000, -3.203125000, -0.087890625, -1.919921875, 2.802734375, -0.580078125, 1.478515625, 1.791015625, 0.207031250, 1.642578125, 2.943359375, 0.378906250, -0.708984375, -2.306640625, -3.326171875, -0.316406250, 1.222656250, 2.468750000, -0.171875000, 2.255859375, -0.117187500, 3.164062500, 0.775390625, 2.193359375, 0.882812500, 3.005859375, 0.326171875, -2.269531250, -1.119140625, -0.771484375, -0.050781250, -1.490234375, -8.273437500, 6.230468750, 7.382812500, 3.906250000, -4.115234375, 6.082031250, 0.371093750, 1.904296875, 2.523437500, -3.646484375, -0.781250000, -1.488281250, -1.240234375, -3.830078125, -1.048828125, -4.062500000, 6.400390625, -1.150390625, 8.462890625, 2.433593750, -3.265625000, 0.509765625, 10.257812500, 0.205078125, 1.558593750, -0.037109375, 0.035156250, 0.232421875, 0.166015625, 0.050781250, 0.068359375, -0.046875000, -0.089843750, -0.197265625, 0.042968750, -0.142578125, 0.097656250, 0.001953125, -0.056640625, -0.177734375, -0.048828125, -0.017578125, -0.033203125, 0.263671875, -0.175781250, 0.076171875, 0.000000000, -0.136718750, -0.142578125, 0.150390625, -0.160156250, -0.181640625, 0.107421875, -0.123046875, -0.148437500, -0.197265625, 2.587890625, -2.025390625, -0.072265625, 0.068359375, -0.017578125, -1.132812500, 0.763671875, -3.332031250, -0.039062500, -4.330078125, 1.880859375, 0.208984375, 0.218750000, -1.517578125, 1.419921875, -0.074218750, 4.410156250, 1.847656250, -2.033203125, -0.308593750, -0.013671875, 3.019531250, 0.654296875, -0.138671875, 0.060546875, -1.320312500, -2.242187500, 0.197265625, 1.941406250, -0.927734375, -5.677734375, -0.376953125, 1.919921875, 2.683593750, 3.507812500, -0.695312500, -2.404296875, -2.886718750, -0.808593750, 0.417968750, 0.654296875, 2.037109375, 0.425781250, 0.566406250, 1.550781250, 3.281250000, 0.158203125, 0.875000000, -0.060546875, -0.798828125, -0.414062500, -0.650390625, -7.767578125, -2.119140625, -2.210937500, 0.156250000, 0.654296875, 0.132812500, -5.093750000, -0.062500000, 0.744140625, -2.603515625, 1.943359375, 0.125000000, 0.255859375, 0.027343750, -0.787109375, 0.070312500, 1.015625000, 1.275390625, 1.425781250, 0.093750000, -2.857421875, 2.976562500, 0.767578125, -0.394531250, 0.326171875, -1.369140625, 0.662109375, -2.373046875, -5.380859375, -1.328125000, -1.810546875, 0.138671875, -0.087890625, 0.226562500, -4.976562500, -1.980468750, -0.535156250, 1.552734375, 1.607421875, 0.064453125, 0.333984375, 0.060546875, -0.654296875, 0.273437500, 0.777343750, -1.707031250, 1.167968750, -0.355468750, -3.734375000, 1.910156250, 0.056640625, 0.013671875, 0.189453125, -1.757812500, -0.050781250, -1.666015625, -1.837890625, -0.796875000, -1.261718750, -0.011718750, 0.148437500, 0.210937500, -3.214843750, -1.685546875, -0.779296875, 1.162109375, 1.058593750, 0.035156250, -1.015625000, -0.236328125, -0.726562500, 0.119140625, 0.314453125, -1.912109375, 0.900390625, -1.380859375, -3.027343750, 1.310546875, -0.257812500, -0.171875000, 0.458984375, -1.296875000, 0.197265625, -1.226562500, -2.199218750, -0.777343750, -1.013671875, 0.046875000, 0.376953125, 0.027343750, -2.976562500, -1.388671875, -1.585937500, 0.943359375, 0.759765625, 0.070312500, -4.068359375, -0.574218750, -0.845703125, 0.216796875, -0.400390625, -1.066406250, 0.542968750, -1.246093750, -0.404296875, 0.869140625, -0.347656250, -0.046875000, 0.472656250, -0.523437500, 0.548828125, -1.263671875, -0.412109375, -0.582031250, -1.031250000, 0.025390625, 0.349609375, -0.109375000, -0.117187500, -1.402343750, -1.650390625, 0.896484375, 0.802734375, 0.257812500, -2.765625000, -1.017578125, -0.494140625, 0.230468750, 0.023437500, -0.199218750, 0.316406250, -1.052734375, -3.673828125, 0.777343750, -0.126953125, 0.466796875, 0.451171875, 0.001953125, -1.187500000, -1.136718750, -0.253906250, -0.867187500, -1.261718750, -0.025390625, 0.197265625, -0.177734375, 0.144531250, -1.550781250, -1.503906250, 1.236328125, 1.150390625, -0.158203125, -3.687500000, -1.035156250, -0.785156250, 0.246093750, 0.550781250, 0.583984375, 0.619140625, -0.738281250, -3.859375000, 1.171875000, 0.041015625, 1.031250000, 0.474609375, 0.244140625, -2.865234375, -1.103515625, 0.417968750, -1.429687500, -1.689453125, 0.007812500, -0.419921875, -0.367187500, -0.156250000, -2.025390625, -1.332031250, 1.675781250, 1.685546875, -0.361328125, -1.449218750, -1.250000000, -1.173828125, 0.296875000, 0.244140625, 1.093750000, 0.367187500, 0.238281250, -1.562500000, 1.371093750, -0.371093750, 0.738281250, 0.353515625, 0.302734375, -3.937500000, -1.550781250, 0.353515625, -2.449218750, -0.705078125, -0.488281250, 0.371093750, -0.615234375, 0.667968750, -0.044921875, 0.332031250, -1.630859375, 1.884765625, 0.500000000, 0.431640625, -1.691406250, -0.947265625, 0.019531250, 1.394531250, 0.816406250, 1.175781250, -1.001953125, 0.492187500, 2.640625000, -0.437500000, 1.230468750, 0.312500000, 0.904296875, 1.173828125, -2.101562500, 0.042968750, -1.472656250, 0.169921875, -0.816406250, 1.843750000, -1.601562500, 2.609375000, 0.429687500, 0.632812500, 1.675781250, 2.951171875, -1.181640625, 2.060546875, -1.376953125, -1.810546875, -0.046875000, 0.886718750, 0.289062500, 0.992187500, -0.451171875, 0.474609375, 2.830078125, 0.384765625, 1.550781250, 0.515625000, 1.257812500, 2.113281250, 0.810546875, -1.115234375, -0.150390625, 0.097656250, 0.132812500, 0.570312500, 3.585937500, -1.580078125, 0.023437500, -0.197265625, 1.740234375, -2.107421875, 1.232421875, -0.115234375, 0.054687500, -4.740234375, 0.599609375, 3.615234375, 1.751953125, -1.912109375, -0.070312500, -0.117187500, -2.183593750, 1.759765625, -3.345703125, -0.753906250, 0.054687500, 0.722656250, 0.033203125, 1.068359375, -0.482421875, 0.099609375, 3.970703125, 5.015625000, 0.070312500, -0.408203125, 0.150390625, -2.419921875, -2.164062500, 1.494140625, 2.968750000, 0.039062500, -0.470703125, 2.351562500, 3.599609375, 1.037109375, 7.253906250, -0.099609375, -0.417968750, 0.763671875, 1.880859375, -3.439453125, -0.064453125, -2.156250000, 0.701171875, -2.751953125, 0.125000000, -5.199218750, -3.724609375, -2.130859375, 0.316406250, -0.714843750, 1.357421875, -4.539062500, 0.236328125, 1.505859375, 1.388671875, 2.662109375, -0.111328125, -1.144531250, 0.816406250, -0.917968750, 0.287109375, 0.636718750, 2.037109375, 1.978515625, -0.203125000, 1.070312500, 2.902343750, 1.605468750, -1.203125000, 0.033203125, -2.257812500, -0.646484375, -2.738281250, -5.654296875, -2.154296875, -1.984375000, 0.341796875, 0.896484375, 0.689453125, -4.406250000, 0.125000000, 1.291015625, 0.166015625, 1.759765625, 0.904296875, -3.013671875, 0.134765625, -0.404296875, 0.107421875, 0.648437500, 0.298828125, 1.437500000, -0.283203125, 0.392578125, 2.304687500, 0.251953125, -0.392578125, 0.166015625, -1.916015625, 1.443359375, -1.439453125, -3.917968750, -0.898437500, -1.132812500, 0.076171875, 0.427734375, -0.390625000, -6.171875000, -2.013671875, -1.802734375, 1.250000000, 1.060546875, 0.011718750, -2.804687500, 0.083984375, -0.550781250, 0.226562500, 0.439453125, -1.427734375, 0.937500000, -0.566406250, 0.126953125, 1.197265625, 1.187500000, -0.361328125, 0.234375000, -0.810546875, -1.269531250, -1.160156250, -2.099609375, -0.289062500, -0.648437500, 0.009765625, -0.076171875, -0.136718750, 0.001953125, -0.970703125, -0.816406250, 0.677734375, 0.556640625, 0.054687500, -3.501953125, 0.365234375, -0.693359375, 0.250000000, 0.767578125, -0.595703125, 0.617187500, -1.751953125, -0.398437500, 0.792968750, 0.722656250, 0.000000000, 0.376953125, -0.527343750, -0.791015625, -0.703125000, -0.541015625, -0.130859375, -0.533203125, 0.183593750, -0.039062500, -0.009765625, -0.015625000, -0.281250000, -0.746093750, 0.212890625, 0.435546875, -0.101562500, -0.359375000, 0.214843750, -0.419921875, 0.322265625, 0.091796875, 0.710937500, 0.322265625, -2.468750000, 0.167968750, 0.416015625, 0.353515625, -0.162109375, 0.416015625, -0.179687500, 0.207031250, -0.474609375, 0.144531250, 0.005859375, -0.566406250, 0.175781250, 1.144531250, 0.007812500, 0.078125000, -0.287109375, -0.900390625, 0.173828125, 0.466796875, -0.023437500, -0.275390625, -0.443359375, -0.175781250, 0.328125000, -0.273437500, -0.169921875, -0.087890625, -2.443359375, 0.089843750, 0.451171875, 0.726562500, -0.248046875, 0.423828125, -0.037109375, -0.398437500, -0.488281250, 0.115234375, -0.505859375, -0.904296875, 0.097656250, 0.361328125, -0.015625000, 0.064453125, -0.968750000, -1.269531250, 0.625000000, 0.576171875, -0.150390625, 0.011718750, -0.792968750, -0.171875000, 0.253906250, 0.107421875, 0.183593750, 0.519531250, -1.562500000, -4.412109375, 0.492187500, 0.269531250, 0.068359375, 0.445312500, 0.257812500, -0.011718750, -0.843750000, 0.177734375, -1.208984375, -1.347656250, 0.044921875, 0.681640625, -0.070312500, 0.253906250, -1.732421875, -1.919921875, 1.091796875, 1.025390625, 0.289062500, 0.242187500, -0.925781250, -0.505859375, 0.248046875, 0.910156250, 0.560546875, 0.822265625, -0.921875000, -5.185546875, 1.203125000, 0.628906250, 0.355468750, 0.345703125, 1.154296875, -5.316406250, -1.353515625, 0.734375000, -2.287109375, -1.757812500, -0.359375000, -0.179687500, 0.464843750, -0.482421875, -2.095703125, -0.599609375, 2.181640625, 1.943359375, -0.324218750, -0.396484375, -1.236328125, -0.220703125, 0.117187500, 1.519531250, 1.447265625, 1.285156250, 0.244140625, -5.763671875, 1.726562500, 0.259765625, 1.205078125, 0.244140625, 1.033203125, -1.074218750, -1.349609375, 1.609375000, -2.515625000, -0.437500000, -0.917968750, 1.244140625, -1.792968750, 0.035156250, 0.292968750, 0.427734375, 2.910156250, 3.050781250, 1.132812500, 0.501953125, -2.931640625, -1.861328125, -0.130859375, 1.310546875, 0.064453125, -0.255859375, 0.994140625, -3.085937500, 2.783203125, -0.800781250, 1.830078125, 0.457031250, 1.054687500, 0.888671875, -1.859375000, 1.324218750, -0.787109375, 0.003906250, -0.074218750, 5.593750000, -3.326171875, -4.199218750, -0.082031250, 0.005859375, -2.564453125, 1.554687500, -3.699218750, -0.216796875, 2.322265625, 3.843750000, 2.238281250, 1.882812500, -1.798828125, 2.710937500, 0.048828125, -0.808593750, 1.597656250, -3.494140625, -5.583984375, -0.195312500, -0.431640625, 0.431640625, -0.119140625, 3.589843750, -0.707031250, 0.021484375, -0.361328125, 3.783203125, 0.625000000, -0.753906250, 2.738281250, -4.376953125, -1.521484375, 1.138671875, 3.361328125, 0.281250000, 1.490234375, -1.863281250, -0.826171875, 1.818359375, 2.263671875, -0.390625000, 0.968750000, -5.316406250, 1.160156250, -1.605468750, -3.666015625, -1.302734375, -1.501953125, 2.269531250, -0.187500000, -5.445312500, -3.103515625, -1.667968750, 0.513671875, 1.669921875, 1.492187500, -4.464843750, 1.162109375, 0.558593750, -0.990234375, 2.068359375, -1.500000000, 0.962890625, -0.339843750, -0.732421875, 0.347656250, -0.134765625, 1.566406250, 1.996093750, 0.593750000, 1.449218750, 2.935546875, 0.806640625, 0.339843750, 0.222656250, -1.761718750, -0.080078125, -2.570312500, -4.177734375, -0.601562500, -1.673828125, 0.570312500, 0.728515625, -0.064453125, -8.220703125, -1.689453125, -1.216796875, 1.468750000, 1.562500000, 0.050781250, -3.943359375, 0.160156250, -0.523437500, 0.197265625, 1.132812500, -0.162109375, 1.265625000, 0.345703125, -1.205078125, 1.638671875, 1.205078125, -1.337890625, 0.107421875, -1.007812500, -0.933593750, -1.353515625, -1.849609375, -0.722656250, -0.912109375, 0.203125000, 0.208984375, 0.070312500, -5.021484375, -1.298828125, -1.417968750, 0.939453125, 0.808593750, 0.011718750, -3.330078125, 0.169921875, -0.433593750, 0.261718750, 0.230468750, -0.693359375, 0.679687500, -0.677734375, 0.482421875, 0.849609375, 0.599609375, -0.822265625, 0.273437500, -1.023437500, -1.371093750, -0.986328125, -0.380859375, 0.023437500, -0.550781250, 0.228515625, -0.035156250, -0.037109375, 0.078125000, -0.226562500, -0.792968750, 0.341796875, 0.416015625, 0.085937500, -0.542968750, 0.291015625, -0.494140625, 0.314453125, 0.019531250, 0.779296875, 0.275390625, -1.675781250, 0.298828125, 0.248046875, 0.281250000, -0.263671875, 0.320312500, -0.166015625, -0.738281250, -0.400390625, -0.072265625, 0.232421875, -0.072265625, 0.328125000, 0.033203125, 0.583984375, 0.015625000, 0.154296875, 0.029296875, -0.060546875, -0.031250000, -0.263671875, 0.105468750, 0.294921875, -0.130859375, 0.349609375, 0.160156250, 0.210937500, -0.062500000, 0.021484375, 0.080078125, -0.041015625, -0.349609375, -0.029296875, 0.371093750, 0.134765625, -0.009765625, -0.162109375, 0.119140625, 0.238281250, -0.054687500, 0.314453125, 0.117187500, -0.031250000, 0.027343750, 0.181640625, 0.099609375, -0.101562500, -0.031250000, 0.570312500, 0.148437500, 0.095703125, 0.130859375, 0.345703125, 0.240234375, 0.078125000, 0.017578125, 0.021484375, 0.072265625, 0.041015625, -0.123046875, -0.162109375, 0.378906250, 0.058593750, 0.111328125, -0.128906250, 0.070312500, -0.150390625, -0.519531250, 0.285156250, 0.773437500, -0.201171875, 0.220703125, -0.251953125, -0.451171875, 0.224609375, 0.419921875, -0.548828125, 0.085937500, -0.486328125, -0.140625000, 0.318359375, -0.292968750, -0.261718750, 0.242187500, -1.914062500, 0.164062500, 0.492187500, 0.865234375, -0.304687500, 0.369140625, 0.019531250, 0.117187500, -0.261718750, 0.025390625, -0.531250000, -1.062500000, 0.107421875, 0.193359375, 0.273437500, 0.470703125, -1.654296875, -1.960937500, 0.919921875, 0.765625000, -0.240234375, -1.625000000, -0.695312500, -0.265625000, 0.255859375, 0.257812500, -0.109375000, 0.656250000, -1.908203125, -6.423828125, 0.820312500, 0.189453125, -0.921875000, 0.296875000, 0.396484375, 0.113281250, -1.068359375, 0.441406250, -1.250000000, -1.894531250, -0.042968750, -0.578125000, -0.542968750, 0.199218750, -2.306640625, -0.005859375, 1.412109375, 1.544921875, 1.447265625, -2.960937500, -1.343750000, -0.783203125, 0.173828125, 1.011718750, -0.205078125, 1.263671875, 0.085937500, -7.109375000, 1.697265625, -0.728515625, -0.845703125, 0.171875000, 1.121093750, 0.945312500, -1.292968750, 1.132812500, -2.255859375, -0.607421875, -0.632812500, 2.218750000, 1.187500000, 1.517578125, 0.851562500, -0.128906250, -0.910156250, 2.191406250, -0.759765625, -1.402343750, -0.480468750, -2.203125000, 0.175781250, 1.718750000, 1.861328125, 1.390625000, 1.115234375, -5.001953125, 3.119140625, 1.009765625, 0.244140625, 0.300781250, 1.287109375, 0.605468750, -1.085937500, 1.705078125, -1.220703125, -0.007812500, -3.382812500, -5.472656250, 0.382812500, 4.640625000, 4.724609375, -4.207031250, 1.253906250, 1.697265625, -0.169921875, 3.691406250, 0.832031250, -5.070312500, 3.904296875, -2.197265625, -5.117187500, -0.376953125, -1.539062500, -1.179687500, 1.103515625, 1.222656250, -6.982421875, -2.761718750, 2.716796875, -4.945312500, 0.166015625, 4.341796875, -0.312500000, 0.117187500, 0.132812500, -6.285156250, 0.718750000, 0.816406250, -0.183593750, 0.083984375, 0.824218750, 1.976562500, 4.896484375, -0.226562500, 0.417968750, 1.099609375, -1.275390625, -3.912109375, -3.402343750, -0.685546875, -0.248046875, 0.587890625, 0.314453125, 1.863281250, -0.232421875, -1.400390625, -0.125000000, -0.351562500, 0.027343750, 2.404296875, -2.226562500, -1.328125000, 0.697265625, 1.230468750, 0.767578125, -2.816406250, 1.320312500, 0.587890625, 0.597656250, 2.140625000, -0.232421875, 0.013671875, -0.177734375, 0.718750000, 0.259765625, 0.955078125, 2.572265625, 1.835937500, 0.937500000, 1.560546875, 3.056640625, 0.765625000, -2.433593750, 0.099609375, -0.761718750, 2.007812500, -1.882812500, -8.507812500, -1.212890625, -1.927734375, 0.263671875, -0.093750000, 0.341796875, -8.419921875, -1.000000000, 0.099609375, 1.820312500, 1.628906250, -0.265625000, -0.140625000, 0.015625000, -0.554687500, 0.160156250, 0.179687500, 0.748046875, 1.195312500, 0.753906250, 0.658203125, 1.314453125, 1.025390625, -2.939453125, 0.207031250, -1.281250000, -2.703125000, -0.839843750, -2.689453125, -0.644531250, -0.884765625, 0.398437500, -0.988281250, 0.220703125, -3.763671875, -1.417968750, -1.326171875, 1.007812500, 0.636718750, 0.310546875, -2.441406250, 0.150390625, -0.152343750, 0.242187500, 0.441406250, 0.046875000, 0.650390625, -1.457031250, 0.332031250, 0.646484375, -0.568359375, -1.410156250, 0.177734375, -0.953125000, -0.121093750, -1.083984375, -0.003906250, 0.027343750, -0.371093750, 0.339843750, 0.781250000, 0.173828125, 0.074218750, -0.273437500, -0.578125000, 0.365234375, 0.410156250, 0.324218750, -0.232421875, 0.144531250, -0.472656250, 0.326171875, -0.031250000, -0.259765625, 0.169921875, -1.396484375, 0.320312500, 0.371093750, 0.671875000, -0.234375000, 0.267578125, 0.029296875, 0.025390625, -0.173828125, 0.101562500, 0.345703125, -0.013671875, 0.402343750, 0.244140625, 0.119140625, 0.027343750, 0.158203125, 0.265625000, -0.042968750, -0.044921875, -0.050781250, 0.064453125, 0.091796875, -0.203125000, 0.339843750, 0.105468750, -0.113281250, 0.011718750, 0.082031250, 0.095703125, -0.001953125, 0.458984375, -0.150390625, 0.287109375, 0.312500000, 0.111328125, 0.035156250, 0.080078125, 0.324218750, -0.041015625, 0.425781250, -0.138671875, 0.445312500, 0.046875000, 0.189453125, 0.222656250, -0.046875000, -0.048828125, -0.042968750, -0.353515625, 0.169921875, -0.029296875, 0.339843750, 0.119140625, 0.320312500, 0.023437500, 0.017578125, 0.130859375, -0.039062500, -0.218750000, 0.013671875, 0.296875000, -0.048828125, 0.005859375, 0.017578125, 0.140625000, -0.013671875, -0.488281250, 0.470703125, -0.353515625, 0.097656250, 0.357421875, -0.250000000, 0.027343750, 0.294921875, 0.363281250, -1.070312500, -0.146484375, 0.039062500, -0.437500000, 0.318359375, 0.197265625, 0.343750000, 0.039062500, -2.205078125, 0.177734375, 0.451171875, 0.099609375, -0.341796875, 0.289062500, -0.466796875, 0.447265625, -0.095703125, -0.044921875, -0.636718750, -0.882812500, 0.300781250, -0.511718750, 0.304687500, 0.394531250, -1.439453125, -0.457031250, 1.068359375, 0.673828125, -0.027343750, -0.320312500, -0.791015625, -0.486328125, 0.250000000, 0.273437500, -0.869140625, 0.660156250, -1.195312500, -3.300781250, 0.925781250, -0.150390625, -2.111328125, 0.230468750, 0.193359375, 0.896484375, -0.451171875, 0.875000000, -0.898437500, -1.273437500, 0.080078125, -0.494140625, 0.535156250, -0.132812500, -2.126953125, -0.222656250, 1.875000000, 1.566406250, -0.240234375, -1.996093750, -0.902343750, -1.109375000, 0.210937500, 1.542968750, 0.281250000, 1.117187500, 1.244140625, -2.589843750, 1.863281250, 0.511718750, -3.095703125, 0.328125000, 0.626953125, 0.546875000, -0.597656250, 1.560546875, -1.792968750, -0.337890625, -2.669921875, -0.273437500, 0.308593750, 1.285156250, 1.664062500, 1.251953125, 2.630859375, 2.365234375, -0.634765625, -0.113281250, -0.630859375, -2.701171875, -0.154296875, 1.871093750, 1.777343750, 1.445312500, 0.285156250, -5.339843750, 2.939453125, 1.412109375, -1.169921875, 0.527343750, 0.068359375, 0.927734375, -2.439453125, 2.316406250, -0.951171875, 0.205078125, -1.193359375, -3.828125000, 7.371093750, 0.451171875, 0.833984375, -2.667968750, 6.109375000, -2.771484375, 5.542968750, 0.417968750, -5.908203125, -4.730468750, -1.285156250, 8.220703125, 4.484375000, -4.527343750, -0.851562500, 4.798828125, -6.609375000, 7.126953125, -2.546875000, -3.011718750, -4.531250000, 1.871093750, 0.160156250, -0.937500000, 0.023437500, -0.173828125, -0.025390625, -3.746093750, 0.765625000, -0.078125000, 0.060546875, 0.029296875, 4.048828125, -2.626953125, 2.150390625, 0.156250000, -0.699218750, 0.080078125, -0.316406250, 4.367187500, 4.285156250, -0.533203125, -0.283203125, -0.058593750, -4.123046875, 3.828125000, -3.441406250, 0.050781250, -4.330078125, 0.861328125, 0.062500000, -0.820312500, -2.460937500, -1.679687500, 0.521484375, 0.279296875, 1.542968750, -5.476562500, -0.943359375, 0.751953125, 2.796875000, 2.451171875, -2.945312500, 0.414062500, -2.033203125, 0.791015625, 0.078125000, 1.533203125, 0.826171875, 1.287109375, 0.337890625, 1.357421875, 2.271484375, -0.265625000, 1.390625000, 0.064453125, -1.970703125, -0.666015625, -1.150390625, -7.634765625, -0.775390625, -2.072265625, 0.509765625, -0.095703125, 1.238281250, -6.849609375, -2.175781250, 0.175781250, 0.648437500, 1.648437500, -0.744140625, -0.433593750, -0.818359375, -0.390625000, 0.144531250, 0.277343750, -0.724609375, 1.074218750, -0.175781250, -1.753906250, 1.226562500, 0.117187500, -5.046875000, 0.246093750, -1.353515625, 0.181640625, -1.201171875, -2.931640625, -0.507812500, -1.076171875, 0.505859375, -0.380859375, 1.363281250, -5.611328125, -1.642578125, -0.587890625, 1.527343750, 0.859375000, -0.781250000, -2.775390625, -0.199218750, 0.070312500, 0.201171875, 0.513671875, -0.775390625, 0.857421875, -0.134765625, 0.589843750, 0.755859375, -0.882812500, -3.275390625, 0.167968750, -1.552734375, -0.476562500, -0.619140625, -0.195312500, -0.041015625, -0.718750000, 0.394531250, 0.058593750, 0.326171875, -0.074218750, -0.986328125, -0.755859375, 0.634765625, 0.523437500, 0.296875000, -2.146484375, -0.482421875, -0.035156250, 0.236328125, 0.033203125, -0.304687500, 0.281250000, -0.898437500, -0.322265625, 0.513671875, 0.113281250, -2.994140625, 0.205078125, -0.507812500, 0.345703125, -0.332031250, 0.423828125, 0.062500000, -0.388671875, 0.515625000, 0.503906250, 0.023437500, 0.099609375, -0.214843750, 0.027343750, 0.541015625, 0.412109375, -0.617187500, 0.087890625, -0.083984375, -0.677734375, 0.326171875, -0.291015625, -0.441406250, -0.314453125, -1.958984375, 0.263671875, 0.396484375, 0.775390625, -0.457031250, 0.185546875, -0.304687500, 0.318359375, 0.041015625, 0.298828125, 0.089843750, -0.458984375, 0.425781250, -0.357421875, -0.123046875, 0.210937500, -0.189453125, -0.023437500, 0.427734375, 0.347656250, 0.056640625, 0.056640625, -0.082031250, -0.501953125, 0.318359375, -0.099609375, 0.748046875, 0.011718750, -3.037109375, 0.347656250, 0.250000000, 0.533203125, -0.126953125, 0.271484375, -0.347656250, -0.908203125, 0.031250000, 0.177734375, -0.205078125, -0.658203125, 0.386718750, -0.515625000, 0.232421875, 0.193359375, -0.902343750, -0.439453125, 0.822265625, 0.527343750, 0.031250000, -0.826171875, 0.046875000, -0.412109375, 0.240234375, 0.285156250, -0.292968750, 0.230468750, -2.201171875, 0.232421875, 0.669921875, 0.365234375, -2.283203125, 0.187500000, -0.675781250, 0.386718750, -0.250000000, 0.205078125, -1.318359375, -0.955078125, 0.234375000, -1.664062500, 0.814453125, -0.322265625, -1.730468750, 0.255859375, 1.160156250, 0.935546875, 0.121093750, 0.013671875, 0.433593750, -0.656250000, 0.156250000, 1.404296875, -0.791015625, 0.621093750, -0.486328125, 0.052734375, 1.289062500, 0.347656250, -5.859375000, 0.240234375, 0.312500000, 1.519531250, -0.472656250, 1.068359375, -1.023437500, -1.570312500, -1.271484375, -2.843750000, -0.035156250, 0.169921875, -2.820312500, 0.666015625, 2.140625000, 1.544921875, 1.005859375, -0.974609375, -0.511718750, -1.402343750, -0.056640625, 1.892578125, -1.091796875, 1.054687500, -0.423828125, -0.869140625, 1.873046875, -0.138671875, -3.439453125, 0.123046875, 0.554687500, 0.839843750, -1.046875000, 1.757812500, -2.806640625, 0.007812500, -0.740234375, -1.835937500, -0.798828125, 2.701171875, 0.660156250, 1.695312500, 2.671875000, 2.800781250, 2.460937500, -1.535156250, -0.509765625, -1.761718750, -0.017578125, 3.449218750, 0.859375000, -0.097656250, -0.007812500, -5.623046875, 3.601562500, -0.021484375, 1.541015625, 0.068359375, 0.068359375, 0.791015625, -0.724609375, 2.398437500, 0.728515625, -0.064453125, -0.001953125, -2.583984375, -3.685546875, -0.011718750, -0.179687500, 0.677734375, -2.587890625, 2.718750000, -3.515625000, -0.691406250, 3.775390625, 0.353515625, 0.746093750, -4.621093750, -0.099609375, 0.166015625, 0.044921875, -0.406250000, 2.705078125, -1.062500000, 0.031250000, 1.257812500, 0.166015625, -1.058593750, -0.111328125, -0.132812500, -0.072265625, 0.066406250, -0.087890625, -0.195312500, 3.771484375, 0.488281250, -0.023437500, 0.054687500, 3.144531250, -2.164062500, 4.056640625, -0.078125000, -0.480468750, -0.123046875, -0.408203125, 4.042968750, 3.673828125, -3.955078125, -0.093750000, 0.244140625, -3.332031250, 3.541015625, 0.203125000, -1.871093750, -3.550781250, -0.078125000, 0.072265625, -2.904296875, 0.574218750, -2.681640625, 0.968750000, 0.996093750, 0.212890625, -6.490234375, 0.558593750, 2.179687500, 2.498046875, 3.455078125, -3.154296875, 0.658203125, -0.923828125, -0.703125000, 0.121093750, 1.978515625, 1.314453125, 2.869140625, 0.697265625, -3.701171875, 4.537109375, 1.939453125, -7.199218750, -0.201171875, -1.316406250, 0.951171875, -1.759765625, -1.048828125, -1.617187500, -1.984375000, 0.015625000, -0.871093750, 1.525390625, -6.224609375, -2.115234375, 0.042968750, -0.935546875, 2.021484375, -1.232421875, -2.011718750, -0.710937500, 0.056640625, 0.058593750, -0.392578125, 0.412109375, 0.732421875, 0.738281250, -2.628906250, 1.732421875, 1.748046875, -0.281250000, 0.109375000, -2.892578125, -0.203125000, -1.298828125, 0.134765625, -1.142578125, -1.443359375, 0.583984375, -0.728515625, 0.417968750, -4.597656250, -2.453125000, -0.007812500, 2.029296875, 1.654296875, -0.503906250, -1.064453125, -0.736328125, 0.349609375, 0.183593750, 1.517578125, -0.718750000, 0.658203125, 0.343750000, 0.310546875, 1.501953125, 0.214843750, -4.523437500, 0.123046875, -1.556640625, -0.283203125, -0.314453125, 1.121093750, -0.492187500, -1.072265625, 0.320312500, -0.636718750, 0.533203125, -5.035156250, -1.755859375, -1.408203125, 1.531250000, 0.933593750, 0.107421875, -1.216796875, -0.250000000, 0.134765625, 0.226562500, 0.369140625, 0.242187500, -0.740234375, -1.503906250, 0.287109375, 0.625000000, -0.250000000, -2.972656250, 0.107421875, -1.712890625, -0.660156250, -0.605468750, 0.798828125, -0.472656250, -0.896484375, 0.455078125, 0.117187500, 0.507812500, -3.714843750, -1.400390625, -0.791015625, 1.085937500, 0.607421875, 0.039062500, -0.083984375, -0.759765625, -0.117187500, 0.210937500, -0.052734375, -1.332031250, -1.935546875, -1.458984375, -0.394531250, 0.683593750, 0.160156250, -0.861328125, 0.119140625, -1.265625000, -0.054687500, -0.398437500, 0.570312500, -0.490234375, -0.736328125, 0.410156250, -0.707031250, -0.013671875, -2.757812500, -1.341796875, -1.310546875, 0.992187500, 0.677734375, -0.017578125, 0.166015625, -0.451171875, -0.033203125, 0.244140625, 0.468750000, -0.074218750, -0.021484375, -1.875000000, -0.541015625, 0.988281250, -0.015625000, -0.933593750, 0.125000000, -1.261718750, -2.486328125, -0.812500000, 0.898437500, -0.453125000, -1.025390625, 0.410156250, -1.453125000, -0.009765625, -2.410156250, -1.603515625, -0.486328125, 1.304687500, 1.005859375, 1.007812500, -0.695312500, -0.050781250, -0.859375000, 0.232421875, 0.513671875, 0.255859375, 0.500000000, -0.750000000, 0.515625000, 1.199218750, -0.033203125, -2.533203125, 0.144531250, -0.267578125, 0.535156250, -0.367187500, 0.888671875, -0.722656250, -1.417968750, -0.115234375, -1.562500000, 0.835937500, -3.212890625, -2.609375000, -0.369140625, 1.808593750, 1.441406250, -2.869140625, -1.193359375, 0.486328125, -0.894531250, 0.115234375, 1.494140625, 0.332031250, 0.335937500, -0.781250000, -0.335937500, 1.687500000, 2.164062500, -2.851562500, 0.074218750, -0.359375000, -0.199218750, -0.455078125, 2.009765625, -1.455078125, -2.349609375, -2.542968750, 0.765625000, 1.253906250, 0.056640625, -1.541015625, 2.349609375, 2.667968750, 2.716796875, -0.439453125, -1.138671875, -0.730468750, -1.720703125, -0.267578125, 2.052734375, 1.097656250, -4.519531250, -0.261718750, -0.164062500, 2.164062500, -0.105468750, -0.964843750, -0.042968750, 0.425781250, 0.312500000, -1.457031250, 2.839843750, -2.347656250, -0.367187500, -0.708984375, 3.136718750, -0.605468750, -2.767578125, -0.224609375, 1.220703125, 1.761718750, 1.982421875, 0.371093750, -2.236328125, 0.351562500, -2.992187500, -0.359375000, 2.181640625, 0.708984375, -8.863281250, 1.880859375, 0.285156250, 2.197265625, 1.494140625, 2.271484375, -0.248046875, -2.410156250, 0.800781250, -0.011718750, 1.175781250, -0.128906250, 0.166015625, -1.216796875, 0.900390625, -2.953125000, -0.121093750, 0.152343750, -0.031250000, -2.244140625, 1.144531250, -2.890625000, -0.009765625, 0.322265625, 0.130859375, 3.349609375, 1.181640625, 0.160156250, -0.193359375, 0.146484375, -0.041015625, 2.355468750, -2.517578125, -0.197265625, 0.091796875, -0.011718750, 0.001953125, 0.158203125, -1.451171875, 0.042968750, -0.070312500, 0.042968750, 0.119140625, 0.154296875, -0.035156250, 0.068359375, -0.027343750, -0.080078125, 0.140625000, -0.109375000, -0.138671875, 0.070312500, 0.044921875, 0.152343750, 0.103515625, 0.070312500, 0.111328125, 0.191406250, -0.244140625, 0.103515625, -0.115234375, -0.085937500, 0.058593750, -0.210937500, 0.181640625, 0.076171875, -0.232421875, -0.462890625, 0.148437500, -1.275390625, -0.515625000, 5.308593750, -0.041015625, -0.052734375, 0.078125000, 4.593750000, -3.904296875, 0.886718750, -0.003906250, -0.089843750, 0.078125000, -1.128906250, 6.103515625, 3.230468750, -0.011718750, -0.150390625, 0.300781250, -4.853515625, 5.619140625, -2.390625000, -0.423828125, -3.937500000, 1.093750000, -0.041015625, -5.658203125, -2.011718750, -2.824218750, 0.105468750, 1.281250000, 1.134765625, -1.892578125, -0.435546875, 2.580078125, -1.816406250, 3.074218750, -3.712890625, -0.248046875, -1.099609375, -0.679687500, -0.271484375, 1.308593750, 1.400390625, 1.261718750, 0.650390625, 1.839843750, 2.523437500, 1.097656250, -3.402343750, 0.017578125, -1.244140625, -0.445312500, -1.175781250, -1.406250000, -1.630859375, -2.121093750, -0.154296875, 0.845703125, 0.287109375, -5.625000000, -1.005859375, 0.896484375, -0.669921875, 2.078125000, -0.093750000, -0.775390625, -0.353515625, -0.103515625, 0.023437500, 0.894531250, 1.160156250, -1.744140625, 0.224609375, 1.126953125, 2.423828125, 1.365234375, -11.123046875, -0.013671875, -0.449218750, 0.220703125, -1.169921875, 1.148437500, -0.966796875, -1.908203125, 0.044921875, -1.039062500, 0.632812500, -6.664062500, -2.541015625, 0.001953125, 2.037109375, 1.748046875, -0.658203125, -1.421875000, -0.800781250, -0.162109375, 0.138671875, 0.572265625, 0.562500000, -5.486328125, -0.548828125, -1.490234375, 1.466796875, 1.089843750, -1.244140625, 0.123046875, -1.787109375, -0.923828125, -0.816406250, 1.826171875, -0.849609375, -1.632812500, -0.064453125, -0.640625000, 0.203125000, -3.962890625, -2.300781250, -1.037109375, 2.083984375, 1.576171875, -0.076171875, -0.875000000, -0.634765625, 0.001953125, 0.117187500, 0.062500000, 0.468750000, -0.539062500, -0.152343750, -1.783203125, 1.232421875, 0.681640625, -0.273437500, 0.080078125, -1.824218750, 0.300781250, -0.445312500, 1.455078125, -0.750000000, -1.601562500, 0.136718750, 0.142578125, 0.902343750, -4.421875000, -2.623046875, -1.644531250, 2.023437500, 1.423828125, 0.486328125, -0.845703125, -0.613281250, 0.476562500, 0.099609375, 0.636718750, -0.402343750, 0.505859375, 0.105468750, -0.087890625, 1.615234375, 0.439453125, -4.240234375, 0.023437500, -1.001953125, -3.132812500, -0.605468750, 1.542968750, -0.572265625, -1.564453125, -1.230468750, -0.429687500, 0.082031250, -4.097656250, -2.880859375, -0.107421875, 2.244140625, 1.765625000, 0.453125000, -0.669921875, 0.582031250, -0.359375000, -0.123046875, 1.509765625, -0.732421875, -3.437500000, -1.781250000, -0.527343750, 1.650390625, 1.900390625, -1.158203125, -0.218750000, -0.804687500, -0.019531250, -0.585937500, 2.009765625, -0.544921875, -1.974609375, -1.179687500, 0.654296875, 0.435546875, -3.859375000, -1.916015625, -0.001953125, 2.117187500, 2.224609375, 1.056640625, -0.369140625, -0.533203125, 0.199218750, -0.123046875, 1.949218750, 0.935546875, -0.478515625, -0.458984375, 0.062500000, 2.804687500, 0.857421875, 0.318359375, 0.041015625, 0.441406250, 0.822265625, -1.044921875, 2.091796875, -1.570312500, -0.201171875, -0.236328125, 1.421875000, 0.417968750, -1.259765625, -0.412109375, 0.316406250, 2.582031250, 3.433593750, -3.945312500, 0.253906250, -1.525390625, -1.400390625, -0.050781250, 1.882812500, 1.660156250, -1.232421875, 0.619140625, 1.113281250, 3.615234375, 0.773437500, 1.015625000, 0.658203125, 0.046875000, 0.001953125, -0.230468750, 2.109375000, -0.031250000, -0.185546875, -0.125000000, 1.251953125, -4.810546875, -0.474609375, -0.222656250, 0.046875000, -4.529296875, 1.214843750, -1.636718750, -0.066406250, 4.539062500, -0.023437500, 4.806640625, -1.189453125, -0.486328125, 4.146484375, -0.089843750, -0.046875000, 3.994140625, -4.568359375, -0.216796875, 2.107421875, 0.111328125, -0.052734375, 0.021484375, 0.005859375, 0.167968750, 0.117187500, -0.150390625, -0.070312500, -0.044921875, 0.242187500, -0.074218750, -0.080078125, 0.001953125, 0.113281250, -0.054687500, -0.062500000, 0.021484375, -0.111328125, 0.162109375, -0.222656250, -0.166015625, -0.082031250, -0.089843750, -0.251953125, -0.068359375, -0.113281250, 0.250000000, -0.113281250, 0.095703125, -0.070312500, -0.126953125, 0.255859375, -0.201171875, 0.068359375, 0.093750000, 0.128906250, -0.220703125, -0.152343750, 0.021484375, -0.167968750, -0.128906250, -0.011718750, -0.005859375, 0.001953125, -0.119140625, 0.152343750, 0.050781250, 0.001953125, 0.238281250, 0.001953125, -0.171875000, 0.105468750, -0.160156250, 0.154296875, -0.060546875, -0.152343750, 0.158203125, -0.062500000, -0.138671875, -0.029296875, -0.166015625, -0.066406250, -0.080078125, -0.140625000, 0.039062500, 0.056640625, -0.087890625, 0.003906250, -0.146484375, 0.189453125, 0.037109375, 0.089843750, -0.101562500, -0.105468750, -0.234375000, -0.019531250, 0.181640625, -0.191406250, -0.130859375, -0.212890625, 0.085937500, 0.203125000, 0.041015625, -0.021484375, -0.041015625, -0.007812500, 0.054687500, -0.117187500, 2.142578125, -0.017578125, 0.351562500, -4.976562500, 5.962890625, -0.195312500, -1.349609375, 4.375000000, 3.546875000, 3.650390625, 0.273437500, -0.861328125, 1.408203125, 4.474609375, -1.060546875, -1.115234375, -3.701171875, -0.027343750, 1.642578125, -2.791015625, 3.429687500, -0.365234375, -1.035156250, 1.115234375, 4.238281250, -1.769531250, -0.048828125, -0.142578125, -0.712890625, -0.398437500, 0.730468750, 0.847656250, 1.099609375, -4.833984375, -0.380859375, 1.121093750, -3.003906250, 3.490234375, 0.496093750, 0.109375000, -1.564453125, -0.662109375, 0.312500000, 1.871093750, 2.011718750, -3.777343750, -0.109375000, -1.683593750, 4.218750000, -0.537109375, 0.015625000, -0.083984375, -1.962890625, 0.724609375, -0.394531250, 2.869140625, -2.033203125, -2.214843750, -0.083984375, -0.486328125, 1.349609375, -7.986328125, -1.582031250, 1.535156250, -2.128906250, 2.693359375, -0.294921875, 0.212890625, -1.433593750, 0.865234375, 0.041015625, 0.851562500, 0.646484375, -4.056640625, 0.007812500, -0.355468750, 3.232421875, 0.509765625, 0.998046875, 0.125000000, -2.669921875, 0.957031250, -0.261718750, 1.494140625, -2.023437500, -2.744140625, -1.478515625, 1.378906250, 1.869140625, -3.634765625, -2.240234375, 1.099609375, 0.910156250, 2.558593750, -0.683593750, -1.232421875, -0.585937500, 1.238281250, -0.115234375, 1.080078125, 1.007812500, -3.777343750, 0.156250000, 0.689453125, 2.111328125, 2.058593750, 0.748046875, -0.210937500, -2.521484375, 0.152343750, -0.712890625, 1.517578125, -1.664062500, -2.158203125, -1.548828125, 1.003906250, 1.984375000, -4.267578125, -1.238281250, 1.121093750, 2.853515625, 2.720703125, 0.605468750, -0.494140625, -0.769531250, 0.343750000, -0.082031250, 1.398437500, 0.714843750, 1.656250000, -1.109375000, 0.669921875, 2.869140625, 1.806640625, -0.886718750, 0.048828125, -1.537109375, -3.240234375, -0.953125000, 2.798828125, -1.271484375, -3.636718750, -0.654296875, 1.875000000, 1.931640625, -2.017578125, -0.654296875, 2.427734375, 0.800781250, 2.906250000, -0.408203125, 0.832031250, -0.513671875, 0.804687500, 0.132812500, 2.646484375, 3.068359375, 0.519531250, 0.931640625, -0.734375000, 3.378906250, -0.066406250, -1.011718750, 0.238281250, -0.554687500, 0.755859375, -1.380859375, 1.675781250, -1.503906250, -2.416015625, -0.337890625, 0.136718750, 1.142578125, -3.810546875, -1.962890625, 2.126953125, 3.863281250, 3.666015625, -0.519531250, -0.750000000, -0.966796875, -0.771484375, -0.429687500, 1.966796875, 1.060546875, -5.337890625, 0.330078125, -4.675781250, 2.703125000, 0.511718750, 1.130859375, -0.214843750, -0.462890625, 1.246093750, -0.531250000, 1.511718750, -0.156250000, -0.228515625, -1.042968750, -1.375000000, 4.361328125, 0.552734375, 0.039062500, -0.177734375, 3.427734375, -2.701171875, 0.269531250, -0.068359375, -0.048828125, 0.068359375, -1.009765625, 4.191406250, -0.042968750, 0.035156250, 0.160156250, 0.810546875, -3.578125000, 4.048828125, 0.000000000, 0.197265625, -0.105468750, 0.265625000, -0.068359375, -1.455078125, 0.085937500, 0.085937500, -0.126953125, -0.181640625, -0.087890625, -0.123046875, -0.207031250, -0.220703125, -0.138671875, 0.197265625, -0.007812500, -0.023437500, -0.097656250, -0.230468750, 0.082031250, -0.058593750, -0.035156250, 0.035156250, 0.207031250, -0.072265625, -0.099609375, 0.097656250, 0.142578125, 0.000000000, -0.035156250, -0.083984375, -0.152343750, -0.085937500, -0.021484375, 0.195312500, 0.210937500, -0.107421875, -0.072265625, 0.048828125, 0.074218750, 0.158203125, 0.160156250, -0.031250000, -0.068359375, -0.089843750, 0.011718750, -0.107421875, 0.259765625, 0.146484375, 0.216796875, -0.054687500, 0.162109375, 0.085937500, 0.052734375, 0.023437500, -0.138671875, 0.023437500, -0.117187500, 0.195312500, -0.203125000, -0.203125000, 0.066406250, 0.064453125, 0.064453125, 0.224609375, 0.015625000, -0.064453125, 0.160156250, -0.173828125, -0.142578125, 0.236328125, -0.042968750, 0.082031250, 0.181640625, 0.169921875, 0.119140625, -0.105468750, -0.027343750, -0.183593750, -0.021484375, 0.001953125, -0.060546875, 0.251953125, 0.126953125, -0.042968750, 0.175781250, 0.001953125, 0.121093750, -0.242187500, 0.064453125, 0.027343750, 0.195312500, 0.169921875, -0.119140625, -0.001953125, 0.128906250, 0.039062500, 0.107421875, -0.037109375, -0.187500000, 0.029296875, 0.009765625, -0.138671875, 0.001953125, -0.023437500, 0.080078125, 0.054687500, -0.033203125, -0.210937500, -0.031250000, 0.082031250, -0.154296875, 0.166015625, 0.109375000, -0.023437500, 0.082031250, -0.058593750, -0.541015625, -0.099609375, -2.369140625, -0.394531250, 3.576171875, -0.011718750, 0.115234375, -0.058593750, 2.574218750, -2.142578125, 0.386718750, 0.085937500, 0.103515625, 0.050781250, -0.804687500, 3.898437500, 2.976562500, -0.244140625, -0.179687500, 0.785156250, -2.546875000, 3.199218750, -0.980468750, -0.259765625, -1.599609375, 0.054687500, 0.169921875, -2.351562500, 0.250000000, -0.033203125, -0.070312500, -0.236328125, -0.091796875, 0.041015625, 0.144531250, -0.103515625, 0.082031250, 0.015625000, -0.074218750, 0.169921875, 0.000000000, 0.041015625, -0.021484375, 0.019531250, -0.117187500, -0.015625000, 0.007812500, -0.015625000, 0.060546875, -0.134765625, -0.097656250, 0.021484375, -0.226562500, 0.228515625, 0.021484375, -0.001953125, -0.521484375, 0.054687500, -0.044921875, 1.144531250, 5.689453125, -0.072265625, 0.068359375, -3.218750000, 3.941406250, -3.400390625, 4.296875000, 0.250000000, 0.115234375, 0.083984375, -1.107421875, 6.267578125, 4.380859375, -1.904296875, -0.056640625, 1.085937500, -4.619140625, 5.060546875, -2.488281250, -0.847656250, 0.089843750, 0.175781250, -0.074218750, -3.884765625, 0.156250000, 0.173828125, -0.833984375, 0.240234375, 4.291015625, -0.023437500, 0.005859375, 0.025390625, 3.171875000, -2.712890625, 0.625000000, 0.052734375, -0.613281250, -1.492187500, -0.972656250, 4.169921875, 0.488281250, -0.687500000, 0.082031250, 3.720703125, -3.382812500, 3.773437500, -0.064453125, -1.318359375, -0.175781250, 0.990234375, 0.085937500, -3.939453125, -4.603515625, 2.386718750, -0.837890625, 4.031250000, -0.044921875, -2.615234375, 1.398437500, 1.228515625, 9.349609375, 4.113281250, -3.453125000, 2.496093750, 0.841796875, 1.085937500, 2.148437500, 4.599609375, 2.917968750, -0.210937500, -5.078125000, 3.396484375, 0.431640625, 7.980468750, -0.490234375, -1.978515625, 1.884765625, -0.699218750, 1.623046875, -4.488281250, 1.751953125, -0.238281250, -0.033203125, -1.355468750, -3.205078125, -0.015625000, -0.082031250, -0.062500000, -2.767578125, 2.164062500, -0.937500000, -0.216796875, 3.988281250, 0.193359375, 0.173828125, -4.447265625, -0.787109375, 0.193359375, 0.107421875, -0.396484375, 2.658203125, -3.166015625, 0.017578125, 0.949218750, -0.087890625, 0.068359375, -0.208984375, 0.148437500, 0.115234375, 0.199218750, -0.103515625, -0.095703125, 0.005859375, -0.156250000, 0.013671875, 0.009765625, 0.187500000, -0.064453125, -0.216796875, -0.005859375, -0.033203125, 0.068359375, 0.138671875, 0.035156250, 0.226562500, 0.115234375, 0.064453125, -0.119140625, 0.207031250, 0.042968750, 0.076171875, 0.156250000, -0.076171875, 0.132812500, -0.072265625, 0.005859375, 0.248046875, 0.066406250, -0.054687500, -0.246093750, 0.125000000, -0.005859375, 0.076171875, 0.250000000, 0.203125000, -0.173828125, -0.021484375, 0.240234375, -0.177734375, 0.005859375, -0.105468750, 0.236328125, -0.056640625, -0.039062500, 0.000000000, -0.042968750, -0.072265625, 0.091796875, -0.031250000, 0.091796875, 0.140625000, 0.025390625, 0.048828125, -0.136718750, 0.000000000, 0.105468750, -0.189453125, 0.076171875, -0.058593750, 0.031250000, 0.218750000, 0.001953125, 0.001953125, 0.189453125, -0.013671875, 0.085937500, -0.011718750, 0.140625000, 0.101562500, 0.183593750, 0.187500000, -0.068359375, -0.193359375, 0.035156250, -0.003906250, 0.195312500, 0.021484375, 0.064453125, 0.082031250, -0.154296875, 0.015625000, -0.031250000, -0.226562500, 0.134765625, -0.167968750, -0.042968750, -0.056640625, -0.019531250, -0.105468750, 0.021484375, -0.089843750, 0.042968750, -0.226562500, -0.060546875, -0.173828125, -0.029296875, 0.105468750, 0.060546875, -0.130859375, 0.039062500, 0.253906250, 0.083984375, 0.257812500, 0.054687500, -0.257812500, -0.041015625, -0.177734375, 0.031250000, -0.066406250, 0.052734375};

#endif

#endif
