//Numpy array shape [9, 9, 1, 3]
//Min -5.300781250000
//Max 9.607421875000
//Number of zeros 0

#ifndef W2_H_
#define W2_H_

#ifndef __SYNTHESIS__
weight2_t w2[243];
#else
weight2_t w2[243] = {-1.109375000, 0.066406250, -3.574218750, -2.343750000, -0.582031250, -2.814453125, -0.533203125, 1.642578125, 0.802734375, -0.531250000, 0.103515625, 0.662109375, -0.261718750, 0.808593750, -3.828125000, 0.289062500, 0.408203125, 3.009765625, -0.121093750, 1.312500000, 0.216796875, 0.755859375, 2.939453125, -0.652343750, -0.921875000, 0.359375000, -0.953125000, -1.607421875, 0.001953125, -0.921875000, -0.125000000, 0.257812500, 0.031250000, 2.195312500, 2.248046875, -0.705078125, -0.072265625, 0.179687500, 0.125000000, 0.097656250, 0.210937500, 0.513671875, 0.076171875, 0.048828125, 0.246093750, 0.009765625, -0.199218750, 0.257812500, 3.111328125, 3.181640625, 2.859375000, -1.703125000, -1.824218750, 0.748046875, -0.068359375, 0.314453125, 0.144531250, -1.500000000, -0.531250000, -3.445312500, 1.882812500, 2.042968750, 3.693359375, -0.275390625, 0.425781250, 0.406250000, 6.138671875, 1.554687500, 1.189453125, 1.248046875, 0.482421875, 2.050781250, 1.048828125, 2.339843750, 3.875000000, 2.480468750, 1.376953125, 1.726562500, -0.548828125, 1.091796875, 0.306640625, 1.792968750, 1.648437500, 0.576171875, 0.001953125, 0.130859375, -0.318359375, 0.216796875, 0.283203125, -0.755859375, -0.333984375, -0.210937500, 0.042968750, 0.083984375, 0.033203125, -1.761718750, -0.021484375, -0.064453125, -0.109375000, -0.330078125, 0.966796875, -0.468750000, -0.011718750, -0.166015625, -0.197265625, 0.339843750, -0.156250000, -2.400390625, -0.257812500, 1.033203125, -3.445312500, -1.722656250, -0.240234375, -2.718750000, 0.439453125, 2.150390625, 1.119140625, -0.308593750, 1.562500000, 1.087890625, 8.476562500, 7.089843750, 9.607421875, 1.050781250, 2.867187500, -0.693359375, 0.154296875, 3.392578125, 0.623046875, -1.386718750, 0.830078125, 1.259765625, -0.087890625, 1.435546875, -1.457031250, 3.464843750, 3.054687500, 4.261718750, 0.097656250, 0.136718750, 0.111328125, -0.158203125, -1.207031250, 2.177734375, -0.087890625, -0.091796875, 0.093750000, -0.582031250, -2.171875000, 0.185546875, 0.019531250, 0.062500000, 0.302734375, 2.267578125, 2.835937500, 0.896484375, -0.337890625, 0.058593750, -0.253906250, -0.625000000, 0.597656250, -0.931640625, -1.232421875, 0.601562500, -0.347656250, -0.687500000, -1.224609375, -1.490234375, 0.388671875, 2.263671875, 3.410156250, 1.994140625, 2.011718750, -0.896484375, 1.113281250, 4.285156250, 2.656250000, 1.572265625, 2.085937500, 0.511718750, 0.490234375, 1.992187500, 3.339843750, 0.363281250, 0.978515625, -1.261718750, 0.134765625, 0.466796875, 0.453125000, 0.701171875, 1.003906250, 7.585937500, 2.824218750, 2.753906250, 2.750000000, 1.115234375, -0.685546875, -1.142578125, 0.197265625, 0.125000000, 0.083984375, 0.820312500, -1.281250000, -0.007812500, 0.210937500, 0.017578125, 0.042968750, -0.318359375, -1.628906250, -3.011718750, -0.173828125, -0.066406250, 0.130859375, 1.357421875, -0.900390625, 3.474609375, -0.154296875, 0.402343750, 0.027343750, -0.373046875, 1.589843750, -1.515625000, 0.265625000, -0.021484375, -0.195312500, -0.259765625, 1.894531250, -0.275390625, 0.382812500, -0.091796875, -5.300781250, 1.447265625, -0.236328125, 1.402343750, 0.113281250, 0.333984375, -0.226562500, -0.179687500, -1.296875000, -0.632812500, -0.074218750, 0.732421875, -0.417968750};

#endif

#endif
